2708 64
24 0.036672 -0.224305 -0.027924 0.233147 -0.031107 -0.272770 -0.069050 -0.037177 -0.173730 0.747272 0.118352 -0.345696 -0.237611 0.434927 0.280805 0.022986 0.020409 0.083255 0.351521 0.167683 -0.204106 -0.322468 0.635894 0.349090 0.169454 -0.063935 0.275620 -0.304300 -0.092705 -0.139840 0.392383 0.215272 0.044360 -0.053984 0.328317 -0.342437 0.351748 0.079054 -0.435399 0.188136 -0.062486 -0.396784 0.390775 -0.084619 -0.050085 0.033040 0.302120 -0.106631 0.282153 -0.231510 0.520043 0.077925 -0.295559 0.384841 -0.070736 0.223687 0.118068 -0.182531 -0.323041 -0.039840 0.029492 0.383800 -0.126345 0.463216
927 0.022789 -0.213672 0.156770 -0.313820 0.649982 0.033684 0.206525 0.072341 -0.569865 -0.103785 -0.317724 0.408323 -0.554208 -0.059782 -0.451183 0.287993 0.974778 -0.188614 -0.192910 0.097599 0.259011 -0.488305 -0.119002 0.059700 -0.218908 0.562638 -0.654661 0.015414 -0.264947 -0.456310 -0.034420 0.566074 0.740537 0.267646 0.157177 -0.115186 -0.087969 0.003784 -0.125695 0.088036 -0.133284 0.319804 -0.426233 0.343060 0.035446 -0.386826 0.016241 0.330457 0.358706 -0.535704 0.091296 -0.175507 -0.792802 0.614124 -0.311262 -0.402851 -0.336963 0.177758 0.231570 0.087775 0.210946 -0.202644 -0.039040 0.250104
1423 -0.358218 0.020021 -0.017542 -0.271670 0.531517 0.272369 0.188141 0.486345 -0.525720 0.545669 -0.014146 0.235728 0.197135 0.070936 0.702581 0.139996 0.429546 -0.560312 0.288124 -0.112417 0.171618 0.292561 -0.348732 0.046683 0.067785 -0.107385 -0.043286 -0.060812 -0.157631 -0.713846 -0.623011 -0.445573 -0.141853 -0.364600 -0.226171 -0.016741 0.276694 -0.040898 0.276200 0.330184 -0.151845 -0.024516 0.236623 -0.393666 -0.061547 -0.075394 0.143791 0.257766 -0.065164 0.430117 0.027610 -0.103840 -0.567856 -0.043783 0.599697 -0.331463 -0.405206 0.195839 -0.093489 -0.417326 -0.018905 0.273995 0.134146 -0.035788
2154 0.052707 -0.294993 0.293054 -0.338485 -0.145713 0.048838 0.028259 -0.477560 -0.174280 0.002874 -0.529549 0.091938 -0.827534 -0.300198 -0.106110 0.187204 0.389874 -0.570865 -0.300238 -0.012666 0.419854 -0.246310 0.362914 0.427112 -0.416935 0.319376 0.037989 0.334014 0.110551 -0.738167 -0.085108 0.453102 0.236469 -0.646800 0.000308 0.395821 -0.120128 -0.384821 -0.539177 0.414243 -0.111441 0.036724 0.007496 -0.327818 -0.448933 -0.496846 0.136107 0.353686 0.057738 -0.286107 -0.175675 -0.005747 0.131389 -0.068630 -0.516902 -0.081973 0.228942 0.235896 0.168735 0.205690 0.253005 -0.038420 0.641452 0.164380
619 -0.068612 -0.225771 0.074076 -0.054096 -0.279704 0.003397 0.238481 -0.146137 0.109634 0.007659 0.128717 0.015808 -0.213779 0.653408 -0.146708 0.018665 0.700729 -0.285523 -0.024282 -0.374972 0.110797 -0.149159 -0.469293 -0.017271 -0.345559 -0.465019 -1.190869 0.313542 0.515632 -0.505207 0.461743 -0.194291 0.607347 -0.048115 0.158368 0.488724 0.453911 0.307751 0.046727 0.161182 -0.096313 0.146889 -0.188219 0.267122 0.026755 0.148908 -0.760275 0.364940 0.548707 -0.023186 0.052909 0.654345 0.075014 0.066383 0.174623 -0.304681 0.169945 0.314450 0.523662 -0.151557 0.400050 -0.106596 0.421292 0.344276
161 0.057504 -0.575501 0.416613 -0.271405 -0.013840 0.000026 -0.176644 0.437834 -0.199122 0.195507 -0.115203 0.623668 -0.071442 0.038982 0.191256 -0.128221 0.450529 0.462750 -0.240635 0.222654 -0.002752 0.139771 -0.046702 0.655232 0.111467 -0.032696 -0.812879 -0.020642 0.337175 -0.184140 -0.518947 -0.126382 0.235758 0.200787 -0.362578 0.272362 0.328005 0.792233 0.051083 -0.568904 0.453753 0.030535 0.345603 0.285905 0.140353 -0.340968 -0.431673 0.643662 -0.321060 -0.175050 0.277060 0.878813 0.073593 -0.018301 -0.149763 0.475389 -0.157344 -0.437317 0.155811 -0.107433 0.531256 -0.116047 0.322629 0.193042
82 -0.377244 -0.249210 0.282960 -0.172589 0.655117 0.103980 0.109992 0.523768 -0.075237 0.382335 -0.238612 0.312769 0.322634 -0.040529 0.759095 -0.484404 0.385921 -0.506671 0.388566 -0.330761 0.251224 0.117451 -0.772839 -0.290991 0.202170 -0.129447 -0.148820 -0.192704 -0.082420 -0.979974 -0.419376 -0.886667 0.133101 -0.326033 0.013365 -0.113944 -0.294497 -0.226264 0.252846 0.886291 -0.074036 0.034457 0.313610 -0.508981 0.483082 -0.161283 0.303650 0.626135 -0.332216 0.351503 -0.332434 -0.119503 -0.493915 0.243217 0.517365 0.004670 0.130460 0.283012 -0.126464 -0.386054 -0.043396 0.548838 0.298003 0.046876
2156 0.193828 0.319319 -0.376758 0.119711 0.314590 -0.169790 -0.273490 -0.355448 -0.461166 -0.120981 0.331493 -0.292666 0.182325 -0.270014 0.162224 -0.421859 0.196997 0.306062 0.042179 -0.659790 -0.190056 -0.044600 -0.069433 0.055154 -0.136834 0.334595 0.252375 -0.650786 0.670474 -0.577956 0.164491 0.199432 -0.369882 -0.040599 -0.483294 -0.525401 0.230542 -0.247283 -0.061558 -0.559529 -0.439641 -0.430021 0.149919 -0.080971 0.459678 -0.497232 -0.067353 -0.181534 0.481768 0.020456 0.005999 0.544314 0.130016 -0.771747 -0.560057 0.231237 0.250339 -0.221668 0.172393 0.215832 0.713588 -0.624448 0.401240 0.007600
2021 0.765192 0.209204 0.060720 -0.018496 -0.074700 0.692711 0.120823 0.116805 -0.501457 0.303835 0.238648 -0.000807 -0.760675 -0.031502 -0.292695 -0.008007 0.728971 -0.499821 -0.605393 0.368587 0.297319 -0.334730 -0.189511 0.414950 -0.432053 0.355164 -0.337979 0.246138 -0.157273 -0.529437 -0.191374 -0.355108 0.538169 -0.052527 -0.220775 0.145809 0.167751 0.575406 -0.663104 -0.008061 -0.904855 0.772024 -0.540088 -0.009818 0.263106 0.023628 -0.253078 -0.055790 0.290916 0.076191 -0.290102 -0.520707 -0.392259 0.167129 -0.409045 0.073691 -0.141312 -0.195155 0.748993 0.159291 -0.174148 -0.205685 0.083290 0.403095
864 -0.258350 0.135110 -0.042100 -0.094644 -0.090507 0.084694 -0.156580 0.030050 -0.105301 0.193412 -0.215761 0.323255 0.335002 -0.029414 0.377668 0.391074 -0.534077 -0.119785 0.039307 -0.307219 0.402051 0.043272 -0.459224 0.061163 0.054080 0.358723 -0.390510 -0.158887 -0.587657 -0.100063 0.380778 0.014595 -0.594514 -0.035119 0.317881 -0.293978 0.446891 -0.564284 0.708946 -0.214498 0.103124 -0.393769 0.535670 0.127247 -0.498036 -0.241674 0.746932 -0.063927 0.335253 -0.092140 -0.166999 0.014336 -0.570107 -0.251860 -1.047081 0.219800 -0.119340 -0.285312 0.592606 -0.438083 0.618675 -0.449996 0.016671 -0.280620
1631 -0.196784 0.455710 -0.221607 0.141073 -0.783457 -0.734891 -0.052348 0.496976 0.278633 -0.611742 -0.064231 0.728827 0.074639 -0.603422 0.722440 -0.057375 0.046311 0.259042 0.380864 0.053112 0.296167 -0.686367 0.093590 -0.132486 -0.118319 0.301558 -0.113332 0.265228 -0.287355 -0.415259 0.132170 0.547796 -0.637313 -0.360911 -0.065690 -0.206068 0.563968 0.249363 0.410062 -0.598861 -0.295709 -0.113695 -0.362596 0.624667 -0.271400 0.097946 0.513583 -0.356531 -0.185214 0.281269 0.295766 0.458661 -0.382606 -0.679464 -1.011318 -0.218915 -0.240406 -0.158896 -0.245956 -0.605106 -0.278281 -0.338175 0.043103 -0.164307
320 -0.134123 -0.040931 0.034157 -0.729418 0.850765 0.282060 0.126617 0.216823 -0.282801 0.381118 -0.119191 0.026133 0.041268 0.189262 0.437390 0.019858 0.588340 -0.382658 0.138451 -0.217640 0.123334 0.120830 -0.511101 -0.052672 -0.410199 0.073593 -0.015782 -0.317853 -0.091635 -0.849992 -0.477535 -0.335234 0.046714 -0.371071 -0.139608 -0.471844 0.080759 0.156967 0.368593 0.052834 0.185701 0.267249 0.180811 -0.137750 -0.446181 0.022975 0.390912 0.469998 0.369743 -0.319928 -0.126050 -0.371091 -0.801122 0.393885 0.102875 -0.318008 -0.124666 0.001981 0.337073 -0.226630 0.083059 -0.216214 0.076828 0.454511
1567 -0.303813 -0.245941 0.258297 0.163518 0.041742 -0.013024 0.284402 0.501096 0.253423 -0.478836 -0.684415 0.334175 -0.374173 0.357227 -0.384344 -0.344141 0.892099 -0.328546 0.054932 -0.363077 0.111497 -0.266770 -0.425751 0.437633 -0.077985 0.152176 -0.350926 0.379856 0.744645 0.275617 0.371167 0.231191 -0.124518 -0.636386 -0.507416 0.011128 -0.055292 0.293360 -0.379324 0.585031 0.653728 -0.567517 0.280434 0.277753 0.080962 -0.413741 -0.866204 0.052563 0.091178 0.231441 -0.321083 0.189810 0.226350 -0.658977 -0.288765 0.756849 0.351266 0.255526 0.222280 -0.173024 0.248392 0.136643 0.096310 0.304004
830 -0.274702 0.204963 -0.231209 -0.055727 0.317966 -0.033386 0.043337 0.024192 -0.869732 0.381702 -0.078033 -0.128003 -0.338815 0.484250 0.199360 -0.117264 0.306277 -0.355202 0.094033 0.057867 0.462791 -0.307065 -0.003053 0.315435 0.295210 -0.029452 0.696537 0.440347 -0.222463 -0.006360 -0.583579 -0.211456 -0.285740 -0.125376 -0.148322 -0.288490 0.508906 0.305928 0.301555 0.310012 -0.130150 -0.066518 0.564888 -0.236684 0.007741 -0.322178 0.540475 -0.195239 0.127126 0.464672 0.417401 0.046328 -0.710493 0.263683 0.506579 -0.445793 -0.258251 0.209129 -0.077959 0.071857 -0.072852 0.301639 0.259976 -0.634041
273 -0.369654 -0.018926 0.323705 -0.484241 0.884018 0.211895 0.201410 0.249393 0.119358 0.195828 0.116714 0.099560 0.064529 0.116336 0.477138 -0.158635 0.638025 -0.144096 -0.030843 -0.054660 0.001324 -0.011553 -0.638091 -0.260814 0.228838 0.235292 0.341904 0.015253 -0.204858 -0.880721 -0.564700 -0.438785 0.159732 -0.604853 -0.111457 -0.235794 0.445769 -0.018948 0.709350 0.637870 -0.288432 -0.189597 0.176538 -0.123354 -0.432480 -0.025448 0.400460 0.390111 0.306813 -0.379471 -0.112302 0.047122 -0.500739 0.011754 0.026187 0.013857 -0.253980 0.298377 0.044553 0.201889 0.187134 0.075774 -0.143888 0.279476
1780 0.558146 0.435398 0.309462 0.403975 1.014127 -0.323305 -0.258063 0.226174 -0.545962 -0.294306 -0.140170 0.549728 -0.247444 -0.323750 -0.961162 -0.418572 0.673871 -0.615897 0.021014 0.371035 0.103747 -0.187747 0.640871 0.247537 -0.466480 -0.904796 -0.387467 -0.486296 -0.902994 0.499315 0.102829 -0.001121 0.162506 0.120479 -0.315978 0.256094 -0.245791 1.191837 0.593137 0.386762 -0.635338 -0.021823 -0.439346 -0.186044 -0.046960 -0.626930 0.345681 -0.134031 0.351286 -0.563402 -0.476102 0.146703 -0.013896 0.504432 -0.464055 0.499905 0.220754 0.172396 0.046344 0.316498 -0.439340 -0.641558 0.475368 -0.336757
2529 -0.687864 0.422346 0.357788 -0.067281 0.214794 -0.243463 0.144204 -0.172429 -0.739150 -0.370952 -0.184136 0.034072 0.312379 0.180848 0.375238 -0.247375 0.034796 0.497412 -0.298665 0.438170 0.171982 0.820338 0.876284 0.135741 -0.196868 -0.229505 0.180635 0.223269 0.831635 -0.885405 -0.725884 -0.579502 -0.339838 0.779561 1.260029 -0.467639 0.157877 -0.321738 0.157655 0.093428 -1.207329 0.231198 -0.167081 0.670863 -0.150589 -0.059051 -0.204222 -0.608290 -0.307414 -0.555977 -0.841467 -0.914912 -0.830297 -0.538291 -0.272233 0.346800 0.111227 -0.221114 0.051426 0.089579 0.070311 0.109145 -0.376892 -0.067941
21 -0.680548 0.483512 -0.551213 0.399141 -0.370374 0.481680 0.207018 0.528787 0.373819 -0.116718 -0.381323 0.856215 -0.000246 -0.875326 0.539961 0.231011 0.197809 0.211214 -0.261755 -0.288460 0.171717 -0.497855 -0.090900 -0.477492 -0.029337 0.623366 0.117818 -0.472726 -0.128749 -0.176088 0.245774 0.418519 -0.254834 -0.222480 1.011453 -0.357066 -0.215494 0.297579 -0.065220 -0.014930 -0.056765 -0.138719 0.470845 -0.208802 0.187358 0.425036 0.167141 -0.189004 -0.173840 0.050116 0.077965 0.395275 -0.373630 -0.335661 -0.809954 0.119465 0.306459 -0.136793 0.449575 -0.041975 0.219697 0.062805 0.259894 -0.567358
2639 0.450250 0.248446 -0.495523 -0.476008 -0.304149 -0.122434 0.525165 -0.661236 0.671012 -0.550363 -0.416598 -0.061645 -0.504487 -0.837144 0.500951 -0.896857 -0.441803 -0.301842 -0.700448 0.629575 -0.216002 -0.092741 -0.134835 -0.450181 0.128292 0.505722 -0.513413 -0.675497 0.521519 -0.107226 -0.267764 -0.103085 0.413930 -0.290431 0.067966 0.233369 -0.049907 -0.337670 0.459240 0.241931 0.194920 -0.124181 0.387393 0.133154 -0.523953 -0.292359 0.306696 -0.121733 -0.596308 0.131875 0.088845 -0.411610 -0.174702 0.705886 -0.236193 0.605034 -0.276049 -0.252707 0.279630 -0.884255 -0.568318 0.389410 -0.765618 -0.156235
684 0.032652 0.408970 -0.287089 0.685144 -0.049594 -0.161299 -0.024361 -0.127996 0.156840 0.458596 0.093498 -0.333030 -0.255495 0.320046 0.510936 0.076294 -0.185713 -0.021131 0.612954 0.036530 -0.077646 -0.538167 0.492401 0.298261 0.089237 -0.362455 -0.611770 -0.316403 0.271563 0.101898 0.664995 0.356860 -0.302984 -0.251166 0.054494 -0.297208 0.908913 0.012091 -0.659515 0.632110 -0.035393 -0.683893 -0.055076 -0.206817 -0.133194 0.182980 0.577129 -0.617859 0.132163 -0.025212 1.148150 -0.092886 -0.755444 0.472860 0.209632 0.460483 0.591957 -0.260957 -0.550487 0.100756 0.194431 0.884381 0.091563 0.231841
340 0.544888 0.044432 -0.590675 0.146727 -0.463529 0.055156 -0.145302 0.493408 -0.444240 0.050889 -0.466751 0.218323 0.891943 -0.025000 1.196215 0.175685 -0.052825 0.188405 -0.206751 0.095531 0.901079 -0.059137 -0.591836 -0.068232 0.283946 0.028788 -0.398759 0.048627 0.182264 -0.253300 -0.071771 0.688185 -0.032447 0.148172 0.413500 -0.448990 0.134615 0.409371 0.409198 0.468070 -0.836051 0.437837 0.397939 0.312248 0.280348 -0.086807 0.991875 0.095851 0.152582 0.214587 -0.623707 -0.489387 0.047462 -1.140120 0.402353 -0.204046 0.584465 -0.346766 0.610318 -0.087486 0.549360 0.242355 -0.246717 -0.205796
45 0.358652 0.132437 0.266943 -0.085635 0.096397 -0.468328 0.345986 -0.258217 0.275946 0.009659 -0.144090 -0.195965 -0.679935 -0.406026 -0.612947 -0.141927 -0.518889 -0.327414 -0.456003 -0.068107 -0.546838 -0.085680 -0.144652 -1.003151 0.301910 -0.251340 -0.381080 -0.592828 0.119570 0.134461 -0.376329 -0.059632 0.209720 0.066101 0.016427 0.090817 0.740234 0.036939 0.393094 -0.178374 0.339685 -0.316220 0.161971 -0.046467 -0.465780 -0.608762 -0.043053 -0.213328 -0.565170 -0.010134 -0.332818 -0.389895 -0.319222 0.147827 -0.464209 0.228817 -0.373847 -0.376638 0.138415 -0.261203 0.301800 0.445386 -0.300564 -0.661368
1319 0.440348 -0.135654 -0.172661 -0.360178 0.454134 -0.030826 -0.296380 -0.295821 -0.692322 -0.740088 0.109366 -0.563446 0.042481 -0.009789 -0.070427 -0.489630 -0.556178 0.012109 -0.077599 -0.659293 0.058537 0.054191 -0.103695 -0.372923 0.320340 0.108561 -0.167608 -0.462439 0.511304 -0.535407 0.282154 0.269025 -0.418444 -0.077867 -0.039207 -0.214202 0.165632 -0.706191 0.252292 -0.173567 -0.359283 -0.706909 0.297840 -0.341767 -0.289926 -0.316518 0.139206 -0.264457 0.078340 0.238762 -0.135345 0.666071 -0.084365 -0.663127 -0.560631 0.451540 0.164212 -0.246449 0.346390 0.502435 0.909270 -0.632457 0.173999 -0.465226
1164 -0.645543 0.090412 -0.545223 -0.421299 -0.038920 -0.182865 -0.428734 0.117253 0.189697 0.206253 -0.152234 0.432254 -0.058821 -0.352239 0.233534 0.602806 -0.414738 0.107815 -0.176076 -0.441899 0.415011 0.012756 -0.736430 0.013755 -0.343936 -0.036793 -0.515383 -0.615904 0.600852 -0.039049 0.616723 -0.023778 0.623430 -0.525799 0.599871 -0.259999 -0.412888 0.411655 0.169477 -0.115292 -0.520576 -0.547636 0.291512 0.253584 0.272184 0.238284 0.091296 -0.039422 -0.159688 -0.353707 0.126958 -0.255966 0.018973 -0.413795 -0.499734 -0.169667 -0.367915 -0.642253 0.130010 -0.558284 0.133592 -0.014719 0.528311 -0.089609
2084 0.519192 0.632807 -0.290402 -0.293144 -0.122773 -0.206962 0.462470 -0.422275 -0.615996 -0.462914 -0.051891 -0.163760 -0.183656 -0.495781 -0.923528 -0.635647 -0.393137 -0.357674 0.084865 0.365318 0.032259 0.382300 -0.232323 -0.982109 0.290979 0.051335 -0.528663 -0.414205 0.600261 0.249719 -0.432558 -0.512431 0.021331 0.244994 0.057888 -0.420589 0.467369 -0.106430 -0.065482 0.158527 0.373702 -0.858093 0.780583 0.242187 -0.642204 -0.215770 0.260979 -0.477239 -0.237493 -0.123477 -0.531223 0.594706 -0.341980 0.085969 -0.276623 0.055749 -0.213507 -0.169148 -0.420433 -0.220312 0.537308 0.302755 0.131398 -0.870968
1144 -0.119308 -0.447156 -0.104253 -0.569813 0.706669 -0.324979 -0.367902 0.135935 -0.796681 0.743660 -0.203113 -0.575230 0.125878 0.006786 0.288832 0.298612 0.101172 -0.369963 0.011790 0.363512 -0.007145 -0.184126 -0.127484 0.675807 0.227970 -0.282411 0.453320 0.240073 -0.465181 -0.178971 0.026166 -0.758768 -0.196822 -0.127598 0.247674 -0.764589 0.394569 0.477224 -0.781041 -0.275874 -0.026159 -0.372396 0.101073 -0.313602 0.566480 0.114329 0.497974 -0.432746 -0.500542 -0.017446 0.177961 -0.121328 -0.631040 0.077096 0.206340 -0.239068 0.332818 -0.068309 -0.657992 -0.024940 0.834545 0.084900 -0.691453 -0.012148
1791 0.149657 0.647442 1.035421 0.379695 -0.629609 -0.549314 0.096940 0.059692 0.483414 -0.080468 -0.312064 -0.234212 -0.417411 -0.319682 -0.179788 -0.194531 -0.201310 -0.873544 -0.507390 -0.248982 -0.371273 0.075117 -0.158317 0.046329 -0.046292 0.086067 0.219647 -0.372004 0.462071 -0.161433 -0.436772 -0.430449 0.984924 -0.701912 0.133582 0.493047 0.108912 0.599967 -0.006730 0.216885 0.071268 0.133839 0.963571 -0.369288 0.310582 -0.104573 -0.274582 0.487774 0.639829 0.273979 1.360840 -0.311318 -0.654704 -0.716876 -0.063432 0.291582 -0.513115 1.087883 0.657335 0.023180 0.089084 -0.013536 -0.512104 -0.168605
2013 -0.461929 0.099036 -0.079977 0.568697 -0.289724 0.557762 0.071639 0.111627 0.505002 -0.135508 0.436965 0.280241 0.053203 -0.549291 0.581243 -0.846360 0.550416 0.004400 -0.068760 0.053059 0.884051 -0.192540 0.183052 -0.536452 -0.281142 -0.254488 -0.142396 -0.070421 0.317499 0.224144 -0.119672 -0.985260 -0.217426 -0.049466 -0.437420 0.112174 0.160264 -0.245926 0.108128 0.584212 0.437854 -0.021601 -0.343780 0.466652 -0.955831 0.204943 -0.451129 0.466406 -0.395766 -0.759421 0.966786 -0.884031 0.290330 0.118221 -0.165984 -0.429840 0.439737 0.040635 0.156070 0.290694 0.257805 -0.396946 -0.891020 -1.005812
1341 0.707140 0.939790 -0.143753 0.627695 1.224709 -0.480358 -0.687954 0.728312 -0.320631 -0.457321 -0.061613 0.512926 -0.128513 -0.003872 -1.012586 -0.234803 0.276003 -0.324628 0.272627 0.749291 0.217072 -0.364398 0.667430 -0.141138 -0.584041 -1.095339 -0.538272 -0.431070 -1.168156 0.570428 -0.261276 0.214395 -0.125261 0.070303 -0.329497 0.062191 0.072101 1.344099 0.362439 0.194034 -0.372363 -0.361630 -0.193658 -0.238328 -0.041979 -0.304379 0.143688 0.112009 1.100236 -0.806911 -0.508412 0.361015 -0.077880 0.161336 -0.103847 0.635841 0.458115 0.228685 0.309389 -0.164486 -0.998366 -0.689202 0.963970 -0.756352
2148 -0.621620 0.245166 -0.865378 -0.486266 -0.191880 0.026318 -0.769215 0.059565 0.069183 0.036033 -0.394350 0.165112 0.220571 -0.598677 0.068352 0.187159 -0.504770 -0.234659 -0.404584 -0.293990 0.346685 0.345304 -0.646332 -0.671112 0.251104 -0.069318 0.190959 -0.192608 0.915994 0.022186 -0.340398 -0.185735 0.038824 -0.425303 0.047261 -0.539982 -0.447877 1.017050 0.191683 -0.565170 -0.232582 -0.672997 0.361830 0.026905 0.451283 -0.054324 -0.227576 -0.367805 0.585484 -0.264924 1.063308 0.016577 -0.462609 -0.558029 -0.624303 -0.158942 0.034863 0.083107 0.216464 0.445414 0.416674 -0.456116 0.237061 0.487541
163 0.451638 -0.226722 0.866159 -0.108452 0.084873 -0.458429 -0.306245 0.771146 -0.088243 0.050100 0.180512 0.066880 -0.097220 -0.997068 -0.165284 0.176377 0.384990 -0.289167 0.490112 0.049838 0.540146 -0.083557 -0.050432 0.659937 0.277984 0.101040 -0.785138 0.328636 0.425396 -0.667413 0.086738 -0.210062 -0.199090 -0.707559 -0.177491 0.679023 0.529505 0.693881 0.281617 0.093050 0.605554 0.229076 0.958052 0.597293 -0.139696 -0.125435 -0.854721 0.528358 -0.421803 0.185725 -0.096005 0.109152 0.665472 0.033349 -0.407450 0.571874 -1.042423 -0.208654 0.438408 -0.002365 -0.016072 -0.448250 -0.152609 0.133898
1770 0.207292 -0.345232 -0.536718 -0.058293 -0.074777 0.217590 0.700324 -0.377317 -0.541318 -0.050424 0.056305 0.523698 -0.763219 -0.278734 0.155110 -0.723542 -0.528381 -0.455651 -0.813868 0.275862 0.230191 0.024870 -0.015926 -0.380977 -0.445687 0.638449 -0.118721 -0.510025 0.344011 -0.350045 0.505841 -0.171862 -0.362404 -0.329768 -0.090820 -0.340135 -0.210938 0.064131 0.313166 -0.174906 -0.303123 0.059776 0.879800 -0.224494 0.178966 -0.006843 -0.063944 -0.580012 -0.812578 -0.186836 0.347028 0.387024 0.200327 -0.154163 0.082446 0.346266 -0.075820 -0.613540 0.149820 -0.902377 -0.597203 0.443501 -0.746023 -0.144958
567 0.671677 0.582827 0.065036 0.453235 1.118881 -0.275714 -1.002154 0.781200 -0.783047 -0.011388 -0.127285 0.410499 -0.281639 0.102288 -1.009096 -0.573483 -0.353012 -0.294584 0.138541 0.523371 0.000745 -0.268105 0.311994 -0.132856 -0.520933 -0.956852 -1.087290 -0.411605 -1.110249 0.682641 0.044811 0.351114 -0.101715 0.088138 -0.608404 0.262893 -0.010662 1.448578 0.835737 0.022110 -0.631431 -0.421281 -0.477980 -0.294788 0.115929 -0.251831 -0.040749 0.368455 1.040929 -0.788022 -0.349694 0.445796 -0.075155 -0.021388 0.112015 0.439304 0.328087 0.463256 0.621712 -0.005075 -1.216616 -0.216907 0.625811 -0.882235
1125 0.024806 -0.402871 -0.112087 0.408974 0.107590 -0.581945 -0.084396 0.090452 -0.145652 1.467246 0.209507 -0.464901 -0.357803 0.079854 0.722453 0.059009 0.410631 0.197649 0.696831 0.278286 -0.558245 -0.841556 0.418932 0.302832 0.311991 -0.170280 -0.071668 -0.871936 -0.657907 0.036248 0.349934 0.095161 0.245534 -0.305110 0.698966 -0.435143 0.015073 0.862769 -0.769251 0.507633 0.008061 -0.347968 0.800206 -0.418502 -0.138499 0.449990 0.854505 -0.254687 -0.363919 -0.416090 0.485147 0.728534 -0.146481 0.323367 -0.289084 0.104445 0.172492 0.195565 -0.733891 0.543371 0.503759 0.605454 -0.100274 0.142276
2125 -0.500435 -0.631896 -0.268454 -0.316106 -0.920906 0.568693 -0.132646 -0.090332 -0.038383 -0.108489 0.508558 0.641295 -0.194264 -0.526311 0.425317 -0.829653 0.341828 0.726388 0.186710 -0.007749 0.436888 -0.475350 0.590702 -0.315938 -0.100066 0.470093 0.065073 0.232960 -0.045703 0.459840 -0.388357 -0.895853 0.115594 -0.378744 -0.721316 0.519383 0.009350 -0.084593 -0.027982 0.520475 0.827450 0.028247 0.072209 -0.170828 -0.240140 -0.380232 -0.853595 0.305923 0.499630 -0.783435 0.309731 -0.276060 0.094221 -0.639029 0.176757 0.131129 0.283796 -0.289385 0.531402 -0.245725 0.508839 -0.369046 -0.749839 -0.164793
611 0.371924 0.622049 1.464119 0.053159 0.216778 0.052470 0.091615 -0.559291 0.025926 0.306906 -0.145650 0.846785 -0.140839 -0.268367 -0.151600 -0.047297 0.034771 0.202335 -1.275041 -0.281112 0.289566 -0.479747 -0.555481 0.625381 1.216660 -1.085240 0.393230 0.804792 0.364093 0.852877 -0.405776 0.575411 0.281966 0.535522 -0.831394 -0.218020 -0.434037 -1.022805 0.664964 0.393133 0.266288 -0.382892 0.222996 -0.528867 0.851230 0.196271 -0.292546 0.205857 0.128108 -0.393291 0.422520 0.478406 0.038708 -0.150973 -1.375648 -0.572883 0.071383 -0.152163 0.495912 0.119148 0.140565 0.458699 -0.171190 0.800451
485 1.111490 0.212141 0.094809 -0.191675 -0.203239 0.004665 0.335886 -0.451730 0.104108 0.028879 -0.495757 0.279014 -0.286356 -0.721195 -0.442790 -0.327154 -0.620270 -0.149452 -0.311797 0.304853 0.297528 0.500251 -0.540409 -0.933686 0.145941 -0.158532 0.248746 -0.880571 0.229286 0.188489 -0.377814 -0.038092 0.349972 -0.381874 -0.103514 -0.065065 0.647383 -0.332663 -0.000690 0.409382 0.225640 -0.579906 0.507990 0.464142 -0.683742 -0.198870 0.114061 -0.541173 -0.395019 -0.010437 -0.079570 0.101147 -0.486154 0.458307 -0.192949 0.034496 -0.896067 -0.725349 0.002886 -0.063113 0.895312 0.195487 -0.051048 -0.583326
2176 -0.609574 0.193133 -0.807006 -0.135241 -0.149790 0.010013 0.424269 0.091111 0.138896 -0.277530 -0.475532 0.470035 0.139285 -0.997746 0.844924 -0.095205 -0.197381 -0.152780 -0.360899 0.019181 -0.214542 -0.715356 0.101487 -0.042392 -0.233195 0.024222 -0.598503 -0.412297 0.239658 0.061103 0.277649 0.373747 0.338413 -0.478600 0.071211 -0.221295 -0.142934 0.762217 0.194132 -0.704226 0.128907 -0.163237 0.345131 0.237707 0.286361 0.173012 0.199910 0.166320 -0.383470 -0.038838 0.173397 0.142302 0.126147 -0.431911 -0.806960 -0.120144 -0.339653 -0.135717 0.107027 -0.792761 0.222066 0.786254 -0.216623 -0.694076
2228 -0.429087 -0.160362 0.323328 -0.059741 -0.303868 0.128259 0.073313 -0.292487 -0.421149 0.395801 -0.349007 0.709687 0.296808 -0.416526 0.977200 -0.126968 0.381159 -0.233720 -0.090276 0.068476 -0.347459 -0.309578 -0.711438 -0.189816 -0.630947 0.022908 0.128704 -0.082775 -0.137115 -1.001544 -0.392448 0.679803 -0.538936 -0.257532 0.399240 -0.190696 -0.136942 0.204967 -0.050379 0.256563 -0.226600 -0.430002 0.509788 0.211114 -0.149560 0.313839 0.373867 -0.122405 0.560992 -0.143786 -0.271968 0.100811 -0.537469 -0.322180 -0.424926 -0.373746 0.143466 0.121770 0.216294 0.028450 0.438050 -0.056246 -0.353660 -0.458848
2286 0.310008 -0.384523 0.119039 0.515902 -0.127901 0.078989 0.099518 -0.444147 0.222332 0.746420 0.634194 -0.341542 -0.575792 0.991991 0.453567 0.188002 -0.300842 0.114899 0.451335 0.063921 0.050641 -0.200146 0.367309 0.561713 0.134104 -0.286495 -0.443898 -1.035965 -0.240055 -0.189152 1.064660 0.047746 -0.075048 -0.042125 0.318418 -0.241439 0.862752 0.392222 -0.750421 0.423949 -0.059086 -0.781200 0.337664 0.345259 -0.090462 0.010015 0.841324 0.072573 0.196684 0.179269 0.733031 -0.119196 -0.228241 0.489975 0.166358 0.381126 0.272891 -0.140034 -0.703486 0.309690 -0.136221 0.420085 -0.144518 0.196128
2146 -0.101639 0.335683 -0.296169 0.014005 -0.411069 -0.429750 -0.567564 0.792154 -0.322230 -0.446715 -0.172091 0.843417 0.571541 -0.052079 0.234463 0.250937 0.086893 0.170616 -0.500007 -0.217398 -0.436731 -0.672646 -0.040610 -0.068547 -0.553925 0.681380 0.334518 -0.011258 -0.004023 0.188899 0.074940 0.096852 0.188339 -0.655612 0.419280 -0.382170 0.028366 -0.186335 0.395328 -0.383687 -0.356969 -0.547965 -0.017904 -0.266014 -0.694710 0.626311 0.226251 -0.243093 -0.530192 0.350883 -0.350863 0.312603 -0.013038 -0.352713 -0.821022 0.161633 -0.114587 -0.349126 0.069015 0.634563 -0.214644 -0.019954 0.266515 -0.603438
1011 -0.789554 0.698386 0.430664 -0.182810 0.557813 -0.017927 -0.037211 0.023494 -0.286750 -0.188193 -0.501701 0.188944 -0.328217 -0.311607 0.910573 -0.341607 0.505799 0.313323 0.383283 -0.320542 0.332907 0.296947 -0.080152 0.247826 -0.420033 -0.391505 0.066537 0.470359 0.259568 -0.616390 -0.809756 -0.033134 -0.067086 -0.718225 0.554092 -0.425470 -0.556247 -0.128589 0.771803 -0.250552 -0.458688 -1.264613 -0.647022 -0.140635 0.224876 0.308363 0.289465 0.024053 0.345710 0.144571 0.001259 0.284370 0.690068 0.333504 -0.432094 -0.148493 0.435434 -0.080159 -0.153419 0.098498 0.926118 -0.015355 -1.022039 -0.198762
84 -0.889045 -0.057801 0.064424 -0.015306 0.886461 0.092887 0.295475 0.550532 -0.313315 0.283655 -0.187312 0.178377 0.550904 -0.124405 -0.144132 -0.377712 0.199734 -0.358115 0.068219 -0.549922 -0.098912 0.222145 -0.113939 -0.317326 0.900632 0.005605 -0.472860 0.375735 -0.120856 -0.585933 -0.279407 -1.168315 -0.403859 -0.868408 -0.274095 -0.172535 0.060040 0.175486 0.605800 0.989767 -0.020619 -0.091214 0.279830 -0.170534 -0.293738 -0.103611 0.281648 0.560963 -0.128580 0.175309 -0.423874 0.132820 -0.320246 0.191449 0.170653 -0.200212 0.183340 0.463790 -0.311939 -0.287889 0.098270 0.635682 0.120620 -0.213842
2095 0.734211 0.491335 0.453096 -0.004189 -0.565959 -0.130475 -0.296027 0.392247 -0.175904 -0.173985 -0.069343 -0.559555 -0.264844 -0.981983 -0.325913 0.000229 0.231467 -0.015496 -0.321052 -0.227276 0.131295 -0.147783 0.164400 0.803022 0.457048 -0.020642 -0.393010 0.339152 0.590395 -0.775859 0.412335 -0.385143 0.037263 -1.264839 0.368318 0.989067 0.036877 0.578279 0.009555 1.035114 -0.041811 0.422480 0.520879 -0.168184 0.109961 -0.450062 -0.134872 0.537625 -0.013763 -0.309630 -0.029269 -0.315189 -0.108432 -0.391011 -0.357287 0.104853 -0.603845 0.759160 0.082173 0.338638 0.033673 -0.322229 0.100040 0.054008
1799 -0.394272 -0.271789 0.117982 -0.035994 0.650882 -1.191935 1.217429 0.048792 0.033734 0.183205 0.365940 0.274962 -0.511319 -0.375011 -0.213605 0.071822 0.971037 -0.885845 -0.526445 -0.571733 -0.284986 0.528949 -0.263986 0.146780 -0.698811 -0.464024 -0.773002 -0.045554 -0.183105 0.184658 1.182397 0.092815 0.433877 0.452272 0.152469 0.656863 0.531542 0.683934 0.814061 0.331956 -0.441577 0.546924 -0.129967 0.824793 0.386728 -0.094580 -0.230312 0.122447 0.289766 -0.320114 -0.063363 0.527468 0.236467 1.012474 -0.118227 0.186875 0.892581 0.169560 -0.441949 0.659734 0.721050 -0.251008 0.325053 0.317574
1524 0.496864 0.923923 -0.152009 -0.209518 -0.293564 -0.644772 -0.287126 0.383490 -0.263583 0.342481 -0.000104 0.536825 0.466035 0.076867 -0.512516 -0.913123 0.524380 0.457994 -0.403661 -1.394321 0.165765 0.015125 0.062978 0.253320 -0.171340 0.784036 0.019429 -0.348836 0.768108 0.065158 0.547961 -0.162043 -1.421889 -0.057940 0.050187 -0.269715 0.060832 -0.347154 0.675084 -1.049037 -0.767623 -0.363811 0.128186 -0.177807 0.438460 -0.740346 -0.214548 0.145292 -0.415181 0.053547 -0.763798 0.156724 -0.190267 -1.024900 -0.358416 0.085859 0.238300 -0.303953 0.507400 0.887411 0.224561 0.070585 0.274382 -0.666731
1506 -0.392390 0.483209 -0.648463 -0.448506 0.222540 -0.021022 -0.865077 -0.340399 -0.300408 -0.184113 0.017833 -0.109260 -0.102851 0.087212 0.154440 -0.205528 0.244019 -0.109934 -0.144355 -0.623615 -0.198573 0.198013 -0.041202 -0.291509 0.072442 0.357515 0.248249 -1.052822 0.547724 -0.683029 0.185348 -0.113640 -0.321981 -0.134050 -0.403265 -0.469417 -0.099030 -0.443035 -0.065954 -0.458547 -0.666910 -0.474105 0.432605 -0.827781 -0.004851 -0.182771 0.331085 -0.144155 0.206152 0.149048 0.379859 0.549535 0.307534 -0.889226 -0.659158 0.669027 0.490766 -0.300087 0.311321 -0.234917 0.689090 -0.673227 0.300648 -0.563704
2280 -0.007639 0.748679 1.204062 0.730824 0.017349 0.181369 -0.131782 -0.358386 -0.216652 0.439813 0.038046 0.966450 0.256672 0.035771 -0.453121 -0.144462 -0.325642 -0.184106 -1.330642 -0.136016 0.416447 -0.336738 -1.071920 0.475305 1.336473 -0.895165 0.383809 0.523922 0.377927 0.865578 -0.288102 0.500866 0.609293 0.384016 -0.700980 -0.010532 -0.539801 -1.347450 -0.157056 0.425343 -0.291812 0.067632 0.047901 -0.217622 0.682373 0.500698 -0.153785 0.792438 -0.388778 -0.437261 0.107196 0.727144 0.251638 -0.083956 -1.430148 -0.485979 -0.177181 -0.326179 0.552520 -0.128865 0.373708 0.429210 -0.551408 0.602443
1741 0.281030 0.573798 1.078535 0.359927 0.170265 0.314241 0.499995 -0.470291 0.145126 0.124974 0.009420 0.411777 0.126140 -0.417248 0.490131 0.454315 0.504749 0.180250 -0.600952 0.595494 -0.183753 -0.813794 -0.545263 0.679192 0.868415 -1.146547 0.584785 0.516996 0.081327 0.523231 -0.150279 0.192184 0.279252 0.359927 -0.728922 -0.109501 -0.855376 -1.027243 0.158976 -0.270473 -0.235943 0.311089 0.592910 0.176187 0.697098 0.127356 -0.346685 0.410812 0.195628 -0.003977 0.342550 -0.124440 0.140566 -0.364840 -1.445438 -0.782862 0.287178 -0.582553 0.102071 -0.215154 0.383214 0.976092 -0.118176 0.398039
1317 0.003702 0.280993 -0.107528 0.272865 -0.007193 -0.537914 0.009924 0.149465 -0.305191 0.807086 -0.240928 -0.322203 -0.641582 0.618761 0.086786 0.337137 -0.275200 -0.338697 0.275803 0.159640 -0.211760 -0.329168 0.491069 -0.037271 0.566788 0.462521 0.715727 0.537724 0.264851 0.186194 -0.038424 -0.341429 0.115815 -0.001476 0.378720 -0.643703 0.062232 0.159554 -0.153371 0.328273 -0.025247 -0.388397 -0.201071 -0.110149 -0.272481 0.243362 0.577820 -0.218640 0.380462 0.118586 0.498157 0.114334 -0.654700 0.616743 0.327626 -0.200908 0.630051 -0.907287 -0.307356 0.372943 -0.223927 0.530381 0.351449 0.057217
1542 0.076257 0.026479 0.060734 -0.258857 0.043850 0.313614 -0.565045 -0.319008 -0.547712 0.834515 -0.235303 -0.027187 -0.913521 0.530658 -0.092102 0.288982 -0.494023 0.169079 0.390080 0.198367 0.142461 -0.174521 0.154622 0.468737 0.172863 -0.083462 0.140168 -0.397770 -0.001276 -0.136406 0.450501 -0.641919 -0.058496 0.194398 0.559334 -0.352962 0.112135 -0.009818 -0.209494 0.222551 -0.096770 0.148684 -0.510903 0.113089 0.043532 0.520049 0.481712 -0.492108 0.924982 0.454929 0.550729 0.118628 -0.250946 0.395284 0.483385 0.333989 0.492330 0.062582 0.087018 0.079954 -0.261912 0.299757 0.007239 0.092120
600 -0.142575 -0.028577 -0.570293 0.375798 -0.072983 -0.264723 0.180419 -0.435025 -0.682753 1.071643 -0.526183 -0.669625 0.317482 0.542556 -0.037654 -0.457685 0.652837 0.164026 0.094003 -0.936361 -0.442260 -0.664686 0.780770 0.515255 0.006188 -1.032248 0.265724 0.149170 0.277610 -0.101501 0.662732 -0.340805 0.645356 0.574629 0.215063 -0.840896 0.103534 -0.708736 -0.266822 0.500836 0.525691 -0.613610 0.308728 0.389696 -0.381059 0.115847 0.430059 -0.154140 -0.415084 0.140688 0.682874 0.322578 0.002940 0.370046 -0.286299 0.198457 0.464248 0.032359 -0.179534 0.400483 -1.062132 -0.222327 -0.698433 0.359154
1015 -0.086579 0.951767 0.706055 -0.437876 0.318759 -0.940841 0.512763 1.950584 -0.259989 -0.313637 -0.428084 0.070441 0.491361 -0.099073 0.214926 -0.589191 -0.161982 0.796700 0.731757 0.392812 -0.870023 -0.267029 -0.076083 -1.042299 -0.381760 -0.803643 0.355359 0.413872 0.262076 0.604505 0.137054 -0.356181 1.225691 0.255103 0.094872 -0.478225 0.318697 -0.459385 0.652369 -0.278677 -0.715416 0.138415 0.077429 0.443045 -0.389825 -1.137081 0.754586 -0.418396 0.107960 -0.591880 -0.994807 0.240236 -0.116571 0.654738 0.494892 -0.141721 -0.209768 0.259488 1.423141 -0.470733 -0.726034 -0.868268 -0.053750 -0.265089
1325 0.923387 0.065058 -0.024946 -0.083858 0.018467 -0.393678 0.453672 -0.417219 -0.483628 -0.434855 -0.248162 -0.151822 -0.216736 -0.600104 -0.401260 -0.501083 -0.555236 -0.299709 -0.202418 -0.008108 0.038112 0.149707 -0.573844 -1.440827 0.253483 -0.350019 -0.011360 -0.807917 0.217103 0.091322 -0.148563 -0.307628 0.400660 0.291316 0.126292 0.266994 0.712604 -0.510657 -0.056185 0.038619 0.374416 -0.922374 0.160800 -0.085587 -0.929040 -0.430180 0.015915 -0.416606 -0.138618 0.038948 -0.173348 0.005998 -0.387354 -0.423702 -0.443221 0.435800 -0.597798 -0.332360 -0.093717 0.106050 0.912776 0.276280 -0.078409 -0.744209
911 -0.183639 0.000920 -0.274376 0.509004 -0.057936 -0.413784 0.045398 0.328356 -0.844919 1.074642 -0.181846 -0.610848 -0.175921 0.233137 -0.232292 -0.010294 -0.201967 -0.452845 0.840552 0.321948 -0.221384 -0.443343 0.625822 0.471534 0.267514 -0.239705 0.794355 0.268928 0.148150 0.106371 0.370133 -0.112424 -0.114029 0.129000 0.458695 -0.732705 0.176311 -0.064524 0.028189 0.579958 0.383536 -0.006823 -0.161622 -0.067912 -0.221644 0.039824 0.322876 -0.125443 -0.097612 0.618291 0.507657 -0.003464 -0.481841 0.263583 0.435581 -1.040106 0.350975 0.244579 0.321205 0.236093 -0.417588 0.043281 -0.408357 0.213279
2419 -0.107896 -0.469685 -0.076810 -0.082906 -0.271989 0.107944 0.509863 -0.132284 -0.493086 0.032724 0.462255 0.825849 -0.353052 -0.665217 0.106759 -0.207775 -0.616152 0.340961 -0.178794 0.255891 0.097486 0.045772 0.274981 0.185972 -0.584421 0.728245 -0.488889 -0.281322 0.664886 -0.239615 0.825408 -0.047852 -0.452891 -0.042773 -0.715394 -0.482782 -0.291888 0.506489 0.852575 -0.169447 0.005570 0.035840 0.446119 -0.079433 0.379925 0.061227 -0.444461 -0.815890 -1.115339 -0.673001 0.444102 0.455968 0.063642 -1.265221 0.234990 0.050188 -0.095717 -0.852013 0.119379 -0.384488 -0.165284 -0.128635 -0.242643 0.081015
2278 -0.219768 -0.042529 0.294237 0.082559 0.928020 -0.956414 1.248227 -0.024706 -0.273854 0.301736 0.044605 0.359914 -0.121688 -0.264095 0.019100 0.014876 0.888965 -0.980844 -0.423549 -0.484163 -0.354575 0.404362 -0.208508 -0.010757 -0.487154 -0.059445 -0.529527 -0.419984 -0.048699 0.078643 0.918116 0.339256 0.652238 0.849425 -0.208838 0.888770 0.431940 0.680770 0.888803 0.141760 -0.257852 0.919499 -0.052600 0.720953 0.679893 -0.207337 -0.036637 0.170731 0.465809 -0.483545 0.008553 0.073711 -0.093065 1.366922 -0.406774 0.122247 0.714704 0.118829 -0.298123 0.577014 0.583692 -0.232813 0.518200 0.054811
1871 -0.025220 -0.722687 0.672434 -0.527343 0.233545 -0.121224 -0.154804 0.882448 -0.298454 0.393998 -0.311475 0.334692 0.283742 -0.351624 -0.106210 -0.281967 0.572408 0.841066 -0.256877 1.244561 -0.149144 -0.797891 -0.053759 0.555921 0.921660 0.310446 -0.613712 0.395993 -0.179516 0.368831 -0.282253 -0.319602 0.469166 0.584575 -0.454842 0.258319 0.297142 0.115738 0.000123 -0.660997 -0.186669 0.377858 0.667428 0.718874 0.064420 0.123261 -0.715069 0.882286 -0.604744 0.072959 0.629147 0.981918 0.292681 -0.632052 -0.684822 0.160747 -0.294043 0.033474 0.289351 -0.044715 1.334609 -0.185801 -0.182999 0.137608
602 0.123926 -0.087575 -0.626119 -0.541383 0.225667 -0.710443 0.278892 -0.058539 0.539922 0.473384 0.514865 0.159597 -0.390094 1.284361 -0.106379 -0.262315 0.201138 0.142411 0.392639 -0.355168 -0.114416 -0.388052 0.954284 0.400940 -0.149055 -0.475377 0.921913 -0.023776 -0.003135 0.108837 0.704800 -0.509621 0.136662 -0.529926 0.354517 -0.548735 0.100359 0.126087 -0.507925 -0.192715 -0.037863 -0.578810 0.142838 0.330305 -0.447779 0.627527 0.491004 0.029019 0.305308 -0.247059 0.012011 -0.090405 -0.080255 0.330613 0.358176 0.316403 0.426811 -0.737108 -0.132677 -0.079935 -0.361192 0.536154 -0.318462 0.322992
2416 -0.215554 0.302499 -0.442674 1.156032 0.740105 -0.381549 0.190315 0.443013 0.006691 0.016570 0.705551 -0.056480 -0.256191 0.508839 -0.002345 0.806405 -0.609198 0.423044 -0.288173 0.728609 0.293675 -0.730366 -0.250248 0.065434 -0.158785 -0.002591 -0.034027 -0.236477 0.515348 0.652060 -1.167136 0.704239 0.214321 -0.783474 -0.595179 0.892567 -0.519402 -1.017001 1.129679 -0.164803 0.394167 0.665118 -0.029718 0.341132 0.256006 -0.244811 0.082930 -0.656594 -0.934398 -0.549553 1.295892 -0.166365 0.585527 0.519391 0.669236 0.919661 0.479901 0.219486 1.144331 0.162474 0.190321 -0.543769 0.282544 -0.697906
2015 -0.021703 -0.965201 0.368332 -0.393411 -0.577404 0.060241 0.348162 0.103441 -0.380824 0.253928 -0.465867 0.731908 -0.583003 0.261521 0.400756 0.519358 0.134564 -0.249440 -0.709927 -0.126439 0.232126 0.099589 0.393397 0.402952 -0.213580 -0.195443 -0.670213 -0.670684 0.237164 0.663293 0.279635 0.601072 -0.014352 0.405350 -0.124081 -0.342776 0.033520 0.039127 -0.110318 -0.268209 -0.095228 -0.339204 0.238262 0.330079 0.283368 -0.631946 -0.289542 0.466117 0.127698 -0.279235 0.256275 0.304110 -0.668859 0.781803 -0.048551 0.105048 -0.598406 -0.997272 -0.023398 -0.288302 0.399483 -0.888094 0.666258 -0.542654
680 -0.421485 -0.422257 -0.204462 -0.742646 -0.447661 0.793487 -0.396983 0.435322 -0.229204 -0.012738 0.150478 0.480660 -0.383231 -0.581552 0.518874 -0.366862 0.040443 0.934335 0.195255 -0.031547 0.367692 -0.524280 0.535405 -0.301436 0.526359 0.628356 0.144282 0.643866 -0.121163 0.971184 -0.161492 -0.576380 0.249574 0.258257 -0.255053 0.564271 0.101896 -0.591006 0.462651 -0.194964 1.484891 -0.330109 0.541418 -0.104483 0.230120 -0.802645 -0.995092 -0.207223 0.178113 -0.682725 0.094302 -0.563100 -0.262430 -0.768538 0.406660 -0.093785 0.083109 0.201741 0.752183 0.005099 0.333497 -0.523073 -0.411414 -0.379062
610 0.550808 -1.181086 -1.279431 0.424631 0.103714 0.461076 -0.628909 0.463916 0.555613 -0.294735 -0.864597 -0.499496 0.160866 0.088862 -1.519448 -0.144813 0.123817 -0.319770 -0.814184 0.698846 0.041855 -0.439921 -0.434206 -0.208914 -0.181689 -0.384870 -0.637280 0.568976 -0.486484 -1.094747 -0.012645 0.223598 0.086305 -0.560530 0.551297 0.571675 0.165036 0.034319 0.594083 0.498551 0.354201 0.027731 0.185364 0.777500 -0.327020 -0.917523 -0.760821 0.293216 0.392259 0.052249 0.452129 0.308373 -0.047575 -0.297352 -0.425342 -0.953799 0.950418 -0.400103 -0.424190 -0.180359 -0.307768 -0.260168 1.099476 -0.013164
738 -0.774859 0.163323 -0.064764 -0.163893 0.346367 0.104879 -0.008593 0.275937 -0.502358 0.231322 0.039969 -0.048125 0.092299 0.269400 -0.073645 -0.360899 -0.111090 0.102033 -0.239991 -0.353322 -0.053358 -0.222308 -0.082338 0.277558 1.053467 0.208806 0.048080 0.295284 -0.041828 -0.297945 -0.364905 -0.042197 -0.807012 -0.442470 -0.182552 -0.083586 -0.031579 0.048140 0.739058 1.102642 -0.197186 0.118677 -0.004831 0.172453 -0.658081 -0.618122 0.720720 0.877772 0.370535 0.424291 0.168722 0.501479 -0.326947 -0.112094 0.183780 -0.488113 -0.330056 0.369759 -0.111919 -0.455930 -0.795896 0.504706 -0.316097 -0.077455
1601 -0.737737 0.749269 -0.130348 -0.284019 0.555635 0.234226 0.284988 0.486572 -0.221823 -0.273476 0.053829 0.016139 0.593266 -0.951611 -0.483571 -0.591897 -0.387898 0.283538 -0.348459 -0.143880 0.436421 -0.736919 0.362813 0.259727 0.516758 -0.122668 -0.218654 0.347985 -0.117985 -0.369911 -0.541766 -0.136614 0.053231 -1.008958 0.029871 0.255166 0.289905 0.245032 0.257922 0.240399 1.109580 -0.140588 0.246211 0.320529 0.120281 0.018472 0.108435 0.733235 -0.205765 0.769630 0.157376 -0.024212 0.487428 0.287173 -0.288783 -0.160883 -0.846510 -0.478106 0.525568 -0.253415 0.170312 0.334792 -0.098662 -0.563851
332 -0.002827 -0.935025 -0.471498 -0.593519 0.149978 -0.287622 0.190053 0.009001 -0.223742 0.425688 -1.742121 -0.085110 0.370843 -0.292882 -0.557929 -0.811532 -0.405955 0.717938 -0.429066 0.663659 0.424582 -0.666779 -0.686374 0.161973 -0.107553 0.482130 0.036682 0.088942 -0.871449 -0.187671 -0.660803 -0.039871 0.318439 -0.328695 0.444894 -0.069035 0.029846 -0.044964 -0.187022 -0.137252 -0.569174 0.324374 -0.122743 0.080036 -0.382934 -1.307777 -1.370755 0.913591 0.405567 0.447942 0.154090 0.955853 0.014171 -0.666283 -0.394103 -0.562748 0.607194 -0.564537 -0.682054 0.392015 -0.017631 -0.495105 0.067423 0.393374
2366 -0.288448 -0.407469 -0.507625 -0.640445 -0.342279 0.010942 0.356582 1.028603 -0.525909 -0.452929 -0.755663 0.571906 -0.062638 0.304581 -0.215137 0.795912 -0.577570 0.861931 -0.516807 -0.227290 0.590708 -0.292912 -0.225546 -0.030585 -0.400775 0.335973 -0.551647 -0.173120 0.148765 0.279233 0.801855 0.340248 0.793422 -0.497844 0.692331 -0.540227 0.373373 -0.097673 0.479466 -0.205330 -0.920806 -0.114568 0.794280 -0.371759 -0.011106 0.856449 0.539630 -0.447521 -0.348815 -0.043287 0.072748 -0.421819 0.386158 -0.904161 -0.145310 0.286595 -0.313543 -1.004837 0.269480 0.230942 -0.166869 0.105726 0.308892 -0.201864
596 0.167769 1.181062 -0.114359 -0.435568 -1.040157 0.377123 0.820261 -0.051691 0.298485 0.787407 0.529393 0.487561 -0.434427 -0.371892 -0.120997 0.891170 -0.370146 0.114163 0.172234 -0.137747 -0.264235 -1.379371 -0.055751 -0.445205 1.002095 0.088076 0.772576 -0.131398 -0.538936 0.338000 -0.660415 -0.623375 0.253586 0.119927 -0.558004 0.397221 -0.473133 -0.730768 0.101639 -0.487062 0.380711 -0.778082 1.002412 0.195475 1.385028 -0.744302 -0.789518 -0.535736 -0.738629 -0.617000 0.102818 -1.145625 0.497397 0.186798 0.593599 -0.483848 0.311843 0.331470 0.151149 0.573642 -0.011598 0.067456 0.647074 0.636872
1302 -0.160274 -0.153230 -0.133988 0.742069 -0.218792 0.504338 0.465229 -0.434342 0.561634 -0.359361 0.237140 -0.217063 -0.171141 0.438594 0.408873 -0.432682 -0.550664 0.207747 -0.093034 -0.024719 -0.105430 0.033507 0.874684 0.144276 -0.010266 0.350548 0.503546 -0.857886 -0.065476 -0.256828 -0.133826 0.248396 -0.124697 0.902760 0.850422 -1.082476 -0.037230 0.624674 0.530641 0.237609 -0.253643 0.585969 0.011475 0.122336 0.532876 -0.671552 0.231363 -0.575144 0.086482 0.162106 0.570987 0.211506 0.108482 -0.239878 -0.137854 -0.017957 0.140778 0.086453 -0.716879 -0.259169 0.218445 -0.274388 0.164029 0.384888
2476 -0.535102 -0.663427 0.062075 -0.052051 0.353620 0.345912 -0.167881 0.935436 -0.205406 -0.270818 0.050273 0.333751 -0.641224 -0.429295 0.300106 -0.227057 -0.445049 0.122595 -0.488732 -0.326465 0.404740 -0.818168 -0.149101 -0.118609 -0.286568 0.373511 0.235244 0.939482 0.148030 0.940521 0.050975 0.117950 0.030442 -0.324159 -0.507162 0.046214 0.729962 0.006664 0.325877 0.132456 1.128646 -0.636229 0.516440 0.344403 0.812158 -0.793865 -0.825152 -0.355561 0.187035 0.445829 -0.540921 -0.720249 0.419485 -0.649546 -0.039456 0.304176 -0.393126 0.022834 0.374996 -0.549611 0.154342 0.192609 0.244458 0.259834
1050 -0.020548 -0.122799 -0.760289 0.377206 -0.291484 -0.147480 0.032373 -0.187133 -0.784530 1.127727 -0.271615 -0.445896 0.802920 0.623038 -0.361037 -0.033418 0.206289 0.317216 0.088892 -0.611985 -0.400822 -0.245952 0.468769 0.648625 -0.434318 -0.669043 0.120494 -0.556518 0.417761 -0.021667 0.818962 -0.456058 0.425436 0.564438 0.140154 -0.471444 0.429217 -0.724158 -0.364214 0.842841 0.281856 -0.892104 0.054778 0.196847 -0.178679 0.114659 0.245249 0.101423 -0.095524 0.290691 0.420749 0.010029 -0.389945 0.384576 -0.710529 -0.185246 0.439634 -0.000399 0.043140 0.279191 -1.252080 -0.245365 -0.833409 0.431517
1157 -0.879352 -0.360841 -0.239891 -0.213388 -0.371777 -0.587590 -0.323037 -0.065174 -0.099206 0.976277 0.149996 -0.110510 -1.087441 0.616917 -0.509229 0.111577 -0.028041 0.352927 -0.016348 -0.465991 -0.083103 -0.400128 0.726999 0.764257 0.155146 -0.723059 0.479786 -0.249751 -0.309679 -0.614690 0.492259 -0.758682 -0.218498 0.334956 0.399912 -0.409519 0.492731 0.475774 -0.396819 0.468045 -0.149511 -0.828290 -0.297852 0.032934 0.368457 0.336826 0.482552 -0.414577 0.601601 0.660164 0.295095 -0.352814 -0.053537 0.276935 0.324274 0.442822 0.018255 0.303346 0.360174 0.823307 -0.190931 0.135848 -0.652107 -0.824230
484 -0.083623 0.325512 0.046582 -0.554945 0.165290 0.339109 -0.213952 -0.100527 0.125630 0.381516 -0.317389 0.762630 -0.305195 -0.612419 -0.651955 0.138579 -0.531304 -0.285733 0.379438 -0.314253 0.493005 0.393033 -0.567964 -0.172165 -0.069216 0.466504 0.592975 -1.048328 0.436558 -0.340139 0.293843 -0.208505 -0.062501 -0.414279 -0.372677 -0.015082 0.004659 -0.396794 0.202333 0.433574 0.345637 -0.251256 0.984026 0.372024 -0.427905 -0.441511 0.214859 -0.470931 -0.003859 -0.010422 -0.403880 0.615244 -0.676574 0.678418 -0.149870 -0.759076 -0.054699 -0.427011 -0.272777 -0.627625 0.191171 0.757841 -0.219785 -0.580390
2165 -0.621110 -0.031449 0.375593 0.130945 0.221114 0.714970 0.379279 -0.744477 -0.193246 0.617440 -0.133485 0.964385 -0.066452 -0.922495 0.408510 0.773824 -0.395584 -0.493858 -0.778624 -0.598089 -0.194393 -0.197638 -0.048556 -0.079039 -0.531802 -0.039334 0.383706 -0.117485 0.115774 -1.393093 0.233915 0.091178 -0.127800 -0.076682 0.439330 0.029122 -0.612157 0.333543 -0.304337 0.057722 -0.049906 -0.098112 0.623158 0.399229 -0.361828 0.310473 0.225089 -0.107426 0.372020 0.470443 -0.262001 0.397441 0.070644 -0.231285 -0.167612 0.163037 -0.097141 -0.260609 0.248719 -0.496262 -0.334838 -0.287713 -0.404296 -0.690849
727 -0.429227 -0.416200 0.146252 0.384424 -0.713334 -0.462901 0.018907 0.620858 -0.422356 1.295818 0.337442 -0.687359 0.143651 0.333897 0.707527 -0.143806 0.314929 -0.179785 0.237596 0.067083 -0.369637 -0.527260 0.405490 0.590663 0.104833 -0.128729 -0.153542 -0.555487 0.364134 0.016611 0.230716 0.899408 -0.204849 -0.545174 0.345555 -0.460433 -0.037744 0.058965 -0.763440 -0.035594 -0.133064 -0.366809 0.394865 -0.300597 0.006212 -0.197076 0.367355 -0.403796 0.578498 -0.363232 0.087360 0.122064 -0.176189 0.705325 -0.036429 0.256165 0.301230 0.098591 -1.196949 -0.049905 -0.313036 0.783942 -0.545190 0.300372
2509 -0.158310 -0.144182 -0.167147 -0.421058 0.513139 -0.178595 0.344864 0.696703 -0.404107 0.572313 -0.338613 0.568976 0.577265 0.018333 1.096707 -0.150279 0.129143 -0.754135 0.328285 -0.539488 0.094184 0.689271 -0.148860 0.032774 -0.093346 -0.367262 -0.551357 -0.126724 0.030984 -0.959261 -0.529011 -0.826577 -0.243648 -0.505506 -0.520044 -0.045420 0.329823 -0.247777 0.131146 0.749548 -0.093292 -0.095900 0.502310 -0.625660 0.184486 -0.437975 -0.120402 -0.036113 0.183209 0.764445 -0.115321 -0.107420 -0.451049 0.071009 0.705093 -0.093139 -0.601851 0.389806 -0.133508 -0.755876 -0.261474 0.605070 0.111936 0.257109
2249 -0.584578 -0.117301 -0.060851 -0.576136 -0.159362 -0.087724 -0.459832 -0.355694 0.128361 0.206365 -0.051839 0.361201 -0.166687 -0.604579 0.368607 0.405088 -0.283568 -0.087377 -0.756128 -0.547316 0.315721 0.025873 -0.362367 0.512061 -0.288763 -0.448559 -0.771083 -1.153250 0.625092 -0.110199 0.645915 0.042170 0.536750 -0.093326 -0.114101 -0.174554 0.102794 0.165216 0.480370 -0.678534 -0.216941 -0.293989 0.140797 0.158627 0.371800 -0.124669 -0.215725 -0.469476 -0.158570 -0.409012 0.264818 0.034353 -0.173235 0.022210 -0.145635 -0.183384 -0.751626 -1.080159 0.127393 -0.839770 -0.281095 -0.121341 0.520912 -0.187271
519 0.133492 -0.331354 0.035093 -0.213719 -0.194661 -0.076409 -0.376118 -0.302445 -0.299223 0.722493 0.356013 -0.877171 -0.879522 0.327771 0.024811 0.164681 -0.407653 -0.581210 0.836774 0.152633 0.019177 -0.740757 0.823608 0.443433 0.711215 0.300346 -0.308428 0.088746 -0.055074 -0.349760 0.313436 0.095465 0.068966 0.422850 0.153476 -1.010541 -0.187292 0.197930 -0.087515 0.133554 0.361455 -0.239652 -0.097172 -0.317809 0.228511 -0.117471 0.723854 -0.376858 0.579131 0.170176 0.851989 0.078278 0.412245 0.420492 0.506870 0.397529 0.387434 -0.376419 0.530047 0.014776 0.227331 0.008489 0.086411 0.152504
1565 -0.186584 0.632404 0.557165 0.650243 -0.478031 -0.329636 0.075792 0.243825 0.182155 -0.172911 -0.549423 0.173200 -0.333355 -0.310318 -0.067665 0.058371 -0.753336 -0.878298 -0.357642 -0.103086 -0.471953 0.114319 -0.171850 -0.481538 -0.059489 -0.235466 0.075513 -0.866413 0.904961 -0.119115 -1.182777 -0.416555 0.812835 -0.315681 -0.144292 0.289947 -0.409625 0.753409 -0.123889 -0.700468 0.274052 0.119825 0.547335 -0.599778 0.154267 -0.266062 -0.029930 0.618962 0.818279 0.200337 1.311437 -0.210861 -1.016708 -0.994351 0.090183 0.112812 -0.082944 1.198605 0.278286 0.449411 -0.133819 0.209557 -0.114627 0.181212
1329 -1.003932 0.462732 0.720279 -0.405314 -0.005837 0.604586 -0.755946 0.164902 -0.283713 0.870639 -0.092422 0.683197 0.453977 0.240397 0.718062 -0.199181 -0.223047 -0.180747 -0.977372 0.580503 -0.631481 -0.053117 -0.082128 0.012231 -0.009063 0.309157 -0.195179 0.206744 0.412708 -0.622376 -0.423859 0.718571 -0.495636 0.373522 -0.135084 -0.391422 -0.463038 0.282163 0.279705 0.207354 -0.556047 -0.234774 -0.093613 0.869587 -0.631472 0.493642 1.171071 -0.026728 0.325847 0.036353 -0.212510 -0.168469 0.182293 0.151533 -0.134055 -0.090491 -0.004225 0.344798 -0.983961 0.269257 0.656582 0.221555 -0.709077 0.242994
1403 -0.077322 -0.057599 0.217912 -0.522081 0.592972 0.272151 -0.086439 0.013316 0.022047 0.513248 -0.312133 0.224990 -0.153284 0.200088 0.168071 0.230657 0.544849 -0.732846 -0.084392 -0.262085 0.042141 0.101700 -0.095603 0.222332 -0.245375 0.239891 -0.157998 -0.371970 0.106331 -1.215763 -0.330745 -0.198582 0.395343 -0.469961 -0.553804 -0.064850 0.124711 -0.457326 -0.028861 0.424148 -0.374538 0.141764 -0.342589 -0.560372 -0.729379 -0.278093 0.294432 0.096750 0.276506 -0.134615 -0.281299 -0.453603 -0.570247 -0.110324 -0.248790 -0.232454 -0.495195 -0.074421 0.559266 0.520407 -0.140539 -0.546151 0.233760 0.387161
498 0.733909 -0.055158 -0.251830 0.529792 -0.035333 -0.284825 -0.075129 -0.652367 -0.072919 -0.283201 0.121661 0.133156 -1.036402 -0.110131 -0.052268 -0.656298 -0.341944 -0.787011 -0.621612 -0.639052 -0.630134 -0.206971 -0.694069 -1.283566 0.635901 -0.696829 -0.379027 -1.225574 0.190785 -0.129066 -0.073732 -0.345519 -0.208503 0.364794 0.145317 0.204025 0.895103 -0.435283 0.092930 -0.052042 1.102227 -0.042813 0.355557 0.639221 -0.781581 -0.642983 0.611117 -0.145136 -0.352395 -0.309929 -0.512953 -0.332764 -0.383794 -0.234974 -0.469988 0.474536 -0.308731 -0.168095 0.217731 -0.233596 0.061341 -0.026151 -0.516848 -0.251390
53 -0.057523 -0.861181 0.285624 0.257087 0.037725 -0.377712 0.054574 1.052029 0.378439 1.255713 0.381714 -0.234443 0.001600 0.349190 0.488244 -0.045468 -0.218770 0.039515 0.574387 -0.360218 -0.083531 -1.020409 0.404748 0.634094 0.014020 -0.215137 -0.375477 -0.701644 -0.269659 0.142100 0.077532 0.418319 -0.681717 -0.774965 0.556842 -0.120187 0.263295 0.172288 -0.795676 -0.243311 0.196962 0.147634 0.232135 -0.803133 -0.164926 -0.381451 0.164063 -0.165529 0.292398 -0.057130 0.286368 0.265804 -0.372195 0.202573 -0.140936 0.398932 0.145397 0.145704 -1.091975 0.232596 -0.473322 0.711881 -1.106307 0.434226
2276 -0.477170 0.079800 0.227262 -0.195640 0.178848 0.115424 -0.995306 -0.263075 -0.596785 0.260308 -0.515921 -0.019756 -0.772785 0.079272 -0.062224 0.935631 -1.259298 -0.235693 0.554014 0.063528 1.007392 -0.517497 0.441401 -0.361857 -0.396858 0.448167 -0.254551 -0.689950 -0.099025 -0.054021 0.376321 -0.327019 -0.077617 -0.279034 0.380533 0.207255 -0.680786 -0.577261 -0.153084 0.852411 -0.115276 0.295099 -0.270788 0.508326 -0.205343 0.176138 -0.046975 -0.514402 0.795080 0.071037 -0.419187 0.238045 -0.097834 0.188000 0.013612 0.071581 0.106945 -0.180592 0.409048 -0.576164 -0.151788 -0.070828 0.468715 0.832619
2470 -0.096898 -0.177789 0.344653 -0.739005 1.055703 -0.180007 -0.063666 0.341861 -0.303423 0.712112 0.504948 0.032055 0.143094 0.445778 0.501631 -0.204319 0.461646 -1.053206 0.660320 -0.020248 0.202488 -0.149158 -1.010897 0.318304 0.555352 -0.173375 0.141286 -0.171322 -0.201378 -1.002369 -0.205609 -0.079580 -0.190367 -0.667457 -0.122669 -0.720862 0.328954 0.367684 0.017806 -0.093664 0.169817 0.085072 -0.147441 -0.804446 0.106495 0.231930 0.077403 -0.431514 0.123134 -0.013612 0.122634 -0.358272 -0.545650 0.572293 0.910814 -0.198325 0.272457 -0.028999 0.089464 -0.093813 0.621069 -0.372669 -0.314738 0.483950
1304 -0.424751 -0.262440 -0.903700 0.561106 -0.428924 -0.162666 -0.804215 -0.815106 -0.201171 -0.879174 0.195021 0.384168 0.429409 0.865370 0.303056 -0.084982 -0.413479 -0.250960 0.341047 0.339208 0.011201 0.261520 0.701854 0.538565 -0.101206 0.988796 0.380069 0.139451 0.742170 -0.436105 -0.337994 0.545039 0.288126 0.174642 0.336055 -0.268710 0.099517 1.520655 0.744348 0.488391 0.558022 0.850205 0.230518 0.042040 0.378884 -0.678245 0.098122 -0.269999 0.054198 0.266769 -0.345432 -0.358241 -0.483066 -0.243833 0.898397 0.009034 -0.056917 0.083092 -0.453466 -0.024377 -0.031021 0.390525 0.102197 -0.587957
2158 0.394614 0.098231 -0.555501 0.039708 -0.195907 -0.193795 -0.707906 0.476763 -0.272729 0.015691 0.200989 0.735398 -0.844762 -0.872549 0.119343 -0.085915 -0.294278 0.315842 0.194926 0.053695 0.249249 0.264297 -0.333647 -0.251628 -0.200144 0.571747 0.623039 -0.661835 0.965235 -0.681873 0.187304 0.321067 -0.017966 -0.014088 -0.461335 -0.261545 0.004238 -0.370104 0.277644 -0.695488 0.168443 -0.141360 0.241533 -0.151850 0.429810 0.417776 -0.417706 -0.284914 0.396427 -0.609789 -0.061795 1.394121 -0.540975 -0.752542 0.207600 -0.199304 0.010029 -0.199931 -0.412595 -0.349546 0.429143 -0.271407 -0.088494 0.429567
1285 0.182621 -0.212049 -0.266078 0.096926 -0.074861 0.168426 0.113605 0.584666 0.054714 -0.503552 -0.739095 0.771496 -0.649178 0.367489 -0.132546 0.318044 0.459354 0.080973 0.319694 -0.257803 -0.105401 -0.008299 -0.453648 0.441070 0.578488 -0.181471 -0.375287 0.017933 0.642104 -0.569601 0.022227 0.162198 0.318080 -0.119703 -0.061694 0.584100 0.961377 0.132300 -0.136230 0.203128 -0.051687 0.231945 0.019196 0.011882 -0.425440 -0.570873 -0.815550 0.065110 0.167016 0.412448 -0.090997 0.026218 0.697299 0.549572 0.535844 0.300169 0.180148 0.100860 0.019560 0.527080 0.442493 0.880842 0.527177 0.575708
1411 -0.238937 0.380982 -0.142561 0.478611 0.009927 -0.574261 -0.060330 -0.008074 -0.169966 0.757912 0.099409 -0.338751 -0.152777 -0.103824 0.600590 -0.449460 0.064171 0.053282 0.490400 -0.100361 -0.798606 -0.794422 0.649943 0.290462 -0.273832 0.116272 -0.074836 -0.515009 0.298647 0.350229 0.346198 -0.074134 -0.057743 -0.222511 0.069922 -0.404366 0.248273 0.262794 -0.894457 0.031984 0.066118 -0.256936 0.098523 -0.295055 0.282015 0.415558 0.822488 -0.578505 -0.282057 0.013874 0.531616 0.261007 -0.226791 0.007453 -0.344054 -0.036027 0.065860 0.175960 -0.300904 -0.311847 0.775005 0.899505 0.452408 0.310939
368 0.386923 -0.145551 0.126609 -0.487857 -0.087436 0.391958 -0.496478 -0.208472 -0.281075 0.802533 -0.151640 -0.112531 -1.168339 0.083328 0.211898 0.541545 -1.196432 -0.312497 0.752471 0.047199 0.504338 -0.333907 0.484776 0.231587 0.065150 0.035896 -0.211839 -0.234262 0.084635 -0.075764 0.351678 -0.463616 -0.203595 0.519639 0.782087 -0.547243 -0.318987 -0.375046 -0.081311 0.279061 0.194119 0.228404 -0.305391 0.412199 0.194840 0.078769 0.471306 -0.572991 1.068936 0.466678 0.439609 0.278682 0.226120 0.288612 0.900913 0.432841 0.028592 -0.217716 0.826625 0.007398 -0.504181 0.321122 0.284558 0.189732
28 0.866522 -0.024372 0.722351 -1.106568 0.128126 -0.044080 0.047798 0.184119 0.730998 0.170171 0.309108 1.059752 0.240628 0.224269 -0.721131 -0.166198 0.063466 -0.030830 0.208569 1.229637 0.743622 0.339202 0.233550 0.707618 -0.406110 0.512843 -0.220054 0.091909 0.437993 -0.472571 0.886950 -1.265551 0.487135 0.523790 0.069350 0.666054 0.110324 0.684300 -0.291867 0.270795 0.733711 0.414083 -0.001371 0.367780 0.700586 -0.250114 0.654833 0.821281 -0.837946 -0.166229 0.161461 1.249204 0.294878 -0.824022 0.469126 0.527552 -0.477530 -1.076124 0.735450 0.233245 0.083980 -0.146249 0.642558 0.108209
1738 -0.202392 0.240178 0.022094 -0.220644 -0.503313 0.071609 -0.142544 0.150420 -0.103037 0.295830 -0.774762 0.705882 0.539286 -0.008094 0.910943 -0.351707 0.501235 -0.142320 -0.176501 0.720614 -0.028193 0.129636 -0.100053 -0.200106 0.392950 0.412373 -0.248565 0.423569 0.235291 -0.491521 -0.466175 0.168673 -0.241976 0.194504 0.217231 -0.130777 0.101756 -0.125552 0.610305 0.084881 -0.809735 0.124568 0.340945 0.390087 -0.216627 0.528352 0.781656 -0.312530 0.181250 0.320582 -0.281956 -0.504966 -0.587213 -0.866093 -0.692795 -0.091205 0.305308 -0.171194 -0.385359 0.030684 0.383831 -0.071754 -0.337263 0.262676
2527 0.883366 0.731449 1.321338 0.333987 -0.136206 -0.536079 -0.630030 0.403725 -1.357225 0.429792 1.099685 0.623493 0.114208 0.305644 0.488290 -0.437452 0.851762 0.191163 -0.349498 0.190126 -0.943743 -0.224649 1.028393 -0.124164 -0.142354 0.158392 -0.365290 0.907125 -0.402818 -1.040356 -0.827357 -1.129026 -0.375005 0.088763 -0.093826 1.226322 1.149899 -0.125381 -0.420314 -0.019709 0.265027 0.235195 -0.982079 0.095965 0.790848 0.196104 0.002678 -0.235212 -0.024919 -0.566484 0.833730 -0.461175 -0.208556 0.779001 0.508903 0.298187 -0.080694 -0.419809 0.477126 0.141452 0.441997 -0.096746 -0.075875 0.150781
2664 0.155327 -0.150272 -0.027223 -0.315044 0.294237 0.068866 0.329557 -0.384796 -0.617757 -0.187669 0.088716 0.686877 0.462464 0.211452 -0.118393 -0.596666 0.672305 -0.286781 0.326752 -0.619140 0.668029 -0.307253 -0.098001 -0.003707 -0.604675 0.091960 -1.175965 0.253908 0.583746 -0.132431 0.093017 0.682071 0.377139 -0.230331 0.368047 0.564059 0.618349 -0.742695 -0.510564 -0.252263 0.052844 0.078541 -0.250030 0.325203 -0.062605 0.033160 -0.260599 -0.340176 0.934765 -0.293383 0.274284 0.062595 -0.608185 0.159439 -0.216902 -0.773980 0.282078 0.257449 -0.100871 0.006943 0.878602 -0.294977 -0.371059 -0.059246
1177 -0.000592 -0.457310 -0.579584 0.705444 0.475665 -0.625664 -0.021094 0.605672 -0.735891 0.718716 0.011710 -0.292523 -0.553529 0.532124 -0.296752 0.018367 -0.407136 -0.702694 0.921309 0.435896 0.105528 -0.397521 1.109658 0.337530 0.542658 -0.097725 0.448954 0.165835 -0.114316 0.313909 0.272433 -0.218841 -0.548951 -0.402857 0.288453 -0.718511 0.388008 0.222339 -0.036751 0.382867 -0.251103 0.374280 -0.049232 -0.360552 -0.477832 -0.110833 0.538872 0.389988 -0.131061 0.209068 0.339538 -0.020293 -0.338731 -0.104899 0.009322 -1.519675 0.342001 0.835853 0.339854 0.020065 -0.183783 0.253960 -0.967524 0.708444
2477 -0.624207 -0.002460 0.129448 -0.062100 -0.883030 0.392260 0.192714 -0.051850 0.089486 -0.415727 0.035024 0.559323 -0.593308 -0.269696 0.701609 -0.530305 0.310847 1.337539 -0.083890 0.039210 0.619784 -0.497352 0.410504 0.008833 0.223740 -0.035933 -0.119907 0.396826 0.254427 0.444841 -0.302868 -0.906299 -0.158226 -0.376432 -0.014558 1.042713 0.053943 -0.226057 -0.605836 0.415812 0.418733 0.326018 -0.167148 0.356354 0.057562 -0.293212 -0.423955 0.812599 0.015453 -1.193653 0.756577 -0.600485 0.548581 -0.036083 0.372647 0.256341 0.416513 -0.137509 0.305662 0.140164 0.516142 -0.405443 -0.756065 -0.665832
749 0.601428 -0.274725 -0.980104 0.237602 0.194327 -0.536918 -0.093549 0.048704 0.460141 0.519318 0.382150 -0.158378 -0.282080 0.957917 -0.134257 0.074486 -0.081889 0.396736 0.231608 0.079748 -0.382704 0.039365 0.607625 0.591430 -0.162406 -1.124792 0.691459 -0.111612 0.060425 -0.035822 0.631783 -0.131645 -0.355041 -0.288889 0.080846 -0.635048 0.521416 -0.014275 -0.418291 0.252102 -0.212549 -0.851991 0.666225 0.223515 -0.307111 0.546304 0.162766 0.171142 0.369450 -0.670898 0.506800 -0.203821 -0.407721 0.036825 -0.017464 0.119690 0.499844 -0.823788 -0.066776 0.210255 -0.332692 0.517458 -0.622502 0.926688
1378 -0.341466 0.515674 -0.041311 -0.906553 0.915911 -0.188106 0.040658 0.461799 -0.445140 0.485640 0.365040 -0.183557 -0.106801 0.584915 0.634654 0.078049 0.720626 -0.873592 0.363720 -0.088585 0.135629 0.121328 -0.788070 0.335389 0.059640 -0.106830 0.065465 -0.293133 -0.297777 -0.759391 -0.741702 -0.028243 -0.309412 -0.761651 -0.152217 -0.419261 0.240700 0.082384 0.451922 0.350662 -0.293152 -0.258190 0.332366 -0.425802 -0.413999 -0.122797 0.460721 0.262334 0.103723 0.026894 0.086847 -0.452754 -0.631337 -0.104873 0.697948 -0.302731 -0.227390 0.355970 0.210655 -0.337694 0.259990 0.218628 0.184817 0.173323
253 0.636975 0.003091 -0.091874 0.201668 0.893888 -0.115790 -0.238462 0.920081 0.142796 0.521255 -0.526789 0.572566 0.078895 0.092378 0.953633 -0.202859 -0.503718 -0.579429 0.819972 -0.574794 -0.083412 -0.156021 0.333410 -0.105824 -0.120068 -0.145380 -0.043924 0.077375 0.081783 -0.428696 -0.642345 -1.378749 0.164703 -0.059267 -0.439062 -0.296605 -0.158825 0.344617 0.637359 0.172828 -0.002201 0.142627 0.010611 -0.442727 0.643683 -0.266762 0.885059 0.204587 0.237497 0.173179 -0.584807 -0.450164 0.297636 0.334652 0.015642 -0.408080 -0.188155 0.293313 -0.558863 -0.331256 0.681810 0.090912 -0.031182 -0.416844
1910 -0.086129 -0.588442 -0.331268 -0.575287 0.464861 -0.444069 -0.119994 0.077884 -0.690838 0.058870 0.046920 -0.569114 -0.009683 -0.328902 0.374401 0.245371 0.214479 -0.391795 0.094122 0.378920 -0.527181 -0.490466 -0.189588 0.520329 0.124912 -0.248864 0.607665 0.306655 -0.343190 -0.176490 0.411496 -0.549906 -0.345483 0.177910 0.812905 -0.714383 0.173731 0.338825 -0.996373 -0.559188 0.016225 -0.729115 -0.038794 -0.259768 0.719979 0.537084 0.934332 -0.166703 -0.563892 -0.236104 -0.069519 0.103777 -0.472341 -0.233745 -0.076027 0.178841 0.196115 -0.439182 -0.867554 0.461506 1.176658 -0.067261 -0.957819 0.079186
263 -0.136509 -0.811202 -0.505252 0.290142 0.439513 -0.565094 -0.042497 0.127771 0.572492 -0.283232 -1.037483 -1.267581 0.062423 -0.734568 0.571386 -0.577866 0.296816 0.507791 -0.940423 -0.432562 0.593983 -1.194410 -0.940911 0.906402 -0.585247 0.411158 1.167179 -0.466900 1.207048 0.143753 -0.523949 0.376926 -0.230456 0.659571 1.128738 1.354363 0.309984 0.628523 0.068227 0.119788 0.054553 0.341160 -0.730807 0.235377 -0.906051 0.933508 -0.384191 -0.835551 0.056173 1.034677 -0.480927 -0.382386 0.563904 0.728198 0.470421 0.327996 -0.573742 0.181859 0.439325 -0.350259 -0.088843 -0.345507 0.018636 0.311361
648 0.730081 -0.431220 0.160461 0.206774 -0.473473 0.810234 0.258172 0.228126 0.004778 0.619109 -0.414794 0.215682 -0.925701 -0.031393 0.019648 0.388462 0.820055 0.004957 -0.602243 0.457989 -0.055692 -0.402824 0.126072 -0.126769 -0.314348 0.465697 -0.543036 -0.185843 -0.058806 -0.457968 0.211359 -0.650409 0.347247 -0.050141 -0.061806 0.423549 0.772170 0.593959 -0.289367 -0.109036 -0.611609 0.297108 0.004823 -0.000826 -0.331884 -0.041034 -0.579403 0.094718 0.298632 -0.231575 -0.956218 -0.245038 -0.640300 0.431564 -0.711501 -0.455645 -0.277275 0.186858 1.126176 0.237052 0.180102 -0.241814 0.071143 0.881069
1388 -0.873760 -0.339112 0.309077 -0.003450 0.861680 0.575146 0.398952 0.328495 -0.551535 0.378117 0.070690 0.226395 0.307589 -0.300732 0.866443 0.320682 -0.286904 -0.513227 -0.102005 -0.241598 0.041146 -0.132121 -0.032334 -0.147938 0.231772 -0.114604 0.176215 0.236805 -0.341535 -1.129120 -0.260258 -0.715510 -0.331879 -0.478667 -0.331327 -0.109017 0.022150 -0.166990 0.332209 0.032688 0.169554 -0.405420 0.203026 0.104037 0.227721 0.582545 0.191892 0.389494 -0.262496 0.457608 -0.571029 0.153145 -0.691352 -0.261534 0.997894 -0.041597 -0.570937 0.601366 -0.099150 -0.286156 0.078163 0.226403 0.467083 0.226955
1495 -0.798575 -0.285799 0.473183 0.408015 -0.253307 0.151108 0.566260 -0.674951 -0.086199 0.553789 0.080251 0.620829 0.110287 -0.732028 0.461656 0.592176 -0.260148 -0.388263 -0.233346 -0.172884 -0.248531 -0.017914 -0.234862 0.076511 -0.199357 0.414141 -0.002103 -0.281985 -0.556007 -0.903230 0.098620 0.652851 -0.387133 -0.360996 0.687432 0.113168 0.004140 -0.095652 -0.369272 0.038237 -0.014367 -0.205708 0.760706 0.395071 -0.451317 -0.135168 -0.069090 0.000447 0.570075 -0.127682 -0.660491 0.173455 -0.344550 -0.519330 -1.100816 0.240278 0.241015 0.001825 0.552855 -0.232462 0.062855 -0.392853 -0.116613 -0.613259
1174 -0.345909 0.211552 0.209708 0.699332 -0.446724 -0.086624 -0.003984 -0.062420 -0.087543 0.807182 0.157110 -0.700015 0.010882 0.925972 0.870147 0.517122 -0.103976 0.053974 0.949700 0.132717 0.183261 -0.815609 0.131233 -0.126408 0.207192 -0.448122 -0.478657 -0.831224 -0.141437 -0.692934 0.775602 0.315840 -0.402501 -0.435060 0.183252 -0.110846 0.693069 -0.052162 -1.041425 0.538418 -0.057979 -0.615040 0.311580 -0.297775 -0.556993 -0.274757 0.368103 -0.187020 0.492679 -0.157108 1.062077 0.014326 -0.028966 0.188724 0.205770 0.503012 0.155377 -0.599611 -1.162102 0.237983 -0.441224 0.530996 -0.184639 -0.138201
2196 0.161429 0.120403 -0.173974 -0.315800 0.276712 0.098094 -0.752093 0.374845 0.043395 -0.476728 -0.359584 0.263260 -0.105803 0.628288 0.262858 -0.773679 0.551817 -0.086298 -0.624875 -1.371813 -0.839338 0.042335 -0.037134 0.332780 0.028681 0.278460 0.160386 -0.450638 0.929647 -0.252370 0.214403 -0.111837 0.186785 -0.276509 -0.838003 0.161165 -0.515866 -0.296698 -0.685719 0.721787 -0.493715 0.189715 0.165295 -0.700666 0.223918 -0.592451 -0.018716 -0.853479 0.025854 0.571460 0.412834 0.438998 -0.172568 -0.599617 -0.494860 0.640225 0.658063 -0.356275 0.065392 -0.335169 0.901653 -0.724470 0.803447 -0.363517
2646 0.600796 0.252040 0.566630 0.030190 -0.123821 -0.676959 0.423179 -0.302420 0.576716 0.507528 -0.365830 -0.438518 0.023838 -0.579401 -0.755634 -0.302298 -0.486263 -0.309556 -0.841707 -0.045355 -0.812963 -0.242715 -0.324259 -1.045382 0.289131 0.293153 -0.244819 -0.975306 0.388777 0.125507 -0.181450 0.434929 0.441709 0.006705 0.104926 0.444656 0.725955 0.435694 0.499794 0.284402 -0.243524 -0.242600 0.214130 -0.487448 -0.318494 -0.436709 -0.152591 -0.250897 -0.420648 -0.009953 0.681592 -1.067985 -0.460030 0.527003 -0.109802 -0.152723 -0.796402 0.498097 0.466035 -0.869104 0.036081 0.815935 -0.602979 -0.640266
390 -0.562451 0.445777 -0.156930 0.245336 -0.498029 -0.610853 -0.338953 0.698672 -0.226188 -0.472299 0.100830 0.697761 0.241410 0.122771 0.371628 0.788260 0.126970 0.412006 0.095678 0.107231 -0.429225 -0.438837 -0.319245 -0.373592 -0.256404 0.377763 -0.282278 0.526069 -0.074326 -0.051644 0.565926 -0.099262 -0.352890 -0.529802 0.364882 -0.317841 0.793992 -0.238412 0.640403 -0.766062 0.140991 -0.449954 -0.491878 0.559970 -0.423083 -0.290911 1.497215 0.126981 -0.243493 0.117741 0.258529 0.328945 -0.140857 -0.190588 -1.420724 -0.214439 -0.122553 -0.268518 0.618628 0.035016 0.081274 -0.604573 0.347168 -0.453193
1137 0.557145 -0.267013 0.406252 -0.444660 0.419592 0.061942 -0.405196 0.489475 -0.158117 0.332204 0.141777 0.122450 0.019739 -1.129129 0.193099 0.211834 0.407692 0.284942 0.209849 0.945841 0.076365 -0.329246 -0.024883 0.385560 0.884146 0.222862 -0.836719 0.232082 0.238469 0.257237 0.057432 -0.348984 0.312730 0.482307 0.097164 0.417122 0.490015 0.764405 0.315364 -0.501558 0.202007 0.097435 0.521128 0.417794 -0.323241 0.036430 -1.159604 1.085625 -0.864206 0.445214 0.455695 0.539070 0.102182 -0.298311 -0.380914 0.516188 -0.428897 0.181947 0.456295 -0.372244 0.998734 -0.492834 -0.136014 0.104651
1888 -0.186002 -0.098616 -0.336591 -0.210429 -0.637524 -0.312272 -0.225803 -0.180655 0.740071 -0.005486 -0.135172 0.668790 0.429372 -0.970425 0.748495 0.095595 0.158241 0.212763 -0.193416 0.263078 0.073913 -0.765551 0.001830 -0.400079 -0.278761 -0.060084 -0.341476 -0.387855 0.110747 -0.142184 0.053762 0.547289 -0.043649 -0.341854 -0.124653 0.015988 0.180928 0.434154 0.611717 -1.273240 -0.448308 -0.185227 -0.770922 0.705790 -0.055655 -0.372680 1.404454 0.218464 -0.592102 0.333174 0.145737 0.124574 -0.188559 -0.771626 -0.943895 0.062687 0.310145 -0.185002 0.189669 -0.804581 -0.679837 -0.018187 0.179239 -0.137759
662 -1.382804 0.269685 0.752955 0.317425 -0.085351 0.148660 0.438445 -0.267552 -0.806400 0.046893 0.138333 0.176620 -0.463372 0.410685 -0.279646 -0.197286 0.157088 1.269390 -0.084583 0.529180 0.733709 1.125569 0.058130 -0.181678 0.494608 -1.034333 0.031645 0.699191 0.413740 -0.879077 -0.877129 -0.191721 0.021622 0.342351 0.209083 -0.716884 -0.625612 0.468015 0.843591 0.015486 -0.950430 -0.510290 -0.886835 -0.492732 -0.695261 -0.603007 -0.395127 -0.592242 0.373574 -0.634919 -0.392653 -0.748962 0.420217 0.229718 -0.673222 -0.140963 0.593126 -0.551792 -0.076936 -0.663150 0.570046 0.366934 -1.587466 0.682550
2126 -0.724890 -0.585754 -0.128084 -0.459797 -0.791737 0.429943 0.104741 -0.104196 -0.096410 -0.279813 0.645926 0.925256 -0.262518 -0.532560 0.674922 -0.705346 0.159609 1.180324 0.110331 0.053658 0.009447 -0.749038 0.661560 -0.457023 0.212381 0.528967 -0.010436 0.280306 -0.073577 0.739880 -0.255304 -0.996067 -0.168498 -0.092790 -0.153556 0.702324 -0.121781 -0.287298 -0.359993 0.431504 1.023231 -0.027142 0.254831 -0.291009 0.012709 -0.574734 -0.718508 0.336538 0.553782 -0.836923 0.216439 -0.429526 0.223587 -0.538621 0.141534 0.141134 -0.010732 -0.134383 0.514206 -0.029175 0.417737 -0.563024 -0.956189 -0.481849
2029 -0.368755 0.072882 0.364376 -0.041610 0.655080 -0.106977 0.563189 -0.192100 0.635570 -0.545876 -0.319579 0.757644 -0.188131 0.130177 -0.700135 -1.202563 0.428796 -0.235433 0.202891 0.158897 0.292599 -0.038253 -0.595382 0.018793 -0.194738 0.521759 -0.682731 0.491936 0.074445 -0.088306 -0.091631 -0.066582 -0.407414 -0.554478 -1.101144 0.245459 -0.023413 0.605721 0.042651 0.776735 -0.307347 -0.945665 1.199918 0.573619 0.304501 1.054404 0.073058 0.449111 -0.027629 -0.005724 0.156076 -0.351695 -0.810001 -0.436625 -0.249008 0.063068 0.488610 -0.449694 0.032296 -0.569171 -0.184749 0.013781 -0.015418 0.337316
100 0.494271 -0.576776 0.763769 0.016658 -0.396012 0.655592 -0.119546 0.632919 -0.597518 0.422035 -0.228930 0.825641 -0.669999 0.019544 -0.045738 -0.553752 0.537388 0.709994 -0.270893 0.286077 0.103940 -0.073107 -0.002695 0.517091 -0.025728 -0.525744 -0.884724 0.356596 -0.078255 -0.766017 0.442815 0.589313 0.504135 0.001066 0.108946 0.827030 0.144585 0.576206 0.320548 -0.231340 0.090676 0.319045 0.725722 0.122926 -0.007411 -0.322832 -0.868742 0.142986 -0.385335 0.405378 0.101314 0.865758 0.554381 0.932102 0.206603 0.481758 -0.034668 0.154356 0.132304 -0.141658 1.265309 0.412361 0.142851 0.820923
993 1.001323 0.539914 -0.093789 -0.450887 0.074022 0.493296 0.176327 0.558442 0.130423 0.417139 0.606048 0.730405 -0.329777 -0.321387 -0.353266 0.024867 0.204735 -0.182372 -0.364940 0.508259 0.580802 -0.058982 0.057134 0.887441 -0.271690 0.568585 -0.254694 0.527866 0.104733 -0.318187 -0.052403 -0.566504 0.345694 0.331385 0.105072 0.635628 0.465657 0.317862 -0.905636 0.692425 0.322487 0.436992 -0.228443 0.721732 0.492722 0.455819 0.149299 0.281313 -0.392605 -0.145215 -0.532592 0.369715 0.212315 -0.493510 0.165788 0.394121 -0.814007 -0.215458 0.551961 0.616690 0.071010 -0.311927 0.565841 0.370191
1685 -0.562210 -0.232875 -0.748525 -0.894825 -0.380537 -0.017575 -0.740898 -0.274278 0.177246 0.231037 0.150902 0.308562 0.648278 -0.549131 0.537285 0.327872 -0.863746 -0.397797 -0.695833 -0.222955 0.391135 0.356991 -0.892079 -0.192221 0.020486 -0.307158 -0.397678 -0.210866 0.383283 -0.139890 0.467938 -0.029736 -0.024692 -0.148659 0.188718 -0.035925 0.238004 0.481552 0.035197 -0.529151 -0.447430 -0.929358 0.073126 0.444943 0.304221 -0.425914 0.278351 -0.040607 0.242020 -0.328166 0.520925 -0.413355 -0.573927 -0.347081 -0.786282 0.068202 -0.653632 -0.334762 0.454789 0.134194 0.161316 -0.352613 0.379040 0.263996
549 0.352225 0.325647 -0.337770 -0.200157 0.177991 0.312617 -0.292915 0.139541 0.498307 0.313355 -0.414932 0.913389 -1.024362 -0.912078 -0.480989 0.294319 -0.655448 -0.007512 -0.454166 0.289011 0.189515 0.428041 -0.661643 0.025038 -0.347852 0.250345 0.736419 -0.734266 0.262219 -0.220149 0.382474 0.301945 0.318656 -0.725906 -0.823836 -0.231606 0.243579 -0.313274 0.214608 -0.011375 0.597168 -0.380793 0.427173 0.496427 -0.077445 -0.215160 -0.095844 -0.569710 -0.080537 -0.148194 -0.213942 0.615413 -0.935305 0.076301 -0.087954 -0.132807 -0.146673 -0.884349 0.228917 -0.211239 0.803286 0.926271 -0.623421 -0.840985
1246 0.291218 0.253363 0.493286 -0.292912 -0.146061 -0.408464 0.574230 -0.310405 -0.256842 0.334646 -0.409488 -0.123617 -0.218506 -0.670524 -0.409641 -0.646534 -0.333137 -0.562515 -0.584335 -0.101787 -0.273049 -0.097220 -0.179856 -1.362178 0.502952 -0.109365 0.021281 -0.879226 -0.094336 0.722640 -0.270125 0.179438 0.714888 0.265961 0.202871 0.600426 1.009433 0.493719 0.205364 0.436895 0.009770 -0.620207 0.613006 -0.088169 -0.613155 0.125030 -0.290752 -0.157674 -0.860223 0.228735 0.329858 -0.414527 -0.062615 0.324251 -0.169844 0.092787 -0.453003 0.017009 0.158294 -0.471544 0.114013 0.585919 -0.442665 -0.362153
2049 -1.125492 0.571498 0.194972 0.301397 -0.017937 -0.015129 -0.139513 -0.363062 -0.904799 -0.070042 -0.409068 0.529091 0.091435 0.155482 0.644501 0.084718 -0.071692 0.556039 -0.218533 0.606007 0.433126 1.070773 0.945936 0.201526 -0.333702 -0.633693 0.035663 -0.416787 0.132680 -0.798788 -0.455936 -0.292838 0.352372 0.606827 0.935146 -0.692697 -0.093941 -0.436436 0.163192 0.281267 -1.213902 0.021438 -0.386659 0.405555 0.333452 -0.188514 -0.668361 -0.695649 -0.093338 -0.132807 -0.592752 -0.377063 -0.456816 -0.107685 -0.446646 0.438121 0.325893 0.515120 0.064795 -0.042869 0.183404 0.272363 -0.428465 0.269121
1357 0.665923 -0.167430 -0.230299 -0.157607 0.271959 -0.169174 0.738553 -0.373283 -0.413616 -0.458784 -0.024576 0.128749 -0.743290 -0.239149 -0.317265 -1.137152 -0.965921 -0.492006 -0.448745 0.247640 -0.168670 0.045958 -0.291901 -0.634932 0.194204 -0.319601 -0.608529 -0.860158 0.308265 -0.159840 -0.050905 -0.367741 -0.137617 0.085283 0.115506 0.155550 -0.097270 -0.122454 0.085919 -0.438052 0.433530 -0.311203 0.859063 -0.109062 -0.258317 -0.236544 0.410189 -0.221738 -0.867710 -0.057851 -0.225548 -0.173120 0.092481 0.004256 -0.522523 0.360969 -0.042825 -0.141958 0.443483 -0.497229 -0.264761 0.673007 -0.881104 -0.569956
2349 -0.545824 0.530083 0.108134 0.910346 -0.346299 0.290461 -0.461357 0.068017 0.801582 0.117500 0.834598 -0.040949 -0.587290 -0.248107 0.187243 -0.277851 0.302177 0.348798 0.073910 0.320922 0.394000 -0.267935 -0.132462 -0.486948 -0.022823 -0.528653 -0.165681 0.236721 0.912046 0.493350 -0.085599 -0.217091 -0.543020 0.360413 -0.210360 0.450525 -0.556390 -0.789511 0.498879 0.748198 -0.106108 0.255669 -0.006401 0.495910 -0.788279 -0.163448 0.031707 0.285114 -1.402240 -0.703750 1.887087 -0.517600 -0.248689 0.016384 0.015923 0.492116 0.237998 0.251048 0.550287 0.103745 0.262279 -0.626719 -0.923661 -1.509301
1179 -0.323699 0.607145 1.041716 -0.346701 -0.236040 0.146031 0.479068 0.416530 0.320372 -0.533053 -0.820244 -0.088031 0.794927 -0.937008 -0.806598 -0.224587 -0.567882 -0.307965 -0.474294 0.344293 -0.504642 0.834928 0.136946 -0.522940 0.268650 -0.185489 -0.136843 -0.009481 0.672081 -0.155186 -0.329386 -0.299864 0.402019 -1.375359 -0.084370 -0.518877 0.582196 -0.265536 0.201355 0.598014 -0.092917 0.713906 0.799942 0.687854 -0.393468 0.943879 -0.277707 0.701352 0.610515 0.791966 0.043579 -0.152347 0.219969 -0.041100 0.537364 0.422518 0.069741 -0.345044 -0.541885 0.605697 -0.130202 -0.057711 -0.610153 -0.261757
2673 0.377294 0.699950 0.753078 -0.473183 -0.581403 0.324102 -0.210236 0.548146 -0.234272 -0.328267 -0.795746 -0.149781 0.098378 -0.329743 -0.729328 -0.228428 -0.089574 0.485439 -0.357520 -0.003118 -0.137663 -0.259693 0.452247 0.711324 0.618915 -0.003697 -0.417729 -0.035515 0.447808 -0.408496 0.101746 -0.775881 0.092142 -1.323271 0.200664 0.804107 0.176162 0.405906 0.159353 -0.025437 -0.034948 0.249330 0.447352 0.464121 0.020839 -0.350414 -0.674420 0.877359 -0.135523 -0.171116 0.243810 -0.928668 0.430061 -0.062746 0.073216 0.875245 -0.262650 0.476950 -0.634491 0.411863 0.059262 -0.248837 0.377928 -0.119431
1204 0.491355 -0.272190 -0.087628 0.080471 -0.338134 0.139208 0.127770 0.240117 -0.019633 0.289517 0.169384 0.667472 -0.108776 0.272988 -0.473729 0.013850 0.250549 -0.274659 -0.057030 -0.297074 0.309609 -0.081373 -0.001488 0.517507 -0.293843 -0.882622 -0.720158 0.695348 0.432022 -0.465350 0.378249 0.113601 1.137081 -0.201350 0.153354 0.821678 0.058346 0.634875 -0.001512 -0.084477 -0.188319 0.280413 0.085922 0.525419 -0.748553 -0.071979 -0.422230 -0.069184 0.279336 0.726075 0.143795 0.805057 0.858850 0.541886 0.629909 0.312268 0.244770 0.112760 0.213366 -0.198595 0.614336 0.532510 0.250242 0.596145
371 0.220658 0.153817 -0.195684 0.431261 -0.729186 0.106798 0.015893 0.551727 -0.242945 0.026447 -0.934414 -0.166213 0.591474 -0.440809 1.331131 -0.001401 0.282607 -0.234681 -0.237298 -0.035179 1.069957 -0.068224 -0.022075 -0.725654 -0.499194 -0.415961 -0.153586 0.223030 -0.424188 -0.196598 0.245522 -0.077459 -0.330503 -0.365203 0.375538 -0.608249 0.335434 0.083431 0.601849 -0.511836 -0.315955 0.396146 -0.466489 0.235247 0.044623 0.421879 1.248788 0.403435 -0.729137 -0.123301 -0.444301 -0.410946 0.449653 -1.016420 -0.226003 0.331626 0.379357 -0.381592 0.007331 -0.444430 0.214801 -0.170726 0.125344 0.320670
89 0.671171 0.317940 -0.532885 0.289814 0.198961 -0.275994 -0.134196 -0.425403 0.100003 -0.197410 0.055748 -0.002150 -1.160279 -0.348201 -0.129659 -0.526743 -0.168422 -0.721030 -0.573597 -0.736469 -0.894988 -0.261374 -0.611939 -1.327057 0.879847 -0.502382 -0.219322 -1.221473 0.104678 0.033005 -0.133886 -0.259321 -0.192378 0.388883 -0.052930 0.053160 0.970733 -0.389173 0.218691 0.060333 1.081339 0.006753 0.115654 0.477323 -0.739914 -0.782204 0.619437 -0.061869 -0.249209 -0.191163 -0.509366 -0.471497 -0.760606 -0.237646 -0.391226 0.532755 -0.441464 -0.309867 0.045830 -0.079748 0.091389 0.115912 -0.596781 -0.400007
2293 -0.043237 0.214081 0.218468 -0.127397 -0.124260 0.748719 0.102892 0.431971 -1.107526 -0.029786 1.766409 0.948017 0.736924 0.057898 0.559967 0.863534 -1.021515 -0.683049 0.343509 -0.416182 -0.875276 -0.285268 -0.065637 -0.830639 -0.605667 0.569818 0.047315 -0.215902 -0.026215 0.967365 0.425049 -0.442162 1.049538 -0.176913 0.250639 -0.636210 0.159171 -0.336791 0.852910 0.409588 -0.017188 0.717638 -1.608312 -0.772651 0.785944 -0.175726 -0.390699 0.619680 -0.492005 -1.237133 0.654667 0.118472 0.174384 0.477472 -1.141357 -0.154861 -0.444645 -0.051202 0.511503 0.386172 0.007672 1.055600 0.048516 -0.240805
2218 -0.437465 -0.301097 -0.081897 -0.077483 0.802213 0.191642 0.262430 0.370701 -0.630406 0.882543 0.031233 0.225201 0.378373 -0.169278 0.255193 0.212704 0.290772 -0.285103 0.003482 -0.207052 -0.259093 0.759839 -0.421641 0.186398 0.621026 -0.147173 -0.159625 0.102460 -0.337153 -0.860976 -0.626651 -1.132161 -0.050428 -0.873690 -0.461536 -0.059416 0.286000 0.001283 0.270946 0.491187 -0.114335 0.193374 -0.194285 -0.112742 -0.184955 -0.374573 0.129859 0.293839 -0.562850 0.182501 -0.342369 0.179849 -0.148591 -0.111072 0.825675 0.110316 -0.213913 0.550519 -1.033779 -0.602230 -0.196045 0.592095 0.593503 -0.392265
39 -0.714483 -0.436387 -0.080379 0.307217 0.670137 0.128949 0.000142 0.327603 -0.219667 0.150014 0.026367 0.209444 0.649413 -0.345833 0.854329 0.283424 -0.147393 -0.376947 0.360014 0.010694 0.015404 0.585831 -0.267163 0.187196 -0.096939 0.059409 -0.072090 0.165273 -0.342229 -1.168988 -0.934208 -0.697224 -0.394107 -0.366467 -0.186783 0.358503 0.308925 -0.444140 0.434752 0.421570 0.131757 -0.588872 -0.055436 -0.422018 0.783851 0.431925 -0.021467 0.734663 -0.606792 0.188606 0.049339 0.038084 -0.291390 -0.025868 0.884377 -0.043465 -0.510517 0.274197 -0.530801 -0.588654 -0.232033 0.114608 0.805885 -0.001377
1810 -0.001027 0.416287 0.800960 -0.120417 -0.574343 0.345248 -0.099741 0.742621 -0.356619 -0.470630 -1.008448 0.003590 0.597186 -0.426680 -0.728139 -0.161988 0.234271 0.581887 -0.657768 -0.286637 -0.284496 0.078457 0.195889 0.162533 0.150297 -0.011529 -0.117454 -0.109788 0.405355 -0.513215 -0.343096 -0.485536 0.448268 -1.063174 0.663688 0.462468 0.623464 0.281393 0.593975 0.061192 -0.142585 0.532409 0.525856 0.049522 0.294474 -0.179832 -0.669813 1.301030 0.024588 0.112280 0.434855 -0.355588 0.732844 -0.065702 0.515919 0.911333 -0.501521 -0.833791 -0.384053 0.564869 0.518533 0.157469 -0.388709 -0.375639
2457 -0.747053 -0.709266 -0.377264 0.904197 -0.205448 0.160077 -1.335293 -0.484064 0.043023 -1.245789 0.280349 0.410357 0.229574 0.207729 0.006974 0.005432 -0.229924 -0.222581 0.365151 -0.036542 -0.453702 1.120098 0.820006 0.336418 -0.314182 0.985802 0.076403 0.187031 0.942716 -0.705319 -0.105219 0.668456 0.444036 0.143010 0.552393 -0.245404 0.343632 0.704918 1.372198 0.632117 0.325349 0.495617 -0.255919 0.520584 0.050872 -0.719380 -0.249431 -0.105898 0.064227 -0.026420 -0.400544 -0.148050 -0.350444 -0.084686 0.947612 0.340181 -0.029662 0.399005 0.000385 0.226543 0.243756 -0.382677 -0.423446 -1.420933
2395 -1.153967 0.058272 0.093887 0.450021 -0.225319 0.312792 -0.397240 -0.861124 -0.809694 -0.201249 -0.363761 0.678983 0.183634 -0.286462 0.391659 0.258553 -0.015076 0.206512 0.114951 0.556869 0.555017 1.442839 0.642434 0.329485 -0.824565 -0.567797 0.069476 -0.742131 -0.569974 -0.004582 -0.879733 -0.469312 0.640925 0.366523 0.482059 -1.176486 0.405777 -0.373528 0.387045 0.352360 -1.193471 -0.676299 -0.567509 0.536473 0.076182 -0.835188 -0.040240 0.120841 0.269238 0.478916 -0.018594 0.257757 -0.214783 -0.166562 -0.715733 -0.042241 0.699203 1.001163 0.456006 -0.196465 0.851920 0.272594 -0.970593 -0.069183
1098 0.122964 0.182933 -0.035275 0.468093 -0.026281 -0.536182 0.064248 0.139844 -0.193743 0.569691 -0.173023 0.063980 -0.051316 1.206222 0.098072 0.119494 0.055760 -0.274122 0.519898 -0.395555 0.012199 -0.083928 0.918428 0.317707 0.569601 0.340854 0.655579 0.537893 -0.063135 0.544240 0.747917 -0.750436 0.646324 -0.257297 0.070306 -0.632758 0.093185 -0.173204 -0.022191 0.264803 -0.046776 -0.415610 -0.091003 0.682055 -0.604437 0.479662 0.529345 -0.246883 0.346364 0.295723 0.445298 -0.081498 -0.223113 0.951058 -0.187507 0.521012 0.508127 -0.383287 -0.648730 -0.088261 -0.286500 0.635639 0.006258 0.269834
564 0.229207 -0.012162 0.760398 0.550691 -0.064257 -0.066907 -0.465466 -0.562385 0.054510 -0.273522 -1.097816 0.459840 -0.642078 -0.210285 -0.086653 0.234040 -0.059566 -0.475491 0.532566 -0.072338 0.293460 -0.763125 0.217173 0.355020 -0.789403 -0.250205 0.591969 -0.332816 0.651230 -0.643194 -0.345390 0.140727 0.123447 -0.368110 0.229899 -0.136067 0.067661 -0.295506 -0.759893 0.374976 0.025642 0.782242 0.053595 -0.899960 0.025467 0.179618 -0.378336 0.965294 -0.515224 0.270605 -0.324902 -0.647020 0.313243 0.850854 -0.620083 0.138094 -0.090595 0.277593 0.293817 0.769433 0.563860 1.113413 1.240152 0.250458
1784 -0.787919 0.812783 -0.598361 -0.021221 -0.049226 -0.404213 -0.378246 0.123091 -0.370751 -0.336041 -0.301988 0.307194 0.259015 -0.529101 -0.205609 0.445613 0.135487 0.047336 0.221996 -0.387241 -0.243815 0.104755 -0.571759 -0.479371 -0.037235 0.288102 -0.137810 -0.564684 0.236701 -0.119782 0.062259 -0.394142 0.715759 -0.520759 0.727033 -0.838903 0.056597 -0.011088 0.170396 -0.156958 -0.440384 -1.420971 0.048835 -0.352803 -0.205262 0.617079 0.177549 -0.079907 -0.167396 0.022490 0.354353 0.902039 0.309478 -0.600183 -0.449262 0.351575 0.061743 -0.149092 0.401102 0.268724 0.018961 -0.088505 0.368968 -0.297528
2656 0.653425 0.273981 -0.051058 -0.308402 -0.184106 -0.297459 0.884534 -0.313620 0.052903 -0.195528 -0.532357 -0.243211 -0.368452 -0.511122 -0.557176 -0.577187 -0.424230 -0.421027 -0.281461 0.569590 0.047887 0.183225 -0.286847 -1.118531 0.358074 -0.155881 -0.271059 -1.007868 0.083844 0.137600 -0.373768 -0.148593 0.356959 0.256098 0.185960 0.277299 0.582938 -0.195748 -0.142364 -0.019634 0.290216 -0.992266 0.248030 -0.098457 -0.535021 -0.131379 0.164447 -0.564036 -0.659677 -0.219591 -0.035263 0.139580 -0.069931 0.156328 -0.356044 -0.077773 -0.637314 -0.391546 0.245313 -0.107032 0.154829 0.530040 -0.359500 -0.387802
2086 -0.564486 -0.256965 -0.131410 0.017994 -0.389602 -0.627144 -0.628924 0.883529 -0.385877 -0.671578 0.005371 0.372021 -0.025362 -0.075809 0.935675 -0.134883 -0.231413 0.167639 -0.577354 0.072037 -1.046556 -1.298739 -0.032226 -0.545985 -0.930161 0.270023 -0.565652 0.207659 -0.214012 0.634147 -0.067217 0.163394 -0.250164 -0.641927 0.060858 0.058283 -0.308529 -0.428689 0.342923 -0.565946 -0.139816 -0.004048 -0.495961 -0.345748 -0.733811 1.111617 -0.271375 -0.405770 -0.171545 0.556547 0.620317 1.191898 -0.403939 -0.040695 -0.695868 -0.409290 0.061191 -0.489373 0.721022 -0.503856 0.694670 0.857886 -0.003571 -0.405668
1335 0.273674 -0.547845 -0.162765 -0.228484 -0.238636 -0.477950 -0.307213 -0.010126 -0.172396 -0.017361 0.101897 1.105660 -0.482073 -0.750267 0.195113 -0.423875 -0.647614 1.281069 0.453085 -0.597719 0.245793 0.055106 0.352372 -0.022077 -0.652862 0.097335 -0.002864 -0.462345 0.866444 -0.853976 -0.192860 0.514293 -0.084053 -0.088887 -0.762040 0.547930 0.179342 0.492555 0.915583 -0.536331 0.281786 -0.035007 -0.068994 -0.323179 0.030217 0.227829 -0.254307 0.254028 0.077247 0.082169 0.476669 0.753212 -0.108902 -0.966229 -0.212272 -0.274426 -0.213004 -0.084798 -0.153414 -0.344102 0.539367 -0.573165 0.222230 0.567914
464 -0.182211 0.395405 -0.417095 -0.279111 -0.262294 0.142272 0.538087 -0.552270 0.241993 0.278131 -0.312633 0.460331 -0.755022 -1.175115 0.657472 -0.632861 -0.499009 -0.126832 -0.676073 -0.087365 0.027826 -0.366055 -0.136855 -0.292281 -0.345507 0.791182 -0.109756 -0.330204 0.302743 0.125921 0.196898 0.057010 0.478775 -0.557506 0.032264 -0.166046 0.076944 0.544227 0.343902 -0.115301 -0.059391 -0.561316 0.433600 0.024540 0.162350 -0.173727 -0.035918 -0.234665 -0.547438 0.192512 0.224345 -0.168944 -0.050611 0.223422 -0.364075 0.290066 -0.120968 -0.043599 0.279305 -1.001679 -0.020597 0.909534 -0.544318 -0.689468
1178 0.004239 -0.230153 -0.171146 -0.960177 0.155759 -0.439560 -0.004176 -0.116811 0.328771 0.567229 -0.423368 0.513230 -0.520750 -0.492606 0.189609 0.511640 0.740089 -0.664253 -0.472793 0.225720 -0.330351 -0.672766 -0.121583 0.154573 -0.674714 0.846904 -0.311837 -0.034622 0.066068 -0.650145 -0.724965 0.260979 -0.025268 -0.120682 -0.221661 0.444070 0.234407 0.030553 -0.302207 0.379808 -0.744174 0.250046 -0.274312 0.650338 -0.534877 -0.219667 0.139701 -0.302232 0.424768 -0.705609 -0.199716 -0.118157 -1.006268 0.291460 -0.458983 -0.840562 -0.380006 0.071975 0.330799 0.743790 -0.284514 -0.385278 0.183156 -0.170761
2167 -0.352984 -0.201895 -0.653746 0.816772 -0.168928 -0.237560 -0.191880 -1.126838 0.455181 -0.470040 0.356508 0.638101 0.921861 1.106870 0.269493 -0.145619 -0.500135 -0.233497 0.240891 0.259863 0.977585 0.102359 1.244048 0.008429 0.381116 0.137478 0.761272 0.477786 0.974814 -0.360400 -0.999537 0.550363 0.221783 0.197654 0.567198 -0.232974 -0.662866 1.249643 0.240091 -0.227780 -0.141334 0.051296 -0.636098 -0.499886 0.563868 -1.132808 0.002832 -0.244311 0.670896 0.267996 -0.804810 0.179701 0.004398 -0.389017 -0.255536 0.068808 -0.333373 0.072630 -0.235078 -0.331860 -0.230503 0.121718 -0.743154 -0.338189
462 0.202215 -0.303396 -0.024493 0.267342 1.255307 -0.701645 -0.642527 0.637828 -0.048853 1.152472 -0.219330 -0.086405 -0.455593 0.675242 0.151400 0.004379 -0.477776 -0.657207 0.421288 0.202034 0.037503 0.032228 0.942919 0.779668 0.212452 -0.356911 -0.074257 -0.046765 0.033268 0.614441 -0.235186 -0.548698 -0.007323 -0.173365 -0.371566 -0.583368 0.350519 0.402115 -0.268573 -0.204166 -0.251213 0.096388 0.192796 -0.537817 0.582429 0.129244 0.527070 0.082728 -0.119752 0.266897 0.066103 -0.098403 -0.326890 -0.134567 0.095725 -0.533096 0.615661 0.087727 -0.406418 -0.157550 0.875575 0.125534 -0.697243 0.072790
1731 -0.103270 0.156136 -0.632244 1.100917 0.785652 -0.108577 0.644495 0.249781 -0.331377 -0.115075 0.643629 0.193053 0.238385 0.627283 -0.326256 1.069371 -0.453026 0.256787 -0.393482 0.394798 -0.059795 -0.890021 -0.234443 0.178365 -0.038137 0.275180 0.277083 -0.781455 0.170956 0.809264 -1.391079 0.684263 0.060964 -0.945343 -0.712572 1.034943 -0.328373 -0.543002 1.048471 -0.920283 0.215375 0.744411 -0.107940 0.264415 0.473195 -0.119013 0.165345 -0.759523 -1.044773 -0.613675 0.787619 -0.536951 0.701528 0.404909 0.359121 1.207592 0.132295 0.554210 1.126140 0.189057 -0.067266 -0.385454 0.374577 -0.356009
2285 0.171567 -0.829747 -0.206198 -0.567031 -0.254025 -0.263654 0.210208 -0.713343 -0.223566 0.155162 0.007255 0.996282 -0.769374 -1.050302 0.244743 0.386000 0.182712 0.582737 0.398740 -0.912449 0.313739 -0.056694 0.774767 0.205746 -0.989106 -0.172518 0.013865 -0.008465 0.625314 -0.635735 -0.399240 0.463279 0.126236 -0.184049 -1.019232 0.722419 -0.432304 0.262261 0.790309 -0.103839 0.040152 0.086331 0.455484 -0.489594 -0.127891 -0.287975 -0.469686 -0.141288 -0.205735 -0.774288 0.810553 0.288057 0.410873 -0.676063 0.045273 -0.346187 -0.338487 0.085092 -0.131598 -0.476253 0.384092 0.028057 0.288634 -0.033686
1135 0.364450 0.567485 -0.117414 -0.454588 0.384277 0.031027 0.383725 0.006670 -0.657644 -0.623841 0.092033 -0.351718 0.047404 -1.129319 -0.152887 -0.288252 -0.320201 0.945805 -0.787895 0.118661 0.295385 -0.751564 0.402074 -0.151724 0.562269 -0.161182 0.193118 0.639323 0.362365 -0.350642 0.413170 -0.535559 -0.154852 -1.141315 0.006188 0.444909 0.466581 0.004380 0.036233 0.433813 0.241566 0.731308 -0.143223 0.161963 -0.298595 -0.189571 -0.065101 0.669513 -0.133910 -0.259539 0.311820 -0.648197 0.235171 0.234511 -0.226961 0.002947 -0.327365 0.006227 0.368028 0.379877 0.247046 -0.138402 -0.191730 -0.359420
2300 0.048919 -0.202098 0.397483 -0.231942 0.535273 -0.075735 0.731626 0.081293 -0.097587 0.796687 -0.140099 -0.306673 1.183143 -0.138302 0.366671 -0.309672 -0.829102 -0.502202 -0.121983 -0.089724 -0.224906 0.621851 -0.543372 -0.380006 0.329799 -0.467964 -0.293264 0.437714 0.330695 -0.527994 -0.367908 0.200191 0.459518 -1.401945 -0.819324 -0.052003 0.137288 -0.123576 0.467491 0.890166 -0.184282 0.961005 0.349326 0.276589 -0.272672 0.132997 0.043170 0.464309 -0.237238 0.773813 -0.124536 0.519500 -1.215294 0.106762 0.298843 0.370396 -0.472646 0.076624 -0.799860 0.261179 0.025445 0.034321 -0.334034 -0.093227
1714 0.201039 -0.350231 -0.627864 0.596385 -0.164171 -0.065632 -0.108214 -0.214089 -0.821576 1.253631 -0.105881 -0.189059 0.606289 0.860357 -0.159239 -0.501927 0.851187 0.308372 -0.211978 -1.130629 -0.699935 -0.471383 0.187698 0.744139 -0.458668 -1.000309 0.259631 -0.463992 0.595683 0.050918 0.340932 -0.566676 0.441874 0.621369 0.123164 -0.604883 0.388829 -0.883427 -0.293767 0.876415 0.701704 -0.936345 0.056049 0.420243 -0.213032 -0.142610 0.090990 -0.063479 -0.135577 0.008858 0.450541 0.253882 -0.245239 0.595644 -0.835810 -0.043780 0.420773 -0.026127 -0.153042 0.306344 -1.823350 -0.458848 -0.693165 0.284714
1562 0.709786 0.254716 -0.368288 -0.320269 1.005918 0.674248 1.915038 -0.174971 -0.024140 1.490559 1.070706 0.301026 -0.834967 0.586925 -0.040069 -0.815294 0.298433 -0.584912 0.389844 -0.074711 0.881890 0.573809 -0.093187 0.161906 0.002087 2.112936 -0.749657 1.341931 0.323692 -0.397184 0.743271 -0.188563 0.550329 0.144101 0.111759 -1.117526 -0.712871 -0.538839 0.337461 0.349901 -0.133034 0.021619 0.253897 0.414662 0.441814 -0.837958 -0.747375 0.019385 0.525861 -0.367585 1.195266 -1.428924 -0.319128 -0.721293 -0.429966 0.216569 0.405804 0.597388 0.689552 0.557769 -0.809214 -0.337565 0.224887 0.540051
955 0.480487 -0.158592 0.515619 1.065636 0.020477 -0.104298 0.310896 -0.345158 -0.095194 0.816873 -0.599481 -0.467745 0.885201 0.108926 0.486647 -0.377071 -0.118526 -0.746372 0.894761 -0.057642 -1.180077 -0.479661 1.200891 0.049876 0.535087 0.941220 -0.262480 0.265053 0.025952 -0.897357 0.589740 0.647843 -0.951593 0.379986 1.123232 0.176027 -0.280499 0.000309 -0.184501 -0.107775 -1.164033 -1.172349 0.539828 -0.398404 0.167910 -0.592728 -0.019869 -0.386317 0.150025 -1.023198 0.023906 0.253403 -0.188598 0.229259 0.336330 0.548922 0.637139 -0.142518 0.897497 0.105293 -0.175100 0.345699 -0.600202 0.510366
2067 -1.154470 0.162061 -0.790037 0.229937 -0.148773 0.758882 -0.460206 -0.708768 -0.485399 -0.839826 0.103017 0.342580 0.287571 0.285211 0.792912 0.433940 -0.073156 -0.363345 0.557705 0.119816 -0.333470 0.166291 0.365239 0.783127 -0.756581 -0.317843 0.323321 -1.119495 -0.383653 0.940705 -0.344805 0.689770 -0.150382 -0.100151 0.189357 -1.129880 0.627297 0.288462 1.033723 0.000534 0.017944 0.490616 0.663994 1.045913 0.246805 -0.337405 -0.300634 0.494838 0.101934 0.938388 -0.948694 -0.192936 -0.131913 -0.411006 0.093677 0.100564 0.411632 0.528061 -0.120642 -0.053123 0.630509 0.264116 -0.578424 0.420608
2290 -0.189394 -0.002505 0.039198 0.041075 -0.291263 0.902959 0.184755 0.460607 -0.826022 -0.045834 1.973895 0.672712 0.786947 0.027824 0.760043 0.846957 -1.205566 -0.790550 0.222069 -0.326480 -0.597019 -0.421534 -0.141181 -0.669624 -0.586353 0.365607 0.152804 -0.143606 0.090083 0.985413 0.351035 -0.483702 1.056739 -0.147461 0.119305 -0.595346 0.180024 -0.092528 0.642579 0.443195 -0.051357 0.423684 -1.350540 -0.655024 1.087038 -0.164476 -0.583941 0.600518 -0.900006 -1.392223 0.688947 0.467987 -0.015323 0.540845 -1.167388 0.214140 -0.505696 0.022474 0.469214 0.345738 0.078503 0.961279 0.265414 -0.501506
2028 -0.578824 0.234255 0.751011 0.156880 1.133486 0.004304 0.746617 0.269074 0.740571 -0.370638 0.154328 0.842561 -0.006047 0.171206 -0.414063 -0.946740 0.696049 -0.579230 0.024963 -0.354703 0.134667 0.431761 -0.397243 -0.058098 0.057720 0.565279 -0.656217 0.410804 -0.243372 -0.483136 -0.514920 -0.576299 -0.011192 -0.717603 -1.061321 -0.134210 0.192138 0.562420 0.429516 0.925155 -0.504668 -1.004703 1.036872 0.005073 0.063567 0.683869 0.294444 0.364835 -0.069834 -0.152458 0.152466 -0.524055 -0.845931 -0.570207 0.104076 -0.579433 0.572537 -0.289825 -0.426717 -0.171617 -0.372854 -0.139617 0.160474 0.009598
1758 -0.318101 0.021862 0.004130 0.495918 0.113603 -0.109507 0.726660 0.334758 0.015697 -0.589222 -0.458900 0.253738 -0.460416 0.275780 -0.827040 -0.471797 0.409986 -0.640459 0.565163 0.328508 -0.101581 -0.201436 -0.632174 -0.098583 -0.055954 0.386383 -0.675078 0.307978 0.534055 0.175053 0.469398 -0.287338 -0.024635 -0.481460 -0.959262 -0.523126 -0.292694 0.907892 -0.592352 0.881695 0.218693 -1.368700 0.946287 0.876991 -0.439804 0.097257 -0.825175 -0.240440 0.365364 0.571630 -0.246549 -0.009243 0.038948 -0.243429 -0.103355 0.519573 -0.182499 0.292736 -0.346124 -0.660504 0.309256 0.289075 0.045102 0.104209
2448 -0.371892 0.152981 0.947523 -0.103640 1.015227 0.035703 0.277330 0.030627 0.661333 -0.132254 -0.019596 1.006749 -0.080596 0.255609 -0.532428 -1.365934 0.646056 -0.413866 -0.209827 -0.165199 0.257273 0.307192 -0.188816 0.079926 -0.315269 0.398613 -0.712058 0.055109 0.036154 -0.542427 -0.570818 0.014322 -0.106953 -0.514299 -0.951538 0.059819 0.097460 0.229455 0.048687 0.699242 -0.118981 -0.729022 1.142765 -0.207552 0.072858 0.746333 0.306532 0.328887 0.027510 -0.070869 0.511989 -0.271465 -0.959048 -0.634011 0.159860 -0.179228 0.041959 -0.611767 -0.063408 -0.381663 -0.178706 -0.294490 0.451445 -0.120407
1410 -0.529999 -0.293160 0.120880 -0.203017 0.985455 0.429853 0.467067 0.259999 -0.180114 0.352125 -0.064267 0.015321 0.309423 0.083297 0.550741 -0.512731 0.419813 -0.493220 0.269631 -0.436648 0.127707 0.158740 -0.674942 0.079704 0.208230 0.159551 0.101166 -0.271659 -0.159674 -0.879133 -0.254967 -1.177088 0.046791 -0.296635 -0.197350 0.016858 -0.003592 0.201200 0.684949 0.573142 0.023689 -0.021883 -0.252094 -0.555632 -0.235099 -0.335047 0.514475 0.560133 0.147315 -0.129414 -0.095026 -0.227496 -0.685252 0.366630 0.423014 -0.162439 -0.137366 0.250723 0.552602 0.070379 -0.138157 0.803708 -0.036024 0.340681
72 -0.659429 0.429628 -0.551220 0.063642 -0.189080 -0.032322 0.620150 -0.043369 1.237923 -0.023554 -0.078400 0.321901 -0.911164 0.966207 -0.314440 0.345301 -0.296593 -0.073859 -0.365205 0.189535 -0.086440 -0.117907 0.352927 0.550912 0.141873 0.299121 0.325715 0.570852 0.429486 -0.728815 0.623901 -0.217663 0.594340 0.218371 -0.247640 -0.156736 0.431240 0.215578 -0.426431 -0.282930 0.030168 -0.308166 0.120949 -0.584083 -1.178123 -0.715697 -0.486916 0.376525 -0.103443 -0.056602 -0.836888 0.024646 0.379232 0.315799 0.381954 0.006972 -0.724802 0.172293 -0.984437 0.339019 0.716507 -0.174397 0.095314 0.068873
2056 -0.883544 -0.454121 -1.509172 0.783487 -0.834216 0.362448 -0.607980 -0.561184 -0.376008 -1.003807 0.534988 -0.049166 0.371374 0.784427 0.535936 -0.038581 -0.590659 -0.227669 -0.036187 0.118197 -0.686492 0.928382 0.240856 1.048324 -0.495209 0.388884 0.388557 0.012417 0.190086 -0.621755 -0.358621 0.687481 -0.204724 0.095939 0.490241 -0.279569 0.488320 1.033680 0.608364 0.426714 0.885995 1.096486 0.614671 0.290563 0.361287 -0.738540 -0.061922 0.292419 -0.470653 0.408545 -0.164964 -0.712334 0.006255 -0.279876 0.391472 0.146208 0.400544 0.319647 -0.440087 -0.044283 -0.300204 -0.058109 0.447144 -0.086800
769 -0.177664 -0.199433 -0.055455 0.397334 -0.093111 -0.344828 -0.020163 0.159349 0.377770 0.932115 0.415742 -0.276691 -0.440668 0.699007 0.597016 0.499468 0.540984 0.139867 0.716941 0.312051 -0.172702 -0.482443 0.616018 0.128899 0.051543 -0.431849 0.189763 -1.039262 -0.380178 -0.785401 0.279935 0.611208 0.304481 -0.268234 0.158267 0.173047 0.075131 0.117040 -1.027396 0.628686 0.042101 -0.224440 0.803177 -0.296360 -0.639944 -0.227875 0.405003 -0.096644 0.347365 -0.441699 0.971161 0.250658 0.129454 0.282702 -0.230818 0.410094 0.095109 -0.747906 -0.825667 0.183566 0.217876 0.214600 -0.063717 0.045599
470 -0.393565 0.048827 -0.573688 0.230742 -0.827472 -0.388199 0.080453 0.670343 0.096753 -0.531147 0.010484 0.683724 0.233228 -0.577602 0.949753 0.202699 0.357024 0.301448 -0.250182 0.043389 -0.034665 -0.869126 0.367666 -0.341380 -0.318272 0.488422 -0.112293 -0.013556 -0.288056 -0.195813 0.038125 0.220724 -0.357526 -0.361864 0.586920 -0.206702 0.233181 -0.020070 0.371645 -0.590805 -0.145419 -0.233120 0.068738 -0.238805 -0.329485 0.789804 0.178378 0.007729 -0.375506 0.431684 0.044708 0.772750 -0.464729 -0.236560 -0.969741 -0.023954 0.189866 -0.372162 0.209143 -0.262316 -0.156382 -0.050141 0.212702 -0.759584
2312 0.280708 -0.487722 0.574422 1.246428 0.200595 1.181461 1.693716 -0.760865 -0.554073 -1.391928 -0.118645 0.044436 0.143139 0.085702 -0.115613 0.575657 -0.414001 -1.705912 0.266869 0.588817 -0.769115 -1.862489 -0.426901 0.266026 0.205505 -0.632721 1.128604 0.386549 0.186023 0.878086 0.493527 0.129822 -0.459371 -0.355050 0.920609 -0.352980 0.982715 -0.245739 0.373661 -0.188019 -1.002220 0.636308 -0.117456 0.455193 -0.024014 0.168903 0.454813 0.506026 0.049200 0.924250 -0.668621 -0.322478 -0.689265 -1.062923 -1.405601 -1.145641 0.833120 0.272088 0.093113 -0.537301 0.624645 0.617298 0.838436 0.285717
1764 -0.000640 -0.059306 -0.318274 -0.208448 -0.753893 -0.565372 0.445212 0.408635 -0.582860 -0.460506 -1.061551 -0.058986 0.548047 -0.684637 0.585536 0.112027 -0.254608 -0.029904 0.465236 0.635039 0.139080 -0.443353 -0.389823 -0.017937 -0.525750 -0.166725 -0.208233 0.189437 -0.114573 -0.091929 -0.073147 0.071142 -0.207091 -0.216012 0.327475 -0.809748 0.168728 1.082515 0.181968 -0.107949 0.132262 -0.488201 0.215235 0.039026 -0.321420 0.066846 1.378159 -0.624239 -0.342815 -0.004049 -0.359837 0.325242 0.501137 -0.107004 -0.088718 -0.828195 0.281505 -0.459497 -0.400947 0.532093 0.743975 -0.415556 -0.537573 -0.239353
639 -0.055021 -0.146728 -0.664130 1.106705 -0.235634 0.344472 0.237455 -0.515462 0.880886 -0.807303 0.182995 -0.075080 0.601529 0.966152 0.394143 -0.371437 -0.401494 -0.077231 0.133991 -0.199960 -0.017198 -0.241182 1.084015 -0.098161 0.120462 0.428869 0.660509 -0.048589 0.909367 0.042783 -0.716409 0.155457 -0.068535 0.184557 0.742632 -0.836338 -0.305986 1.224080 0.297061 0.160033 -0.070933 0.502215 -0.395150 0.232333 0.960113 -0.769103 0.304395 -0.020623 -0.025755 0.284026 0.022759 0.707738 -0.268148 -0.350680 0.069005 -0.241947 -0.561948 0.481693 -0.441995 -0.095164 -0.002689 0.008948 -0.003051 0.167348
2304 -0.836448 0.736081 -0.193494 -0.326041 -0.812617 0.068885 0.405363 -0.369641 0.227243 -0.424457 -0.071122 0.465520 -0.484889 0.571170 -0.374603 0.136179 -0.327649 -0.072916 -0.365838 -0.169806 0.374519 -0.319502 0.136474 0.742608 -0.081584 0.347504 -0.010976 0.099444 -0.461667 -0.772138 0.950444 -0.201903 0.568661 0.144836 -0.720420 0.266021 0.411991 -0.048378 -0.547042 -0.074930 0.355967 -0.625932 -0.221047 -0.389981 -0.441685 -0.426775 -0.195017 0.523805 0.205761 0.206797 -0.590953 -0.010119 -0.073728 0.129384 0.525307 -0.050244 -0.847982 0.284030 -0.771557 -0.339953 1.239465 -0.601451 -0.679319 0.042096
