2708 128
24 0.142301 -0.073511 -0.075934 -0.008798 0.089499 0.079145 0.221372 -0.042655 0.174742 0.064504 0.027183 0.178046 0.067591 -0.045404 -0.019823 -0.035218 0.065690 0.029743 -0.000789 -0.327338 -0.087735 0.215356 0.421969 0.106637 -0.019680 -0.143208 0.166170 -0.072788 -0.345957 -0.105187 -0.085538 -0.076602 -0.058065 -0.114149 0.022349 -0.102187 0.036725 0.102768 -0.041998 0.147070 -0.098602 0.270539 -0.111623 -0.024168 0.278701 -0.051820 0.059605 0.128147 -0.239739 0.438082 0.155642 -0.158617 0.287041 -0.217232 0.424691 -0.492804 -0.250062 0.232710 0.065585 0.233751 -0.304831 0.044894 0.143634 -0.308415 0.176423 0.152981 0.082498 -0.175392 0.265966 -0.284814 -0.114870 0.206663 0.031127 0.170688 -0.003642 -0.080500 -0.260090 -0.136463 -0.139835 -0.207901 0.130316 -0.029229 -0.049059 -0.143813 0.001936 0.198526 -0.158835 -0.170301 -0.154751 -0.110382 -0.267085 -0.175833 0.136999 -0.062875 -0.132504 0.113402 0.149540 0.292860 0.106946 0.142932 -0.328113 0.125056 -0.115597 -0.061607 0.031613 0.125717 -0.013412 0.251449 -0.355066 -0.406897 -0.017743 -0.113997 -0.073265 -0.146610 -0.191364 0.050473 -0.060206 0.006072 0.049868 -0.029143 0.027740 0.025516 0.048107 0.062527 0.094495 0.010203 -0.142273 0.254500
1423 0.305561 0.150003 0.164977 0.235516 -0.240365 0.114194 -0.101532 -0.007556 -0.064365 0.638573 -0.190166 -0.094514 0.027355 -0.025060 0.368317 0.056114 -0.028997 -0.031033 -0.045273 0.282141 -0.294406 0.067736 0.065410 -0.039858 0.310295 -0.100772 0.013586 -0.119924 -0.365770 -0.113108 -0.180396 -0.295127 0.026315 0.124982 0.153619 -0.193281 0.022022 -0.079126 0.413500 -0.330399 -0.002109 0.201718 -0.169029 0.056852 0.238205 0.111541 -0.015448 -0.403665 -0.265119 0.133639 0.133046 -0.061113 -0.171785 -0.345482 -0.094740 -0.062862 0.063687 -0.054764 -0.229218 0.011132 0.230236 -0.086309 -0.202595 -0.031732 -0.409547 -0.127600 -0.017440 0.346189 -0.390855 0.008816 -0.150780 0.182426 0.244568 -0.448821 0.092110 0.003801 0.110403 -0.462856 -0.303422 -0.285830 0.220863 -0.225751 0.218402 0.009402 -0.308533 0.003995 0.137603 0.017745 -0.090266 0.201317 -0.150460 0.247763 0.358322 -0.289932 0.044449 0.114787 -0.007000 -0.222480 -0.033985 0.332488 -0.106075 -0.048750 -0.080792 -0.082838 -0.073259 0.168202 -0.004224 0.114657 -0.287007 -0.178462 -0.110580 0.369364 0.060193 -0.055810 -0.036684 -0.093728 -0.241483 -0.037734 -0.006702 -0.172810 -0.182084 -0.319659 -0.018011 -0.082506 -0.070925 0.087823 -0.053322 -0.017463
927 0.001906 -0.116232 0.033975 -0.241107 -0.582469 0.141204 -0.115339 0.130452 -0.162184 -0.156285 -0.037203 -0.067939 -0.027952 0.083120 -0.020355 0.069816 -0.121902 -0.060277 -0.311393 0.379256 0.194268 -0.259015 0.286194 -0.072103 -0.112743 -0.391117 -0.230928 -0.142455 -0.070643 -0.022171 -0.159095 0.262310 0.167609 -0.256558 0.134853 0.438903 -0.249519 0.145026 0.183442 -0.309076 0.307974 -0.065006 0.020157 -0.160281 0.171478 0.233296 -0.088044 -0.323420 -0.353754 0.034939 -0.223785 -0.141007 -0.156573 -0.087065 0.323383 -0.232768 -0.094385 0.355903 0.017580 0.005196 -0.315548 0.138156 -0.287324 -0.346959 -0.201281 0.282161 0.128548 -0.220496 -0.012187 -0.108762 -0.276188 -0.407767 0.175743 0.120462 0.079220 -0.148894 0.021732 -0.549611 -0.146363 -0.223975 0.180967 -0.184624 -0.104326 0.131160 0.076102 -0.103484 -0.138781 -0.609293 -0.011960 -0.221114 -0.252159 0.303341 0.085741 0.332963 0.034465 0.125349 -0.094311 0.087549 -0.145286 -0.030909 0.207613 0.048598 0.133815 -0.300590 0.359321 0.140952 0.028479 0.094015 0.088562 0.795508 -0.087452 0.328921 0.107297 -0.234601 0.377290 -0.229339 -0.006822 0.071901 -0.156211 -0.155888 -0.345532 -0.042473 -0.040331 -0.232316 -0.176130 -0.093610 -0.145166 -0.307498
2154 -0.030402 -0.187523 0.468678 -0.378007 0.004233 -0.220384 0.041447 0.117565 -0.128256 0.286662 -0.075278 0.243050 -0.252323 -0.178640 0.458557 0.043391 -0.150690 0.111899 -0.065320 -0.081858 0.136483 -0.099446 0.013348 -0.185687 -0.051840 0.331755 -0.145708 -0.110996 -0.116903 -0.215398 -0.192708 -0.043489 0.129545 0.083639 0.087443 0.028079 0.285107 0.171408 0.384286 -0.064534 0.111373 -0.106372 -0.017201 0.276268 0.035683 0.006024 -0.349802 -0.159418 -0.394238 -0.144972 0.009198 -0.306242 -0.017900 0.173633 0.175005 -0.281837 -0.249210 0.059245 -0.004042 -0.061998 -0.335933 -0.054291 -0.197598 -0.244449 -0.249314 0.117657 -0.504574 0.002998 0.210453 0.189342 -0.313077 -0.150289 0.318314 0.154121 0.136374 0.553380 0.175882 -0.399772 -0.241991 0.186709 0.218917 -0.056267 0.008362 -0.029967 0.181835 -0.345313 -0.188977 -0.387427 0.231323 -0.177857 -0.139151 -0.265089 0.098334 0.020845 0.054835 0.012125 -0.138647 0.146914 -0.064671 -0.388623 0.087086 0.110221 0.186260 -0.027072 0.593708 0.411041 0.079690 0.218720 0.153457 0.179450 -0.313502 0.253576 -0.384194 -0.004124 -0.083702 -0.046831 0.371627 0.116444 0.006300 -0.125514 -0.179088 -0.032666 -0.067409 0.006571 -0.316110 -0.167470 -0.096222 -0.246070
619 -0.019500 0.601915 -0.288635 -0.571482 -0.360946 -0.250223 -0.280705 0.555216 -0.100157 0.182200 0.339828 0.388469 0.275626 -0.056181 0.015496 -0.249217 0.286187 -0.291297 -0.482455 0.476456 0.146222 0.011490 -0.211783 -0.356251 -0.037399 -0.023734 0.230837 -0.065443 -0.085048 -0.139706 -0.211580 0.288210 0.047804 -0.448532 0.038489 0.262147 0.041850 0.175581 0.675486 0.016257 -0.206435 -0.093953 -0.189230 0.045996 0.454081 -0.182818 0.101036 -0.090863 -0.269881 -0.112492 -0.089245 -0.227716 -0.145703 0.178525 0.234321 0.114400 -0.281752 0.107527 -0.493272 0.187978 0.032978 -0.243952 0.126976 -0.008911 -0.316484 -0.063274 0.122654 -0.305116 0.012279 -0.194704 -0.066855 0.112231 -0.206959 0.008967 0.181697 -0.134619 0.351279 -0.499011 -0.073242 0.036140 0.374414 -0.222598 -0.154784 -0.042779 -0.058441 -0.044220 -0.073924 -0.071053 0.298115 0.245589 0.112806 0.246319 -0.751803 -0.066502 -0.109643 -0.068404 0.166503 -0.018330 0.074945 0.353881 0.130494 0.228373 -0.111416 -0.006969 -0.027956 -0.108013 0.306309 -0.077407 0.179665 0.156087 0.006107 0.312961 -0.179218 -0.078746 0.116452 0.004493 0.338140 0.112429 0.165318 -0.162509 0.076505 0.236140 -0.216536 -0.185168 -0.319091 -0.214974 -0.146769 0.021749
82 0.378425 -0.166201 0.165595 -0.059954 -0.167398 -0.199908 -0.119924 -0.088097 -0.214582 0.326477 0.096084 0.131414 0.035877 0.226203 0.199434 0.080967 -0.252094 -0.054984 -0.216776 0.591096 0.042997 -0.143772 0.051415 -0.135638 0.150937 -0.018557 0.206772 -0.236826 -0.634646 0.060186 0.030526 -0.219081 0.143305 0.190793 0.306553 -0.078213 -0.123634 -0.074506 0.267640 -0.260660 -0.339041 0.349904 -0.630590 0.220273 0.355465 0.306460 -0.187076 -0.458833 -0.487556 0.328529 0.078294 0.207063 -0.088315 -0.320583 0.033764 0.297289 0.029012 -0.178712 -0.213655 0.153007 0.142183 -0.087724 -0.130815 -0.013925 -0.234669 -0.252989 -0.287446 0.276373 -0.453258 -0.208318 0.094351 0.287523 0.342038 -0.375605 -0.094240 -0.088854 -0.056876 -0.279157 -0.161691 -0.266869 0.130245 -0.586225 0.120720 -0.248371 -0.278486 -0.001982 -0.320793 -0.056321 -0.182578 0.487230 0.261504 0.352345 0.379944 0.065278 0.291001 -0.204487 0.198657 -0.231007 -0.155149 0.131025 -0.064683 0.073785 -0.125865 0.162052 -0.178251 0.242185 -0.095931 0.043453 0.062675 -0.053639 -0.177632 0.096887 -0.145938 -0.115666 0.019299 0.031476 -0.168002 -0.216082 -0.149379 0.043279 -0.076528 -0.456335 0.185268 -0.004019 -0.076636 -0.115942 -0.155284 -0.378455
161 -0.027676 0.587513 0.110515 0.313068 -0.149772 0.010475 0.119177 0.157700 -0.359923 0.214776 0.329651 0.198309 -0.060540 -0.564743 0.126311 0.121210 0.239697 0.066232 -0.429646 0.706683 0.032251 0.239104 -0.506735 -0.014035 0.283867 0.010727 0.222554 -0.198043 -0.282863 0.066697 -0.268931 -0.118478 0.038630 -0.235996 -0.100073 -0.057600 0.115914 0.029840 -0.018709 -0.309637 -0.033582 -0.002636 0.089296 0.176423 -0.043049 -0.438418 0.018174 -0.095301 -0.009506 -0.127203 0.174636 -0.081968 -0.002562 0.034035 0.098152 -0.409118 0.247795 -0.335159 0.197067 -0.022310 -0.092514 0.130330 -0.122040 -0.351757 -0.121166 -0.063108 0.140829 -0.420786 0.093026 0.093016 -0.124069 -0.248993 0.157705 0.450329 0.086831 0.323284 -0.224691 -0.166448 -0.393275 0.082439 -0.093973 -0.171399 -0.202617 0.151066 -0.106037 0.325388 -0.511477 0.024901 0.242902 0.332247 -0.163468 -0.006626 0.040156 0.250113 -0.105705 0.035455 0.092048 -0.348125 -0.195022 -0.107966 0.184207 -0.083175 -0.060782 -0.012738 0.243058 -0.274162 0.068207 -0.195083 0.413982 0.147009 -0.021429 -0.055333 0.116498 0.005056 0.125105 -0.135639 0.055159 -0.236075 0.044775 -0.019323 -0.018938 0.110271 -0.141314 -0.171783 0.200640 0.225204 -0.235867 -0.459001
2156 0.018277 -0.083215 -0.211591 -0.325783 0.336297 0.132423 -0.368517 -0.044414 -0.067563 0.086471 0.197162 0.111394 -0.361772 -0.111987 0.310415 -0.032338 0.402543 0.175446 -0.185523 -0.321135 0.124450 0.003186 -0.030465 -0.066718 -0.268521 -0.151289 0.326983 -0.138687 0.270822 0.023574 -0.383680 -0.045023 0.281767 -0.144932 -0.613244 -0.110645 -0.020829 -0.231415 -0.128429 0.145943 -0.024203 0.240561 0.067522 0.161341 0.077446 -0.124055 0.114474 0.022801 -0.194914 0.364958 0.221865 0.094899 -0.319010 0.126666 -0.111613 0.125289 -0.104867 -0.061341 -0.362248 -0.376677 0.053482 -0.106524 -0.061914 0.245638 -0.080725 0.309006 0.092192 0.091544 0.195753 0.255678 0.082981 -0.226170 0.206044 -0.101965 0.032027 0.240031 0.198343 0.192906 -0.052283 -0.553910 0.071525 -0.166404 -0.191236 -0.056211 -0.348379 -0.080810 -0.213327 -0.525020 0.155526 0.194803 -0.091553 -0.459421 -0.024166 0.233149 0.410462 0.002059 0.065691 0.111966 -0.264819 -0.052596 -0.189597 0.064520 -0.066393 0.527948 0.381880 -0.199208 -0.248169 -0.180065 -0.645733 -0.133703 0.046542 -0.306718 0.203430 0.044279 -0.135514 -0.237007 -0.068545 0.457622 0.361314 -0.229546 -0.169990 0.158650 0.355947 -0.038485 0.044360 0.539792 -0.208580 -0.175743
2021 -0.062520 0.109791 0.056014 0.272727 -0.160984 0.072834 0.449144 0.249132 -0.337262 -0.558373 -0.436482 -0.206848 0.175918 0.204092 0.131039 0.313016 0.130603 -0.120978 -0.451793 0.347274 -0.041833 -0.557079 0.001299 -0.636877 -0.250308 -0.048047 0.048854 -0.349513 0.088140 -0.187108 -0.539439 -0.078089 0.385169 -0.053938 0.237526 0.202654 -0.148183 -0.169882 0.118643 -0.531551 0.115501 -0.026458 0.284973 0.126280 0.218198 0.105741 -0.077595 0.056029 -0.219950 -0.137158 0.663516 -0.274022 -0.162056 0.161307 0.557013 -0.124421 -0.267618 0.214487 -0.227161 -0.073357 -0.149519 0.009747 -0.026292 -0.502076 -0.281379 0.320718 -0.208076 -0.141163 -0.187135 -0.469261 0.140395 -0.363355 -0.348481 -0.051883 0.080544 -0.045520 0.036376 -0.551742 -0.061714 -0.287610 0.006379 -0.124443 -0.062628 0.246239 0.156304 -0.112578 -0.269831 -0.493165 0.247053 0.138183 0.210735 -0.141820 -0.175788 -0.262832 -0.023452 0.119589 -0.033788 -0.046408 0.053531 -0.174330 0.058087 -0.011070 0.023941 0.066664 0.414577 0.346482 0.227592 0.088694 0.244079 0.345695 0.067017 -0.089319 0.044836 -0.312520 -0.357782 -0.142321 0.060035 0.215602 -0.394287 0.025634 -0.326957 -0.026723 0.050190 -0.031817 -0.297569 -0.259729 0.093970 -0.078142
864 0.110460 0.097591 -0.540929 -0.194207 0.008944 0.153050 -0.112098 0.305856 0.035590 0.163719 -0.102015 -0.137515 -0.155366 0.027349 0.169050 0.332927 0.031946 -0.306113 -0.623218 -0.079670 -0.425323 0.074654 0.027442 0.378911 -0.381957 -0.355315 0.198325 -0.272445 0.086069 0.294851 -0.104840 -0.123607 -0.123241 -0.087481 0.081154 -0.405388 0.288195 0.125038 0.019344 0.079891 0.241605 -0.124254 0.093087 -0.236157 -0.024726 0.513554 0.035850 -0.453833 -0.301807 -0.021777 -0.126000 0.221716 -0.039454 -0.105313 0.494761 0.249864 -0.246451 -0.159244 -0.053219 -0.347739 0.122700 0.398626 0.061148 0.213365 -0.080342 0.000293 0.174078 0.197011 -0.049792 0.320503 -0.265188 -0.012361 0.417377 0.306513 0.204767 0.059382 0.317302 0.237563 -0.043906 -0.281815 -0.046987 0.119086 0.010409 0.243769 -0.215507 0.029113 -0.038126 -0.028239 -0.188261 -0.205940 0.171120 -0.250917 0.097807 0.265958 0.109567 0.365780 0.057563 0.091925 0.370353 0.032902 -0.252567 -0.264674 0.099396 0.216727 0.352939 0.487123 0.126363 0.006157 -0.346109 -0.101259 0.249850 0.073341 -0.175004 -0.324165 -0.233596 0.234244 0.024075 0.055856 0.168108 -0.029859 -0.220516 0.057149 0.230153 -0.290492 0.231219 -0.051851 -0.039879 0.026781
1631 0.004167 -0.192711 -0.294377 -0.080876 0.312151 0.147624 -0.071254 0.024617 0.192343 0.129933 -0.116187 -0.156796 -0.233272 -0.045796 -0.226682 0.200302 0.228134 0.136214 -0.172531 0.035714 -0.537596 -0.082800 0.294498 -0.091621 -0.414916 -0.273906 -0.108584 -0.006577 -0.571231 0.201456 -0.107871 0.308063 0.089589 -0.056872 0.177713 -0.324372 0.220520 -0.364408 -0.188073 0.167619 0.107933 -0.474182 -0.372019 0.124935 -0.345092 -0.503472 0.172620 -0.332196 0.073058 0.176060 -0.352152 0.535245 -0.317620 -0.134255 -0.246598 0.407596 -0.197603 -0.214322 -0.262969 -0.237571 0.164485 0.138534 -0.437203 -0.661278 -0.266365 -0.343369 0.059712 0.393800 -0.014883 0.693012 -0.441491 0.073137 0.029161 0.371683 0.557962 0.493519 -0.043089 -0.198540 0.060603 0.101885 -0.043492 -0.309309 -0.224442 0.685214 -0.540884 0.249161 0.037773 0.025847 -0.241485 -0.142433 0.094310 0.048360 -0.159676 0.100200 0.278593 0.289363 0.127316 0.286134 0.166515 0.014604 -0.284191 0.171417 0.423101 0.614455 -0.296156 0.315025 -0.185915 0.156438 0.110674 -0.018687 -0.095502 -0.078051 0.173227 -0.566179 0.020767 0.191778 -0.010696 -0.056866 0.463001 0.137481 -0.190032 0.181806 0.225281 0.103509 -0.164200 -0.001042 -0.088579 0.188174
320 0.003113 0.123789 0.016453 0.300252 -0.298984 0.033510 -0.232999 0.062723 0.234040 0.384591 0.007307 -0.046576 0.203962 0.101678 0.290094 -0.168486 -0.212892 -0.159506 -0.364713 0.226726 -0.483613 -0.084454 0.173343 -0.081268 -0.158325 -0.219335 0.182108 -0.367276 -0.079035 0.087176 -0.347651 0.239643 0.002374 -0.091614 0.032112 0.105090 -0.028060 0.097431 0.267640 -0.250667 -0.157180 0.021518 -0.208859 0.063470 0.293059 0.174931 -0.045702 -0.294882 -0.217516 0.165318 0.032118 0.079516 0.122032 -0.504140 -0.228764 -0.058232 0.158532 0.121318 -0.303605 -0.119303 0.073386 0.084304 0.011417 -0.377659 -0.057562 0.101397 -0.123555 -0.045934 -0.617048 0.111508 -0.173005 0.273179 0.246886 -0.058248 0.143335 -0.190342 0.400888 -0.281134 -0.241248 -0.415386 0.005108 -0.143679 -0.089169 0.208984 -0.028291 -0.247401 -0.039360 0.028528 -0.121245 0.172858 -0.028592 0.427502 0.746648 0.093500 -0.219143 0.270811 0.049713 0.092248 0.134266 0.228029 -0.183828 0.005718 0.169984 -0.067282 0.346618 0.124511 0.147418 0.295429 0.106849 0.126726 -0.027417 0.343347 -0.235036 -0.254156 0.186985 -0.097465 0.063909 -0.009724 -0.139978 -0.278349 -0.222534 -0.381123 0.062230 -0.131359 0.109148 0.154128 -0.468187 -0.085632
273 -0.136117 0.117387 -0.093796 0.267365 -0.329564 0.258374 -0.033631 0.115907 0.195821 0.355677 0.090816 -0.025935 -0.035364 0.176516 0.395427 0.126987 0.050083 -0.069223 -0.128504 0.181850 -0.226501 -0.059998 0.160022 -0.245401 0.099108 -0.316324 0.151905 -0.184588 -0.379913 0.157208 -0.256583 0.072909 -0.275756 0.192487 0.342287 0.008683 -0.256537 0.293088 0.124785 -0.081716 -0.189200 0.115470 -0.197017 0.015596 0.250555 -0.067444 -0.305787 -0.478441 -0.519731 0.174082 0.038244 0.202276 0.174753 -0.197195 0.164889 0.334804 0.342464 -0.192485 0.034446 0.125313 0.000099 -0.168578 -0.095136 -0.277401 0.030109 -0.274102 -0.120933 0.170285 -0.195556 0.050286 0.122808 -0.112208 0.783133 -0.172095 0.232776 -0.141994 0.242218 -0.263079 -0.198149 -0.395636 -0.004751 -0.058681 0.084426 -0.284349 0.146337 -0.260421 -0.261481 -0.063522 0.145910 0.324553 0.226028 0.287774 0.603425 0.054088 -0.246319 0.033444 0.177814 -0.246966 0.006553 0.058712 -0.159061 -0.075410 0.007961 0.228353 0.136058 -0.168877 0.088176 0.439831 -0.129222 0.157640 -0.203327 0.011162 -0.267007 -0.061800 0.010620 -0.255431 -0.343757 0.073740 -0.019689 -0.045300 -0.147470 -0.111138 0.115324 -0.243476 0.139330 -0.042073 -0.082691 0.455741
1567 -0.041916 0.146443 -0.063577 0.055839 -0.232370 0.030777 -0.187364 0.236058 0.005387 0.277780 -0.358852 0.321705 0.339747 -0.245376 0.397954 -0.041915 0.010828 -0.325427 -0.371644 0.378173 0.403725 0.012581 -0.114201 -0.072130 -0.159168 -0.032594 0.092491 0.209804 -0.034337 -0.208628 0.033074 0.579885 0.130201 0.123952 -0.160680 -0.407453 0.060421 0.030755 0.219290 -0.040501 0.113939 -0.441883 0.234393 0.016105 -0.330402 0.453719 0.079989 -0.031759 0.158838 0.073753 -0.307022 -0.030026 0.387566 0.392922 -0.050901 -0.053091 -0.496378 0.061916 0.015716 -0.205656 0.024435 -0.671036 0.370025 -0.632576 -0.449042 -0.287981 0.182003 -0.264816 0.055174 0.065937 -0.043907 -0.082599 -0.139776 0.183058 0.251994 0.548487 0.329384 -0.098826 -0.482741 0.071392 0.446880 -0.465736 -0.269340 -0.275069 0.102815 -0.231857 -0.434005 -0.041662 0.237050 0.068110 -0.444410 0.257623 -0.338796 -0.157645 0.200136 -0.236487 -0.051276 -0.427394 -0.232694 -0.214015 -0.090873 0.198205 -0.015807 0.284683 0.169938 -0.546101 0.114345 -0.035620 -0.292143 -0.127628 0.345867 0.069953 -0.146279 -0.308588 0.211859 0.252232 -0.151844 0.512956 -0.250868 -0.033810 0.263088 0.075258 0.345479 0.334886 0.010840 0.436940 0.380438 -0.017441
830 0.158771 0.195835 0.201584 0.175767 -0.011522 0.256682 -0.173029 0.329187 -0.104764 0.507553 -0.161718 -0.106108 -0.129922 0.060566 0.264001 -0.039407 0.062592 0.251056 -0.136954 -0.176414 -0.146033 0.107189 0.151237 0.111836 -0.062877 -0.107931 -0.007274 0.139822 -0.331253 -0.088565 -0.217634 -0.151160 -0.166019 -0.067320 -0.175985 0.157698 0.311688 0.037632 0.302250 -0.104499 0.181769 0.046963 0.048107 0.190044 -0.002128 -0.271871 0.209787 -0.134376 0.275512 0.502671 0.313028 -0.012826 -0.024938 -0.224163 0.487285 -0.412322 0.034470 0.165471 -0.074330 -0.182407 -0.193126 -0.076088 -0.245150 0.065667 -0.167376 0.073408 -0.152665 0.050237 -0.242407 -0.233946 -0.405520 -0.113214 0.492759 -0.070045 0.250084 -0.097047 -0.020267 -0.327176 -0.271185 -0.155848 -0.039017 -0.165044 0.096072 0.096255 -0.240507 -0.011051 0.626338 0.165901 -0.341425 0.298507 -0.107019 0.554836 0.311714 -0.161579 -0.141418 -0.306866 0.081794 -0.101636 -0.040591 0.357398 -0.276953 0.031138 -0.107610 -0.025490 -0.309203 0.153101 -0.173269 0.085970 -0.112217 -0.114142 -0.090127 0.238127 0.006869 0.034304 -0.198480 -0.482838 -0.221493 -0.093495 0.083973 0.221788 0.059579 -0.003990 0.161121 -0.073379 0.136624 -0.110071 0.486898 0.261996
1780 -0.308343 -0.597856 -0.642243 -0.463106 0.010661 -0.051100 0.179799 -0.357523 0.231843 -0.531945 -0.146720 -0.319808 0.024152 0.432045 -0.147639 -0.316192 -0.056006 0.084458 -0.340925 0.244975 -0.223414 -0.423818 0.147910 0.015187 0.327050 0.025886 -0.486319 -0.176835 -0.224677 0.158527 -0.010873 -0.033625 0.158701 -0.238663 -0.260362 0.547050 -0.178673 0.476213 0.085736 0.051575 0.205193 0.021855 0.170754 -0.005808 -0.060281 -0.004084 -0.567133 -0.461772 -0.721126 -0.090546 0.153119 -0.180082 -0.131560 0.131753 0.467893 -0.264717 0.089108 -1.189929 0.063256 0.015115 -0.099554 -0.725456 -0.038137 -0.335719 -0.353255 0.317905 0.076192 -0.076466 -0.528714 -0.031172 -0.227171 -0.534153 -0.260452 -0.118575 -0.026821 -0.454577 0.113272 -0.752494 -0.465794 -0.264010 0.155955 0.231186 -0.485002 0.102046 0.077434 0.259076 0.231695 -0.423945 0.371670 -0.167626 0.318614 -0.113859 -0.170619 0.012215 0.003908 -0.391297 -0.000319 -0.277994 0.233382 0.030035 0.624527 0.451404 0.410929 -0.555427 0.362113 0.183130 -0.237946 -0.237154 0.008610 -0.598299 0.069892 0.045701 0.158321 -0.261423 0.192154 -0.330018 0.071492 0.043664 0.088816 0.111389 0.157287 0.306430 -0.231232 -0.005741 -0.381526 0.402645 0.769253 0.089388
2529 0.181911 -0.253521 0.286615 -0.495648 0.047670 -0.395387 0.322526 0.021641 0.331586 -0.328950 -0.122924 -0.121401 0.143779 0.292056 0.983987 -0.107835 -0.970969 0.052081 0.145579 0.323959 -0.364956 0.081887 -0.222061 0.255333 -0.481446 -0.313432 0.241058 -0.052207 -0.032687 -0.333865 0.011069 -0.484299 -0.093646 0.125271 0.122308 0.358142 0.415037 -0.300765 -0.093841 -0.394524 0.189767 -0.148984 -0.273873 -0.415834 -0.385591 -0.393391 0.437345 -0.629478 0.495747 -0.057818 -0.061346 0.086799 -0.695006 -0.699836 -0.060820 0.204121 -0.040499 0.268550 0.333185 -0.010384 0.191470 0.241841 -0.318926 -0.153365 0.478116 -0.089334 0.720808 -0.445537 0.408299 0.233868 0.085109 -0.196616 -0.192792 -0.756109 0.248772 0.475025 -0.124398 0.014816 0.295172 0.069011 -0.039485 -0.577326 -0.216250 -0.204172 -0.591763 -0.125985 -0.407805 0.047937 0.136804 0.264188 0.499657 -0.330031 0.277364 0.136396 0.051130 -0.326468 -0.047837 -0.166105 0.104455 0.445368 -0.272510 -0.136413 0.180945 0.023788 0.091474 0.055170 -0.804557 0.217100 -0.245227 -0.433303 0.029898 -0.326576 -0.274844 -0.075057 0.344166 -0.314021 0.019736 0.683057 -0.181034 0.665335 0.241355 0.104681 -0.705554 -0.435962 0.094671 -0.058330 0.325730 0.297957
21 0.340345 -0.167662 0.201965 0.010347 0.116887 0.143327 -0.141938 0.242689 -0.138176 0.172697 -0.149334 -0.411663 -0.362023 -0.210823 -0.468632 0.209030 0.125023 0.211301 -0.193929 0.211743 -0.693990 -0.144380 -0.047913 0.321562 -0.422162 0.311337 -0.020365 -0.210692 -0.074370 0.401226 -0.607198 0.059121 -0.143967 -0.158032 -0.174728 -0.002843 -0.050508 0.004069 -0.004601 0.115419 -0.145978 -0.511913 -0.359244 -0.000608 -0.270905 0.018819 0.172880 -0.355546 -0.250824 0.300043 0.168605 0.656522 -0.063307 -0.271547 0.180998 0.324055 -0.143840 0.070299 -0.027780 -0.038589 0.145107 0.026607 0.236723 -0.131273 0.013293 0.231175 0.141747 0.387061 -0.091684 0.521727 -0.353489 0.103331 0.168161 0.117670 -0.011105 0.202061 -0.061204 0.361150 -0.039905 0.309045 -0.066283 -0.662710 0.080491 -0.290847 0.005755 -0.065202 -0.249780 -0.345463 0.132150 -0.267199 -0.260715 -0.205784 -0.202300 0.081831 0.447119 0.317351 0.466109 0.119145 -0.246791 -0.106619 -0.261477 -0.097614 0.336305 0.204240 -0.006257 -0.365589 -0.032868 -0.269177 0.052722 -0.210251 -0.443245 0.012013 -0.325251 -0.135965 0.057943 -0.394456 0.023610 0.280657 0.384938 -0.051098 0.181256 -0.236029 -0.410440 -0.365765 0.074278 -0.037474 0.036338 0.124560
2639 0.290260 -0.500319 -0.270735 0.193578 -0.275453 0.284180 0.159009 0.195794 0.395953 0.229301 -0.272053 -0.066574 -0.511599 -0.297712 -0.467798 0.125734 -0.257244 -0.094768 0.244766 -0.274466 -0.337092 0.362740 -0.334565 -0.221500 0.013035 0.070089 0.003510 0.414111 0.184485 -0.097368 -0.047659 0.385178 0.008162 -0.154780 0.202409 -0.152047 -0.248346 -0.438917 -0.756098 -0.219137 -0.481054 -0.544958 -0.567274 0.476043 -0.089159 -0.045884 -0.008638 -0.461833 -0.352675 0.151064 -0.449832 -0.167679 0.207328 -0.393874 -0.108362 0.202493 0.228910 0.376966 0.566202 -0.077354 -0.127813 -0.451245 0.366453 0.116584 -0.315686 -0.581256 -0.157815 0.187835 0.079168 0.118345 0.398087 -0.585308 -0.073357 -0.043444 0.727726 -0.027083 0.530000 0.210529 0.026059 -0.249641 0.341538 0.026166 -0.198067 -0.397274 -0.202070 0.152324 0.079282 -0.142212 0.331429 -0.172135 0.177662 0.027019 -0.358360 0.273658 0.167595 0.283833 0.154071 0.009235 0.341171 -0.415494 -0.473159 0.011348 -0.683479 -0.111837 0.262468 -0.100918 -0.083264 -0.336995 0.269425 -0.401186 -0.036062 0.324872 -0.579614 0.306113 -0.286919 -0.171797 0.196988 -0.367945 -0.026155 -0.191535 0.240472 0.534716 0.298252 -0.178207 -0.007491 0.078235 -0.120386 -0.737829
684 0.357651 -0.334601 -0.196845 0.636504 -0.071407 0.192442 0.502242 0.142271 0.193221 -0.013038 0.017560 -0.170057 0.234466 -0.149647 -0.340938 -0.306420 -0.095364 0.008102 0.065938 -0.200754 -0.154548 0.102293 0.441528 -0.032241 -0.140870 -0.174707 0.614030 0.106175 -0.268814 0.111921 0.244818 0.406235 0.173354 0.150806 -0.054070 -0.555253 0.380889 -0.195773 0.119797 0.412643 -0.065119 0.158077 -0.129200 -0.258822 0.326845 -0.123208 0.090655 0.032752 -0.705995 0.604011 -0.106302 -0.221033 0.004236 -0.298499 0.418852 -0.492115 0.026799 0.225695 0.060312 0.249910 -0.475421 0.097746 0.301057 0.115932 0.196778 0.146658 -0.191355 -0.223864 0.526583 -0.246231 -0.516536 0.531690 -0.037211 0.267733 0.244860 -0.126167 -0.580529 -0.415187 -0.303126 -0.189484 0.131805 0.112444 0.042394 -0.177122 0.041565 0.195640 -0.128625 -0.104744 -0.249833 0.115297 0.019316 -0.186507 -0.208098 -0.217583 -0.161660 0.191603 0.449398 0.300362 0.083390 0.505456 -0.209820 0.015846 -0.246503 0.125073 0.304940 -0.114057 -0.198668 0.125812 -0.423703 -0.549565 0.018459 -0.363597 0.047180 0.186747 0.358008 -0.009061 0.038789 0.123454 0.107241 -0.081514 0.102031 -0.169524 -0.242079 0.186073 0.002369 -0.261211 -0.024215 -0.056987
1164 0.130218 0.027762 -0.393770 -0.328299 -0.290104 0.180917 -0.410956 0.024157 -0.142393 0.143725 0.026843 -0.327641 -0.269968 -0.086023 0.132459 0.478401 0.295446 0.398751 0.108148 0.285769 -0.450184 -0.159575 -0.149399 0.169281 -0.042108 -0.381245 0.296174 -0.324068 -0.014793 -0.506536 -0.138364 -0.144542 -0.232528 -0.136842 -0.358945 -0.309860 -0.164813 0.320059 0.209984 -0.461941 -0.143453 -0.346524 -0.246798 0.084087 -0.151371 -0.067180 0.266320 0.092014 -0.385918 0.127611 -0.225708 0.464956 -0.102963 0.284684 -0.120858 -0.031903 -0.675314 0.280156 0.268789 -0.019516 0.560782 0.218493 -0.032494 0.065985 0.176430 -0.056679 0.004786 0.114619 -0.114779 0.011596 0.061013 0.211068 0.044050 0.351055 -0.022159 0.146724 0.252296 -0.057720 -0.171565 0.082439 -0.085821 -0.426205 0.232958 -0.434610 0.210151 -0.087903 -0.119487 0.323607 0.184791 -0.362649 -0.066121 -0.436054 -0.409836 0.108888 -0.247021 0.228563 0.224263 -0.043888 0.232067 0.360692 0.116047 -0.257190 0.386055 -0.143478 0.402060 0.108055 -0.073896 0.083814 -0.137734 0.062059 0.153116 -0.099578 -0.525000 -0.000801 0.061549 -0.313123 -0.053968 0.051977 0.305030 -0.092841 -0.194292 -0.106034 -0.330460 -0.035441 0.068186 0.090589 0.103314 -0.278455
1319 0.115658 -0.249665 -0.426141 -0.267774 0.288014 0.088867 -0.326935 -0.107112 -0.111782 0.020694 0.215930 -0.076382 -0.671679 -0.144149 0.271473 0.159364 0.298951 -0.080921 -0.638609 -0.315101 -0.188623 -0.188029 -0.326616 0.236622 -0.022376 -0.210587 0.631297 0.075503 0.726354 0.195957 -0.248467 -0.034432 -0.243498 0.153455 -0.640011 -0.009142 0.292184 -0.486723 -0.474936 -0.074882 0.120878 0.419839 -0.351035 -0.191656 0.125318 -0.108712 0.000651 -0.039483 0.018513 0.076484 0.021672 0.178427 -0.144621 0.017177 0.113838 -0.012967 -0.292776 0.107823 -0.360116 -0.205223 0.014760 -0.160013 -0.111019 0.350923 0.108907 0.122719 0.152248 -0.043619 -0.320904 0.340517 0.057821 -0.269483 0.058091 -0.056861 -0.074967 0.212596 0.111437 0.228299 0.100344 -0.657908 0.071806 -0.004189 -0.278042 -0.323349 -0.606904 -0.189920 -0.176566 -0.593535 0.120075 -0.036585 -0.205925 -0.240207 0.150918 0.369292 0.092762 -0.024581 0.143831 0.061275 -0.105343 -0.038960 -0.434107 0.219732 -0.026074 -0.072048 0.591296 0.102164 -0.149450 0.018000 -0.433593 -0.022337 0.077823 -0.348725 -0.062518 0.110773 -0.284340 0.015903 0.105393 0.186985 0.037625 -0.223654 -0.145716 -0.086964 0.287500 0.107183 -0.192641 0.328381 -0.194268 -0.281115
1144 0.315637 0.327036 -0.100865 0.206748 -0.068932 0.359012 -0.037962 -0.610483 -0.037746 0.743754 -0.180428 0.144291 0.251152 0.180641 0.373571 -0.192042 -0.323338 -0.174352 0.158921 -0.193687 -0.321812 -0.221275 0.337999 -0.115013 0.106799 -0.007313 0.081797 0.265608 -0.495064 0.401835 -0.364554 -0.153494 -0.411669 -0.339540 -0.385172 -0.030976 0.151187 0.212305 -0.041950 0.228613 -0.130804 0.343639 0.253596 0.254799 0.358851 -0.596213 -0.121071 -0.380675 0.145109 0.912185 0.089642 0.090101 -0.235930 0.142144 0.366054 -0.160002 -0.457359 0.271580 0.054315 0.110682 -0.243134 0.073114 -0.046279 -0.214594 0.036975 0.186425 0.219319 0.008183 -0.004187 -0.592239 -0.146318 0.145352 0.084845 -0.191733 -0.236879 -0.057666 -0.125070 0.009768 -0.465669 -0.094229 -0.373858 -0.261248 -0.078927 -0.054708 0.038296 0.517304 0.533848 0.285968 -0.095314 -0.251923 -0.210714 0.055301 0.022628 0.246264 0.002853 0.107458 -0.063298 -0.122829 -0.212333 -0.033702 -0.312166 0.055574 -0.258842 -0.073239 -0.309122 0.474818 -0.309154 0.274902 -0.241025 0.006906 -0.150823 -0.087012 -0.038295 -0.341780 -0.608861 -0.200755 -0.164054 0.335773 -0.277911 -0.527259 0.019981 -0.450924 -0.021390 -0.020020 0.040175 -0.093157 -0.173068 -0.125472
45 0.177652 -0.299476 0.116203 0.164782 0.140907 0.013750 0.120912 0.055035 0.154294 0.607436 0.036541 -0.516613 0.132162 -0.462853 -0.195695 0.368574 0.029092 -0.185081 0.060568 0.080098 -0.099930 -0.175512 0.118027 0.325599 -0.036303 -0.332088 0.624537 0.375190 0.152475 -0.331828 0.167978 0.005273 0.079623 0.017718 0.285893 -0.295146 0.199091 -0.008591 -0.224068 0.455404 -0.457421 -0.152201 0.126305 0.034813 0.096129 0.200160 0.161563 -0.599814 -0.167597 0.291504 -0.172336 0.273724 0.095114 -0.428167 0.046602 0.324486 -0.260515 0.206432 0.166731 0.025212 -0.147755 0.048392 -0.289036 0.270670 -0.175657 0.173028 0.224357 -0.084728 -0.447158 -0.089857 -0.007322 -0.471724 0.034236 0.058214 -0.180315 -0.304037 0.315781 0.057961 0.034720 -0.023611 0.133277 -0.055425 -0.308937 0.128477 -0.673961 0.110850 0.234565 0.134982 0.062935 0.040564 0.186443 -0.305426 0.089555 0.062375 -0.099542 0.179649 0.665698 0.292112 0.289912 -0.182529 0.220083 0.136649 -0.021929 0.354018 0.287998 -0.254099 0.124081 -0.338464 0.523103 -0.170096 0.304306 0.125002 -0.150413 0.216772 -0.459556 -0.233724 0.128025 -0.130855 -0.163533 0.040967 0.118876 0.734451 0.530661 -0.530007 -0.171615 -0.080871 0.109380 -0.349071
340 0.392036 -0.181941 0.326765 -0.233410 -0.232495 0.111837 0.214490 0.235886 -0.006697 -0.078622 0.059888 -0.121072 0.288273 -0.169902 0.156989 -0.356040 0.057843 0.466558 -0.035978 0.320311 -0.516490 -0.352137 -0.070349 0.278241 0.051359 -0.855339 -0.422483 -0.281089 -0.192989 -0.235267 -0.359053 -0.358486 -0.322135 -0.103612 -0.041860 -0.238049 -0.468462 0.096465 -0.013834 -0.446357 0.172026 -0.071339 -0.468236 0.470254 0.102238 0.045087 0.076852 -0.322424 0.179963 0.628667 -0.040446 0.446599 -0.100592 -0.102929 -0.486079 0.313677 0.070259 0.337944 -0.060427 0.195097 0.100374 0.173805 -0.519682 0.419838 -0.121005 0.143508 0.213402 -0.186228 0.303615 0.176346 -0.328330 0.303232 0.379012 -0.390798 -0.046448 0.107325 0.072471 0.002525 -0.300251 -0.479527 0.097657 0.203359 0.106384 0.202868 -0.436704 -0.450958 0.040886 -0.152491 0.541795 -0.111670 0.197561 -0.028883 -0.406603 0.223894 0.607904 0.034985 0.366324 -0.320887 -0.205727 0.068537 -0.114708 -0.087703 0.143695 0.390710 -0.031907 1.071939 0.019908 -0.225289 -0.012364 -0.070465 0.121666 -0.274660 -0.321527 0.226434 -0.113985 0.201276 0.297284 0.146896 0.138001 -0.150289 0.538474 0.168697 0.165229 0.084597 0.254061 0.466803 0.144441 0.029995
2013 0.598390 0.287886 -0.462990 -0.040655 0.491335 0.151595 -0.271227 -0.096701 0.145859 0.153999 0.094498 -0.053516 -0.127251 -0.628283 0.529112 -0.308981 0.207879 0.110162 -0.265817 0.219707 -0.688571 -0.272312 0.367540 -0.365808 0.243654 -0.225542 -0.351076 -0.224846 -0.115728 0.269629 -0.175646 0.166709 -0.021823 0.148363 0.231268 -0.133460 -0.281593 0.394381 -0.190268 -0.255118 -0.096444 0.514850 -0.473481 0.001009 0.108938 -0.654852 0.215612 -0.567335 -0.020250 -0.387719 -0.313683 0.173315 0.310599 -0.172553 0.262623 0.173278 0.234394 0.251992 0.107112 -0.198883 -0.017731 -0.367165 -0.607901 -0.050240 -0.285171 0.368391 -0.270081 -0.272951 -0.023359 0.019840 -0.107533 -0.160682 -0.480801 0.198674 -0.030894 -0.090919 0.377265 0.278759 0.250012 0.501803 0.440505 -0.094141 0.137475 -0.252116 0.714082 0.039579 -0.167531 0.229006 -0.397895 -0.278496 0.205116 0.238757 0.254479 0.035779 0.213694 -0.644444 0.124894 -0.368742 -0.444888 -0.365615 0.180682 -0.199352 -0.225012 -0.172974 0.403668 -0.597631 0.046144 0.317879 -0.651067 0.030086 -0.161863 -0.145830 0.158517 -0.130882 -0.036659 0.598776 -0.053256 -0.507751 0.092175 0.011806 0.112692 0.317635 0.391116 -0.538953 -0.072705 -0.707779 0.176548 -0.180116
2084 0.085835 -0.101554 -0.297579 -0.093875 0.153630 0.012148 -0.357452 -0.321539 0.099658 0.426406 -0.161705 -0.103625 0.013143 -0.507206 0.016284 0.267212 0.380047 0.017964 -0.421050 0.384998 -0.112623 -0.237773 -0.150928 -0.064140 -0.026835 -0.405471 0.802802 1.014790 0.539897 0.134438 0.179739 -0.239854 -0.021639 0.545668 0.490275 -0.104944 0.357684 -0.332844 -0.180963 0.119538 -0.031364 0.096541 -0.337762 0.115109 -0.189825 -0.172039 -0.125127 -0.592052 -0.422905 0.565042 0.003557 0.367533 0.303558 -0.117918 0.124822 -0.022672 -0.398269 0.372330 0.473836 -0.296360 -0.131569 -0.386223 -0.067360 0.533643 -0.009881 0.125862 -0.020915 -0.151016 -0.292970 0.201169 0.026075 -0.411680 0.055182 -0.352527 -0.273802 -0.002234 0.167197 0.203729 0.458527 0.010411 0.000919 0.030281 -0.205000 0.095228 -0.576199 0.039607 -0.092989 -0.179228 0.267839 -0.135961 -0.164963 -0.020013 -0.100842 0.091409 -0.172856 0.442553 -0.292865 0.174504 0.345601 -0.021956 -0.448362 0.311116 -0.198524 0.156667 0.393950 0.225689 -0.337717 -0.406302 0.469398 0.098270 0.525182 -0.104552 -0.552103 0.168826 0.173586 0.427534 -0.269961 -0.151582 -0.275813 0.092866 -0.253810 0.040537 0.410995 0.288609 -0.208245 0.211841 0.139955 0.121476
1791 0.283857 -0.603802 -0.295909 0.103973 0.050021 -0.115160 0.613625 0.146457 -0.064659 1.035704 -0.136827 0.174207 -0.395098 -0.208992 -0.053927 0.094574 -0.290376 -0.241851 0.278871 0.059203 0.521612 -0.482867 -0.593603 0.122134 0.052130 -0.057494 1.188131 -0.031299 -0.386685 0.058166 0.145752 0.201068 -0.025077 -0.158440 -0.393457 0.130936 -0.051760 -0.086878 0.272855 -0.214828 0.349653 -0.354054 -0.223423 0.619503 -0.005518 0.918700 -0.279448 0.207318 -0.303864 -0.013838 -0.291737 0.081393 0.230815 -0.056682 -0.108044 0.372316 -0.199437 0.392034 -0.082856 0.353325 -0.307012 -0.868396 -0.002048 -0.209725 -0.446432 0.391118 0.453163 0.232207 0.072067 0.265370 -0.312349 -0.551399 -0.429002 0.180516 0.043219 -0.193892 0.565521 -0.208616 0.318239 0.530985 -0.046795 -0.129790 -0.285250 0.729440 0.220213 -0.658995 0.262062 -0.034116 0.627868 -0.159230 -0.480160 -0.057158 -0.075708 -0.031752 0.053570 -0.117648 0.336467 -0.122785 -0.474306 0.526841 -0.280160 0.016412 -0.388032 0.205346 0.157416 -0.341099 -0.086230 -0.019454 0.083455 0.122961 -0.291532 0.412515 0.216702 -0.177136 -0.380679 0.272599 0.463211 -0.448979 -0.162008 0.070704 0.826374 0.081318 -0.169953 0.203241 -0.149166 -0.484372 -0.068248 0.066492
2125 0.044139 0.171994 0.010058 0.193138 0.524402 0.404763 -0.339547 -0.308593 -0.278479 -0.008677 0.284346 -0.239315 -0.335971 -0.596922 0.530991 -0.126798 0.036511 -0.366347 -0.336509 0.675286 -0.502308 -0.161825 -0.024814 -0.023818 -0.260008 0.118127 -0.273886 -0.474092 -0.372305 0.004874 0.100956 -0.069745 0.608919 0.253902 0.023938 -0.262854 -0.339918 0.196281 -0.314933 0.524042 -0.186538 0.158668 -0.084045 -0.034074 0.362510 -0.275223 0.190465 0.046652 0.291134 -0.196633 -0.083951 -0.235403 -0.141150 -0.164675 -0.217280 -0.528706 -0.283888 0.386394 0.369744 -0.474269 0.108056 -0.364692 -0.118735 -0.195132 -0.301568 0.002197 -0.247516 -0.406351 0.129496 0.315958 -0.300480 -0.130756 -0.178022 0.475156 0.116178 0.355196 0.615531 0.281170 0.005848 0.477518 0.280275 0.134739 0.373305 0.053438 0.658725 0.030219 -0.306546 0.038036 0.045402 0.049076 0.122803 0.269308 0.085698 -0.180928 0.142167 -0.436916 -0.141668 -0.759190 -0.228338 -0.293280 0.154068 0.046547 -0.532587 -0.097329 0.271040 -0.239070 0.056674 -0.093657 -0.517614 0.002959 0.079646 0.103644 0.179373 0.090823 0.208914 0.651568 -0.020588 0.364245 0.192027 0.049617 0.084759 0.380766 0.492643 -0.003044 -0.145113 -0.260888 -0.100459 -0.217210
1770 0.092327 -0.506697 -0.856794 -0.186312 -0.061737 0.411889 -0.078787 0.055815 -0.139750 0.101230 0.257215 -0.408809 0.035902 -0.031002 -0.308502 0.103312 -0.389700 0.113594 0.107727 -0.061204 -0.364143 -0.233796 -0.150986 -0.367157 -0.149989 0.200172 -0.019347 0.035959 -0.027994 -0.540500 -0.253552 -0.172437 -0.223873 0.080912 -0.341404 -0.134792 0.086786 0.189208 -0.696429 0.140402 -0.320323 -0.541899 -0.573418 0.664126 -0.475387 0.078437 0.373482 0.366069 -0.493728 0.083985 0.009199 -0.189025 0.455506 -0.519341 0.044847 0.064756 -0.079342 0.367167 0.106156 0.317277 0.246950 0.229144 0.505189 0.120085 -0.513789 -0.320221 0.050469 -0.199286 0.110983 0.005561 -0.282853 -0.594904 0.321892 -0.236287 0.450326 0.237759 0.244802 0.067868 -0.144841 -0.133169 0.098950 -0.229700 0.091130 -0.139214 -0.472508 0.083957 0.232206 0.138687 0.423992 0.004713 -0.091578 -0.110693 0.014077 0.150877 0.074541 0.077196 -0.170599 0.325727 -0.089431 -0.435090 -0.454211 0.167172 -0.155412 0.245899 0.121271 -0.313291 -0.097429 -0.366943 0.380411 -0.116129 0.021839 0.378007 -0.154790 0.050627 0.058337 0.161634 -0.043974 0.146598 0.020555 -0.023873 0.095556 -0.062059 0.264824 -0.030454 0.021246 0.031442 0.129372 -0.496114
2148 0.078255 -0.057712 -0.783379 -0.544524 -0.243108 0.746039 -0.543385 0.279753 0.095035 0.393455 0.307673 0.150984 -0.406592 0.139942 0.008257 0.018765 0.322312 0.144298 0.391293 0.429052 -0.015543 0.082084 -0.640751 -0.250877 -0.273050 -0.190973 0.469640 -0.753579 -0.043429 -0.180107 -0.069193 0.131780 0.153234 -0.038354 -0.086104 -0.357207 -0.033601 -0.176668 -0.190650 -0.096881 0.313702 -0.252918 -0.522038 0.351873 -0.460016 0.164899 0.109318 -0.048666 -0.216413 0.345320 0.628845 0.387827 -0.470039 0.063075 -0.303902 0.108729 -0.535555 0.165442 -0.012754 -0.113519 0.269439 -0.264881 -0.332661 -0.133057 0.067177 -0.133304 -0.094535 0.110357 -0.224996 0.187806 -0.113328 -0.070861 0.321165 0.418623 -0.375752 0.170239 0.061235 -0.124326 0.186248 0.454025 0.255812 -0.391411 0.098546 -0.030961 0.533323 -0.032231 0.262064 0.119100 0.200817 -0.195697 -0.461170 -0.772210 -0.174106 0.042840 0.196486 0.217744 0.229440 0.260458 -0.109821 0.291782 0.215345 -0.002397 -0.038185 0.198457 0.450599 -0.019843 -0.192530 0.237311 -0.044748 -0.296360 -0.123654 -0.363158 -0.160016 0.251612 -0.204437 -0.393735 -0.113509 -0.216966 -0.025287 0.365779 -0.189159 -0.219890 0.192307 -0.505551 0.139934 -0.012220 0.189987 0.063598
1341 -0.232087 -0.987370 -0.892472 -0.413429 0.304808 -0.412841 0.362870 -0.547300 0.284749 -0.671213 -0.254604 -0.535116 0.023924 0.621028 -0.362541 -0.443378 0.041900 0.163049 -0.238715 0.185830 -0.347968 -0.422841 -0.045178 0.061041 0.194709 -0.168970 -0.571802 -0.263655 -0.130020 -0.142945 -0.072789 0.318737 0.362478 -0.220284 0.086900 0.601259 -0.122491 0.292778 -0.124361 -0.004104 0.301384 0.111425 0.315887 -0.116132 -0.103259 0.139848 -0.580881 -0.606189 -0.629652 -0.456781 0.042761 -0.317073 -0.210059 0.161727 0.291104 -0.345658 -0.327127 -1.178799 0.078193 -0.066526 -0.002708 -0.624693 0.023834 -0.035673 -0.120298 0.027532 -0.007560 -0.216144 -0.665720 0.226448 -0.739883 -0.737374 -0.128941 -0.353876 0.117398 -0.699350 0.228748 -0.713579 -0.466685 -0.467088 0.191718 0.083170 -0.418567 0.127414 0.159668 0.395649 0.409604 -0.477698 0.545298 0.032735 0.169157 -0.039783 -0.066799 -0.132607 -0.106099 -0.304609 -0.331141 -0.463994 0.207640 -0.078752 0.929007 0.657334 0.467541 -0.633498 -0.000285 0.289635 -0.285000 0.046374 -0.179431 -0.953095 0.205100 0.109875 0.071259 -0.225272 0.020206 -0.226948 -0.061177 -0.135909 0.141933 0.078738 0.216488 0.306610 -0.190907 0.006405 -0.461350 0.661517 0.591337 0.034619
611 -0.100118 0.009794 -0.173927 -0.078207 -1.039479 -0.200023 0.442175 -0.142755 0.030306 -0.286012 0.099384 -0.086091 -0.568828 -0.676950 -0.620976 0.512153 -0.200360 0.267387 -0.464769 0.770317 -0.281021 0.203886 0.220131 0.601753 -0.046305 0.251368 0.492592 0.117679 0.066490 -0.574529 0.364286 -0.048149 0.215894 0.462668 -0.371068 0.156224 -0.323892 -0.390250 -0.393468 -0.124924 0.309593 -0.139176 -0.151852 0.364750 -0.208708 0.437806 -0.169149 -0.063865 0.907705 -0.462599 0.332508 -0.274277 0.227251 0.025419 -0.776313 -0.047953 0.017344 -0.289228 -0.363503 -0.329921 0.058803 0.050392 -0.105823 -0.653457 -0.091838 0.708102 -0.613103 0.252427 0.851226 0.000018 -0.387849 -0.074119 -0.261800 0.487105 -0.434063 -0.193107 -0.289463 0.019684 0.014357 0.138080 -0.037648 0.336963 -0.616506 -0.645234 -0.327731 0.568950 0.338529 0.682544 0.106241 0.046952 0.908622 -0.323110 0.020323 0.319174 -0.134651 -0.211868 -0.778840 -0.057884 -0.187915 -0.414272 0.156005 0.346621 0.030727 0.039344 -0.572493 -0.313962 0.361604 0.190138 -0.551964 0.231712 -0.262359 -0.313497 -0.868025 0.193800 -0.038699 -0.526886 -0.397239 -0.141389 -0.065366 0.153839 0.023939 -0.313831 0.326449 -0.216122 -0.303644 0.146286 0.275558 -0.071576
2228 0.029587 0.090286 0.261524 -0.276682 0.630902 0.068567 -0.023694 0.313357 -0.344114 0.226766 0.095059 0.219078 0.087099 -0.208639 0.392877 -0.289808 0.054346 -0.203443 0.043848 -0.141858 -0.589000 -0.219832 -0.070348 -0.063077 -0.194552 -0.270818 0.202912 0.097168 -0.225730 0.051700 -0.182338 -0.501900 0.229499 0.084885 0.000484 -0.013961 -0.430299 0.552922 0.241846 0.016266 0.103302 -0.514374 0.012133 -0.033750 -0.232980 0.101253 0.361007 -0.430086 -0.022552 0.646528 0.305825 0.293744 -0.252334 0.282286 0.380377 0.277660 0.398812 -0.014390 -0.235787 -0.313825 -0.219234 0.203626 -0.420143 -0.027468 -0.355366 0.208481 -0.125765 0.152805 -0.156677 0.301079 -0.541873 -0.051434 0.494726 0.327309 -0.026010 0.078557 0.231357 -0.125362 -0.224146 -0.397449 -0.007152 -0.501648 -0.189886 -0.152592 -0.036786 -0.440065 0.294425 -0.336439 0.278069 -0.316540 -0.049307 0.019069 0.194363 0.115774 0.215864 0.464810 0.103120 -0.356905 0.191882 0.292888 -0.374902 -0.039179 -0.142090 -0.052977 -0.443701 0.066568 -0.192520 -0.059479 -0.245821 -0.011410 0.041361 -0.133964 -0.472632 0.231504 -0.017910 -0.385553 -0.002616 0.463339 0.194401 0.326146 -0.069159 -0.037135 0.061820 -0.162809 0.041346 -0.118522 -0.059443 0.135860
567 -0.033537 -1.034603 -0.836880 -0.454965 0.198703 -0.265833 0.479155 -0.348004 0.161958 -0.549772 -0.155262 -0.542684 0.045273 0.586468 -0.533423 -0.587378 -0.078734 0.234718 -0.323619 0.195536 -0.214493 -0.252282 0.072374 -0.030774 0.243140 -0.358556 -0.631858 -0.216439 -0.089183 -0.237076 -0.003534 0.144467 0.568862 -0.291448 0.285993 0.371379 -0.097997 0.315674 -0.151631 -0.176187 0.404454 0.049075 0.492024 0.152853 -0.039252 0.284120 -0.552724 -0.400160 -0.775288 -0.376678 -0.116745 -0.320886 -0.440995 0.093871 0.158647 -0.310958 -0.413547 -0.931379 0.192379 -0.235997 -0.183917 -0.540171 0.116751 0.160077 -0.223799 -0.106051 0.087402 -0.354745 -0.801360 0.564682 -0.495813 -0.830599 -0.404308 -0.460818 -0.229111 -0.879700 0.231676 -0.702553 -0.700290 -0.629182 0.130731 0.107071 -0.219692 0.223051 0.115615 0.605880 0.622625 -0.346096 0.478685 -0.260930 0.207785 0.195564 0.295993 -0.386216 0.051626 -0.402596 -0.233369 -0.327824 0.136279 -0.032136 1.094809 0.814140 0.636352 -0.450154 -0.079051 0.358375 -0.138904 0.191069 -0.075926 -0.949374 0.303158 0.074121 0.009846 -0.174072 -0.061365 -0.147075 0.127820 -0.013601 0.106769 0.047413 0.164772 0.322693 -0.033865 -0.142065 -0.091260 0.566566 0.587982 -0.002300
1125 0.088391 -0.244185 0.114912 0.337012 -0.082007 -0.102608 0.458711 -0.020516 0.114517 -0.022336 -0.033812 0.127239 0.007822 -0.123790 -0.194488 -0.155019 0.100024 0.205496 -0.132741 -0.462817 -0.041828 0.231489 0.280386 -0.119774 0.171853 0.312758 0.126997 0.174905 -0.034669 -0.230218 -0.053979 -0.101301 0.305861 0.057253 0.393831 -0.464738 0.090900 0.304454 0.150726 0.221041 0.198591 0.066840 0.053909 0.212574 0.105595 -0.360399 0.008131 0.335491 -0.615128 0.639572 0.195945 -0.056315 0.254107 -0.614984 0.551176 -0.558254 -0.762764 0.532102 0.112839 0.097792 0.145734 0.165037 0.102992 -0.601456 0.320683 0.516314 0.310604 0.177794 0.280873 -0.143136 -0.188346 0.258481 0.121941 -0.015847 -0.443310 -0.112018 -0.332294 -0.188970 -0.063917 -0.208597 -0.232283 -0.394787 -0.364126 -0.420055 -0.217597 0.243587 -0.179766 -0.304959 -0.080560 -0.409508 -0.081681 0.164819 -0.043330 0.063990 -0.577658 -0.041669 0.160017 0.618667 -0.193372 0.336904 -0.123697 -0.090825 -0.138038 -0.181243 -0.003254 0.126273 -0.021280 0.548537 -0.372727 -0.591474 -0.165650 -0.383907 0.045254 -0.078652 -0.091060 0.130151 -0.159242 -0.355839 0.833347 -0.793301 0.048896 0.427107 0.505692 0.254294 0.041200 0.133726 -0.301570 -0.011726
485 0.124194 -0.200371 -0.148566 0.140857 0.133238 -0.622867 -0.427519 0.013546 -0.251584 0.427810 -0.358259 -0.330066 -0.272035 -0.728306 -0.596008 0.029891 -0.166963 0.054788 0.189453 -0.308073 0.061710 -0.083339 -0.504511 -0.292436 0.110425 -0.431365 0.349378 0.309526 0.116488 -0.083370 -0.144756 0.132028 0.200990 0.151347 0.375819 -0.110379 0.289838 -0.026789 -0.149655 -0.034890 -0.651105 0.144024 -0.404446 0.143853 -0.129213 0.250316 0.081883 -0.976695 -0.146048 0.023026 -0.212082 -0.171816 0.450099 -0.277640 0.027421 0.028137 -0.355184 0.445671 0.298098 -0.479644 0.451829 -0.171141 -0.080228 0.127485 -0.160130 0.171641 -0.052833 0.052822 -0.195203 0.295668 0.192285 -0.663725 0.124740 -0.204692 -0.031167 -0.041072 -0.028322 -0.012519 0.012725 -0.247194 -0.244913 -0.143034 -0.174720 0.040815 -0.448343 0.347335 0.144587 0.122838 0.282359 -0.282548 -0.147024 0.009141 -0.444033 0.416906 0.050033 0.457999 0.081249 -0.085666 0.194442 -0.401374 -0.494932 0.536077 -0.339940 -0.055468 0.281857 0.100065 -0.256360 -0.416438 0.161020 -0.221296 0.226315 -0.002933 -0.188119 0.280558 -0.424577 0.314633 0.011294 -0.450143 -0.334314 0.373148 -0.182899 0.454467 0.097887 -0.025951 -0.070344 0.084822 -0.314018 0.037910
2176 0.118023 0.245995 -0.094184 0.114471 -0.367815 0.113218 -0.136636 -0.131969 0.004225 -0.116800 -0.141544 -0.413307 -0.032182 -0.438882 -0.439355 0.100809 -0.163361 0.075531 0.075497 0.359402 -0.637802 0.077706 -0.015239 -0.162029 -0.064966 -0.678161 -0.127467 0.081497 -0.252491 0.043604 -0.305609 -0.030335 -0.072556 -0.128316 -0.221833 0.061440 -0.187132 -0.009937 -0.233852 0.066318 -0.218819 -0.667682 -0.223899 0.185129 -0.415207 -0.201257 0.190523 0.169233 -0.217668 0.281487 0.176817 0.933114 0.136539 -0.147537 0.312798 -0.024930 -0.279193 -0.198114 0.097939 0.185063 -0.048445 0.356693 -0.414088 0.035849 -0.619626 -0.308915 0.050950 0.471505 -0.104397 0.201045 -0.060563 -0.452190 -0.021202 0.000872 0.305205 0.493403 0.091003 0.093236 -0.132687 0.527047 0.004030 -0.343514 0.010238 -0.560016 0.010731 -0.235718 -0.045381 -0.044725 0.063795 -0.289980 0.084392 -0.312128 -0.190577 -0.145301 -0.091262 0.010781 0.737356 0.136041 0.092174 -0.188439 -0.332949 -0.070999 0.117652 0.436355 0.068530 -0.515769 -0.106822 -0.356371 -0.396728 -0.180440 0.044205 0.315361 -0.110354 0.003598 -0.235416 -0.067662 -0.052908 -0.244014 0.121727 0.070434 0.142599 -0.090008 0.098685 0.008679 0.071575 -0.079856 -0.014347 -0.519547
2095 -0.043476 0.275289 0.123132 0.114195 -0.268467 0.224223 0.297001 0.096285 -0.247896 0.147152 -0.074187 0.483248 0.083457 -0.418622 0.237284 -0.083101 -0.139284 -0.208532 -0.521404 0.020004 0.326573 -0.094002 -0.312807 -0.162074 0.353689 -0.002812 0.435498 -0.230077 -0.546814 0.393815 -0.011462 -0.249335 0.059683 -0.000639 -0.294435 0.368652 -0.072863 -0.331892 -0.111299 -0.267391 0.117562 -0.144563 0.059906 0.879860 -0.228684 0.452670 -0.276110 0.276506 -0.459418 -0.302891 -0.501987 -0.094505 -0.063146 0.087622 0.497460 -0.496110 -0.487052 0.271896 0.050146 -0.135054 -0.261602 -0.385357 0.432055 -0.300134 -0.177218 -0.026770 -0.165586 -0.056314 -0.223976 0.113937 0.212717 0.171122 -0.089331 -0.233896 0.167555 -0.020983 0.089803 -0.303918 0.051823 0.490577 -0.104081 -0.419825 0.028329 0.478503 -0.201151 -0.510465 0.341882 -0.252286 0.344269 -0.135069 0.397638 -0.352206 -0.397806 0.090778 0.141797 -0.508036 0.070194 -0.036055 -0.648887 0.170120 0.070990 0.063230 -0.121904 -0.011432 0.327888 -0.245927 0.173495 0.125070 0.380335 0.008172 -0.268336 0.368442 -0.257331 0.286053 -0.475757 0.205996 0.527652 0.304803 0.221621 0.469847 0.114451 0.161893 -0.583585 -0.357103 -0.238690 -0.116032 0.068613 -0.112331
1799 0.085581 0.435963 -0.330061 -1.161368 -0.407307 -0.093987 -0.053776 0.129119 0.547544 -0.275170 0.182169 0.142836 -0.192867 0.348920 -0.064468 -0.208389 -0.074054 -0.282092 -1.013348 0.810026 0.318988 -0.096745 -0.037858 -0.486939 0.055068 -0.208535 -0.185890 0.016395 0.210360 0.268234 -0.016071 0.282210 0.559870 -0.732353 -0.288700 0.126347 0.439215 -0.124764 0.398991 0.322194 -0.374280 -0.210468 0.062331 -0.232629 0.046201 -0.106292 0.186442 -0.450956 -0.510779 0.206350 -0.518637 -0.397894 0.151404 0.015193 0.065951 -0.311979 0.261490 -0.237909 -0.380620 0.572131 -0.019784 -0.258803 0.125552 -0.022530 -0.470072 -0.197523 0.437792 0.357002 -0.250765 0.124812 0.088225 -0.334018 -0.531141 -0.252901 -0.234123 -0.244433 0.353668 -0.866732 -0.800190 -0.327499 -0.336843 0.054965 0.128422 -0.223595 0.589376 0.122794 0.301799 0.035198 -0.051832 -0.097557 0.221554 0.635186 -0.663947 -0.001951 0.100125 -0.023852 0.480089 0.063638 0.301445 -0.322808 0.192865 0.165786 0.015578 -0.841718 0.432463 -0.262383 -0.576664 -0.168742 -0.051524 0.364897 -0.298154 0.000593 -0.084744 -0.066110 0.277668 -0.240076 0.177666 0.252596 0.179112 -0.069942 0.655817 -0.016185 0.104433 -0.149288 -0.476285 -0.126959 0.359696 0.210312
1011 0.206955 -0.289385 0.205460 -0.237533 0.029786 0.169809 -0.481508 -0.355343 -0.155443 0.049550 0.378309 0.589451 -0.126698 0.350083 -0.074925 -0.272365 0.000526 -0.101320 0.195786 0.000704 -0.404165 -0.129073 0.261413 -0.214092 0.430497 -0.425892 0.425259 -0.000127 -0.393448 -0.173660 -0.437995 0.021667 0.209538 0.281700 -0.389084 0.040045 0.236519 -0.002527 0.125052 -0.382037 0.001712 -0.373982 0.211236 -0.076189 0.179898 -0.186353 0.067869 -0.765963 -0.042403 0.428397 -0.021279 -0.022504 -0.483587 -0.178561 0.057307 0.766238 0.059376 0.089719 0.173698 -0.030169 -0.028007 -0.009482 -0.109028 -0.431300 -0.441909 0.134127 0.602288 -0.057369 0.403716 0.666394 -0.364785 -0.032549 -0.169495 0.019781 -0.081750 0.416412 0.103958 0.088176 0.247481 -0.354738 0.000327 0.063219 0.157515 -0.192577 0.206791 0.202140 -0.484256 0.270487 0.250213 -0.047517 0.633080 0.070641 0.242961 -0.143130 0.279392 0.221727 -0.209338 -0.087877 -0.050985 0.295377 0.158298 -0.071864 0.271826 0.195758 -0.004984 -0.192713 -0.512671 0.685904 0.026982 -0.275549 0.521097 -0.059479 0.344660 0.176634 -0.299176 -0.472590 -0.279861 0.012611 0.158757 0.155200 -0.094276 -0.357085 -0.142015 -0.232875 -0.562545 -0.032240 -0.408286 0.105215
2286 -0.065437 -0.284773 0.126266 0.150962 0.034511 0.023957 0.313560 0.065812 -0.117004 0.129139 -0.237710 -0.269922 0.357008 -0.240215 -0.244224 -0.207554 -0.268841 -0.059174 -0.096952 0.059798 -0.211583 0.049811 0.083875 -0.097150 0.039719 0.150169 0.180354 -0.006231 -0.229580 -0.350824 0.184046 -0.160875 -0.213250 0.062686 0.002746 -0.466891 0.467437 -0.143180 0.335681 0.077530 -0.095684 0.360336 0.185736 -0.153359 0.508552 -0.202453 0.026291 0.296675 -0.524716 0.254719 0.024019 -0.040347 0.041900 -0.331360 0.550936 -0.983057 -0.119332 0.220023 -0.133535 0.554389 -0.080728 -0.016610 0.296827 -0.347601 0.453369 0.268894 0.041163 -0.217033 0.589432 -0.331760 -0.589007 0.441270 0.044601 0.195776 -0.243919 -0.230968 -0.377049 -0.152193 -0.281638 -0.372833 0.433464 0.041188 -0.479265 -0.502941 0.098343 0.040396 -0.086215 -0.356362 -0.437471 0.049418 -0.069539 -0.268508 -0.056594 -0.279886 -0.205699 0.367436 0.310802 0.118288 0.115382 0.204562 -0.355632 0.227933 -0.604365 0.411084 0.242637 -0.140088 -0.363986 0.297562 -0.307281 -0.178834 -0.168843 -0.183474 -0.073941 0.077359 -0.201351 -0.183215 -0.102207 -0.427840 0.334463 -0.085504 0.066213 -0.097673 -0.109083 -0.163182 0.287820 0.227187 -0.087961 0.287598
1741 0.159494 0.018224 -0.063610 -0.116951 -0.985971 -0.171145 0.541219 -0.214803 0.140361 -0.455118 0.179249 -0.136989 -0.469958 -0.470392 -0.406466 0.433908 -0.198702 0.235161 -0.493691 0.590489 -0.276217 -0.405512 0.029634 0.713328 -0.055927 0.264268 0.512157 -0.124243 0.245739 -0.195168 0.560490 -0.082200 0.087951 0.713841 -0.490445 -0.226938 -0.365629 -0.437018 -0.170456 0.000094 0.138171 -0.186853 -0.375400 0.101631 0.458826 0.308084 -0.366991 0.146392 0.567715 -0.094456 0.431038 -0.208557 0.370633 0.098134 -0.808285 -0.073891 0.281368 -0.323369 -0.095054 0.036995 -0.207313 0.102278 -0.247655 -0.441648 -0.051167 0.737390 -0.541737 0.277406 0.645645 -0.065570 -0.328305 -0.495168 -0.163170 0.315979 -0.172954 -0.163653 -0.022541 -0.159443 0.410836 0.439004 -0.108055 -0.006375 -0.294276 -0.203295 0.025189 0.489248 0.653928 0.680317 -0.030839 0.063304 0.948933 -0.119726 -0.115890 0.448102 -0.424725 -0.304543 -1.270718 -0.320482 -0.059936 -0.342023 0.277503 0.368786 0.047031 0.125619 -0.322862 -0.202390 0.180541 0.047300 -0.613919 0.369554 -0.233061 -0.077822 -0.531305 0.358779 0.079945 -0.862742 -0.776574 -0.028997 0.243933 0.207316 0.150878 -0.394626 0.382072 -0.000637 -0.257931 0.057464 -0.113893 0.119321
84 -0.159405 -0.081888 -0.020225 0.249258 -0.057426 -0.099925 -0.399352 -0.103262 -0.139108 0.230952 -0.012587 0.281317 -0.141762 -0.053346 0.510616 -0.133808 0.041895 -0.017111 -0.051256 0.515675 -0.229296 -0.045680 -0.018353 -0.030203 0.253460 -0.178474 0.043776 0.207002 -0.359355 -0.324371 -0.186490 0.121607 0.180764 -0.155440 0.315231 -0.077522 -0.044720 0.055745 0.061309 -0.080165 -0.428561 0.188776 -0.547830 0.016334 0.106276 0.356755 -0.181957 -0.352186 -0.319435 -0.211915 0.183791 0.272088 0.259958 0.002273 0.043308 0.385953 0.108787 -0.147537 0.028950 -0.043476 -0.195043 -0.169585 -0.269598 0.167709 -0.319664 -0.336735 -0.317262 0.460669 -0.199479 -0.344185 0.575834 0.222584 0.061781 -0.348719 0.224672 -0.248857 0.108297 -0.510125 -0.056672 -0.127303 0.082432 -0.146195 0.106085 -0.400119 -0.329444 0.049212 -0.255774 -0.024306 -0.197492 0.262094 0.117616 0.456378 0.274692 0.169765 0.130441 -0.020297 0.404987 -0.255009 -0.806465 0.421612 -0.559403 0.093578 -0.258877 -0.079033 0.172307 0.103937 0.421091 0.477545 -0.130709 -0.158111 -0.138410 0.205048 0.181341 -0.440934 0.065407 0.013062 -0.079674 -0.237300 -0.192568 0.001993 -0.287151 -0.161888 0.064648 -0.262250 0.231899 0.065202 0.050330 0.352169
163 -0.033252 0.605393 -0.111620 0.668983 -0.120025 0.235538 0.231045 0.166836 -0.193437 0.415211 0.208901 0.590198 0.327933 -0.440088 -0.005884 0.060216 0.241891 0.128827 -0.217795 0.601332 0.067610 -0.186249 -0.209373 0.127318 0.123204 -0.234619 0.023017 -0.238234 -0.095121 0.290249 -0.025087 -0.259939 -0.229082 -0.062917 -0.007378 0.151385 0.190956 -0.083951 -0.081413 -0.266520 -0.062028 -0.465910 0.297900 0.494626 -0.181574 0.028310 -0.286286 0.228651 -0.235041 0.082925 -0.429474 -0.192021 0.151385 0.124203 0.530187 -0.472320 -0.093436 -0.419344 0.458228 -0.132087 -0.313505 -0.075704 0.476729 -0.349701 0.049384 -0.328449 -0.011582 -0.076988 -0.447494 0.346399 0.293922 -0.351521 -0.313129 0.178070 0.364609 0.431746 -0.266608 -0.228663 -0.214493 0.000826 0.193536 -0.493659 -0.268136 0.307140 -0.259913 -0.449845 -0.163772 -0.172182 0.457660 0.143447 0.725782 -0.150162 -0.452218 0.516080 0.172581 -0.388736 -0.091796 -0.534171 -0.436589 -0.037381 -0.114017 0.338727 -0.509478 0.142180 0.351147 -0.470244 0.293768 0.303855 0.107349 -0.148915 0.032529 0.209109 -0.221230 0.335488 -0.128589 0.000921 0.281744 0.097311 0.117888 0.068451 0.147380 -0.043277 -0.018806 -0.486085 0.199388 0.157524 0.370790 -0.396684
1506 -0.144416 -0.103140 0.044533 -0.276446 0.145360 0.176519 -0.663319 0.044851 -0.289706 0.213209 0.241343 0.062323 -0.401158 0.209705 0.447175 0.017676 0.654577 0.019789 -0.055970 -0.119489 -0.213625 -0.421915 0.043459 0.183765 0.200514 0.092483 0.521334 0.069532 0.313388 0.181156 -0.141604 -0.048880 0.025475 0.214085 -0.409157 -0.322008 -0.105197 -0.350522 -0.346950 0.056588 0.269004 -0.060091 -0.119999 -0.222167 0.044775 0.070001 0.063256 -0.082849 -0.083798 -0.028939 0.340704 0.075477 0.002560 -0.101214 0.013843 -0.027055 -0.306197 0.122247 -0.245951 -0.167365 -0.081453 0.277455 0.358124 0.378502 -0.261366 0.191803 0.260194 -0.043655 0.244606 0.284463 0.029054 -0.098233 0.123611 -0.041398 0.010199 0.294476 0.279760 0.009284 -0.326876 -0.632994 0.121706 -0.239266 0.005294 -0.178968 0.036670 0.151199 -0.131663 -0.237866 -0.136619 0.113008 -0.037342 -0.292071 0.254502 0.374436 0.399758 -0.040624 0.325338 0.107124 0.052626 -0.029306 -0.451578 0.314969 0.162655 0.668098 0.807129 0.036605 -0.022317 -0.376467 -0.579463 -0.261511 0.114698 -0.499616 0.106061 0.054699 -0.483632 -0.059995 -0.138039 0.030138 0.363614 -0.079329 -0.103000 0.082598 -0.231561 0.001346 -0.318097 0.558638 -0.375829 0.046216
1524 0.220086 -0.197812 -0.538885 0.071649 0.028090 0.419162 -0.394384 0.206640 -0.382887 0.222994 0.078385 0.273951 -0.398976 0.204034 -0.099953 0.494279 0.148728 0.070628 -0.193843 -0.153234 -0.279595 0.413074 0.001588 -0.262212 -0.190964 0.410430 0.301582 -0.255540 -0.035359 0.745656 0.394863 0.108761 -0.063489 -0.035350 -0.664265 -0.139791 0.159700 -0.459265 -0.069602 -0.392058 0.109861 0.207244 -0.265727 0.077362 0.032024 -0.459784 -0.074302 -0.315398 0.123273 0.225391 0.111558 0.473065 0.718065 0.010811 0.494976 0.681404 0.118206 0.056937 -0.693624 -0.647473 -0.240972 0.091645 -0.049047 0.483911 -0.025946 0.393125 -0.244679 0.010288 0.104718 0.584960 -0.237120 -0.459490 -0.162166 -0.171691 0.339581 -0.027221 0.408769 -0.069823 0.114775 -0.125333 -0.008617 -0.399962 -0.440997 -0.174133 -0.080739 -0.134589 -0.654645 -0.247840 0.024860 -0.038851 0.110620 -0.504306 -0.405769 0.065426 0.022977 0.259728 -0.112087 0.427912 -0.361790 0.161881 -0.057644 -0.520259 -0.267363 0.444632 0.194678 0.400146 -0.336635 0.142308 -0.535194 0.374219 0.545750 0.185447 0.200656 -0.392315 -0.037884 -0.416842 0.302716 0.925498 0.384792 -0.117704 -0.123419 0.504883 0.123994 0.163883 0.286863 1.003536 -0.366061 0.078628
1317 0.199117 -0.084148 0.119328 0.382984 0.051349 -0.094862 -0.134664 0.336613 0.060040 0.264809 -0.137742 0.034122 0.003260 -0.153106 -0.148250 -0.219530 0.022482 0.301266 -0.235389 -0.572457 -0.255800 0.283137 -0.084518 0.047203 -0.074531 -0.313301 -0.095350 0.022800 -0.251002 -0.181676 -0.059539 -0.241259 -0.105650 -0.390229 -0.263211 -0.118569 0.199930 -0.317138 0.071132 0.149720 -0.338802 0.032537 -0.144940 -0.393937 0.345040 -0.300268 0.490589 0.113540 -0.403317 0.315058 0.378220 0.091916 0.229089 0.012521 0.382134 -0.588683 -0.102454 0.232322 0.131322 0.222867 -0.490740 -0.423960 0.242262 -0.208578 0.450892 0.452426 -0.284046 -0.145041 -0.085392 -0.428447 -0.619011 0.352357 0.176042 0.191074 0.187070 -0.106009 -0.267948 -0.335165 -0.370228 -0.060865 -0.058790 -0.320193 -0.168155 0.360593 0.226561 0.196236 0.053234 0.289948 0.048088 0.320596 0.258596 -0.051194 0.457472 -0.315513 -0.118378 -0.170746 0.089035 0.156845 -0.186285 0.330973 -0.322764 -0.003126 0.331709 0.065226 -0.231782 0.291929 -0.337042 0.032007 -0.031593 -0.181961 0.103964 -0.326026 -0.108502 0.124564 0.046522 -0.477540 -0.243547 0.102653 -0.348079 0.077049 -0.285910 0.256424 0.094671 0.126655 -0.221571 0.097716 0.168496 0.252818
2280 -0.132530 -0.044469 -0.257668 0.056238 -1.041085 -0.415541 0.482070 0.053053 0.249388 -0.223004 0.023760 -0.201540 -0.795285 -0.510456 -0.477196 0.641214 0.038437 0.107316 -0.425758 0.770872 -0.130917 0.054911 0.272782 0.429371 -0.269670 0.227960 0.646722 -0.303343 -0.014690 -0.605981 0.329543 -0.009668 0.094518 0.562291 -0.375918 0.199649 -0.330035 -0.541910 -0.258250 -0.024230 0.202292 -0.280155 -0.212330 0.342247 -0.345229 0.507949 0.105893 0.101163 0.804513 -0.586245 0.248368 -0.199445 0.228175 -0.097776 -0.491366 -0.051824 -0.000958 -0.427592 -0.365836 -0.373055 -0.035554 -0.143160 0.069264 -0.666212 -0.422026 0.573368 -0.745549 0.323098 0.843120 0.134718 -0.383522 0.054230 -0.164613 0.337278 -0.392444 -0.405675 -0.208897 0.010319 0.079394 0.207419 0.285999 0.465578 -0.512419 -0.646247 -0.694239 0.789966 0.627724 0.495609 -0.079412 0.215861 0.996939 -0.132360 -0.084940 0.392399 -0.408343 -0.176343 -0.974502 -0.039228 -0.201811 -0.559944 0.432057 0.206802 -0.000003 0.033801 -0.584337 -0.078842 0.431582 0.104510 -0.370645 0.263069 -0.215222 -0.371871 -0.757742 0.085900 0.052222 -0.789461 -0.250133 0.029609 -0.137483 0.189920 -0.101166 -0.485824 0.367809 -0.422283 -0.206799 0.293697 0.088876 -0.184543
1542 0.228391 -0.235797 0.099237 0.286086 0.428481 0.160610 -0.033647 -0.094629 -0.125593 0.104127 -0.115845 0.068137 -0.072649 0.047050 -0.291919 -0.102468 -0.053577 -0.201877 -0.270456 -0.249658 0.059971 0.273706 0.487875 0.260935 -0.205514 -0.162571 -0.109222 -0.451731 0.116266 -0.533272 -0.140967 0.034343 0.269843 -0.455267 0.054731 0.320303 0.198975 -0.066365 0.164244 -0.319974 -0.053820 -0.167393 -0.007487 -0.007896 0.280120 0.029141 -0.269063 0.125849 -0.137761 0.560388 0.015901 0.047608 0.387758 0.153960 0.361268 -0.535406 -0.450930 0.102672 -0.146031 0.069174 -0.535374 -0.264414 0.177892 -0.243869 0.392303 0.666651 0.073832 -0.559228 0.268134 -0.313720 0.146744 0.334677 0.124218 -0.168081 -0.064354 0.118572 -0.199711 0.121805 -0.658575 -0.167320 -0.200124 -0.327247 0.204170 -0.045496 0.143661 -0.007525 -0.081010 0.268343 -0.654379 0.395732 -0.087019 -0.577234 0.126843 -0.332573 -0.399715 -0.211677 -0.131359 0.083416 0.460224 0.101954 -0.490954 0.170540 -0.307342 -0.104928 -0.046982 0.416290 -0.019581 0.113728 -0.178250 0.114706 -0.009110 -0.129034 -0.146728 -0.696969 0.058332 -0.100676 -0.367503 -0.219275 -0.175536 0.075442 -0.139740 0.325760 -0.256499 -0.232689 -0.157037 -0.078579 0.102218 0.017083
602 -0.066735 -0.363292 -0.243132 0.227721 -0.346632 0.095639 -0.154311 -0.018862 0.123900 0.240096 -0.254259 0.333340 -0.062793 0.047428 -0.022196 -0.147726 -0.119320 0.221791 -0.119787 -0.281925 0.286088 -0.504668 0.161053 0.284628 -0.180809 -0.454775 -0.274387 -0.139646 -0.401329 -0.077358 -0.328471 -0.316317 0.111024 -0.655682 0.053009 -0.312739 0.482242 0.107899 0.123363 0.189518 -0.164026 0.393346 -0.056396 -0.541452 0.736868 -0.120384 0.418186 0.195892 -0.222236 0.284679 0.630208 0.011159 0.036107 -0.125919 0.137559 -0.529179 -0.167513 0.067043 -0.014140 0.437218 -0.186236 -0.372515 -0.014446 -0.341212 0.398820 0.111782 -0.079286 -0.217265 0.395964 -0.285794 -0.241485 0.618599 -0.262328 0.149158 -0.160514 0.024762 -0.323106 -0.019417 -0.195942 0.035950 0.377600 -0.050070 0.088384 -0.158344 -0.305902 -0.032396 0.119536 -0.440035 0.035780 0.176307 0.067263 0.067068 0.215415 0.272521 -0.570054 -0.102817 -0.101233 0.212000 0.323654 -0.087044 -0.423804 0.154890 -0.152814 0.374667 -0.228270 -0.476288 -0.134665 0.207949 -0.049241 -0.275749 0.012478 -0.025141 -0.714284 -0.515066 -0.362246 -0.025193 0.171065 0.060459 -0.010477 0.188111 0.260393 0.399233 0.322485 0.214744 0.094848 0.270352 -0.266076 0.240670
2146 -0.043412 -0.334178 -0.008474 -0.342311 0.227233 0.399409 -0.451991 -0.053268 0.079173 0.409752 0.136941 -0.373213 -0.471651 -0.001373 -0.341222 0.457762 0.113819 0.294731 -0.559270 -0.001177 -0.607787 -0.307723 0.153759 -0.086613 -0.152366 0.121764 -0.059568 0.096595 0.109278 0.217271 -0.141874 0.077743 -0.038321 0.046996 0.119304 -0.164506 0.014545 -0.634121 -0.402087 -0.121054 0.634808 -0.907482 -0.375674 0.190235 0.191359 -0.451927 0.110992 -0.540811 0.282090 -0.005179 -0.362994 0.227740 0.624930 0.069188 0.110041 0.084915 -0.294000 -0.293925 -0.413704 0.163551 0.023656 0.244087 -0.427869 0.107184 -0.222003 0.328273 0.128586 -0.030839 -0.173209 0.433342 0.036604 0.249326 0.198753 0.347809 0.096962 0.046161 0.306467 -0.036078 0.057713 0.146931 0.000416 -0.158349 -0.013600 -0.242850 -0.185848 0.077981 -0.323423 -0.159777 0.496770 -0.424474 0.511561 -0.560242 0.012296 0.041779 0.225195 -0.001742 0.635456 0.332717 -0.151045 0.443027 -0.415515 -0.138167 -0.145137 0.224523 -0.306229 0.137304 -0.603449 0.160207 -0.328131 0.386054 0.382201 -0.241221 -0.026070 -0.255241 -0.356959 -0.684185 0.146173 0.515545 0.116147 -0.152708 -0.166441 -0.400958 -0.238009 0.313396 0.121763 0.489443 -0.001363 -0.073442
2278 -0.100515 0.287707 -0.298770 -0.962846 -0.299411 -0.132378 0.191534 0.209228 0.522202 -0.249736 0.225379 0.021133 -0.318867 0.346821 -0.156195 -0.210867 -0.101807 -0.019998 -0.954826 0.873043 0.042753 -0.204481 0.022781 -0.240780 0.177275 -0.040930 -0.239946 -0.017809 0.170109 0.312892 0.055433 0.028054 0.571189 -0.718485 -0.093488 0.263208 0.551477 -0.131852 0.330434 0.151346 -0.327344 -0.193564 0.252693 -0.279122 0.157083 -0.115018 -0.043363 -0.450215 -0.524081 0.405054 -0.622150 -0.480123 0.170671 -0.233817 0.022129 -0.376716 0.374883 -0.369431 -0.343526 0.871826 -0.080310 0.026284 -0.040930 -0.096622 -0.516167 0.035065 0.491405 0.069380 -0.217903 0.077607 0.047824 -0.418475 -0.591706 -0.214080 -0.317522 -0.035420 0.598617 -0.893804 -1.003437 -0.432085 -0.174396 -0.030014 0.197240 -0.061039 0.611486 0.298885 0.290958 -0.026635 0.000744 -0.095695 0.033516 0.493905 -0.361531 0.064817 0.295471 0.376563 0.327776 -0.036238 0.119358 -0.186847 0.390817 0.097443 0.210608 -0.832992 0.416867 -0.328963 -0.390239 -0.139669 -0.206696 0.255829 -0.229205 0.121891 0.000182 0.007577 0.484890 -0.490700 0.201723 0.395352 0.228057 -0.067518 0.659355 -0.194108 0.161706 -0.322279 -0.508709 -0.047220 0.488499 0.133246
1015 0.590627 -0.824634 -0.088437 0.093324 0.519886 -1.212150 -0.089424 -0.139663 -0.060855 -0.555869 0.729721 -0.376288 0.381938 0.388917 -0.181433 1.191779 0.023780 -0.693192 -0.109673 -0.068103 -0.141961 0.552464 -0.097016 -0.340562 -1.292411 -0.547267 0.454836 0.429991 0.337246 0.493310 -0.416668 -0.420555 -0.007395 -0.615860 -0.267315 0.100242 -0.302803 0.746095 -0.525977 -0.506135 0.152738 0.258193 0.240267 -0.050925 0.419913 0.179622 0.561325 -0.424860 -0.072445 0.066316 -0.521896 0.140630 -0.129418 0.428820 -0.186576 -0.273431 -0.105186 0.636778 -0.165009 0.400832 -0.789003 0.281795 -0.391722 -0.300809 -0.673061 0.120672 0.097029 0.542350 -0.245177 0.220441 -0.900229 0.395516 0.159150 0.001393 0.544879 0.497493 0.129183 -0.364350 0.606289 -0.194294 -0.191747 0.145640 -0.036476 0.228497 -0.606972 0.178160 0.608745 0.329956 -0.168783 -0.092336 0.398382 -0.011123 -0.858805 0.236074 0.323385 0.077706 0.174859 -0.114967 0.126545 0.041750 0.111090 -0.636526 0.031596 -0.154921 0.246474 0.360789 0.601824 0.434932 -0.592354 0.265274 -0.014503 0.089953 0.011256 -0.399029 0.784891 0.635748 -0.061071 -1.070174 0.162887 -0.238925 -0.667314 -0.637310 -0.292830 0.019320 0.547628 0.097774 0.293746 0.324596
1325 0.363975 -0.265389 -0.603851 0.117338 0.447482 -0.358336 -0.396407 0.100429 -0.036156 0.643206 -0.208557 -0.481878 -0.162954 -0.675666 -0.249350 0.273648 0.069476 -0.205283 -0.063879 -0.109968 0.081147 -0.344212 -0.079774 -0.308851 0.073788 -0.181851 0.745594 0.543342 0.336313 -0.028479 0.195668 0.005812 0.113534 0.216411 0.192928 -0.040088 0.325830 -0.202036 -0.394882 0.071867 -0.570496 0.261504 -0.361422 -0.129827 0.102802 -0.009813 -0.094420 -0.417658 -0.291844 0.228134 0.257477 0.091265 0.249195 -0.262745 -0.275975 -0.047662 -0.345675 0.526864 -0.097821 -0.513314 0.155470 -0.271484 -0.099361 0.183627 0.069820 0.202694 0.089481 -0.211235 -0.458240 0.307545 0.222896 -0.665315 0.353938 -0.330472 -0.324859 0.060021 0.131925 0.205165 0.163314 -0.224746 -0.129826 0.047937 -0.250477 0.358616 -0.593407 0.061517 0.027632 -0.259631 0.356499 -0.435226 -0.047938 0.086316 -0.182528 0.413489 -0.137073 0.330867 0.293761 0.014238 0.298442 -0.247483 -0.287929 0.608876 0.041897 -0.022191 0.307216 -0.153868 -0.206851 -0.192419 0.475722 -0.128018 0.366512 -0.051578 -0.073323 0.678633 -0.138915 0.283243 -0.111240 -0.198750 -0.508511 0.160461 -0.098289 0.247141 0.287196 0.134451 -0.093330 0.268681 0.081802 -0.056724
2015 -0.024912 0.308532 0.067441 0.037417 -0.096154 -0.392129 0.535734 0.014813 -0.534736 -0.084314 0.395412 -0.273919 -0.368151 0.139690 -0.111543 0.047753 -0.357473 0.693424 -0.501408 0.763464 -0.088613 0.156155 -0.409975 0.049564 -0.282076 -0.152414 -0.058732 -0.146305 -0.354929 -0.243066 -0.442636 -0.186833 -0.373270 -0.131240 -0.114538 0.029781 0.127661 -0.071619 0.003108 -0.399960 -0.068603 -0.016965 0.352413 0.027321 -0.253633 0.039632 -0.394720 0.045977 -0.581872 0.229757 -0.190190 -0.058445 -0.168468 0.247489 -0.039453 -0.778324 -0.214618 0.012083 -0.146177 0.259547 -0.448520 0.000451 -0.416922 0.383820 -0.237494 -0.012083 0.393967 -0.297213 0.212849 0.327816 0.049201 -0.311729 -0.255971 0.939044 0.437982 0.092327 0.381164 0.045547 -0.056653 -0.525799 -0.021716 -0.437313 0.391930 -0.383163 0.248634 0.498281 0.105233 -0.094592 0.063989 -0.115711 -0.539403 0.484727 0.143563 0.300320 0.086592 0.350404 0.232710 0.377176 0.114365 0.312310 0.136350 0.210250 0.196095 -0.092839 0.242112 -0.155804 0.063322 0.110799 -0.190340 -0.214144 -0.230636 0.056765 -0.018609 -0.288272 0.157851 -0.271742 -0.092264 -0.012525 -0.480824 0.298569 -0.280401 0.246879 -0.045583 0.002172 0.332478 0.182355 -0.453339 -0.368808
600 -0.033879 -0.044845 -0.314221 0.449162 -0.060749 -0.379543 0.193224 -0.149596 0.705831 -0.034678 -0.064515 -0.093730 0.088470 -0.407194 0.095330 0.389254 0.179493 -0.008378 -0.119323 -0.634862 0.591016 -0.379334 -0.036931 0.423217 -0.597578 0.241006 -0.356251 0.050805 -0.761088 0.754837 0.184955 -0.340102 0.269804 -0.080820 0.111932 0.264141 0.374099 -0.028736 0.137354 -0.644845 0.033946 -0.080538 -0.480524 -0.131186 0.400792 -0.167963 0.342223 -0.283892 -0.177373 0.216951 0.706589 0.131232 -0.441952 -0.220960 0.125147 -0.649698 0.041128 0.009538 -0.056631 0.225765 -0.355409 -0.169382 0.447834 -0.240210 0.183208 0.187806 0.235207 -0.045549 0.689518 0.006627 -0.170747 0.693061 0.320905 -0.084847 0.207469 0.155027 0.258009 -0.608170 -0.006238 -0.356373 0.108115 0.110207 0.008807 -0.598988 0.135982 -0.011522 0.067451 -0.203513 -0.022396 -0.001897 -0.333854 0.215777 0.094591 -0.020094 -0.528764 0.283473 0.367737 0.927419 -0.135599 0.124744 -0.781719 -0.019552 0.201099 -0.304479 -0.216599 -0.100122 0.127418 0.020203 -0.161275 -0.620662 0.306373 0.019422 -0.290787 -0.052491 -0.330156 0.016919 -0.106319 -0.146923 -0.097529 -0.055911 0.116357 0.259191 0.178764 -0.363373 -0.013771 0.237922 0.119893 0.232688
2509 0.355108 -0.127692 -0.052023 0.317729 -0.309659 0.008003 0.119554 -0.160211 -0.169128 0.743067 0.067594 0.110306 -0.088182 0.154080 0.180730 0.045582 -0.224016 -0.037144 -0.284357 0.436018 -0.312786 0.138581 0.319679 -0.203301 0.667559 0.026616 0.090351 -0.035894 -0.540100 -0.284726 0.156611 -0.596031 0.167674 -0.051906 0.218515 0.200374 -0.257582 -0.201382 0.326140 -0.279737 -0.172474 0.432467 -0.098720 -0.302105 0.117983 0.109269 -0.134876 -0.238422 -0.313804 0.224087 0.133706 0.100431 -0.046500 -0.166232 -0.254910 0.302319 -0.377106 -0.144911 -0.203133 -0.127224 0.294627 -0.214947 -0.311569 0.319138 -0.651099 -0.220844 -0.199817 0.345505 -0.731061 -0.015562 -0.013556 0.440979 0.359995 -0.598802 0.269230 0.238260 0.124250 -0.650177 -0.249559 -0.093355 0.485600 -0.020896 0.267410 -0.197790 -0.294157 0.047461 0.093688 -0.043397 -0.099224 0.514622 -0.456369 0.054878 0.439501 0.164183 0.072849 0.161899 0.122096 -0.463228 -0.223881 0.612294 -0.372118 0.069244 -0.178337 -0.239347 -0.012277 0.101124 0.280306 -0.096557 0.031643 -0.348067 0.145263 0.112370 0.058529 -0.204176 0.236526 -0.188676 -0.149543 -0.114878 -0.019893 -0.110659 -0.254017 -0.541433 0.359591 -0.220850 -0.282949 0.019992 -0.020540 0.112996
1601 -0.623834 -0.012686 -0.019317 0.160554 -0.517110 0.429287 -0.089331 -0.417936 -0.077748 0.364799 -0.224614 0.750640 -0.402441 -0.415869 0.241912 -0.044753 0.086869 -0.113778 -0.198644 0.415686 -0.150776 0.080842 0.240405 -0.040111 -0.352624 -0.388292 -0.509926 0.023287 -0.261815 0.014720 0.036488 -0.416258 -0.117296 -0.276217 0.181568 -0.559350 -0.130368 -0.029553 -0.520482 -0.253142 0.211102 -0.357911 -0.282815 0.159939 0.325412 0.302620 -0.229172 -0.433238 -0.064077 0.020131 -0.115533 0.020300 0.381332 -0.301956 0.139507 0.056799 -0.024291 0.044361 0.185503 0.023142 -0.237807 -0.345407 0.204665 -0.075740 -0.128423 -0.054423 -0.514287 0.221747 -0.071474 0.175342 0.308421 -0.515744 -0.208874 -0.217039 0.372307 0.279739 -0.124238 -0.214951 0.425553 0.009390 -0.213936 -0.469057 0.127692 -0.273097 -0.452783 -0.071680 0.031913 -0.004882 0.160855 0.112487 0.660882 -0.010371 -0.328082 -0.115576 0.547094 -0.385913 0.609350 -0.564987 -0.249618 -0.229099 -0.426487 -0.032517 -0.261233 -0.185335 0.269014 -0.522819 0.715026 0.105158 -0.388287 0.183582 0.416877 0.300250 0.334557 0.638197 0.219935 -0.105625 0.367157 -0.338903 -0.359706 0.166975 0.101105 0.184840 0.109414 -0.427386 0.499467 -0.374294 0.038899 0.126366
911 0.489053 0.134372 0.047811 0.430681 -0.022524 0.262153 -0.181595 0.368606 0.266498 0.245753 -0.301049 0.273318 0.113517 0.151128 0.355228 -0.218649 0.152514 -0.033677 -0.021962 -0.459646 -0.026653 0.365420 0.146831 0.219177 0.052932 -0.071611 0.013225 -0.099659 -0.529988 0.112692 -0.341674 -0.408050 0.180453 0.007211 -0.063197 0.220562 0.109816 -0.071593 0.074065 0.077981 0.339126 0.120629 0.187085 -0.141166 0.377015 -0.067263 -0.090998 0.121394 -0.094047 0.094476 0.406421 -0.025108 0.151241 -0.365443 0.233205 -0.686870 -0.214658 0.230291 0.056116 0.145162 -0.455510 -0.274107 0.340573 -0.074435 0.220098 0.128983 -0.342246 -0.097702 0.217412 -0.337972 -0.449269 0.196074 0.268693 -0.070215 0.590141 -0.244455 0.171772 -0.530434 -0.144535 0.116673 0.003282 -0.277878 0.151081 -0.253525 0.124632 0.085353 0.186632 0.021274 -0.166418 -0.055515 0.115629 0.075338 0.001688 -0.068591 -0.294844 0.159889 0.309569 0.272686 -0.129249 -0.109139 -0.539544 -0.119134 0.242112 -0.296373 -0.849206 0.582399 -0.620316 -0.017691 0.039187 -0.524064 -0.075398 0.000194 0.137125 -0.061631 -0.070851 -0.324269 -0.365422 -0.267273 -0.138300 0.420271 -0.607858 0.450814 0.334060 -0.201123 0.242636 0.153121 0.279003 0.382646
484 -0.068135 -0.001963 0.190824 -0.343218 -0.035458 0.176108 0.056043 -0.577592 -0.385915 0.061534 0.159163 0.105063 -0.449699 -0.592722 -0.160174 -0.257547 0.081496 0.116527 -0.415328 0.394086 -0.245600 -0.341085 -0.183582 0.337332 -0.381505 -0.172366 0.149313 0.279930 0.212153 -0.166917 -0.174833 -0.132654 -0.313933 0.058906 -0.223116 -0.491187 0.343045 0.108863 -0.116043 0.046270 -0.294548 0.128508 -0.628651 -0.207336 0.145542 0.328413 0.138123 -0.490483 -0.297137 0.071246 -0.272266 -0.208252 0.235743 0.104442 0.492746 -0.099140 -0.261873 0.337353 0.312655 -0.381289 0.849466 -0.371529 -0.161999 0.091962 -0.338360 0.347749 -0.399380 0.106119 -0.335341 -0.070584 -0.096473 0.232336 0.161800 -0.611559 0.009792 -0.049279 0.236246 0.035208 -0.028290 -0.267661 -0.202573 -0.355765 -0.029559 -0.525559 -0.162988 -0.342815 -0.575775 0.089589 -0.026319 0.440660 -0.041677 -0.040957 -0.340423 0.359527 -0.139657 0.589959 -0.437566 0.507028 -0.163444 0.021523 -0.561182 0.264368 -0.658071 0.153997 0.233062 0.468931 -0.013098 -0.301778 0.575394 -0.296903 0.166084 0.133067 -0.093251 0.029857 0.195204 0.240935 -0.017987 -0.400200 -0.348959 0.432253 -0.447587 -0.408421 -0.085101 -0.045915 0.192152 -0.337765 -0.167323 0.569185
2419 -0.198733 -0.090245 -0.716417 -0.060516 -0.426267 0.288557 -0.165070 0.084254 -0.062307 -0.089507 0.231976 0.247765 -0.467219 -0.199124 -0.336771 0.054524 0.213720 0.196895 0.234438 -0.154631 -0.636403 -0.357477 -0.102841 -0.107083 -0.310889 -0.308686 0.270407 -0.268407 -0.601601 -0.513499 -0.245399 -0.624743 0.249207 0.346769 -0.298980 -0.090059 0.362531 0.262997 -0.581806 0.319851 0.211151 -0.542467 -0.561995 0.587971 -0.407713 -0.201777 0.434819 0.185098 -0.250765 -0.294032 -0.087968 0.135401 0.093901 -0.086924 0.365326 0.133114 -0.090321 0.278115 0.009483 0.032578 0.217031 0.428478 0.358120 -0.066957 -0.038367 -0.322025 -0.156718 -0.664303 0.007039 0.165334 -0.256294 -0.628551 -0.026204 -0.028009 0.296126 -0.035691 0.183662 0.268599 -0.411257 0.065308 -0.344129 -0.425079 0.093694 -0.494180 -0.390906 -0.046484 0.168148 0.238720 0.077949 0.215952 -0.192656 -0.063989 -0.149395 -0.322689 -0.023021 0.177359 0.030769 -0.091372 -0.020728 -0.138349 -0.138479 0.405469 -0.145962 0.556665 0.314254 0.030756 -0.059441 -0.263872 -0.351352 0.305061 -0.164390 0.076364 0.035409 -0.500028 0.307101 0.192007 -0.309012 0.203652 0.277083 -0.531154 -0.151469 0.066959 -0.085653 0.048229 0.303611 0.095637 0.001829 -0.653878
1871 -0.257268 0.348513 -0.254565 0.565676 -0.522230 0.220728 0.034516 0.490671 -0.289049 0.198121 0.418541 -0.078480 0.091967 -0.727172 -0.341806 0.324637 0.154227 0.079414 -0.540225 0.674631 0.295380 0.200522 -0.257472 0.289955 0.485770 0.070272 0.275811 -0.292111 -0.076131 -0.061997 -0.218109 -0.023690 0.110569 -0.087368 -0.223647 -0.133031 0.194160 -0.180929 -0.003401 -0.127937 -0.074781 0.095160 0.255648 -0.112679 -0.107047 -0.385957 -0.433378 -0.097835 0.396754 0.020523 0.316364 -0.326208 -0.049415 0.162879 -0.359012 -0.450763 0.471870 -0.330673 0.273723 -0.459417 -0.571910 0.496292 -0.642755 -0.649506 -0.353369 -0.076569 -0.008992 -0.354540 0.306128 0.160779 0.012092 -0.128112 -0.009239 0.265283 0.608263 -0.153408 -0.420125 0.063092 -0.435284 0.113076 -0.099650 -0.173435 -0.083119 0.283414 -0.139975 0.492874 -0.203577 -0.203932 0.431691 0.641484 0.281974 0.011828 -0.276793 0.664081 -0.183315 -0.021997 0.021650 -0.468282 -0.402317 -0.362544 0.335049 -0.155944 0.016068 -0.053949 -0.366084 -0.152280 0.635850 0.081791 0.035805 -0.005337 -0.180596 -0.384819 -0.245426 0.278351 -0.029410 0.139390 -0.327953 -0.115989 -0.049554 0.287145 0.269460 -0.159256 -0.352023 -0.282913 -0.052236 0.196918 -0.051961 -0.806039
680 -0.451121 0.047819 0.227262 0.072105 0.226432 0.751701 -0.121938 0.047160 -0.281246 -0.172556 0.569306 -0.157691 -0.074664 -0.612960 0.268568 0.055623 -0.162304 -0.592645 -0.125213 0.849795 -0.625584 0.155084 -0.339919 0.068874 -0.442799 0.065977 -0.474728 -0.475467 -0.199293 0.054858 0.307974 -0.134533 0.275272 0.227690 -0.263645 -0.040126 -0.272770 0.122994 -0.448391 0.831160 -0.067318 -0.175109 -0.201549 0.021441 0.442851 -0.222347 -0.154314 -0.243006 0.523776 -0.141186 -0.045844 -0.215289 -0.307022 -0.004878 -0.030962 -0.580340 -0.391547 0.349414 0.326856 -0.566079 0.060925 -0.307087 0.024090 -0.020261 -0.082418 0.306846 -0.373116 -0.123088 0.273737 0.417850 0.078958 -0.040745 -0.483114 0.256028 0.110252 0.300825 0.562114 0.405870 0.253072 0.562091 -0.024124 -0.243093 0.198676 0.253778 0.550911 0.268663 -0.359149 0.057561 0.014974 0.332262 0.385099 0.372815 -0.050049 -0.410021 -0.359578 -0.445620 -0.011989 -0.610818 -0.364913 -0.163887 0.043698 0.382213 -0.042722 -0.439335 0.041925 -0.105449 0.396554 -0.164297 -0.665416 -0.251855 -0.056750 0.054338 0.167569 0.169323 -0.023445 0.824078 -0.306872 0.196138 -0.078517 -0.216571 0.331676 0.620756 0.707987 0.044083 -0.505003 0.003373 0.028711 -0.233004
2416 -0.762149 -0.224308 -0.287658 0.244849 0.376123 -0.200968 0.374734 0.241065 0.322353 0.230234 0.064306 -0.422773 -0.481723 -0.624897 0.392343 0.035734 0.086899 0.233220 -0.290131 0.059883 -0.242892 -0.291103 0.988302 -0.333147 0.964179 0.348844 -0.501275 -0.480441 0.447427 0.131070 0.269195 0.319962 -0.032522 0.120324 0.346245 0.482384 -0.411355 0.299919 0.853283 0.427881 0.087902 -0.393185 0.102983 -0.104545 -1.005904 -0.989866 1.099426 0.698202 0.404090 -0.669798 -0.046569 0.387707 -0.933440 -0.473929 -0.126368 -0.023169 0.590381 0.326619 0.383128 0.593799 0.088993 -0.411337 -0.277684 0.784619 -0.592520 0.099356 -0.010875 -0.367205 0.121634 -0.279333 -0.048201 0.098443 -0.512382 0.134372 -0.239890 -0.497234 0.374513 -0.082680 0.521094 -0.163998 0.070125 -0.334886 0.010205 0.074219 0.189120 -0.028221 -0.404432 0.599020 0.224540 -0.385326 0.319463 -0.223797 -0.048463 0.174832 0.249078 -0.594619 -0.325558 -0.449544 -0.106139 -1.119868 0.467857 0.095422 -0.502657 -0.254154 -0.092361 -0.180656 -0.014958 0.402102 -0.957436 -0.043494 -0.053353 -0.792701 0.073073 -1.058813 -0.169323 0.035770 -0.155490 -0.222451 -0.174910 0.674678 -0.572585 0.416100 -0.118649 -0.950778 0.401375 -0.147764 -0.396628 0.265920
738 -0.300266 0.278544 -0.083817 0.306872 -0.085810 0.193341 -0.538034 0.219120 -0.259886 0.420776 -0.428456 0.178098 -0.365740 -0.103427 0.059587 0.078500 -0.041349 -0.365098 0.149365 -0.088610 -0.148208 -0.171078 0.014895 -0.156939 -0.110644 -0.002083 0.446915 -0.070533 -0.412979 -0.130135 -0.038786 -0.112347 -0.168005 0.054504 -0.039662 0.249053 0.125731 -0.116666 -0.286521 -0.243621 0.262927 -0.001502 0.182863 0.144378 0.250399 0.026712 0.355339 -0.415106 -0.233730 0.146944 -0.041354 0.444610 0.175897 -0.207780 0.251048 -0.419690 0.456012 -0.244505 -0.093584 0.006852 -0.145242 -0.042464 0.224968 0.352504 -0.580514 -0.016586 -0.064698 0.676540 0.013100 -0.076787 0.552556 0.128703 0.354730 -0.282074 0.212395 -0.075570 0.163264 -0.627882 -0.512686 0.031865 -0.003238 -0.424758 0.075708 -0.188376 -0.236914 -0.135263 0.337027 0.341293 -0.365470 0.127460 0.226048 0.572094 0.085906 -0.158027 0.210822 -0.238858 0.150747 -0.025562 -0.482122 0.424896 -0.639328 -0.032313 0.159081 -0.337247 -0.093080 0.274045 0.412100 0.630935 0.107554 -0.339033 -0.089345 -0.092946 -0.114354 -0.193508 -0.343315 0.072227 0.378368 -0.052176 -0.017813 0.431564 -0.043885 0.074663 0.447469 -0.169283 0.235300 -0.208004 0.636630 0.519763
332 0.100731 -0.387792 0.231810 0.079217 -0.407047 1.154895 -0.395719 0.012192 -0.666227 0.133980 0.490088 0.384878 0.456503 -0.535488 -0.423409 0.368275 0.335056 -0.372181 -0.692391 -0.094012 0.076144 0.171801 -0.637684 0.256062 0.611389 0.262734 0.250550 -0.321008 0.404681 -0.363013 0.074382 -0.164406 0.473683 -0.725687 0.067844 -0.456893 0.327333 0.261790 -0.001220 -0.183871 -0.255621 0.410436 0.470159 0.186643 0.408178 0.007201 0.266062 -0.105711 -0.007647 -0.001008 -0.258401 -0.085422 -0.262666 -0.145256 -0.228629 -0.210897 0.306180 -1.110781 -0.237517 -0.125328 0.002745 0.415897 -0.641361 -0.361920 -0.921562 0.001810 -0.227422 -0.950714 0.690938 -0.046327 -0.390513 -0.714372 0.202392 0.152675 0.570407 0.969795 -0.275759 -0.308253 0.419582 0.088918 -0.523298 -0.194406 -0.078782 -0.064114 0.688043 0.498928 -0.037320 -0.509313 0.026713 0.495207 0.082967 0.474612 0.233845 -0.085348 -0.447454 0.162627 -0.010353 0.138323 -0.420368 -0.649447 0.234704 -0.412072 0.203149 0.054291 0.034349 0.319124 0.458701 0.166005 -0.006389 -0.147121 -0.901005 0.031376 -0.347146 -0.067610 0.107006 0.631633 -0.020218 -0.115260 -0.030262 0.142490 0.023359 -0.011776 -0.972295 0.292763 0.096109 -0.036919 0.656842 -0.314160
2165 -0.278069 -0.105529 -0.232795 -0.172206 0.420203 0.426537 -0.160004 0.260109 -0.403332 0.262013 0.253778 -0.341572 0.127021 0.013091 0.017848 -0.238987 -0.286545 0.218525 0.076405 -0.056023 -0.033751 -0.113856 0.173154 -0.052449 -0.300704 0.001819 0.296853 -0.169131 -0.181859 0.018169 -0.173126 -0.024644 0.168532 -0.351237 -0.189525 -0.212414 0.034660 0.656828 0.709981 0.102885 -0.284922 -0.436449 -0.222373 0.115587 -0.397529 0.268263 -0.792960 -0.463484 -0.357255 -0.258496 0.303722 -0.104165 0.099416 0.139437 -0.267336 -0.182794 0.218335 0.307936 0.344041 0.102804 -0.068254 0.082010 0.539006 0.212218 -0.390733 0.115191 -0.175398 0.432368 0.183437 0.235847 -0.621804 -0.336081 0.445627 0.041982 -0.115891 0.351347 0.539283 0.077447 0.155934 -0.118002 0.120835 -0.962189 0.000569 -0.180160 -0.484831 -0.497496 0.227356 0.198370 0.589253 -0.109147 -0.098614 0.007115 0.162859 -0.178994 0.216962 0.249055 -0.110875 0.222290 0.025362 0.342486 -0.566520 -0.433263 -0.036729 0.128716 0.256325 -0.007516 -0.288548 0.151395 0.068854 -0.094084 -0.341599 0.167631 0.101593 -0.000685 -0.093038 0.201063 0.108375 0.291061 -0.316000 0.129837 0.095043 -0.205433 -0.307291 -0.087185 0.309220 -0.487745 -0.143624 -0.483889
1302 0.067349 -0.096763 -0.199010 0.334662 0.525182 -0.113584 0.185442 0.119832 0.400293 -0.460746 0.305006 0.302754 -0.345820 0.340398 -0.012330 0.436357 -0.059802 -0.011630 0.354920 -0.113030 -0.289781 0.258160 -0.299430 0.083278 -0.279311 0.201156 -0.050358 0.429110 -0.119313 -0.403313 -0.338364 -0.106202 -0.430647 -0.350205 -0.154857 0.140913 0.034798 -0.185291 0.280603 0.422598 0.091964 -0.226880 -0.600906 -0.165724 -0.556343 -0.160514 -0.203771 0.178550 -0.064447 0.474016 0.484892 0.342519 -0.159034 -0.114148 0.087985 -0.524563 0.022931 0.223067 0.114228 0.229381 0.357743 0.085665 -0.278018 -0.285316 -0.346649 0.115846 0.443232 -0.363623 0.692098 0.134640 0.079339 -0.118095 -0.233916 -0.138307 -0.292745 -0.353494 -0.563195 -0.406040 -0.155813 -0.384106 0.013569 -0.268071 0.160872 0.199569 -0.076720 0.009100 -0.189554 -0.094322 -0.043753 0.229893 0.297956 0.046256 0.364030 -0.161634 0.331239 0.063907 0.207492 0.307513 0.014088 -0.275284 -0.259254 -0.496110 -0.133040 0.566051 -0.032569 0.271058 0.053390 -0.232194 -0.530283 -0.064575 -0.216116 0.093275 -0.071740 0.187041 -0.174952 0.519434 0.291922 0.448176 0.628923 0.037802 -0.132986 -0.059886 0.148565 0.108149 0.041235 0.230143 0.030865 0.629010
596 0.131004 -0.009918 0.293651 -0.158289 -0.528278 0.017258 0.085385 0.068133 -0.396177 -0.080936 0.815734 -0.574260 -0.058656 -0.515561 0.208356 0.652824 -0.380210 -0.102608 -0.478572 0.477929 -0.497392 0.203332 0.333411 0.355079 -0.053498 0.079438 0.238078 0.157735 0.403646 0.102818 0.514904 -0.262242 0.122863 0.599370 -0.118675 0.170702 -0.272421 0.156756 -0.184141 0.660066 -0.578804 -0.310693 0.033554 0.523148 1.851220 0.541916 -1.302765 -0.350102 0.860752 -0.027421 0.018321 0.455190 -0.189917 0.162727 -0.239242 -0.185743 0.117400 -0.080845 0.158815 -0.119176 -0.638757 0.730329 -0.087557 -0.093343 -0.542213 0.586464 -0.726454 0.665101 0.249698 -0.227068 0.874197 -0.386041 -0.361098 0.607135 -0.354133 0.317766 0.068588 0.265837 0.452196 0.602143 0.117318 -0.438481 -0.119844 0.421428 -0.076034 -0.012711 -0.074871 0.938261 0.632178 -0.204331 0.178518 0.415654 -0.184722 -0.557239 0.130430 -0.278714 -0.685140 -0.342251 -0.279138 -0.324949 -0.384728 0.438288 -0.051369 -0.572662 -0.173319 -0.507634 -0.173209 0.210664 -0.214916 -0.006857 -0.348640 -0.765013 0.121813 0.026366 0.403770 0.315265 -0.612096 0.372765 0.201586 -0.050951 -0.091785 0.583962 0.270225 0.270909 -0.419491 0.332448 0.190184 0.261981
2158 0.082809 -0.154325 -0.363488 -0.023314 -0.003551 0.568733 -0.193699 0.183784 0.310514 -0.032307 0.082867 0.114342 -0.250956 -0.918335 -0.195750 -0.390265 0.231687 0.291590 0.189191 0.084789 -0.094366 -0.194976 -0.529984 -0.066913 -0.557028 -0.114381 0.117228 -0.475667 -0.426684 0.250126 -0.325621 -0.177905 0.047505 -0.186727 -0.382004 -0.565256 0.322888 -0.197149 -0.319528 0.108147 -0.468284 -0.304807 -0.255999 -0.192778 0.014226 -0.260232 -0.106023 -0.349960 0.056081 -0.035461 -0.229049 -0.060773 -0.239972 0.030469 0.378591 -0.045434 0.154631 -0.057152 -0.076960 -0.499306 0.480168 -0.417684 -0.427112 -0.383777 -0.570409 -0.035398 -0.359897 -0.054334 -0.072017 -0.055685 -0.014201 -0.473019 -0.398577 -0.384837 -0.228640 0.018017 -0.136118 0.157106 -0.102410 -0.307088 0.171536 -0.143948 -0.339359 -0.205762 -0.463215 0.086662 -0.303584 0.150688 0.216324 0.454949 -0.568999 -0.347006 -0.245951 0.293200 0.593140 0.603161 -0.163992 0.174389 -0.176306 0.057679 0.187187 0.150837 -0.187711 0.538708 -0.176086 -0.010372 -0.438613 -0.136511 0.056754 0.444523 -0.298417 -0.628896 0.198054 0.110768 0.141526 0.041452 -0.268958 -0.085819 0.086512 0.012678 -0.458585 -0.107378 0.146389 -0.087137 0.264801 0.176491 -0.116850 -0.047052
1388 0.436831 0.131112 0.083172 -0.034244 -0.071900 0.162668 -0.052338 0.074003 -0.175315 0.351700 0.179996 0.171518 -0.089469 -0.414655 0.468334 0.416423 -0.068794 -0.187731 0.058418 0.175629 0.015356 -0.214855 -0.014365 -0.100465 0.234576 -0.199851 -0.295275 -0.087287 -0.341128 0.076095 -0.130706 -0.399569 -0.028918 0.196390 -0.011942 -0.033220 -0.131839 0.294236 0.583804 -0.153084 -0.407002 0.033183 -0.548852 0.015041 -0.108716 0.280571 -0.092642 -0.475111 -0.115703 0.016864 0.385308 -0.020618 0.082061 -0.373073 -0.108166 0.131952 0.461225 -0.390886 -0.120948 0.171801 0.054241 -0.226939 -0.037881 0.111251 -0.053965 -0.086018 0.125669 0.562356 -0.194488 0.248325 -0.429620 0.025577 -0.147216 -0.060784 0.088773 0.161048 0.005468 -0.459092 -0.332387 -0.536917 0.085062 -0.537943 0.584532 -0.083004 -0.374489 -0.041541 0.064425 -0.443661 -0.017341 -0.102011 0.035632 0.667261 0.522560 -0.482554 -0.296811 0.146479 0.163062 -0.240495 -0.227159 0.493541 -0.549007 0.111343 -0.469127 -0.280654 -0.159165 0.138182 -0.323922 0.053596 -0.538689 -0.134376 -0.100390 0.149114 0.233593 0.066116 -0.188841 -0.293303 -0.213550 -0.229866 -0.386353 -0.011340 -0.318744 -0.341185 0.092606 0.047948 -0.003788 -0.201587 -0.071957 0.007760
610 -0.458567 0.018187 0.271003 -0.182167 -0.638686 0.430781 -0.150431 0.282329 0.142470 -0.003185 0.758765 -0.035189 0.330562 -0.642978 0.568374 -0.283765 -0.204311 -0.543337 -0.510614 0.114851 -0.185158 -0.115068 0.372554 -0.127497 0.241985 0.163441 0.771977 0.240073 0.084307 -0.723698 0.202654 -0.652643 0.265106 -1.326159 0.525221 0.697712 1.477955 0.397674 0.496306 -0.342033 -0.000172 -0.081037 -0.110970 0.628958 0.385544 0.043855 -0.002440 -0.446445 -0.059840 -0.558405 -0.402653 -0.027724 -0.859977 -0.403181 -0.693696 0.650389 -0.074597 -0.571226 -0.396553 -0.597314 -0.150220 0.300639 -0.309619 0.008133 -0.081125 -0.027854 -0.270226 -0.752377 0.296022 -0.461830 -0.082273 -0.628266 0.103683 0.395756 0.408732 0.699959 -0.180732 -0.154468 0.700472 -0.187795 0.197189 -0.483882 0.596502 -0.335181 0.815032 -0.135809 -0.400315 -0.379119 -0.303729 0.256222 -0.693306 0.605783 -0.553047 -0.422102 -0.003828 -0.119733 0.179969 0.321373 0.176491 -0.092161 0.081373 0.437131 0.287118 0.609524 -0.177328 0.159984 0.427862 0.044101 -0.082880 0.121628 -1.012579 -0.322567 -0.516547 0.086825 -0.547665 0.067908 0.783732 0.340979 0.054556 -0.833680 0.100040 -0.122657 -0.758574 0.630136 -0.327292 0.248373 0.141117 0.231744
2249 -0.032719 0.350901 -0.237361 -0.173289 -0.390650 0.120646 -0.030900 0.077110 0.042596 -0.061050 0.656598 -0.438048 -0.208446 -0.057999 0.024015 0.042664 0.092554 0.518043 -0.239650 0.611865 -0.052928 0.010148 -0.136245 -0.434183 -0.172554 -0.468733 0.591810 -0.312219 -0.495800 -0.319290 -0.317755 0.115735 -0.381798 0.247858 -0.681547 -0.705272 -0.047411 0.452964 0.235496 -0.050905 -0.220379 -0.234056 -0.095699 0.287639 -0.197416 -0.280979 0.032551 -0.067567 -0.323431 0.197051 -0.042507 0.310887 -0.251308 -0.160521 -0.113616 0.023368 -0.303088 0.112962 0.147822 0.216629 -0.133431 0.146983 0.094564 0.549978 0.043170 0.069933 0.114793 -0.164334 0.115655 0.356015 0.075118 -0.447503 -0.528009 0.567329 0.031725 0.591368 0.082630 -0.071958 -0.004451 -0.265490 -0.119540 -0.496736 0.160720 -0.191754 -0.179354 0.445696 0.038199 0.476301 0.031805 -0.252663 -0.190559 -0.280318 -0.173764 0.170135 -0.078260 0.405347 0.285853 0.271001 -0.024577 0.280322 0.306800 -0.185806 0.100997 -0.190841 0.222737 -0.321185 -0.150443 -0.196862 0.021361 0.046935 -0.103660 0.296905 -0.459773 -0.177094 -0.142429 0.059212 0.237263 -0.117927 -0.079430 0.062183 -0.470004 0.133768 -0.305847 0.322768 -0.051579 -0.282123 0.384109 -0.252558
519 0.499359 0.058212 -0.098773 -0.035646 0.145754 0.248573 0.114193 -0.278060 -0.099486 -0.119643 -0.356583 0.440344 -0.141098 -0.347369 -0.010479 0.328016 -0.491505 -0.170377 -0.211589 -0.457152 0.140413 0.187495 0.256006 0.140537 -0.085485 -0.247112 0.161244 -0.300614 -0.208228 -0.278393 0.076212 -0.386371 -0.401697 -0.065937 0.424724 0.324222 -0.141250 -0.217676 0.579511 0.053318 -0.258938 0.223017 0.049447 -0.115580 0.052073 -0.039282 0.308395 0.224423 -0.318182 0.534036 0.204619 0.110214 0.440030 -0.069792 0.233734 -0.295764 -0.424616 0.448175 0.008135 0.317883 -0.311253 -0.051235 0.737252 -0.140048 0.173078 0.838386 -0.176278 0.357015 0.216735 -0.334622 0.014379 0.056302 -0.280782 0.348893 0.363676 -0.195086 -0.072689 -0.099935 -0.840060 -0.286458 0.223462 -0.149299 -0.067531 -0.093730 0.249572 0.569916 -0.245801 -0.159710 -0.313376 0.158331 -0.212333 -0.283725 0.564610 -0.552001 0.117404 -0.253754 0.163091 0.340626 0.182963 -0.138305 -0.510588 0.072665 0.208947 0.323549 -0.433552 0.373712 0.204399 0.177350 -0.074267 -0.054700 0.335787 -0.692565 0.134759 0.232270 -0.188293 -0.190091 0.147635 -0.177201 0.097837 -0.216436 0.079705 0.095260 -0.481196 -0.233373 0.177645 0.121161 -0.048297 -0.059342
1403 0.205527 0.240845 0.372746 0.109235 -0.287761 0.033166 -0.111150 -0.092237 0.145256 0.157333 -0.215755 0.281041 0.328164 0.256063 0.672439 0.406896 0.249022 -0.137967 -0.092664 0.133912 -0.377185 -0.438709 0.169166 -0.087233 0.140947 -0.046679 -0.039218 -0.635364 -0.170281 -0.116738 0.105388 0.181160 -0.047893 -0.096610 0.028173 -0.178255 -0.275115 0.190102 0.531214 -0.389893 -0.079130 -0.294519 0.110251 0.105418 0.218439 0.242709 -0.143742 -0.553689 -0.638588 0.021133 0.127473 -0.173834 0.092557 -0.511358 0.246397 0.001245 -0.290336 0.035025 -0.058157 -0.245239 0.083130 0.102980 -0.047388 -0.130714 -0.085031 0.144262 -0.383871 -0.113695 -0.250265 0.192173 0.046258 -0.065684 0.614063 -0.191008 0.266302 -0.254049 0.260302 -0.165902 -0.047749 -0.329429 -0.275522 -0.163113 0.090732 0.230381 0.021969 -0.090770 0.139791 -0.167518 0.320240 0.153396 0.023999 -0.287467 0.206076 -0.075404 0.081861 0.219280 0.021787 0.025616 -0.037968 0.044041 -0.039306 0.024508 0.319582 -0.142416 0.291292 0.188687 0.275988 0.291125 -0.338620 0.542241 -0.190280 0.129834 -0.164376 -0.268857 -0.110848 -0.212421 -0.111947 -0.100480 0.194549 -0.289317 -0.141064 -0.076977 0.195173 0.003134 -0.191848 -0.113146 -0.189013 -0.091977
2366 0.524708 -0.490086 -0.150559 -0.037768 -0.180637 0.458455 -0.556047 0.309796 -0.235920 0.126279 0.057272 -0.471265 -0.469553 0.244461 -0.532390 0.339980 0.782638 0.921878 -0.084651 -0.091157 -0.618958 -0.302806 0.194813 0.153501 0.421889 0.050469 -0.240341 -0.485872 0.203924 -0.470767 -0.445228 -0.748241 -0.622748 0.189586 -0.534817 -0.022832 0.038117 -0.121118 0.138578 -0.111187 0.062226 -0.460162 -0.423295 0.300140 0.360755 -0.258396 0.033524 -0.368260 0.362723 0.322098 -0.874042 -0.060929 0.144293 0.020032 -0.271711 -0.200853 -0.532938 0.136685 -0.294347 0.090766 0.137233 -0.123494 -0.046556 -0.432521 0.404261 0.129948 0.253007 0.084343 -0.278742 0.283607 0.249055 0.104789 0.155525 0.517077 -0.290550 0.122610 0.287389 -0.621576 0.193237 -0.262785 0.172975 0.149163 0.395789 -0.086953 -0.154278 -0.189206 -0.100265 -0.132853 0.796638 -0.535177 0.220975 -0.359699 -0.238301 -0.232406 0.057730 0.321594 0.540926 0.157278 -0.272241 0.242603 -0.276656 -0.549470 0.343399 0.182319 0.337371 0.310900 0.124203 -0.335270 -0.332601 0.026190 0.088229 -0.133924 -0.425677 -0.407302 0.300822 -0.412415 0.313617 0.570521 -0.196445 0.116178 -0.006878 -0.352581 0.183959 -0.093354 0.346898 -0.280668 0.045522 -0.518619
498 0.161412 -0.639446 -0.031507 -0.144882 0.253628 0.327965 -0.228505 0.165550 0.401118 0.198519 -0.619876 -0.268676 0.000444 -0.597391 -0.405797 0.625423 0.301816 -0.729905 -0.063396 -0.117625 -0.241756 -0.392316 0.384307 -0.199521 0.039302 -0.281194 0.503159 0.092384 -0.039008 -0.146374 0.556780 -0.007893 -0.279210 -0.198412 0.353680 -0.053959 0.665492 0.027806 0.024815 0.203216 -0.511479 -0.398575 -0.175679 0.058758 -0.078196 0.081356 0.041696 -1.075361 -0.013528 0.193241 0.107616 0.047615 0.028148 -0.312249 -0.691025 0.076144 -0.501023 0.279863 -0.095081 -0.475219 0.009897 0.495573 -0.248775 0.474565 0.292532 -0.043385 0.555866 -0.368823 -0.573733 -0.506995 -0.052663 -0.447148 -0.200037 0.391964 -0.310473 -0.220858 0.649794 -0.156527 0.010433 -0.360469 0.009427 -0.049741 -0.316128 -0.221257 -0.607962 0.335809 0.270229 0.146365 -0.060289 -0.456891 0.281741 -0.314689 0.390106 0.329263 0.063038 0.343211 0.441246 -0.167017 0.321375 -0.216641 0.004248 0.240203 -0.507234 0.307297 0.321304 -0.225879 0.237947 -0.551049 0.702448 -0.497714 0.381805 0.188480 -0.260140 0.336206 -0.158165 0.094608 -0.058322 -0.316697 -0.342622 0.456680 -0.406055 0.643101 0.527513 -0.287448 -0.076262 -0.123089 0.007663 -0.306818
1157 0.426541 0.019684 -0.434767 0.038938 -0.036467 0.670564 -0.150730 0.020831 0.083412 0.215416 0.277668 0.233560 0.012577 -0.052648 0.129719 0.192533 -0.564259 0.142019 -0.187220 -0.254477 -0.184310 -0.338658 0.212540 0.297185 -0.039344 0.400578 -0.282689 0.147350 -0.240017 -0.127343 -0.005236 0.344566 0.717967 -0.476913 0.286557 0.227871 0.537895 -0.042526 0.145241 -0.269496 0.133588 -0.077541 -0.003959 -0.595290 0.299166 0.153905 -0.230483 -0.145824 0.171789 0.718162 0.365777 0.229563 -0.020359 0.101606 0.265183 -0.746635 -0.381991 0.324268 0.093354 0.237959 -0.336263 -0.200023 0.099193 -0.134138 0.904867 0.460325 -0.052484 -0.463090 0.538154 0.263618 -0.276422 0.538172 0.452262 -0.098156 -0.215941 -0.146433 -0.081863 -0.104449 -0.640931 -0.371918 0.114154 -0.268612 0.399973 0.005497 -0.134980 0.297040 -0.151775 0.010323 -0.391886 0.039227 -0.490597 -0.447670 0.155926 0.015783 -0.471074 -0.758134 -0.131081 0.059109 0.601409 -0.070838 -0.843827 0.263568 -0.232108 0.107550 -0.336853 -0.036081 0.297692 0.261241 -0.167014 -0.044022 0.217219 0.262853 0.085704 -0.479032 -0.500949 -0.216917 0.013640 -0.403289 -0.259990 0.207678 0.008634 0.183570 0.025776 0.074927 0.243660 0.096864 0.483650 0.274295
2476 -0.045395 -0.152415 0.229032 -0.215525 -0.593143 0.389652 -0.048135 0.165979 -0.535832 -0.067443 -0.089196 0.351054 -0.170654 -0.324168 0.128159 0.179187 -0.490254 -0.704149 -0.161182 0.478952 -0.670191 0.100785 0.051614 -0.519436 -0.407163 0.092171 -0.630917 0.234167 -0.632580 -0.140465 0.173402 0.664282 -0.314539 0.250939 -0.110911 -0.085808 -0.185221 0.425694 -0.409492 0.463600 0.122033 -0.533734 -0.155643 -0.071583 -0.221100 0.412193 -0.252454 -0.105994 -0.056981 0.170410 0.030522 0.265628 0.106019 0.267650 0.249892 -0.396845 -0.183519 0.467772 -0.115856 0.112534 0.023137 -0.643215 -0.240703 -0.216295 0.276770 0.068091 -0.303779 0.004716 -0.077542 0.402177 0.302874 -0.184359 0.085106 0.222644 0.161720 0.433274 0.354120 0.264348 0.457884 0.283172 0.270585 -0.363371 -0.529210 0.167932 0.282780 0.280141 -0.418448 0.089262 -0.130874 0.691856 -0.068616 -0.142460 -0.346777 -0.578218 -0.258232 -0.261699 0.427968 -0.217324 -0.362477 -0.397006 -0.178643 0.543831 0.256234 -0.066987 -0.058142 -0.679640 0.385674 -0.578771 -0.942426 0.042366 0.272520 0.077662 0.205570 0.229477 0.220189 0.439004 -0.198334 0.412226 -0.371377 0.032256 0.397372 0.479301 0.315999 -0.019692 -0.125071 0.202985 0.675104 -0.521425
1050 -0.013547 -0.202310 -0.252350 0.321801 -0.176832 -0.380869 0.051061 0.043598 0.684703 0.101026 0.056658 0.034710 -0.013225 -0.515626 0.164222 0.176029 0.021821 -0.292134 -0.253489 -0.802208 0.371256 -0.346559 -0.242359 0.612684 -0.251394 0.213273 -0.420102 -0.292607 -0.500862 0.654537 0.280289 0.210689 0.510982 -0.059523 0.055681 -0.083811 0.235230 -0.111441 0.173411 -0.776272 0.357031 -0.335348 -0.169057 -0.297033 0.342596 0.048456 0.129580 -0.345055 -0.026184 0.279152 0.779894 0.121717 -0.562582 -0.291656 0.190614 -0.585214 -0.295767 -0.205329 0.120505 0.051204 -0.533536 0.051744 0.476822 -0.017714 0.171101 0.161186 -0.074216 0.122330 0.759038 -0.138034 -0.127713 0.568774 0.060775 -0.055414 0.352840 0.215025 0.517953 -0.469899 -0.010929 -0.629862 0.103014 0.323471 0.202865 -0.468534 0.201214 0.281502 -0.154637 -0.154298 -0.038379 -0.268980 -0.533457 -0.035664 -0.043132 0.104911 -0.619925 0.089440 0.423617 0.895933 0.044996 0.048329 -0.889786 -0.397655 -0.030285 -0.271479 -0.517264 0.116677 -0.297038 0.116535 -0.292311 -0.564489 0.440643 0.345545 -0.221892 0.047390 -0.279634 0.162983 -0.158624 -0.184008 0.101742 0.251510 -0.486693 0.327959 0.123049 -0.235720 0.109322 0.318180 0.341517 0.324408
