3327 128
1617 0.329439 -0.344793 -0.236353 -0.170104 0.121939 0.040372 -0.224663 0.286930 -0.087581 -0.015832 0.256252 0.279554 0.058876 -0.358727 -0.041740 -0.459576 0.202392 0.238247 0.246400 0.420287 0.062343 0.248828 -0.388913 0.121007 -0.081337 0.183368 -0.455155 -0.425644 -0.033853 0.223386 -0.306632 -0.575344 -0.230803 0.068839 -0.140213 -0.187020 -0.220353 0.090319 0.310550 0.310669 -0.153844 -0.277595 0.083706 -0.338373 -0.416355 0.265677 -0.398489 -0.035796 -0.371045 0.073752 -0.261597 0.663524 -0.134386 0.240830 -0.056420 -0.135876 -0.248780 -0.018576 0.064288 -0.153618 -0.178740 -0.165274 -0.471513 -0.062557 -0.511008 -0.293398 0.201905 0.097052 -0.417266 -0.273662 -0.150463 -0.128533 0.055445 -0.421047 0.051302 -0.560466 -0.128743 0.378609 -0.346269 -0.016079 -0.276170 0.460377 -0.109333 -0.429338 0.270443 0.031715 0.275817 0.000971 0.695797 -0.442899 -0.019373 -0.343584 -0.337000 0.088837 -0.196071 -0.033860 0.134450 0.126829 -0.839524 -0.339075 -0.133179 -0.122665 -0.066536 0.162881 0.053029 -0.128551 -0.284664 -0.229979 -0.390796 0.194311 0.071847 0.129663 -0.340732 -0.027381 -0.184162 0.149948 0.358305 0.561872 -0.052338 -0.623937 0.247755 0.120423 0.346158 -0.148794 -0.106769 0.526022 -0.081347 0.118527
2936 -0.005324 -0.475331 -0.126420 0.690067 -0.043675 -0.269568 -0.158870 -0.128678 -0.421891 -0.049464 0.049141 0.407607 0.123606 0.169473 0.341559 -0.393570 -0.466558 0.021986 -0.017266 -0.040434 0.158710 0.687887 0.393126 0.473766 -0.025182 0.125795 0.193126 0.104030 0.357953 -0.243909 0.046457 -0.032379 -0.225625 0.232622 -0.197070 0.499534 0.038558 -0.036457 -0.138259 0.109744 -0.295064 -0.140798 0.464298 -0.712274 -0.383148 -0.195419 0.340274 -0.445228 -0.239418 -0.356750 -0.214599 0.162339 -0.490663 0.133532 0.148338 0.229405 0.120097 0.210011 -0.524312 -0.130487 -0.395986 -0.233043 -0.234263 -0.245388 0.324299 -0.444478 -0.060903 -0.463102 -0.491782 0.085352 -0.085145 0.075320 -0.192932 -0.152972 0.021617 -0.023721 -0.289178 0.390418 -0.466125 -0.147849 0.187969 -0.165180 -0.173743 -0.219073 -0.081841 -0.052913 -0.034989 0.171331 -0.000688 -0.712331 0.234299 -0.068723 0.043112 -0.210276 0.484042 0.609380 0.529621 -0.005508 -0.217608 -1.072961 0.794353 -0.137378 -0.219344 0.196438 0.348607 -0.478087 -0.034232 0.323989 0.042079 -0.049327 0.207935 -0.739028 0.079572 -0.114963 0.164165 -0.137005 0.189908 0.093586 0.012372 0.179663 -0.239797 0.209027 0.598838 -0.160071 0.023921 0.026170 0.203118 0.252315
1175 -0.156379 -0.105933 -0.071287 -0.371804 0.021023 0.005258 -0.974773 0.128719 -0.517681 0.037212 0.178380 0.117803 -0.054491 -0.216693 0.028400 -0.158835 0.423460 0.258653 0.206218 0.169841 0.207548 0.544720 -0.363623 0.154301 -0.249855 0.346113 -0.642008 -0.144884 -0.009854 0.429789 0.240804 -0.591401 0.205057 0.328305 0.024095 -0.223601 -0.126446 0.022965 -0.312001 0.447133 -0.293036 -0.643942 -0.054131 -0.235663 -0.278016 0.096974 -0.325674 0.080134 -0.068652 -0.285538 -0.108528 0.346437 0.127692 -0.017146 0.184873 0.159975 -0.272240 -0.077628 -0.247179 0.103622 -0.464918 -0.105646 -0.514318 -0.114744 -0.321455 -0.347509 0.003559 -0.286903 -0.219692 -0.238824 -0.330444 -0.230798 0.153715 0.187697 0.346064 -0.381289 -0.171531 0.223692 -0.356583 -0.430114 0.053720 0.258903 0.020312 -0.513160 0.351404 0.048921 0.134581 -0.088709 0.524495 -0.590829 -0.246234 0.050936 -0.782053 0.161956 -0.150703 -0.298235 0.210263 0.236343 -0.256450 -0.491199 -0.432848 -0.269308 -0.208627 -0.101523 -0.398389 -0.067194 -0.310741 -0.316442 -0.293774 0.192351 0.194136 -0.079392 -0.666578 0.307661 -0.106931 -0.123727 0.510701 0.575005 0.067638 -0.393344 0.097949 0.346310 0.309446 -0.453213 -0.418765 0.151011 -0.383133 0.280292
2340 -0.132460 -0.674460 -0.049082 0.207503 0.004237 -0.389108 -0.235302 -0.058683 0.156979 -0.218223 0.278031 0.395808 -0.199008 0.041366 -0.260951 0.033326 -0.082355 -0.061565 0.272643 0.444821 -0.080886 0.845987 0.114008 0.397882 0.062730 -0.315786 -0.104967 -0.203202 0.307292 0.057316 -0.010299 0.213048 0.111382 0.162463 -0.133639 0.505517 0.445107 -0.099486 0.114279 0.369938 -0.315909 -0.231924 0.007006 -0.746933 -0.315931 0.148215 0.187537 -0.415503 0.191529 -0.172528 -0.100956 0.074234 0.031535 0.438816 0.017705 0.011589 0.232538 -0.298243 -0.421724 -0.491084 -0.819055 -0.580894 -0.419586 -0.219748 0.673086 -0.409600 -0.659643 -0.826849 -0.397502 -0.267468 -0.271314 0.104831 0.089323 -0.389283 0.049214 -0.094591 -0.019756 0.443837 -0.422505 -0.838015 0.195418 -0.034645 -0.124836 -0.098280 -0.093066 -0.092480 -0.068861 0.239396 -0.208794 -0.050134 -0.030921 -0.071425 -0.067629 -0.033684 -0.272204 0.166612 0.187854 -0.105460 0.008572 -0.711543 0.228388 0.108383 0.139712 0.020289 0.300829 -0.489271 -0.141167 0.576371 0.150995 0.486092 0.226811 -0.592725 0.242594 0.454287 0.341351 0.175204 0.532904 0.301824 -0.246779 0.317342 0.030452 0.212223 0.312566 -0.150421 -0.208072 -0.316081 0.129945 0.294352
1752 0.093659 -0.007782 0.071112 -0.316774 -0.131584 -0.305307 -0.363647 0.093200 -0.310277 0.146823 0.222515 0.167657 0.137359 -0.642468 -0.138283 -0.610931 -0.034165 0.236963 0.311820 0.330243 0.021805 0.572779 -0.272321 0.088137 -0.084174 0.146652 -0.649879 -0.505216 0.026527 0.365663 -0.278367 -0.469816 -0.021902 0.261247 -0.013901 -0.087626 -0.138820 0.017303 -0.055449 0.485271 -0.086501 -0.034807 0.016065 -0.166067 -0.167945 0.320203 -0.379849 -0.070627 -0.177490 -0.201419 0.068750 0.956304 0.028189 0.134635 0.175643 -0.091228 -0.159195 -0.069669 -0.228241 0.005327 -0.418474 -0.269218 -0.400733 0.197605 -0.270975 0.082522 -0.009703 0.208497 -0.506545 -0.570073 0.079274 -0.263942 0.341480 -0.398811 0.078193 -0.478539 -0.363253 0.477871 -0.414573 0.124869 -0.301261 0.199683 -0.106060 -0.415789 0.527996 0.192346 -0.024794 0.160218 0.666132 -0.556392 -0.449372 -0.278689 -0.591107 0.132634 0.065846 -0.018345 0.056916 -0.178009 -0.369523 -0.360193 -0.171338 -0.051706 -0.036452 0.142092 -0.067672 -0.002917 -0.089349 -0.359687 -0.345492 -0.158285 0.206484 0.018405 -0.072767 -0.191833 -0.087553 0.443423 0.138405 0.695373 0.108667 -0.321881 0.412548 0.541470 0.473336 -0.023633 -0.102548 0.595356 -0.125642 0.473847
1508 0.030838 -0.020660 -0.112524 -0.107612 -0.130953 -0.038236 -0.202994 0.248405 -0.558850 0.169671 0.137156 0.010971 0.294739 -0.312516 -0.112801 -0.597991 0.209548 0.357652 0.308406 0.424623 0.171603 0.757121 0.015362 0.196009 0.037421 0.326160 -0.796372 -0.308101 0.031219 0.218476 -0.072399 -0.222587 0.123378 0.362405 -0.169134 0.064127 -0.400896 0.031236 0.022290 0.273112 -0.271175 -0.283780 -0.019913 -0.057730 -0.248010 0.516482 -0.448362 -0.082147 -0.313211 -0.124688 -0.143466 0.786739 0.114523 0.031393 0.017724 -0.240941 -0.106650 -0.060039 -0.281970 -0.040252 -0.499880 0.016574 -0.559833 0.038857 -0.381675 -0.357033 0.041615 0.349563 -0.528186 -0.410459 -0.238789 -0.134733 0.281983 -0.238943 0.387379 -0.222796 -0.310188 0.563901 -0.635882 0.094185 -0.420267 0.234184 -0.091755 -0.414323 0.375678 0.222088 -0.001620 0.003644 0.392547 -0.439273 -0.497141 -0.205254 -0.733762 -0.061970 0.040763 -0.109268 0.111604 -0.125416 -0.596042 -0.264078 -0.225635 -0.162440 -0.242730 -0.039049 -0.006938 0.124364 -0.323486 -0.287767 -0.361961 0.044271 0.073459 0.175841 -0.572565 -0.079634 0.050927 0.163348 0.096574 0.467075 0.202445 -0.196915 0.108370 0.394216 0.367518 -0.406226 -0.083893 0.355901 0.075362 0.103889
1838 -0.376937 -0.322500 -0.006686 -0.211856 0.327540 -0.172547 -0.309462 -0.049138 0.071277 0.336374 0.025896 0.166817 0.198392 -0.112740 0.056514 -0.659509 0.198073 0.244163 0.262366 0.237689 0.040707 0.439317 -0.355744 0.269638 0.154062 -0.001206 -0.205957 -0.222304 -0.374042 0.296238 0.396474 -0.190546 0.372314 0.755963 -0.192392 0.170748 0.144602 -0.181852 0.078878 0.492480 -0.265164 -0.118773 0.116184 -0.250399 -0.442319 0.012700 -0.415513 0.204305 0.167692 -0.327266 -0.328257 0.560748 -0.040145 -0.121819 0.159539 -0.281893 -0.319945 -0.049404 -0.231971 -0.101939 -0.253168 -0.057607 -0.268734 0.180109 0.142111 -0.051691 -0.246811 0.087072 -0.219599 -0.231325 -0.216423 0.272502 0.339857 -0.474038 0.265080 -0.156125 0.464377 0.368688 -0.611430 -0.217533 -0.331406 0.110221 0.047348 -0.267944 -0.027251 0.193908 0.346600 0.022078 0.334954 -0.243531 0.161466 -0.105186 -0.250048 0.046481 0.192132 0.081875 -0.290219 0.889992 -0.892018 0.046258 0.205128 -0.501237 0.022230 0.038031 -0.209101 0.302024 -0.277467 -0.043260 -0.200603 -0.133524 0.064165 -0.235961 -0.266571 0.446205 -0.142368 0.268247 0.424591 0.600905 0.251800 -0.204857 0.102236 0.208498 0.307149 -0.202188 -0.191612 0.561155 -0.181196 0.294941
1381 0.178042 -0.523204 -0.230319 0.245234 0.016951 -0.816443 -0.424678 -0.291009 0.167595 -0.483719 0.175326 0.060133 -0.002752 0.123345 -0.098159 -0.253267 -0.114202 -0.274712 0.066117 0.081324 -0.131556 0.573908 0.056311 0.368348 -0.115335 -0.246531 -0.187879 -0.196951 0.652939 0.128870 -0.330382 -0.027197 0.068374 -0.121352 -0.088653 0.821168 -0.009999 -0.241928 -0.166440 -0.050490 -0.466988 -0.295567 0.200964 -0.704284 -0.684322 0.217038 0.137275 -0.430156 0.326160 -0.296249 -0.307060 -0.248558 -0.338976 0.483061 0.203121 0.126456 0.334197 -0.143490 -0.097421 -0.670206 -0.865732 -0.794794 -0.050807 -0.031271 -0.100861 -0.189146 -0.478614 -0.659526 -0.370017 -0.217678 -0.114377 0.116660 0.045447 -0.336276 0.200829 -0.156292 -0.180259 0.360200 -0.378661 -0.406204 -0.273910 0.152773 -0.365327 -0.206964 -0.111979 -0.201934 -0.140350 -0.203605 -0.299996 -0.406173 -0.263647 0.032086 0.041441 0.158334 0.450592 -0.019600 0.229866 -0.135749 -0.000763 -0.660712 0.253318 -0.176328 0.084558 0.115042 0.544818 -0.268374 -0.417708 0.574193 -0.181119 0.077886 -0.361202 -0.779727 0.143631 0.164236 0.194209 -0.043118 0.237945 0.468836 -0.258075 0.381588 0.301126 0.208025 0.454520 0.061787 -0.109556 0.029102 0.250268 0.163324
2527 0.212242 -0.104244 -0.079231 -0.330733 0.309143 0.030552 -0.285014 -0.013851 -0.678288 0.011100 -0.158816 0.262071 0.155544 -0.332337 -0.089397 -0.259865 -0.048579 0.323977 0.445080 0.616350 0.287789 0.473709 -0.120244 0.186141 -0.074195 0.324901 -0.313149 -0.611352 -0.005168 0.528596 -0.026457 -0.304986 -0.208228 0.098914 0.032344 -0.124336 0.005845 0.032937 -0.096746 0.175764 -0.275582 0.074413 -0.039907 -0.133962 -0.428892 0.146458 -0.441661 -0.085194 -0.296405 -0.035253 -0.310556 0.263881 0.086052 0.280133 0.101569 0.338766 -0.003350 -0.054093 0.343776 -0.230156 -0.020572 -0.161980 -0.700758 0.357547 -0.464992 -0.244585 0.210871 -0.039893 -0.581212 -0.273842 -0.153474 -0.046976 0.134461 -0.308249 0.053716 -0.156706 -0.202871 0.497825 -0.626513 -0.313703 -0.389441 0.082361 -0.452704 -0.383965 0.507563 -0.029733 0.542610 0.250322 0.339186 -0.273098 -0.329730 -0.069806 -0.695279 0.203441 -0.192203 0.102324 -0.082053 -0.029599 -0.689659 -0.393371 0.062038 -0.299011 0.161657 0.275652 -0.246894 0.095877 -0.390357 0.003599 -0.167959 0.016526 0.132786 -0.310726 -0.260357 -0.162867 -0.086613 0.267673 0.366089 0.562118 0.331291 -0.426493 0.114339 0.452435 0.181842 0.010081 -0.595780 0.501124 -0.356578 0.212479
2868 -0.135660 -0.539951 -0.362914 0.137766 -0.218341 -0.263808 -0.344833 0.050697 0.228866 0.016275 -0.160166 0.438150 0.076353 -0.319831 0.290755 0.063292 0.464426 0.013235 -0.055351 0.215354 0.190643 0.534792 0.407274 0.367930 -0.428356 -0.143587 -0.611347 -0.682580 -0.043391 0.285158 0.447868 0.322066 0.856950 -0.047247 0.411950 0.374320 0.036671 0.339315 0.787203 0.315454 -0.465149 0.213938 0.519758 -0.081255 -0.210066 -0.430712 -0.385913 -0.180488 0.342914 0.009522 0.202728 0.761065 0.131425 -0.112041 -0.708050 0.366840 0.216884 -0.372638 -0.198449 0.060308 0.101402 -0.582414 -0.374691 -0.060135 0.545365 -0.328092 -0.410582 -0.179379 -0.224560 -0.393089 -0.012823 -0.316820 0.151829 -0.807854 -0.099363 0.227191 -0.173523 0.424291 -0.549729 -0.100787 0.072402 0.221749 -0.575725 0.160277 -0.300769 0.211936 0.609138 0.652178 -0.056144 0.049800 0.172030 -0.215600 -0.458870 -0.064895 0.355537 0.058890 -0.273611 0.301758 -0.175140 0.260284 0.653964 -0.304580 0.005208 -0.270926 0.410449 0.191109 -0.257726 0.142946 -0.004145 -0.523081 0.030122 -0.309435 -0.057454 0.082464 0.201586 0.124728 0.052965 0.850284 -0.879083 0.025734 -0.104237 0.181288 0.503394 -0.139053 -0.145075 0.242206 0.097953 0.144760
385 0.112116 -0.082955 -0.181403 -0.036064 0.179982 0.016584 -0.105096 0.080452 -0.224161 0.137656 0.241353 -0.035720 0.105565 -0.318941 0.170847 -0.401611 -0.012076 0.082219 0.239388 0.566769 0.079818 0.234451 0.244325 0.266844 0.236474 0.301271 -0.646313 -0.627254 -0.324180 0.717700 0.194749 -0.466963 -0.125948 0.577924 0.281168 0.289258 -0.197375 0.135423 0.100179 0.564164 0.054100 -0.189504 -0.100222 -0.295357 -0.346543 0.081114 -0.675877 -0.139330 -0.328682 0.030794 -0.297339 0.671529 0.131115 -0.139103 0.256927 0.028906 -0.057729 -0.009948 -0.152166 -0.390613 0.137764 -0.134204 -0.412210 0.126644 -0.188591 -0.057806 -0.088653 0.056831 -0.518037 0.101930 -0.251583 0.153894 0.085368 -0.374314 0.014244 -0.448815 -0.157396 0.401971 -0.391577 -0.364520 0.112299 0.163559 -0.057908 -0.403911 0.249903 0.187201 0.204130 0.282433 0.410921 -0.206107 -0.042248 -0.295701 -0.730359 -0.059544 -0.328661 -0.073332 -0.164641 0.264637 -0.568294 -0.501627 0.023887 -0.204274 0.086466 0.423581 -0.006462 0.106514 -0.425611 -0.312217 0.045776 0.028325 0.019067 -0.160642 -0.449285 0.008877 0.128398 0.140935 0.356396 0.613345 0.328798 -0.387480 -0.077374 0.486040 0.163134 -0.068913 -0.475028 0.230151 -0.143401 0.283267
1274 0.455385 -0.969457 0.246067 -0.026007 -0.024023 0.397602 -0.765966 -0.231968 0.491556 -0.090018 0.238646 0.674387 -0.481037 0.506215 0.008130 0.213911 0.339730 0.116880 0.330905 0.088212 -0.058521 0.443508 0.315646 -0.129781 0.527578 -0.440675 -0.416244 -0.514318 0.458675 0.283754 0.029839 0.316478 -0.287807 0.226721 0.332676 0.136337 0.750922 0.166178 -0.162695 0.216942 -0.523367 0.282089 0.900222 -0.646413 -0.457240 -0.021021 -0.580778 0.182711 -0.625670 -0.229361 -0.622122 0.308539 -0.431400 -0.296365 0.210115 -0.182594 0.528554 -0.638887 -0.152158 -0.106622 -0.346743 -0.232235 -0.321994 0.021849 0.077319 -0.315702 -0.057191 -0.501743 -0.524611 -0.118713 -0.164155 -0.193089 -0.464458 0.255262 0.148038 0.003371 0.232546 0.451642 -0.394075 0.003512 -0.616569 0.095361 -0.230221 -0.385845 0.071910 0.356938 0.170111 0.086565 0.199677 -0.581300 -0.541883 -0.682429 -0.810316 -0.393101 0.134142 -0.071420 -0.119202 0.785042 0.209464 0.039130 0.491137 -0.793345 -0.079540 0.185219 0.410145 -0.035847 -0.132887 -0.335357 -0.729978 -0.088666 0.001773 -0.451595 -0.076212 0.035841 -0.088165 0.051697 0.059470 -0.182323 -0.144468 0.050480 0.059083 -0.260044 0.392092 0.121963 -0.282776 0.155817 0.128280 0.041786
1054 0.030695 -0.105185 -0.290823 -0.460795 0.199124 -0.081873 -0.279375 -0.488883 -0.071379 0.170311 0.103468 0.188323 -0.264259 -0.302086 -0.051597 -0.608727 0.056476 0.133865 0.371582 0.560627 0.268764 0.668876 0.058382 0.135902 0.060004 0.135459 -0.284119 -0.215211 -0.119576 0.491672 0.011046 -0.188940 -0.150016 0.659893 0.177206 -0.058879 -0.078003 -0.254269 0.358022 0.439568 -0.056613 0.107956 -0.073869 -0.199433 -0.132345 -0.137821 -0.177490 0.467935 -0.492232 -0.019568 -0.353082 0.251845 -0.155349 -0.334728 0.209838 -0.716072 -0.167159 -0.063401 -0.413147 -0.312155 -0.210580 -0.044318 -0.285460 0.084927 0.230574 -0.385600 -0.103519 -0.173311 -0.302596 -0.216064 -0.453383 -0.152925 0.003693 -0.429787 0.197144 -0.589644 0.117801 0.637180 -0.327504 -0.004895 -0.055194 0.416725 -0.204997 -0.314215 0.301956 0.129331 0.221718 0.323162 0.247506 -0.209201 0.009512 -0.213666 -0.466550 -0.339196 -0.043666 -0.255136 -0.073937 0.374124 -0.305907 0.001499 0.027456 0.508870 -0.076912 -0.062053 0.399962 0.226632 -0.519229 -0.098216 -0.141292 -0.324487 0.151562 -0.422193 -0.461880 0.630903 0.129297 0.202600 0.313515 0.656829 0.355977 -0.052708 -0.089334 0.109475 0.571007 -0.056893 -0.334218 0.187977 -0.265738 0.626744
1883 -0.198711 -0.893302 -0.170421 -0.127742 0.398924 -0.237909 -0.387357 -0.136541 0.009849 0.013625 0.139033 0.648574 -0.083583 -0.312101 -0.131954 0.143763 0.381054 -0.218266 0.105808 0.329973 -0.003059 0.476152 0.129680 -0.242097 0.597642 0.125060 -0.125322 -0.320171 0.494762 0.107660 0.141324 0.193726 -0.139328 0.247387 -0.149419 0.529796 0.167693 0.086726 0.040270 0.486305 -0.686703 0.145603 0.408264 -0.699027 -0.282393 -0.174096 0.166109 -0.328770 0.169461 -0.526927 -0.173386 0.304721 -0.080174 0.536216 0.058478 0.117064 -0.202444 0.214609 -0.489704 -0.471128 -0.077000 -0.671067 -0.313677 -0.042537 0.180981 -0.603522 -0.413365 -0.777756 -0.367780 -0.299071 -0.286872 -0.042204 -0.219091 -0.415952 0.177426 -0.031697 0.267634 0.549523 -0.339745 -0.444610 0.199734 -0.054093 -0.181327 0.296448 0.120739 0.214980 -0.067848 0.629843 -0.345739 0.185702 -0.088807 0.110921 -0.258402 -0.492323 0.367055 0.045642 0.359563 0.219591 0.266663 -0.665893 0.462274 -0.236934 0.060438 0.433790 0.258935 -0.459454 -0.182475 0.136676 -0.183098 0.733018 0.027442 -0.820995 -0.233767 0.057441 -0.192312 0.125901 0.316150 -0.093049 -0.179527 0.200414 0.080548 -0.279443 0.397749 -0.475490 -0.498104 -0.370292 0.415179 -0.191972
2417 0.029108 -0.409455 0.025136 0.187101 -0.118918 0.226879 -0.357379 -0.434868 0.038166 -0.219775 0.032369 0.291192 0.196571 -0.214113 0.043496 -0.148810 -0.278711 -0.122851 0.076520 0.618965 -0.128904 1.087708 0.175468 0.458498 -0.069865 0.228822 0.043997 -0.170973 0.269639 -0.015841 -0.567178 0.009329 -0.074144 0.508481 -0.321989 0.578361 0.224144 0.060191 0.187947 0.010070 -0.191280 -0.228119 0.932382 -0.398520 -0.029661 -0.112261 0.168272 -0.411945 -0.158687 0.130667 -0.078130 -0.075422 -0.326514 0.127779 -0.227053 0.286765 -0.227749 0.286267 -0.839784 -0.296706 -0.659231 -0.557299 -0.333393 -0.045112 0.340777 -0.344473 -0.490115 -0.298939 -0.129407 0.013107 0.565066 0.113694 0.087245 0.024458 0.051586 0.108653 -0.267794 0.534097 -0.203037 -0.242967 -0.294829 -0.205357 -0.094290 -0.381338 -0.192989 0.069555 -0.255770 -0.113345 0.192272 -0.664655 0.002691 -0.445472 0.392265 -0.019190 0.323208 0.167841 0.704693 -0.165648 -0.147236 -0.627028 0.690118 -0.335061 -0.684729 0.431129 0.586416 -0.229108 0.200119 0.064636 -0.138589 0.224784 -0.187007 -0.669640 -0.166970 -0.220301 -0.354871 -0.030414 0.090394 0.249660 -0.257369 -0.341202 -0.154875 0.187957 0.082984 -0.144684 -0.255572 0.053603 -0.018902 0.214313
1115 -0.064150 -0.362529 0.348643 0.113094 -0.083299 -0.032266 -0.359983 -0.163490 -0.207444 -0.170732 0.169644 0.258766 -0.013243 0.215714 0.269700 -0.273021 -0.278139 -0.248427 0.354681 0.462941 -0.322081 0.762687 0.466273 0.412599 -0.292805 0.194192 0.137516 0.095671 0.231826 0.129220 -0.234273 0.069738 -0.240027 0.294622 -0.329529 0.378118 0.213137 0.158370 0.165481 -0.294178 -0.101786 -0.427268 0.828492 -0.333686 -0.210971 -0.156441 0.264673 0.098017 -0.306282 0.020288 -0.141024 0.234079 -0.319264 0.303352 0.013607 0.270749 0.007988 0.460654 -0.343937 -0.341156 -0.714758 -0.661531 -0.009951 -0.167397 0.691931 -0.543495 -0.495030 -0.378098 -0.199805 -0.204165 0.320640 -0.129867 -0.052222 0.019526 0.159622 0.139134 -0.387207 0.639691 -0.318681 -0.224334 -0.054606 -0.008405 -0.256330 -0.195755 -0.139496 -0.060904 -0.015652 -0.232942 -0.112963 -0.502022 -0.084709 -0.470283 0.178445 -0.192623 0.469739 0.235144 0.636416 -0.037375 -0.236241 -0.686378 0.778348 -0.305470 -0.944719 0.299053 0.435933 -0.203697 0.230733 -0.167744 -0.389233 -0.021568 -0.015644 -0.701520 0.037832 -0.226227 -0.305505 0.020489 0.221830 0.418976 -0.078087 -0.316471 -0.360942 0.413980 0.190070 0.006520 0.091112 0.066013 0.167619 0.170835
14 -0.161051 -0.393499 -0.222234 -0.336228 0.341399 -0.113556 -0.605866 -0.301474 -0.202382 0.162505 -0.088093 0.437147 -0.101280 0.143345 0.234987 -0.379991 0.144238 0.126035 0.340279 0.679474 0.398341 0.650469 -0.073173 0.180602 0.199016 0.131796 -0.329884 -0.504917 -0.268020 0.235042 0.442256 0.060776 0.036643 0.380614 0.235170 0.127259 0.006966 0.077345 0.167738 0.335796 -0.277950 0.091588 0.394828 -0.252109 -0.002924 -0.116290 -0.405108 0.544058 -0.318079 -0.133812 -0.499996 0.212787 -0.168288 0.052317 0.090499 -0.369987 -0.354475 -0.227470 -0.601029 -0.369061 0.246154 -0.560145 -0.300185 -0.295253 -0.021972 -0.138161 -0.305252 -0.326181 -0.195366 -0.215664 -0.397239 0.230242 -0.346177 -0.429531 0.165713 0.142748 0.138595 0.452836 -0.465673 -0.009416 -0.184165 0.389154 -0.224228 -0.105019 0.166258 -0.096675 0.596029 0.001587 0.284610 -0.134549 -0.051840 -0.124277 -0.332418 -0.184004 -0.075950 -0.073470 -0.480106 0.620554 -0.147667 0.203416 0.138034 -0.108813 0.093715 -0.167051 -0.036922 0.262534 -0.520652 -0.257792 -0.176226 0.128725 -0.306095 -0.434098 -0.339512 0.462388 0.084497 0.035414 0.416189 0.293990 0.103306 -0.096088 0.150276 -0.181036 0.297230 -0.197127 -0.149965 0.336405 -0.101317 0.353031
2413 0.170495 -0.370934 0.147991 0.134945 0.036705 -0.300182 -0.306466 -0.325193 -0.170126 -0.263047 0.210436 0.291373 0.187876 -0.021320 -0.081847 -0.426617 -0.218672 -0.065728 0.250673 0.181503 -0.233500 0.807861 0.369433 0.363831 -0.275444 -0.043932 0.096002 0.033321 0.506829 0.012666 -0.278656 0.247912 -0.061107 0.393143 -0.284643 0.442436 -0.080534 0.139241 0.170803 -0.537133 -0.198048 -0.353167 0.850837 -0.241242 -0.188353 -0.058838 0.056754 -0.084105 -0.175196 0.109475 -0.042525 0.263302 -0.599364 0.223534 0.039930 0.277672 0.227934 0.328557 -0.501740 -0.510700 -0.738337 -0.653297 -0.121898 -0.101377 0.465877 -0.356740 -0.649830 -0.187791 -0.446452 -0.179265 0.429744 0.091189 -0.031566 -0.190020 0.253980 -0.125106 -0.397184 0.617581 -0.336861 -0.084450 -0.234800 0.011381 -0.342146 -0.442996 -0.088582 -0.141563 -0.325390 -0.131236 -0.091630 -1.013866 0.124694 -0.471474 0.037691 0.254290 0.231136 0.205010 0.529597 0.049753 -0.081793 -0.545276 0.763809 -0.004265 -0.816239 0.367572 0.523915 -0.250623 0.007751 0.099733 0.002978 0.105010 -0.113372 -0.776214 0.047373 -0.270164 -0.437212 -0.147000 0.258428 0.502533 -0.131487 0.127234 -0.225150 0.331042 0.003973 -0.006606 -0.177972 -0.072600 0.158628 0.199879
3118 0.042640 -0.190624 -0.479208 0.161179 -0.159128 -0.164717 -0.273029 -0.120634 0.326411 -0.159423 0.034490 0.480472 -0.164048 -0.251443 0.124190 -0.051809 0.359513 -0.162485 -0.059048 0.472878 0.115155 0.816775 0.557820 0.025854 -0.350760 -0.100815 -0.620316 -0.365611 -0.251528 0.060326 0.098125 0.473832 0.321652 0.082592 0.190137 0.455761 -0.180584 -0.020568 0.311223 0.333641 -0.472979 0.072269 0.495215 -0.356700 -0.004370 -0.184356 -0.215546 -0.011182 -0.091582 -0.085618 0.374354 0.567069 0.240096 0.108225 -0.891735 0.403771 0.372982 -0.297747 -0.510742 0.005002 -0.122949 -0.485387 -0.454783 -0.140147 0.591179 -0.612703 -0.087286 0.010890 -0.061256 -0.771948 -0.021404 -0.111952 0.097844 -0.204245 -0.165363 0.223467 -0.167973 0.458484 -0.089488 0.076972 -0.182601 0.050005 -0.574019 0.362522 0.196804 0.036191 0.341442 0.325546 -0.115744 -0.077765 0.095047 -0.071576 -0.179064 0.176578 0.554699 0.086682 0.181559 0.384899 0.074299 0.368212 0.605510 -0.045959 -0.092691 -0.217875 0.503027 0.279513 -0.268866 -0.123206 0.153639 -1.037746 0.037673 -0.231155 -0.218689 0.132422 0.030662 -0.022463 -0.001341 1.022421 -0.559691 -0.328075 -0.138356 0.420518 0.364597 -0.270292 0.089755 0.189744 -0.331671 0.388127
39 -0.164032 -0.585337 -0.171434 0.248369 0.049959 -0.184557 -0.497818 0.194701 0.101914 -0.299609 0.051536 0.061693 0.297269 -0.449522 -0.297073 -0.281504 -0.070449 0.431185 -0.224074 0.629961 -0.402526 0.327899 0.305816 0.220087 -0.604541 -0.013217 -0.272465 -0.015111 0.124754 0.368101 -0.166109 -0.339367 -0.301350 0.391426 -0.114160 -0.501533 -0.409232 0.288519 0.101484 0.289188 -0.377903 -0.412252 0.007883 -0.849337 -0.180629 -0.327888 -0.474082 0.034984 0.056553 -0.084711 -0.380358 0.397612 -0.050096 -0.048331 -0.074078 -0.122488 0.399517 -0.262401 -0.168305 -0.206330 -0.348175 -0.128681 -0.519788 0.320550 -0.413224 -0.961583 0.024776 -0.193723 -0.225607 -0.042272 0.153299 0.053174 -0.047186 0.120671 0.487591 0.251973 0.531253 0.130216 -0.580331 -0.166329 0.601468 0.741279 -0.141155 -0.673803 0.476917 0.640563 0.392259 0.362458 0.549011 -0.376193 0.424744 0.354678 -0.355539 -0.211497 0.302975 0.372765 -0.149842 0.167078 0.148413 -0.056379 -0.277434 -0.227995 -0.739290 0.332892 0.613844 -0.351325 -0.171465 0.492043 0.012631 0.000386 0.423642 -0.028166 -0.123414 0.105354 0.201534 0.405737 -0.078945 0.134643 -0.185109 -0.739809 0.469492 0.193815 0.336437 0.039685 0.116248 0.314943 -0.434027 0.136874
1961 0.074263 -0.206943 0.042544 0.015231 -0.009235 0.251234 -0.311318 0.029880 -0.505071 -0.208037 0.108865 0.221435 0.136130 -0.419758 -0.135395 -0.442751 0.059245 0.241285 0.240416 0.610097 0.487130 0.793694 -0.286766 0.234504 -0.141826 0.277543 -0.707268 -0.545451 -0.216305 0.601258 0.038303 -0.831251 0.034241 0.256193 0.013195 -0.217597 -0.297976 0.332616 0.111837 0.295587 -0.053988 0.217754 0.253296 -0.040165 -0.586564 0.148832 -0.156056 -0.018544 0.045319 0.233866 -0.163650 0.854081 -0.007067 -0.069856 0.168248 0.262148 -0.027649 -0.201920 0.022517 -0.373471 -0.087650 -0.059932 -0.263270 0.065804 -0.284498 -0.341682 0.056756 -0.207440 -0.389287 -0.031726 -0.485229 -0.200724 -0.166680 -0.018937 0.313394 -0.083939 -0.141097 0.501945 -0.610790 -0.115546 0.075768 0.332070 -0.402828 -0.592012 0.479715 0.067872 0.450115 0.640061 0.286580 -0.107787 -0.219515 -0.136523 -0.710059 -0.001884 -0.103942 -0.228817 -0.040121 -0.093229 -0.295280 -0.285178 -0.184342 -0.111832 -0.130665 0.280142 -0.001896 0.083084 -0.448232 -0.259355 -0.040930 0.055282 0.085629 -0.211158 -0.476700 0.234447 0.017354 -0.103335 0.296237 0.464792 0.406077 -0.021332 -0.106529 0.304177 0.109552 -0.217767 -0.605429 0.442435 -0.258991 0.223565
2587 0.145938 -0.665344 -0.070758 0.055013 0.435999 0.095716 -0.495094 -0.953488 0.136744 -0.395556 0.730052 0.262135 0.667499 0.125860 -0.048801 -0.343099 0.172535 0.278532 0.228353 0.421578 -0.345176 1.341552 0.030974 0.547230 -1.054079 -0.414835 -0.561978 0.035243 0.438606 -0.113046 -0.626820 0.732210 0.168703 0.467471 0.008240 0.082007 -0.041457 0.810063 0.492139 -0.058425 -0.803953 0.174084 0.764852 -0.725822 -0.702385 -0.131851 -0.087987 0.531415 0.267419 -0.490779 -0.565432 0.732662 0.114974 -0.185442 -0.662297 0.028861 1.237262 -0.284319 -0.110410 0.139037 -0.506480 -0.556938 0.205354 0.486994 0.362124 -0.510366 -0.471162 -0.755262 -0.269665 -0.316509 -0.692780 -0.018796 0.165216 -0.192523 0.054999 -0.157514 0.506916 0.891333 0.190377 -0.587283 0.317353 0.149801 -0.370344 -0.445620 0.243020 0.683119 0.388408 0.110252 0.333212 -0.649506 -0.089590 0.018835 0.377979 0.205072 1.213324 0.692733 0.592916 -0.281517 0.287043 -0.615818 0.706137 -0.698770 -0.377355 0.445790 -0.023327 -0.441374 -0.461099 0.503968 -0.148161 -0.017117 -0.145626 -0.738986 -0.236690 -0.646865 0.259011 0.232837 -0.754705 0.276562 -0.143804 0.270659 -0.217979 -0.507001 0.633078 0.294792 -1.076200 -0.430745 -0.033661 0.116112
2895 -0.039532 0.076012 0.003103 0.116444 0.076053 -0.013279 -0.619897 0.036021 -0.397884 0.384234 0.282214 0.395257 0.166674 0.258467 -0.002577 0.038945 -0.370700 -0.085108 0.115936 0.119704 -0.184973 1.007909 0.579950 0.174149 -0.460476 -0.174312 0.217841 0.266786 0.228077 0.324290 -0.090595 0.140683 0.044978 0.306368 -0.069535 0.555153 0.412589 0.044232 -0.293222 -0.084899 -0.197009 -0.442330 0.453403 -0.485035 -0.343233 -0.389100 -0.135238 0.065673 -0.659381 -0.219240 -0.200925 0.242061 -0.763179 0.066654 0.016147 0.073250 0.119789 0.263551 -0.070238 -0.328636 -0.714060 -0.212636 -0.316055 0.191415 0.061923 -0.214419 -0.755397 -0.098657 0.102195 -0.123786 0.056550 -0.059967 -0.544595 -0.597275 0.004472 -0.577170 -0.207162 0.497202 -0.321719 -0.001148 0.185339 0.104317 -0.311198 -0.095826 -0.092508 -0.025841 -0.341856 0.073524 -0.078048 -0.574491 -0.171975 -0.259465 -0.210830 0.132390 0.373434 0.484019 0.409804 -0.105948 -0.234388 -1.005845 0.366124 0.058530 -0.847640 0.477132 -0.382116 -0.661858 0.068633 -0.023750 -0.104061 0.145313 0.135253 -0.685014 -0.041334 -0.078647 0.383962 0.133883 0.011057 0.278935 -0.333187 -0.164364 -0.050257 0.115174 0.498889 0.349828 0.142524 -0.289523 -0.056388 -0.134230
96 0.021266 -0.449881 0.323812 0.071267 0.293929 -0.402514 -0.410381 -0.651385 -0.160988 -0.167914 0.207827 0.443359 0.278492 0.007400 -0.018884 0.033604 0.501730 0.166971 -0.609782 0.501241 -0.032897 0.867482 0.128135 0.170149 -0.152515 -0.209142 -0.670125 -0.462583 -0.048632 0.166349 -0.102876 -0.293453 -0.317159 0.598774 0.006911 -0.189159 -0.018690 0.117176 0.311915 0.241120 -0.577902 -0.114958 -0.015999 -0.552530 0.126842 -0.456204 0.180913 -0.344281 0.530505 -0.111242 -0.190348 0.528587 0.044029 0.286317 0.377227 0.197985 0.377908 -0.148705 -0.630029 -0.298678 -0.189501 -0.453155 0.035088 -0.298285 0.093847 -0.826576 0.333506 -0.243613 -0.430749 0.357316 0.051790 -0.210736 0.301560 -0.225750 0.452122 -0.437864 0.269130 0.165759 -0.412839 -0.369587 0.334994 0.369871 -0.084327 0.098041 0.147631 0.946509 -0.128815 0.047727 -0.059275 -0.439874 -0.221081 -0.383771 -0.557946 0.077685 0.612001 0.217959 0.239695 0.092545 0.582824 -0.738409 0.868876 0.039249 -0.728779 0.093145 0.174357 0.395034 -0.050146 0.674071 0.188714 -0.250023 0.138846 -0.411339 0.115973 0.849138 -0.117648 -0.148081 0.386322 -0.089277 0.336324 -0.783271 -0.323777 0.080405 0.595590 -0.711201 -0.350803 0.256080 -0.310691 -0.360554
1841 -0.115531 -0.463815 -0.122054 -0.554652 0.439173 -0.110403 -0.432920 0.234939 0.156369 0.394396 0.245654 0.156327 0.337354 -0.346658 0.223052 -0.213211 0.292634 0.279515 -0.007204 0.284549 0.463779 0.434423 0.270655 0.123973 -0.049963 0.159027 -0.456157 -0.313677 -0.161721 0.329399 0.349954 0.026738 0.124876 0.418419 0.133081 0.258776 -0.084924 0.016679 0.283336 0.553427 -0.345882 -0.030976 0.528585 -0.008990 -0.255981 0.087439 -0.347292 0.069062 -0.203192 -0.022458 -0.222743 0.565285 0.144319 -0.286634 -0.205244 -0.247417 -0.330395 -0.183101 -0.191346 0.035573 -0.154039 -0.319956 -0.412788 0.004070 0.318182 -0.273520 -0.304186 0.078223 -0.339317 -0.111866 -0.148228 -0.191985 0.027365 -0.550769 0.360950 -0.076388 0.130227 0.232921 -0.541907 -0.046390 -0.217472 0.246453 -0.299889 -0.090969 0.068135 0.105503 0.532735 0.169141 0.300698 0.029113 0.291037 -0.120463 -0.159764 0.408053 0.193739 -0.056939 -0.451213 0.509658 -0.470512 0.226542 0.266681 -0.133983 0.170356 -0.303538 -0.118056 0.199143 -0.306388 -0.131297 -0.174523 -0.164544 -0.012405 -0.457907 -0.353095 0.400411 -0.047698 -0.042142 0.428318 0.584068 -0.104647 -0.105843 -0.068679 0.047717 0.265409 -0.401872 -0.209169 0.633831 -0.028274 0.649378
1643 -0.029840 -0.269804 -0.204276 0.149567 0.022735 0.312523 -0.289946 0.086153 -0.523985 -0.108584 0.289948 0.308029 0.162066 -0.501188 -0.110293 -0.410718 0.074509 0.282689 0.155385 0.500712 0.172820 0.739085 -0.292272 0.316043 -0.040755 0.257980 -0.467591 -0.604311 -0.261027 0.539771 0.021404 -0.596873 0.199699 0.159748 -0.087367 -0.003713 0.092934 0.169195 0.459576 0.189589 -0.127892 -0.187435 0.247135 -0.052773 -0.501569 0.445435 -0.563782 -0.034363 0.009052 -0.006955 -0.180166 0.699210 0.061767 -0.112805 0.178771 0.151258 -0.033472 0.113800 0.004305 -0.239621 -0.035517 -0.023347 -0.489750 0.164199 -0.243429 -0.214821 0.046167 0.064039 -0.474344 -0.150060 -0.364818 -0.092382 0.236708 -0.309930 0.230721 -0.057274 -0.434982 0.289547 -0.737531 -0.057777 0.310354 0.137223 -0.316307 -0.581184 0.241123 -0.033291 0.442798 0.490474 0.449873 -0.308837 0.022462 -0.089726 -0.751778 0.078568 -0.312424 0.073782 0.109003 0.083294 -0.553956 -0.286961 -0.004897 -0.011427 -0.000409 0.355745 -0.102035 0.116734 -0.257094 -0.254236 -0.188200 -0.041535 -0.069712 -0.117408 -0.605486 -0.087823 0.046593 0.393151 0.062204 0.551360 0.309806 -0.253698 -0.164996 0.184837 0.270294 -0.001167 -0.536057 0.488333 0.119519 -0.224275
2344 0.059164 -0.572168 -0.017812 0.537197 0.242470 -0.396946 -0.488613 -0.280443 0.017206 -0.133838 0.404113 0.488580 -0.005049 -0.006929 0.299503 0.106204 -0.232406 0.183272 0.223201 -0.174471 -0.029685 0.697754 0.017214 0.434588 -0.031279 -0.290957 -0.038502 -0.115056 0.213510 -0.166384 0.153249 0.026855 -0.389896 0.026856 -0.264157 0.485297 0.350183 0.059714 -0.136784 0.347952 -0.200122 -0.399813 0.538220 -0.721819 -0.715496 -0.138471 0.134293 -0.522627 -0.215595 -0.405372 0.034019 0.158013 -0.212859 0.166223 -0.054683 0.197095 0.037781 0.257888 -0.709704 -0.528489 -0.768105 -0.495006 -0.550553 -0.064830 0.198620 -0.310374 -0.414722 -0.638912 -0.578894 0.039742 -0.070623 0.060441 0.010134 -0.347396 -0.119172 -0.063934 -0.084262 0.352306 -0.236283 -0.290207 0.501833 -0.063236 0.250436 -0.091663 0.072125 0.179484 -0.001264 0.329298 0.021342 -0.297364 0.097764 0.011255 0.112637 -0.014063 0.272066 0.467540 0.274810 -0.365176 0.093698 -1.013757 0.364169 0.178931 -0.147406 0.144438 -0.015964 -0.411282 -0.013034 0.357284 0.125466 0.354659 0.142695 -0.518333 0.197632 0.316550 0.293613 0.402605 0.266563 0.212216 -0.109486 0.053934 0.013313 0.180827 0.471833 -0.032110 -0.231428 -0.117320 0.138640 0.096027
1861 0.361744 -0.356019 -0.122481 0.361027 -0.139754 -0.102150 -0.167406 -0.204286 -0.025246 -0.049662 -0.265542 0.397233 0.045507 -0.041739 -0.141946 -0.100064 -0.198820 -0.005700 -0.104791 0.403694 -0.107012 1.162170 0.383354 0.093714 0.071670 -0.318384 -0.471300 0.117348 -0.010723 -0.177551 -0.200153 0.167246 0.165614 0.437741 -0.040381 0.400331 0.306346 -0.241854 -0.102612 0.085580 -0.429262 -0.045356 0.964403 -0.693845 0.139992 -0.232578 -0.134027 -0.418961 -0.174121 -0.296762 0.488789 0.536585 -0.381750 0.124793 -0.118092 0.398491 0.255353 0.340560 -0.837561 -0.056959 -0.365612 -0.416098 -0.583838 0.079825 0.183607 -0.511180 -0.126347 0.236836 -0.031675 -0.341347 0.140446 -0.092303 -0.122026 -0.190449 -0.625345 -0.074380 -0.164406 0.383455 -0.164691 -0.118548 -0.474439 -0.200325 -0.251343 0.403323 0.269463 0.099588 0.031112 0.107840 -0.173682 -0.419417 -0.141990 -0.114037 -0.021720 0.200275 0.768595 0.195564 0.664226 0.130081 -0.071448 -0.069173 0.596505 -0.289498 -0.572045 0.335244 0.564935 -0.087600 -0.205561 -0.020453 0.143979 -0.748131 0.192265 -0.693224 -0.292358 -0.106433 -0.136580 0.044286 -0.011001 0.754604 -0.555360 -0.382380 0.038867 0.084935 0.043956 -0.502748 -0.021690 -0.320723 -0.390902 0.224890
537 -0.119157 -0.236508 -0.238190 -0.636333 -0.087256 0.226768 -0.510044 -0.229275 -0.622648 0.006668 0.100615 0.254430 0.287339 -0.591962 -0.031761 -0.524020 0.408026 0.392209 0.320912 0.387720 -0.081410 0.450218 -0.203426 -0.029953 0.173739 -0.022933 -0.486735 -0.453678 0.175549 0.336998 -0.292775 -0.144330 0.067068 0.340443 0.025359 0.038123 0.091376 -0.039252 -0.132594 0.392462 -0.179527 -0.164981 0.143273 -0.015772 -0.237054 0.216698 -0.459538 -0.255723 -0.181573 -0.175435 -0.132789 0.407473 0.329948 0.222438 0.030161 0.165815 -0.295982 -0.114081 -0.232026 -0.213295 -0.378948 0.320689 -0.782136 -0.080666 -0.303963 -0.374345 0.188044 0.340948 -0.555661 -0.281408 -0.309908 -0.245034 0.711670 -0.187455 0.329365 -0.106193 -0.074411 0.619775 -0.784281 0.056662 -0.206929 0.229619 -0.031592 -0.296143 0.298467 -0.054407 0.138354 0.154424 0.630757 -0.279118 -0.345592 -0.091062 -0.532755 -0.005790 -0.197463 0.020027 -0.052257 0.120011 -0.414478 -0.461082 -0.033529 -0.140093 -0.056037 0.063680 -0.067558 -0.153675 -0.054505 -0.036791 -0.296043 -0.070201 0.195654 -0.193425 -0.437493 0.091003 0.162847 0.136725 0.241941 0.528129 0.153226 -0.135418 0.371764 0.188487 0.184011 -0.085125 -0.332708 0.575621 -0.087228 0.304653
366 -0.191516 -0.368926 -0.213264 -0.219723 0.171815 -0.248866 -0.718406 -0.159244 0.002575 0.388073 -0.117731 0.025259 0.439938 -0.032617 0.066588 -0.432894 0.029085 0.324742 0.143547 0.701038 0.235399 0.612267 -0.379956 0.229469 -0.082310 -0.004062 -0.096489 -0.334105 -0.176513 0.015290 0.333663 -0.021242 0.041714 0.644506 0.072728 0.128101 -0.161725 0.101132 0.131814 0.327866 -0.612665 -0.114870 0.470406 -0.099315 0.044442 0.231912 -0.388396 0.584910 -0.158234 -0.204364 -0.475639 0.464781 -0.158756 -0.371630 0.266196 -0.254164 -0.155724 -0.177922 -0.352802 -0.287820 -0.072380 -0.296669 -0.181903 -0.136165 -0.155401 -0.003862 -0.310366 -0.154194 -0.332300 -0.271717 0.041500 0.160552 0.036747 -0.399713 0.213735 -0.024224 0.479392 0.284188 -0.317221 -0.143371 -0.365975 0.400832 -0.249429 -0.069359 0.125850 0.442260 0.600414 -0.053009 -0.023598 0.129087 0.312832 0.090687 -0.117092 0.009027 0.163554 0.194452 -0.475298 0.698335 -0.304601 0.254931 0.081897 -0.231329 0.101316 0.007666 -0.208580 0.269806 -0.147637 -0.173728 -0.357843 0.057278 -0.235584 -0.204261 -0.647033 0.204287 0.175394 0.147377 0.211548 0.467383 -0.071938 -0.298451 0.234153 0.235157 0.333897 -0.230237 -0.004665 0.717369 0.123630 0.021384
471 -0.378862 -0.524516 -0.564400 -0.293142 0.216741 -0.448502 -0.652773 -0.032601 -0.408322 -0.133612 0.082261 0.547048 -0.433328 -0.047765 0.208411 -0.398417 0.185932 -0.475869 0.399345 0.684394 0.475161 0.736951 0.254055 0.151529 -0.443686 0.040330 -0.980325 -0.766797 0.210397 0.302149 0.181143 0.969509 -0.191255 -0.037035 -0.528400 0.362200 -0.224520 -0.255147 0.202478 -0.079698 -0.835341 -0.278023 0.514834 -0.460337 0.069265 0.159763 -0.729406 0.284017 -0.384621 -0.330772 -0.574520 0.150221 0.124286 0.524867 -1.053444 0.598308 -0.156035 -0.341853 -0.118938 -0.069266 -0.442867 -0.116944 0.168705 -0.110853 -0.236418 -0.946876 -0.319741 0.199918 -0.108197 0.004124 0.001413 0.184084 0.070358 0.268740 0.128186 -0.058621 0.061477 0.262265 -0.291321 0.212610 0.243692 0.282735 -0.161337 -0.135389 0.385207 0.212648 0.001330 0.361781 0.031880 -0.189879 -0.155141 0.062341 0.068925 0.378406 0.357043 0.554932 0.121558 0.424154 0.229345 -0.459228 1.148288 0.196572 -0.315252 -0.041132 0.692311 -0.058667 -0.440759 0.173960 0.427102 -0.701616 -0.281216 -0.369209 -0.570797 0.485984 -0.182301 0.186343 0.344852 0.379975 0.242606 -0.253525 0.105386 0.018010 0.504383 0.242559 -0.405501 0.542431 -0.016857 0.773157
1031 -0.199836 -0.324871 -0.018390 -0.091022 0.180371 -0.349659 -0.253009 -0.136252 -0.010385 -0.037309 -0.001673 0.145294 0.387161 -0.208178 -0.484562 -0.561366 0.167671 0.184266 0.436450 0.342994 0.265799 0.529859 -0.191054 0.462000 0.040827 -0.066132 -0.325146 -0.067774 0.156370 0.635029 -0.138804 -0.337751 -0.069970 0.638700 -0.094420 0.200620 0.131495 -0.046771 0.162005 0.536030 -0.415144 -0.174613 -0.296185 -0.504930 -0.277679 -0.082197 -0.163634 -0.032294 -0.308125 -0.253308 -0.229848 0.253358 -0.011284 -0.006039 0.365191 -0.584671 -0.191061 -0.120158 -0.393061 -0.450081 -0.547912 -0.528859 -0.385000 -0.137240 0.333214 -0.433948 -0.443093 -0.477159 -0.566688 -0.087611 -0.035738 -0.135561 0.390540 -0.457640 0.164023 -0.236871 0.281191 0.391747 -0.577198 -0.728205 -0.072743 0.605442 0.010370 -0.299337 0.434114 -0.096209 0.295314 0.134839 -0.087794 0.121148 0.068635 -0.104336 0.001437 -0.120684 -0.147263 -0.318783 -0.247672 -0.023107 -0.276380 -0.259849 -0.207991 0.485699 0.210657 0.197166 0.450899 -0.097347 -0.443945 0.143778 0.053569 0.327076 0.415179 -0.088790 -0.179287 0.738128 0.337439 0.172978 0.415389 0.566166 0.073801 -0.313907 0.302935 0.141068 0.219543 -0.112715 -0.285073 0.120252 -0.328181 0.040399
3315 0.042016 0.052083 -0.244514 -0.328138 -0.136095 0.055789 -0.465967 -0.261546 -0.569414 0.211285 0.153910 0.166836 0.017870 -0.343496 -0.143948 -0.722361 0.207316 0.332911 0.305632 0.488678 -0.016533 0.741378 -0.670986 0.173877 -0.087999 -0.173200 -0.571100 -0.516080 -0.185254 0.599369 -0.327874 -0.348071 0.016436 0.579294 -0.247719 -0.360594 -0.119750 -0.064601 -0.132130 0.632758 -0.464834 -0.508460 0.063149 -0.094939 -0.616629 0.163522 -0.139751 0.028287 -0.019511 -0.278837 -0.252036 0.204908 0.203833 -0.195027 0.013840 0.381872 -0.442717 -0.231682 -0.136973 -0.532791 -0.457512 -0.062076 -0.065300 0.126843 -0.208417 -0.275230 -0.179999 0.116355 -0.508956 -0.248809 -0.517113 0.086799 0.814302 -0.009235 0.181228 -0.120467 0.084558 0.721400 -0.394913 -0.050494 -0.231705 0.071706 0.069151 -0.436931 0.405876 0.061245 0.825957 0.192723 0.312108 -0.038368 -0.076487 -0.103063 -0.400106 0.079619 0.045935 -0.095502 -0.002660 0.081983 -0.472958 -0.153781 -0.171911 -0.159338 0.085516 -0.005381 0.186669 0.170795 -0.188510 -0.200147 -0.016275 0.059617 0.092481 0.114276 -0.285170 0.245396 0.055033 0.219887 0.210508 0.605134 0.301432 -0.264670 0.152467 0.238915 0.185390 -0.035850 -0.283353 0.271554 0.132384 -0.017469
8 -0.140120 -0.543902 0.267328 0.019009 0.151051 0.129750 -0.749954 -0.341188 -0.063618 0.145781 -0.086166 0.226642 0.057395 -0.105670 0.238320 -0.024169 0.094789 0.125108 -0.181096 0.434373 -0.087807 0.649966 0.380468 0.127553 0.191791 0.037966 0.103419 0.000195 0.269199 -0.156013 0.027980 0.011051 -0.395066 0.427425 -0.405140 0.110648 0.231392 0.023345 0.440765 0.210512 -0.140654 -0.336645 0.452396 -0.462209 -0.172402 -0.023358 -0.115759 -0.492748 -0.367979 -0.387947 -0.081884 0.103328 -0.407290 0.364187 -0.071444 0.155598 -0.407859 0.440369 -0.857628 -0.519210 -0.601048 -0.694062 -0.262469 -0.139061 0.417842 -0.402801 -0.320623 -0.272516 -0.421306 0.145666 0.311599 -0.032437 0.019556 -0.208832 0.324392 -0.015664 0.051342 0.490898 -0.409640 -0.301954 -0.004176 -0.118262 0.051463 -0.186838 0.052931 0.268103 -0.471029 0.103017 0.201996 -0.475365 -0.085980 -0.354708 -0.001039 0.059500 0.408732 0.452477 0.554729 -0.149805 0.120058 -0.454982 0.700517 0.268367 -0.586685 0.237914 0.003868 -0.387219 0.077439 0.229074 0.048274 0.307477 0.099521 -0.408028 -0.025052 -0.125694 -0.534409 0.011026 0.309325 0.125636 -0.291676 0.035151 -0.282269 -0.170341 0.351791 -0.429052 -0.329789 -0.163614 0.183085 0.070286
1962 0.146778 -0.165437 -0.138048 -0.255905 0.245162 0.084989 -0.297376 -0.013729 -0.347414 -0.208938 0.102988 0.111103 0.141173 -0.074895 0.202804 -0.240791 -0.097793 0.127248 0.251051 0.865783 0.090706 0.482170 -0.027380 0.170062 -0.043075 0.327974 -0.487296 -0.557533 -0.202163 0.723876 -0.129399 -0.384997 -0.058546 0.242278 0.094378 -0.020108 0.030475 0.222294 0.432973 0.414703 -0.069250 0.222238 0.337318 -0.310783 -0.376485 0.187570 -0.297336 -0.152959 -0.177634 0.133227 -0.383619 0.625969 0.235046 0.092338 -0.130682 0.032350 -0.080864 -0.061556 0.325534 -0.402074 -0.332431 -0.077975 -0.307664 0.335267 -0.129414 -0.180893 0.105464 -0.176084 -0.138703 0.023186 -0.543879 -0.325195 -0.040970 -0.386641 -0.095713 -0.119358 -0.194855 0.488662 -0.601249 -0.442176 0.276549 0.021473 -0.328125 -0.411636 0.606760 -0.073504 0.538152 0.366391 0.439763 -0.037645 -0.161390 -0.101483 -0.777349 0.298760 -0.293983 -0.121039 0.151774 0.147362 -0.373116 -0.281727 -0.039511 -0.265996 -0.325900 -0.053213 -0.362906 0.072566 -0.442488 -0.051053 0.034509 0.137709 -0.027955 -0.194017 -0.393268 -0.128639 -0.179062 -0.172942 0.248739 0.497737 0.348588 -0.473288 0.129814 0.377902 0.285479 -0.014289 -0.570426 0.376473 -0.414823 0.352628
0 -0.160765 -0.615140 0.454732 -0.406960 0.218307 0.176219 -0.613586 -0.162409 -0.292691 0.159388 0.136978 0.242207 0.059024 -0.269604 0.117228 -0.021331 0.326458 0.344273 -0.148798 0.446048 0.051425 0.642246 0.537412 0.253141 0.254955 -0.024730 -0.270885 0.069958 0.016830 0.040645 0.070366 -0.138036 -0.355864 0.543013 -0.284860 0.286079 0.226197 0.157675 0.155109 0.318788 -0.282641 -0.192456 0.018322 -0.219383 -0.238428 -0.001123 0.166523 -0.299098 -0.009210 -0.263035 0.219134 0.010436 -0.028340 0.195587 0.205785 0.388590 -0.348475 0.290599 -0.853328 -0.605982 -0.361470 -0.550594 -0.177689 -0.091462 0.475014 -0.674698 0.062117 -0.279863 -0.323337 0.164991 0.030668 0.116122 0.063554 -0.385557 0.545959 -0.467598 0.162979 0.188415 -0.540765 -0.495524 0.386291 -0.163666 0.130679 -0.043832 -0.240181 0.256956 -0.285867 0.053952 0.058785 -0.550613 0.134269 -0.215359 -0.059966 0.101367 0.372286 0.344981 0.034876 0.047457 -0.031662 -0.594410 0.393145 -0.002731 -0.432149 0.409051 -0.324340 0.135569 -0.121934 0.377011 0.365967 0.123361 0.080725 -0.447243 -0.111497 0.223177 -0.195455 0.060371 0.376863 0.128178 -0.029150 -0.348578 -0.487003 -0.342253 0.532335 -0.679362 -0.213841 0.073980 0.036441 -0.098167
1027 0.146330 -0.132249 -0.382873 -0.542922 0.161788 0.129154 -0.655612 -0.179900 -0.354221 0.389784 0.118795 0.258919 0.033753 -0.571415 -0.013727 -0.595371 0.160536 0.559649 0.262022 0.148177 -0.036100 0.313587 0.121794 0.117690 0.026732 0.178734 -0.632194 -0.277446 -0.363397 0.303638 -0.198134 -0.428497 -0.058577 0.641589 -0.152234 -0.193655 -0.253231 -0.228558 0.416175 0.121630 -0.208803 -0.351046 -0.001377 0.192018 -0.353200 -0.135758 -0.248484 -0.089279 -0.493403 -0.165242 -0.330840 0.548453 -0.168269 0.097140 0.319710 -0.307052 -0.273555 -0.192257 -0.341901 -0.193202 -0.232566 0.290073 -0.220134 -0.044952 -0.024071 -0.575239 -0.047280 0.087036 -0.368617 -0.233240 -0.349355 -0.306936 -0.146425 -0.369063 0.445811 -0.478602 -0.038887 0.788921 -0.247751 -0.036238 -0.214222 0.434050 -0.213423 -0.459978 0.392698 0.091893 0.244611 0.055757 0.345881 -0.153455 -0.247927 -0.091877 -0.432437 -0.054890 0.092932 -0.318019 -0.016682 0.154482 -0.380348 0.096364 -0.256161 0.170451 -0.262915 0.050686 0.262527 -0.240804 -0.332484 -0.133302 -0.397534 -0.159979 0.339784 -0.120866 -0.013200 0.427577 0.029670 0.370662 0.530143 0.598510 0.149910 -0.219981 -0.289628 0.198542 0.589612 -0.279472 -0.316379 0.039554 -0.009655 0.442142
1514 -0.047351 -0.127695 -0.273182 -0.094866 -0.319437 -0.059232 -0.334489 0.278951 -0.558840 0.221863 0.236805 0.108491 0.214186 -0.581999 -0.093656 -0.581621 0.604419 0.264841 0.210286 0.123548 0.136117 0.532626 0.020626 0.121388 -0.124507 0.254106 -0.757231 -0.430634 0.101542 0.349583 -0.425990 -0.502672 -0.083446 0.171267 -0.041163 -0.179197 -0.395413 0.119269 0.331426 0.614765 -0.296724 -0.230157 0.089358 -0.246590 -0.411950 0.566086 -0.277081 -0.175102 -0.470547 -0.082968 0.028866 0.775757 0.393952 0.207652 -0.015383 0.107794 -0.125454 -0.103731 -0.302577 -0.073204 -0.371720 -0.084206 -0.452354 -0.189530 -0.378988 -0.352313 0.163286 -0.079255 -0.835083 -0.482691 -0.289481 -0.189877 0.437766 -0.167605 0.319083 -0.443330 -0.197552 0.282090 -0.531746 0.011859 -0.012203 0.229721 0.054136 -0.372095 0.510547 0.152175 -0.012909 0.202530 0.542312 -0.560575 -0.268738 -0.263586 -0.398636 0.042038 -0.162235 0.013206 0.072559 0.069946 -0.425709 -0.296550 -0.417455 -0.198032 0.103022 0.156260 0.095863 -0.149380 0.028948 -0.447838 -0.128887 -0.012660 0.087365 -0.348612 -0.365150 0.085468 0.121093 0.095623 0.151528 0.548204 -0.053842 -0.215153 0.463098 0.214896 0.381169 -0.113819 -0.169399 0.406305 -0.141991 0.455141
2934 0.264871 -0.457535 -0.046869 0.493621 0.053700 -0.504960 -0.271189 -0.445396 -0.108359 -0.167286 0.515296 0.489883 0.075158 -0.140825 0.118178 -0.133378 -0.298815 -0.156566 0.167149 -0.045496 -0.175925 0.929720 0.309583 0.305158 0.074369 -0.140777 0.165040 -0.016420 -0.021528 -0.169789 -0.312044 0.045040 -0.436054 0.300935 -0.153415 0.675154 0.292638 -0.029593 -0.022256 0.087627 0.276298 -0.081569 0.335458 -0.205937 -0.448834 -0.332879 0.152538 -0.512421 0.160874 -0.192264 -0.323197 0.501620 -0.286209 -0.050331 0.166917 0.081864 0.373446 0.025472 -0.737453 -0.478164 -0.575191 -0.463394 -0.372341 -0.236333 0.470941 -0.583086 -0.181162 -0.548872 -0.474014 -0.046448 0.058500 0.109638 0.103107 -0.307722 -0.080177 -0.239869 -0.088366 0.244755 -0.118595 -0.208664 0.377847 -0.303255 -0.063873 0.099911 -0.080258 0.304025 0.299248 0.142637 -0.200465 -0.249304 -0.074373 -0.075229 0.111967 -0.238589 0.274442 0.199478 0.181746 -0.196181 0.051897 -1.282202 0.548080 -0.015558 -0.406560 0.393940 0.206101 -0.344496 0.164319 0.241124 -0.134459 0.125136 0.200638 -0.663523 0.143175 0.062013 0.266521 0.255918 0.275343 0.248116 -0.058493 -0.269201 -0.121149 0.172324 0.400250 0.053818 -0.040173 0.076103 -0.064564 0.299241
1701 -0.066100 -0.260831 0.271296 0.071644 0.113558 0.027624 -0.825614 -0.001633 -0.203765 0.184265 0.358868 0.063990 0.308051 -0.020573 -0.031504 -0.036794 -0.198278 -0.190439 -0.064889 0.510267 -0.221278 0.717106 0.699344 0.089284 -0.288180 -0.250551 0.204405 0.157109 0.299138 0.201746 -0.109905 0.477090 -0.109841 0.261157 -0.602083 0.089224 0.164965 -0.029311 -0.015249 -0.142876 0.038039 -0.643616 0.663910 -0.494026 -0.097712 -0.450694 -0.288195 0.029887 -0.444744 -0.366100 -0.345879 -0.009717 -0.610827 0.151307 -0.002319 0.194335 0.067550 0.582105 -0.161807 -0.347234 -0.801962 -0.309849 -0.312581 0.295602 0.336213 -0.292883 -0.739124 -0.093781 -0.117843 -0.086631 0.299739 -0.088748 -0.509726 -0.255873 0.246898 -0.277423 0.023650 0.479933 -0.421941 0.001879 0.272290 0.250047 -0.358271 -0.206432 -0.117606 0.156057 -0.607989 0.111506 0.098625 -0.932018 -0.084593 -0.187224 -0.448530 0.321667 0.361163 0.401549 0.393599 -0.191902 -0.237184 -0.423075 0.458476 0.089703 -0.876684 0.255044 -0.125436 -0.482043 0.084051 -0.051626 0.046814 0.158836 0.294570 -0.550438 -0.018965 -0.344554 -0.194479 0.301491 0.165944 0.410721 -0.257468 -0.238219 -0.276642 0.174373 0.305598 0.053502 0.112683 -0.307612 -0.065966 0.130343
3120 0.218563 -0.267917 -0.315656 0.168061 -0.041470 -0.095550 0.028406 -0.087462 0.085444 -0.361318 0.148581 0.403194 -0.114428 -0.247988 0.162770 -0.001725 0.292463 -0.297176 -0.196053 0.622678 -0.061950 0.728115 0.552396 -0.245384 -0.293299 -0.045781 -0.664104 -0.067699 -0.105613 0.068020 -0.165229 0.003824 0.204954 0.162360 0.185147 0.442642 0.017298 -0.055508 0.125726 0.184197 -0.583052 -0.212026 0.483069 -0.575306 -0.075891 -0.444100 -0.077721 -0.160066 0.179578 -0.376756 0.529604 0.369125 0.155577 0.208188 -0.549207 0.279689 0.373847 -0.021615 -0.526560 -0.329783 -0.036265 -0.568791 -0.641532 0.091350 0.492667 -0.488474 -0.082677 0.084956 -0.110427 -0.725054 -0.252167 0.041375 -0.127486 -0.071071 -0.383409 0.125952 -0.087248 0.436363 -0.089152 0.015328 -0.162184 0.143415 -0.638238 0.643517 0.242556 0.217161 0.425874 0.213989 0.209647 -0.213890 -0.302272 -0.177283 -0.242875 0.212640 0.853862 0.064201 0.328345 0.188323 -0.085801 0.362718 0.683967 -0.216362 -0.285085 0.425368 0.385766 0.321516 -0.186704 -0.122063 -0.000046 -0.804035 -0.178387 -0.302608 -0.114400 0.196575 0.028690 -0.072063 -0.278502 0.942857 -0.529472 -0.500756 0.204750 0.587191 0.226794 -0.142022 -0.244501 0.060580 -0.437235 0.410495
1917 -0.021557 -0.367767 0.292013 0.171107 -0.113076 -0.154539 -0.337764 -0.025308 -0.132225 0.282995 0.095525 0.503322 0.214076 -0.042459 0.046671 -0.373193 -0.266225 -0.253091 0.304371 0.144543 -0.216981 0.818281 0.433191 0.334930 -0.108568 0.334192 0.178280 0.063049 0.078358 0.029916 -0.274200 0.008601 -0.054842 0.456047 -0.204598 0.749869 0.231409 0.327146 0.195485 -0.180177 0.051340 -0.198401 0.858977 -0.375999 -0.207007 -0.344949 0.048438 -0.182805 -0.303744 0.109805 -0.041766 0.401288 -0.433527 0.333184 -0.163853 0.368994 0.075147 0.267469 -0.386297 -0.455017 -0.561549 -0.634790 -0.250778 0.118211 0.306698 -0.405505 -0.622622 -0.350711 0.119400 -0.115988 0.537763 -0.030267 -0.024543 -0.316614 -0.011812 -0.025899 -0.224351 0.440470 -0.139091 -0.155439 -0.262150 -0.350599 -0.140410 -0.294215 0.170516 -0.172917 -0.167180 0.054422 -0.081328 -0.442451 -0.071747 -0.311121 0.173387 -0.057837 0.532277 0.165310 0.585448 -0.183902 -0.165372 -0.665362 0.606574 -0.127894 -1.036088 0.698698 0.371815 -0.503015 -0.022348 -0.071873 -0.372645 0.207363 -0.139876 -0.955325 -0.139659 -0.186520 0.104587 0.058121 0.285554 0.348797 -0.528371 -0.253080 -0.259697 0.426740 0.029749 -0.047022 -0.284117 -0.083538 0.190248 0.085314
451 0.037178 -0.238716 -0.232380 0.333115 -0.027308 -0.068222 -0.697295 -0.276474 -0.313092 -0.289215 0.056835 0.141137 0.258014 0.143140 0.400819 -0.247133 -0.417172 -0.335698 0.175837 0.271799 0.074808 1.042868 0.701763 0.262900 -0.412052 -0.092252 0.124055 -0.082169 0.198777 0.199091 -0.056319 0.133653 -0.142106 0.317244 -0.367298 0.363481 0.316619 0.304148 -0.024303 -0.388782 -0.271408 -0.299800 0.577133 -0.408815 -0.418729 -0.173861 0.234206 -0.074878 -0.225852 -0.295982 -0.075671 0.014477 -0.425168 -0.177458 -0.055797 0.285132 -0.010844 0.435951 -0.358822 -0.174085 -0.746010 -0.417597 -0.410456 0.041078 0.536563 -0.264759 -0.389326 -0.430909 -0.229490 0.220126 0.344715 0.028524 -0.253257 -0.277053 0.277686 -0.162144 -0.139916 0.567019 -0.117073 -0.191540 -0.062009 0.253551 -0.434249 -0.360697 -0.307710 0.017580 -0.393846 0.147764 0.205930 -0.492771 0.148588 -0.259018 0.128006 -0.090679 0.202830 0.526616 0.700797 -0.009540 -0.096188 -0.740792 0.360241 -0.188187 -0.494953 0.168228 0.123643 -0.660101 -0.179998 -0.186869 -0.175299 -0.016826 0.049968 -0.608675 0.331401 -0.540059 0.100755 -0.146488 0.274400 0.208544 0.100449 -0.060950 0.016320 0.221655 0.490626 0.570752 0.004651 0.192302 0.038817 0.174824
1910 0.205876 -0.518933 0.273470 -0.203259 -0.065112 -0.125710 -0.522860 -0.157637 -0.010903 -0.096177 -0.001598 0.442619 0.196718 -0.200609 0.054681 -0.314354 -0.135821 -0.118318 0.096104 0.432009 -0.351585 0.761478 0.293031 0.307124 -0.164982 0.347716 0.262429 -0.078266 0.318329 0.163113 -0.405101 0.143388 -0.049287 0.712673 -0.247523 0.581173 0.142148 0.388928 0.252496 -0.111978 -0.120214 -0.178369 0.906626 -0.252641 -0.055824 -0.179565 -0.161291 -0.261992 -0.114274 0.262268 -0.129251 0.316317 -0.368837 0.215216 -0.061946 0.289579 -0.023381 0.258175 -0.601398 -0.374497 -0.588145 -0.684670 -0.243129 -0.042282 0.315771 -0.136277 -0.517492 -0.405259 -0.010095 -0.299667 0.602202 -0.164315 -0.046112 -0.209848 0.240291 0.194652 -0.276974 0.495307 -0.306752 -0.127305 -0.287540 -0.227501 -0.190161 -0.350796 -0.036206 0.061430 -0.204583 -0.145654 0.072482 -0.591773 0.107933 -0.492574 0.320106 -0.042520 0.549132 0.163029 0.496884 -0.066897 0.021198 -0.573678 0.739644 -0.236287 -0.978088 0.498324 0.433949 -0.366499 -0.105013 0.031392 -0.519798 0.226671 -0.325883 -0.879343 -0.291986 -0.198606 -0.110020 -0.269074 0.290275 0.106499 -0.270976 -0.284275 -0.156947 0.325036 0.007423 0.036552 -0.405294 0.135657 0.187483 0.049691
285 0.044091 -0.149758 -0.114055 -0.165971 0.273007 -0.088268 -0.099237 -0.201185 -0.123057 -0.028229 0.276192 -0.143307 0.075038 -0.554871 -0.188748 -0.443684 0.085537 0.085511 0.368619 0.591203 0.474057 0.425350 0.239348 0.299867 -0.028522 0.102691 -0.332609 0.032086 0.081883 0.575007 0.058055 -0.304086 -0.259141 0.467754 0.225255 0.272529 -0.337552 0.000245 0.212491 0.753392 -0.191243 -0.065522 -0.143807 -0.297156 -0.468459 -0.200630 -0.236164 0.250635 -0.451659 -0.134904 -0.306709 0.308979 -0.095120 -0.254655 0.504721 -0.622274 -0.316518 0.033634 -0.602784 -0.213060 -0.157250 -0.368501 -0.542296 -0.051316 0.189883 -0.429404 -0.220916 -0.431768 -0.628125 -0.186257 -0.246166 0.069134 0.106719 -0.390026 0.265076 -0.514620 0.073315 0.316644 -0.376644 -0.240687 0.415100 0.222825 0.260359 -0.234234 0.205028 0.065481 0.444571 0.314182 0.304718 -0.244870 0.179691 -0.125313 -0.280046 -0.205056 -0.173913 -0.053005 -0.390594 0.229917 -0.320498 -0.245055 -0.086920 0.225353 -0.021928 0.306530 0.482820 0.169812 -0.500857 -0.225878 0.235585 0.002663 0.165967 -0.405249 -0.418132 0.467754 0.257224 0.326962 0.353390 0.603776 0.448961 -0.158859 -0.144837 0.007925 0.365087 0.159661 -0.061528 0.091154 -0.190167 0.205816
1282 0.487670 -0.802434 0.236363 0.115562 -0.020409 0.496590 -0.678929 -0.233932 0.544647 -0.069976 0.307281 0.579456 -0.411457 0.408055 0.143871 0.190655 0.116980 0.244589 0.232601 0.172998 -0.351017 0.430469 0.444070 -0.194712 0.354106 -0.356242 -0.489384 -0.455459 0.456771 0.355053 -0.138427 0.288601 -0.262143 0.191748 0.358779 -0.009558 0.681407 0.392923 -0.105499 0.024950 -0.660115 -0.010055 0.881713 -0.453967 -0.461280 -0.046834 -0.615759 0.039297 -0.515284 -0.099498 -0.608165 0.559571 -0.491231 -0.497553 0.255150 -0.041656 0.615495 -0.681619 -0.014410 -0.180773 -0.429557 -0.349949 -0.402456 0.078776 0.278060 -0.403198 -0.097336 -0.403546 -0.787386 -0.099250 -0.139250 -0.287634 -0.309177 0.205941 0.097336 0.102278 0.037036 0.487871 -0.385284 0.007064 -0.557970 0.035950 -0.302542 -0.451017 -0.025794 0.406021 0.422914 0.251632 0.302243 -0.904668 -0.538960 -0.573164 -0.887363 -0.310831 0.319397 -0.043740 -0.206324 0.846889 0.130460 0.161847 0.551250 -0.806216 -0.402148 0.192996 0.506207 0.118696 -0.174386 -0.438370 -0.680408 -0.346032 -0.017572 -0.204749 -0.047439 -0.065188 -0.193491 -0.009294 -0.190113 -0.009148 -0.143822 -0.160444 0.033755 0.175570 0.311397 0.283552 -0.535448 0.190574 0.086012 0.085786
1204 -0.082680 -0.344458 -0.301709 0.091840 -0.052498 -0.062717 -1.017658 -0.399349 0.158271 0.312408 -0.152085 0.417807 0.130374 -0.015963 0.104346 -0.159039 0.292102 0.095538 0.239867 0.389612 0.396789 0.802432 -0.528214 0.313471 0.236276 0.210490 -0.089745 -0.607396 -0.029667 -0.025802 0.179985 -0.130442 -0.056235 0.428246 0.218171 0.374102 0.241536 -0.167011 0.252012 0.484886 -0.344807 0.163813 0.557370 -0.338853 -0.402562 -0.214688 -0.645829 0.414724 -0.531068 -0.119702 -0.456918 0.068938 -0.114849 -0.308404 0.052563 -0.686760 -0.397201 -0.055072 -0.786758 -0.170895 0.125005 -0.251720 -0.456355 -0.503892 -0.184446 -0.117692 -0.506412 -0.265548 -0.200002 -0.169053 -0.138279 0.293019 -0.122215 -0.158471 -0.070232 -0.009308 0.673201 0.819467 -0.366501 0.044043 -0.397282 0.611598 -0.682118 -0.140678 0.215780 0.157444 0.464774 0.000245 0.174334 0.054232 0.046903 -0.534678 -0.091943 -0.055254 -0.088005 0.264804 0.276687 0.587919 -0.046725 -0.006237 0.156763 -0.030152 0.227246 -0.001725 -0.200467 -0.075054 -0.069254 0.032120 -0.292667 0.159644 0.034020 -0.572805 -0.550859 0.492277 0.073148 0.191584 0.250045 0.460274 -0.021712 0.020647 0.067633 -0.168312 0.205626 -0.260946 -0.141954 0.508230 -0.226089 0.201922
1757 -0.114787 -0.484254 -0.331563 -0.008458 0.116071 -0.107232 -0.534407 0.274316 0.142811 -0.042113 -0.251739 -0.350320 0.647588 -0.325322 0.134955 -0.682991 -0.094129 0.441930 0.040737 0.369120 -0.495205 0.327508 0.070087 0.176102 -0.444216 -0.036210 -0.140934 0.112758 0.112366 0.291541 -0.462565 -0.437467 0.161813 0.732857 -0.022075 0.000711 -0.467618 0.252241 0.170293 0.295649 -0.499282 -0.280847 0.142787 -0.591643 -0.218100 -0.092156 -0.556322 -0.001244 -0.219798 -0.124778 -0.305763 0.474715 0.183721 -0.056595 0.077299 -0.186886 0.175547 -0.375835 0.020333 -0.350268 -0.494885 -0.175001 -0.558109 0.169058 -0.528159 -0.596201 0.085483 -0.322913 -0.273814 -0.213345 0.243329 0.114482 -0.079735 -0.193428 0.174933 0.247033 0.544687 0.142199 -0.566358 -0.061974 0.399935 0.839097 -0.276248 -0.610421 0.420952 0.517722 0.450157 0.208649 0.393095 -0.047986 0.456825 0.231369 -0.201061 -0.174226 0.109872 0.216008 -0.028056 0.179355 -0.140430 0.155092 -0.125813 -0.307154 -0.319985 0.564210 0.249778 -0.033269 -0.063852 0.138352 -0.288838 -0.080901 0.389932 0.005511 -0.254633 -0.116351 0.155337 0.280800 -0.076382 0.268043 0.072017 -0.592192 0.596745 0.551180 0.079838 0.187854 0.092175 0.424292 -0.263997 -0.138846
115 0.330392 -0.398932 -0.047188 0.402816 -0.291983 -0.486863 -0.729757 -0.057560 -0.759159 0.345470 0.086342 0.252044 0.125332 -0.141890 0.204096 -0.129437 -0.378269 0.304831 0.223445 -0.220742 -0.081737 0.766757 0.569125 0.281908 -0.073501 -0.483121 -0.125227 0.360563 0.651373 -0.002091 -0.130740 0.118022 -0.251370 0.150498 0.044576 0.310000 0.209065 0.136724 -0.058797 -0.207798 -0.421347 -0.013626 0.259917 -0.689028 0.069755 -0.238573 -0.068455 -0.255832 -0.304385 -0.417862 -0.167823 0.275725 -0.479556 0.072480 0.155896 0.476654 0.031932 0.342706 -0.365437 -0.062408 -0.489513 -0.232765 -0.086466 0.015271 -0.125587 -0.207007 -0.488113 -0.227253 -0.362249 0.031937 -0.329543 -0.212777 -0.374240 -0.187779 -0.094059 -0.234809 -0.148650 0.223866 -0.798934 -0.272613 -0.012364 0.091829 -0.442530 0.098030 -0.084999 -0.182121 0.074535 0.180493 -0.249184 -0.695336 0.169928 -0.092077 0.164284 -0.163723 0.549421 0.578742 0.515444 0.183891 -0.146094 -0.515163 0.497736 -0.230398 -0.408855 0.096980 0.465448 -0.232854 -0.448236 0.087056 0.072145 -0.383937 0.242624 -0.699673 -0.165219 -0.493802 0.154463 -0.068553 0.162733 0.526519 -0.256408 0.004939 -0.106713 -0.304681 0.464086 -0.280341 -0.206787 -0.424978 -0.272117 0.338095
3128 -0.235937 -0.588470 -0.267781 0.310580 -0.037474 -0.360603 -0.582608 -0.162646 -0.148397 -0.403059 0.137411 0.096518 -0.014574 0.275336 0.272152 -0.380277 0.026349 -0.240314 0.174940 -0.120858 0.046609 0.446282 0.083785 0.408681 -0.323375 0.083534 -0.023331 0.013205 0.501819 0.129714 -0.211614 -0.283945 0.063644 -0.334013 0.176910 0.761893 0.195556 -0.186345 -0.125342 -0.007785 -0.363933 -0.350637 0.067971 -0.865871 -0.674965 -0.224793 0.336919 -0.291974 0.343910 -0.308506 -0.611893 -0.106443 -0.275969 0.561243 0.405144 0.164379 0.265574 -0.187955 -0.038413 -0.381598 -1.122159 -0.965032 0.110461 -0.072282 -0.094336 -0.306492 -0.329619 -0.715335 -0.277036 -0.125060 -0.407062 -0.038892 -0.068507 -0.201138 0.102331 -0.079168 -0.262955 0.358812 -0.641824 -0.419315 0.029747 0.170508 -0.342838 -0.128760 -0.096568 -0.193557 0.042436 -0.230946 0.032859 -0.583852 -0.398919 0.219109 -0.034769 -0.335547 0.571945 -0.034183 0.365951 0.022286 -0.038701 -0.669956 0.408787 -0.407775 -0.214939 -0.030175 0.734625 -0.337454 -0.271679 0.491688 -0.251779 -0.051527 -0.279204 -0.758220 -0.022558 0.176523 0.382669 -0.293673 0.464067 0.404127 -0.239692 -0.039792 0.110616 0.455733 0.710727 -0.038753 0.090885 0.010699 0.203081 0.027574
2264 -0.589249 -0.607725 0.167343 0.675714 0.183202 -0.908342 -1.061336 -0.398410 0.929557 0.518255 0.982140 0.413658 0.431203 -0.452273 -0.168148 0.139349 0.733515 0.468741 -0.181303 0.682504 -0.676617 0.018573 0.086172 -0.345140 -1.175606 -0.065958 -0.445951 -0.556148 0.024803 0.070757 0.245317 0.438100 -0.109343 0.273741 0.348758 0.460982 0.146705 0.174482 -0.082930 0.430135 -1.080746 0.220879 0.074198 -0.616883 -0.664259 -0.578960 -0.255576 -0.049380 -0.181270 -0.455514 -0.913026 0.370551 0.263882 0.840061 -0.110464 0.373969 0.699823 -1.062892 -0.106185 0.050776 -0.576096 -0.196719 -0.216106 -0.178208 -0.087048 -0.532380 -1.138112 -0.561793 -0.302226 -0.212421 -0.034089 0.443672 -0.253658 0.187306 0.192239 -0.313283 0.927063 0.009796 -0.124504 -0.511226 0.163217 0.293492 -0.248341 0.096851 0.300748 1.242527 0.729974 0.735701 0.070548 -0.448812 0.323593 -0.221897 -0.266399 -0.270984 0.967767 0.146700 0.100091 0.629215 0.283972 0.024706 0.531814 -0.951555 0.177176 0.640269 -0.037969 0.432663 0.069494 0.210729 0.015796 0.240555 -0.627293 -0.400449 -0.127847 0.679250 0.484719 0.460310 0.065559 -0.199196 -0.159571 0.006080 -0.196636 -0.175914 0.575893 0.016486 -0.858630 0.227585 0.402362 0.769547
1493 -0.009923 -0.698285 0.009823 0.107801 0.378646 -0.221017 -0.669203 -0.242369 0.184140 -0.249252 0.453839 -0.009193 0.262798 -0.290898 -0.394879 -0.121760 0.024245 -0.321203 -0.170696 1.068428 -0.409053 0.473586 0.574668 -0.052450 -0.136498 -0.192295 0.067554 -0.223383 0.226030 0.208738 0.123020 0.671343 0.109361 0.000389 -0.490050 -0.095529 0.174989 -0.092911 0.050629 0.231486 -0.030020 -0.479982 0.387690 -0.838086 0.022500 -0.734404 -0.482385 0.336255 -0.001397 -0.454680 -0.612005 0.050089 -0.473635 0.073995 -0.159302 0.047402 0.330298 0.206002 -0.092636 -0.287555 -0.292613 -0.308764 -0.664995 0.403146 0.217048 -0.436101 -0.726000 -0.290893 -0.224440 -0.267042 0.298649 0.343842 -0.511293 -0.311041 0.242129 0.161228 0.192359 0.520392 -0.691211 0.429813 0.341260 0.416734 0.220118 -0.256429 0.002387 0.249475 -0.481868 0.164941 0.003727 -0.715178 -0.114755 0.257187 -0.545521 0.036223 0.271810 0.560262 -0.015422 -0.043570 -0.066802 -0.180649 0.222239 -0.052619 -0.709963 0.423768 -0.050977 -0.139290 -0.070739 -0.083255 0.040354 0.247600 0.346217 -0.451859 -0.163426 -0.192857 0.150901 0.763178 0.369805 0.228279 -0.108564 -0.557615 -0.179312 0.082122 0.218825 0.156542 0.292943 0.097160 -0.107088 0.094638
947 -0.227181 -0.266021 -0.304165 -0.223324 0.127781 -0.236576 -0.314327 -0.033100 0.073255 0.262143 0.161881 0.224081 0.463527 -0.303095 0.047068 -0.507441 0.154157 0.215711 0.127418 0.284307 -0.035167 0.478223 -0.031540 -0.033783 0.036599 0.253406 -0.422551 -0.178695 0.002732 0.502799 0.442028 -0.200621 0.127814 0.477798 0.033966 0.142114 0.177825 -0.229168 0.266416 0.476100 -0.265892 0.033633 0.234209 0.279076 -0.285336 0.112443 -0.556321 0.231392 -0.186624 0.028857 -0.038106 0.653760 0.064739 -0.375367 0.061570 0.046660 -0.304550 -0.112400 -0.363167 -0.240258 -0.009948 -0.090142 -0.557866 -0.170394 0.210258 -0.086494 -0.646829 0.044544 -0.608145 -0.027244 -0.044658 -0.105055 0.242035 -0.561296 0.151819 -0.044291 0.293580 0.399819 -0.433725 -0.052852 -0.238218 0.535522 -0.272061 -0.308237 0.185958 0.277693 0.512425 0.148490 0.167369 -0.159982 0.202272 -0.102195 -0.094379 0.553807 0.144591 0.156476 -0.265304 0.449300 -0.675961 -0.062853 -0.127259 -0.374563 -0.039608 0.124918 -0.053737 0.081872 -0.456787 -0.227324 -0.491214 -0.198362 -0.061975 -0.235158 -0.308263 0.441622 0.380439 -0.001577 0.252186 0.466859 -0.107964 0.028948 0.113105 0.292901 0.051334 -0.379814 -0.160521 0.732630 0.170040 0.728260
1610 0.267553 0.024885 -0.122861 0.267979 -0.041704 -0.416336 -0.512804 -0.384082 -0.149057 0.076463 -0.249866 0.144548 0.007192 0.200448 -0.035786 0.138459 -0.404988 0.209313 -0.167861 0.353764 -0.335948 1.236561 0.515259 0.185808 -0.137344 -0.641668 -0.095425 0.243527 0.428215 0.124836 -0.313475 0.198991 0.159756 0.238484 0.228668 0.436020 0.421110 -0.366061 -0.250201 -0.044876 -0.654576 -0.333957 0.479391 -0.597148 0.227949 -0.248859 -0.522996 -0.312019 -0.497639 -0.164275 -0.151852 0.152114 -0.943617 0.213543 0.284249 -0.080374 0.077829 0.156000 -0.506483 -0.189802 -0.852760 -0.258701 -0.209076 -0.036099 -0.229006 0.069975 -0.689446 0.006223 -0.107303 -0.142792 -0.088284 0.041199 -0.254824 -0.346440 -0.270233 -0.446948 -0.399574 0.341792 -0.507200 0.112897 -0.510419 -0.182656 -0.410704 0.301876 -0.073642 -0.194904 0.000344 -0.144348 -0.164226 -0.566613 -0.110927 -0.361534 0.144143 0.312153 0.754339 0.629094 0.521491 0.043926 -0.008020 -0.680119 0.607551 -0.285539 -0.719587 0.250409 0.326558 -0.247719 -0.399044 0.025354 0.035877 -0.749199 -0.247576 -0.938637 -0.260763 0.190450 0.156971 -0.128256 0.045992 0.636395 -0.448545 -0.239952 0.343780 -0.079627 0.389867 0.046171 -0.190125 -0.391558 -0.159189 0.236262
2675 -0.133344 -0.409867 -0.004763 -0.070998 -0.390023 -0.382056 -1.205624 0.047737 0.492284 0.120718 0.115338 -0.198922 0.432567 -0.068913 -0.082118 -0.066020 0.682916 0.359815 -0.539176 0.710915 0.554319 0.464153 0.954167 0.134222 -0.240309 0.278695 -1.100841 -0.141204 0.828966 0.850719 -0.474424 0.642371 0.234569 0.502449 -0.053682 0.945475 0.618677 -0.001011 0.033516 0.359238 -1.014203 -0.316926 0.283027 -0.973995 -0.539418 0.033934 -0.210959 0.090220 -0.488419 -0.403903 -0.581646 -0.305148 -0.021185 0.465445 -0.436997 0.370995 0.353348 -0.704492 -1.156010 0.267372 -0.712993 -0.563504 -0.356809 0.095289 -0.090972 -0.392707 -0.258445 -0.784467 0.260038 0.139908 0.210442 0.300521 0.462314 0.454020 0.346630 -0.308230 0.328914 0.125955 0.082238 0.388079 0.065620 0.426285 -0.411571 -0.404273 0.204906 0.677399 0.518992 0.141481 -0.286011 0.136957 -0.357662 -0.413466 -0.275291 0.219032 0.728470 0.252106 -0.361449 0.833022 -0.468005 0.087668 0.953523 -0.072588 -0.310142 0.935936 0.535052 -0.363849 0.979529 0.011383 -0.847502 -0.446425 -0.167882 -0.479316 -0.227159 0.422127 -0.168382 0.245481 0.213109 -0.098125 -0.305786 -0.614480 0.329586 -0.255776 0.305263 0.260035 0.501941 0.298992 0.164318 -0.508450
3039 -0.044144 -0.146197 0.027225 -0.367876 0.134356 -0.374382 -0.726120 -0.528010 -0.519469 0.290699 0.133215 0.614638 0.006306 -0.090881 0.076397 -0.288041 0.363831 0.149763 0.316541 0.616531 0.856393 0.884929 0.002459 0.161170 -0.203219 -0.558144 -0.268486 -0.684349 0.040949 0.129181 0.100829 -0.029824 -0.129420 0.632674 0.289309 0.178639 -0.243086 -0.028095 0.062827 0.337706 -0.413707 -0.082127 0.417270 -0.135729 0.180376 0.293598 -0.412899 0.505228 -0.579505 -0.227135 -0.357634 0.223313 -0.343599 -0.287669 0.204783 -0.083118 -0.280350 -0.207569 -0.401172 -0.316254 -0.159824 -0.627976 -0.507111 0.010014 -0.274769 -0.015195 -0.269641 -0.281518 -0.541770 -0.228502 -0.347007 0.221682 -0.292842 -0.452830 0.251986 -0.193548 0.140303 0.117727 -0.253987 -0.180579 -0.470168 0.186263 -0.271184 0.154921 0.397807 -0.003419 0.553442 0.000872 0.447388 0.087128 -0.259759 0.149687 -0.455830 -0.251588 0.012271 0.093520 -0.466272 0.743488 0.134230 -0.082686 -0.158546 -0.163521 0.338821 -0.054593 0.393635 0.419378 -0.518469 -0.314822 -0.242078 0.304656 -0.181262 -0.453443 -0.227791 0.155714 0.301578 -0.047612 0.406413 0.269121 -0.006838 -0.281577 0.311318 -0.076182 0.512902 -0.043353 0.168096 0.313725 0.043130 0.237291
124 -0.154874 -0.569621 -0.367939 0.151361 0.777426 0.154494 -0.261179 -0.354695 0.025304 -0.226428 0.278166 0.326963 0.143300 0.057796 -0.494485 -0.430528 0.535760 0.561279 0.975347 0.022222 0.053290 1.173578 -0.006127 -0.074057 -0.822061 -0.247917 -0.489546 -0.883392 0.480163 -0.061726 -0.338110 -0.202082 0.474625 0.230244 0.317659 0.495428 0.055709 -0.292821 0.016585 -0.024156 -0.774093 0.328187 0.570253 -0.760559 -1.079400 -0.772407 0.397632 -0.032019 -0.122102 -0.145608 -0.536366 0.359475 -0.086665 0.405402 -0.828069 -0.052826 -0.035422 -0.009232 0.038081 -0.208090 -0.853054 -0.570542 -0.708821 0.703780 0.180277 -0.383766 -0.871569 0.170308 -0.618132 -0.278138 -0.281745 0.171287 0.302481 -0.295432 0.064113 0.139806 -0.148331 0.824120 -0.289340 0.576303 -0.173015 0.021648 -0.293024 -0.032045 0.116787 0.288445 0.783000 0.542899 0.671497 -0.098299 0.142584 0.255448 -0.636276 -0.270460 0.781663 -0.106166 0.093476 0.145489 -0.020491 -0.407939 0.379464 -0.319124 0.111376 0.616282 0.378695 -0.431274 0.537069 0.000456 -0.380854 -0.390190 0.388239 -0.326729 0.358268 -0.403054 -0.415135 0.533677 0.144794 0.209558 0.707715 0.361839 0.537519 0.274494 0.711490 0.599131 -0.812582 0.114454 -0.327720 0.562164
2973 -0.002546 -0.556597 -0.224211 1.048449 -0.052668 -0.507323 -0.346568 0.075957 -0.091596 0.054898 0.104626 0.274941 0.276875 0.460318 -0.302560 -0.143856 -0.254706 0.288908 0.202735 0.269804 0.498587 0.507533 0.329538 0.605282 -0.250832 -0.241817 -0.840998 -0.189654 0.196661 -0.269881 0.189124 0.239511 0.355506 -0.118939 0.379404 0.283903 0.499100 0.013576 0.386027 0.213589 -0.483435 0.099491 0.145078 -0.948422 -0.130330 -0.465528 0.106174 -0.088004 0.230809 -0.288102 0.052219 0.673887 -0.106099 0.629122 -0.321768 -0.029200 0.603793 -0.459565 -0.327446 0.436402 -0.182932 -0.572616 0.119792 -0.170563 -0.050598 -0.614336 -0.507309 -0.426041 -0.519338 0.211051 0.311298 0.269931 0.161378 -0.424574 0.311518 -0.049947 -0.177918 0.387610 -0.655880 -0.343914 -0.206675 0.582249 -0.261602 -0.257722 0.046289 0.047406 0.401069 0.494587 -0.441117 -0.093499 -0.194036 0.117031 -0.327934 -0.159306 -0.279299 0.096569 0.611258 0.267985 -0.247575 -0.657139 0.652733 0.010423 0.089054 0.305780 0.353486 -0.514988 -0.203954 0.366083 -0.311287 0.061094 -0.051838 -0.305985 0.174481 -0.027982 0.621007 0.395893 0.552498 0.396111 -0.285786 0.137929 -0.077871 -0.469067 0.576652 -0.321434 0.020036 0.467527 0.360208 0.074283
957 0.390601 -0.356900 -0.095646 -0.366137 0.283592 0.101438 -0.468121 -0.005530 -0.796295 -0.043558 0.040999 0.223287 0.093285 -0.235919 0.423472 -0.243541 -0.108548 0.024618 0.435418 0.693041 -0.019686 0.240483 -0.155455 -0.023681 -0.142626 0.262112 -0.589082 -0.422149 -0.131135 0.695609 -0.247302 -0.222232 -0.070496 0.313664 0.163512 0.221067 0.073712 0.262547 -0.281728 0.474189 0.148037 0.144742 0.164721 -0.570162 -0.348277 0.265384 -0.125806 -0.277875 -0.194163 0.048653 -0.523526 0.707795 0.190637 0.122614 0.112794 0.002706 0.083702 -0.055471 -0.109001 -0.145452 -0.211636 -0.373092 -0.343583 0.243006 -0.065174 -0.123719 0.056127 -0.012506 -0.299810 -0.084205 -0.584317 -0.180156 -0.058829 -0.036031 0.013121 -0.258669 -0.070275 0.651636 -0.412384 -0.372225 0.028653 0.209325 -0.165543 -0.541260 0.659411 -0.103312 0.330918 0.216272 0.526327 -0.561283 -0.147144 -0.136146 -0.590909 0.354917 -0.140514 -0.114918 -0.103863 -0.054867 -0.556939 -0.163874 0.199030 -0.499510 -0.358568 0.195921 -0.409735 0.023148 -0.638438 -0.385345 0.023325 0.270711 0.087823 -0.082313 -0.490782 -0.095642 -0.268450 -0.404768 0.192044 0.650776 0.261110 -0.585245 -0.047760 0.286614 0.227049 0.123820 -0.379639 0.251127 -0.695584 0.355810
165 -0.168066 -0.163574 -0.398133 -0.230155 0.176110 -0.133312 -0.792576 -0.156839 0.140319 0.345619 0.177875 0.093105 0.547327 -0.309253 0.031611 -0.321771 0.189465 0.183865 0.068384 0.505088 0.407695 0.470522 0.159585 0.181666 0.085704 0.336502 -0.292175 -0.258999 -0.007775 0.224655 0.551480 -0.122395 -0.089299 0.513202 0.257223 0.380871 -0.096426 -0.246060 0.436301 0.512697 -0.366372 0.030708 0.334739 0.187064 -0.170610 0.130239 -0.510106 0.248460 -0.425594 0.050890 -0.286363 0.604872 0.141845 -0.282146 0.142115 -0.358463 -0.148375 0.001120 -0.403501 -0.082137 -0.185939 -0.182330 -0.572593 -0.510674 0.052287 -0.099802 -0.458773 -0.121867 -0.572169 -0.057028 0.232208 -0.150344 0.078567 -0.564938 0.257383 -0.205189 0.351791 0.458506 -0.400964 -0.385684 -0.117580 0.599581 -0.440706 -0.115519 0.087646 0.456071 0.381161 0.051646 0.149271 0.000651 0.198164 -0.393536 -0.075337 0.311017 0.162550 0.077109 -0.216997 0.399572 -0.323802 0.110845 0.165452 0.045189 0.096953 0.091207 -0.371391 0.123699 -0.145137 -0.111137 -0.162591 -0.077810 -0.054904 -0.325335 -0.740901 0.355701 0.238587 -0.024522 0.417306 0.632156 -0.015055 -0.087266 0.025683 0.156776 0.310460 -0.210166 -0.041714 0.641733 -0.018113 0.413921
188 0.232582 -0.268672 -0.293234 0.151428 -0.123088 -0.145193 0.051333 -0.163063 0.086898 -0.331570 0.438889 0.387809 -0.057897 -0.419471 0.333202 0.025476 0.300359 -0.068236 -0.020382 0.644369 -0.316165 0.591820 0.677916 -0.234645 -0.404890 -0.036735 -0.440007 0.037769 -0.252016 0.036214 -0.332109 -0.059503 0.041159 0.100503 0.226565 0.667194 0.023442 0.201649 0.066262 0.295315 -0.516921 -0.161496 0.454534 -0.605026 -0.269900 -0.596315 0.068090 0.066814 0.054667 -0.249831 0.472943 0.401131 0.346994 -0.021133 -0.611280 0.212099 0.630669 0.132212 -0.515775 -0.543083 -0.041119 -0.617457 -0.641442 -0.065678 0.379824 -0.581003 0.057851 0.224366 -0.239111 -0.821425 -0.405625 -0.070245 -0.291196 -0.069552 -0.214464 0.215619 -0.055641 0.758029 0.002449 -0.058349 -0.176927 0.154571 -0.688673 0.371258 0.302499 0.251477 0.289139 0.076153 0.280848 -0.340074 -0.244392 0.069546 -0.341277 0.043064 0.805878 0.078022 0.244243 0.109923 0.076008 0.382557 0.685643 -0.234415 -0.139259 0.209120 0.439209 0.231660 -0.157425 -0.375756 -0.121442 -0.769468 -0.166954 -0.175019 0.008282 0.035080 0.039736 -0.040204 -0.376311 0.761920 -0.382693 -0.336785 0.187682 0.755956 0.167155 -0.053736 -0.212592 0.156165 -0.312065 0.241423
368 -0.282883 -0.467540 -0.231366 -0.403492 0.173588 -0.136835 -0.347766 -0.207273 -0.230195 0.070713 0.069320 0.063938 0.284898 -0.377608 0.042097 -0.588890 0.125826 0.254016 0.170315 0.238925 -0.098382 0.232598 -0.466064 0.084022 -0.261205 -0.078388 -0.267748 -0.187957 -0.249736 0.189068 0.246360 -0.215127 -0.027044 0.619463 -0.129645 -0.023421 0.142051 -0.251008 0.240407 0.445042 -0.378250 -0.015593 0.037524 0.020847 -0.278873 -0.125439 -0.308844 0.221586 0.010667 -0.259477 -0.210907 0.591905 -0.250756 -0.380251 0.215094 -0.110333 -0.459640 -0.092059 -0.290780 -0.561382 -0.105688 -0.128484 -0.295038 0.298017 0.466485 -0.127318 -0.427834 -0.248637 -0.480030 -0.103256 -0.337231 0.107985 0.304771 -0.590660 0.001807 -0.299695 0.420373 0.216306 -0.336466 -0.072379 -0.119486 0.489428 0.221435 -0.182963 0.143324 -0.028359 0.325127 0.106832 0.146175 -0.436869 0.055733 -0.021381 -0.188271 0.266336 0.258023 0.248112 -0.427718 0.638379 -0.543490 0.025266 -0.214093 -0.135119 -0.174752 0.294562 0.176193 0.233253 -0.344788 -0.209137 -0.242770 0.056045 0.218722 -0.021587 -0.414582 0.565972 0.174686 0.200775 0.303101 0.620517 -0.123771 -0.280396 0.172153 -0.101419 0.568062 -0.170597 -0.091125 0.638232 -0.160458 0.415843
531 -0.009801 -0.312582 -0.025409 -0.525316 -0.207159 -0.168636 -0.235612 0.138840 -0.457254 0.149423 0.317145 0.192133 0.228822 -0.429951 -0.173541 -0.785560 0.367766 0.358907 0.094962 0.406655 0.014637 0.722988 -0.346350 -0.179295 0.029390 0.153478 -0.688858 -0.509131 0.028242 0.624545 -0.167258 -0.786067 -0.105864 0.132052 0.068119 -0.026360 -0.213002 -0.158080 0.037376 0.434078 -0.161168 -0.059829 0.172406 0.058001 -0.285351 0.307016 -0.286164 -0.120872 -0.096748 -0.081430 -0.085706 0.862764 0.166692 -0.004276 0.136847 0.285573 -0.210527 -0.077307 -0.002352 -0.089001 -0.422313 -0.089062 -0.519599 -0.220355 -0.528090 -0.300867 0.019981 -0.036082 -0.400413 -0.280357 -0.286136 -0.302336 0.410653 -0.253099 0.242520 -0.172379 -0.010572 0.516162 -0.450091 0.214610 -0.133599 0.104903 -0.003212 -0.177248 0.404207 0.482458 0.219506 0.332562 0.573884 -0.183581 -0.253497 -0.243334 -0.561185 0.109739 0.167566 -0.021184 0.034408 -0.086898 -0.154316 -0.468132 -0.184355 -0.407649 -0.024003 0.117180 -0.042341 0.046156 -0.242131 -0.252801 -0.290234 0.130751 0.169919 -0.185113 -0.558457 0.240317 0.096451 -0.130953 0.072070 0.473939 0.225648 -0.168706 0.192764 0.475571 0.028592 -0.277772 -0.226854 0.566584 -0.080629 0.360365
557 0.026127 -0.974462 0.175410 -0.256366 -0.374340 0.049808 -0.764706 0.504440 0.149124 0.345005 0.348299 0.596607 -0.294333 0.191314 -0.237964 0.122883 0.180388 0.252218 0.260234 0.559676 0.072086 0.564265 0.550350 0.395709 -0.128095 -0.058459 -0.578351 -0.337581 0.243972 0.060663 -0.383316 0.218583 0.176025 0.467503 -0.373769 0.851386 0.159925 0.192415 -0.183375 0.482984 -0.281676 0.596841 -0.050011 -0.672738 -0.403107 0.416707 -0.195801 0.168764 0.307211 -0.472131 0.271957 0.392125 0.189781 0.233997 -0.569627 0.577097 -0.036256 -0.713038 -0.521190 -0.520981 -0.546431 -0.612772 -0.208878 -0.211883 0.193195 -0.308155 -0.019813 -0.107064 -0.132876 -0.117897 0.040260 -0.063748 -0.055657 0.126435 0.162477 -0.399750 0.226285 0.198330 -0.495303 -0.725189 0.120395 0.257248 0.077111 -0.009346 -0.154076 0.561390 -0.429868 0.091388 -0.088048 -0.048315 0.356190 -0.192748 -0.065608 0.180760 0.323038 0.564451 0.203587 0.335900 0.147697 -0.519725 0.263933 -0.203195 -0.028842 0.197511 0.043322 -0.073926 -0.166869 0.318971 0.245771 -0.762909 0.063687 -0.571353 -0.127881 -0.075593 0.830431 0.051055 0.495561 0.452164 -0.119503 0.070092 -0.270129 0.314878 0.460958 -0.462979 0.090407 0.220895 -0.005784 -0.080077
1105 0.354772 -0.553036 -0.324924 0.693527 0.129894 -0.386578 -0.325642 -0.623084 0.121037 -0.493308 0.941950 0.581287 -0.149573 -0.405041 0.010124 -0.074503 -0.109672 0.109178 0.102122 0.508750 -0.205453 0.690511 0.382793 -0.112756 -0.077370 -0.148909 -0.130563 0.081237 -0.062343 0.092643 -0.637919 0.413973 -0.288508 0.049446 0.039948 0.510150 0.115801 0.044931 0.017138 0.584555 0.162020 -0.063162 -0.038935 -0.156377 -0.230936 -0.657090 -0.338490 -0.173752 0.217338 -0.067472 -0.462354 0.560587 0.212412 0.059688 -0.121129 0.101716 0.843758 0.017498 -0.665698 -0.415458 -0.460974 -0.235511 -0.658952 -0.361302 0.313511 -0.843499 -0.185314 -0.605579 -0.625973 -0.371938 0.141199 0.156684 0.126881 -0.314576 -0.157038 -0.124538 -0.000645 0.193604 -0.107448 0.144893 0.652065 -0.271020 -0.043620 0.077390 0.033346 0.449532 0.526761 0.349426 0.085944 -0.517748 -0.091306 0.213536 -0.385940 -0.001240 -0.060677 0.355957 -0.161672 0.004425 0.096300 -0.821680 0.676072 0.041385 -0.540900 0.373155 0.596046 0.124864 0.326764 -0.029203 0.167706 -0.102239 0.266300 -0.334590 -0.151746 -0.002384 0.491954 0.143767 0.148764 0.616902 -0.027208 -0.415829 -0.011089 0.446653 0.354510 0.039675 -0.009708 -0.000603 -0.191439 0.330086
649 0.034028 -0.876934 -0.130027 0.385717 0.018648 -0.371512 -0.619241 -0.117113 0.260440 -0.189591 0.281319 0.286148 0.137934 -0.370732 -0.327251 -0.185086 0.138336 0.325043 -0.197148 0.822247 -0.560252 0.388903 0.370584 0.131496 -0.300290 -0.083146 -0.170735 -0.099357 0.274893 0.344487 -0.572409 0.096003 -0.074046 0.101222 -0.376953 -0.342108 -0.529568 0.305307 -0.013501 0.212776 -0.138423 -0.471939 0.150830 -0.589023 -0.104087 -0.496094 -0.542888 0.151066 0.390748 -0.062742 -0.367329 0.461903 -0.086004 0.126430 -0.176683 0.005683 0.896771 -0.166146 -0.207370 -0.221489 -0.173583 -0.327811 -0.442496 0.369449 -0.304893 -1.152622 -0.225503 -0.119762 -0.247524 -0.121397 0.376025 0.107041 -0.348058 0.049748 0.546099 0.285084 0.338217 0.216546 -0.506569 0.173941 0.862681 0.605349 -0.201526 -0.444746 0.220054 0.652483 0.161299 0.345242 0.426912 -0.672529 0.399493 0.419846 -0.568620 -0.255653 0.148995 0.400680 -0.422670 0.082635 0.175288 -0.391643 -0.020652 -0.342338 -0.730097 0.389883 0.487209 -0.133758 0.019906 0.239392 0.043395 0.294499 0.394679 -0.072004 -0.025236 -0.083058 0.251417 0.472245 -0.036097 0.065851 -0.024913 -0.781849 0.275206 0.295695 0.410482 0.052538 0.111381 0.098130 -0.517231 0.100596
955 0.063074 -0.271155 -0.056630 -0.058518 0.256510 0.165576 -0.233644 -0.019113 -0.440339 -0.254291 0.099518 0.225381 0.322420 -0.095876 -0.015777 -0.310525 -0.069469 0.307658 0.377378 0.837232 0.354579 0.410482 0.168334 0.283255 0.037966 0.381360 -0.570180 -0.271368 -0.292684 0.685292 -0.165352 -0.311580 -0.209304 0.230485 -0.028619 0.126809 0.001426 0.221721 0.239183 0.583408 -0.085998 0.105959 0.170288 -0.349041 -0.382358 0.414073 -0.139705 -0.171119 -0.255502 -0.023294 -0.447596 0.630221 0.021917 -0.105024 0.087169 -0.255114 0.026007 0.116101 -0.108007 -0.071459 -0.352903 -0.291811 -0.262285 -0.012814 0.094654 -0.386645 -0.057120 -0.213590 -0.342735 0.050696 -0.306601 -0.388764 0.133571 -0.316527 0.038105 -0.257230 -0.117435 0.507073 -0.487994 -0.594812 0.223341 -0.000791 -0.168835 -0.572316 0.682160 -0.108963 0.461247 0.364126 0.180664 -0.190774 0.021084 -0.282052 -0.641428 0.316078 -0.118931 -0.371787 -0.165310 -0.109234 -0.690892 -0.379611 0.006645 -0.141906 -0.249376 0.194944 -0.371976 0.048045 -0.475581 -0.181190 0.208339 0.439117 0.178013 -0.168706 -0.640000 0.075121 -0.157075 -0.441451 0.064817 0.552419 0.363855 -0.421034 0.014891 0.361780 0.170608 -0.065543 -0.508661 0.235003 -0.550607 0.242762
346 0.269962 -0.237184 -0.175494 -0.317725 0.168735 0.084772 -0.532611 -0.239650 -0.603462 -0.166862 0.091468 0.196195 0.074145 -0.326882 0.236139 -0.174005 -0.068811 0.125223 0.353951 0.497071 0.063529 0.364811 -0.283261 0.149615 -0.092272 0.332990 -0.518417 -0.442272 -0.183223 0.682167 -0.246043 -0.346493 -0.052662 0.150576 0.154284 -0.082676 -0.057091 0.269233 0.121343 0.294197 -0.007252 -0.068405 0.162936 -0.289935 -0.323463 0.150159 -0.160646 -0.185066 -0.213507 0.074889 -0.348921 0.762325 0.129149 0.193564 0.004266 -0.043512 0.166367 0.040001 0.004016 -0.031773 -0.313453 -0.124248 -0.387907 0.153138 -0.214317 -0.348333 0.072494 -0.178086 -0.287190 -0.220801 -0.297333 -0.273327 -0.058647 -0.139533 0.037778 -0.218684 -0.025598 0.638735 -0.424395 -0.431317 0.240421 0.299934 -0.287089 -0.471828 0.643524 -0.045083 0.396019 0.256732 0.561469 -0.297532 -0.249594 -0.047250 -0.693117 0.193924 -0.222779 -0.341750 0.040693 -0.011548 -0.464755 -0.423518 -0.052350 -0.411927 -0.337754 0.184494 -0.374310 -0.122144 -0.561682 -0.260293 -0.063345 0.432421 0.289864 -0.245537 -0.445314 -0.075042 -0.174628 -0.243184 0.297943 0.500753 0.227685 -0.507979 0.145134 0.321317 0.258371 0.043192 -0.374582 0.219903 -0.560469 0.253378
2281 0.246771 -0.178392 -0.064555 -0.221565 0.257676 0.127613 -0.285979 -0.127876 -0.651468 -0.224526 -0.057895 0.147111 0.184569 -0.071386 0.356188 -0.330065 -0.082928 0.180796 0.354071 0.587011 0.240654 0.504991 -0.107002 0.219658 0.020676 0.306787 -0.537003 -0.539189 -0.062508 0.698671 -0.066840 -0.338331 -0.053093 0.159187 0.258002 -0.008233 -0.097215 0.279892 0.120573 0.317630 -0.076316 0.137247 0.270913 -0.342854 -0.395347 0.180491 -0.329378 -0.068517 -0.258200 0.142271 -0.381306 0.668870 0.177289 0.102748 0.064225 0.055943 -0.052897 -0.065838 0.291264 -0.229603 -0.206793 -0.171583 -0.195290 0.136684 -0.324837 -0.212357 0.120635 -0.138900 -0.328028 -0.022957 -0.439897 -0.171745 -0.243761 -0.266947 -0.050835 -0.284949 -0.078618 0.586488 -0.658532 -0.350852 0.079550 0.425433 -0.309405 -0.506205 0.610177 -0.022988 0.349132 0.211708 0.299310 -0.151256 -0.221261 -0.082289 -0.700069 -0.016054 -0.257122 -0.285578 0.014722 -0.054817 -0.477721 -0.507794 0.067556 -0.476509 -0.283835 0.321874 -0.231946 0.168467 -0.701999 -0.224973 0.105559 0.148437 0.165194 -0.315525 -0.350327 -0.037893 -0.163862 -0.286270 0.336321 0.505505 0.283888 -0.391632 0.059062 0.212187 0.329955 -0.145938 -0.543124 0.322042 -0.540112 0.345805
1641 0.038341 -0.346423 -0.392939 -0.454416 0.048781 -0.116963 -0.050380 0.469275 -0.335410 0.214920 0.341282 0.381104 -0.084559 -0.261087 -0.006961 -0.153300 0.563985 0.169548 0.095854 0.376338 0.016842 0.598153 -0.033598 -0.160746 -0.258761 0.319239 -0.791368 -0.643161 -0.135871 0.173947 0.194232 -0.708488 -0.272435 -0.042524 0.017371 -0.080612 -0.518247 -0.213136 0.069520 0.532122 -0.257324 -0.522346 0.046479 -0.233753 -0.216383 0.227518 -0.355986 -0.337529 -0.029089 -0.487719 -0.186408 0.822099 0.217658 -0.033374 -0.190325 0.095360 0.088052 -0.025635 -0.170860 0.001750 -0.731628 0.261007 -0.381565 -0.353266 -0.814219 -0.204382 0.348143 0.003022 -0.293597 -0.211288 -0.184464 0.146655 0.290778 -0.734697 0.410784 -0.604059 0.106240 0.391835 -0.313394 -0.196457 -0.276525 0.588977 -0.013262 -0.167045 0.319053 0.312131 0.037428 0.554711 0.593388 -0.490764 -0.344340 -0.101811 -0.824535 -0.080539 0.183902 0.160080 0.024970 -0.043575 -0.343139 -0.422267 -0.356327 -0.596597 -0.134063 -0.043571 -0.303510 0.200056 -0.278688 -0.152835 -0.504775 0.086539 -0.057211 -0.232453 -0.234086 -0.007513 -0.117760 0.498411 -0.042038 0.355683 -0.028467 -0.409845 0.091127 0.185298 0.194067 0.075080 -0.186575 0.435849 0.046703 0.341389
351 -0.445886 -0.401977 -0.329697 -0.542994 0.220752 -0.092147 -0.491557 0.225913 0.170722 0.296068 0.224962 0.113705 0.034046 0.009402 0.255407 -0.338028 0.254402 0.143188 0.171039 0.446925 0.245682 0.596524 0.224842 0.206942 0.056048 0.163455 -0.488721 -0.381109 -0.234258 0.584525 0.460197 0.120029 0.187982 0.172648 0.018202 0.259523 0.025164 0.058249 0.034686 0.345058 -0.123446 0.289860 0.369923 -0.103446 -0.370544 -0.076697 -0.403331 0.382273 -0.320208 -0.007855 -0.137531 0.493097 0.141722 -0.086543 -0.379856 -0.166333 -0.356406 -0.259490 -0.460112 -0.260244 -0.364690 -0.531341 -0.124426 0.045242 0.148927 -0.249052 -0.301217 0.201264 -0.153718 -0.115102 -0.055804 -0.053495 0.245513 -0.408020 0.239881 0.076719 0.043224 0.466942 -0.704148 -0.005721 -0.091554 0.294540 -0.289141 -0.077567 -0.017517 0.196455 0.879812 0.116823 0.281836 -0.009263 0.166895 0.034372 -0.117917 0.422059 0.204658 0.003116 -0.316433 0.492123 -0.600371 0.223241 0.162991 -0.297949 0.222718 -0.469040 -0.156123 0.264593 -0.384806 -0.088508 -0.367688 -0.402366 -0.241502 -0.330947 -0.449836 0.271002 0.140030 0.092972 0.332361 0.460463 -0.276416 -0.177799 0.033158 0.337061 0.199163 -0.352784 -0.220682 0.755495 0.055405 0.743244
1003 -0.035613 -0.072566 0.007108 -0.406138 0.142046 -0.438982 -0.725037 -0.377698 -0.388746 0.192082 0.086180 0.504300 0.028909 -0.034056 0.079628 -0.335267 0.370469 0.144536 0.301695 0.658064 0.941946 0.887129 -0.025813 0.192270 -0.230481 -0.550088 -0.258880 -0.565636 -0.004252 0.055207 0.204653 0.042359 -0.105905 0.626608 0.298211 0.166231 -0.189835 -0.043710 0.059026 0.444396 -0.402372 -0.001691 0.369880 -0.288890 0.183223 0.345509 -0.510906 0.431807 -0.567392 -0.201744 -0.297562 0.241512 -0.244106 -0.342171 0.136584 -0.138629 -0.198223 -0.154233 -0.386865 -0.237724 -0.212602 -0.564603 -0.615490 -0.091430 -0.347065 -0.106801 -0.329996 -0.330151 -0.499899 -0.245999 -0.347669 0.293561 -0.274674 -0.351955 0.188973 -0.232843 0.273518 0.119823 -0.271675 -0.110162 -0.465273 0.287664 -0.240791 0.145628 0.458431 0.124646 0.555930 -0.040670 0.505683 0.175253 -0.214317 0.135284 -0.447681 -0.116246 -0.117124 0.123360 -0.445568 0.711786 0.086077 -0.072971 -0.078319 -0.239028 0.402378 -0.113992 0.301929 0.379708 -0.522631 -0.181201 -0.184674 0.277843 -0.223620 -0.477069 -0.205857 0.264044 0.310320 -0.161649 0.509710 0.207922 0.017715 -0.260211 0.391960 -0.054206 0.458448 0.016255 0.153442 0.518657 -0.044201 0.280369
1782 0.229209 -0.554902 -0.263690 0.075790 -0.197552 0.049033 -1.205324 -0.238594 -0.428836 0.356337 -0.180595 0.463332 -0.102319 -0.489118 0.390919 -0.184522 0.195136 -0.093168 0.131590 0.212772 0.316318 0.740922 -0.861430 0.228073 0.255804 0.214060 -0.252358 -0.673185 0.106959 -0.166150 -0.260420 -0.459777 -0.266416 0.309388 0.136260 0.159950 0.053053 -0.111790 -0.059237 0.408082 -0.079496 0.044403 0.340916 -0.662832 -0.654317 -0.046611 -0.239818 -0.376351 -0.283675 -0.199761 -0.148904 0.216988 0.092595 -0.136599 0.006185 -0.150598 -0.540298 0.161066 -0.994113 -0.360631 -0.269317 -0.307224 -0.875164 0.022380 -0.248151 -0.199281 -0.267655 0.174438 -0.311913 0.025377 -0.074638 0.293377 0.180706 -0.058129 0.184017 -0.061210 0.327805 0.697024 -0.560801 0.238703 -0.367545 0.402783 -0.722137 -0.473887 0.175443 -0.029412 0.234037 0.155007 0.566639 -0.528743 -0.162433 -0.440666 -0.097357 -0.172882 -0.177738 0.624994 0.773287 0.173761 -0.287231 -0.228587 0.200606 -0.132657 -0.021384 0.105380 -0.167213 -0.151483 0.067545 0.133013 -0.371563 0.276292 0.034538 -0.369657 -0.457055 0.206960 -0.400784 0.305646 -0.082956 0.216747 0.007852 -0.298934 -0.021961 -0.244402 0.213612 -0.093313 -0.057776 0.409672 -0.428495 0.004419
464 -0.218021 -0.133424 -0.025333 0.365186 0.053079 0.055560 -0.891559 -0.063702 -0.434868 0.376341 0.276450 0.172052 0.561337 0.192520 0.216419 -0.022604 -0.360386 -0.182417 -0.096815 0.229490 -0.065742 0.850516 0.985201 0.135753 -0.425487 -0.321930 -0.067540 0.060300 0.198644 0.272904 -0.156344 0.263267 -0.038101 0.287327 -0.159007 0.477569 0.247912 0.158415 -0.102783 -0.368998 -0.078724 -0.559383 0.717091 -0.439230 -0.198736 -0.573339 -0.324490 0.271978 -0.484565 -0.424994 -0.519671 0.083274 -0.743101 -0.056039 -0.146332 0.461727 -0.339249 0.209270 -0.088262 -0.295430 -0.732749 -0.381212 -0.154123 0.084902 0.076514 0.006697 -0.905189 -0.099737 0.080154 0.164651 0.224259 -0.035365 -0.688544 -0.429471 0.085237 -0.380352 0.059814 0.400174 -0.318821 0.028541 0.069902 0.339348 -0.402800 -0.170925 -0.072915 0.023789 -0.448212 0.369327 0.002189 -0.797628 0.002131 -0.209457 -0.503967 0.183780 0.374974 0.414253 0.551777 0.182641 -0.127911 -0.463057 0.344855 0.023414 -0.815203 0.215819 -0.035761 -0.565546 0.031116 -0.166808 -0.203399 0.005578 0.245925 -0.669576 0.114399 -0.349318 0.060614 0.231350 0.394967 0.344538 -0.162616 -0.067946 -0.192388 0.119955 0.417691 0.454471 0.190651 -0.355035 -0.090087 0.016713
1651 0.055786 -0.184113 -0.308290 -0.221110 -0.176976 0.040850 -0.218576 0.159196 -0.642502 0.337844 0.253534 0.238631 0.248921 -0.504317 0.050928 -0.163948 0.090811 0.285116 0.087395 0.392694 0.113680 0.831180 -0.219591 0.224484 -0.196733 0.672722 -0.478787 -0.608894 -0.165616 0.319468 -0.239804 -0.307986 0.017506 0.272017 -0.171492 0.028610 -0.294759 0.361468 0.373523 0.276941 -0.388745 -0.701299 -0.130713 -0.158153 -0.227871 0.250101 -0.076702 0.049136 -0.157812 -0.364239 0.032508 0.616066 0.259914 -0.067086 -0.058109 0.258103 0.000149 -0.082271 -0.192712 0.006169 -0.312259 -0.241255 -0.191795 -0.266072 -0.555603 -0.119050 0.204724 0.088233 -0.455366 -0.245438 -0.230848 -0.364547 0.681852 -0.745887 0.257985 -0.493936 -0.102852 0.502895 -0.344430 -0.378506 -0.294057 0.720534 -0.253962 -0.515014 0.432466 0.148207 0.243261 0.211973 0.131370 -0.700474 -0.312236 0.093983 -0.841249 -0.012788 0.150876 0.063581 -0.058052 -0.163058 -0.692773 -0.275559 -0.176774 -0.250279 -0.284670 0.118215 -0.128777 0.280634 -0.069151 -0.518142 -0.598128 0.012784 0.192235 -0.022382 -0.141990 0.071592 0.143615 0.219101 -0.069655 0.517770 0.014444 -0.376684 -0.092055 0.363552 0.185712 -0.234354 -0.059997 0.471520 0.240857 0.137654
3045 0.214321 -0.276422 -0.208438 0.335305 -0.085912 -0.154511 0.053180 -0.349957 0.050527 -0.523620 0.006822 0.279602 0.296787 -0.024305 0.302297 -0.126004 0.276409 -0.139463 -0.432068 0.544054 -0.070314 0.705890 0.724444 -0.375209 -0.312638 -0.138186 -0.564340 -0.024436 -0.196916 0.304738 -0.078103 -0.253160 0.217631 0.274773 -0.105431 0.599542 -0.037793 -0.213637 0.219859 0.142997 -0.384520 -0.265504 0.504641 -0.830450 -0.030299 -0.436197 0.007509 -0.181513 0.270430 -0.491479 0.284666 0.229853 0.100453 0.316948 -0.426946 0.160239 0.436868 -0.039020 -0.427980 -0.219104 -0.042442 -0.493181 -0.443309 0.137890 0.022073 -0.249554 -0.086971 0.056474 -0.283591 -0.715218 -0.292426 -0.246267 -0.168646 0.131874 -0.036231 0.088352 0.226990 0.343156 -0.281286 0.064023 -0.079110 0.096472 -0.635857 0.689760 0.522161 0.349577 0.450059 0.168427 0.441195 -0.121275 -0.448544 -0.240202 -0.244903 -0.002742 0.922112 -0.127856 0.703604 0.269143 -0.274646 0.409140 0.480817 -0.191619 -0.278652 0.331112 0.370531 0.433167 -0.291536 -0.268340 -0.178812 -0.784271 -0.365634 -0.274553 -0.025103 0.181647 0.108860 0.023012 -0.515331 0.806971 -0.541516 -0.310064 0.045651 0.540626 0.138946 -0.286914 -0.195186 -0.057592 -0.179434 0.579810
1089 -0.188576 -0.477880 -0.053393 -0.228138 0.173549 0.124168 -0.594703 -0.153396 -0.605769 0.759076 -0.143323 0.412657 0.301048 -0.157483 0.139889 -0.498204 0.356998 0.066866 0.186181 0.297865 -0.004938 0.517710 -0.444857 0.142989 0.196458 -0.284491 -0.596716 -0.541857 -0.348216 0.493638 -0.124913 -0.170987 0.272467 0.661146 -0.077103 -0.131970 -0.091087 -0.104311 -0.520058 0.612768 -0.145375 -0.084149 0.269530 -0.299336 -0.446889 -0.165975 -0.186062 -0.048858 0.192333 -0.207521 -0.442646 0.271531 0.249246 0.110799 0.139467 0.202778 -0.385977 -0.306189 -0.635279 -0.359891 -0.619259 -0.197172 -0.401793 0.166259 -0.302932 -0.170435 -0.198296 0.384388 -0.285133 -0.139349 -0.175659 0.233463 0.744334 -0.220898 0.408674 0.040694 0.259431 0.480521 -0.821513 0.149036 -0.072072 -0.047734 0.027722 -0.234624 -0.163374 0.144211 0.609759 0.270352 0.573076 -0.409437 -0.001069 -0.252123 -0.209102 0.289356 0.137728 0.237783 -0.188918 0.423076 -0.900689 -0.171831 0.142082 -0.473345 0.103586 -0.234293 -0.371996 0.214742 -0.156848 0.208251 0.012109 -0.106574 -0.002194 -0.131518 -0.265536 0.429628 -0.218372 0.169386 0.405417 0.515289 -0.003209 -0.382472 0.052898 0.095722 0.241818 -0.077057 0.037611 0.396174 -0.159200 0.096978
603 -0.183230 -0.457536 0.209892 -0.004008 0.006540 -0.512990 -0.220553 -0.452234 -0.552385 -0.121636 0.118986 0.863661 0.458730 -0.017873 0.302046 -0.296201 0.658898 0.240359 -0.724178 0.459602 -0.247011 0.799451 0.164291 0.088658 -0.063901 0.118912 -0.899648 -0.482998 0.106912 0.325817 -0.279891 0.116583 0.085194 0.391842 0.142724 0.006349 0.095050 0.143678 0.163795 0.164809 -0.530535 0.117852 -0.121214 -0.455348 0.028246 -0.241465 0.457038 -0.171690 0.468608 -0.207662 -0.102862 0.600011 0.131516 0.395194 0.384154 0.406087 0.275250 -0.401458 -0.788121 -0.199444 -0.084777 -0.435605 0.206539 -0.408652 0.161088 -0.585219 0.394146 -0.393708 -0.654624 0.421889 -0.003284 -0.366655 0.171043 -0.239475 0.670402 -0.206486 0.080773 0.491874 -0.365563 -0.629383 0.262302 0.551153 -0.217037 -0.103242 -0.071611 1.043794 -0.068855 0.142258 -0.197615 -0.411422 -0.156214 -0.549948 -0.789364 0.090247 1.002034 0.281669 0.321252 0.408209 0.523233 -0.934695 1.133738 0.096886 -0.689560 0.209490 0.285311 0.552881 -0.195753 0.204474 0.140252 -0.237683 0.138414 -0.506425 0.256835 0.738225 -0.111689 -0.089539 0.464412 -0.184433 0.455563 -0.290780 -0.477824 0.073431 0.762665 -0.612819 -0.512898 0.394130 -0.016731 -0.425696
579 -0.069791 -0.157350 -0.409294 -0.267759 -0.172359 -0.100080 -0.373456 -0.304654 -0.220075 0.310634 -0.037422 0.411751 -0.022570 -0.130151 -0.104592 -0.462681 0.293774 0.299834 0.139031 0.086701 -0.061427 0.586985 -0.435069 0.251221 0.102606 0.066568 -0.446978 -0.564489 -0.449533 0.451968 -0.292925 -0.441897 0.107454 0.525306 -0.303154 -0.219752 -0.019640 -0.248975 0.277230 0.170345 -0.230834 -0.128163 0.053837 0.072673 -0.424712 -0.116750 -0.498770 0.213142 -0.222307 -0.303933 -0.267274 0.348702 -0.216661 -0.230823 0.317511 -0.230226 -0.362572 -0.035545 -0.074357 -0.487233 -0.081615 0.206699 0.005901 0.114893 0.032398 -0.369654 -0.281903 -0.060118 -0.253303 -0.197182 -0.370207 0.058462 0.368182 -0.293885 0.066162 -0.327691 0.101785 0.481246 -0.362220 -0.024293 -0.223045 0.357005 -0.038435 -0.544896 0.361811 -0.289860 0.377270 0.155639 0.145054 -0.248270 -0.068082 -0.228277 -0.302382 -0.008034 0.180424 -0.020224 0.002960 0.434314 -0.515949 -0.196471 -0.238283 0.085328 0.000231 -0.048527 0.405715 0.113581 -0.491910 -0.030697 -0.263786 -0.007948 0.109208 -0.007860 -0.210433 0.499980 -0.001346 0.289538 0.206855 0.686580 0.195791 -0.222386 0.008887 0.166133 0.618253 -0.289421 -0.230773 0.350962 -0.067430 0.264561
413 0.302947 -0.297223 -0.460520 -0.152945 0.227021 -0.099085 -0.199444 0.228645 -0.453278 -0.062663 0.214163 0.547957 0.272524 -0.329836 -0.042846 -0.322378 -0.007136 0.147186 0.275912 0.510423 0.099256 0.436447 -0.128396 0.039397 -0.067702 0.209288 -0.463612 -0.610703 0.116495 0.536354 0.033263 -0.585372 0.126474 0.124007 0.158880 0.179786 0.129230 0.204708 0.046939 0.211667 -0.020530 -0.228315 0.398110 -0.248436 -0.258287 0.200330 -0.614547 -0.132319 -0.101785 -0.260865 -0.003880 0.777102 0.063840 -0.197508 -0.176589 0.163334 0.407871 0.174452 -0.024560 -0.353875 0.002478 0.179422 -0.894579 0.219038 -0.255962 0.000891 0.117085 -0.006818 -0.853117 -0.213083 -0.216487 0.059460 -0.152367 -0.391035 0.224557 -0.256992 -0.136767 0.541249 -0.481854 -0.230743 0.092825 0.546235 -0.460172 -0.449833 0.509765 -0.121948 0.427038 0.399796 0.515759 -0.309844 -0.005636 0.205721 -0.443717 0.230016 -0.351367 -0.410994 -0.035067 0.070376 -0.478235 -0.435476 -0.027204 -0.341916 -0.001468 0.505561 -0.303330 0.116118 -0.581201 -0.218636 -0.296115 0.018460 -0.288148 -0.000508 -0.202165 -0.202376 -0.053441 0.199580 -0.014279 0.749752 0.388508 -0.461060 0.019665 0.306832 0.058218 -0.007467 -0.574033 0.364793 -0.151080 0.266969
1087 0.185059 -0.209603 -0.088301 -0.371700 0.293904 0.138619 -0.366466 -0.150165 -0.594738 -0.115793 0.108806 0.264333 0.027823 -0.048405 0.270069 -0.394730 -0.138552 0.084635 0.485169 0.769493 0.096770 0.567483 -0.080826 0.108080 -0.091927 0.252751 -0.396628 -0.499195 -0.085704 0.736771 -0.172778 -0.501760 0.035054 0.423244 0.050104 0.087902 0.085661 0.191972 0.288104 0.394987 -0.066157 -0.089719 0.089183 -0.405862 -0.297460 0.333139 -0.380856 -0.084104 -0.255797 0.028041 -0.473506 0.597685 0.140583 0.045108 0.145974 -0.082170 -0.046066 -0.021081 0.186431 -0.221827 -0.290462 -0.276629 -0.309043 0.224092 -0.296902 -0.288098 0.240112 -0.127799 -0.307447 -0.146272 -0.436681 -0.165017 -0.076602 -0.267751 0.002093 -0.236778 -0.175004 0.572417 -0.403013 -0.380962 0.145777 0.271567 -0.367618 -0.491216 0.644862 0.053746 0.466231 0.211570 0.450296 -0.194052 -0.165640 -0.116080 -0.756405 0.138696 -0.298079 -0.264152 -0.013449 0.058374 -0.432168 -0.365005 0.243307 -0.282066 -0.222553 0.364501 -0.314851 0.137799 -0.525669 -0.223062 0.030718 0.098401 0.021306 -0.197125 -0.611198 -0.084897 -0.246779 -0.278377 0.225610 0.593579 0.473411 -0.580391 0.155583 0.476487 0.258182 -0.021908 -0.628883 0.219979 -0.365699 0.202904
