3327 128
1617 0.023857 -0.136461 0.036933 -0.023126 -0.288606 -0.425218 -0.029086 -0.279973 0.310465 0.080771 -0.087241 0.019161 0.044451 -0.003792 0.269999 0.140507 -0.209870 -0.373375 -0.022169 -0.046063 -0.451316 -0.332283 -0.620869 -0.409363 0.104825 0.077948 -0.066608 0.052326 0.164639 0.143976 0.105113 -0.044592 -0.151669 0.063405 -0.045175 0.135075 -0.217075 0.077793 -0.044315 0.104591 -0.169467 0.108775 -0.333094 -0.286535 -0.047801 -0.150367 0.124010 -0.161747 -0.258371 -0.007989 0.188393 -0.427024 0.182461 -0.104880 0.087399 0.020696 0.187340 -0.067265 0.399178 0.109224 -0.348399 -0.002512 -0.149907 -0.019351 0.065451 -0.043231 0.252913 0.265190 -0.205127 0.255676 -0.072899 -0.575220 -0.045841 -0.086374 -0.014568 0.348171 -0.252027 0.080059 -0.114667 -0.288030 0.212819 -0.347953 -0.049951 0.049017 0.100657 0.135683 0.232861 -0.007541 0.319446 -0.097464 0.039902 0.018725 -0.097408 0.044472 -0.259001 -0.155451 0.030126 -0.152402 0.122103 0.068747 0.031460 0.030502 -0.186360 0.009169 -0.059928 0.262638 0.190114 -0.007073 0.092711 0.190241 0.246910 0.216000 0.472634 0.198338 -0.060427 -0.134579 -0.169962 0.030887 -0.075311 0.185213 0.184298 0.295566 0.153406 0.064772 -0.030255 0.396498 -0.040061 -0.016990
2936 0.069330 0.428388 -0.202566 0.099567 0.075140 -0.014981 0.185593 -0.359155 -0.127347 -0.266567 -0.085830 -0.181114 -0.010843 -0.400157 -0.474735 0.183456 0.122645 -0.308920 0.403115 0.011476 -0.023364 0.287340 0.324930 0.002346 -0.203544 0.037085 -0.366847 -0.105554 0.228431 0.198723 -0.291585 -0.234203 0.020898 -0.339719 -0.044894 -0.075380 0.273332 0.215692 0.023935 -0.301264 -0.419583 0.155308 0.293284 -0.315393 0.071494 0.093945 -0.300313 0.131582 -0.034680 0.320902 -0.167317 0.148610 -0.444179 -0.042326 0.070545 -0.131030 -0.171487 0.284011 -0.076693 -0.149715 0.006890 0.032381 0.199853 -0.509195 0.412657 -0.098007 0.224862 -0.137805 0.145041 0.029742 -0.209275 -0.398544 0.122955 -0.292083 0.118341 -0.090819 -0.422621 -0.273881 -0.513173 0.186364 0.292062 -0.010504 -0.224884 -0.303104 -0.029832 -0.505085 0.098619 -0.256731 -0.140019 -0.130881 0.260767 0.161481 0.175664 -0.266732 -0.062210 0.529986 0.562026 0.015182 0.210475 -0.104164 0.256026 0.323548 0.209560 -0.079594 -0.140211 -0.125282 -0.011535 -0.377517 0.203266 -0.219964 -0.254015 -0.172770 -0.178723 -0.073337 -0.151181 0.269889 0.273890 -0.099906 0.156311 0.310369 0.533769 -0.092966 0.347356 0.116963 0.170384 -0.116158 0.263476 0.118106
1752 -0.127924 -0.306938 0.262963 0.088675 -0.344267 0.044941 -0.054564 -0.198013 0.108361 0.099867 0.169745 0.191492 -0.410929 0.065968 0.241311 0.153617 -0.185599 -0.594658 -0.001164 -0.039533 -0.480874 -0.160380 -0.199299 -0.305153 0.163737 -0.104221 -0.154270 0.129923 0.132931 0.424778 0.106590 -0.127009 -0.014397 0.164116 -0.147458 -0.054895 -0.259943 0.185820 0.165085 -0.121331 -0.185292 0.182666 -0.356291 -0.441263 -0.019181 -0.216528 0.138254 -0.354397 -0.227048 0.100510 0.220209 -0.600166 0.239557 -0.082027 0.158864 -0.083198 -0.109973 0.474006 0.331893 0.284123 -0.207913 -0.345022 -0.160355 -0.080908 -0.252954 0.070601 0.244668 0.021867 -0.330863 0.619374 -0.044066 -0.261491 0.032503 -0.130369 -0.386567 0.500068 -0.372765 0.313910 0.051840 -0.247151 0.199193 -0.273162 -0.151297 -0.083213 -0.100923 0.433251 -0.069750 -0.007946 0.082977 -0.577543 -0.087707 0.100984 0.019847 0.000668 -0.198178 -0.094380 0.000901 -0.204876 0.105911 -0.008061 0.311731 -0.337462 -0.013681 0.210102 -0.014964 0.088410 0.339551 -0.076282 -0.227818 0.050668 0.368539 0.199943 0.339811 0.222445 -0.130808 -0.293011 -0.154277 -0.049045 -0.135563 0.236812 -0.003008 0.343495 0.092888 0.064332 -0.055392 0.251740 0.131350 -0.158420
1508 -0.058732 -0.249860 0.426043 0.021758 -0.559885 -0.259834 -0.059590 -0.200561 0.142370 0.070566 0.217613 0.186348 0.146062 0.054681 0.226879 0.195048 -0.243529 -0.552105 -0.207940 -0.130558 -0.602938 -0.087945 -0.247333 -0.327283 0.099063 -0.105714 -0.035057 0.166303 0.225495 0.431322 0.248528 -0.404928 0.003938 0.341918 -0.185651 -0.128619 -0.470385 0.106847 -0.046315 0.177751 -0.217382 0.395661 -0.258162 -0.433614 0.015378 0.080386 0.022236 -0.284165 -0.242438 0.135426 0.333652 -0.574203 -0.062689 0.046447 0.226741 -0.007074 -0.078494 0.002926 0.562722 0.370273 -0.229532 -0.057255 -0.019326 -0.106649 -0.193797 0.128493 -0.101621 0.018740 -0.211168 0.401707 0.066003 -0.361209 -0.162259 0.137587 -0.191653 0.277272 -0.548238 0.309818 -0.167531 -0.021806 0.050143 -0.071175 -0.130821 -0.317324 -0.042064 0.185207 -0.064324 0.336501 0.138065 -0.223474 -0.060934 0.240658 -0.054881 0.018594 -0.239727 -0.274283 0.067046 -0.237559 -0.081937 0.070373 0.144006 -0.210485 -0.098294 0.076402 0.037252 0.150380 0.224199 -0.134809 -0.242759 0.096517 0.412406 0.140819 0.297730 0.082208 0.169193 -0.083907 -0.090905 0.281569 -0.047874 0.174280 -0.165159 0.220317 0.233805 0.148584 -0.110625 0.282152 -0.169678 0.252847
2340 0.107255 0.309732 0.309496 0.225589 -0.284145 0.252070 0.173211 -0.228555 -0.123560 -0.603504 -0.012574 0.180190 0.320346 -0.125214 0.155026 0.034823 -0.124385 -0.212802 0.337958 -0.060648 -0.289427 0.242329 0.303309 0.254401 0.577971 -0.141436 -0.211556 -0.360465 0.216116 0.110645 -0.063210 -0.001424 -0.279319 0.107681 0.207658 -0.165301 0.247416 -0.095423 0.040706 -0.474811 -0.078358 0.009757 0.065612 0.067245 0.018588 0.059622 -0.277784 0.069507 -0.261968 0.071960 0.308353 0.247535 -0.118684 -0.099791 0.912257 0.118068 0.133563 0.117798 0.048580 -0.100246 0.325261 0.203896 -0.376725 -0.365104 0.388598 0.004673 0.188640 -0.100995 0.261131 0.029613 0.145207 0.033996 -0.369262 -0.276430 0.385788 -0.027614 -0.435487 -0.210585 -0.323513 0.282930 -0.287498 -0.359335 -0.182043 -0.466382 0.066257 -0.150483 0.101427 -0.474526 0.034352 0.220602 -0.000331 -0.040622 0.154192 -0.204729 0.063013 0.118419 0.168317 -0.649982 0.442188 0.163217 0.136729 0.264547 0.464925 -0.141513 0.254208 -0.098647 -0.322189 -0.210101 0.409498 -0.012796 0.025216 0.120534 -0.349549 -0.487325 -0.126820 0.217181 0.563407 -0.097812 0.119207 0.139832 -0.045649 0.252496 -0.166336 -0.323031 0.357156 0.272892 0.097684 0.247933
1838 -0.005201 -0.053982 0.010175 -0.220117 -0.280160 -0.235204 -0.049788 -0.384058 0.265300 0.088665 0.193432 -0.157405 -0.251092 -0.305543 0.338537 -0.214412 0.139004 -0.311220 -0.044466 -0.346878 -0.125079 0.152338 -0.436377 -0.009596 0.074373 -0.207105 0.047741 0.221440 0.070899 -0.172313 0.288986 0.070232 0.417433 0.355076 -0.085045 -0.079950 -0.061564 -0.137123 0.141625 0.240810 -0.046799 -0.100176 0.143352 -0.085970 0.278834 0.072197 -0.182264 -0.489919 -0.214930 0.527405 0.304191 0.116571 -0.183473 -0.093410 0.266180 -0.070326 -0.175904 -0.229980 0.339876 -0.002713 -0.185910 -0.278785 -0.400123 0.089190 -0.171919 0.190876 -0.093919 -0.150518 -0.001841 0.443524 -0.154708 -0.451022 -0.009485 -0.137829 0.035518 0.272078 0.095571 0.177490 0.077097 0.247454 0.292374 -0.477480 -0.290785 0.023801 0.187714 0.083002 0.015544 0.187830 0.309048 -0.042514 -0.109062 -0.353060 0.123983 -0.240064 -0.284321 -0.046186 -0.295117 -0.217098 0.105898 -0.149356 0.134463 0.047475 -0.218166 0.159659 0.159634 0.234647 -0.188532 -0.155782 -0.397511 0.150847 -0.095967 -0.078440 -0.015143 0.145096 0.061653 -0.323104 -0.247572 0.057336 -0.153097 0.250090 -0.124600 -0.365719 0.117874 0.121187 -0.246560 -0.040435 -0.249861 -0.341688
1381 0.250482 0.303763 0.289852 -0.080408 -0.574069 0.109170 0.061836 -0.133360 0.284089 -0.306248 0.055052 -0.175715 0.078831 -0.060664 -0.429413 0.057146 -0.337625 -0.252546 0.208563 -0.083368 -0.501980 0.188694 0.217789 0.167593 0.266063 -0.205182 0.194071 -0.370875 0.301919 0.346657 0.057791 -0.071558 0.072456 -0.034075 0.093935 -0.053657 0.298199 0.022995 -0.397518 -0.277573 0.053705 -0.150887 0.005610 0.256550 0.436535 0.022689 -0.370149 -0.138724 -0.021049 0.694702 -0.038753 -0.124657 -0.504476 -0.319143 0.382974 0.025058 -0.206553 0.333536 -0.392877 -0.308678 0.457866 0.532441 -0.095270 -0.415914 0.439809 -0.331402 0.198761 -0.593421 0.009438 -0.134859 0.092149 -0.176428 -0.199111 -0.146589 0.007500 0.323417 0.017300 0.023579 -0.259544 0.296902 -0.473424 -0.562392 -0.319558 0.048968 -0.209957 -0.225352 0.616380 -0.342760 -0.138043 0.240691 0.114979 0.210307 -0.048535 -0.088233 -0.164154 -0.504670 0.202420 -0.200055 0.497835 -0.045332 0.153468 0.489981 0.303038 0.243221 0.477948 -0.488696 -0.051893 -0.308340 0.073976 0.111671 0.183615 0.049836 0.014790 -0.813065 -0.276246 0.576565 0.799048 0.037882 0.237563 -0.364335 0.327383 0.090505 -0.243759 -0.332498 0.061955 -0.149816 0.543458 -0.143303
2527 -0.264243 -0.044950 -0.190358 -0.052833 -0.182062 -0.322012 -0.021272 -0.191793 0.160554 -0.063429 0.019674 -0.149637 -0.223472 0.105556 0.452236 0.176334 0.069922 -0.518725 -0.032468 -0.046158 -0.198469 -0.307880 -0.239261 -0.276266 0.187240 -0.069532 -0.105190 0.348204 0.097667 -0.070442 0.242098 -0.006461 0.063184 0.349052 -0.000815 -0.109100 -0.281626 0.085347 0.020014 -0.161778 -0.444523 0.231683 -0.601743 -0.369766 -0.124209 -0.216789 -0.073195 -0.015277 0.063167 0.469461 0.443476 -0.166559 0.196430 -0.126662 0.281200 -0.109425 -0.034114 -0.141217 0.281809 0.014759 -0.356095 -0.254838 -0.041270 -0.322871 0.073791 0.010304 0.441372 0.192588 -0.352346 -0.151078 -0.041602 -0.592299 -0.358753 0.163236 -0.155033 -0.101806 -0.203277 0.039830 0.260162 0.361730 0.229382 -0.396061 -0.188977 0.095302 -0.070652 0.399316 -0.053696 -0.065308 0.014911 -0.372334 -0.189749 -0.303329 -0.037140 0.056647 -0.263460 -0.235526 -0.036475 -0.144032 0.308272 0.054907 0.115071 0.020462 -0.263332 -0.043012 0.027712 0.242500 0.323629 -0.054274 -0.072313 0.429523 0.255807 -0.043203 0.535612 0.491013 0.022184 -0.123477 0.296542 0.041111 -0.397944 0.289766 0.230980 0.404531 0.051651 0.117223 -0.181702 0.137731 -0.267062 -0.091103
1175 -0.014705 -0.080114 -0.116276 0.026165 -0.400668 0.187676 -0.403765 -0.459852 -0.090891 0.177437 0.154511 0.126910 -0.041889 0.349192 0.176160 0.082089 0.037251 -0.485081 0.102122 -0.138118 -0.556668 -0.273869 -0.178327 -0.392406 0.043589 -0.145657 0.042850 0.049890 0.232653 0.131917 0.192520 -0.166205 0.114303 0.230856 -0.227685 -0.264792 -0.317937 -0.121478 -0.365368 -0.106243 -0.101862 0.007952 -0.028582 -0.518818 0.074852 -0.288565 -0.110882 0.015439 -0.178765 0.176617 0.249485 0.063993 0.014503 -0.388602 0.151172 -0.129467 0.107424 0.051498 0.474099 -0.064515 -0.132349 -0.077237 -0.236878 0.197911 -0.051005 0.070621 0.500628 0.076045 -0.303724 0.399054 -0.020106 -0.342827 -0.340388 0.000492 -0.130914 0.038057 -0.215688 0.204217 0.130730 -0.247828 -0.126536 -0.281095 -0.203195 -0.284638 -0.079282 -0.139918 0.224163 0.053289 0.163015 -0.151204 0.230767 -0.194491 -0.038891 -0.368065 -0.007201 -0.087561 -0.284473 -0.065498 -0.005943 -0.000819 0.159620 -0.014498 -0.216175 -0.015049 -0.482270 0.377700 0.241971 -0.330758 -0.311697 0.315301 0.457911 0.411003 0.239295 0.241864 0.185407 0.154217 -0.374400 0.248052 -0.295227 0.332411 0.074427 0.184944 0.133148 0.256913 -0.103869 -0.063329 -0.155771 0.350513
2868 -0.631964 0.050219 0.225913 0.014194 -0.200336 -0.042328 0.554179 0.594226 0.293636 0.240556 -0.091565 -0.272372 -0.221829 0.126603 0.480555 0.443987 -0.403584 -0.172265 -0.317386 -0.332095 -0.238025 0.338431 -0.179025 -0.085719 -0.549901 0.296421 -0.366889 0.028721 -0.101354 0.025145 -0.214363 -0.147082 0.432354 -0.754990 0.107945 0.207018 0.731491 -0.493573 -0.110327 -0.036414 0.015347 0.249962 -0.658971 -0.326359 0.024056 -0.018297 -0.013185 -0.091478 0.554875 0.872389 0.364750 0.289091 -0.358581 0.190349 0.319146 0.303918 0.062244 -0.473253 0.152051 0.002085 -0.249083 -0.269898 -0.503201 0.831432 0.713501 -0.055391 0.005136 -0.444786 0.249508 0.028507 -0.397556 0.485616 0.100089 -0.185930 0.382249 -0.002063 -0.467656 0.093996 0.205794 -0.201513 -0.207022 0.345590 0.134960 0.039096 -0.077127 0.405760 0.323634 -0.313929 -0.298916 0.097088 0.262229 0.029578 -0.350433 -0.326520 0.009305 0.717878 -0.132400 -0.472980 0.134534 0.601180 -0.284280 0.217411 -0.125076 0.720649 0.010348 0.581399 -0.596884 -0.028295 -0.086842 0.061192 -0.225785 -0.622755 0.326492 0.361837 -0.343724 -0.268960 0.039445 -0.086721 -0.504560 -0.198467 -0.181926 0.000586 -0.049266 0.062902 -0.028974 -0.311461 -0.203802 -0.152054
385 -0.061851 -0.113421 -0.261835 -0.010141 -0.282957 -0.164922 0.071456 -0.527671 -0.044889 0.231520 0.101893 0.129253 -0.014303 -0.003549 0.406013 0.100449 -0.200425 -0.607650 -0.353467 0.059869 -0.492355 0.127447 -0.378399 -0.220190 0.172334 0.231938 -0.287000 0.078222 0.059091 0.027698 0.074074 0.323238 0.078888 0.036822 -0.270528 0.142062 -0.139022 -0.160327 -0.373573 0.057619 -0.416579 0.147154 -0.188428 -0.262849 0.114969 -0.185903 -0.245896 -0.149399 0.074545 0.273630 0.153207 -0.183505 -0.082623 -0.025239 0.218322 -0.032090 -0.142702 0.149043 0.217105 0.302164 -0.192987 -0.331152 -0.178964 0.020897 -0.042604 0.423836 0.063538 -0.189483 -0.067453 -0.034471 0.074400 -0.146160 -0.167065 0.012224 -0.027471 0.209651 -0.125176 0.244809 0.038681 0.338327 0.404311 -0.356082 0.028281 0.038779 0.249571 0.123625 0.111584 0.023808 0.120680 -0.181439 -0.004110 0.037154 0.054440 0.001357 0.037910 -0.179066 0.014489 -0.227842 0.037590 0.127742 0.110174 -0.025911 -0.342888 -0.090411 -0.136111 0.188014 0.025158 -0.090060 -0.095730 0.309996 0.211702 0.349101 0.568272 0.072349 0.402126 -0.243791 -0.160067 0.368029 0.001069 0.298723 0.012635 0.191805 0.070232 -0.029400 -0.028593 0.469600 -0.173032 -0.275153
1054 -0.205138 -0.137740 -0.106132 -0.254010 -0.339476 -0.037077 -0.086475 -0.242110 0.166452 0.219533 0.115399 0.283280 0.180483 0.253114 0.561490 -0.018658 0.086776 -0.409654 -0.114997 0.051769 -0.221839 0.189894 -0.881436 0.022483 0.496852 0.149431 -0.067611 0.052503 0.086669 -0.205386 0.026588 0.299809 -0.152243 0.254770 -0.375905 0.166438 -0.046623 -0.130313 -0.100262 -0.189300 -0.561031 0.259185 0.134966 -0.253108 -0.271962 -0.331513 -0.113616 -0.330451 0.341860 0.119098 0.272308 -0.112499 -0.182522 -0.578688 -0.047602 0.139590 0.102384 -0.038011 0.226705 -0.097108 -0.177337 -0.183771 -0.283818 0.457028 -0.506077 0.102495 0.046870 -0.157312 -0.105048 0.315784 0.130643 -0.244148 0.296799 -0.251503 0.287632 0.080334 -0.276890 0.360922 0.266765 0.187368 0.383971 -0.130710 0.023236 -0.269084 0.200110 0.259649 0.261625 -0.028543 0.323136 0.010839 0.634352 -0.019167 0.383407 -0.009831 -0.069320 0.044025 0.119138 -0.126612 0.175666 -0.248239 -0.147034 -0.042572 -0.405382 0.051154 0.086398 -0.291059 -0.185135 -0.394050 0.169741 -0.086658 0.093680 -0.181492 0.144757 0.226896 0.317147 0.087376 0.380134 -0.158813 0.078564 0.002507 -0.080860 0.029162 0.319401 0.319142 -0.411378 0.146444 -0.144351 0.153608
1274 -0.144888 0.249553 0.274152 0.347451 -0.432921 -0.623747 -0.314333 0.088122 0.210887 -0.187656 0.049135 0.712925 0.025546 0.472275 0.318998 0.192710 -0.140326 0.180068 0.095264 -0.442845 0.431461 0.819483 -0.422721 -0.462253 -0.311605 0.114155 0.317426 -0.337688 -0.047435 0.501209 -0.082228 0.244770 -0.415448 0.262744 0.956913 0.106539 0.278126 0.785899 -0.101546 -0.243356 -0.006296 -0.365666 0.153073 -0.281765 -0.350974 0.064883 -0.481890 0.657724 -0.054177 0.299807 -0.396045 0.474564 0.189240 0.197203 -0.144667 -0.093749 0.124146 0.220483 -0.398303 -0.042508 -0.727599 -0.061396 -0.632816 0.101227 0.029187 -0.582372 0.447995 -0.286612 -0.642842 0.350365 0.107754 0.253582 -0.027925 0.086785 -0.253566 -0.374085 0.199649 0.378804 0.050460 0.498641 0.333502 -0.361555 -0.550579 -0.545200 0.091359 0.173335 0.475920 -0.032671 0.265962 0.328147 -0.317890 0.159864 0.171484 0.845723 -0.145923 0.195525 0.863149 -0.309014 0.215987 0.433485 0.206192 -0.513277 -0.418424 0.035313 0.465114 -0.290511 -0.362825 -0.099555 -0.220854 -0.078296 -0.557105 -0.150641 -0.243599 -0.024576 0.149101 -0.446988 -0.174897 0.376339 0.499122 0.784038 -0.101353 -0.441636 0.012769 -0.547661 0.026649 -0.355375 0.006338 0.503317
1115 -0.084190 0.449961 0.122518 0.171089 0.299061 -0.032430 0.059463 -0.201752 0.005629 -0.139076 0.100101 0.207316 -0.262874 -0.442347 -0.299078 0.336560 -0.477766 -0.249940 -0.112881 0.064824 -0.219849 -0.043205 0.146042 -0.165873 0.002768 0.193564 -0.097837 -0.200028 0.130114 -0.110702 0.002951 -0.342644 0.034335 -0.588952 -0.592304 -0.321197 -0.044846 0.115462 0.234237 -0.431713 -0.419722 0.190978 0.090464 -0.589365 -0.074395 -0.084648 -0.696794 -0.028152 0.197122 0.112005 -0.599493 0.522253 -0.009314 0.189654 -0.228560 0.366490 -0.437395 -0.112675 -0.376645 -0.414735 0.002871 0.639295 -0.315491 -0.295898 0.246728 -0.219080 -0.331789 -0.382526 0.396115 -0.069962 -0.334181 -0.583729 -0.009258 0.411193 -0.439538 0.128441 0.210289 -0.503888 -0.214481 0.027043 -0.137584 -0.154777 0.019927 -0.164351 -0.209429 -0.201903 0.050714 -0.176196 0.141380 0.012806 0.053872 0.156264 0.110629 -0.285761 0.092480 0.111644 -0.008148 -0.179733 -0.075260 0.025960 0.544657 -0.070878 0.177974 0.048710 -0.038090 -0.434994 -0.448674 0.350557 0.058404 -0.395041 0.275112 0.388819 -0.112954 -0.109140 0.024207 0.247492 0.285351 -0.521464 0.154638 -0.022301 0.285587 -0.216678 0.363031 0.168402 -0.042300 -0.274661 0.199910 0.096818
2417 -0.061556 0.447968 0.029193 0.237537 0.303332 -0.015523 0.127866 -0.223339 -0.135237 -0.156121 0.099042 0.187860 -0.296371 -0.237820 -0.145064 0.110602 -0.371986 -0.561775 -0.269634 0.210538 -0.066500 -0.198148 0.333299 0.235705 -0.269780 0.239982 -0.249220 -0.503377 0.622606 -0.236279 -0.274713 -0.164834 -0.016691 -0.738169 -0.272362 -0.222488 0.340456 -0.170096 0.543199 -0.405769 -0.371123 0.314851 0.268386 -1.175769 -0.109843 0.130297 -0.454399 -0.108887 0.119681 -0.190587 -0.318808 0.202570 0.080560 -0.030342 -0.375369 0.192450 0.006995 0.171322 -0.150977 0.089443 -0.015531 0.821475 -0.027103 -0.217540 0.083390 0.037733 -0.225088 -0.765907 0.544065 0.124468 -0.340117 -0.411310 0.206046 0.147273 -0.642535 0.122169 0.104995 -0.401741 -0.041229 -0.055405 0.033486 -0.283162 -0.223292 -0.092939 -0.278741 -0.257188 0.195593 -0.310954 0.278684 -0.168871 0.060154 0.199769 0.076911 -0.258142 0.254826 0.147814 0.133077 -0.084158 -0.147784 -0.275033 0.453154 0.240659 0.271342 -0.155653 0.237988 0.045255 -0.286582 0.322222 -0.192309 -0.311958 -0.029669 0.218189 -0.265377 -0.370073 -0.263209 0.129351 0.838312 -0.232984 -0.101184 0.069021 0.581003 -0.140599 0.234044 -0.033288 0.083853 0.083791 0.177058 0.232278
3118 -0.386898 -0.027334 -0.161763 -0.386983 0.341443 0.006124 0.383077 0.454706 -0.215102 -0.154337 0.072175 -0.303655 -0.250542 0.194731 -0.310860 0.274671 0.096394 -0.399682 -0.032801 -0.534524 -0.431152 0.437626 -0.374805 0.295750 -0.169940 0.541781 0.079248 -0.046118 -0.014598 -0.075584 -0.323467 -0.498209 0.177086 -0.471519 0.327284 0.142058 0.635737 0.280109 0.297251 0.040883 0.428396 -0.122680 -0.243759 -0.518178 -0.295914 -0.010707 -0.070057 -0.297892 0.776219 0.340792 0.361956 0.274941 -0.294129 0.174251 -0.019505 0.241463 -0.238009 -0.598875 -0.059431 0.210415 -0.440786 -0.253341 -0.563989 0.632245 0.075441 -0.041531 0.376961 -0.168315 0.422757 -0.173890 -0.297489 0.081657 -0.199647 0.053753 0.411042 -0.090044 -0.412863 -0.129964 -0.254799 0.312380 0.018314 0.126301 -0.488026 0.471030 -0.000481 -0.213510 0.194533 -0.585273 0.353050 -0.235858 0.349200 0.034552 -0.146257 -0.046251 0.217218 0.193325 -0.293533 -0.051777 -0.315250 0.176625 -0.170605 -0.370467 -0.129531 0.452736 -0.148542 0.261754 -0.844771 -0.099997 -0.477730 0.402146 0.044341 -0.569069 0.208689 0.012354 -0.200879 -0.037635 0.280767 -0.302689 -0.249861 -0.273019 -0.340811 0.158945 -0.146012 -0.211607 0.072722 -0.026475 -0.055886 0.210663
2895 0.211258 -0.091426 -0.203780 -0.326817 -0.121946 -0.276621 0.040472 -0.418156 0.076302 0.189771 -0.203556 0.383479 0.268580 -0.090258 -0.555437 0.493477 0.071397 0.173318 0.406344 0.784015 0.118219 -0.292686 0.468817 0.525775 0.256155 0.418475 -0.181713 0.219289 -0.424710 0.241140 -0.118734 -0.021180 0.017838 -0.761704 0.044864 -0.109942 -0.010112 0.483270 0.133397 -0.131322 -0.153957 0.394783 0.675136 -0.208038 0.482255 -0.089123 0.089524 -0.021862 0.240959 0.419255 -0.163860 0.298967 -0.144354 -0.128103 0.437345 -0.216215 -0.014138 0.201822 -0.306534 -0.623354 0.198306 0.426693 0.062760 -0.063686 0.125051 -0.293943 0.357961 -0.704225 -0.097726 -0.319110 -0.260696 -0.595949 0.176749 -0.044598 -0.058084 -0.330132 -0.692232 -0.572544 -0.018390 0.371211 -0.019468 -0.048982 0.178262 0.568248 -0.054598 -0.063930 0.205307 0.233907 0.051943 0.172143 0.289154 0.021792 -0.060943 0.038128 -0.391656 -0.001435 0.441377 -0.258646 -0.395417 0.539163 0.604600 0.293493 0.168758 -0.319995 0.078284 0.163491 -0.625811 -0.195783 -0.315220 -0.642380 0.100866 0.356006 0.266147 0.424327 -0.329932 -0.066769 0.218796 0.044341 0.281897 0.235807 0.427582 -0.291591 0.363832 0.241103 -0.348352 -0.060899 -0.209708 -0.151110
1883 -0.502114 0.675533 0.243978 0.505428 -0.019204 0.556717 0.116195 -0.725661 0.215801 -0.518537 0.057021 0.337668 0.266462 -0.359343 0.333210 -0.582259 -0.176803 -0.218216 -0.020768 0.087950 -0.161262 0.073005 -0.207345 0.264253 0.144671 0.258455 -0.185879 0.513554 -0.097033 0.168167 -0.360487 0.089295 -0.151108 0.139029 0.301230 -0.077096 0.504631 -0.262309 0.056928 -0.369895 -0.127258 -0.058682 0.398957 -0.068454 0.104002 0.218242 0.051867 0.098971 -0.633036 -0.274046 0.661996 0.061890 -0.327442 0.025642 0.381427 -0.173115 0.225146 -0.366048 -0.126971 -0.124041 0.054903 0.486361 -0.121793 -0.016343 0.226257 -0.225901 0.077300 0.254368 0.173957 0.064257 -0.128170 0.037960 -0.218634 0.298843 0.296214 0.474339 0.266370 -0.432329 -0.262256 0.002309 0.110007 -0.072110 -0.617134 -0.727478 0.271289 -0.858249 0.126302 -0.544286 -0.016427 0.142525 0.024540 -0.189447 -0.205144 -0.670437 0.310729 0.321103 0.346592 -0.763868 0.619026 0.663313 0.138517 0.019396 0.579198 0.158701 0.121802 -0.346726 -0.225322 0.183781 -0.218006 -0.126360 -0.337724 0.301124 -0.191705 -0.275409 0.013699 0.108295 0.555810 -0.385572 -0.538341 -0.481803 0.003151 -0.440682 0.169318 0.200596 0.219056 0.047573 0.533056 0.058506
1961 -0.228298 -0.139896 -0.035464 0.095636 -0.192228 -0.134165 -0.563044 -0.307395 0.105684 0.179217 0.263059 0.051790 -0.254368 -0.203823 0.420547 0.260213 -0.127587 -0.572036 -0.074880 -0.275476 -0.055730 -0.226911 -0.235266 -0.035890 0.317541 0.260794 -0.248611 0.444799 0.128028 0.348171 0.128048 -0.089701 -0.200829 0.250965 -0.124116 0.125372 -0.038289 0.064140 -0.363857 0.198398 -0.215758 -0.097029 -0.247254 -0.137106 -0.097025 -0.463398 -0.111815 0.029218 0.220392 0.066979 0.353000 -0.195723 -0.161092 -0.036186 0.127847 -0.288700 0.173924 -0.061290 0.470470 0.113814 -0.006357 0.287212 -0.321224 -0.141245 0.014466 0.068591 0.497815 -0.061667 0.019012 0.137009 0.180650 -0.362192 -0.124660 0.171149 -0.075643 -0.382102 -0.274181 0.194653 -0.126827 0.289773 0.231992 -0.006250 -0.105725 0.161346 0.324944 0.251233 0.066220 0.038226 -0.032766 -0.492630 -0.199069 0.010486 0.111454 -0.190088 -0.311470 0.026605 -0.069423 -0.213117 0.002627 -0.242282 -0.075468 -0.254212 -0.586611 -0.144100 -0.139174 0.238443 0.147960 0.038317 0.323982 0.460558 0.298551 0.421580 0.592332 0.343116 0.210056 0.049838 0.175746 0.398792 -0.128052 0.229911 0.345126 0.612389 0.013610 -0.006916 0.112105 -0.159340 0.151679 0.153645
39 0.705772 0.052170 -0.211040 0.884521 0.345571 0.017790 -0.007544 -0.420282 -0.252958 0.502925 -0.343794 -0.071949 0.441647 -0.156962 0.136335 -0.336808 0.082571 -0.450201 -0.639978 0.131915 -0.055164 0.235905 -0.340400 0.188687 0.243419 0.163619 0.159768 -0.549469 0.201575 -0.177968 -0.274615 0.075936 -0.246586 0.488640 -0.438933 -0.172880 0.324448 -0.285219 -0.129102 -0.483569 -0.230647 -0.506026 -0.469353 0.491541 0.209182 0.474208 0.339497 -0.354521 -0.311762 0.207610 0.034107 -0.377685 0.063850 -0.159809 0.126786 0.210313 -0.244002 0.109896 0.012727 0.405856 -0.372466 0.421661 -0.486324 -0.080958 -0.298980 -0.344046 0.043030 0.316382 0.399019 0.048935 -0.219141 -0.004025 0.353726 -0.517484 -0.583727 -0.542506 -0.359529 -0.028500 0.145968 0.533129 0.207147 0.051500 -0.108493 -0.054863 -0.314610 0.140208 0.199059 0.163246 -0.290371 -0.043996 -0.104034 -0.191087 -0.166127 -0.486058 -0.207255 -0.384120 -0.135768 -0.049693 0.278524 0.296841 -0.250519 0.112564 0.160463 0.036430 0.031831 0.035060 0.277580 -0.542639 0.262703 -0.122916 0.493072 -0.309004 0.023825 0.055225 0.149969 -0.054799 0.085506 0.115469 -0.177512 0.392474 -0.223348 -0.113420 -0.055360 0.490492 0.620023 -0.202573 -0.036414 -0.042827
14 -0.000497 -0.083600 0.215917 0.149173 -0.286857 0.278467 0.029134 -0.052403 0.208270 -0.183302 0.211462 0.092166 -0.052635 -0.012656 0.344207 -0.634760 -0.326622 -0.345216 0.323128 -0.267888 -0.196685 0.438957 -0.569080 0.047175 0.189512 0.076771 -0.042926 0.188943 -0.231477 0.178702 0.034215 0.435237 -0.049344 0.051714 -0.044302 0.379810 -0.211856 0.060565 -0.145962 0.069970 -0.131427 -0.160051 -0.002858 0.050497 -0.042367 -0.385535 -0.039731 -0.170720 0.433212 0.230840 0.268936 -0.024770 0.017023 -0.555956 -0.350133 0.088883 0.131501 -0.174589 0.348380 0.151000 -0.190564 0.139360 -0.210604 0.203114 -0.219561 0.330936 -0.072610 -0.612852 -0.127434 -0.012090 -0.389221 -0.408134 -0.006001 -0.089608 0.123956 0.083488 -0.093359 0.126475 0.007374 0.584871 0.068805 0.065697 -0.237825 -0.059017 -0.113294 -0.236904 -0.081251 0.174882 0.533132 0.147743 -0.069016 -0.138090 0.207642 -0.146324 -0.147853 -0.124306 0.198797 0.022950 0.107488 -0.147736 0.049186 0.040887 -0.243161 0.147410 -0.117897 0.151382 -0.280390 -0.041985 -0.040657 -0.068525 0.126921 -0.161673 0.136874 0.273266 0.467857 -0.230292 0.367390 -0.151087 -0.339379 0.149709 -0.247327 -0.418558 0.114502 0.221634 -0.276142 -0.064998 -0.160141 -0.305277
2413 0.079847 0.215382 0.060244 0.204742 0.484327 -0.121425 0.123501 -0.291283 0.306268 -0.098035 -0.035416 0.253086 -0.458865 -0.234404 -0.443132 0.252283 -0.593926 -0.118583 0.149799 0.071230 -0.170780 -0.102765 0.092488 -0.001021 -0.094965 0.451791 -0.057991 -0.358257 0.164675 -0.214502 0.068491 -0.068007 0.115804 -0.222717 -0.150803 -0.306483 -0.120991 0.290974 0.227396 -0.511224 -0.376726 -0.007455 0.233670 -0.785219 0.137365 0.011990 -0.627126 -0.323728 0.137228 0.020263 -0.421199 0.512670 -0.080950 -0.103341 0.054213 0.107660 0.043118 0.212401 -0.416650 -0.233903 -0.064368 0.587389 -0.126320 -0.253214 0.154992 -0.284843 -0.479932 -0.615178 0.375769 0.145873 -0.039909 -0.607872 0.135605 0.349319 -0.436794 0.068409 0.054253 -0.164073 -0.155989 0.168704 -0.216482 -0.115743 -0.055880 0.027947 -0.304605 -0.211449 0.323616 -0.063821 0.249292 -0.041615 0.375164 0.190157 0.122326 -0.678603 0.245133 0.189232 0.153268 -0.122761 -0.122019 -0.080304 0.441005 -0.065582 0.144273 -0.176772 -0.027232 -0.238746 -0.367931 0.095789 0.311166 -0.186512 -0.006673 0.188502 0.209509 -0.350795 -0.400451 0.371118 0.477634 -0.302528 -0.087273 -0.513873 0.747360 -0.211932 0.366547 -0.097432 0.175757 -0.024549 0.134794 -0.028467
1841 -0.381333 0.209865 0.110049 0.174436 -0.496857 -0.367617 -0.163807 -0.100851 0.361565 0.177616 0.287537 0.169373 -0.130092 -0.161784 0.033010 -0.103129 0.102049 -0.535376 0.241282 -0.104665 -0.153288 0.191590 -0.347123 0.031009 -0.228834 0.096759 -0.034584 0.049274 0.051813 -0.209944 0.065400 0.082090 0.082851 0.295595 0.106043 0.065344 0.224956 -0.099250 -0.159228 0.042586 -0.050814 -0.041435 -0.471463 0.224604 0.109212 -0.396969 0.061512 -0.481887 0.284795 0.461967 0.337014 0.086888 -0.156450 0.067114 -0.179166 0.055042 -0.182123 -0.349979 0.499486 0.069276 0.036084 -0.178013 -0.108378 0.549097 -0.046645 0.047053 0.019561 -0.251373 0.159769 0.363491 -0.077126 -0.644382 0.069904 -0.098469 0.142076 0.196488 -0.123943 0.037944 0.163744 0.328519 0.044926 0.051046 -0.318358 -0.030744 0.052817 -0.096238 0.025749 0.353404 0.305675 0.187378 -0.012775 0.169210 0.616486 -0.574872 0.121614 0.165970 -0.422055 -0.436635 0.355859 -0.154123 0.092497 0.111374 -0.294769 -0.019906 -0.100396 -0.193396 0.001188 0.143187 -0.190387 -0.395767 -0.010980 -0.030925 -0.088617 0.048218 0.189480 -0.394669 -0.004606 -0.140070 -0.210359 -0.013926 -0.377419 0.009028 0.260279 -0.022142 -0.319154 -0.365719 -0.709314 -0.269381
1643 -0.085261 0.112309 -0.139849 0.199004 -0.505636 -0.186782 -0.186988 -0.246793 0.084670 0.425568 0.090453 -0.217131 -0.094944 0.010278 0.326164 0.140190 -0.090209 -0.750476 -0.256261 -0.109535 -0.404713 -0.140126 -0.383815 -0.281003 0.082867 0.009887 -0.314243 0.209621 0.087586 0.177143 0.233799 0.071790 -0.253687 0.094000 -0.106876 0.008175 -0.349337 0.130271 -0.215465 0.092674 -0.242848 0.300080 -0.148660 -0.302254 -0.072206 -0.600936 -0.039011 -0.314287 0.033879 0.240998 0.387631 -0.239437 -0.161589 0.222591 0.208776 -0.238907 -0.245131 0.025609 0.460484 0.181439 -0.223019 0.099321 -0.399445 -0.264021 -0.075737 0.127293 0.101905 -0.071963 -0.106155 -0.010528 0.085447 -0.122517 -0.132846 0.183519 -0.353340 0.092519 -0.098977 -0.063471 -0.054631 0.487670 0.082699 -0.164379 0.016948 0.093527 0.131929 0.347293 0.257073 -0.241145 0.196847 -0.271121 -0.017274 -0.016720 -0.174302 0.101239 -0.447941 0.004604 0.256434 -0.122565 0.075339 -0.054445 0.345047 0.042012 -0.379238 -0.216292 -0.103024 0.187437 0.300821 -0.119778 0.083596 0.467716 0.095003 0.363065 0.570690 0.330749 0.233027 -0.259908 0.071464 0.427873 -0.293040 -0.006967 0.315612 0.671121 -0.090588 0.006622 0.004939 0.167201 -0.130281 -0.048787
2587 0.303911 -0.374602 -0.378911 -0.536868 -0.728940 0.196478 0.365169 0.687898 0.188930 -0.565949 0.537973 0.284238 0.232618 -0.292991 0.587751 -0.174637 0.778632 -0.293484 0.227541 0.209297 -0.730853 1.049363 0.462095 0.200523 -0.459287 -1.007335 0.275327 1.083599 0.463432 0.172887 0.123891 -0.114536 -0.050038 0.079946 -0.700270 0.345121 0.747674 0.625064 0.386330 -0.505258 0.463757 -0.150886 -0.004405 -0.296135 -0.895753 0.183034 0.463720 0.101314 -0.744254 -0.235145 -0.527522 -0.596021 0.102850 0.514247 0.942589 0.896208 -0.224360 -0.839614 0.010931 -0.849570 0.257350 0.207864 -0.334053 -0.595678 0.138472 0.291617 -1.121286 -0.108827 0.005149 0.761716 -0.043005 -0.540801 0.597336 -0.412331 -0.403190 -0.025293 -0.352989 -0.313755 0.216088 0.067730 -0.485725 -1.065972 0.253607 -0.064852 -0.184212 -0.771649 -0.073232 0.345265 -0.585020 0.537999 0.357479 1.091848 -0.281700 -0.055138 0.376648 0.527973 -0.311148 0.095271 0.219743 -0.239905 -0.243743 0.367309 0.204440 0.227611 -0.308286 0.181250 0.434334 -0.658833 0.500108 0.087183 -0.194513 0.220265 0.666581 0.246275 -0.264633 0.132116 0.967642 0.161746 -0.133683 -0.294622 0.038203 -0.094140 -0.420455 -0.022288 -0.135209 0.084417 -0.126272 0.018162
2344 -0.104378 0.194949 -0.062308 0.178807 -0.540640 -0.298639 0.427267 -0.382468 -0.189130 -0.310348 -0.177870 0.449894 0.392203 -0.388567 -0.065422 -0.024458 0.375724 -0.375928 0.401472 -0.151412 -0.071091 0.090303 0.079806 0.266855 0.188890 0.069562 -0.333654 -0.313638 -0.178092 0.125545 -0.013289 0.066174 -0.455977 -0.182507 0.098437 -0.212775 -0.019887 0.093426 0.045215 -0.738318 -0.143491 0.033015 0.172222 -0.500753 -0.051000 0.428557 -0.111410 -0.083604 -0.288457 0.380469 -0.180070 0.431618 -0.298808 -0.095952 0.791015 -0.143789 0.076107 -0.197167 -0.090928 -0.230836 0.397302 0.220962 0.021988 -0.609619 0.360445 0.340786 0.380370 -0.220604 0.436856 0.278567 0.221236 0.004916 -0.186821 -0.359414 0.404163 0.151343 -0.348650 -0.070654 -0.326790 0.320009 -0.328772 -0.310013 -0.485334 -0.245142 0.184385 -0.417403 -0.132191 -0.323661 0.224336 0.201216 0.094609 0.181367 0.111785 -0.212126 0.156096 0.456274 0.477993 -0.168841 0.334541 0.121659 0.223327 0.398819 0.623743 -0.007993 0.012372 -0.165346 -0.316357 -0.115199 0.443223 -0.141495 -0.217955 -0.253063 -0.355004 -0.107832 -0.277886 0.211583 0.278168 -0.320818 0.120535 0.128377 0.128954 0.133609 -0.015483 0.194392 0.529557 0.364150 0.202553 0.215336
1514 -0.113230 -0.379271 0.358520 0.164474 -0.525533 -0.118759 -0.115708 -0.527302 -0.000647 0.100914 0.321595 -0.103372 0.036305 -0.061608 0.133210 0.040418 -0.118581 -0.433072 0.037977 -0.057754 -0.501607 -0.161472 -0.443662 -0.138589 0.001967 -0.130960 -0.199697 0.104183 0.138010 0.475833 -0.031286 -0.079089 0.006637 0.186095 -0.106817 -0.172005 -0.322332 0.378503 -0.129435 0.056116 -0.180741 0.356889 -0.243527 -0.369568 -0.130118 -0.260294 -0.124605 -0.429749 -0.141099 0.076024 0.289227 -0.435823 0.154445 -0.006052 0.124587 0.043183 -0.007645 0.068751 0.511041 0.355025 -0.051772 -0.132485 0.094316 -0.018679 0.094571 -0.004146 0.149600 0.228136 -0.232058 0.460534 0.082817 -0.391745 0.044328 -0.085848 -0.268708 0.485895 -0.519010 0.097093 0.089062 -0.505823 0.204676 -0.177918 -0.072768 -0.163845 -0.003141 0.278040 -0.006677 0.064608 0.439632 -0.171577 -0.005465 -0.115309 -0.149700 -0.205086 -0.148876 -0.333970 0.082942 -0.293603 -0.196897 0.095297 0.315249 -0.432924 0.005211 -0.013593 -0.098051 0.313751 0.230041 -0.101038 -0.201059 0.204098 0.397486 0.228721 0.462836 0.315628 -0.056276 -0.165666 -0.322571 0.025868 -0.063726 0.166502 -0.203222 0.421088 0.005154 -0.006763 0.057859 0.126243 0.006241 0.022557
96 -0.217899 -0.090557 0.392263 -0.065324 -0.288472 0.632980 0.846475 -0.311636 -0.151568 0.632538 -0.018869 0.294941 -0.032466 -0.273197 -0.430699 0.351478 -0.371398 0.356425 0.928813 -0.477608 -0.032132 0.194396 0.221169 0.267313 -0.038215 0.016570 -0.093058 0.189049 0.839935 0.126210 -0.233994 0.197112 -0.691036 -0.396338 0.075312 -0.528154 0.728544 0.007340 -0.542747 -0.464478 -0.116479 -0.194690 -0.117536 -0.032766 0.035975 0.264435 -0.229208 0.118724 0.107502 0.292460 -0.020040 -0.420357 -0.235855 0.220236 0.388069 0.086355 0.706505 0.224646 -0.278790 -0.059019 -0.312581 -0.106703 -0.946342 0.407654 -0.146323 0.040561 0.116359 0.538831 0.564504 0.466725 0.444807 0.156328 -0.495331 0.026068 -0.048962 0.242929 -0.499840 -0.146193 -0.238052 0.194370 -0.085741 -0.583798 0.258789 -0.123416 -0.138752 0.026418 -0.094685 -0.063196 0.228815 0.169323 -0.443608 -0.400154 0.142737 0.211878 -0.160910 -0.706527 0.078265 0.585504 -0.180157 -0.971667 -0.147954 -0.330171 0.190688 0.047886 0.287842 0.049235 0.395310 0.295519 0.431430 -0.877989 -0.124463 -0.071864 0.078934 0.222994 0.020798 -0.193125 -0.201296 -0.027054 -0.665628 -0.063930 -0.124749 -0.494263 0.120635 0.380478 0.178674 0.077365 -0.195881 0.270722
3120 0.139786 -0.176754 -0.104922 -0.588635 0.047702 0.208608 0.047033 0.440549 -0.101293 0.085132 0.270865 -0.329072 -0.012540 0.035254 -0.746992 -0.102165 0.136341 -0.442404 0.091971 -0.272955 -0.270497 -0.245738 -0.094664 0.129191 -0.095464 0.323037 -0.131318 -0.384136 -0.260328 -0.183516 -0.326510 -0.823623 0.075238 -0.462255 0.014682 0.546409 0.755550 0.041687 0.362096 0.006570 0.480978 -0.250671 -0.030583 -0.292349 -0.451080 -0.030729 -0.252018 0.114796 0.148520 0.341622 0.101259 0.251568 -0.151346 0.675514 0.271085 -0.182008 -0.168398 -0.321204 -0.030302 0.448730 -0.242159 -0.173930 -0.696779 0.559421 0.167629 0.046415 0.325604 -0.046382 0.062532 -0.265190 0.217587 -0.204445 -0.488846 0.050110 0.132507 -0.269626 -0.135231 -0.049033 -0.268285 -0.077423 0.286311 -0.163491 -0.197075 0.085049 0.265846 -0.423555 0.021410 -0.302428 -0.050858 -0.252022 0.010773 0.210521 -0.254812 0.051670 0.400721 -0.257503 -0.133706 -0.189255 -0.333882 0.506236 -0.030790 -0.432770 -0.247014 0.228365 -0.115628 -0.359862 -0.510447 -0.049602 -0.466789 0.199043 -0.156119 -0.448910 0.414977 0.033601 0.195558 -0.202694 0.543451 -0.430150 -0.085387 -0.365036 -0.543491 0.036865 0.023350 -0.166303 0.148754 -0.070055 -0.223953 0.399127
537 0.008703 -0.175680 0.266210 0.092039 -0.409145 -0.036060 -0.178039 -0.213531 0.021351 0.197511 0.293222 -0.184343 0.231576 0.110684 0.278381 -0.317107 -0.153897 -0.685560 -0.111140 -0.015665 -0.433030 -0.126377 -0.453208 -0.293252 0.181455 -0.188315 0.191726 0.189465 0.143670 0.305692 0.108925 -0.112761 0.121878 0.230283 -0.053830 -0.276555 -0.308927 0.461720 -0.198810 0.141637 -0.411482 0.259982 -0.418499 -0.324330 -0.051646 -0.189984 0.064371 -0.251617 -0.201953 0.316763 0.170030 -0.452666 0.020028 0.000330 0.346312 -0.201448 -0.316271 0.158691 0.578636 0.124774 -0.083579 0.016836 -0.052098 -0.139237 0.153646 0.264692 0.165370 -0.085057 -0.279645 0.633487 0.077623 -0.251172 -0.394351 -0.018473 -0.343762 0.318124 -0.229001 0.018065 0.210733 -0.049343 0.105614 -0.250731 -0.105417 -0.118071 -0.144799 0.257103 0.147318 -0.140656 0.078366 0.024377 -0.011586 -0.043722 0.108977 -0.216705 -0.101834 -0.049878 -0.258001 -0.319942 -0.223705 0.041846 0.271310 -0.183109 -0.227713 -0.005853 -0.036213 0.139651 0.101674 0.377042 -0.183968 -0.210840 0.169778 0.062064 0.259132 0.274341 0.008596 -0.030309 -0.215444 0.236595 -0.163978 -0.001097 0.105276 0.221221 -0.093344 0.229074 -0.042107 0.096780 -0.189807 -0.152737
471 0.534806 -0.278117 -0.525162 -0.476617 -0.019855 0.514183 0.237851 0.099194 0.624264 0.229936 -0.697580 0.152483 -0.709606 -0.474228 -0.100712 -0.546471 0.725058 -0.270213 -0.214315 0.099988 -0.136319 0.354236 0.185582 -0.008102 -0.350233 0.607421 -0.891902 0.096327 -0.504120 0.506654 -0.555688 0.815385 -0.247405 0.434738 0.727681 -0.871600 -0.124593 -0.500462 -0.147238 0.304736 0.059645 0.073364 -0.400964 0.902552 -0.218914 0.173281 -0.062361 -0.162761 0.673679 -0.434719 0.218292 -0.489259 -0.538214 -0.023453 -0.205436 0.112982 -0.000860 0.346017 0.146326 -0.482937 -0.301631 0.557094 -0.625066 0.470663 0.318329 0.324592 0.091092 0.136605 0.117452 0.444107 -0.581617 -0.490651 -0.279112 0.792317 -0.437900 -0.079764 -0.259681 0.270628 -0.645220 0.123321 0.028300 0.547686 0.094636 1.085430 -0.295547 -0.042568 0.220543 0.259619 0.094639 -0.401783 0.200491 -1.105028 0.546441 -0.434209 -0.007311 -0.152583 -0.281015 -0.371229 -0.238219 -0.306001 -0.276558 0.148327 0.300480 0.648574 0.487340 0.320076 -0.729229 -0.057103 0.534404 -0.225872 0.505802 -0.348983 -0.353160 0.107398 0.277253 -0.538725 0.285199 -0.564247 0.243212 0.406123 -0.196747 0.097595 0.469373 0.057169 -0.704046 -0.008653 0.240109 0.397326
366 0.172166 -0.151671 0.454378 -0.165830 -0.202768 0.111497 -0.256072 -0.274344 0.504706 -0.035896 0.101281 -0.104441 -0.163612 -0.284378 0.347733 -0.190697 0.135986 -0.346214 0.364338 -0.273754 -0.008716 0.238488 -0.019748 -0.218018 0.055639 -0.113104 0.093581 0.335507 -0.148847 -0.408354 0.098394 0.230711 -0.109286 0.075914 -0.046228 0.413635 -0.019578 -0.092033 0.038182 0.296164 0.080578 -0.316048 -0.262670 -0.127847 0.210218 -0.321055 0.105086 -0.354804 -0.120174 0.101715 0.083529 -0.406650 0.106564 -0.296740 0.107947 0.284652 -0.206611 -0.018444 0.697949 0.023115 -0.072688 -0.073664 -0.198585 -0.132252 -0.054974 0.318476 0.029148 -0.362232 0.371618 0.050545 -0.318034 -0.477429 -0.088144 -0.267810 -0.089692 0.056272 0.269872 0.358176 -0.000296 0.612449 0.219905 -0.347062 -0.411363 -0.202703 -0.032605 0.454053 0.077358 0.285458 0.422939 0.061846 0.008176 -0.378294 0.012681 -0.393692 -0.242973 -0.197789 0.045927 -0.359600 0.049012 -0.039263 0.121178 0.240875 -0.307878 0.125516 0.057939 0.274869 -0.320583 -0.256653 -0.380946 -0.178231 0.113693 0.029658 -0.123542 0.247730 0.093570 -0.425003 0.173752 -0.005204 -0.192490 -0.106514 -0.459550 -0.587595 0.199630 -0.075143 -0.283315 -0.354850 -0.139434 -0.148972
1282 -0.066891 0.495353 0.332699 0.262185 -0.512116 -0.614770 -0.499864 0.066910 0.266627 0.120819 0.302361 0.558256 -0.003001 0.464563 0.151855 0.475426 -0.003879 0.182574 0.213940 -0.643228 0.618583 0.934323 -0.151576 -0.329158 -0.489032 0.091152 0.280801 -0.409198 0.003574 0.393260 -0.010919 -0.002472 -0.479090 0.310778 1.127579 0.069291 0.343007 0.823402 -0.199088 -0.166035 0.073994 -0.566687 0.173573 -0.261843 -0.134965 0.270400 -0.659930 0.541103 0.028925 0.451836 -0.494610 0.239889 0.057278 0.099153 0.070526 0.159561 0.035294 0.206576 -0.377520 -0.131704 -0.819339 -0.444024 -0.596411 0.171451 0.142738 -0.287323 0.307593 0.058952 -0.717881 0.359989 0.253865 0.400134 -0.216791 0.016160 -0.333694 -0.187102 0.306071 0.474663 0.103085 0.410464 0.628397 -0.486773 -0.640663 -0.452268 -0.177851 0.075967 0.518350 -0.096811 0.380335 0.359754 -0.083887 0.287172 -0.174210 0.703597 -0.138032 0.134575 0.905360 -0.249733 0.121299 0.418371 0.163466 -0.548009 -0.317843 -0.111327 0.404033 -0.343989 -0.189172 0.049126 -0.297612 0.033822 -0.415810 -0.106575 -0.380418 -0.295157 -0.130967 -0.404858 -0.506863 0.347123 0.375810 1.054925 -0.059237 -0.422404 0.367513 -0.670422 0.002900 -0.294816 -0.174921 0.325777
1861 0.502248 -0.148297 0.091500 0.014114 0.175808 0.138277 -0.463751 0.050557 -0.127380 0.045953 0.571628 -0.130859 -0.572995 -0.370701 -0.784736 -0.107473 -0.260283 0.155304 0.123514 0.113442 -0.006868 -0.062825 -0.042223 0.466459 0.007548 0.130488 -0.161090 -0.583608 0.169875 0.107214 -0.546351 -0.307982 -0.183609 -0.321164 -0.215686 0.034728 0.541878 -0.155067 0.750720 -0.134833 -0.047154 0.187931 0.524689 -0.861181 -0.759615 -0.065563 0.054006 -0.373545 0.154684 0.544109 0.011995 -0.006867 -0.265525 0.490785 -0.338544 0.109194 0.049696 0.117773 -0.055132 -0.276155 -0.463476 0.656912 -0.452018 0.144407 -0.212562 -0.488574 0.027336 -0.470962 0.559883 0.003887 0.169474 -0.175212 -0.216792 -0.117445 0.131629 0.107799 -0.693715 -0.527300 -0.230371 0.194070 0.349571 -0.512766 -0.304236 -0.200878 -0.228524 -0.590036 -0.420023 -0.041225 0.200952 0.073470 0.260384 0.207032 -0.069672 0.196088 0.472795 0.490945 0.075963 -0.327202 -0.349195 0.103612 -0.283268 -0.166806 -0.422410 0.015900 -0.052654 0.214813 -0.554721 0.302624 -0.175602 -0.060188 -0.396152 -0.484881 0.130235 -0.321804 -0.233553 0.102236 -0.176592 0.128156 -0.276599 0.070648 -0.074050 0.444072 -0.260948 0.257791 -0.218592 0.021669 0.180507 0.011043
1031 -0.252039 -0.086413 0.196459 -0.478675 -0.061843 0.015378 -0.002641 -0.303401 -0.100260 0.001358 0.419410 0.052296 0.263309 0.123142 0.578837 -0.323512 0.212041 -0.134877 0.405284 0.124210 -0.092226 0.109988 -0.302059 -0.086878 0.385208 0.081374 0.141755 0.027605 0.205627 -0.493738 -0.030983 -0.026202 -0.047250 -0.071653 -0.475506 0.216316 0.058415 -0.195929 -0.144059 0.359642 -0.564571 0.284135 -0.116221 -0.171624 -0.121353 0.154024 -0.223291 -0.491425 -0.387626 -0.153232 0.121203 0.161027 -0.145781 -0.179648 0.287179 -0.038767 -0.102838 0.159898 -0.078256 0.415057 0.639356 0.319500 -0.585075 0.203224 -0.116479 0.063275 0.118827 -0.011202 -0.004894 0.207723 0.381119 -0.450833 0.073518 -0.587111 -0.101878 0.302479 -0.596310 0.257197 0.424734 0.640867 0.016491 -0.289651 0.170297 0.190003 0.259864 0.391956 0.301127 -0.293678 -0.007736 -0.118125 -0.042360 -0.588707 0.440826 -0.072410 0.265871 0.352618 0.301391 -0.844906 0.358950 0.009170 -0.491757 -0.110163 0.094239 -0.230678 -0.039723 0.039082 -0.077057 -0.281162 0.009450 0.345043 -0.069972 0.208422 -0.085658 0.006709 0.489822 0.093406 -0.342808 0.083199 -0.137935 0.237273 0.034954 -0.282222 0.504649 0.115212 -0.601180 0.262073 0.095569 0.157321
1493 -0.182897 0.316592 0.127770 -0.179856 -0.281708 0.587093 -0.206034 -0.245430 0.303466 0.462908 0.278149 0.442709 0.211814 -0.517096 -0.279165 0.682588 -0.080312 -0.320956 -0.675268 0.494393 0.602607 -0.045049 0.386294 0.318145 0.283133 -0.067428 0.073587 0.041702 0.569685 0.167286 -0.107941 0.279893 -0.371175 -0.543233 -0.107595 -0.406748 -0.511554 -0.290613 -0.240918 0.161535 0.698691 -0.240409 0.042419 0.214436 0.543852 0.083314 0.463688 -0.020377 0.213732 0.348013 0.354015 0.170492 -0.069462 -0.261587 0.077426 -0.002037 0.188279 0.061023 -0.287320 -0.457189 0.356577 -0.525214 -0.826849 -0.658299 -0.448526 -0.334428 0.166097 0.113488 -0.262495 0.111446 0.320102 -0.398854 0.574353 -0.620562 0.065428 -0.470773 0.195731 -0.220616 -0.027547 1.266159 0.202194 0.126620 0.122988 0.113808 0.054068 0.012042 0.346199 0.180273 0.308789 -0.364572 -0.033848 0.332104 -0.403280 -0.296402 0.263727 0.064699 -0.240942 -0.691583 0.136507 0.342231 0.047603 0.116890 0.182876 0.446587 -0.622891 -0.034145 0.125168 -0.296503 0.527916 -0.515391 -0.254701 0.148599 0.574160 0.230781 -0.717796 0.217082 0.482679 -0.217558 0.802237 0.507138 0.089846 -0.884576 -0.080297 0.214227 0.226288 0.451773 -0.273002 0.388130
1962 -0.226139 -0.017380 -0.158061 -0.036555 -0.115556 -0.380930 -0.336551 0.086353 0.246399 0.038097 0.200131 0.090360 -0.111507 0.080768 0.308967 -0.050653 0.025453 -0.678776 -0.203688 -0.123617 -0.101098 -0.326171 0.121069 -0.189921 0.184845 0.088821 -0.100180 0.194030 0.261277 0.232708 -0.037408 0.157363 -0.149137 0.120477 -0.057178 0.092467 -0.054216 -0.094648 -0.202781 0.247384 -0.691646 0.102750 -0.449362 -0.205127 -0.082739 -0.337215 0.035408 0.152135 0.365282 0.170786 0.036170 0.040834 0.030122 -0.234556 0.395496 0.121416 0.009802 -0.285174 0.082596 0.055884 -0.127253 0.216365 -0.441671 -0.094870 0.216064 0.045793 0.211199 -0.064046 -0.519209 -0.100268 0.481507 -0.143084 -0.046196 0.060819 0.031988 -0.219366 -0.353439 0.284365 0.046871 0.313923 0.434274 0.064662 -0.291369 0.220037 0.362686 0.146752 0.042511 0.142681 -0.014230 -0.241112 -0.362006 -0.343461 0.127443 -0.114669 -0.413230 -0.319498 -0.005108 0.001748 0.451480 -0.125811 -0.187409 0.059325 -0.235803 0.194239 -0.004570 0.234353 0.047507 -0.128586 0.049883 0.229512 0.081846 0.436616 0.864438 0.166765 0.364900 -0.103301 -0.124488 -0.217585 -0.383446 0.105133 -0.036959 0.542290 0.435514 0.053084 0.136683 0.130793 -0.128568 -0.244488
1027 0.034198 -0.459785 -0.045044 0.064011 -0.475479 -0.350501 -0.253171 -0.163342 0.382873 0.095283 0.242798 0.143281 0.066604 0.279398 0.164333 0.048521 -0.067587 -0.266971 -0.169169 -0.230386 -0.578323 -0.074523 -0.801355 -0.489214 0.474845 -0.126557 0.142619 -0.095545 0.016846 -0.123537 0.228210 -0.033751 0.261031 0.480875 -0.456362 -0.040095 0.056264 -0.039197 -0.360419 -0.031614 -0.128716 0.251641 -0.345886 -0.272768 0.162885 0.094275 0.405263 -0.116110 0.045775 -0.037870 -0.084185 -0.241792 -0.155954 -0.093648 0.150488 -0.071406 0.283057 0.128997 0.622733 -0.267341 0.144924 -0.113396 -0.185298 0.014868 0.001113 0.008535 -0.101365 -0.065786 -0.226168 0.386267 0.032361 -0.259977 -0.115700 -0.206525 0.133895 -0.252221 -0.125927 0.003412 -0.135171 -0.228209 0.271699 -0.379289 -0.013386 -0.317845 0.560670 0.118572 0.287527 -0.020592 0.423069 -0.311773 0.211428 0.108416 0.493575 -0.466895 -0.000541 -0.269056 0.066989 -0.237651 -0.129981 0.133752 0.041592 -0.304460 -0.354403 -0.188344 0.126184 0.042430 -0.473198 -0.125574 0.068859 -0.239419 0.271761 -0.229886 0.082292 0.390869 0.316706 -0.142554 0.109281 0.114246 0.086925 0.312124 0.015842 0.257972 0.300477 0.507204 -0.597674 -0.054026 0.134185 0.133580
285 -0.300774 -0.112218 -0.109743 -0.439185 -0.224182 -0.132597 0.050118 -0.380934 -0.074365 0.052879 0.195925 0.077829 0.094824 0.100019 0.432286 -0.067354 -0.032206 -0.505905 0.061741 0.251427 -0.332407 0.193131 -0.525090 -0.046590 0.388700 0.347059 -0.051939 -0.068134 0.085992 -0.375852 0.173447 -0.017732 -0.038092 -0.033629 -0.372865 0.026260 -0.008638 -0.289909 0.035210 0.123783 -0.397776 0.266890 -0.241955 -0.196671 0.031203 -0.204189 0.020243 -0.182344 -0.334016 0.215181 0.179237 0.022140 -0.317692 -0.435598 -0.021686 0.201822 -0.070759 0.319397 0.035584 0.142816 0.087917 0.181939 -0.230804 0.427128 -0.510274 0.349652 0.184883 0.018135 0.312170 0.193648 0.487246 -0.051086 0.074491 -0.125061 -0.000271 -0.242167 -0.472868 0.061048 0.295505 0.343044 0.170931 -0.091429 -0.015662 -0.243919 0.343715 0.412795 0.188389 0.141217 0.152671 -0.069342 0.224758 -0.243588 0.188924 0.024002 0.199969 0.247901 0.319131 -0.598027 0.249991 -0.406257 -0.331142 -0.152820 -0.175513 -0.193655 -0.172991 -0.041185 -0.282596 -0.576362 0.080759 0.320203 -0.037585 0.182190 0.235169 0.197346 0.422431 0.250096 -0.075097 0.122410 0.151283 0.167877 -0.261551 0.005172 0.271637 -0.180179 -0.085318 0.186313 0.027260 -0.100128
1917 -0.249034 0.272869 0.109168 -0.020362 0.367806 -0.098540 -0.120178 -0.469886 -0.119832 0.092052 -0.050523 0.201187 -0.519133 -0.042045 -0.337932 0.134923 -0.258654 -0.325460 0.237823 0.212612 0.000462 0.050864 0.356230 0.210762 -0.106303 0.574624 -0.289634 -0.631188 0.227612 -0.083609 0.034911 0.016062 0.090672 -0.402056 -0.512062 -0.630994 -0.004497 0.149745 0.294794 -0.306051 -0.270192 0.498663 0.116616 -0.793673 0.013028 0.446830 -0.538480 -0.091808 0.094297 0.201866 -0.333054 0.171446 -0.285882 0.006790 0.050415 0.391783 -0.003176 -0.021474 -0.335841 -0.284536 0.182164 0.708320 -0.125302 -0.475817 0.280908 -0.227149 -0.306315 -0.642146 0.440504 -0.061772 -0.446373 -0.632115 0.071856 0.279648 -0.521623 0.301590 -0.098977 -0.223385 -0.167873 0.157747 0.056596 -0.192955 0.086728 -0.167649 -0.295948 -0.370019 0.324743 -0.097265 0.156580 0.043885 0.172305 0.073927 0.024551 -0.340280 0.068824 0.235696 -0.031339 -0.283971 -0.245669 0.170297 0.667767 -0.010438 0.081460 0.049705 0.094050 0.060956 -0.366234 0.033765 0.071522 -0.402056 0.017503 0.286274 0.002511 0.027525 -0.157397 0.157609 0.292363 -0.411106 0.024077 -0.524421 0.341690 -0.369899 0.279095 0.026455 0.034228 -0.237620 0.333667 0.122705
2281 -0.158717 -0.210014 -0.265103 -0.091562 -0.110881 -0.201928 -0.449911 -0.140781 0.041431 -0.040883 0.222806 0.343431 -0.124770 0.029791 0.479535 0.095022 -0.216663 -0.726830 -0.207293 -0.103095 -0.058568 -0.260398 -0.198291 -0.349583 0.037946 0.069069 -0.077450 0.354180 0.079170 0.255803 0.003848 -0.001699 0.086874 0.186148 -0.166922 0.086668 -0.020307 -0.132110 -0.269199 0.139947 -0.504778 0.181936 -0.590795 -0.192031 -0.048069 -0.388935 -0.039681 0.389549 0.189731 0.267789 0.121654 0.071027 0.108983 -0.190606 0.384877 -0.077951 0.157117 -0.225216 0.169672 -0.074907 -0.310953 0.045966 -0.201975 0.079841 0.055974 0.200096 0.452160 0.008145 -0.228199 -0.211993 0.328795 -0.349296 -0.356191 0.022458 0.107233 -0.319531 -0.424856 0.304118 0.162930 0.389406 0.551553 -0.181982 -0.349476 0.397004 0.170519 0.069110 0.091111 0.115119 0.120195 -0.234377 -0.185176 -0.188030 0.032847 -0.007010 -0.179009 -0.243501 -0.226021 -0.128408 0.488167 -0.095073 -0.063782 0.007582 -0.300423 -0.055827 -0.015857 0.322558 0.368243 0.038947 0.017986 0.219863 0.209968 0.271950 0.577683 0.279766 0.206741 -0.092773 -0.090179 -0.132142 -0.250737 0.244020 0.274723 0.536369 0.274288 0.114117 0.117580 0.371585 0.083088 -0.328874
3315 -0.004360 -0.474350 0.131000 -0.223152 0.171005 -0.386079 -0.203399 -0.661920 0.389414 0.125331 0.370921 0.112440 0.256334 -0.405967 0.459215 -0.640639 -0.348349 -0.541552 -0.048311 -0.462736 -0.379179 -0.117702 -0.099328 -0.150357 0.116656 0.043048 0.058860 0.296093 -0.026683 0.061533 -0.135067 -0.203410 -0.007587 0.303098 -0.283492 -0.098081 -0.091474 0.365214 0.136100 -0.065288 -0.497662 -0.121887 -0.119165 -0.185924 0.405847 -0.227269 -0.209782 -0.765876 -0.312013 0.588872 0.139776 -0.347579 0.082100 -0.284009 0.337622 -0.200065 0.028194 -0.007757 0.603970 0.277429 -0.014494 0.131903 0.051800 -0.092878 0.079135 -0.237332 0.312533 0.007556 -0.431532 0.510075 0.232914 0.007261 -0.336465 0.196434 -0.266593 0.134735 -0.081088 -0.014034 -0.067664 0.216816 0.100832 -0.005714 0.237622 0.001683 0.065519 0.423286 0.356319 -0.169198 -0.088259 -0.276899 -0.154276 -0.136603 0.033447 -0.195735 -0.082003 -0.165745 0.071139 -0.058652 -0.075785 -0.040979 0.072931 -0.266003 -0.249776 0.073710 -0.224827 0.205582 0.113693 0.012806 -0.075379 -0.036897 0.007601 0.046578 0.082324 0.392119 0.088012 -0.266491 0.001371 0.281854 0.060152 0.061697 -0.014200 0.319283 -0.269703 0.173350 -0.069479 0.192239 -0.101769 0.041794
531 -0.085112 -0.318981 0.232584 0.212283 -0.354390 -0.158778 -0.140011 -0.304439 0.205208 0.014611 0.156551 0.081446 -0.136923 -0.089233 0.345757 -0.062695 -0.178989 -0.558549 -0.014522 -0.033990 -0.437953 -0.034068 -0.337344 -0.328447 0.291034 -0.088343 -0.277565 0.257740 0.305051 0.500870 -0.047365 -0.063531 -0.162706 0.191319 0.020041 -0.044948 -0.315183 0.042592 0.045860 -0.025649 -0.309254 0.106840 -0.263644 -0.360328 0.062283 -0.392566 0.112176 -0.396603 -0.250656 0.088633 0.251962 -0.449818 0.118414 -0.200626 0.147358 0.067152 -0.063347 0.066330 0.708340 0.415396 0.063296 0.014603 -0.252109 -0.039095 -0.086231 -0.114822 0.297159 0.080728 -0.272757 0.594828 0.206118 -0.378960 -0.172072 -0.172153 -0.230544 0.224855 -0.280901 0.364215 -0.067913 -0.267749 0.215290 -0.273326 -0.129591 -0.039371 -0.056297 0.408814 0.145694 -0.086502 -0.109525 -0.297205 -0.228396 0.245080 0.085105 -0.072320 -0.342029 -0.054559 -0.090568 -0.157373 -0.370150 0.075895 0.314966 -0.292761 -0.301590 -0.065497 -0.166687 0.228762 0.351616 0.235179 -0.127044 0.173402 0.223010 0.289819 0.306072 0.140670 -0.110285 -0.009400 -0.362955 -0.007899 -0.164500 -0.098481 -0.009741 0.382127 0.058566 0.016934 -0.081480 0.097404 -0.206963 -0.020419
1757 0.267724 0.449992 -0.120622 0.087297 0.335787 -0.020004 -0.112189 -0.108374 -0.083729 0.517589 -0.040862 -0.143273 0.441268 -0.184388 0.446569 -0.479474 0.135392 -0.352339 -0.211928 -0.051177 -0.230804 0.221841 -0.625736 -0.013058 -0.219156 0.114857 -0.109816 -0.423628 -0.278405 -0.209647 0.406686 -0.048557 -0.236685 0.225241 0.065038 -0.254451 0.247116 -0.653036 0.229171 -0.313421 -0.416462 -0.179175 -0.469602 0.090198 -0.047247 0.242588 0.397974 -0.203027 -0.362551 0.011609 0.177412 -0.399104 0.239555 -0.396975 -0.037499 0.160745 -0.462619 0.358757 0.223725 0.203483 -0.348168 0.555655 -0.393231 0.080764 0.038274 -0.295861 -0.063921 0.879637 0.302058 -0.005082 -0.067235 -0.042034 0.137858 -0.770713 -0.357499 -0.223313 -0.332638 0.366955 -0.054380 0.428015 0.012905 -0.445251 -0.000261 0.206897 -0.198700 0.409397 0.044201 0.265043 0.149708 0.095269 -0.280546 -0.101172 0.033274 -0.268594 -0.451846 -0.019160 -0.103195 -0.517965 0.170838 0.160984 0.137030 0.053800 -0.027575 -0.066824 0.161164 0.039527 0.164285 -0.374142 0.388210 -0.081998 0.263960 0.364050 0.364460 -0.198366 0.039897 -0.218686 0.052814 0.252189 -0.133015 0.141092 0.009430 -0.562242 -0.050075 0.722340 0.245422 -0.055782 0.307223 -0.332432
8 -0.307123 0.208876 -0.501771 -0.112492 -0.211833 0.054869 -0.085117 -0.263408 0.110038 -0.179102 0.024133 0.255428 -0.194458 -0.342111 -0.467755 0.222656 0.007757 -0.131442 0.033844 0.119169 0.160971 -0.064850 0.146256 0.188796 0.221779 -0.093433 0.064616 -0.310441 0.138692 -0.057497 -0.496533 0.419992 -0.168297 -0.651577 -0.260155 -0.438489 -0.004167 0.044349 -0.417132 -0.616288 0.005941 0.303311 -0.133482 -0.855584 0.150065 0.598068 -0.431807 -0.484212 -0.111766 0.239720 0.002703 0.172928 0.135514 -0.024874 -0.321387 -0.496288 -0.061173 -0.110826 0.262179 -0.301787 0.078476 1.046305 0.194385 -0.704939 -0.122654 0.305125 -0.147222 0.101212 0.607935 0.060896 0.029781 -0.315489 0.011167 0.138695 -0.138398 0.264727 -0.152774 -0.247470 0.069447 -0.138957 0.147415 -0.265137 -0.081561 -0.099296 0.008932 -0.504187 0.137263 -0.418206 -0.105593 0.026667 -0.119857 -0.097435 -0.058784 -0.648664 0.061089 0.434779 0.158835 -0.082385 0.193193 0.060348 0.112455 -0.316509 0.237719 -0.128652 0.011398 -0.323207 -0.681014 0.110808 0.109596 -0.097411 0.070423 -0.029419 0.187592 -0.109043 -0.117096 0.111794 0.226725 -0.218676 -0.039657 0.199977 0.405634 -0.712147 -0.015955 0.067537 0.266615 0.089256 -0.157919 0.152590
0 -0.364787 0.136669 -0.117914 0.154559 -0.476649 -0.088130 0.028401 -0.603433 0.052324 0.008087 0.133854 0.209918 -0.166059 -0.355330 -0.487558 0.160256 0.064764 -0.259238 0.295670 -0.195701 -0.407738 0.012648 0.211785 0.334580 0.283514 -0.027808 0.036425 -0.039498 0.165523 -0.117653 -0.149266 0.571993 -0.121972 -0.478916 -0.223109 -0.279495 0.118031 0.130639 -0.384294 -0.293364 0.081325 -0.285554 -0.289441 -0.347450 0.397043 0.609955 0.002008 -0.333057 -0.352313 0.143762 0.181204 -0.139434 0.109343 0.118378 -0.314950 -0.571168 -0.050853 -0.176485 0.175638 -0.271713 -0.181817 0.314765 -0.242387 -0.094166 0.038104 -0.060505 0.207511 -0.003505 0.225293 -0.077164 0.413654 -0.178042 0.108283 0.337259 0.434692 -0.006862 -0.058717 0.200656 -0.172132 0.069860 0.078234 -0.786478 0.198349 -0.087409 0.345664 -0.106654 -0.203524 -0.389449 -0.181927 0.419208 0.131256 -0.352569 -0.198334 -0.420426 0.082792 0.221411 0.182923 0.220225 0.086854 -0.357677 -0.045584 -0.252252 0.526121 0.008366 0.225850 -0.330648 -0.138864 0.231925 0.182494 -0.449882 -0.092819 0.432933 0.196812 0.325742 -0.017458 0.155259 0.167283 -0.134970 -0.499283 0.437414 -0.128713 -0.776596 -0.002249 -0.091254 0.442126 -0.143922 0.160230 -0.047146
961 -0.168845 -0.267199 -0.294196 -0.111275 -0.140447 -0.078424 -0.478699 -0.138327 0.042182 -0.040129 0.145364 0.342319 -0.154530 -0.076523 0.470252 0.145975 -0.186825 -0.698770 -0.238170 -0.124055 -0.086329 -0.498619 -0.088743 -0.332088 0.019115 0.081254 -0.018321 0.323657 0.002916 0.244655 0.018071 0.045715 0.080800 0.187198 -0.154753 0.067722 -0.025755 -0.162401 -0.284843 0.163357 -0.340015 0.076781 -0.636350 -0.157999 -0.125291 -0.431715 -0.098077 0.435206 0.170485 0.312755 0.169491 0.010450 0.106867 -0.206932 0.350322 -0.224605 0.130922 -0.208647 0.170534 -0.051712 -0.364161 -0.055836 -0.213585 -0.026329 0.082106 0.223097 0.560980 0.066210 -0.151589 -0.039178 0.324325 -0.320438 -0.352599 -0.084201 0.047837 -0.305041 -0.345488 0.355466 0.135611 0.438161 0.543301 -0.316967 -0.279497 0.346454 0.317488 0.063701 0.154772 0.045616 0.117791 -0.183560 -0.225137 -0.121342 0.031010 -0.022901 -0.300252 -0.093009 -0.207298 -0.103849 0.479420 -0.097168 -0.000370 -0.030768 -0.244612 0.098633 -0.017593 0.334955 0.265557 0.045165 0.013487 0.348229 0.198120 0.197603 0.621199 0.371058 0.302463 -0.026470 0.057562 0.015252 -0.279392 0.356383 0.274732 0.494671 0.329259 0.204067 0.097273 0.321456 0.079991 -0.223159
957 -0.056133 -0.509323 -0.497923 -0.017731 -0.302244 0.084705 -0.337491 -0.019578 -0.093658 0.052095 0.092178 0.383789 -0.205878 0.182625 0.321318 0.017163 -0.203900 -0.732758 -0.149484 -0.046602 0.039684 -0.199662 0.110871 -0.194975 0.228548 0.165902 -0.052057 0.461490 -0.199740 0.337060 -0.047283 0.008741 0.048928 0.103428 -0.366693 0.061965 -0.009385 -0.055926 -0.129201 0.415524 -0.351771 0.214295 -0.626331 -0.028187 -0.149721 -0.227944 -0.090607 0.303964 0.041632 0.416846 -0.085180 0.169402 0.240199 -0.373497 0.446774 -0.161062 0.180278 -0.043713 0.145990 -0.105506 -0.540756 -0.153313 -0.244410 -0.148671 0.133756 0.284747 0.501023 0.100595 -0.047815 -0.193180 0.395641 -0.039356 -0.263360 0.025095 -0.023256 0.260349 -0.428374 0.237754 0.386438 0.429848 0.409159 -0.345066 -0.511937 0.373468 0.276047 0.015869 0.413954 -0.062679 0.247914 0.002241 -0.187314 -0.080546 0.032143 -0.082778 -0.339107 -0.152315 -0.444005 0.018832 0.600388 0.113028 0.106334 -0.038272 -0.239433 0.176368 -0.162135 0.428004 0.202319 0.139307 0.081646 -0.047520 0.025083 0.408762 0.741898 0.273788 0.210662 -0.067965 -0.129404 -0.079225 -0.105015 0.204361 0.027064 0.599666 0.571283 0.602221 0.098390 0.184391 0.075449 -0.350473
1701 -0.066000 -0.174989 -0.177419 -0.011050 -0.129855 0.398299 0.021318 -0.169627 0.017575 0.062091 -0.191002 0.228493 0.215024 -0.115795 -0.663948 0.176157 -0.093370 0.104187 -0.150044 0.307516 0.558138 -0.441619 0.335443 0.060982 0.033554 0.525569 0.095191 0.004181 0.064685 0.093055 0.077460 0.418502 0.053297 -0.814596 -0.008991 -0.311285 -0.275478 0.208558 0.115542 -0.319849 0.376188 0.027494 0.455021 -0.239649 0.567901 0.112954 -0.076614 -0.403108 0.078468 0.255121 0.019429 0.577906 -0.085224 -0.308739 0.261678 -0.189177 0.157005 0.349548 -0.567618 -0.843119 -0.066208 0.644284 -0.153028 -0.446263 -0.397885 -0.178545 0.134762 -0.469808 -0.140686 -0.068571 0.138437 -0.764373 -0.065537 0.123190 -0.000712 -0.283978 -0.261590 -0.655462 -0.149289 0.374678 0.198956 -0.040307 0.156844 0.292624 -0.069828 -0.020367 0.069000 -0.148178 0.228098 -0.052223 0.598996 0.325000 -0.125618 -0.615140 -0.154028 0.249980 -0.017662 -0.575068 -0.208580 0.109692 0.593561 0.033467 -0.173764 -0.070393 -0.061782 0.237739 -0.658368 -0.252022 0.085845 -0.527451 0.321047 0.249859 0.393999 0.286728 -0.228759 0.014590 0.024689 -0.237797 0.070223 0.226300 0.607490 -0.422146 0.480943 0.039122 0.024042 0.095703 0.084537 -0.026727
963 -0.217028 -0.355951 -0.140327 -0.103505 -0.099606 -0.192407 -0.521308 -0.156474 0.099379 -0.038862 0.101932 0.317485 -0.167256 -0.089588 0.490814 0.233418 -0.080382 -0.724861 -0.265273 -0.169076 -0.069483 -0.414665 -0.082965 -0.322100 0.034769 0.136732 -0.061418 0.359593 -0.026848 0.225529 0.020489 -0.008569 -0.050744 0.191929 -0.101038 0.011378 0.034151 -0.053380 -0.369138 0.183291 -0.336922 0.029762 -0.582416 -0.229999 -0.082160 -0.333713 -0.033175 0.447297 0.209307 0.189866 0.138207 -0.085610 0.126489 -0.130833 0.495924 -0.205359 0.084428 -0.240446 0.143577 -0.029634 -0.154736 -0.086830 -0.092778 -0.006614 0.136005 0.251532 0.538650 -0.057088 -0.130019 -0.129724 0.444469 -0.325687 -0.343741 -0.014651 0.033832 -0.377336 -0.392720 0.331078 0.188112 0.427437 0.569198 -0.338083 -0.211931 0.355862 0.215495 0.078753 0.067423 0.093098 0.121507 -0.239916 -0.188842 -0.264011 0.040202 -0.075294 -0.307348 -0.178136 -0.249884 0.004871 0.444053 -0.071894 -0.012752 -0.047457 -0.245556 0.065726 -0.014390 0.286680 0.309621 0.214076 0.120861 0.296556 0.145819 0.219055 0.605065 0.421931 0.199587 -0.031705 0.034177 -0.023218 -0.234002 0.184154 0.333039 0.673169 0.300154 0.128936 0.126841 0.257535 0.151113 -0.269202
3128 0.157685 0.167828 0.300506 -0.221529 -0.558586 0.101090 0.222196 -0.225679 0.253551 0.041422 0.144644 -0.049802 -0.067540 0.194289 -0.380765 -0.099975 -0.080539 -0.292092 0.045126 -0.273716 -0.483385 0.506588 0.119240 0.020185 0.149628 -0.150046 0.176003 -0.227078 0.237181 0.388755 -0.137346 -0.328997 -0.194085 -0.290941 0.121824 0.155984 0.562810 0.111168 -0.315547 -0.465402 0.172094 0.123896 -0.031085 0.014211 0.311248 -0.043788 -0.535934 0.013777 0.054600 0.734211 0.110017 0.009384 -0.696303 -0.256923 0.055465 0.034342 -0.019338 0.254703 -0.302589 -0.138106 0.792229 0.102942 0.147563 -0.399057 0.594999 -0.581694 0.453076 -0.570176 0.166020 -0.280944 0.090697 -0.166695 -0.183695 -0.178394 -0.180437 0.345779 0.326610 -0.261998 -0.381038 0.045604 -0.059136 -0.291935 -0.286610 -0.029336 -0.340406 -0.225398 0.537604 0.086928 -0.637561 0.291948 0.179317 0.051972 0.077814 0.068196 -0.285942 -0.412585 0.129905 -0.156886 0.630126 -0.085818 0.023506 0.448472 0.153330 0.063746 0.155030 -0.300566 0.022764 -0.289831 -0.115742 0.172957 0.136222 0.052661 0.294464 -0.959142 -0.239735 0.678053 0.788517 -0.196520 0.455476 -0.299227 0.215688 -0.118887 -0.000035 0.051973 0.070635 -0.260046 0.823592 -0.177912
3039 0.373595 0.047558 -0.119848 -0.502840 -0.376505 0.199436 -0.119551 0.209704 0.577344 -0.311013 -0.236000 -0.144204 -0.160122 -0.239596 0.699451 -0.742899 -0.645884 -1.012739 0.156925 -0.472630 0.086230 0.139576 -0.389001 0.458226 0.028534 -0.028936 0.152670 0.034689 -0.566100 0.076074 0.269819 0.083083 -0.522481 -0.075345 0.147814 0.719104 0.187774 -0.062795 -0.058065 0.028061 -0.140705 -0.175110 -0.180998 -0.165438 0.085756 -0.574924 -0.140655 -0.516636 -0.055509 0.259280 0.362043 -0.096690 -0.465005 -0.829023 0.009701 0.084004 0.336567 0.297702 0.569137 0.315922 0.006135 0.163396 0.120863 0.087054 -0.674464 0.023938 0.096195 -0.200244 0.139102 0.417550 -0.390512 -0.883860 0.256214 -0.260108 0.106019 -0.111030 -0.127559 0.477626 0.462489 0.263571 -0.044628 -0.402635 0.033981 -0.048979 0.196251 -0.171224 -0.281642 0.426753 0.072613 0.002099 0.326163 -0.367279 -0.031579 -0.340444 -0.228987 -0.474261 0.462184 0.216898 -0.149109 -0.081314 0.226196 0.167078 0.167852 0.371840 -0.013883 0.009365 -0.205102 0.000475 -0.627926 -0.014459 0.345453 -0.086898 -0.049800 0.247605 0.707130 0.057393 -0.219134 -0.165708 -0.162100 -0.060262 0.105111 -0.066191 -0.050461 -0.108731 -0.054748 -0.315215 -0.106054 0.559110
188 0.162119 -0.096469 -0.381596 -0.706911 -0.234964 0.191202 0.098442 0.306865 -0.024557 0.011273 0.118217 -0.306193 -0.081506 0.160846 -0.599139 -0.267815 0.161060 -0.046769 0.189499 -0.284083 -0.269248 -0.244333 0.026044 0.333989 -0.299615 0.278305 -0.180779 -0.373344 -0.386419 -0.173604 -0.368193 -0.849824 -0.051285 -0.352617 0.082951 0.413057 0.487222 0.086206 0.332137 0.020869 0.347783 -0.228779 -0.035616 -0.166756 -0.576833 0.138179 -0.177399 -0.052198 0.354408 0.345634 0.017523 0.368958 -0.058898 0.614575 0.181958 -0.303029 -0.183061 -0.367168 0.150383 0.577614 -0.104038 -0.165924 -0.745611 0.619746 0.111589 0.384345 0.396463 0.089931 0.092301 -0.346659 -0.052200 -0.173212 -0.569614 0.145513 0.035377 -0.065355 -0.240997 -0.104697 -0.176446 -0.012663 0.026049 -0.385169 -0.159045 0.064922 0.473011 -0.353121 0.215459 -0.621938 -0.130448 -0.270796 -0.009485 0.275576 -0.269526 -0.147372 0.457509 -0.326340 -0.043975 -0.195730 -0.367418 0.439107 0.087693 -0.489918 -0.278879 -0.001926 -0.248484 -0.615018 -0.272208 -0.109811 -0.532192 0.309765 0.044912 -0.370851 0.461728 -0.246492 0.071858 -0.212812 0.558884 -0.480088 -0.040149 -0.182292 -0.469831 0.079747 -0.061612 -0.356942 0.246066 -0.207504 -0.159774 0.688365
346 -0.040937 -0.229699 -0.321671 -0.235181 -0.167411 -0.195803 -0.311326 -0.113535 0.109695 -0.073999 0.194206 0.433921 -0.124385 0.261838 0.294078 0.071238 -0.137505 -0.570234 -0.181459 -0.074725 -0.187806 -0.335917 -0.247882 -0.489911 -0.001397 0.108747 -0.099333 0.246427 0.020330 0.224138 -0.034521 -0.000504 0.085361 0.163539 -0.099402 -0.037709 -0.168813 -0.055029 -0.482632 0.184433 -0.371041 0.112899 -0.717213 -0.237281 -0.199577 -0.370899 -0.136365 0.276194 0.049557 0.270658 0.059201 0.103644 0.140118 -0.251046 0.415151 -0.102062 0.071401 -0.193841 0.238970 -0.109369 -0.334399 -0.025402 -0.119177 -0.129033 0.180313 0.191116 0.484053 0.132586 -0.253048 0.032807 0.376437 -0.473903 -0.251511 -0.030593 0.076792 -0.175216 -0.345522 0.152664 0.154921 0.046543 0.483197 -0.292877 -0.323643 0.156052 0.260044 0.026371 0.264676 0.043846 0.204616 -0.186201 -0.041206 -0.189928 -0.030492 0.026906 -0.379117 -0.148924 -0.246661 -0.036726 0.490930 0.044740 -0.036102 -0.029067 -0.158313 0.021661 0.049119 0.325524 0.269985 0.078302 -0.063637 0.168446 0.077109 0.299673 0.594976 0.282606 0.195699 -0.117066 -0.056918 -0.005711 -0.203147 0.265205 0.231822 0.611519 0.369097 0.362018 0.096700 0.185205 0.024826 -0.299411
451 -0.269825 0.237886 -0.342617 0.074418 -0.244688 -0.069042 0.035870 -0.336120 -0.302777 0.141992 -0.056903 -0.083820 0.060073 -1.149577 -0.277894 0.255918 -0.148892 -0.099050 0.072324 0.141340 0.263372 -0.069600 0.387600 -0.091584 -0.030660 0.251702 0.130031 0.079543 0.265273 0.126132 -0.105662 -0.139678 0.025273 -1.023259 -0.584665 -0.240405 0.423006 0.070714 0.463381 0.201740 -0.635693 -0.176112 0.478218 -0.344751 -0.315403 -0.225290 -0.299829 0.101237 -0.003709 -0.072673 -0.083789 0.304047 -0.020288 -0.161265 0.582461 0.552721 -0.038440 0.454902 0.071617 -0.229422 -0.257671 0.040925 0.112810 -0.423395 0.019027 -0.052908 0.137567 -0.591426 0.084544 -0.320379 -0.215590 -0.845491 -0.068914 0.210366 -0.050568 -0.206284 -0.335159 -0.476769 -0.530114 -0.112589 -0.014245 -0.203323 0.076778 0.385882 -0.612752 -0.111010 0.346149 0.060688 0.047355 0.016583 0.160227 0.314144 -0.081414 -0.243013 -0.180307 0.242189 0.291569 -0.269510 -0.078385 0.256145 0.783666 0.155107 0.538881 0.033102 -0.013523 -0.176961 -0.457621 0.134207 0.313819 -0.029497 0.093488 -0.068821 0.000857 -0.403476 -0.205748 0.328436 0.062221 -0.427457 0.026758 0.321041 0.545050 0.041864 0.169566 0.258948 -0.238881 -0.417182 0.223092 -0.039378
1910 -0.204783 0.442133 -0.106634 0.245247 0.507941 -0.108148 0.109825 -0.440722 -0.097600 0.102580 0.056888 0.380313 -0.633798 -0.005557 -0.223229 0.075667 -0.434425 -0.289492 0.022745 0.094798 -0.233048 0.009955 0.479861 0.177843 0.020853 0.388966 -0.311684 -0.462316 0.268148 0.016464 0.151175 0.028123 0.176018 -0.514118 -0.554069 -0.612206 0.172850 -0.064043 0.063123 -0.362102 -0.336980 0.280081 0.152783 -0.785771 -0.263935 0.245813 -0.623786 -0.298396 0.232454 0.088981 -0.328064 0.305097 0.049750 -0.027764 0.081963 0.263907 0.009134 -0.180232 -0.403657 -0.253686 -0.023663 0.879007 0.061153 -0.401058 0.137996 -0.242844 -0.415700 -0.957973 0.588531 -0.098316 -0.561954 -0.660281 0.305765 0.534152 -0.624132 0.301171 -0.090772 -0.119916 -0.175805 0.006529 0.054421 -0.276447 0.006173 -0.115992 -0.171223 -0.276144 0.552391 0.044174 0.326969 -0.120950 0.062460 0.193105 -0.208071 -0.286047 0.068705 0.229612 0.191728 -0.031460 -0.213516 -0.137817 0.712227 -0.249113 0.432254 -0.011224 0.231237 -0.288152 -0.296466 0.380238 0.065305 -0.562967 0.028243 0.247067 -0.106328 -0.269007 -0.534846 -0.063015 0.347809 -0.331531 -0.177850 -0.424069 0.374863 -0.457011 0.149919 -0.147842 0.172449 -0.087270 0.207609 0.123656
2934 -0.074812 -0.002256 -0.213674 0.145278 0.089206 -0.276935 0.069603 -0.255242 -0.345897 -0.368939 -0.311871 0.287264 0.218438 -0.625802 -0.369092 0.393500 -0.253823 -0.112549 0.091211 0.047667 -0.583760 0.237462 -0.175438 0.242672 -0.077460 -0.144873 -0.580108 -0.276758 0.076905 0.330415 -0.244982 -0.241569 -0.118284 -0.491208 -0.367617 -0.306514 -0.137310 0.175917 0.564560 -0.537521 -0.155749 -0.143960 0.096931 -0.254842 0.120122 0.127039 -0.102035 0.372817 -0.253186 0.461761 -0.568772 0.148424 -0.276865 -0.091924 0.435483 -0.153257 0.183266 0.231369 -0.035961 0.033053 0.414495 0.362074 0.103117 -0.354015 0.062828 0.256146 -0.075892 -0.026000 0.172401 0.375379 0.071284 -0.340648 -0.245051 -0.473526 0.247440 0.347365 -0.293052 -0.185834 -0.257381 0.548592 -0.099009 -0.432143 -0.212506 -0.037784 0.275446 -0.294633 -0.345266 -0.142336 0.099484 0.250681 0.408147 -0.072979 0.212664 0.098437 0.008303 0.119302 0.497941 -0.261731 -0.149893 0.032663 0.185315 0.695423 0.391744 0.219832 -0.311299 0.089017 -0.026534 -0.190627 0.094277 -0.196922 -0.362971 -0.034370 -0.364103 -0.306420 -0.517463 -0.170605 0.446144 -0.299576 0.193611 -0.109848 -0.011877 0.054535 0.455526 -0.147145 0.183503 0.138734 0.137728 0.352223
115 0.565112 0.142046 -0.298170 -0.129165 -0.375817 -0.110185 -0.329882 -0.193146 0.375739 -0.084180 0.477667 -0.104296 -0.513307 -0.273236 -0.548546 0.056570 0.139617 -0.055579 0.067792 0.155796 -0.484624 -0.174677 0.239727 0.131638 -0.243129 0.120052 0.345647 -0.270536 0.262715 0.687895 -0.429108 -0.484197 -0.073265 -0.651284 -0.060332 -0.045812 0.175830 0.268014 0.151871 -0.376662 -0.310188 0.401571 0.226222 0.204484 0.189595 -0.299699 0.032498 -0.158914 0.415710 -0.036843 -0.296063 -0.337373 -0.490343 -0.124308 0.128907 -0.091508 0.169422 0.320882 -0.051005 -0.424033 -0.279595 -0.049866 0.231808 -0.532908 -0.088095 -0.211044 0.062301 -0.539764 -0.002823 -0.394608 0.251120 -0.119613 0.071923 -0.060814 0.573373 -0.395084 -0.399982 -0.312276 -0.433437 0.089790 0.409773 -0.326781 -0.360085 -0.079687 -0.341381 -0.450303 0.137534 -0.525463 -0.315991 -0.117122 0.089375 -0.011145 -0.444408 0.051142 0.552009 0.363789 0.147630 -0.538702 -0.283365 -0.078710 0.136710 0.548852 0.336673 -0.278967 0.142420 -0.238245 0.274964 -0.379449 0.204409 -0.033501 -0.213196 -0.357949 -0.253372 0.327612 -0.113828 0.152064 0.023700 -0.067397 0.223376 0.487466 0.490150 -0.353020 1.040058 0.343705 -0.121661 -0.189434 -0.124976 0.164904
1610 0.022261 0.436941 0.111157 -0.251055 0.092413 0.052229 -0.422639 -0.018097 0.603331 -0.168247 0.316150 0.478247 -0.132758 0.041336 -0.868998 0.043506 -0.239249 -0.211926 0.380897 0.913858 -0.288238 0.138274 0.113426 0.548999 0.047520 -0.071943 0.756050 -0.419401 0.196605 0.485373 0.068070 -0.432796 0.217485 -0.037856 0.357008 0.446644 0.173228 0.250254 0.408062 0.310571 -0.505664 0.236855 0.879434 -0.476125 0.150370 -0.745920 -0.106413 -0.113274 0.652763 0.462539 -0.544128 -0.352743 -0.214017 0.042694 0.282809 0.050107 0.535904 0.260848 0.017446 -0.785309 -0.377508 0.085261 -0.232249 -0.529741 0.013528 -0.430439 0.132887 -0.233873 0.941467 -0.248020 0.061134 -0.343078 0.136065 -0.343974 0.026411 -0.011096 -0.558309 -0.166384 -0.219088 0.127046 0.145700 0.110440 0.090558 0.178689 0.013497 -0.231148 -0.319591 -0.182967 -0.114250 -0.578669 -0.009534 0.117323 -0.315062 0.199214 0.187661 0.198108 0.155008 -0.352027 -0.593351 -0.212363 -0.291520 0.261777 0.267047 -0.590757 0.282614 -0.206615 -0.139941 -0.363276 -0.730639 0.137505 0.023558 -0.421260 0.355683 -0.019653 -0.606950 0.177120 0.273663 0.258708 -0.155483 0.031855 0.707253 -0.466772 -0.039485 -0.058923 -0.114160 0.020331 -0.079532 0.296406
2264 0.415901 0.087160 -0.328399 -0.245843 -0.850892 0.064568 -0.455836 -0.715703 1.025164 -0.426527 0.930783 -0.232553 -0.476531 -0.748207 -0.530666 0.027958 0.062910 -0.300736 0.299217 -0.185024 -0.540782 0.058884 0.447626 -1.021256 -0.359876 -0.122191 -0.553337 0.689546 0.052006 0.762787 -0.684574 0.784872 -0.018291 0.012207 -0.393945 0.794961 0.223742 0.028517 -0.150700 -0.303008 0.387778 -0.270789 0.533207 0.267759 -0.960183 -0.185705 -0.313479 0.465686 0.465038 -0.541066 -0.052965 -0.839752 0.016338 0.779401 1.224594 1.326547 -0.178672 -0.097195 -0.040413 -0.457960 0.332862 0.054628 -0.065022 -0.616022 -0.367796 -0.585087 -0.511896 0.111967 -0.333655 0.273836 0.319821 0.208560 0.249937 0.038037 0.232028 0.018532 -0.493378 -0.509121 -0.298937 -0.394735 -0.139232 -0.492770 0.649978 0.156969 -0.377952 0.337054 -0.034887 0.189766 -0.222759 0.574684 1.128836 -0.338940 0.385335 0.034875 0.099500 -0.144421 0.167442 -0.258227 0.765143 -0.842434 -0.229312 0.822584 -0.569364 -0.082616 -0.813286 -0.395589 0.456992 -0.652333 -0.008321 0.303716 0.389345 0.095396 -0.572270 0.018331 -1.011583 0.775074 0.021310 0.553541 -0.085075 0.708188 -0.558250 -0.075558 0.258444 0.502749 -0.308938 -0.111803 0.298044 -0.491087
682 -0.199586 -0.449173 -0.221635 -0.359039 -0.168236 0.032516 -0.086122 -0.226438 -0.285044 0.019282 0.200750 -0.008636 0.106859 0.451636 0.279509 -0.029757 0.372906 -0.405224 0.143053 0.098397 -0.141689 0.176401 -0.599881 -0.070389 0.568856 0.233864 -0.127444 -0.084153 0.334074 -0.300365 -0.006419 0.166589 -0.028270 -0.007144 -0.531071 0.145543 0.058215 -0.033172 -0.206443 0.170258 -0.467904 0.427041 -0.148745 -0.405493 -0.067509 -0.275131 -0.121777 -0.415412 -0.081897 -0.008632 0.035436 -0.018601 -0.329188 -0.368994 0.409559 0.270727 -0.221201 0.132030 0.147206 0.200796 0.340894 0.270118 -0.576113 0.295480 -0.363107 -0.077812 0.336407 0.018971 -0.017464 0.272986 0.184714 -0.213823 -0.141990 -0.299704 -0.189199 -0.186813 -0.217973 0.311477 0.220859 0.151412 0.341471 -0.284380 0.017658 -0.259872 0.392247 0.981283 0.058771 -0.135853 0.034504 0.051335 0.430178 -0.298022 0.314210 -0.420003 0.087178 0.176938 0.094950 -0.420756 0.071789 -0.028171 -0.298731 -0.006097 0.010547 -0.268682 -0.147048 -0.359755 -0.128651 -0.373009 0.524727 -0.058821 0.186443 -0.229700 0.060616 0.116774 0.440234 0.219366 -0.132213 0.155718 -0.078864 0.266701 -0.251707 0.019071 0.148269 0.291072 -0.303162 -0.107156 -0.136926 0.023764
342 -0.120957 -0.220807 -0.342452 -0.137519 -0.094871 -0.210737 -0.368443 -0.079705 0.086844 -0.033487 0.069436 0.333310 -0.111445 0.163062 0.438227 0.092944 -0.216327 -0.628565 -0.137823 -0.214910 -0.047250 -0.424766 -0.189796 -0.347525 -0.003896 0.094096 -0.077866 0.376361 0.102003 0.317484 -0.035278 0.134315 -0.010709 0.093084 -0.161229 0.054884 -0.078712 -0.101159 -0.210092 0.218026 -0.314567 0.176071 -0.711611 -0.057231 -0.069024 -0.439314 -0.073973 0.341521 0.077618 0.246115 0.122917 0.027809 0.295919 -0.315256 0.414306 -0.048192 0.186719 -0.233982 0.106857 -0.054248 -0.414881 -0.124278 -0.044923 -0.008673 0.177187 0.107204 0.470359 0.056314 -0.224889 -0.134232 0.363510 -0.346003 -0.302932 -0.120031 0.012736 -0.167326 -0.459263 0.286662 0.081573 0.173598 0.607493 -0.189654 -0.227586 0.228882 0.285474 -0.007441 0.329440 0.135907 0.131707 -0.189128 -0.197535 -0.152438 0.034932 0.059831 -0.322288 -0.182363 -0.330617 -0.107701 0.532408 0.073505 -0.190468 0.051974 -0.219248 0.071907 0.009331 0.303494 0.234448 0.103222 0.052505 0.056669 0.149444 0.339657 0.745965 0.340404 0.278678 -0.054746 -0.100177 -0.168151 -0.219544 0.303619 0.187878 0.404646 0.452162 0.309559 0.114634 0.443392 0.161951 -0.186522
1723 -0.012464 0.251970 0.326373 -0.281973 -0.151375 0.059092 0.028594 -0.071709 0.203658 -0.383915 -0.590892 -0.172995 0.163268 0.329372 0.703541 -0.244225 -0.352895 -0.213539 0.290920 -0.036718 -0.240351 0.538911 -0.509096 -0.065803 0.302100 0.202806 -0.306652 0.248029 -0.418324 0.474765 -0.046201 0.522604 0.120539 0.143531 0.114206 -0.011483 0.265820 0.064857 0.135486 -0.074412 0.068549 -0.079038 0.165844 -0.261956 -0.458326 -0.264194 -0.382223 -0.248276 0.093291 -0.149997 0.298104 -0.067635 0.029560 -0.220631 -0.140593 -0.178724 0.341641 -0.244649 0.201348 0.115625 -0.032194 0.433264 -0.470057 0.293991 0.046557 -0.090526 0.267310 -0.241774 -0.554203 0.182017 -0.046191 0.358460 0.057574 -0.290870 0.081154 -0.271311 0.310609 0.018140 0.021346 0.409518 -0.125146 0.204131 -0.135559 -0.350109 0.001159 -0.425328 0.099612 0.624969 0.280701 0.041535 -0.664533 -0.153559 0.089875 0.008974 0.390979 -0.070281 0.417672 -0.671574 0.403365 0.126181 0.146355 -0.358836 0.328966 0.360659 -0.315045 0.125758 -0.024239 0.173895 0.309943 -0.036272 -0.015076 0.225231 -0.094080 0.213266 0.108114 -0.543878 0.809651 0.057450 -0.288636 -0.027023 0.223693 -1.108673 0.416062 0.404708 -0.368692 -0.414836 -0.188642 -0.268615
557 0.859625 -0.190892 0.219876 -0.176078 -0.200099 0.278201 0.177702 0.034703 0.465546 -0.349895 0.843894 0.060995 0.024574 0.561119 -0.792658 0.003983 0.250917 0.000024 0.106349 -0.053965 0.096389 0.623184 -0.092215 0.337196 0.225300 0.472740 -0.153479 0.026264 -0.116243 -0.081218 0.295670 0.593427 0.108022 0.175770 0.276072 -0.576240 0.651144 -0.501347 0.195826 -0.341984 -0.173059 0.169944 -0.037980 0.348645 0.372068 0.280361 0.098366 -0.199008 0.569002 -0.017093 0.343608 0.242816 0.357820 0.156295 -0.043491 -0.006420 -0.023339 -0.134495 0.566893 0.129526 0.357353 -0.032931 -0.462846 -0.689741 0.427036 -0.019886 0.255733 -0.156976 0.368060 0.301633 0.231045 0.003221 -0.237375 0.730683 0.184093 -0.240705 -0.478917 0.211057 -0.149030 0.050128 0.159781 -0.751689 0.197201 -0.156768 -0.310916 0.176241 0.010244 0.150849 -0.063142 -0.025682 0.659770 -0.072411 0.033260 0.385637 0.087473 0.594982 0.410070 0.075273 0.344572 0.245502 0.253751 -0.778363 0.715579 0.620421 0.202818 0.333994 0.490541 0.326323 -0.671325 0.225704 0.418576 0.306884 -0.613205 0.264250 0.039423 -0.092428 0.085358 -0.032123 0.328837 0.578203 -0.660787 -0.195346 0.416760 -0.008837 0.817384 -0.361521 0.363732 0.043286
2973 -0.872388 0.335838 0.093754 0.130315 0.267870 0.258116 0.724822 0.084795 0.425839 -0.029916 0.095020 -0.166638 -0.125066 -0.311987 -0.666207 0.283044 -0.228861 -0.030187 0.189734 0.446157 -0.251378 0.401760 0.616774 0.148710 0.471819 -0.304274 0.018732 -0.112079 -0.314966 0.437070 -0.707928 -0.262113 -0.046514 0.319397 0.127937 0.555909 0.600466 -0.254487 -0.294723 -0.080348 -0.083311 0.584126 0.188583 -0.603100 -0.358007 0.476276 -0.204819 0.117850 0.064283 -0.090510 -0.137643 0.600442 -0.170391 -0.054721 0.154078 0.444679 0.319752 0.017097 -0.159158 -0.000768 -0.025822 -0.252411 -0.580382 0.083160 0.638479 -0.322364 -0.330128 -0.170721 0.437733 0.322561 0.440649 0.308192 -0.780344 0.472825 0.367505 -0.503612 -0.024992 0.437759 0.595795 -0.065479 -0.926793 -0.119809 0.184135 0.453676 0.026219 -0.398433 0.937201 0.110070 0.395480 -0.017343 0.375067 -0.360740 -0.155365 -0.010273 -0.802822 0.077441 -0.178506 -0.739008 -0.489770 -0.357969 0.159527 -0.305147 -0.286075 0.320041 -0.057269 0.014109 0.138866 -0.496909 0.504710 -0.336408 -0.106816 -0.197995 -0.182917 -0.375421 0.348804 0.049046 0.486974 -0.325357 0.162215 0.518184 0.144264 0.189703 -0.806663 0.417239 0.454105 0.340683 0.117657 -0.285449
383 -0.498237 -0.274819 -0.255459 -0.443947 -0.112232 0.345680 -0.063369 -0.482870 0.020718 0.281361 0.079122 0.137230 0.238907 0.314943 0.619624 0.186117 0.152745 -0.378131 -0.078833 0.469811 -0.440391 0.084821 -0.763628 0.175660 0.602913 0.301151 -0.192332 -0.313210 0.121075 -0.198878 0.078064 0.278414 -0.215159 0.170834 -0.376269 0.289619 0.016946 -0.153998 -0.048364 -0.023506 -0.418501 0.287133 -0.022432 -0.248831 -0.072988 -0.378410 -0.101532 -0.462133 0.064113 0.325603 0.187817 -0.391782 -0.321281 -0.146951 0.002397 0.225298 0.114208 0.240594 0.016764 -0.004905 -0.050428 -0.081691 -0.432110 0.403467 -0.320268 0.146444 0.108298 -0.041738 0.009879 0.362945 0.174552 -0.144253 0.264243 -0.068910 0.128397 -0.005914 -0.229398 0.232399 0.126342 0.044049 0.683191 0.114201 -0.278254 -0.196277 0.325369 0.730467 0.208376 0.070633 -0.008560 0.130507 0.489691 -0.099078 0.198456 0.146984 0.008517 0.264346 0.335861 -0.237199 0.039889 -0.373409 -0.085565 0.096492 -0.196095 -0.010541 -0.109287 -0.526954 -0.434646 -0.402389 0.200725 0.106903 0.055167 0.151750 -0.056385 0.152853 0.248102 0.207768 0.242637 -0.031166 -0.085146 0.106172 -0.251160 0.273821 0.318580 0.213601 -0.435220 0.011819 -0.174577 0.115083
2675 0.273419 0.128612 -0.276966 0.872859 0.941946 -1.526371 0.476725 0.401595 -0.442251 0.525394 -0.945846 0.238594 0.364319 -0.544724 0.686888 -0.481749 0.114884 -0.090114 -0.191611 -1.024519 -0.302838 0.395413 -0.173045 -0.461766 0.445234 0.016120 -0.482402 0.047792 0.118885 -0.375945 0.931812 -0.457672 -0.935474 0.452775 0.000830 -0.543340 0.629628 0.035599 -0.256707 0.023607 -0.365515 0.530333 -0.858328 0.122482 -0.428806 0.115681 0.789739 0.106516 0.405110 0.327125 -0.517979 0.165725 0.087370 -0.117747 0.504738 -1.107471 -0.068401 0.594549 0.402032 0.933084 0.345279 0.212095 -0.091906 -0.279759 -0.018433 0.177807 -1.063151 0.369148 0.294438 -0.203469 -0.776374 0.038458 -0.111036 0.260697 -0.729042 0.230980 -0.149326 -0.822352 0.000306 0.054295 -0.682478 -0.028433 0.355300 -0.126600 0.458397 0.201438 -0.359159 -0.630139 -0.621720 0.396605 1.149780 0.175912 -0.173521 -0.830724 -0.810554 0.802575 0.515815 0.897462 -0.427365 -0.540077 0.143449 0.252217 0.301036 0.135339 -0.644899 -0.255724 -0.069894 0.123680 -0.305405 0.702803 0.593894 -0.105567 0.353235 -0.183299 -0.519957 0.790221 -0.093760 -0.218825 -0.581208 -0.625770 -0.228633 -0.083498 0.254564 -0.503091 -0.239436 0.811985 -0.269845 -1.046754
649 0.373143 -0.059044 -0.153727 0.412127 -0.087522 -0.032567 -0.078063 -0.132889 0.168055 0.511969 0.010710 0.028344 0.578574 -0.828702 0.072800 0.134709 0.313616 -0.578704 -0.734437 0.052794 0.361091 0.402005 -0.367543 -0.223040 0.220343 0.509145 0.108978 -0.828732 0.205966 -0.029614 -0.297298 -0.001373 -0.052406 0.508034 -0.158003 -0.382934 0.172731 -0.261073 -0.704856 -0.036501 0.233023 -0.646254 -0.293897 0.449069 0.005291 0.482726 0.256985 0.181611 -0.205092 0.409561 -0.211417 -0.110784 0.023171 -0.107196 -0.006355 0.035974 0.048425 0.152520 -0.101471 0.229354 -0.352954 0.251161 -0.367124 -0.221973 -0.652742 -0.235308 -0.008964 0.130954 0.657311 0.024364 -0.304867 -0.035352 0.695427 -0.590713 -0.637982 -0.157912 -0.386826 -0.145449 0.054582 0.263321 0.152729 0.027370 0.072458 0.020521 -0.100761 0.119574 0.107094 0.055633 0.057766 -0.081475 -0.214040 -0.422701 -0.402864 -0.046103 -0.356018 -0.330606 -0.201173 -0.027926 -0.103434 0.405032 -0.206140 0.554229 0.494741 0.510844 -0.476236 0.169482 0.175901 -0.349091 0.384762 -0.221799 0.403006 -0.147567 -0.173576 -0.301307 -0.299221 0.284647 0.243068 0.128858 -0.206096 0.014893 -0.090510 -0.359179 0.050737 0.053418 0.208927 -0.083308 -0.331491 -0.240686
955 0.018885 -0.325573 -0.585702 -0.475777 -0.357908 -0.266049 -0.457998 -0.242783 0.010115 -0.074204 -0.012176 0.171008 -0.214601 0.001665 0.432677 0.141499 -0.223689 -0.696457 -0.187930 0.038420 -0.170329 -0.109543 0.097741 -0.258223 0.187043 -0.051363 -0.257606 0.037963 0.108828 0.151735 0.022791 0.162217 0.078489 0.238608 -0.466275 0.081754 -0.054472 -0.205245 -0.539570 0.313032 -0.385488 0.052758 -0.533167 -0.270965 -0.133218 -0.577746 0.004938 0.100513 0.078050 0.234050 0.148919 0.311657 -0.185374 -0.130497 0.120660 0.140407 0.119586 -0.040797 0.087769 -0.053620 -0.284316 0.277511 -0.489054 -0.064107 0.092753 0.271814 0.220309 0.373437 -0.028423 0.025688 0.342819 -0.144508 -0.387382 0.105810 0.003712 -0.236198 -0.168803 0.328098 -0.014661 0.257085 0.568578 -0.561271 -0.338208 0.106299 0.203426 0.030857 0.227113 -0.026539 0.122159 0.094883 -0.162535 0.018122 -0.016672 -0.450933 -0.140766 -0.151796 -0.075081 -0.113922 0.366713 -0.057351 -0.191143 -0.157080 -0.046092 0.144085 -0.286394 0.384130 0.235109 -0.097059 -0.227793 0.154841 0.221934 0.338527 0.608961 0.183806 0.337606 0.056442 -0.036587 0.155120 -0.097648 0.394660 0.012463 0.654686 0.547629 -0.032432 0.087377 0.276883 0.089638 -0.507632
603 -0.435975 0.065822 0.366483 -0.437036 0.061836 0.626330 0.553215 -0.484880 -0.251236 0.638327 -0.019336 0.068566 -0.306487 -0.118360 -0.280909 0.531170 -0.544607 -0.002604 0.834770 -0.528387 -0.152193 -0.348104 0.508831 0.203350 0.204959 -0.422824 -0.166059 0.186706 0.794016 -0.209979 -0.463950 0.149415 -0.508974 -0.025275 0.087855 -0.679758 1.082409 -0.099492 -0.533568 -0.695674 0.279703 0.016891 -0.155127 0.108630 0.190682 0.132695 0.060068 -0.226762 0.130141 0.401196 -0.144795 -0.157829 -0.275582 0.066341 0.380667 -0.033250 0.311403 0.395978 -0.355419 -0.256349 -0.210490 -0.211407 -0.635264 0.148653 0.045268 -0.377458 0.040083 0.684078 0.627585 0.760224 0.348314 0.110842 -0.821532 0.199673 0.073758 0.072466 -0.544571 -0.272364 -0.541951 0.355838 0.086602 -0.349160 0.387873 -0.117758 -0.360414 -0.006042 -0.215615 0.085568 0.511699 0.703317 -0.828989 -0.042881 0.420096 0.287934 -0.290837 -0.877066 0.153267 0.936074 -0.324757 -0.707791 -0.557565 -0.609271 0.093406 -0.185378 0.084641 0.074259 0.280657 0.225154 0.663493 -0.820326 -0.308599 -0.086450 0.040043 0.520902 -0.048962 0.084193 0.035018 0.265627 0.032518 0.108420 -0.129603 -0.787289 0.480013 0.359883 0.220212 0.715614 -0.703106 0.588479
3045 0.263769 -0.046900 0.089985 -0.651257 -0.113059 0.417553 0.107251 0.173810 -0.019123 0.233548 0.402001 -0.194431 0.305665 0.208612 -0.671697 0.024845 -0.223824 -0.496746 0.390374 -0.538731 -0.305375 -0.334600 0.228861 0.483336 0.128920 0.345275 -0.176326 -0.439729 0.049791 -0.521791 -0.221470 -0.656258 0.040756 -0.400708 0.100003 0.730333 0.876786 -0.101546 0.305261 0.074915 0.308083 -0.382677 0.015140 -0.640277 -0.640951 0.030381 -0.506036 0.237427 0.112597 0.202295 0.066327 0.426781 0.160370 0.919507 0.142055 -0.247459 -0.279007 -0.216126 -0.105708 0.219564 -0.611297 -0.283895 -0.493403 0.057249 0.248558 0.008223 0.070102 0.158243 -0.262569 -0.264269 0.128989 -0.025524 -0.668692 0.061706 -0.203638 -0.105328 0.250995 0.396465 -0.171918 -0.381428 0.658965 -0.101464 0.041360 -0.138683 0.192729 -0.615394 0.010794 -0.144959 0.042320 -0.533862 0.018549 0.194546 -0.136628 0.015026 -0.010682 -0.151900 -0.693168 -0.106105 -0.365429 0.413170 -0.011465 -0.306021 -0.249094 0.292264 -0.096137 -0.806927 -0.157088 -0.005310 -0.181413 -0.015875 -0.367996 -0.351208 0.510656 -0.162399 0.040346 -0.293899 0.532085 -0.273170 -0.024831 -0.657849 -0.265448 -0.048431 0.110878 0.184876 0.240607 -0.069554 -0.040801 0.482740
124 -0.620482 -0.436637 -0.101799 -0.542799 0.274774 0.852224 -0.300315 -0.920860 -0.455465 0.282441 -0.262713 -0.912338 -0.615106 -0.151511 0.207673 -0.147871 -0.531909 -0.035789 0.064537 1.022185 -0.190391 -0.270303 -0.327873 -0.174490 0.275437 -0.256088 0.527676 -0.791377 0.624879 1.083716 -0.471027 -0.227524 0.244987 0.355618 -0.251638 0.814477 0.592315 -0.010594 0.283239 -0.628829 -0.223320 0.451408 0.321208 0.266948 0.181059 0.039682 -0.799695 0.137024 0.253083 -0.287046 0.340522 -0.380856 -0.734733 0.307390 0.084258 -0.613140 -1.107921 -0.967696 -0.312676 -0.559233 -0.134533 0.805216 0.400142 -0.504431 -1.166111 -0.144811 0.062930 0.047424 0.160006 1.249117 0.116127 0.118221 -1.521639 0.933883 0.566789 0.078970 -0.158726 0.279049 0.037244 -0.316299 -0.039099 -0.685847 -0.351867 0.741987 -0.428399 0.501761 -0.035226 -0.095823 0.552078 -0.803134 -0.417055 0.176959 -0.484686 -0.281287 0.370336 -1.030058 -0.397069 0.495764 0.498352 0.656715 -0.193535 -0.626953 -0.233004 -0.660680 0.859042 0.328702 0.157725 -1.000230 1.457908 -0.554135 -0.323833 0.494110 0.487778 0.401840 0.011763 -0.219041 -0.567018 0.345415 -0.450273 -0.416014 -0.046291 0.143697 1.095813 -0.381494 -0.168252 -0.130983 0.117457 0.424707
964 -0.205581 -0.262225 -0.183652 -0.127414 -0.114630 -0.302153 -0.329071 -0.123683 0.144003 -0.047729 0.130498 0.292615 -0.101203 0.093756 0.371674 0.049808 -0.115226 -0.624314 -0.295151 -0.155583 0.032475 -0.418885 -0.368391 -0.366878 -0.019839 0.069598 -0.117200 0.423973 0.154202 0.248987 0.080046 0.008611 -0.039791 0.172825 -0.061583 0.030002 -0.031435 -0.124705 -0.356848 0.218263 -0.339323 0.087167 -0.496603 -0.223213 -0.118978 -0.199238 -0.116505 0.304064 0.292883 0.164732 0.139790 0.027574 0.115006 -0.260817 0.362286 -0.005329 0.103244 -0.270974 0.216004 0.008666 -0.221244 -0.025892 -0.128784 -0.071695 0.090714 0.130355 0.407625 -0.092969 -0.072182 0.168038 0.493484 -0.394923 -0.181175 -0.016575 -0.016587 -0.349959 -0.408592 0.385333 0.119698 0.175167 0.521922 -0.270099 -0.378810 0.385873 0.328216 0.148519 0.175014 -0.016533 0.145087 -0.198163 -0.187325 -0.256386 0.055973 -0.071999 -0.367836 -0.180978 -0.173108 -0.187081 0.352481 -0.013042 -0.067623 0.002287 -0.184766 0.086198 -0.003632 0.227084 0.276528 0.070076 0.068688 0.317358 0.051281 0.245187 0.708071 0.227647 0.083767 -0.077838 -0.119730 0.102094 -0.173687 0.201192 0.236048 0.617313 0.376123 0.064063 0.129904 0.434439 0.094007 -0.225533
947 -0.127241 0.140128 0.393702 -0.060053 -0.119142 -0.402800 -0.161732 -0.357952 0.441204 0.298838 0.074679 -0.058429 -0.459338 -0.126962 0.242561 0.111523 -0.082993 -0.701390 0.290660 -0.225362 0.041323 0.285567 -0.338003 -0.333326 -0.069710 -0.106892 -0.099807 0.115855 -0.041457 -0.246993 0.252800 0.116375 0.143807 0.366985 -0.043955 -0.028017 0.133816 0.129519 -0.177545 -0.125997 -0.098448 -0.116988 -0.275939 0.181267 -0.003787 -0.353778 0.018542 -0.374178 -0.103010 0.268263 0.288070 -0.226618 -0.178020 -0.046670 0.372140 0.032166 -0.139827 0.019991 0.511963 0.226236 -0.033146 -0.287370 -0.268405 0.430627 -0.101720 0.248168 0.323952 -0.404433 0.344018 0.516500 -0.206672 -0.507294 0.339085 -0.140631 0.028283 0.348224 0.140973 0.236536 0.182363 0.324366 0.414258 0.040303 -0.114353 0.081141 0.237300 -0.288082 0.016782 0.157107 0.220091 -0.067042 0.083531 -0.025120 0.449024 -0.294285 0.197364 0.057626 -0.516698 -0.358061 -0.046992 -0.154557 0.283505 -0.148987 -0.276019 0.094131 0.164380 0.123195 -0.088864 -0.307929 -0.317712 -0.292578 -0.107829 0.328009 0.249529 0.057611 0.114287 -0.653427 -0.052676 0.033059 -0.042387 0.093130 -0.242791 -0.060075 0.087893 0.008268 -0.369021 -0.153436 -0.430256 -0.403847
344 -0.220174 -0.349885 -0.277792 -0.198393 -0.136533 -0.326482 -0.317736 -0.113462 0.150254 -0.100929 0.199851 0.278570 -0.146568 0.008397 0.395534 0.127760 -0.162554 -0.674595 -0.200094 -0.131268 -0.091604 -0.507091 -0.152659 -0.290111 0.042220 0.125291 -0.082257 0.276267 -0.020428 0.264509 0.116642 0.063262 0.001865 0.129288 -0.244428 0.011685 -0.114679 -0.128193 -0.339235 0.190198 -0.324768 0.121784 -0.657943 -0.188007 -0.093117 -0.339094 -0.102216 0.369929 0.105950 0.179045 0.103204 -0.057905 0.184365 -0.241973 0.448245 -0.155536 0.114442 -0.227864 0.088171 -0.120399 -0.280089 -0.041315 -0.130909 -0.021555 0.096048 0.165240 0.458751 0.009688 -0.186261 0.016427 0.402644 -0.306062 -0.263805 -0.038169 -0.021330 -0.210403 -0.437697 0.391390 0.179984 0.303701 0.567785 -0.218500 -0.237513 0.267484 0.190847 0.015170 0.246855 0.017885 0.066701 -0.259426 -0.218088 -0.258887 0.005713 -0.082653 -0.311641 -0.051438 -0.249539 -0.062964 0.509634 0.014270 -0.068244 0.013892 -0.136348 0.162215 -0.031147 0.252589 0.301046 0.057314 -0.001424 0.197331 0.140438 0.135542 0.675253 0.237923 0.281510 -0.055579 -0.127670 -0.008029 -0.184025 0.316055 0.086526 0.611283 0.465646 0.178833 0.252456 0.327773 0.130060 -0.345281
464 -0.084389 -0.162849 -0.083838 -0.279467 -0.224428 0.346514 0.280698 -0.296869 0.199519 0.157075 -0.201343 0.269166 -0.034864 0.053004 -0.646261 0.267730 -0.102650 0.279436 0.083315 0.726657 0.246586 -0.209576 0.431264 0.239252 -0.161297 0.379485 0.173697 0.315931 -0.250642 0.056754 -0.226753 0.081200 -0.063498 -0.732993 0.011106 -0.574857 -0.212264 0.506324 0.300099 0.040552 -0.177171 0.005643 0.606131 -0.116614 0.528795 0.204486 -0.142923 -0.095052 0.183242 0.331066 -0.141286 0.356792 0.007828 -0.079133 0.297171 -0.332774 0.264334 0.339612 -0.517754 -0.372959 -0.272795 0.571050 0.051847 -0.217588 -0.228409 -0.254598 0.366381 -0.727231 -0.078886 -0.153739 -0.152432 -0.717405 -0.150387 0.134347 0.261662 -0.563911 -0.771039 -0.779771 -0.023454 0.205296 0.153041 0.035762 0.102242 0.206516 -0.140885 0.114360 0.145555 0.169313 0.075266 -0.059495 0.364791 0.480596 -0.193203 -0.248488 -0.305878 0.047393 0.134426 -0.519566 -0.384881 0.600818 0.621583 0.178861 -0.112327 -0.194910 -0.063239 0.144939 -0.621284 -0.076952 0.049763 -0.626506 0.342950 0.481676 0.186040 0.264395 -0.151126 0.069471 -0.032534 -0.225444 0.456306 0.656293 0.504124 -0.266151 0.567443 0.318047 -0.264091 -0.141288 0.064193 -0.281334
901 0.056862 -0.269916 0.234766 -0.216364 0.197723 -0.278370 -0.404630 -0.067185 -0.274199 0.539416 -0.242221 0.593956 -0.054139 -0.252164 -0.470967 0.256618 0.561065 0.323443 -0.120410 -0.753683 0.114938 0.380175 -0.337755 0.367791 0.218433 0.562335 -0.037402 -0.047067 0.149239 0.165900 0.014319 -0.299359 -0.067456 -0.157399 0.029206 -0.745993 -0.520273 -0.068602 0.105191 -0.054510 0.083263 -0.461444 -0.777010 0.284532 -0.144543 -0.327297 0.356658 0.026643 -0.335676 0.988016 -1.120662 0.818775 -0.194945 0.005017 0.466163 0.179148 0.177517 -0.059062 0.144858 0.079765 0.056856 -0.000113 -0.438073 -0.348515 -0.578442 0.445927 -0.102891 0.424545 -0.097190 0.132006 0.122174 -0.178563 0.025684 -0.678563 0.217915 -0.058105 -0.449883 -0.611172 0.378341 0.233841 0.672175 -0.366127 -0.160842 -0.043371 -0.288351 -0.094239 0.090904 -0.021102 -0.125048 -0.117545 0.371039 -0.337156 0.137363 0.098190 0.060054 -0.137218 0.641330 0.024123 -0.570558 0.136949 0.140196 0.553492 0.207471 0.353140 -0.525515 -0.110325 -0.366293 -0.293449 0.317244 -0.160146 0.506161 0.368096 0.045337 0.063003 0.028602 0.166466 0.858883 0.118637 -0.230337 -0.188341 0.259217 0.189211 0.269223 -0.734132 0.220214 0.753533 0.111346 0.055791
2075 1.041552 -0.226517 -0.131289 -0.487936 -0.246986 0.383989 -0.687853 -0.432218 0.695690 -0.447678 0.461391 -0.681184 -0.563056 0.180625 -0.127737 -0.429524 0.186255 0.562515 0.341827 -0.497315 0.145729 0.247627 0.060081 -0.341872 -0.382075 0.059841 -0.327317 -0.306734 0.528904 -0.973986 0.064911 0.454110 0.426556 0.585788 0.760183 0.001807 -0.671224 0.194392 0.454551 0.184184 -0.204375 0.031564 -0.120919 -0.816684 0.049174 0.157953 0.646391 0.105027 -0.332784 0.593340 0.139130 -0.216526 0.232193 -0.601064 0.216596 0.334051 -0.367339 -0.568208 -0.276054 0.228825 0.199248 0.117683 -0.567778 0.417711 -0.300082 0.944829 -1.069114 -0.283167 1.029805 -0.158726 -0.087255 -0.850133 0.041659 -0.377498 0.130820 0.476205 0.224466 0.604419 -0.190588 0.241248 0.009473 0.014361 -0.332850 0.498907 -0.767237 0.135712 0.319719 0.388864 -0.019737 -0.757812 -0.336378 -0.538930 0.122998 0.389261 0.499951 -0.354315 0.271138 -0.917271 0.258303 0.030347 0.011996 0.267964 -0.507174 0.233451 0.641304 0.384390 0.021850 0.581973 0.185738 -0.708552 0.007070 0.314000 -0.122086 0.169602 0.425356 -0.622596 -0.159498 -0.481105 0.799195 0.248324 0.633339 0.557525 -0.158585 0.071067 0.032906 0.171763 0.107592 0.738604
1204 -0.012066 0.117047 0.440253 0.339603 -0.511354 0.008915 0.395779 -0.145255 0.024984 -0.088499 -0.138244 -0.302917 0.159029 0.582861 0.617771 -0.580258 -0.044189 -0.133053 0.480048 -0.517120 -0.274520 0.343680 -0.567107 0.072399 0.096996 -0.138499 0.377971 0.645125 -0.911412 0.128989 -0.155357 0.704609 0.005885 -0.105129 -0.034581 0.109978 0.065685 -0.019320 0.113886 0.487041 -0.179637 -0.099320 -0.128935 -0.467420 -0.558818 0.040163 -0.685764 -0.486151 0.130366 0.038351 0.145383 -0.469283 -0.297150 -0.553711 -0.115863 -0.024179 0.283348 -0.220164 0.383142 0.020727 0.183822 0.181663 -0.437786 0.244292 -0.052489 0.785851 0.075390 -0.432115 0.136010 0.036336 -0.261925 -0.735680 -0.029563 -0.210036 -0.222455 -0.097873 0.318731 0.239702 0.141459 0.613066 0.133235 -0.141828 -0.156087 -0.358817 -0.058399 -0.089976 -0.111129 0.320613 0.509700 -0.139871 -0.300426 0.197802 -0.115927 0.173500 0.057557 0.298616 0.110572 -0.104051 -0.314565 0.190950 -0.064985 0.344987 -0.157988 0.251263 -0.635010 0.648756 -0.316207 -0.575094 0.304570 0.003532 0.072529 -0.013396 -0.187378 -0.226610 0.184151 -0.440165 0.474804 -0.360713 -0.456799 0.176668 0.233606 -0.523038 0.333862 0.184945 -0.356414 0.165210 -0.614956 -0.152973
1089 -0.053209 -0.175194 0.200925 0.113882 0.049815 0.088548 0.047180 -0.872374 0.516919 -0.187568 0.323962 0.018856 0.230873 -0.198947 0.474924 -0.472338 -0.153355 -0.508973 -0.249828 -0.316194 0.131719 -0.028235 -0.099921 -0.466383 0.400426 -0.180379 0.597954 0.081289 -0.017197 -0.216036 0.476207 -0.320975 0.122344 0.300232 0.101283 -0.220657 0.129980 -0.096892 0.427035 0.421227 -0.394550 0.313149 0.253125 -0.377199 0.397627 0.011729 -0.324151 -0.543227 -0.660444 1.094656 0.445416 0.080918 0.016540 -0.223488 -0.065950 -0.329053 -0.607100 0.074427 0.456808 0.277743 0.277323 -0.258686 -0.082188 -0.021864 0.038706 0.313682 0.138358 -0.123758 -0.499548 0.213671 -0.056057 -0.511988 -0.527194 0.168474 0.138395 0.466720 -0.150822 0.150659 -0.027108 0.062122 -0.062714 -0.437318 -0.101169 0.124975 0.131275 0.101719 0.405308 -0.069454 0.282734 -0.096825 -0.269893 -0.063953 -0.003616 -0.008940 -0.097538 -0.159618 -0.666855 0.456289 -0.166660 -0.301371 -0.043388 -0.016280 -0.155057 0.588842 -0.445527 0.238871 -0.253351 0.008564 -0.129354 -0.353176 0.071958 -0.104730 0.205582 0.247635 0.366519 -0.427593 -0.161089 0.526267 -0.257651 0.391599 0.021444 0.062391 0.227615 -0.234180 -0.115336 -0.196231 -0.226258 -0.550781
386 0.170429 0.464151 -0.327777 0.001076 -0.397693 0.575601 -0.685373 -0.050154 0.689866 -0.507755 0.259293 -0.321975 0.169976 0.840982 -0.307782 0.322055 -0.395424 -0.506700 -0.283050 0.378112 -0.278235 0.412874 0.296961 0.462316 -1.344737 0.249579 0.161908 1.312193 -0.051667 -1.324507 -0.197455 -0.283570 -0.138731 -0.677974 0.091237 -0.200791 -0.925152 1.305226 -0.856972 -0.238366 0.394939 0.179354 0.102024 -0.744007 0.283796 0.077377 0.601444 -0.450999 -1.066234 0.653054 -0.175676 0.047168 1.348452 -0.434455 -0.088517 0.264205 0.087430 0.683483 -0.060708 -0.152115 -0.411092 -0.058465 -0.483750 -0.960783 -0.463449 -0.217545 -0.324809 -0.720946 0.240600 -0.032384 0.005473 -0.015727 0.150385 -0.407723 0.742078 -0.422172 0.410321 -0.135726 -0.148875 -0.024691 0.108750 -0.186560 -0.131063 -0.049840 -0.205809 -0.842767 -0.048768 0.566876 -0.777320 0.111550 -1.243814 -0.623886 0.248067 0.211227 -0.297627 -0.009406 0.239016 -0.104093 -0.365753 -0.777528 -0.793199 0.378735 -0.204360 0.144415 -0.445421 0.327774 0.043676 0.634734 -0.523485 0.242835 0.306531 0.726353 -0.067421 0.228104 0.563000 -0.375671 0.891818 -0.051043 0.251819 -0.473553 -0.356438 0.263577 0.077688 0.787822 -0.269506 0.348040 0.376530 0.809246
