2708 128
0 0.118159 -0.190803 0.117067 -0.0192952 -0.100624 0.010808 -0.106973 -0.100832 0.0362231 0.0419172 0.0346276 -0.0783065 -0.0424031 -0.0529456 -0.040207 0.116935 0.0404344 0.110307 -0.0742586 0.0685493 -0.106976 0.0684053 0.0892884 -0.108431 -0.11363 0.139144 -0.0656017 -0.0202287 0.0806741 0.042966 0.110564 0.0483877 -0.0281328 0.14209 -0.0148793 0.0229376 0.0887529 0.0566124 0.092329 0.0480288 0.0381254 0.101413 -0.130516 -0.0939419 -0.122745 0.0667203 -0.0993591 0.147071 0.0899155 -0.116916 -0.0698504 0.0792942 0.00304373 0.0706086 0.23465 0.0920654 0.0990929 0.0632688 0.0534774 -0.13739 0.0710396 -0.0623458 0.188001 0.0428401 -0.0432229 0.0809555 -0.0302082 0.043782 -0.118528 -0.0190563 -0.136456 0.0265024 0.114949 -0.0703359 0.0336161 0.0113887 0.0513915 -0.107177 0.0718634 0.119286 -0.0294136 -0.0529841 -0.035466 -0.0367624 -0.101213 0.13497 -0.0627356 0.135719 0.129412 -0.0462269 0.122722 -0.101238 -0.00179982 -0.00503224 0.0566899 -0.0904276 -0.0404094 0.0185452 0.0847793 -0.0932191 -0.109849 -0.0742835 -0.0321387 -0.0222609 -0.0721647 -0.00922056 0.117532 0.150669 -0.0147175 -0.0180082 0.00616167 0.179763 0.13144 -0.0343154 0.0290026 0.0269979 -0.0116874 -0.0249225 0.0799552 -0.0719402 0.0588152 -0.112925 -0.0492007 -0.0679316 -0.184132 -0.122191 0.0977536 -0.0442534
1 0.0931842 -0.134317 0.103677 0.130684 0.125895 -0.0802584 0.0392873 0.105368 0.007422 -0.0126091 0.0110263 -0.0123629 -0.0340151 0.151286 0.00500309 0.064587 0.215609 0.0595643 0.0199222 0.0678507 0.0402795 -0.0747358 -0.0165611 0.0858524 -0.0923506 0.038401 0.0725124 0.346598 0.0965867 0.0688876 -0.0164583 -0.00179679 0.0575657 0.163751 -0.00514014 -0.138356 0.0783462 -0.0894213 0.00901344 -0.0835629 -0.00505674 -0.158615 -0.0833117 0.0906184 -0.0815862 -0.0112812 0.0138133 -0.04525 0.088142 0.0688102 -0.0385146 0.00233971 0.0576013 0.0539023 0.120325 -0.0734905 0.0618773 -0.0432576 0.0993618 -0.0609074 0.0446547 -0.100592 0.00357327 0.102221 -0.0809514 -0.0215224 -0.0637769 -0.129825 0.0432162 -0.0559318 -0.104531 0.0738211 0.192463 0.0133756 0.0547765 -0.119571 0.120814 -0.079553 -0.0185978 -0.0239274 0.028436 -0.0325144 0.0399422 -0.0608605 0.0181593 -0.0102979 -0.0213505 -0.0744028 0.0429795 0.184299 -0.0696346 -0.0780193 -0.100504 0.0388781 -0.0116773 0.0338315 0.0478693 0.112117 0.0623374 0.023402 -0.0869842 0.0115217 -0.059787 0.0712293 -0.063272 0.211748 -0.0714022 0.0136607 0.0517201 0.0308121 0.14161 0.157542 -0.0567315 8.98907e-05 0.11025 -0.062848 0.0835843 0.00301849 0.0349981 -0.136305 0.138108 -0.138642 -0.0924912 0.0562083 -0.104769 -0.0439782 0.106615 -0.05258
2 0.0747921 -0.0291293 0.0348789 0.138128 -0.0956547 -0.109238 0.0493748 -0.0614255 0.0190227 -0.02391 0.0709958 0.0916727 -0.00925027 0.0454038 0.148067 0.105532 0.0180935 -0.149233 0.0221376 0.133257 0.0102357 -0.255087 -0.094314 -0.00615294 -0.145033 -0.0152874 -0.0258187 0.092727 -0.0962311 -0.0102063 0.0180534 -0.0750743 0.0909562 0.0898603 0.00482137 0.000771329 0.118008 -0.142513 -0.0342453 0.0913818 0.112971 -0.0730413 0.0526453 -0.138533 -0.0926922 -0.0666107 -0.116914 0.0927373 0.00207942 -0.00732837 -0.021218 -0.0191816 -0.0561094 0.133634 0.0504463 0.0763248 -0.03218 -0.0255381 0.133607 -0.0336013 0.056509 0.019818 0.129066 0.037143 0.0574646 0.0388545 -0.067701 -0.222946 0.0482213 -0.00381621 -0.00387334 -0.0274937 -0.0689608 -0.0877205 -0.0385489 -0.0849735 -0.0414971 0.0109806 -0.0774305 -0.0433456 -0.0856276 -0.0245367 -0.08774 -0.130317 0.0762553 -0.00484058 -0.0345713 0.0697172 0.0339699 -0.0969872 -0.0931483 -0.0256952 -0.0861316 -0.0131301 0.00603981 -0.223251 -0.0496359 -0.0379166 0.0853098 -0.150972 0.00642823 0.0331827 0.0925007 0.115531 0.102481 0.144488 0.0922653 -0.0293076 0.115649 0.137149 0.0699192 0.0419149 0.121881 -0.130757 -0.124615 -0.0135472 -0.188864 -0.134052 0.0364593 0.0283169 -0.0623443 0.0357299 -0.118057 -0.0329231 -0.105555 -0.0460564 0.141952 -0.137638
3 0.111824 0.000311033 0.0532557 0.0666342 -0.00225993 -0.0425764 0.0345333 0.083619 -0.0282951 -0.0445788 0.0068002 -0.069524 0.0296916 -0.018246 0.131856 -0.00296553 -8.81257e-05 0.0019016 -0.0224972 0.0574452 -0.0264119 -0.0980768 -0.107374 -0.0727307 -0.152396 0.149947 -0.123819 0.185258 -0.0502143 -0.0291945 -0.0462176 -0.0278295 0.112983 0.00822377 0.0540906 -0.0408313 0.0997291 -0.105483 -0.125572 -0.0306585 0.118123 -0.0927423 0.0845611 -0.0666138 0.00543113 -0.11508 -0.122329 0.0150763 0.0143839 -0.0685422 -0.00662495 -0.196333 -0.081489 0.156685 -0.0594528 0.0652534 -0.0703816 -0.015984 0.0514128 0.0878713 0.134537 -0.124459 0.10486 -0.0116138 -0.116179 0.132384 -0.10889 -0.108084 0.0708827 -0.0181285 -0.036967 -0.092604 -0.0412018 0.05749 -0.146462 -0.0272953 -0.119375 0.0852626 -0.0447418 0.0251478 -0.00526136 -0.00354863 0.0197891 -0.0344806 -0.00206461 0.0931042 -0.124813 0.0590507 0.0274874 -0.000589867 -0.200903 -0.0194227 -0.032218 0.102405 0.0911312 -0.0522905 0.0369109 0.0887272 0.0961985 -0.0628604 -0.0428259 0.0620122 0.00510801 0.0156719 0.0798753 0.11577 0.0954017 0.0258077 0.136813 0.23796 -0.0216718 0.187528 0.173047 -0.0588273 -0.0711793 0.0303368 -0.176517 -0.161711 0.0277601 -0.015604 -0.0381224 0.0597038 -0.120956 -0.0279809 -0.0957808 -0.171586 0.100175 -0.0203664
4 0.0971306 0.0408501 -0.0374418 0.0302074 0.017634 -0.0550202 0.0955912 -0.080736 0.0148249 0.00522445 0.192873 0.0404868 -0.189856 0.161837 -0.0267193 0.102516 0.20812 -0.0621099 0.0141456 0.19842 0.0961879 -0.0919444 -0.117941 -0.0314265 0.0203424 0.158707 -0.0306905 0.0435655 0.0947561 0.0816402 -0.00472435 -0.0166462 0.0453882 0.0365622 0.0216185 0.0597501 0.083352 -0.103307 -0.176841 0.187261 0.0251332 -0.120472 -0.0197032 0.0398862 0.0715986 0.131679 0.0894193 0.0791862 0.0457769 0.0510965 -0.0430264 -0.178741 -0.151912 0.0525221 0.0556762 0.137351 0.0300105 0.155129 0.0284071 -0.0942431 -0.0949623 0.00269615 -0.0514789 0.089746 -0.0556294 -0.0161686 -0.108591 0.101694 0.0627043 0.0605653 -0.074239 0.0295892 -0.0746443 -0.0999432 -0.0171963 -0.160048 0.0640606 -0.126428 -0.127184 -0.0214289 -0.113901 -0.0864732 -0.0577947 0.123144 0.015584 -0.0193489 -0.10302 0.0437557 -0.091441 -0.0276842 0.0233209 -0.143476 -0.0542182 0.0370987 0.105131 -0.0168896 0.026171 0.0152043 0.09835 -0.135645 0.0149102 -0.0759358 -0.075858 -0.0178877 0.0698661 -0.109423 0.0755137 0.0281716 0.0940123 0.0170627 0.178249 2.216e-06 0.0206624 -0.106133 -0.00581989 -0.153866 -0.108481 -0.0614201 0.0237956 0.0560336 0.0494506 0.0340215 -0.0137983 0.104758 0.0443836 -0.0378334 0.00624568 0.107376
5 -0.00172975 -0.154327 -0.154559 0.164115 -0.0202853 -0.00763466 -0.0597609 0.118726 0.000155163 0.0721767 0.0941997 -0.00625273 -0.0407052 0.197555 0.0577122 0.0377123 0.0623989 -0.0264759 0.111692 0.0775512 -0.0652956 -0.226374 -0.0518169 -0.0881049 0.0777713 -0.0158471 -0.157752 0.012318 0.169606 -0.0553134 -0.0964263 -0.061995 -0.0843083 0.0162703 0.124971 0.0488176 -0.0427159 0.00383099 -0.201252 -0.073694 0.0037092 -0.0600016 0.0166178 0.173402 0.0153767 -0.0437728 0.0390998 0.0382946 -0.0556766 -0.0212516 0.0184943 0.0482477 -0.0431334 0.0688316 0.150501 0.123058 0.0101966 0.201425 0.113512 -0.020497 0.113013 -0.0992851 0.0499723 -0.0335492 -0.0317728 -0.0230402 -0.167097 -0.0849406 -0.00401009 -0.00856323 0.041119 0.0262623 0.012121 -0.00422372 0.0810132 0.039378 -0.00874357 -0.149545 -0.119575 0.0289037 -0.00197076 -0.107714 -0.0756132 -0.0268503 -0.0833496 -0.0045498 0.0173157 0.00892989 0.101737 -0.0284978 -0.0414347 -0.115206 -0.0963672 -0.0471541 0.166741 -0.0616393 0.00737561 -0.027434 0.0791276 -0.119079 0.160034 -0.0749814 -0.215652 0.0363215 -0.0681183 0.092889 0.13791 -0.00965678 0.145208 0.084097 0.0828247 0.115562 -0.061021 -0.126063 0.0185608 0.00826938 0.0823523 -0.0105914 0.041735 0.0621743 -0.0717132 0.0129518 0.132788 0.0487198 -0.100253 -0.0364284 0.0583322 -0.076656
6 -0.0415706 -0.147349 0.026847 -0.000125974 0.0462894 -0.0258553 0.0136961 0.0633009 0.00474313 0.0397748 0.0599497 -0.0219659 -0.0053936 0.0689539 0.135524 -0.0277279 0.0180648 0.0576172 0.0234209 0.0952972 -0.115799 -0.156642 0.0232344 0.0173074 0.00526092 0.0964857 0.037909 0.166842 -0.0526501 -0.00276684 0.147514 0.0527741 0.0435853 0.135656 0.00754958 0.166302 0.0587091 0.0476188 0.0229982 0.146668 0.0238422 -0.0376501 0.016926 -0.0908749 -0.166963 0.110214 0.0812826 -0.0814127 0.0518067 -0.0499456 -0.0283319 -0.0925065 -0.107397 -0.0297915 0.153846 0.134126 -0.0892412 -0.0257895 0.0553177 0.0129836 -0.0586668 -0.0952141 0.138097 -0.00506785 -0.197811 -0.130519 0.00922257 -0.0569859 0.0208419 -0.0355267 -0.133001 -0.0773671 -0.0145009 -0.112621 -0.0954041 -0.140943 0.0705033 0.0667534 -0.148261 0.00121203 -0.13678 0.0299944 -0.0223302 -0.089413 0.00415594 -0.115916 0.00746377 -0.157955 0.0242542 0.0966282 -0.201223 -0.0408772 -0.102788 0.0380369 0.0571513 -0.105516 0.0123404 0.0153904 -0.128392 -0.133416 0.0218958 0.00835899 -0.0195599 0.00770259 -0.0064803 0.0811131 0.105872 -0.0491738 0.155225 0.164862 0.152271 -0.0297554 0.0493638 -0.127266 -0.0835978 -0.0546052 -0.0486715 -0.153694 0.0435426 0.122693 0.00452382 0.11113 -0.00908014 0.00896979 -0.110901 -0.133015 0.144866 0.00914419
7 -0.0573406 -0.0185637 -0.0408705 0.138751 -0.0249849 0.0386151 -0.10008 -0.0771881 0.0431348 0.0286943 -0.0665242 0.0669646 0.0400787 0.0913228 0.0242884 0.00597615 0.109953 -0.029907 0.052539 -0.0317892 -0.0496541 -0.0459722 -0.111656 -0.00346175 0.0851214 0.110927 0.0645083 0.0831056 0.141003 0.0468979 -0.0738346 0.126613 0.0250949 0.0857085 0.158908 0.0273338 0.241126 -0.187573 -0.0842402 0.170962 0.0482999 -0.00692412 0.103856 0.00930844 -0.0882694 -0.112081 0.0623697 -0.00815239 0.121165 0.0685189 -0.0371743 -0.107484 -0.160208 0.0841758 0.103822 0.123723 0.154489 0.0269742 0.00945529 0.143192 -0.117682 0.0179688 0.121007 -0.0560181 -0.0465502 0.0962481 0.150123 -0.0374909 0.0879836 0.0258998 0.111996 0.161993 0.0721288 -0.0145792 0.109938 0.0100436 0.0775983 -0.046403 0.00552276 0.0582564 -0.22436 0.00152048 -0.136555 -0.0410576 0.0338726 -0.0331439 0.043322 -0.0815362 -0.0494994 -0.0460639 0.00668791 0.127771 0.0475324 0.00239539 0.0663961 -0.170092 -0.113888 -0.132386 0.0281505 -0.158492 0.0662842 0.0406354 -0.163724 -0.0150621 -0.00941426 0.00078208 -0.0522452 -0.0939788 0.114615 0.017154 0.065687 -0.0533281 0.043724 -0.0617936 0.0665929 0.0619528 0.0309919 -0.0681217 0.0181767 0.0212717 -0.121465 0.0327262 0.0947591 0.0501339 -0.102206 -0.0565896 0.0761858 -0.138099
8 0.0210412 0.0309892 -0.0102118 0.176118 0.0893044 -0.10116 0.114631 0.0104149 0.0550833 -0.0732033 -0.0770495 -0.0145882 -0.0183316 0.0402771 0.019541 0.0668792 0.119834 -0.0853124 0.0384433 0.0639514 -0.0202282 -0.0782415 -0.00845101 0.164848 0.095272 0.134379 -0.0699234 0.234116 0.156187 -0.00818805 -0.0238016 0.0715611 0.0271095 0.149959 -0.030358 -0.0956849 0.13303 -0.0993761 -0.189672 0.0725557 0.121854 -0.0456676 -0.0203885 0.175439 -0.0803302 0.0691886 0.0478281 0.0982586 -0.0290481 0.0394537 -0.00880939 0.0936298 -0.0918907 -0.0660165 0.109223 -0.0725866 0.107323 0.0996239 0.0765077 0.0400476 0.0588741 -0.231418 0.0222757 -0.0550738 -0.0495618 -0.032486 -0.0230809 -0.05298 -0.0347549 0.0703452 -0.05475 0.0737012 -0.0518955 -0.0186284 -0.178095 -0.0294893 0.0120217 0.101214 0.0155274 -0.0550834 -0.107175 -0.0239431 -0.167633 -0.182198 0.0010684 -0.115047 0.0192107 -0.00959722 -0.00846719 0.0655623 -0.168289 -0.0542084 0.141253 0.0509442 0.16014 -0.116444 0.126699 0.0882611 -0.0723328 -0.135258 -0.09607 -0.00791801 -0.00249701 -0.0814135 -0.0279122 -0.148093 -0.0588284 0.0263588 0.0168119 0.0895521 -0.0421091 0.0339938 -0.09503 -0.0545137 0.0477484 -0.00234472 0.00586003 -0.0738465 -0.0782907 0.0222997 0.0586659 0.0168715 -0.137789 0.122951 -0.0170745 0.00476336 0.0361512 -0.100837
9 0.0424693 -0.0846292 0.048727 0.189709 -0.00530994 -0.0933344 0.0508653 -0.0465271 0.0750711 -0.00949124 -0.0118954 0.00350929 -0.0392933 0.12941 0.016509 0.0377444 0.195813 -0.020491 0.0245497 0.026658 -0.0745507 0.0724399 -0.0437056 -0.111347 -0.00190836 0.0178522 0.0570408 0.0586332 -0.110339 0.134217 0.120508 0.0602584 -0.130984 -0.0407168 0.0383014 0.0196353 0.1275 -0.0126799 0.00402108 0.0640499 0.0106297 -0.133771 -0.0857823 0.117107 0.0388296 -0.115192 -0.184025 -0.0356203 -0.0207462 0.0572004 -0.107723 -0.0406951 -0.0191209 0.0328723 0.0614681 0.090961 -0.055842 0.152459 0.0798521 -0.071705 -0.0956233 -0.0298147 0.15739 0.0421509 -0.125481 0.143031 0.00736623 0.0190124 0.0264235 -0.0302915 -0.0507184 0.0638967 0.143123 -0.0748819 0.0628133 -0.142867 0.0431426 0.0427535 0.0595459 -0.0111029 0.0794377 0.00229581 -0.0466126 -0.170647 0.0270616 -0.00909631 0.0673395 0.071421 0.120578 0.030448 -0.0276419 -0.0419678 -0.0266 0.0538976 0.0511768 -0.199518 0.0325918 -0.120997 0.0597936 -0.0655647 -0.0238689 0.0156236 -0.193794 0.0217575 0.00395388 -0.060897 -0.103173 0.109542 0.0828806 0.129824 0.0502033 0.156044 0.152425 -0.0177448 0.214061 0.176273 -0.126566 -0.189659 0.0229072 -0.0328475 -0.0771595 0.06957 -0.0981978 0.0150769 -0.15319 -0.0635068 0.0321336 0.0158022
10 0.137601 0.0650423 0.0114377 0.203927 -0.0305706 -0.0318643 0.0483774 6.66664e-05 0.0949685 0.00820741 -0.00393544 -0.00928835 -0.21281 0.0956499 -0.0317444 0.120571 0.188693 0.0568452 0.140688 0.114995 -0.038454 0.0530632 -0.0770216 -0.0305587 -0.0617373 -0.15099 0.170998 0.0928976 -0.0353731 0.0121502 0.0508986 0.124022 0.0435973 0.123168 0.0824615 -0.0679579 0.149006 -0.0851145 0.111736 0.117709 0.135942 -0.0228586 -0.166491 -0.00966406 -0.0921501 -0.064927 0.10647 0.0322978 0.0936355 0.00946734 0.0100831 0.0565808 -0.0825148 -0.02361 0.0697817 0.0441257 0.22651 -0.031873 -0.0857733 0.0174082 0.100408 0.0329012 0.106628 0.0618197 0.00321741 -0.0797836 0.038207 -0.0399778 -0.0986931 0.0255121 0.0855807 0.0743077 0.039863 -0.0454654 0.0940431 0.0314015 0.0770586 -0.0257219 0.0140267 0.0720421 -0.0192138 -0.028201 -0.0543963 0.000480719 -0.120357 -0.026318 -0.163285 0.0453947 -0.164102 0.0499362 -0.0989044 -0.142068 -0.0647918 -0.0294643 0.0954932 -0.0923085 0.0236408 -0.0728959 0.0251073 -0.150262 0.03221 0.0259889 0.0135012 -0.0348669 0.0058164 -0.0539406 0.0800543 -0.0686073 0.0358265 0.161589 0.0657547 0.0866959 -0.0389207 -0.0347784 0.114377 0.0164631 -0.0354934 -0.179291 0.00655837 -0.0410644 0.0321893 -0.0401202 -0.0885965 -0.103289 -0.176701 -0.108107 0.136872 -0.090361
11 -0.0604676 -0.02551 0.11491 0.0827486 0.18055 -0.00232481 0.0887334 0.0455092 0.107827 0.121372 -0.0320705 0.00480668 0.00528796 0.0889888 -0.00593576 0.0207203 0.149954 -0.0710577 -0.0529517 0.0880467 -0.0195986 -0.165631 -0.165013 0.0514628 0.0395834 -0.079278 -0.0154468 0.30471 0.0834671 -0.0226156 0.00800803 -0.126756 -0.0724351 0.00278686 0.0346308 -0.0284515 -0.0369023 -0.18894 -0.241902 0.0891294 0.134407 -0.0396936 -0.0734345 0.0877576 -0.186479 0.0889895 0.080292 -0.0313676 0.109277 0.0852035 -0.090585 -0.111207 -0.0483806 0.023566 0.113304 0.124204 -0.0692549 0.0628186 0.123931 0.084886 -0.113656 -0.118306 0.0817941 -0.0622755 -0.0222745 -0.00563311 -0.0693583 -0.0381652 -0.098372 0.000944889 0.100159 -0.0111489 -0.000247777 -0.00617307 0.114097 -0.00725422 0.0322017 -0.0301005 -0.19778 0.0408774 -0.0374744 0.092214 -0.0867525 0.024178 0.1181 -0.0638022 0.00865274 -0.0473849 -0.105925 0.0216662 -0.0932641 -0.0711078 -0.00807443 0.0537251 0.0190573 -0.170891 0.0360968 -0.0716472 0.0492483 0.0187024 0.0119179 0.0722351 -0.0200227 0.0824078 -0.0130895 -0.0552453 -0.0271555 0.0313182 0.0385379 0.137304 0.133233 0.0138209 0.13585 0.020212 0.0218954 0.0143537 -0.12475 0.0395734 0.0494715 -0.0184323 -0.0588066 -0.0934232 -0.0784263 0.0856607 -0.103816 -0.0656213 0.0483022 -0.131299
12 0.0764768 -0.0396826 0.154776 0.222905 -0.00380323 0.0877497 0.045218 0.029308 0.140613 0.133623 -0.0427494 0.0639787 -0.208647 0.00450861 0.130814 0.0915144 -0.0534373 -0.00225978 0.174689 -0.0311483 0.0766172 -0.0866181 -0.0655987 0.102983 0.10214 0.0536474 0.134127 0.0619472 0.0537114 -0.0705684 -0.0736133 -0.02517 -0.0364994 0.0126616 -0.0230492 -0.0389044 -0.0665998 -0.188873 -0.058923 -0.0553258 0.0720649 -0.0438497 0.0810444 0.017897 -0.154052 -0.0627869 0.00111844 0.0590739 0.188659 -0.0797752 -0.0733058 -0.0568365 -0.0261591 -0.073552 0.081088 0.0178299 -0.01427 0.133718 -0.0521761 -0.0187168 0.0197242 0.0577739 0.0426457 -0.0885087 -0.129921 -0.119397 -0.0130847 -0.117029 -0.194072 0.0116689 -0.136854 0.186992 -0.0686682 0.00388342 -0.112675 -0.19395 0.0769592 -0.00732093 -0.0712362 0.0757019 0.128693 0.0586823 -0.0709673 0.0334132 -0.063222 0.0320415 0.0865978 0.0500483 -0.10528 0.0914749 -0.0970416 0.018524 -0.0111631 0.110563 0.0621606 -0.115502 -0.0392048 0.0439703 0.0290698 -0.0728569 -0.0356117 -0.0291979 -0.106288 -0.0424504 -0.0348807 0.00778228 -0.0355755 -0.0893912 0.183571 0.033156 -0.0471667 0.0498632 0.0274447 -0.166179 0.0586066 -0.126559 -0.0500622 -0.130565 -0.036626 0.0141147 -0.0653639 -0.00267919 -0.0678525 -0.105586 -0.122367 -0.0534369 0.0252916 0.00600465
13 0.00256236 -0.0703718 0.0910573 0.119706 0.125549 0.0324803 -0.058305 0.112323 0.0483617 0.156668 -0.0659661 0.0370485 -0.0252658 -0.0094751 0.0240607 0.0783428 0.129137 0.0260946 0.18204 0.0824775 -0.131241 -0.030714 -0.206657 -0.0517654 0.0267383 0.0261211 -0.0117095 0.146242 -0.0856718 0.153796 0.116654 -0.0439816 -0.148348 0.0463962 -0.0151815 -0.00328874 0.114522 -0.113067 0.126382 0.189426 0.0520953 -0.136828 0.0206324 0.0676534 -0.118302 -0.0528615 -0.108184 -0.0231467 -0.0585618 -0.0227046 -0.20307 -0.132241 -0.0618577 0.114954 -0.0343903 0.0165024 -0.00856283 0.131305 0.0103372 0.0580581 -0.219676 -0.108291 0.052524 0.0475816 -0.103164 0.0551073 -0.0647586 0.00763997 0.0496137 -0.0555246 0.047624 -0.041929 0.103606 0.0213193 0.117762 -0.13352 0.0639637 -0.040335 0.0234449 -0.0788637 0.0822574 0.105589 -0.0418329 -0.11534 -0.0144014 -0.0163343 0.0463624 0.0814283 0.0442133 0.0183117 0.00903628 -0.0324121 0.105358 0.11235 0.0147835 -0.11544 -0.0895368 -0.0989742 0.026998 -0.0246351 -0.0519296 0.0136588 -0.0662947 0.0487022 0.0330749 -0.0840379 -0.0618177 -0.0137286 0.0791937 0.078559 0.111806 0.180929 -0.0379756 -0.0937457 0.128063 -0.00785146 -0.097927 -0.0371959 0.0717075 -0.0612969 -0.0521998 0.0849338 -0.0836701 -0.0546411 -0.172796 -0.0169839 0.153401 0.00612893
14 0.19081 -0.0210844 -0.0230632 0.124295 0.15372 0.0231359 0.0276782 -0.117717 0.11027 0.124276 0.108585 0.0117932 -0.13968 -0.00176406 -0.0290193 0.0798414 0.120522 -0.0631699 0.124029 -0.0153914 -0.130139 -0.0941427 -0.0685414 0.0638233 -0.00483479 0.0190369 0.167678 0.104076 0.0772686 -0.0426439 0.061838 0.0884915 0.0289455 -0.00515425 0.226209 0.118031 -0.0459491 -0.194731 -0.0944054 -0.0520733 0.0923277 -0.0540415 0.00377733 0.138651 -0.0979265 -0.00796345 0.0932569 0.0312582 0.193341 -0.0712191 0.0998625 -0.142116 0.0404494 0.0536634 0.0643851 0.0192362 0.0748348 -0.0620475 0.0882201 0.03459 -0.0232988 -0.116175 0.0712534 -0.0123073 -0.105888 0.0621984 0.0810817 -0.0339631 -0.0856256 0.0421735 0.0374506 0.0980813 0.0496147 -0.0776589 0.062323 -0.037953 -0.011784 -0.00308401 0.0791872 -0.0347275 -0.0864224 -0.0692942 -0.00262343 0.0221236 -0.0256934 -0.0670611 -0.108879 0.0245684 -0.00954325 0.0567959 -0.0885387 -0.0961633 -0.0429968 -0.0724137 -0.0161074 -0.157356 -0.0653273 0.00297047 -0.0570963 0.0792766 0.0578922 0.00302736 -0.156913 0.025116 -0.102258 0.171113 -0.0867143 0.166386 0.149946 0.11158 0.175363 0.0153692 0.0218132 0.0478277 0.0853437 -0.0436303 -0.167359 -0.0193938 0.0249687 0.0152204 -0.025624 -0.0438887 0.0216074 -0.0766582 -0.153579 -0.071703 0.0296068 -0.131707
15 0.103152 -0.0117284 0.0259833 0.0584951 -0.0106263 -0.0789788 -0.000835864 -0.00102244 -0.0891806 0.0550019 0.186641 0.0315988 -0.0512557 0.0311673 0.0913228 0.00719348 0.316958 0.0264791 0.0243796 0.161417 -0.000753791 -0.0914039 0.0461475 0.151396 -0.12309 0.0314525 0.00699141 0.119483 0.0689942 -0.00855228 -0.0663952 0.201587 -0.105451 -0.0276402 0.0293511 0.00553966 0.0824562 0.0272133 0.0465293 -0.0668854 0.0793449 0.031579 0.0365741 -0.123937 0.0303229 0.0223475 0.0167624 -0.0388658 0.115695 -0.0908706 -0.120014 -0.00422058 -0.029289 0.10112 -0.0331028 0.0302285 -0.157835 0.0483006 0.0697882 0.0317633 0.0112366 -0.191864 -0.0270572 0.0969301 -0.139596 0.0626391 -0.145435 -0.00157033 -0.0284844 0.00181608 -0.0126666 0.070671 -0.0820326 -0.0402373 -0.119046 0.00440401 -0.0455306 -0.0620376 -0.0596459 0.144884 0.0380136 0.00813812 -0.0774493 -0.102922 -0.0813674 0.0236994 0.0534308 0.0027658 -0.0565414 -0.0199546 -0.112482 -0.211334 -0.0104231 0.212474 0.09933 -0.0262543 -0.0188234 -0.0362546 0.0680758 0.0686663 0.0211803 0.112447 -0.102317 0.117369 -0.0356958 0.08874 -0.110892 0.0711438 0.185414 0.0479321 0.176434 0.0869274 0.0344311 -0.0277317 0.156219 0.02541 -0.00920593 -0.109269 0.0215952 0.00874365 0.0278808 4.99845e-05 0.000702398 0.143148 -0.0583698 -0.0387466 -0.00291779 -0.17468
16 0.211221 -0.0545547 0.0492323 0.147465 0.157601 0.0261718 0.0312084 -0.0861326 0.0834857 0.082563 0.0866849 0.0141428 -0.17792 -0.0258299 -0.0571474 0.152371 0.0968677 0.00963917 0.0546925 -0.0084837 -0.0276707 -0.0801729 -0.0507766 0.0334971 -0.0682793 -0.030748 0.0529867 0.121514 -0.0367048 0.0111789 0.128427 0.0257453 0.0219051 0.028036 0.137094 0.0861665 -0.067239 -0.268453 -0.0655521 -0.0495251 0.10079 -0.0111568 0.0235635 0.126999 -0.0794242 -0.0725097 0.0201498 -0.0114601 0.215325 -0.0575383 0.0985997 -0.0520122 0.0549242 0.108461 0.097486 -0.0220232 0.0342632 -0.042409 0.0225776 0.0585651 -0.0351194 -0.0768121 -0.0115074 0.103762 -0.127601 0.0394199 0.0930999 -0.0993007 -0.0493819 0.074594 0.0533619 0.0521082 -0.0226571 0.0507102 -0.00574682 -0.0777947 0.0176775 0.0594834 0.0575413 0.00775428 -0.101828 0.0357537 0.00812171 -0.0417305 0.0142277 -0.0297324 -0.103395 -0.025418 -0.104145 0.0661283 -0.0668366 -0.171547 -0.0325565 -0.143672 0.0615283 -0.0768333 -0.0277493 -0.0543301 0.0239275 0.0676843 0.109033 -0.0126676 -0.143547 0.0380118 -0.201125 0.109395 0.00473501 0.156431 0.284007 0.162604 0.126697 -0.0625636 0.0443606 0.0206408 -0.0242538 0.000135474 -0.143767 -0.0082216 0.00556457 -0.00329039 -0.0471578 -0.0212872 0.00376808 -0.0883319 -0.134137 -0.0430656 0.0695 -0.0920679
17 0.0580231 -0.0514105 -0.0486002 0.0821423 0.0563161 -0.0101678 -0.092201 0.0158206 -0.0999897 0.0052386 0.124945 0.0656553 -0.114955 -0.00839079 0.0625008 0.0490535 0.288774 -0.0765365 -0.0215901 0.140129 -0.0789961 -0.111758 0.0314313 0.160341 -0.0592931 0.0749908 -0.0327504 0.145926 0.0210586 -0.0894909 -0.225458 0.155564 -0.0316088 0.0972477 0.0626236 0.0858984 0.0577879 -0.0117881 0.00974836 0.0357287 0.097133 -0.0331602 0.0455166 -0.0239548 -0.0299939 0.0772782 -0.00449013 -0.0546502 0.0450912 -0.0660276 -0.143257 0.0635348 0.0412361 0.0911954 -0.0069745 0.0361923 -0.0874347 -0.0664028 0.0295459 -0.0166919 0.0793816 -0.218122 0.0666614 0.0170172 -0.0452328 0.00406848 -0.0671141 -0.147759 -0.0289644 -0.00135518 0.031636 0.101164 -0.0935242 -0.162665 -0.0213685 -0.0510139 -0.0375882 -0.0696288 -0.108667 0.0974335 0.0361696 -0.088732 0.00328455 -0.0594669 0.0198149 0.0924798 -0.0149144 0.0899295 -0.0443378 0.0158132 -0.146658 -0.167478 0.0745322 0.172278 0.118402 -0.053448 0.0613668 0.0677068 0.0761401 0.0214964 0.0363076 -0.0063448 -0.0236462 -0.00174473 0.0491206 0.0968297 -0.12856 0.0687258 0.247398 0.148923 0.0750302 0.00575903 0.0737636 0.0023933 0.101087 0.091278 -0.0660518 -0.105974 0.0583999 -0.0446076 0.00164181 -0.0316591 -0.0268694 0.109983 -0.0602764 -0.133778 0.119035 -0.128183
18 0.0440585 -0.0502753 -0.0748686 0.0929225 0.0682061 -0.00698582 -0.0154272 0.0582834 -0.0120823 0.035766 0.157858 0.0700747 -0.0678142 0.0476319 0.0873656 -0.00535107 0.244478 -0.0702043 -0.0370228 0.206209 -0.129124 -0.0905047 0.0487224 0.0974582 -0.108444 0.101791 0.016527 0.153403 0.112119 -0.0402895 -0.213266 0.127714 -0.0146557 0.0951605 0.0613773 0.0930167 0.0386358 -0.0191514 0.0194077 0.0686043 0.0249677 -0.0224736 0.023991 -0.0751778 -0.00551136 0.0708028 0.0162544 -0.0317855 0.0991359 -0.0761773 -0.159592 0.14884 0.0760173 0.0100951 0.0383229 0.00846425 -0.0845871 -0.0485621 0.0597539 0.0343549 0.0324763 -0.166374 0.103958 0.0920705 -0.0902982 -0.00806624 -0.0246567 -0.100691 0.00273139 0.0433542 0.025108 0.0791517 -0.0299404 -0.167624 -0.0468893 -0.10534 -0.0573885 -0.056941 -0.131922 0.126863 0.0130778 -0.0737699 0.0195173 -0.0596414 0.0019078 0.0589788 -0.0480447 0.0688091 -0.0870511 -0.0703723 -0.169545 -0.187788 0.0614328 0.163434 0.057785 -0.0752422 0.0281275 0.019232 0.12454 -0.00666822 -0.014821 -0.0610236 -0.0369958 0.0477136 0.0534076 0.138611 -0.11116 0.0552732 0.219803 0.100361 0.0670326 0.0281284 0.0355808 -0.0125677 0.152668 0.0978219 -0.0725876 -0.0895654 0.0565978 -0.0321524 0.0527564 -0.0856687 -0.0401072 0.11721 -0.0678911 -0.131324 0.10545 -0.0526311
19 0.0652068 -0.155932 0.0359349 0.0109548 0.0197326 -0.0241543 0.0801255 -0.0213103 -0.0301692 -0.0336835 0.0747839 -0.0731577 -0.0667366 0.0608229 0.0446978 0.0855104 0.215604 0.0354383 -0.0168763 -0.0422055 0.115567 -0.110849 0.130708 -0.0400403 0.0771055 0.101134 0.0256461 0.12685 -0.0696218 0.0957209 -0.0467502 -0.0949174 0.00355603 0.0291783 -0.0174828 -0.137998 0.0764084 -0.0839588 -0.0940195 0.0994947 0.152525 -0.0522455 -0.0969616 -0.0695505 -0.0544625 -0.0844604 -0.060269 -0.0655189 -0.104595 0.0966365 -0.0274037 -0.0527732 0.0181613 0.0702191 0.153772 -0.0566021 -0.0693922 -0.149316 -0.0999538 0.136882 -0.0924357 -0.0822135 0.0139916 0.0263813 -0.127373 0.0615384 0.111472 -0.219852 -0.078827 -0.0853845 0.0198162 -0.0222104 0.125461 0.0218117 0.0406679 -0.0178175 0.0705455 -0.085793 -0.0285469 0.0917183 -0.0213131 0.0586553 -0.1375 -0.00572716 0.000847232 0.0702144 -0.102489 -0.0276156 -0.0811347 -0.00529301 -0.0843379 0.0528249 0.0530412 0.141404 -0.0528043 -0.0300889 -0.12198 0.0223379 -0.0271141 0.00229509 -0.0095164 0.0563673 -0.185716 0.201182 -0.120075 -0.00319208 -0.0870552 0.00639533 0.306739 0.130192 0.0584393 0.103555 -0.0310989 -0.0175576 0.144132 -0.0292494 -0.0906358 -0.0880169 -0.117071 0.0446328 -0.00190026 -0.0302097 0.0667486 -0.0561179 -0.0204434 0.0865857 0.108201 0.0125485
20 0.0704763 0.0310187 0.15432 0.169988 0.0250239 -0.182512 0.04372 -0.148071 0.188177 0.0189939 -0.0729703 0.118332 -0.0458442 0.155527 0.124894 0.204403 0.144462 0.0324977 -0.0444285 0.0691541 0.000146496 -0.143674 0.0406812 0.117585 -0.0513793 0.100055 0.110225 0.115397 -0.0618712 0.0591738 0.005076 -0.00287029 -0.0338052 -0.0297934 0.0611912 0.00159994 -0.0755754 -0.165166 -0.0125165 -0.0536532 0.14111 -0.128057 -0.0689082 -0.072083 -0.100659 -0.0727427 -0.10091 -0.0103945 0.00325098 -0.0479241 0.0276937 -0.00221601 -0.0437512 -0.0608079 0.204068 -0.0990402 -0.0563197 0.0051333 -0.0695645 0.0758332 -0.0605574 -0.0520074 0.0498814 -0.0200005 0.00412996 0.0284042 -0.0859531 -0.00371979 -0.114313 -0.0316627 0.0316406 0.0527697 0.112528 -0.0949059 -0.0187876 -0.0692434 -0.0552815 -0.0634523 -0.0401896 0.106457 -0.0244224 -0.0779496 -0.0698816 -0.0803843 -0.0708648 -0.0615277 0.0252386 0.128969 -0.0282894 0.0345108 0.0105178 0.0266652 0.144518 0.0536906 0.0233861 -0.05257 0.0507823 0.00438606 -0.0391598 -0.107402 0.00506597 0.156068 -0.185159 0.133177 -0.12536 0.188959 -0.230173 0.0376863 -0.0190555 0.144359 0.0725496 0.0969379 0.101724 -0.0363561 0.0129891 -0.0407063 0.0594977 -0.0767862 -0.0415762 0.0915797 -0.0592477 -0.108001 0.0174932 0.0337632 0.0336428 -0.0514004 -0.0342663 0.0477945
21 0.0762411 0.100478 -0.0986218 0.0993776 0.0830639 -0.0155706 0.0611021 0.0806477 0.0573392 0.0199455 0.0636973 0.0783044 -0.0550786 0.129785 0.113998 0.103526 0.184985 -0.0139768 0.0147231 0.146277 0.0289622 -0.152313 -0.00375847 0.0756715 0.0986431 0.00572039 0.196893 0.316894 0.0367974 0.136053 0.0222594 -0.00198713 0.1143 -0.0420971 0.0129438 0.00360233 0.0578263 -0.21218 -0.067342 -0.0122278 0.192688 -0.0180756 0.0948413 0.0468182 -0.131916 0.0804644 -0.0529952 0.000445238 -0.0145133 0.0277033 0.0216228 0.0517455 0.0105517 -0.0430456 0.0959447 0.0495854 -0.121427 0.0731122 0.0410533 -0.0142685 -0.0759659 -0.0853454 0.0903386 -0.0723514 0.0226561 0.115919 0.118048 -0.0586539 -0.01063 -0.0259906 0.0766354 0.0607962 0.0704876 0.0301258 0.0459468 -0.0936322 0.0222459 0.0437222 -0.039995 -0.0586315 -0.0852927 -0.0389635 0.0664993 -0.0466951 0.0199942 -0.0717894 -0.170421 -0.0998398 0.0406608 0.13517 -0.122608 -0.0131545 -0.0174053 0.0228302 0.0609828 -0.0119167 -0.0435618 0.0551198 -0.0580289 -0.133821 -0.0234972 0.0405417 -0.0261677 0.0464694 -0.0641833 0.113373 -0.0789242 -0.0171997 0.108241 0.194143 0.255045 0.0805367 0.0150907 -0.0276004 0.0819163 0.065127 0.108469 -0.0576714 -0.0320187 0.0532743 0.0258421 0.0453861 -0.0344413 0.0569254 -0.0994869 -0.14097 0.121543 -0.0317173
22 0.22135 -0.0201937 -0.0663748 0.148366 -0.138786 0.0699014 0.0866004 -0.0663643 0.0823102 0.119354 0.0359434 0.135715 -0.103121 0.0464993 0.147102 -0.0588019 0.232325 -0.0552551 0.0688007 -0.0051833 0.0304536 -0.0766883 -0.104157 -0.101851 -0.0398607 0.148172 0.0237064 0.107564 0.0263601 0.12235 -0.0587275 0.042598 -0.100126 -0.0300399 -0.0153476 -0.0458314 0.0231198 -0.0380818 -0.126107 0.186494 0.0568299 -0.156544 0.0459514 0.0404816 -0.118576 -0.106153 -0.139913 0.0981622 0.0553339 0.0279802 -0.115454 0.114876 0.127965 0.0254463 0.0847557 0.0154788 0.0855645 -0.0500154 -0.0667553 -0.0793936 -0.00668269 -0.0673559 -0.0740427 0.0327485 0.0845217 0.065288 0.0818752 0.0226515 0.00150285 0.0258846 0.0110906 0.0346081 -0.0223549 0.0486372 0.0413541 0.00298396 -0.00175792 -0.146877 -0.0732575 0.113729 -0.00863183 -0.038605 -0.075331 0.0276999 0.0172358 -0.019596 0.115916 -0.0246211 0.0230783 -0.0858465 -0.104494 0.0125015 0.0707507 0.0576 0.155751 -0.116051 0.0134655 0.0404568 0.0341385 -0.121419 0.0465146 0.123662 0.0563406 -0.041416 0.0214024 0.179266 0.0421467 0.123017 0.127312 0.186852 -0.0111274 -0.0578906 -0.0393952 -0.0561704 0.109158 0.142303 -0.0268668 -0.0474552 0.0997327 0.124602 0.0213473 0.0176731 0.042692 0.084694 -0.192819 -0.116181 -0.0418729 0.00817026
23 0.185169 0.0666612 -0.0611125 0.153101 0.0747617 0.00576073 -0.01723 0.0134487 0.163205 0.140734 -0.0120303 0.0116613 0.0353923 -0.0910804 0.0686352 -0.0213572 0.215567 0.0421183 0.0310226 0.00189353 -0.108414 -0.134527 0.00643042 -0.0428132 0.0212619 0.00275201 0.0290803 0.175886 0.0915346 0.119537 0.0599364 -0.0152409 0.0051306 -0.036398 -0.0144418 0.104879 0.0699381 -0.0749681 -0.0918782 0.0940332 0.0541788 -0.103972 -0.0326599 0.0857478 -0.0808924 0.0250477 0.0254199 -0.0759231 0.164782 0.0737331 -0.077939 0.11558 -0.0986911 0.21306 0.0897655 0.106849 0.0970395 0.0117474 0.0365948 -0.0709242 0.00175446 -0.172515 0.0571708 -0.0511219 -0.0546647 -0.0373245 0.0228821 -0.0651347 -0.0122645 0.0600237 -0.103472 0.251283 -0.0282592 -0.00934852 0.0257286 -0.102305 0.0974113 -0.010485 -0.0559774 0.0978395 -0.110834 -0.0689157 0.0794888 -0.0594984 0.0336608 0.0252781 -0.0790845 -0.0912405 0.0361506 0.0575292 -0.0856042 -0.106717 -0.0426634 0.0212325 0.020343 -0.0417776 -0.0514379 -0.0188927 -0.07925 -0.149218 0.168124 0.0727168 -0.0213757 0.0879019 0.0113717 0.0984954 -0.0522006 0.0219178 0.0110887 0.083881 0.247552 -0.01344 0.0849635 -0.141819 -0.00608135 -0.0165182 -0.0546913 0.0277886 0.0540259 -0.220794 -0.0223147 0.112113 0.0348006 0.100451 0.0101516 0.0383668 0.0844415 0.0970419
24 0.26497 0.0361466 0.0720882 0.0889473 0.0661333 0.00569816 -0.0275663 -0.016236 -0.00367945 0.174139 0.102958 -0.0881568 -0.0779605 -0.135521 -0.0722594 0.0720248 0.111115 0.0107552 -0.00470612 -0.0294029 -0.0300778 -0.114131 -0.161558 0.0356381 -0.0331803 -0.0990073 0.0933549 0.0667733 -0.0827955 -0.0301322 0.100995 -0.0183845 -0.0077572 0.0471061 0.228275 0.0704046 0.025331 -0.230806 -0.0662681 -0.00387296 0.0191954 -0.0871333 -0.0624502 0.144345 -0.115025 -0.0157359 0.0807829 0.041913 0.105895 -0.021847 -0.0549054 0.0589738 0.03845 0.064813 0.0145988 0.125533 0.0713126 -0.0895798 0.0632929 -0.0442793 -0.059228 -0.045166 0.136447 0.00840655 -0.0530612 0.0386641 -0.0392362 -0.0726753 -0.104122 0.101797 -0.0189114 0.166492 0.157679 0.0950328 -0.0574077 -0.067869 0.0295745 -0.0315056 -0.0517542 0.0106795 -0.11519 -0.0208557 0.037905 -0.0247254 -0.00912931 0.0143096 -0.0811898 0.0342283 0.0387379 -0.0421596 -0.161889 -0.123064 -0.0993556 -0.110132 0.0756883 -0.0723291 0.0518441 0.0791723 -0.0576166 -0.0101165 0.0653734 -0.0840031 -0.091964 0.012765 -0.0911531 0.0603914 0.0192454 0.136629 0.264835 0.16919 0.159918 -0.0319545 -0.0229395 -0.0415366 -0.0061283 -0.0254994 -0.0943291 -0.00710225 0.058421 -0.0702708 -0.0754057 -0.0809163 0.000771592 -0.102526 -0.135336 -0.069861 0.0555631 -0.0887339
25 0.0885711 -0.0747286 0.110386 0.151183 -0.0650432 -0.0551064 -0.140764 0.101937 -0.0391622 0.155216 -0.132082 0.0393905 -0.0424985 0.120551 -0.0352896 0.0222771 0.058292 -0.145372 0.0751393 0.212527 -0.0285879 0.0662412 -0.159941 -0.138135 0.091899 0.0888995 -0.0738191 0.181859 -0.107103 0.133836 0.070882 0.0524914 -0.066249 0.0159412 0.18259 -4.20617e-05 0.0751274 -0.139412 -0.0882311 0.109243 0.0290295 0.0266002 -0.0424487 -0.0238727 0.0307141 -0.00989534 -0.0195817 -0.0748285 0.0178865 -0.00806895 -0.0394122 -0.0334012 0.087781 0.0294511 0.00912367 0.00225259 -0.139 0.0938521 -0.0101183 -0.0210198 -0.0666029 -0.145648 0.0144669 0.0521202 -0.139157 0.00790233 0.0135476 -0.0364758 -0.012846 -0.0232223 0.0872589 0.015716 0.0200203 6.62576e-05 0.0504804 -0.13803 -0.132252 -0.0979365 -0.05163 0.138393 0.124694 0.00270809 -0.0473375 -0.0473348 -0.105941 -0.00316097 0.0302861 -0.00420874 0.0711991 0.16161 0.140462 -0.0934967 -0.0502045 0.0311901 0.0955361 -0.185885 -0.0633975 0.0237636 0.0725334 -0.067104 -0.0102592 -0.0913979 -0.197491 0.0929972 0.135324 0.0535236 -0.0722961 0.0485808 0.11505 0.10229 0.100242 0.0544126 -0.0214493 -0.083112 0.117009 -0.0106652 -0.0468849 -0.0880489 0.0471331 -0.068728 -0.0402629 -0.0425277 -0.0705566 -0.00679618 -0.0955765 0.0463905 0.161033 -0.110901
26 0.0457732 0.0341516 -0.0941263 0.0852578 0.184624 -0.0444537 0.0105588 -0.0713136 0.24284 0.163613 -0.00732253 0.00559757 0.00105176 -0.163021 0.0695219 -0.109038 0.129089 -0.107867 -0.107318 0.0800959 0.0510379 -0.114428 -0.0274421 -0.0207006 -0.0547659 -0.0800243 0.0569882 0.0810221 0.111614 -0.0353016 -0.00203873 -0.0684281 0.0594592 -0.0240459 0.0200935 0.01275 0.0269073 -0.0699087 0.0494168 0.103485 0.0251809 -0.158005 0.0814504 0.113463 -0.128698 0.0053245 0.0123408 0.0785989 0.184963 -0.0241426 -0.0389679 0.0849873 -0.116334 0.146623 0.141011 0.0662347 0.0561019 -0.0928151 0.00953185 -0.0881096 -0.0329574 -0.0840138 -0.0157512 -0.0379266 -0.204134 -0.0533741 0.0188218 -0.0691672 -0.0580153 0.000516408 -0.0769094 0.16616 -0.0267256 0.0867442 -0.0700197 -0.0975608 0.0512492 0.0497084 -0.131815 0.0847665 -0.073318 -0.0297543 -0.000837181 -0.163247 -0.0240357 -0.101566 -0.0989099 0.00930201 -0.0281314 0.0809473 -0.151025 -0.0536715 -0.0952008 0.00800067 0.0524669 -0.070484 0.0400076 0.0768466 -0.0669714 -0.0991426 0.064261 0.134521 -0.0575922 -0.0710481 0.0253349 0.138961 -0.0345053 -0.0118437 0.0701172 0.0241544 0.213518 -0.0882871 0.0416005 -0.0654158 0.0745034 -0.0260005 -0.115722 0.00927902 -0.00769501 -0.197465 -0.0654437 -0.0415812 0.00712534 0.0404827 -0.0812997 -0.156708 0.0718208 0.0442581
27 0.237555 0.0186854 -0.0011508 0.0601795 0.102301 0.0919626 0.107745 0.0539822 0.102931 0.0375215 0.032869 0.195033 0.0379054 -0.0556204 0.0883323 0.0291043 0.172832 -0.0976754 0.17072 0.126985 -0.0891491 -0.00939132 -0.00833117 -0.079099 -0.044716 0.03786 0.036266 0.0864872 0.0985119 -0.0244444 0.01879 0.0172492 -0.108528 0.0190366 0.0728231 0.00561189 0.0573753 0.0486148 -0.135893 0.220087 0.0768706 -0.0107652 0.11384 0.020857 0.0494628 -0.0361772 -0.0106556 -0.0105336 0.155098 -0.135011 -0.165704 0.0223242 -0.0860339 0.0565545 0.0881617 0.127485 0.0765296 0.0153408 0.035225 -0.149643 -0.0322547 -0.0986697 0.0502921 0.0632213 0.0520445 -0.0202651 0.0924563 -0.105165 0.0371027 -0.034167 0.00826355 0.137883 -0.0521188 0.0643515 -0.00455943 0.092408 0.147053 -0.0629543 -0.151635 0.123943 -0.129052 -0.133948 -0.0716622 -0.0809129 -0.035191 -0.00377108 0.00738198 0.0652462 -0.11481 0.0648957 0.0570342 -0.0957707 -0.022769 0.110522 0.0656664 -0.0296175 0.0523329 0.0825443 -0.0351233 -0.0429146 0.0922326 0.0924131 -0.0473547 -0.0345295 -0.0275835 0.123625 0.0298164 0.0141951 0.104812 0.0151552 0.110227 0.0130618 -0.0468448 -0.0606565 0.180567 -0.0466991 -0.0852885 -0.183041 0.13993 0.103641 0.0724087 -0.00834535 0.0982255 0.0745244 -0.122099 0.0831416 0.0558801 0.00221008
28 0.238703 -0.102789 -0.0362338 0.166039 0.126353 -0.143396 -0.01797 0.0506218 -0.0367608 0.086051 -0.0291056 0.0519275 -0.0895247 0.138729 0.0218995 -0.0553654 0.0693402 -0.0375425 0.0714001 -0.039282 -0.0174066 -0.0652361 0.0597061 0.074334 0.0451306 0.165703 -0.0505934 0.110764 0.153979 -0.102256 -0.0784553 0.0355482 0.0780385 3.42351e-05 -0.012284 -0.153552 0.0722062 -0.0307537 -0.068202 0.153815 0.0616374 -0.00259163 0.0933893 0.174186 -0.122925 -0.0791186 -0.090038 -0.0785237 0.100557 -0.0504699 -0.0182557 -0.026593 -0.160878 -0.0686456 0.0857902 0.0659863 0.0549042 -0.0137985 0.0128944 -0.0991558 -0.0334887 -0.142001 0.226998 0.0508803 -0.0584971 0.0903115 -0.121965 0.0384342 0.00394317 0.0624334 -0.0898782 0.0199087 -0.0423531 -0.024175 0.0117259 0.0246048 -0.0508653 -0.0791637 -0.117558 0.0924529 -0.0392777 -0.00889675 -0.0288051 -0.0549195 0.0678115 0.0969568 0.0389628 0.0159079 -0.0196302 -0.0312502 -0.0673235 -0.115657 -0.132891 0.0815434 0.10809 -0.0996489 -0.0100071 -0.0227472 0.0827506 -0.0521091 0.0963304 0.00184643 -0.0119068 0.07561 -0.0600935 0.187126 -0.0950431 0.0925948 0.165373 0.051228 0.168237 0.0568939 0.0524223 -0.168951 0.057952 -0.0897702 -0.0598002 -0.0255922 -0.123691 -0.0650644 0.0034128 0.0626378 -0.114599 0.0452065 -0.0563004 0.0217796 0.147094 0.078728
29 0.088793 -0.110079 0.148091 0.136829 -0.0402437 -0.0445393 0.0192587 0.133726 -0.0121251 0.144345 0.0462806 0.0107932 -0.0636917 0.011348 0.0896581 0.0146892 0.233285 -0.185081 0.0395262 0.157038 -0.132981 -0.064086 -0.0204377 0.0757633 0.0670871 -0.150586 0.0903424 0.200511 -0.0378098 0.159065 -0.105478 0.0645908 -0.0188552 -0.0800878 -0.00351806 -0.0529637 -0.0180981 -0.174 0.0367598 -0.0042721 0.117071 -0.0888376 0.0361378 0.0686576 -0.142563 0.0202718 0.0977599 -0.131249 0.116372 -0.0924219 -0.0266924 -0.0572207 -0.0140468 0.000580684 0.030698 -0.0570336 0.0371064 0.155214 0.0719174 -0.0168915 -0.0914913 0.0289275 0.0200204 -0.0161305 -0.0922278 0.0351868 0.143372 -0.118857 -0.0145512 0.130137 0.13573 0.0638543 0.0338193 0.0606152 -0.17187 0.0733846 0.00571423 0.0694227 -0.100816 0.0139441 -0.0765881 0.0256572 0.0789341 -0.0637229 0.0491411 -0.0267181 -0.0479242 0.127438 0.00685536 -0.00871207 -0.0183684 -0.0119347 -0.0509782 0.0729647 -0.0298028 -0.122206 -0.0406863 0.0223022 0.0489121 -0.0720187 0.0154612 0.0538259 -0.164735 0.0452041 0.00606363 -0.127082 0.0265793 -0.0833844 0.21975 0.0625171 0.0308258 0.0486845 0.0987983 -0.079604 -0.040817 -0.10249 -0.0163197 -0.00981856 -0.00607972 0.0411591 0.0805631 -0.0905258 -0.0728274 -0.0404934 -0.147859 0.0561735 0.0206065 -0.180914
30 0.0612835 -0.0570865 0.0231286 0.166973 0.0330919 -0.033291 0.0618107 0.061385 0.137173 -0.0575562 -0.032728 0.202108 0.0169865 -0.0920305 0.077263 0.0278972 0.143811 -0.0218399 -0.0480637 0.125021 0.0984593 0.0381696 0.0125541 0.160043 -0.0338872 0.00665255 0.135565 0.23106 0.0855657 -0.0243047 0.0653359 0.0483756 -0.120085 0.168442 -0.058791 -0.115533 -0.00701889 -0.0984925 -0.0502949 0.109293 0.0870556 -0.133351 0.138722 0.0204024 -0.0217289 0.0299777 0.213546 -0.158263 0.0423797 0.0199396 -0.0773735 0.00592901 -0.0912042 -0.0545593 0.158359 0.152213 -0.107857 0.00371819 -0.0609105 -0.0923272 -0.0388632 -0.0129197 -0.0256988 -0.0625414 -0.111745 -0.0358299 -0.0199643 0.0599559 0.00873681 0.0455756 -0.0336368 -0.0357569 0.00903585 -0.0850462 -0.147498 -0.121792 0.00611991 -0.0198317 -0.178861 0.179074 -0.0398551 -0.022409 0.0136687 -0.00252599 -0.00522289 0.00223022 -0.00193656 0.0366059 0.0215342 -0.0557786 0.00125661 -0.0640884 0.0306164 -0.0297905 0.0760758 -0.0671806 0.0199629 -0.109632 -0.095315 -0.0895033 0.0514317 -0.0507051 -0.0521758 0.231139 0.0625137 -0.0303944 -0.150423 0.154817 0.035599 -0.0332971 0.125167 -0.0118846 -0.00266467 -0.0393849 0.0943568 0.0389447 0.00569433 -0.089373 -0.0629429 0.135955 -0.0812388 -0.111662 -0.0365743 -0.126569 0.0163647 -0.0958156 -0.0685648 -0.0726341
31 0.0797045 -0.136502 0.0824048 0.045145 0.21741 0.109159 -0.0837347 0.0504115 0.175099 0.158355 0.00596067 0.0756603 -0.051671 0.0337583 0.0685898 0.146446 0.027397 0.079167 0.0655791 0.223974 -0.12696 -0.18458 -0.0958399 -0.0310391 0.135041 0.00234125 -0.0744782 0.263821 0.0627442 -0.152442 -0.0175631 -0.0363789 -0.032182 0.0506342 -0.00854115 -0.0593466 0.0276048 0.0294889 0.0975187 0.0159796 0.0684711 -0.149921 0.0960184 0.058771 -0.15632 0.0409417 -0.0384697 0.0728008 0.0713691 0.136868 -0.10669 -0.124393 -0.0821665 0.0170481 0.0854668 0.0296231 -0.00704416 -0.0130345 -0.159344 0.110033 -0.0659982 -0.123995 0.100283 -0.0732052 -0.0342448 -0.0387949 -0.0370875 -0.133717 -0.00452927 0.0674767 -0.0692461 0.0337535 0.0093083 -0.0434431 -0.00836558 -0.0351731 0.108669 -0.0652106 -0.0112988 0.0114346 0.0997719 0.0509529 -0.0185156 -0.0714242 0.0409779 0.00896243 -0.0301149 0.110581 0.0561343 0.0169378 -0.136596 -0.00113597 -0.0284685 0.0600288 -0.0181578 -0.0838545 0.0861157 0.037508 0.0184275 -0.207733 -0.0424522 -0.101106 0.0442388 0.0237805 -0.0924347 -0.00837458 -0.0281033 0.0261381 -0.0184968 0.102192 0.104608 0.0183177 -0.0281381 -0.0727855 0.151533 0.00394216 -0.0290956 -0.0552549 -0.0409699 0.0444143 -0.0289796 0.0763606 -0.00426111 0.0233448 -0.24068 -0.0462734 0.0870389 -0.0506955
32 0.145598 -0.131797 0.125545 0.104554 0.0992909 -0.0403891 -0.0522087 -0.0362572 0.0137008 0.0104537 -0.00169238 -0.0790884 0.0279451 0.0891747 0.0113164 0.00309839 0.204729 -0.0334716 0.13773 0.0620575 -0.0648069 -0.0173112 -0.0681061 -0.101943 -0.014247 0.0283265 -0.0166348 0.119049 -0.138555 0.0497234 0.0853897 0.099003 0.0309499 0.129358 -0.109488 -0.0130698 0.0232569 0.0372075 -0.0283236 0.152518 0.143652 -0.10277 0.0786724 0.0858084 -0.0589843 -0.0141087 -0.105079 -0.0129127 -0.0933235 0.018136 -0.101517 -0.110533 -0.0529544 0.107898 0.0226615 0.114477 -0.0820366 0.099519 0.162554 -0.035685 -0.0931362 -0.159242 0.0184872 0.0215745 -0.136818 0.0356217 -0.00502034 -0.0318992 -0.0705153 -0.106454 0.0465763 0.0289841 0.0664469 -0.0462915 -0.0380328 -0.17587 0.0590371 -0.0294085 -0.00638649 -0.0457789 0.0871297 0.0520747 0.0493685 -0.059665 0.154755 -0.0912784 0.0597438 0.0516385 -0.0558488 0.0709246 0.0311216 -0.116818 -0.0309898 0.130083 0.142303 -0.185391 -0.0370338 -0.107173 0.0250429 -0.136283 0.00699789 0.0381052 -0.22443 0.0826491 0.0419308 -0.0275941 -0.0622492 0.0953867 0.0726512 -0.000408062 0.0773963 0.244236 0.0705154 -0.0777376 0.107539 0.124333 -0.0495321 -0.078723 -0.034527 -0.0514637 0.000289491 -0.0482536 -0.0386183 0.0750031 -0.135914 -0.0761195 0.0385282 0.105633
33 0.161718 -0.0394927 0.140181 0.168642 0.125522 0.00771509 -0.00636396 0.0335616 0.0333526 -0.0655552 -0.157249 0.0776143 0.0802494 0.0137882 0.0537131 -0.0609177 0.080749 -0.0140417 -0.0142647 0.116147 0.0322623 -0.0242046 0.0652352 -0.049708 -0.00679118 0.045482 0.0930493 0.146734 -0.133102 0.0297518 -0.0849175 -0.00898169 -0.0574363 0.0255606 -0.00643716 -0.0629357 -0.0250317 -0.0592618 -0.0864195 0.0282721 0.0992914 0.00414767 0.103392 0.166375 -0.0758046 0.0458296 -0.0833575 0.0158358 -0.00061078 0.0589785 -0.0136118 -0.00874855 -0.00885309 -0.0371197 0.162577 0.0934566 0.119524 0.111024 0.0253036 -0.0907488 -0.0779208 -0.276927 0.0452636 -0.0328887 -0.0712612 -0.107652 0.144988 -0.0438848 -0.0778605 -0.0384708 0.0222391 -0.124088 0.0214348 0.020598 -0.0609532 -0.0436904 -0.0156168 -0.027577 -0.0611769 -0.00495838 -0.0402219 -0.0242916 -0.0482464 -0.144065 0.10573 0.00761079 -0.0796745 0.000272173 0.047102 0.0892431 0.126545 -0.128401 -0.0613464 0.119321 0.127212 -0.197247 -0.0293784 0.00408406 0.0590236 0.00123844 0.0138513 -0.122238 -0.182941 0.14028 0.0818157 -0.0403794 -0.0194402 0.184834 0.0290666 0.108617 0.0691991 0.0815256 0.0806652 -0.0271595 0.141657 0.161005 0.0494049 -0.0427887 0.0830653 -0.10257 -0.0170152 0.124775 0.024255 0.131298 -0.207299 -0.0260433 0.0194093 0.0163415
34 0.138429 -0.0813202 -0.0557675 0.0388001 0.0488144 0.0432692 -0.0975086 -0.0110248 0.0856908 0.0481032 -0.0160582 -0.019453 -0.210669 -0.0373967 0.0636107 0.156563 -0.00325887 -0.0461119 -0.00094456 -0.0463389 0.138857 -0.0614155 0.127296 -0.0873013 0.0127844 0.000124913 -0.0197008 0.112786 0.0311724 -0.00382064 0.0231274 0.0198909 0.0428303 0.139277 -0.00993268 0.0357049 0.172284 -0.209421 -0.0674089 -0.0466491 0.045256 -0.137422 0.124897 0.035325 -0.100766 0.105608 0.0529897 -0.00422933 0.069951 -0.0774341 0.0511113 -0.153162 0.0306875 -0.132663 0.0503369 0.016476 0.0755173 0.0991328 0.00825636 0.0473598 -0.0591738 0.0234709 0.169557 -0.0206287 -0.100753 -0.0768789 0.00824502 -0.066768 -0.189979 0.0663943 -0.119859 0.0499292 0.0497868 0.0480851 -0.0710168 -0.110737 0.203548 -0.107502 0.036272 0.0276752 0.0165017 0.0415376 -0.0699515 -0.023365 -0.0126014 -0.00121744 -0.0723205 0.0574804 -0.0286966 -0.00914986 0.0140067 -0.0338365 -0.0816982 -0.00725638 0.059155 -0.0553508 0.0110579 -0.0158601 -0.0752334 -0.05547 0.0308377 -0.0244563 -0.0670913 0.0356554 -0.0380736 0.115472 0.0792968 -0.0660016 0.219203 0.271584 0.175104 0.0293982 0.0177686 -0.133955 0.0417816 0.000936982 0.0433555 0.0346703 -0.00914333 0.0688066 -0.190615 0.0315424 0.0629401 0.0563796 -0.196664 -0.133935 0.138811 0.0187471
35 -0.017093 -0.0859354 0.109111 0.0719474 0.200691 0.131555 -0.102372 0.117939 0.00275814 0.0543691 -0.119271 0.069967 -0.094201 -0.0309876 0.0118075 -0.0829338 0.159686 0.0310208 0.0808343 0.132859 -0.142992 -0.0942447 -0.142615 0.0869139 0.0204764 0.0772393 -0.0334131 0.214492 0.0675352 -0.094276 -0.0811346 -0.103859 -0.0500752 -0.00182821 -0.0134651 -0.108916 0.0712874 -0.0877085 0.147309 0.00822439 0.0312588 -0.00263413 0.0748231 0.036637 -0.163355 0.0295314 -0.0303144 0.0281454 0.00574429 0.0594652 -0.0442782 -0.0477294 0.0819955 -0.00357257 0.142795 0.0759321 0.00273638 0.000394125 -0.194559 0.0165862 -0.0122408 -0.0987884 0.00966658 -0.00544511 -0.0129848 0.0359583 -0.0140361 -0.0819374 0.00244708 0.0738202 -0.0253197 -0.0769828 0.0900717 0.0388955 0.0289381 0.10129 0.0799976 -0.113269 0.0426025 0.122261 0.149489 -0.0101548 0.0973796 -0.0639544 0.0818122 0.0851697 0.108059 0.146372 0.0615726 0.0301897 -0.145342 -0.164401 0.00898326 0.0291679 0.0367216 -0.146513 0.0623482 0.110321 -0.0126914 -0.110312 -0.128574 0.0153928 -0.0469606 0.0590803 -0.0994814 -0.0743359 0.0361241 -0.0438399 -0.0669668 0.127891 0.14864 -0.016543 0.0942663 -0.0864725 0.186834 -0.0883943 -0.141565 -0.0489376 -0.0517643 0.0346123 0.0107363 -0.049973 0.00835835 -0.0795877 -0.18501 0.0620497 0.0621998 0.0335362
36 0.175481 0.0198245 0.115373 0.0818297 0.0945318 -0.0417865 0.0468628 0.123936 0.0329562 0.0515485 0.0447854 -0.0690766 -0.040952 0.00444835 0.0285787 0.150231 0.206143 -0.168871 0.174386 0.0786582 -0.0353305 -0.0121561 1.12234e-05 0.0330512 -0.00873651 -0.113635 0.117159 0.214798 -0.060586 0.144865 -0.0221967 0.00318825 0.0401708 0.0158766 0.123172 0.0034701 0.0846998 -0.175107 -0.000712077 -0.0269195 0.0871792 -0.0973543 0.0495565 -0.126518 -0.00822316 0.0139136 0.0393462 -0.121335 0.130574 -0.156265 -0.055541 0.00959231 -0.0352957 0.049576 0.032646 -0.0473477 0.0153793 0.0154779 0.139257 0.0352448 -0.0664778 -0.00899902 0.0608489 0.00619618 -0.0666517 0.0382026 0.0337308 -0.145572 0.0895828 0.0371724 0.182204 0.108486 0.00756949 0.0516103 -0.0728875 0.0523584 -0.0494357 -0.0662373 -0.230335 -0.0982191 -0.0426697 -0.0948401 0.0415374 -0.117828 -0.0869989 0.0736483 -0.113557 0.00506025 -0.092133 0.0815081 -0.0436006 -0.063207 0.0148601 0.0880564 -0.0183075 -0.17435 -0.092664 -0.00365136 0.0103318 -0.0271453 0.0315584 0.0676046 0.0149291 0.0891151 -0.0176705 -0.114201 -0.0163267 0.0635884 0.118283 0.101497 0.108502 0.0753919 0.0458654 -0.138429 -0.0922446 -0.0377617 -0.00869195 0.0903187 -0.153674 0.0544649 0.0148098 -0.020192 -0.0857318 0.150011 -0.172615 -0.0624537 0.0157727 -0.01203
37 0.11029 -0.0611719 0.0154789 0.0198032 -0.0237048 -0.00749818 -0.0702344 0.0320483 0.0648519 0.0722186 0.0348938 -0.0320247 -0.0818097 0.0153572 0.108368 -0.0101261 0.254345 0.0414207 0.0260896 0.159779 -0.000869709 -0.183694 -0.0144629 -0.0593321 -0.00436052 0.0259787 0.0633479 0.246762 -0.0418879 0.104744 -0.0417728 0.0809402 -0.0516618 -0.00058219 -0.00941931 -0.0109086 0.120185 -0.193537 -0.0483761 0.126589 0.025931 -0.0436657 -0.108314 0.220715 -0.120979 -0.0496121 0.0798836 -0.00304131 0.0247536 0.0360065 0.0023891 0.00368839 -0.148239 -0.00905602 -0.0103632 0.025964 0.07018 0.00587666 -0.0121163 0.00778585 -0.0465681 -0.00106151 0.158045 -0.028228 -0.113492 0.085534 -0.11615 -0.083477 -0.061747 -0.110633 0.00776474 -0.039204 -0.091189 -0.0502818 0.038666 -0.191594 -0.00393033 0.0403411 0.0106045 0.0116827 -0.0309636 0.052952 -0.0498887 0.0377748 0.00474979 0.106788 -0.0748481 0.0984143 0.0657976 -0.00382418 -0.170784 -0.103068 -0.143983 -0.0206859 0.0763888 0.0238608 0.0670551 0.0994338 -0.000759453 -0.102406 0.100092 -0.00531589 -0.189929 0.0174805 -0.0281913 0.155059 0.0167597 0.142223 0.0930507 0.00177101 0.188722 0.0572778 0.169421 -0.00735722 0.0550514 0.136208 -0.165086 -0.006252 -0.000184281 0.0778061 0.10222 -0.00164286 -0.0200279 -0.0869443 0.110999 -0.118236 0.0573189 -0.0312775
38 0.0242716 -0.0965686 0.10167 0.121148 0.106435 0.0438018 -0.151741 0.0215617 0.120397 0.153219 -0.0064884 0.0301498 -0.134094 -0.0791221 0.138369 0.146916 -0.020237 0.0390483 0.0470953 0.0552901 -0.0335588 -0.234056 -0.00021009 0.00892657 -0.00118857 -0.046947 -0.0152729 0.221442 0.0363661 0.00859542 0.0638182 0.053728 0.0586993 0.104374 -0.0189858 0.0375215 0.110203 -0.131675 -0.109743 -0.0107098 0.0967261 -0.0675602 0.0308907 0.0175433 -0.108241 0.0985297 -0.00309139 -0.00700269 0.10375 -0.0312804 -0.125875 -0.177934 -0.0284846 -0.130835 0.0994305 0.0201395 0.0654032 0.0458969 -0.0220935 0.104955 -0.0109404 -0.0178299 0.150172 -0.0579554 -0.0898964 -0.0850531 -0.0373524 -0.105011 -0.100673 0.0274189 -0.0913516 0.0562024 -0.019018 -0.0558266 -0.094203 -0.164614 0.164736 -0.073408 -0.0567322 0.106042 0.0755087 0.0427361 -0.104747 -0.0835245 -0.0244035 -0.0219279 -0.0144735 0.0979897 -0.0178992 -0.0350917 -0.07969 0.111429 0.058177 0.0374886 0.0968081 -0.00852829 0.116137 -0.04524 -0.0302091 -0.124605 -0.0881949 -0.0137889 -0.0262261 -0.0229787 -0.0627641 0.0332261 -0.0425428 -0.0868826 0.138154 0.177021 0.125771 -0.0196975 0.106841 -0.0651212 0.119189 0.0909285 0.00209246 -0.00245848 -0.0343218 0.0470227 -0.0624586 0.00309208 -0.032414 0.0365599 -0.228737 -0.102516 0.175277 0.0651032
39 0.0777093 -0.0963874 0.0840052 0.27283 0.0145962 0.0268473 0.0416935 0.0936398 0.0050354 -0.0513017 -0.0499033 0.0504914 -0.0090934 0.0939548 0.158689 -0.059068 0.166697 0.00155158 0.066143 0.115973 0.0360855 -0.132288 -0.117814 -0.0427935 -0.0196867 0.10372 0.0645326 0.0770378 -0.0257362 0.113327 0.0962995 0.100225 0.0232927 -0.0144702 0.135592 0.00352857 -0.0323541 0.0240055 0.0351695 0.055263 0.204503 -0.0741653 0.067286 0.152484 0.0386538 0.0342495 -0.0350237 -0.0108809 -0.0381737 0.0272583 -0.0248074 0.0087926 0.0428007 0.0681677 0.0724131 0.0427644 -0.0702514 0.0344546 0.0727757 0.0125511 -0.101962 -0.15724 0.128542 -0.0234051 -0.132334 0.00152709 0.0710007 -0.036725 -0.00532896 -0.118236 0.0439852 0.0421776 -0.016548 -0.0301856 0.0519918 -0.191429 -0.064965 -0.0928536 -0.0609789 0.0994401 0.0478339 0.0852151 0.0640052 -0.119717 0.103105 0.103302 0.0162482 0.148774 0.0157895 0.169885 0.00236312 -0.0259529 -0.106285 0.0917303 0.201031 -0.270557 -0.0241735 -0.069708 -0.046171 -0.144569 0.0218771 -0.0763809 -0.106555 0.0298964 0.0400963 0.0248509 0.0409046 0.074796 0.112611 0.106533 0.0647516 0.101302 0.0554432 -0.0721517 0.115741 0.080614 -0.0623956 -0.0615818 0.0730315 -0.0581144 -0.0608141 0.063092 0.031573 0.100582 -0.0979706 -0.121356 0.0341713 0.0245147
40 0.0899083 -0.00640246 -0.0139813 0.0806102 0.184996 0.0640687 0.0609125 0.0237343 0.00374486 0.00143807 -0.0848989 0.15246 -0.0479185 0.0487015 0.0963785 0.0509437 0.338326 -0.0456185 0.125776 0.181882 -0.0226859 -0.0632421 -0.152002 -0.182809 -0.0792378 -0.0291127 -0.0792548 0.17308 0.0246229 0.0871148 -0.0507815 0.0364485 -0.0897555 0.139545 0.019672 -0.125311 -0.025303 -0.0267864 -0.149146 0.111712 0.136504 -0.122154 0.113804 0.0130787 -0.0231596 -0.0420269 -0.00572837 0.0468288 0.0358046 -0.132895 -0.117652 -0.153738 0.0364515 -0.026998 0.0337454 0.180551 -0.0717568 -0.00846565 0.112026 -0.130941 0.0360648 -0.0481111 -0.0289235 0.0481484 -0.170758 0.00426944 0.0618593 0.0321237 -0.0529724 -0.03638 0.0122281 0.159903 0.0605288 -0.026645 -0.036916 -0.023146 0.0414526 0.0148342 0.0311333 0.10624 -0.0105612 0.0162628 0.0547698 -0.077934 0.0533649 -0.0242936 0.0951158 0.0408689 0.107007 0.0256806 -0.00045536 -0.0613259 -0.0682224 0.112385 0.0841266 -0.17696 0.00438793 -0.0169744 0.0618147 0.0724269 -0.115382 0.0442704 -0.0332952 -0.00756907 -0.0373357 0.0341136 -0.00506501 0.155289 0.177512 0.135195 0.0290351 -0.00199828 0.0481758 0.0220816 0.0896639 0.165139 -0.0159629 -0.0894117 0.0778797 -0.0608615 -0.0408624 0.0175103 0.0454609 0.0135956 -0.0501589 -0.0523166 0.0135794 0.0187035
41 0.0536098 -0.0482195 -0.0559581 0.0754885 -0.040689 0.0239365 0.0166315 0.0287004 -0.109829 0.0997322 0.0287566 -0.0369065 -0.0345968 0.00837268 -0.0570155 -0.0368189 0.15178 0.0350046 0.0824447 -0.0224922 -0.0193236 -0.0853241 -0.034476 0.0535202 -0.0884537 0.0948027 0.0453204 0.194673 -0.014673 -0.018251 0.104264 -0.124389 0.104449 0.0794419 0.10185 -0.0248376 -0.148854 -0.163058 0.0771151 0.154286 -0.0127947 -0.0553449 -0.0370836 0.0845983 -0.196915 -0.0547519 -0.0967765 0.0449867 -0.0346961 0.0987605 -0.0159917 -0.0603152 0.0475393 0.0375054 0.033813 0.205358 -0.070371 -0.0350547 0.0913433 -0.0459281 -0.100449 -0.0930061 0.178558 0.0993179 -0.138847 0.0887311 -0.0617203 0.013972 -0.0228497 0.0989209 0.0174594 0.174628 0.0913113 0.00839872 -0.110989 0.0126614 0.0983117 0.0157741 -0.0778895 -0.0239695 -0.000352565 0.0558407 0.0186865 -0.0170432 -0.0043244 -0.0389497 -0.136688 0.0187667 0.0730205 -0.00799949 -0.0732161 0.0805673 0.00274525 0.00710103 0.121964 -0.125958 0.0578173 0.140136 -0.0396886 -0.0751863 -0.00449198 0.0076088 -0.122371 0.0675633 -0.112505 0.0253844 0.123551 0.13914 0.198299 0.0162618 0.198869 0.0804004 0.00395414 -0.00274362 0.0142832 0.0567185 -0.17745 -0.037955 0.000864181 0.0691552 -0.0371507 -0.130513 -0.143049 0.0284171 -0.255366 0.0233711 0.0537887 -0.0115566
42 0.189245 0.00176634 0.015138 0.0669142 0.0947675 0.0316086 -0.118554 0.0183418 0.0914779 0.174571 0.0507706 -0.0311865 -0.176727 -0.0248699 -0.105409 -0.0329192 0.160676 -0.0587024 -0.00558801 0.029785 -0.0453151 -0.106449 -0.0316839 0.0562271 0.0651336 0.0187106 0.0482286 0.100982 -0.0172038 0.0569086 0.126209 -0.0604952 -0.0397278 0.0319743 0.115979 0.0674037 -0.0470445 -0.2449 0.0603408 0.019626 0.131408 0.00344021 0.0356596 0.0342877 -0.183064 0.0644659 0.0531508 -0.0636778 0.0812435 -0.0842298 0.00229684 -0.0861005 0.0690284 -0.062512 0.00994308 0.100425 0.106676 -0.0121037 0.0463095 0.0191747 -0.145776 -0.0929462 0.0105651 0.0869582 -0.0770492 -0.00824614 0.13208 -0.100949 -0.0676591 0.0615643 -0.0185261 -0.0636623 0.0274282 0.00175435 0.0606429 -0.157853 0.105253 -0.0164904 -0.0349445 0.00458516 -0.0869201 -0.00324338 -0.0100732 -0.00758767 -0.0115459 0.0585418 -0.131631 0.0349875 -0.00974928 0.0426226 -0.153391 -0.151889 -0.0695598 -0.0928261 0.0548638 -0.15103 -0.059771 0.0195369 -0.0162358 0.0815026 0.132538 0.0359898 -0.0678556 0.0509002 -0.132154 0.1488 -0.0671004 0.154245 0.165773 0.136099 0.135613 0.00239587 0.0858089 0.0525152 0.0797892 0.0311114 -0.177013 0.0291223 0.0198695 0.0206712 -0.0501172 -0.03182 -0.0704529 -0.0497937 -0.188053 -0.128777 0.0406106 -0.166819
43 0.179493 -0.0889575 0.0540368 0.171812 -0.0268064 0.0341223 0.0914089 -0.0246763 0.0887118 -0.00235635 0.0188751 -0.00555668 -0.0715278 -0.0125172 -0.010114 0.197247 0.0394624 0.122951 -0.0389499 0.0438357 0.0405317 0.0226313 0.0225532 0.0110534 0.0484462 0.0570988 -0.0425243 0.150837 -0.00381406 0.0836208 0.0387277 -0.0839144 -0.05195 -0.0276578 0.0159747 -0.0606899 0.023179 0.0626541 -0.0467929 -0.063752 0.0866411 -0.100048 0.172604 0.118358 -0.105736 0.0979554 -0.0337012 0.0259062 0.177899 0.0163794 -0.152496 0.0430062 0.0556321 -0.0584702 0.0726453 -0.0631187 0.00426027 0.187312 0.0242715 -0.00245018 -0.0195652 -0.0706474 0.00198304 0.0812383 -0.112851 -0.136384 -0.0771709 -0.0115598 -0.165502 0.00953531 -0.115596 0.0165853 -0.00299183 0.0282892 0.00921943 -0.0837714 0.112144 -0.054074 -0.00530527 -0.0694931 -0.0428543 0.00599498 -0.0400498 0.00115006 -0.0627373 0.15821 -0.0709665 0.113982 -0.0487985 -0.0347228 0.0567987 -0.000350827 0.0787291 0.109868 -0.11374 -3.89496e-05 -0.00744214 0.0276508 0.0391049 -0.09712 0.0636169 -0.0594167 -0.177571 0.04209 0.0419618 0.175486 -0.036525 -0.0392112 0.254942 0.126363 0.111088 -0.00377618 0.0377101 -0.238175 0.0207719 0.0433973 -0.0612447 -0.00594948 -0.0137738 0.0308451 0.0362589 0.065815 0.128682 0.0615804 -0.248354 -0.0928124 0.141565 0.120398
44 0.192871 -0.102076 -0.0264129 -0.0437853 0.026538 0.0467866 -0.0266016 0.0908206 0.0852132 0.0686328 -0.025963 -0.131604 -0.00210873 0.164639 0.122552 -0.0148399 0.0750309 -0.126989 -0.00929815 0.0574973 -0.00739371 -0.0909168 0.0192232 -0.0165652 0.00208513 -0.050166 0.0195632 0.195232 0.135948 0.181184 0.013103 -0.163467 0.0273369 -0.0101443 0.127353 -0.0615721 0.095979 0.0311612 0.0544723 0.00924348 0.122482 -0.129274 -0.0445717 0.0263455 -0.0891861 -0.133186 -0.0974216 -0.0221606 0.121596 -0.0418478 0.0103174 -0.00601306 -0.014931 0.123905 0.0361172 0.0265837 -0.0331477 0.172405 -0.0366843 0.0849521 -0.165593 0.0867951 0.0223066 0.0244385 -0.00983882 -0.0480417 -0.0259754 0.0557603 -0.104936 -0.0261734 0.0870082 -0.064153 -0.112184 -0.0838991 -0.023847 0.0826061 -0.0331288 -0.0678578 -0.027941 -0.0736046 0.038363 0.133613 -0.130766 0.0686276 -0.133523 0.128201 -0.0124849 -0.136282 -0.0856984 0.0697173 0.0035311 -0.0321222 -0.0835509 0.147939 -0.0456496 -0.109571 -0.106875 0.124878 -0.0451591 0.0384027 0.0338515 0.102171 -0.182223 -0.0250757 0.038426 0.165769 0.0538431 -0.0197964 0.237421 0.0767462 -0.0538099 0.041207 -0.0448904 -0.135525 0.0589154 0.039394 -0.165481 -0.0518985 -0.0982282 -0.13006 -0.0431646 -0.0175322 0.0259537 0.0804624 -0.0566481 -0.0954886 0.0177978 -0.0228926
45 0.146187 -0.0898659 -0.0115535 0.0926218 0.0185746 0.0574618 0.0537932 -0.0335772 0.0237558 -0.0365208 -0.0298437 -0.0948739 0.0801972 0.0893442 0.0457818 0.0816672 0.161741 0.0264981 0.0968511 -0.0292773 0.00380054 -0.104889 0.046557 0.0290213 0.10628 0.0294955 -0.0565773 0.240199 0.0777052 0.204777 -0.0489236 -0.132591 -0.0322582 0.118073 -0.0279747 -0.137131 0.11074 -0.0909539 -0.00983957 0.0570376 -0.00753801 -0.156674 0.00551368 -0.021859 -0.0860956 -0.0129381 -0.0514438 -0.0754023 0.0234585 -0.0557483 -0.0762913 -0.0729444 -0.0304384 0.0162646 0.14182 -0.118925 0.0313806 0.0588336 0.050239 0.0745898 -0.0191822 0.0906483 0.0257021 -0.108462 -0.236562 -0.0518661 0.0180723 -0.0452025 -0.0536216 0.0158385 0.0409318 0.0479671 -0.0375232 -0.0471971 -0.00355487 -0.0196934 0.0140405 -0.0298601 -0.0313644 0.00971869 -0.014682 0.167889 0.0289088 0.0488997 -0.0176539 0.127083 -0.0993265 -0.0078642 -0.0344198 0.148457 -0.033373 0.00935921 0.0154398 0.1116 0.116205 0.0805786 0.00766035 -0.0458113 -0.0283757 0.00269361 0.0296039 -0.00928171 -0.1103 0.0912017 -0.0612825 0.130642 0.023317 -0.0832407 0.362017 0.248167 0.0231822 -0.00451151 0.0304229 -0.0343487 0.178741 0.0397482 -0.0660838 -0.0637591 -0.0352241 -0.104673 -0.115935 0.0659463 0.103352 0.0323147 -0.120611 0.0760684 0.0458382 -0.0146741
46 0.146421 -0.0286304 0.0471005 0.0929103 0.0803547 0.0300676 0.0813539 0.0761809 0.0620177 0.0372126 -0.074506 0.0408235 -0.140249 0.00152649 -0.0176257 0.0141486 0.135771 0.0220564 0.0994507 0.0853833 -0.02511 -0.0618144 -0.0249256 -0.0196116 0.0666006 -0.211279 0.0747605 0.00990159 0.00487755 0.00811027 0.0611889 0.0776737 -0.00564325 -0.0278453 0.0690539 0.162935 0.0737225 -0.117786 0.0293039 0.136606 0.0952923 -0.127667 -0.0790806 0.00498421 -0.00962414 -0.063521 0.01138 0.0787652 0.140689 -0.0284266 -0.0810794 0.0575365 -0.0564127 0.0494931 0.0176108 0.105322 0.288964 0.0224267 -0.0328817 0.0175822 0.137327 -0.0459489 0.10414 -0.0724259 -0.109326 -0.0311595 -0.0815459 -0.0322244 -0.0381445 -0.0439166 -0.0537108 0.129616 -0.00382768 0.0698293 -0.0151562 0.0296431 0.159939 0.0510201 -0.00120533 0.115771 -0.0321945 -0.116363 0.0567723 -0.0196565 0.0123158 -0.0961468 -0.0629342 0.0904362 -0.190023 -0.0216815 -0.0132005 -0.0512405 -0.0846935 -0.108927 0.168681 -0.0400188 0.00527532 -0.0745336 0.0306052 -0.108842 0.110131 0.099012 -0.0485236 -0.00702378 -0.084024 0.125367 0.0257126 -0.0835452 0.181496 0.115877 0.122932 -0.020512 -0.130568 -0.0851105 0.091409 0.0708123 -0.150336 -0.154128 -0.0930761 -0.124872 0.1107 0.030209 -0.108002 -0.0576191 -0.130246 -0.0945639 -0.00634086 -0.0915907
47 0.294236 0.10623 -0.0949796 0.146791 -0.0339096 0.1116 0.0111472 -0.124386 -0.0453499 -0.0248327 -8.79441e-05 -0.103253 -0.0463253 -0.0105188 -0.0918684 -0.00656074 0.0185156 -0.0725184 0.121715 0.100867 -0.0237393 -0.228868 -0.136411 -0.00654151 0.06763 -0.0314153 0.171051 0.197959 0.0240956 -0.023606 0.0575454 -0.0210702 -0.0406048 0.0368436 0.0812972 -0.0533602 -0.0855009 -0.0575327 0.0567187 0.034663 -0.10618 -0.135111 0.105273 -0.0614617 -0.0538276 0.0538172 -0.0234627 0.0684228 0.247568 0.0592981 -0.102939 0.070636 -0.0476992 0.100797 0.0913356 0.00196267 -0.0524527 0.0979067 -0.0568185 0.0135673 -0.0701083 -0.143534 0.149314 -0.0300373 -0.0946578 0.0378547 -0.0323861 -0.0161844 -0.137763 -0.0700326 0.0944946 0.142464 -0.00179744 0.0231128 -0.000957689 0.0589617 -0.0725098 -0.0208523 0.00517092 0.0662644 -0.178689 -0.136718 0.114955 -0.0501982 0.0502832 0.0650749 0.0226703 -0.111292 -0.0927781 0.0806689 0.0450881 -0.184444 -0.0984722 -0.105395 0.0139757 0.0392746 0.0273194 -0.0434032 0.0619711 -0.055582 0.0358935 -0.0220316 -0.041876 0.0942232 -0.0384752 0.0851425 -0.0576466 0.103008 0.158379 -0.00450623 0.047071 0.0718287 -0.11797 0.0576176 0.0789245 0.0506588 -0.0812565 0.0258681 -0.13129 -0.0706024 0.0036224 0.00568359 0.0100071 -0.0416679 0.0226095 -0.113142 0.0146877 -0.0441354
48 0.15885 0.100285 -0.114051 -0.0256208 0.0407149 0.0983148 -0.0958723 0.117443 0.0526169 -0.00192267 -0.0134521 0.0510896 0.110813 0.00906788 0.00548437 0.104187 0.110781 0.0164018 0.10105 0.128539 0.179195 -0.0118248 -0.00832832 -0.00909347 -0.0536795 0.0153382 -0.0789337 0.0298328 0.0224221 0.0307625 -0.0273124 0.0696433 0.163779 0.0635511 0.0476344 0.0197116 -0.024915 -0.236664 0.00456973 0.0154299 -0.0813636 -0.109942 -0.0471299 0.0221073 -0.051993 0.00947522 0.146804 0.0638131 0.0173175 0.0360833 -0.0702985 -0.07535 0.109346 -0.00977839 0.0483374 0.00788483 -0.0191713 0.160131 0.0258094 0.0509766 0.0065602 -0.0862712 0.0546792 0.0297358 -0.0165845 -0.0461876 0.0765447 -0.161096 -0.187921 0.11544 -0.019373 0.0211799 0.0315423 -0.0410487 -0.0764288 -0.0134555 0.0999753 -0.101991 -0.136905 0.119097 -0.00694089 -0.226879 -0.0238547 0.0301667 -0.0912523 0.0371512 -0.0298564 -0.0357156 -0.149086 0.116533 -0.18675 -0.0074274 -0.0635925 0.0114056 -0.0395383 -0.113195 -0.0569557 0.0564646 0.158451 0.000750816 -0.085847 -0.08431 -0.137053 0.124717 -0.0606155 0.0565298 -0.100618 -0.0639526 0.0628456 0.135389 0.242789 0.00614551 -0.0480184 -0.252053 0.0701519 -0.107436 -0.0703005 -0.0103728 -0.0389051 0.00303367 -0.00284276 0.00124376 -0.0353241 0.0556804 -0.076785 -0.016957 -0.0588374 -0.0772309
49 0.154615 0.0639058 -0.0255262 0.0586049 0.148501 -0.0417441 -0.0584773 0.0176123 0.170562 0.0768915 0.104527 0.023152 -0.074623 0.0949445 -0.0174366 0.11616 0.1089 0.0255087 0.0501793 0.0743182 0.0111782 -0.0174122 0.0798405 -0.0425665 -0.187095 -0.105171 -0.0278683 0.177041 0.00369859 -0.12781 0.0506514 0.189535 -0.0571115 -0.0405386 0.148595 0.0625621 -0.0659876 -0.131171 0.00667451 -0.0368525 -0.0743064 -0.0096912 -0.06719 0.093293 -0.0517809 -0.0805235 0.0669549 -0.0850683 0.136522 0.0438523 -0.191358 -0.0187137 0.116564 0.0243051 0.0126464 -0.0808388 0.110539 -0.0314972 0.0759847 -0.0484025 -0.0493352 -0.0576063 0.0376735 -0.0491966 -0.145058 0.108018 0.0728145 -0.0159879 -0.0949171 -0.00664803 -0.0911022 0.0381896 -0.00681608 0.1817 0.100231 -0.000869517 -0.0697388 0.0086278 -0.0149055 0.109857 0.0365586 -0.131099 0.0518774 0.0562119 0.0495922 0.124831 -0.0753534 0.0579433 -0.0673051 0.0389082 -0.00441013 0.026679 0.0166746 -0.0383706 0.071994 -0.173215 0.000901856 0.108507 0.0711105 -0.0550483 0.167443 -0.0666413 -0.107024 0.0588924 -0.0620781 0.113426 -0.0165706 0.0902077 0.202622 0.140496 0.177049 0.128901 0.0566189 0.0767098 0.0275774 -0.101051 -0.0545066 -0.0241126 0.0115759 -0.00588071 0.0263249 0.0303393 -0.129573 -0.0281061 -0.0961237 -0.0933289 0.160619 -0.00271107
50 0.0118985 -0.0467767 0.0824118 0.0872307 0.0619546 0.00193661 0.0262796 -0.0170042 0.0229231 0.0106071 -0.0078393 -0.0117634 -0.0156922 0.104056 -0.0158364 -0.00780759 0.17559 -0.102349 0.195496 -0.0388917 -0.0124065 -0.00480061 -0.0393381 -0.0783011 -0.0798743 0.07127 -0.0259667 0.0651026 -0.0482828 0.0896909 0.135349 0.149479 0.0634275 0.0603009 -0.00738068 -0.0514407 -0.0113774 -0.0531799 -0.122136 0.0772716 0.214983 -0.112756 0.041538 0.134162 -0.0123097 -0.0736313 -0.059568 0.00973175 -0.0448827 0.0884282 -0.0880271 -0.00363022 -0.0295421 0.101457 0.0897711 0.173892 -0.0658586 0.0933266 0.171303 -0.121046 -0.185657 -0.0840011 0.0115615 0.0789116 -0.119751 0.020944 0.00993175 -0.0512276 -0.0156556 -0.12433 0.0426057 0.10901 0.102284 0.0823751 -0.0237036 -0.168765 -0.0451101 -0.0210289 -0.00873758 0.0505076 0.03723 0.0368487 -0.0448409 0.00281072 0.0826212 -0.0564582 0.00892951 0.0535214 0.0742974 0.158053 0.137778 -0.0980976 -0.106256 0.14073 0.0718382 -0.0467222 -0.0139865 -0.0934296 0.0844022 0.000482517 -0.109302 -0.0459123 -0.196372 -0.0651834 -0.0428538 0.127251 0.0403676 0.132669 0.0985654 0.0952797 0.15047 0.19491 0.0445071 -0.0680999 0.0595014 0.0859553 0.0115498 -0.173696 0.0268427 -0.130405 -0.00916585 -0.0816654 0.118283 0.0520309 -0.12068 -0.0891537 0.0114554 0.0318813
51 0.0670709 -0.152957 -0.14278 0.119406 0.0954693 -0.0201683 -0.00609292 0.12676 0.0262349 -0.0502794 0.0246345 0.118266 -0.000150437 0.154538 -0.00885754 0.126437 0.151838 -0.0535746 -0.0493749 0.146671 0.020414 0.0436312 -0.0257606 -0.0464163 0.0500074 0.0289465 -0.127706 0.176589 0.0169164 0.00623822 -0.0308647 0.0447926 0.0308638 0.0680279 -0.00488567 0.0748664 0.212257 -0.0376726 -0.0414461 0.00857861 0.226745 0.0132672 -0.0475655 -0.0856236 0.0213937 -0.11013 -0.0716437 -0.00433118 0.0992175 0.00294777 -0.00627496 0.118936 0.134352 0.0618574 0.0812147 0.017108 0.00902473 -0.116942 0.0420621 0.0272994 -0.0973791 -0.221323 0.0639206 0.00300748 -0.0856909 -0.0852654 0.0409636 0.00934712 0.0792301 -0.134337 0.106999 -0.0245316 0.0852279 0.133274 -0.046785 -0.0204733 0.0841976 -0.00146605 -0.190312 0.0911052 0.0822126 -0.045954 0.102592 -0.129501 0.0401412 -0.0094448 -0.141631 -0.063005 -0.122327 -0.0948636 -0.120035 0.024675 0.0298813 -0.0712033 0.0316012 -0.0219378 -0.00207522 -0.0447516 -0.117914 -0.197198 0.0407802 -0.119906 -0.0257151 0.0269907 -0.0915508 -0.0164305 0.0204921 0.00552164 0.115283 0.0251987 0.162635 0.0265817 -0.0435754 -0.0349602 -0.0233886 -0.117352 -0.0844462 -0.0710725 0.125706 -0.118187 0.0510693 0.142654 0.0296114 0.0633293 -0.115796 -0.022612 -0.0570355 -0.0882103
52 0.117344 -0.0291667 0.0398822 0.202593 0.0687769 -0.00793898 -0.0757622 -0.0188698 -0.0268448 0.0356342 0.09108 -0.012482 -0.207341 0.175349 0.0583758 -0.071445 0.0985397 0.0757637 0.0185696 -0.0590158 0.0185691 -0.0242658 0.0291662 -0.0412509 0.112353 -0.0498491 0.0189768 0.325893 0.00642492 -0.0381357 0.0733669 -0.126237 0.027438 0.0658478 -0.101891 -0.0746805 0.0225236 0.0430424 -0.00912303 0.122316 -0.0252879 -0.0989508 -0.0859152 -0.0664121 -0.0859184 0.140425 0.103342 0.00827674 -0.00291855 0.0400347 -0.109184 0.0205815 0.0335102 0.160412 0.116139 0.0455256 0.0131403 -0.139253 0.127511 0.00624428 -0.0105964 0.0229273 -0.0819242 0.00125831 -0.0495006 0.0160924 -0.120067 -0.0507809 -0.149841 -0.0753049 0.082065 0.0230326 -0.0228216 -0.0876846 -0.147916 -0.140411 0.0800594 -0.0294606 -0.0929982 0.0736291 -0.0992653 0.175857 -0.0383103 -0.0317109 0.0204467 0.00349357 0.0128192 -0.0323108 0.0495987 0.10637 -0.0215765 -0.153995 0.0612504 0.0696302 0.00853351 0.00968132 -0.0228875 -0.0205216 -0.0103956 -0.127685 0.0854452 -0.0138082 -0.187246 0.111145 -0.0151157 0.0695154 0.0310641 -0.154988 0.102597 0.0339612 0.0872503 -0.019343 0.0530907 0.0225664 0.0619621 -0.0184704 -0.113027 -0.160432 -0.0271804 -0.0726754 0.126671 0.0771633 0.0151731 0.0166038 -0.127409 -0.0446884 -0.0627728 -0.19301
53 0.195482 0.00788348 -0.0384675 0.0594098 0.16212 -0.0774484 0.0163973 -0.0030596 0.0586257 0.118438 0.123579 -0.0103017 -0.109415 -0.00208214 -0.0915314 0.0689938 0.139283 -0.0461905 0.0406048 -0.0107551 -0.0780643 -0.110835 -0.015216 0.0122933 -0.0474232 -0.0227145 0.0633041 0.0721222 -0.0309731 -0.0870481 0.139061 0.0602995 -0.05097 0.0365071 0.227617 0.0632671 -0.0969445 -0.250904 0.0413798 0.0274704 0.00662584 -0.0368584 -0.0365459 0.0707196 -0.105572 0.0113392 0.173013 -0.0902333 0.0565723 -0.0549119 -0.166668 -0.0674667 0.0492933 0.0338281 0.0637215 -0.00622851 0.0926246 -0.0638575 0.100519 -0.0209049 -0.0236287 -0.0729271 -0.0346278 0.0190423 -0.145431 0.0112059 0.0795499 -0.0486432 -0.0980186 0.0736274 0.0171563 0.0158667 -0.0076113 0.0668321 -0.00425062 -0.0758407 -0.0196081 -0.0599326 -0.00634884 0.0124839 -0.0278816 -0.120052 -0.00856238 -0.00576502 0.0116451 -0.00281312 -0.022656 0.0434607 -0.0407916 0.0473003 -0.11234 -0.0146404 -0.0599246 0.0214029 0.0980374 -0.179503 0.0226277 0.00366888 0.00822398 -0.0561046 0.10355 -0.0164315 -0.161745 0.121203 -0.133792 0.0798751 -0.0306247 0.167132 0.180869 0.20085 0.215121 0.145327 0.0286724 0.0287961 0.0173828 -0.076273 -0.181241 -0.00643327 -0.0924781 0.0375748 -0.00693279 -0.0198543 0.000221598 -0.0173623 -0.0683173 -0.188823 0.119997 -0.128071
54 0.077714 0.0129942 -0.0577407 0.170917 -0.0103812 -0.00994507 -0.0566126 0.000855376 0.0899199 -0.0263812 0.0453035 0.124181 -0.0575431 0.084462 0.102912 0.0757395 0.143902 -0.107776 0.0300517 0.100728 -0.0534338 -0.0844498 0.00995906 0.0102182 -0.0715188 0.0772548 -0.0497029 0.22421 0.0133201 0.0445162 -0.15346 0.0849239 -0.0877949 0.0138234 0.0557945 0.0708919 0.0627191 -0.121532 -0.0748626 -0.0143622 -0.0683789 0.056892 0.0623486 0.010927 -0.0743716 0.0566069 0.0356156 -0.0410509 0.0788787 -0.0864111 -0.0519531 0.0267757 0.0960384 0.108136 0.0454543 0.116617 -0.0876717 0.0946818 0.0144644 -0.0566247 -0.0254232 -0.0628392 0.0809517 0.022211 -0.0545679 -0.0608681 -0.00370956 -0.169565 0.0414192 0.0579969 0.109542 0.0331645 -0.133236 -0.126568 0.0279228 -0.157819 -0.0387295 -0.0110563 -0.0178933 0.117984 0.0494046 -0.150767 -0.00384913 0.0753772 -0.0174169 0.164345 -0.0334353 0.096562 -0.0740003 -0.0930962 -0.173692 -0.0437419 0.014883 0.154202 0.10122 0.0356005 -0.0953922 -0.075123 -0.0082279 -0.0595218 -0.0509233 -0.0453936 -0.0662394 0.0746818 -0.111238 0.0661569 -0.00325864 0.168428 0.182256 0.0651728 0.0839719 0.088548 0.0529115 -0.0672878 0.148468 0.0768704 -0.167728 -0.1669 -0.0259341 -0.11776 0.105674 -0.123936 0.0681137 0.113069 0.0386349 -0.163382 0.126602 0.0346773
55 0.16505 -0.0324742 0.0814589 0.0712521 0.0693714 0.0893109 0.053448 -0.0670967 0.158385 0.0857314 -0.000552753 0.0796149 -0.0583139 0.0395192 0.0747058 0.0893216 0.241029 0.0468985 -0.0309699 0.131951 -0.0679897 -0.0813475 -0.00768181 -0.0939998 0.0562118 0.0154848 0.088021 0.207058 -0.126708 0.0723342 -0.041445 -0.109678 -0.123422 0.0377008 0.00192529 0.0623978 0.0672528 -0.076346 -0.0903563 0.0644071 0.0113626 -0.022414 0.237891 0.153429 -0.0499568 0.0740638 0.0518692 -0.0053029 0.0642157 0.070143 -0.213631 -0.0210395 -0.0134837 0.0239097 0.189276 -0.0233768 -0.047896 0.149513 0.0893845 0.0758074 0.0206038 -0.220147 -0.0462656 0.0780814 -0.0919565 -0.0141834 -0.090297 -0.0815191 -0.0704052 -0.0245151 -0.0332892 0.00683264 0.0880555 0.0592928 0.0107267 -0.00721561 0.0774041 -0.00736433 -0.030029 -0.0728193 0.0231536 0.104406 -0.0308526 -0.0356979 -0.0512953 0.0298135 -0.0576592 0.0133509 -0.121052 0.00865751 -0.0349441 0.12804 0.0367543 0.00337684 0.0202262 0.15571 0.115382 0.015422 0.14786 -0.00450466 0.00320404 -0.0206696 -0.207672 0.150983 -0.0411394 0.114291 -0.00799342 0.0252009 0.0110786 0.0831417 0.0263492 0.00226659 0.0117364 -0.0696157 -0.0369659 0.0652338 0.0165115 -0.0179728 -0.0353678 0.128557 0.0222826 0.0803766 0.0329252 0.121883 -0.237562 -0.0568023 0.0148133 -0.0510883
56 0.084596 0.0106995 -0.0930555 0.226507 0.054807 -0.0612028 -0.072353 -0.116812 0.0743284 -0.051483 0.144949 0.101567 -0.124937 0.133515 0.118639 -0.0233253 0.105289 0.128658 0.0338149 0.199825 -0.10775 -0.015667 -0.0911225 -0.0361799 0.123524 -0.120759 0.00974332 0.197836 0.0671889 0.167048 -0.0386283 -0.0468611 -0.0181848 -0.0990779 0.0676348 0.115424 0.00911743 -0.160017 0.0215492 0.126327 -0.0537437 0.165809 0.039843 -0.0175125 -0.0902352 0.0193205 -0.00826994 -0.0377744 0.114388 -0.0640998 0.00224732 0.117981 0.00797093 0.0904035 0.139396 0.150917 -0.0388311 -0.00950106 0.071548 0.0740857 -0.0418914 -0.0833035 0.1379 0.00479266 0.0893298 0.0392697 0.138529 -0.11819 0.0372513 -0.0236178 0.0220765 0.0755972 -0.022268 0.0785906 0.117518 -0.0445142 0.0392874 0.0698082 -0.0850097 -0.0201594 -0.0487149 0.0321424 0.0152145 0.0811782 0.0935702 0.0606414 -0.13248 -0.190827 0.0511219 0.0727704 -0.108147 -0.119004 -0.0769782 0.135332 0.0620324 -0.041545 -0.040189 -0.0482827 0.0667671 -0.146729 0.0961065 -0.0424319 0.0960483 0.0124073 -0.0218918 0.0195401 -0.00505592 0.0178639 0.00177032 0.198853 0.179328 0.0674392 0.0147951 0.0269297 0.0222081 -0.0590084 -0.0456963 -0.0102937 0.0553284 -0.0061617 0.0311398 0.0377698 0.0469269 -0.093832 0.0338057 0.0520016 0.0161521 0.0848051
57 0.111427 -0.0975492 0.092657 0.17655 0.0158789 0.0903108 -0.0183733 -0.0666309 -0.0146828 0.0117798 -0.00250753 0.00101134 -0.0313024 0.0611981 0.0436345 -0.00781611 0.0706064 -0.0692005 0.0198044 0.0659739 -0.0862966 -0.113061 0.0936693 0.0772727 0.027259 0.0645822 -0.0316869 0.206546 -0.0531703 -0.0278615 0.0104912 -0.101112 -0.0139366 0.0923342 0.126948 0.103786 0.0411005 -0.00228193 -0.123813 0.185034 0.218213 0.100589 0.103559 -0.042122 -0.122025 -0.0617204 0.033027 -0.0309897 0.0207507 -0.0469686 -0.0815596 0.0240478 0.0224553 -0.0903089 0.112074 0.125088 0.109075 -0.00591351 0.149365 -0.0287704 0.0755088 -0.0342199 -0.0151621 0.0666929 -0.102157 0.0397108 -0.00131185 -0.0816353 -0.0550413 0.0660858 -0.15747 0.0206961 0.00610399 -0.117641 -0.100216 0.0615234 0.0496658 -0.0996793 -0.120703 -0.0448082 -0.0886161 0.0447778 -0.0223906 -0.0422009 0.0289285 0.100434 -0.0554875 -0.074986 -0.102621 0.12683 -0.165132 -0.0351049 -0.0565325 0.116731 0.0273904 -0.0841205 0.063622 -0.0547694 0.17869 -0.118399 0.0751375 -0.0952472 -0.143542 0.0224251 -0.0644992 0.0894388 -0.0802651 -0.0661217 -0.0369506 0.00271161 0.0374822 -0.0480681 -0.0435257 -0.063675 0.067259 0.238616 -0.156369 -0.0686014 -0.00885188 -0.0172957 -0.102343 -0.113626 -0.129975 0.0167445 -0.0744039 -0.193786 0.133619 -0.00325531
58 0.074167 -0.116368 -0.0538778 0.0369095 -0.0460496 0.0630656 0.000699491 0.0115366 0.036331 -0.0263822 0.0706494 0.0684484 -0.104913 0.166153 -0.0382636 0.0315651 0.0622398 0.0358445 0.0565652 0.150398 0.0254257 -0.01952 -0.0373115 0.0724062 -0.0621876 0.097999 0.0549143 0.26642 0.135503 0.126327 -0.000870533 -0.06029 -0.0145613 0.0406532 0.0784624 -0.0114623 -0.094721 -0.0794832 -0.0683074 0.167193 0.15688 -0.0415351 -0.0464086 -0.0492813 0.119944 -0.00250514 -0.0646936 -0.129554 0.0655555 -0.0240295 -0.029132 0.100995 -0.0970116 0.112129 0.00357477 0.143681 0.0882246 -0.0161002 0.199308 -0.0595217 0.0179355 -0.0327037 0.090793 0.0673103 -0.0653555 -0.0329834 -0.0285693 -0.049876 -0.147751 0.0235543 -0.0767769 -0.0336997 0.0300409 -0.0831193 0.0283079 -0.111518 0.0448619 -0.0497437 -0.0760956 0.117649 -0.0224695 -0.101706 -0.072898 -0.0970217 -0.0400977 -0.00278722 0.0462936 -0.0545253 0.00786937 -0.0235612 -0.118678 -0.0220485 0.0744728 0.152528 0.167923 -0.187856 -0.0199468 0.0784435 0.0658878 -0.159854 0.0397584 -0.143559 0.0417742 -0.0564477 -0.0465445 0.0523788 -0.0891758 -0.0611706 0.101524 0.103703 0.0370013 0.0917694 -0.0105955 0.0119881 0.0260906 -0.00952655 -0.096611 0.0682747 0.0385353 -0.0680207 0.127898 0.0717709 -0.0351681 -0.156009 -0.00556314 -0.254532 0.197098 0.0360998
59 0.157026 -0.151024 0.162595 0.0522737 -0.0129981 -0.023224 0.00197518 0.0929858 0.0317546 0.145961 0.0462565 -0.00234073 -0.103119 0.0447008 0.157325 0.0367136 0.174506 -0.0837854 0.059363 0.0511901 0.0658891 -0.069035 -0.115938 0.00853856 -0.00549628 0.0609768 0.0212537 0.169202 -0.0433384 0.0804662 0.0160008 0.0383736 0.0273379 -0.116446 0.052136 -0.0126905 0.161852 -0.0368861 0.0169776 0.0386235 0.0612057 0.0406482 -0.0300267 0.087217 -0.0275011 -0.0907954 -0.0178318 -0.121499 0.0396148 0.0746926 -0.129033 -0.115379 0.0120428 0.0454066 0.128897 0.031462 -0.0216856 0.137015 0.0208603 0.0918283 0.114142 -0.0930879 0.174558 -0.0625656 -0.175428 0.0979406 -0.086301 -0.234008 0.00676606 -0.117181 0.0388049 -0.0925248 0.0376094 0.0695336 -0.0378994 0.036245 -0.0447267 0.0624246 -0.0512544 0.10923 0.0259203 -0.109356 -0.036829 -0.0506524 -0.023361 -0.0368838 -0.0222772 -0.0385456 0.0234191 0.127679 -0.13456 -0.130347 0.0339139 0.124864 -0.0385112 -0.108189 0.0221905 -0.0381653 -0.143905 -0.0482112 0.0344018 -0.122489 -0.114461 0.0918273 -0.0839235 0.0321666 -0.161291 0.00269935 0.118842 0.121569 0.0130618 0.0942532 -0.00896745 -0.0217136 -0.0359334 -0.0101449 -0.0235822 -0.0728895 0.026915 0.095752 -0.0252484 0.0801458 0.0406708 0.230505 -0.121143 -0.158547 0.0253272 -0.0555645
60 0.264754 0.104945 -0.0920494 0.0388898 0.166526 -0.00628616 -0.0803884 0.0428637 0.190789 0.0953554 0.0816489 0.00480737 -0.0646728 -0.045999 -0.0487435 0.149244 0.224637 0.0209304 0.0110533 0.113576 0.0476839 -0.120162 -0.0714569 -0.0474312 -0.0386246 0.0144566 0.0411726 0.0777422 -0.0253534 -0.0266746 0.0601459 0.0731385 0.0705884 0.0249933 0.171017 0.04286 -0.138858 -0.205682 0.0781992 -0.057521 0.00264193 -0.0619412 -0.064021 0.0946919 -0.0948072 -0.0646246 0.109905 0.00837824 0.0387714 0.00107174 -0.152327 -0.0396584 0.111596 0.0781766 -0.0551669 0.0263086 0.0843711 -0.00473657 0.0459043 0.0649718 0.0214886 -0.0642089 0.0264912 0.0253598 -0.176204 0.042668 0.0854063 -0.0157894 -0.0789949 0.0324128 -0.00500621 0.117546 0.0752958 0.0732772 0.0125989 -0.0196262 0.0742275 -0.016612 -0.049326 0.089195 -0.0633144 -0.0694843 -0.0612352 -0.0221028 -0.0331215 0.184933 -0.0571172 0.0225632 -0.0899424 0.116258 -0.123725 -0.0586712 -0.0431958 -0.0193087 0.0432573 -0.0850568 -0.0850625 -0.00521897 0.0237342 -0.0612282 0.00162297 -0.068743 -0.143811 0.0688796 -0.0595558 0.036616 0.0252284 0.0573968 0.224114 0.172928 0.172659 0.0128048 -0.114483 -0.10368 0.0355812 -0.060251 -0.10667 -0.0803151 -0.0930023 0.0392187 -0.00514979 0.00265008 -0.0641534 -0.0144471 -0.149233 -0.0886192 0.130882 -0.0432198
61 0.264963 0.0911291 -0.0253979 0.120884 0.0913376 0.0936396 -0.109111 0.0124403 0.14064 0.157178 0.140829 -0.0167688 -0.194923 -0.170154 -0.0407844 0.0786681 0.0615911 -0.0224432 0.0456139 0.0725797 0.019545 -0.1015 -0.0547636 -0.0508107 -0.0544159 -0.0830081 0.0253106 0.0617022 -0.0566408 0.00194174 0.0564842 0.0112923 0.0255892 0.184626 0.135566 0.0870948 0.0583816 -0.147718 -0.0735887 -0.000335297 -0.0291003 -0.00185531 -0.0754802 0.128032 -0.0910504 -0.0714662 -0.0739905 0.0896606 0.0386033 -0.100708 -0.114077 0.089501 -0.0205033 0.0668797 0.0104139 0.152093 0.0175428 0.0128911 -0.0118556 -0.00633313 -0.0122189 0.00592087 0.0282776 0.0528225 0.00868026 -0.0463258 0.00141051 -0.0515804 -0.11182 -0.0165971 0.0962012 0.0392198 0.0736814 0.0520765 -0.066751 0.0319118 -0.00826752 -0.0165299 -0.1028 0.00783845 -0.160483 0.0282069 -0.00441107 -0.0301285 -0.0489785 -0.0864063 -0.12545 0.0751091 -0.161202 0.0045366 -0.0623362 -0.106289 -0.0529076 -0.0427483 -0.0792331 -0.172002 -0.0440007 -0.0117171 0.00836434 0.0394615 0.156076 -0.00864067 -0.0456576 0.025835 -0.129732 0.187127 -0.106136 0.0231687 0.129301 0.103627 0.0678669 0.109788 -0.0426016 0.00182722 0.00169041 -0.139888 -0.142485 -0.107785 0.011958 -0.0344119 -0.0958742 0.0240319 -0.101466 -0.0989472 -0.210428 -0.062817 0.106785 -0.0793029
62 -0.0237483 -0.0959125 0.0176891 0.132747 0.027289 0.0437888 -0.0405609 0.0292155 0.0334165 0.138769 -0.0307922 0.0386887 -0.159288 -0.0595464 0.0488565 0.0768573 0.0511491 0.0442845 -0.0359291 0.0343 0.041502 -0.0662047 0.0482296 -0.00165648 0.0800999 0.0725365 0.0573692 0.178124 0.109603 0.00338139 0.0970829 -0.00884997 0.0632175 -0.0516739 0.036982 0.0195885 0.21045 -0.118506 -0.153325 0.0741644 0.0317499 -0.0874344 0.121169 0.0882126 0.0127725 0.198077 -0.0257565 0.0589205 0.229874 0.0198311 -0.232849 -0.104639 -0.0043267 -0.0422031 0.127777 0.135133 -0.0096042 0.119128 -0.0434004 -0.0702474 -0.0400739 0.0797282 0.0496336 -0.0210783 -0.120529 -0.0801708 -0.108809 -0.0376899 -0.0783003 0.0410562 -0.12212 0.0426005 0.00819704 -0.0171004 0.0637728 -0.039434 0.128646 -0.0541351 -0.114339 0.0902164 0.0899204 0.00493496 -0.0439384 -0.0487589 -0.143268 0.0255604 -0.0835124 0.0289741 -0.115569 -0.0474851 0.0506564 0.0206951 0.00945677 -0.00374221 -0.0163688 -0.0632712 0.110155 -0.0303977 -0.0342814 -0.10282 0.0219534 -0.0428479 -0.0486169 -0.0117604 -0.0685376 0.175838 0.115737 -0.0337439 0.136276 0.0747646 0.122718 -0.0217813 0.0497166 -0.133489 0.127651 0.0641235 -0.0421383 -0.077944 -0.0198856 0.0315556 0.0867944 0.145252 0.0420289 0.175154 -0.187533 -0.111984 0.124963 0.0509774
63 0.176342 -0.0309989 0.00649534 0.117056 0.00937287 0.0337722 -0.0339411 0.0206337 -0.0267749 -0.014033 -0.111613 -0.0314211 -0.0110031 0.074207 0.0995319 -0.0288345 0.197226 0.0892507 -0.0146499 0.0583922 -0.0771718 -0.1739 -0.0138591 -0.00691288 0.182105 0.0124878 -0.0099377 0.232743 0.096879 0.107973 -0.0601456 -0.128831 0.146045 -0.0417348 0.0206541 -0.0783903 0.0422769 -0.0497923 -0.00762845 0.16188 0.0423279 -0.0335047 -0.0841026 -0.0202268 0.0332986 0.0104776 0.034008 0.0680061 0.117159 -0.101672 -0.166775 0.0885498 0.0612468 0.0124501 0.212011 0.00720639 0.019439 -0.133524 0.14233 -0.00403875 0.0358923 -0.0864522 0.111191 -0.125783 -0.143438 0.0590873 0.0947984 -0.00307705 -0.0529214 0.0603053 -0.0076305 0.0869367 -0.1163 -0.0341573 -0.0424331 0.00282811 -0.0640524 -0.0791915 0.00826248 0.116246 -0.0876601 -0.0103042 -0.132232 -0.00643871 0.00906945 0.0444145 0.0018278 0.0566577 0.0408088 0.161446 -0.0495468 -0.024296 0.117257 0.155937 0.0966925 -0.105035 -0.0165355 -0.0518544 0.097226 -0.124869 0.171102 0.0358875 -0.113313 0.0590024 -0.0640973 0.050951 -0.0384747 -0.0624895 0.0653101 0.0427063 0.0611979 0.0819903 0.0901255 -0.0106072 0.0666353 0.123748 -0.0656123 0.0577973 0.0349049 0.0601913 -0.188269 0.0438385 0.0706771 -0.0598542 -0.136349 -0.131716 0.0383995 -0.0923145
64 0.0757118 -0.0183092 0.0791245 0.0584948 -0.116528 -0.0227716 0.0193726 0.0701203 0.10726 0.0103055 0.0684413 0.021282 -0.0950375 -0.00587998 0.131982 -0.0498248 0.203052 0.0403146 0.0618303 0.161399 0.00421353 -0.145572 -0.108496 0.0170344 -0.0247043 0.0403253 0.0494585 0.231814 -0.0610401 0.113769 -0.0872322 -0.00933302 -0.100473 0.0427876 -0.0421175 0.0735901 0.083287 -0.124034 -0.089274 0.0815949 0.0353867 -0.0727606 -0.0352354 0.245084 -0.173363 -0.06506 0.118992 -0.0233494 0.0508429 0.0145465 0.0346454 0.0362074 -0.119711 -0.0132894 -0.0640454 0.0561818 -0.0102779 0.00784107 -0.0515347 -0.0237076 -0.0617422 0.0691537 0.170418 -0.0846327 -0.150227 0.0716945 -0.126186 -0.1125 -0.0389436 -0.0767543 -0.0404041 -0.074961 -0.110035 -0.0765055 0.0308977 -0.161653 0.0490525 0.0339583 -0.0210282 -0.00961733 0.111481 0.0511797 -0.0552103 0.0802288 -0.0271147 0.0571967 -0.0578211 0.0958033 -0.00755379 0.023988 -0.114145 -0.0531805 -0.131074 -0.062706 0.0514867 0.0153561 0.0635267 0.0690948 -0.0143244 -0.0846651 0.0852197 0.0467247 -0.160513 -0.0067603 0.00550674 0.178677 -0.021543 0.11792 0.122328 0.0326584 0.135413 0.0243088 0.127264 -0.0874789 0.127662 0.163113 -0.147923 -0.0504955 -0.0579502 0.094641 0.0546581 0.0789552 0.0101374 -0.0955915 0.122088 -0.0738889 0.0742181 3.56398e-05
65 0.0207009 -0.118253 0.0417731 0.113576 0.0436512 0.14626 -0.0725914 0.0970904 0.0870277 0.144784 -0.00287322 0.0207709 -0.173354 -0.109611 0.0915043 0.141921 0.00994169 0.0694778 0.0485265 -0.0181986 0.043189 -0.149191 0.094258 -0.0135072 0.0123699 0.0819942 0.0895136 0.129813 0.0662956 -0.00995271 0.0567337 0.0424417 0.0983703 0.0745046 0.0440369 0.00871861 0.202046 -0.141595 -0.149122 0.0582776 0.000705833 -0.0564985 0.103071 0.0902048 -0.0249348 0.162185 0.0219905 0.036395 0.240749 -0.0164211 -0.153506 -0.128268 -0.0177222 -0.0656473 0.133276 0.108136 0.0637693 0.136227 -0.0245203 0.0657633 -0.0423225 0.0868714 0.181086 -0.058836 -0.108782 -0.0982334 -0.0923845 -0.0364394 -0.111214 0.0670233 -0.089007 0.0347221 -0.0215513 0.03972 -0.0619954 -0.12014 0.159633 -0.0855264 -0.0224002 0.082063 0.0558852 0.0521512 -0.0844437 -0.00135172 -0.0486397 0.0298673 -0.00720543 0.0635681 -0.0838416 -0.0382379 0.0269258 0.0726531 0.0154944 0.0423768 0.0464994 -0.0413993 0.0680036 -0.0259091 -0.047355 -0.106461 0.0808665 -0.0339573 -0.057562 -0.067421 0.0013991 0.10005 -0.010933 -0.118844 0.131531 0.116072 0.137516 0.00697096 0.0859623 -0.131348 0.142268 -0.00058598 -0.00669504 0.0162831 0.0331121 0.00855387 -0.0139674 0.051674 0.039713 0.10425 -0.211956 -0.0333548 0.119854 0.0502616
66 0.0186806 -0.0388998 -0.000151918 0.144445 0.16867 -0.0590174 -0.11705 -0.0126104 0.0544093 -0.0211129 0.031509 -0.00452989 -0.0554168 -0.0389028 -0.184034 0.0306869 0.141448 -0.120052 0.0926826 -0.00749356 -0.0115683 -0.0356225 0.0445026 0.0238047 -0.0595311 -0.0189247 -0.070681 0.203889 -0.044512 0.0407481 -0.0331596 0.0858355 0.00486078 0.0342255 0.121143 -0.0818396 0.174425 0.0280485 0.031871 0.0230537 -0.0727032 0.0156282 -0.00742587 0.157836 -0.202346 -0.02582 -0.00349091 -0.0258037 0.215883 0.0483203 -0.0198916 0.132652 0.16144 -0.0570489 0.143699 -0.0413702 -0.0232376 0.101022 -0.0382618 0.054551 -0.0564978 -0.13832 0.10289 -0.0974502 -0.0994386 0.133033 0.129809 -0.0288158 -0.176833 -0.0958378 -0.120998 0.117155 0.0358342 -0.092425 0.0140287 0.0357082 -0.0468439 0.0219595 -0.20853 0.106891 -0.0750565 -0.0208534 -0.0210594 0.0738734 0.0839151 0.114612 -0.0632902 0.0271767 0.0341395 -0.0626564 -0.130317 0.0469184 -0.0150043 0.0184295 0.13567 -0.0790326 0.0602681 0.0201258 0.146091 -0.045815 0.0672612 -0.048684 -0.045304 0.0364042 -0.0988021 0.150208 0.101072 -0.0574511 0.00341963 0.104478 0.130162 -0.0211674 -0.0298308 0.0464625 -0.0203569 -0.019185 -0.132674 -0.0418625 0.118873 -0.0117607 -0.0683913 0.100823 0.0272906 0.041951 -0.140641 -0.0839837 -0.096649 0.0389393
67 0.0932516 -0.0608593 0.0425337 0.241123 -0.0126802 0.0152294 -0.0810434 0.0613922 0.090852 0.136427 -0.0258889 0.00990588 -0.141305 -0.0605147 -0.0158115 0.101056 0.0599362 0.0199517 0.049731 -0.0520258 0.000832729 -0.170504 0.0783362 0.0222047 0.0254931 -0.0284189 0.0643804 0.207087 -0.0383382 -0.0361296 0.012499 -0.0447174 0.0786547 0.0311712 0.0233745 -0.0588061 0.0992269 -0.119268 -0.122863 -0.0174981 -0.0421752 -0.0237956 0.141715 0.0231021 0.0213105 0.0751658 -0.0324129 -0.04351 0.139407 -0.046695 -0.10067 -0.130315 -0.0244635 -0.0881732 0.109948 0.128587 0.00756574 0.184114 -0.0480112 0.122486 0.0477302 0.0842593 0.169569 -0.0286725 -0.104202 -0.155469 -0.0714029 -0.0554475 -0.0983258 0.0561951 -0.228519 0.103295 0.00662037 0.000187247 -0.0990535 -0.13592 0.1242 -0.0040755 0.0435723 0.0562304 0.0351468 0.0286636 -0.0796921 -0.0374716 -0.0589712 -0.00803701 0.0492945 0.138692 0.00425573 -0.0280603 -0.0632511 -0.00416979 0.0900159 0.076537 0.0271595 0.025735 -0.0246105 0.0121128 0.0103859 -0.211157 0.0419913 -0.00832825 -0.0144991 -0.0163222 0.0414945 0.137901 -0.0265851 -0.088302 0.138775 0.123557 0.0620917 0.0515099 0.109416 -0.084279 0.0728126 -0.00758751 -0.0534337 -0.0778565 0.0368567 -0.0217706 -0.0260641 0.137531 0.0950439 0.123487 -0.233386 -0.0767152 0.120044 0.0591959
68 0.126631 -0.0635989 0.0642314 0.211876 0.039909 -0.120329 -0.0222821 0.0527127 0.0451657 0.0577971 0.145457 -0.115615 -0.123878 0.0791455 0.204648 -0.00561719 0.0462411 0.00271127 -0.00200272 0.175136 0.0158617 -0.124534 -0.0472799 0.131267 -0.10043 0.110856 -0.0475282 0.121041 0.0626914 0.123755 0.0368593 -0.0453021 -0.00202403 0.0448026 0.0535212 0.057844 0.0171293 -0.0151978 -0.0217714 -0.0751103 -0.0415156 0.0609681 0.0946491 0.137509 -0.0978735 0.123642 0.0287061 0.0683693 0.166152 -0.0410316 -0.0421596 0.0204262 0.139461 -0.0621128 -0.0794026 0.00753453 -0.0543015 0.111869 0.0648182 0.0955957 -0.0391492 -0.0968927 -0.0671927 0.0797227 -0.0280793 0.122321 0.136132 -0.16253 0.0384066 -0.105299 0.00425111 0.112293 0.0263525 -0.00314066 0.0813399 0.0940999 -0.0162456 -0.00752707 -0.061415 0.063909 0.0175097 0.0730804 0.0323595 -0.129724 0.0735674 -0.0782579 -0.0457533 -0.156721 0.0448775 0.00621699 -0.203573 -0.114846 -0.0816445 0.0537714 -0.00442821 -0.00780998 -0.00314763 0.0259945 0.0248712 -0.0272629 0.120451 0.0177763 0.0520718 0.014873 0.03349 0.0469669 0.0421773 0.0109554 0.123449 0.171404 0.207698 -0.00872931 0.0364827 -0.144392 0.00155135 -0.0128938 -0.184062 0.131927 -0.0990286 -0.0543134 0.0323411 -0.0591262 -0.0377091 -0.108434 -0.0844379 -0.0473388 0.0298442 -0.149473
69 0.141461 -0.00567 0.0514562 0.124406 0.132991 0.0301282 -0.0340695 -0.128144 0.106964 0.215548 0.158758 -0.0411986 -0.202128 0.00253237 -0.035774 0.0688044 0.131968 0.00569828 0.104748 -0.0346848 -0.198886 -0.0732357 -0.0408676 0.0493058 0.0661757 0.0391878 0.116914 0.0520288 0.0607158 -0.0509953 0.146865 -0.0478558 0.00184702 0.0837797 0.221479 0.0577768 -0.0379851 -0.192515 0.017123 0.0177221 0.0697731 -0.0218498 0.0143158 0.163643 -0.0909069 0.0366848 0.0807278 0.0296861 0.179894 -0.0608851 0.060045 -0.0519917 0.077695 0.0303051 0.0100152 0.00121174 0.0795176 -0.0449821 0.0391772 0.0588325 -0.0115746 -0.103809 0.0845456 0.0432244 -0.0830027 0.075185 0.0916594 -0.0985321 -0.0336597 0.0408418 0.0447938 0.0547772 0.0112745 -0.0141797 0.0235596 -0.0452598 0.0627863 -0.0177165 0.0103647 -0.0157744 -0.144758 -0.00360094 0.0393249 -0.00843196 -0.00531385 -0.0788374 -0.0399511 0.0558801 -0.00261819 0.0975508 -0.0713541 -0.123374 -0.0521671 -0.119304 0.0483131 -0.15639 -0.0998554 0.00590767 -0.0126669 0.147378 0.103353 0.046243 -0.0768277 0.0286656 -0.162457 0.00708717 -0.027337 0.0865141 0.208858 0.0778223 0.137136 -0.0532644 0.0541307 -0.0246303 0.065172 0.0753073 -0.173 -0.0603382 0.0437975 0.0348189 0.0206272 -0.00169825 -0.0520417 -0.0872372 -0.0679077 -0.124594 0.0384426 -0.198121
70 -0.0236599 -0.0488856 0.0179234 0.188943 0.125307 -0.0123704 0.08218 0.0840022 0.138267 0.11546 0.0265251 -0.0254971 -0.0206292 0.0661222 0.135556 -0.0266342 0.124262 -0.126346 -0.00932161 0.0134029 -0.0860589 -0.243702 -0.126069 0.126913 -0.155293 -0.0798756 -0.036596 0.12042 -0.0158393 -0.0811904 -0.0553475 0.0686007 -0.0233654 0.129492 -0.061788 -0.0753438 0.0123861 -0.120362 0.0406288 -0.0829198 0.120863 -0.0306204 0.00705218 0.0999175 -0.00654966 0.021947 0.0169223 0.0307864 -0.00987227 -0.0750653 -0.0318587 -0.00194509 -0.0742076 0.10318 -0.0108516 0.0756624 0.0283917 -0.0639008 0.0197312 -0.00325667 -0.0342934 0.0972381 0.040234 -0.0126665 -0.316371 0.0460371 0.164682 -0.0464984 0.0380117 0.0620061 -0.0890353 0.160503 0.00533168 0.0828288 -0.115108 -0.0389442 -0.0347343 -0.0493685 -0.0496501 0.20503 0.0196807 0.0761078 0.00203225 -0.0670182 -0.049559 -0.00593884 -0.11747 -0.00835974 -0.0355318 0.0438655 0.00214854 0.0329327 -0.188035 0.124513 0.0763834 -0.0889643 -0.0868264 -0.0530582 0.0185146 -0.0449119 0.0334206 -0.125449 -0.10724 0.145644 -0.115848 0.17703 -0.0359482 0.0717369 0.069896 -0.0117175 -0.0435412 -0.0724272 0.035817 0.0272833 -0.0373138 0.00741095 -0.172634 -0.0345659 -0.0316468 -0.0291215 -0.112477 0.0652011 0.0206019 0.0468237 -0.0866155 -0.0391959 -0.113952 0.137123
71 -0.0372842 0.0344528 -0.0712472 0.126376 0.0937064 -0.00982836 -0.20357 -0.103505 -0.0111904 0.0190823 0.0467792 0.149945 -0.041495 0.0889841 0.185054 0.054438 0.180106 -0.00221133 0.0829057 0.157913 0.0541138 0.0268375 -0.00232133 -0.126108 -0.0375124 -0.00461518 -0.0363769 0.182831 0.0527919 0.0470672 0.0022798 -0.0275158 0.0579405 0.103726 -0.0202079 -0.0287526 0.143731 -0.119331 -0.0446745 0.135831 0.087283 -0.0244556 0.00959953 0.023767 -0.0918451 0.0301629 -0.0505336 0.0461939 0.0223881 -0.0904096 -0.112871 0.0475352 -0.0104883 0.0539066 0.0277927 0.0283419 -0.134074 0.0483871 0.180949 -0.0978039 -0.115129 -0.0444245 0.236386 -0.0839307 -0.166508 -0.0548028 -0.0452784 0.0650728 -0.0678793 0.0379616 0.0122324 0.0794016 0.14262 0.0584935 0.0891418 -0.170187 -0.0625296 0.0806553 0.00601723 0.0528899 0.100386 0.0716915 -0.0427453 0.0758465 -0.00770414 -0.0279523 -0.0602087 -0.100184 0.0359316 0.149756 0.0409086 -0.0961843 0.0494705 0.0382159 0.0397583 -0.216627 0.045818 0.0343468 0.119786 -0.107365 0.0839793 0.0179529 -0.0390831 0.0250423 0.0246318 0.10036 -0.12031 0.134678 0.0399741 0.0706371 -0.0371284 -0.068083 0.0878489 -0.107645 0.0664655 -0.0454703 -0.0527931 -0.0588426 0.0945093 -0.00433376 -0.0907138 0.0174 0.0421289 -0.157461 0.0338827 -0.132968 -0.0171921 -0.13172
72 0.0840259 -0.0823637 -0.0720336 0.16477 -0.000902131 0.0886713 -0.017332 -0.122187 0.0669262 0.0750385 0.0835472 0.0677789 -0.131043 0.0443088 -0.0137918 0.1181 0.117458 0.0330972 -0.0814456 0.0817776 0.0873035 -0.063815 0.0519157 -0.017363 -0.054428 0.0160324 0.031876 0.185279 -0.0170322 0.0256168 0.123859 0.04767 -0.048565 -0.0403845 0.0712444 -0.0136208 0.125674 -0.105416 -0.0375357 0.0543039 0.0837212 0.0264282 0.224585 0.185976 -0.126971 0.15246 0.0693394 -0.0313535 0.143526 0.0912091 -0.18863 -0.00288512 0.121321 0.0116558 0.0824203 -0.0186491 0.0550923 0.172015 0.0748128 0.0878908 0.0141796 -0.0168283 -0.00833833 -0.0403794 -0.156312 -0.111222 -0.0768365 -0.058463 -0.139278 0.00748111 -0.0194086 -0.0104626 0.0717574 0.00241706 0.0194362 -0.0809937 0.0806308 0.0410226 -0.0488537 -0.107475 -0.00788283 0.0655619 -0.0486562 -0.0086496 -0.0756469 0.0796206 -0.15092 0.126458 -0.094431 0.0646697 -0.00678963 -0.0215301 0.037022 0.107253 -0.0888108 -0.0400094 -0.108227 0.0639869 -0.0346568 -0.0917985 0.0837027 -0.0548116 -0.14753 0.0689216 0.0408764 0.169103 0.00366038 -0.0143268 0.172641 -0.017076 0.0720534 -0.0372702 0.100433 -0.188916 -0.00790474 -0.0074244 -0.0129579 -0.0594489 -0.0615159 0.0357252 0.0805055 0.0324928 0.0634188 0.0556023 -0.201983 -0.130852 0.0806425 0.0772235
73 0.0974426 0.00975333 -0.111374 0.0666027 0.127837 0.0292627 0.149927 0.162371 0.016193 -0.0898457 0.0263235 -0.120385 -0.0327914 0.0814661 0.0471822 -0.0142183 0.0747376 0.026519 -0.071541 0.0254422 -0.0984787 -0.170323 0.122444 0.0645423 -0.0226459 0.0853418 -0.00954693 0.24427 0.058519 0.0559651 0.0565879 0.000778663 -0.167811 0.108233 0.119734 -0.0648 0.111414 -0.0302482 -0.103567 0.00332105 0.150027 -0.103751 -0.00501046 0.209343 -0.0723058 0.0116455 0.0537732 0.079857 -0.0080954 -0.131494 0.0752534 0.032455 0.013535 0.0636003 0.00941588 -0.122569 -0.0505438 0.0456008 -0.0282662 -0.0407207 0.0802177 -0.109587 0.0481218 0.0276932 -0.156573 0.00673648 -0.0736759 -0.0590966 0.0230376 0.039077 -0.0755585 -0.0390088 -0.152907 -0.104805 0.071744 -0.0553035 0.0726477 -8.49966e-05 -0.0386759 0.0559256 0.0165711 -0.0588352 -0.164939 -0.128327 0.123206 -0.230616 0.156649 0.0183057 -0.0378286 0.0305861 -0.102121 -0.119068 0.129783 0.0203732 0.0953596 -0.153188 0.102152 0.0550795 0.00325222 -0.0481897 0.0604979 -0.0807179 -0.0222968 0.016361 -0.0116691 0.0497479 0.00144445 0.00999991 0.0985993 0.0812893 0.0891681 0.12288 -0.0978965 -0.00248206 0.0188681 -0.0209382 0.00900794 0.0564894 -0.162962 0.112537 -0.0703566 -2.57252e-05 -0.0768639 0.125791 -0.0900235 -0.0921747 0.0298731 -0.0425139
74 0.0841321 -0.052475 0.0256589 0.188277 -0.0638465 -0.0826441 -0.191482 -0.0467575 -0.0100832 0.222532 -0.0560017 0.0480497 0.0103569 0.221561 -0.0415242 0.0944702 0.169208 -0.0291179 0.109425 0.169994 -0.0864199 0.0669514 -0.0357032 -0.145169 -0.00944363 0.0770581 -0.113218 0.148173 0.0118791 0.0442247 0.0630318 -0.0122578 -0.0241428 -0.01212 0.0896519 -0.000323774 0.0646871 -0.226852 -0.00348065 0.21283 0.0911092 -0.126941 0.00668501 0.0550956 -0.0762971 0.0162307 -0.0816595 -0.101855 -0.00671368 -0.0324047 -0.054142 -0.005702 0.0562676 -0.0690365 0.032941 -0.00631122 -0.158196 0.0382726 0.195093 -0.02829 -0.11365 -0.027567 0.036317 -0.0531788 -0.226 -0.0305811 0.0527219 -0.048484 0.011706 -0.0635087 0.0678165 -0.0340527 -0.00358739 0.010746 0.0426051 -0.195118 -0.0786642 -0.026842 0.015639 0.115271 0.0376651 -0.0141244 -0.0758541 -0.0844744 -0.130038 -0.0310674 0.0323323 0.0383106 0.036827 0.167892 0.0988527 0.0142523 -0.0145699 0.027942 0.0897019 -0.160007 0.00824393 -0.0161195 0.0933017 -0.00117325 0.121862 0.0229988 -0.130174 0.0138576 0.0714019 0.102283 0.0121616 -0.0514382 0.0685262 0.0980771 0.0741231 -0.000214513 0.00299785 -0.0292675 0.133336 -0.0348254 -0.168098 -0.0180126 0.0264621 -0.0523134 -0.014788 0.0696031 -0.0324413 0.0535968 -0.0299545 0.00593385 0.00173827 -0.0546554
75 -0.00607037 -0.0288326 -0.0122015 0.224223 0.088074 -0.0897142 -0.021547 0.0727623 -0.0103365 0.110358 0.00658128 -0.0157421 -0.0655756 0.151496 0.153811 0.0357194 0.160719 -0.0523722 -0.0484903 0.172257 0.0708996 0.0220482 -0.0238727 -0.0192418 -0.0358183 -0.00110522 -0.0108256 0.139297 -0.0342266 0.0690953 -0.0625827 -0.0614937 0.0346685 0.0927957 0.163113 0.062407 0.106687 -0.192442 -0.0115956 0.149422 0.141971 -0.0121507 -0.0191566 -0.0448605 -0.135554 -0.0205779 -0.112126 0.0931351 -0.0128213 0.0673722 -0.162314 -0.0240933 -0.00537569 0.106942 0.102574 0.128638 -0.0153611 0.0109493 0.0786483 0.118554 -0.0286241 -0.124826 0.215059 -0.0921824 -0.0164165 -0.105751 0.0080877 0.0678653 -0.126296 0.178437 0.00749672 0.0733677 0.0386603 -0.0968493 0.0281826 0.03785 -0.0192521 0.069873 -0.0115529 0.16685 0.0744495 -0.109054 -0.110864 -0.042767 -0.0446648 -0.00451222 0.00798817 0.0700328 0.0622389 0.165437 -0.0341069 -0.00627607 0.0158415 0.0600569 0.0165758 -0.0432635 0.0610409 0.0675311 0.0602647 -0.131695 0.124316 -0.023995 -0.0193611 0.13682 -0.0179102 0.193824 0.123096 0.00347949 0.159025 0.0259287 0.136965 -0.0850916 0.00185431 -0.0310365 0.111448 -0.0717781 0.0193417 -0.0438005 0.0160786 0.0247911 0.069638 0.0682934 -0.097493 0.00361586 0.0387186 -0.118389 0.0740926 0.0352407
