2708 128
0 0.0120834 -0.0739555 0.0790759 0.0441806 -0.0315167 0.0352088 -0.0595149 -0.144617 0.0191659 -0.0114053 0.00825567 0.11889 -0.0441381 0.0284026 0.109922 -0.0608486 0.0841932 0.0957101 0.0872766 -0.145635 0.107449 -0.136979 -0.0769737 0.0171928 0.0573332 -0.0564251 -0.0697502 -0.134441 0.0129075 0.140473 -0.0544274 0.0554297 -0.122117 -0.137212 -0.0116121 0.0962127 -0.0848348 -0.0719058 0.0180365 -0.105802 0.0103695 -0.0103995 -0.0168057 0.13624 0.126231 0.0221068 -0.116526 -0.113155 0.0934169 0.0441195 -0.0254399 -0.129514 0.139215 0.136949 -0.0100794 -0.0542775 -0.0559476 0.0283475 -0.0439606 0.0939024 -0.0785931 0.0949306 0.0293323 0.0187876 -0.142792 -0.075285 -0.0159879 -0.00668424 0.085884 0.11484 0.0258837 -0.0624188 -0.0536304 0.0510482 0.0238217 -0.10007 -0.140426 0.0360635 -9.30338e-05 0.112632 0.0447087 -0.0530711 0.144183 -0.0603256 0.147378 -0.0135616 0.133337 -0.0310181 0.0181094 0.0747774 -0.0197831 -0.00443572 -0.0622129 0.0516917 -0.0064042 -0.127426 0.150013 0.150115 0.116121 0.0255035 -0.0471619 -0.0558548 -0.044831 -0.144978 0.0938476 -0.00491728 0.132499 0.118178 0.131023 0.0200742 -0.132973 -0.12373 0.11471 0.0893712 -0.035155 -0.141409 0.100758 -0.0924276 -0.122194 -0.0534771 -0.0306111 -0.133677 0.0712406 -0.114904 0.111539 0.148648 -0.133991 0.11339
1 -0.0171348 0.0448455 -0.104327 -0.0475933 -0.0904133 -0.00534439 -0.145108 0.126744 0.167687 0.0197801 0.0897373 0.0627381 -0.0472556 -0.0794529 -0.124247 0.0646637 0.0233905 -0.0744319 -0.12204 -0.159441 0.0376677 -0.0149295 0.0452831 0.0828874 -0.0406035 -0.0921835 0.0366073 0.045535 -0.0687725 0.143426 -0.0543363 -0.131784 -0.102249 -0.133643 -0.0713408 0.115508 -0.146281 0.0942184 0.0702714 -0.0511895 -0.0471699 -0.0518515 0.180332 0.132155 -0.0720292 0.0135964 0.0171762 0.018561 -0.113989 -0.0595387 0.151654 0.0187349 -0.167176 0.0315244 0.0222107 0.166822 -0.0477248 -0.0942132 -0.104557 0.117674 0.124207 0.0343425 -0.0664194 0.10042 -0.142062 -0.134281 0.00283233 -0.0980896 0.0362674 0.0394221 0.0507115 0.136726 -0.0425985 0.0706747 -0.0515772 0.01427 -0.0149755 0.00521171 0.0330689 0.0500631 0.118085 -0.119209 -0.0332214 0.0868362 -0.013706 0.0909436 0.000605405 -0.205791 0.0342534 0.0134601 0.176085 0.147646 -0.000848242 -0.0603269 -0.0467222 -0.171757 -0.00941463 -0.019927 0.0429287 0.0574392 -0.0947792 -0.0330566 -0.0344818 -0.0664065 -0.103372 0.0178536 0.0230811 0.0668871 -0.0757422 -0.00969637 0.0116801 -0.0196187 -0.108692 -0.0437244 0.0818019 0.135705 0.106142 -0.0382625 -0.0242476 0.0954746 0.0677596 0.0829213 0.0243502 -0.0650317 -0.190077 0.0561963 -0.118379 -0.0872813
2 -0.0295884 -0.0828248 -0.0490692 0.0958929 -0.00358649 0.0278945 -0.110547 0.0413096 0.0512034 0.0230893 0.0148864 0.172402 -0.0396447 0.046981 -0.0204414 -0.0037418 0.0343569 -0.0595756 0.0215175 0.0202434 0.0544457 -0.117838 0.106223 0.101834 -0.165426 -0.104092 -0.170185 0.145886 -0.147895 0.128572 -0.0164128 -0.226984 0.131822 -0.0845128 0.0618792 0.139461 0.0123327 -0.0275907 -0.0544018 0.0229385 -0.0900925 0.0360916 -0.0351667 0.0265681 0.114408 -0.126298 0.0806743 0.0199907 -0.0316186 -0.0962952 0.0786342 0.0266131 0.00643718 -0.0403514 0.135254 0.00885546 -0.0533114 -0.0519037 0.0369598 0.182714 -0.0382722 -0.0520567 -0.113538 -0.0142244 0.124516 -0.00199636 -0.20274 0.0116121 0.000680723 -0.0940684 -0.170128 -0.0668229 -0.190428 0.00827932 -0.00242919 -0.0194068 0.088272 -0.0470525 0.0495441 -0.043957 0.117132 -0.014481 -0.121261 0.112049 0.0150559 0.015097 0.0633106 -0.00850496 -0.0664631 -0.162149 -0.0254734 0.0923948 0.123201 -0.0588134 -0.124837 -0.0309681 -0.0054812 -0.148037 -0.091367 0.0592134 0.0290093 0.0298399 0.0276288 0.154958 -0.0589009 -0.0977996 -0.123984 0.00441067 0.170152 -0.140966 -0.099745 -0.0733933 -0.0428815 0.0333703 0.0267712 -0.00616593 -0.130432 0.0578291 -0.15268 -0.0433419 -0.0201273 0.09356 0.103263 -0.121361 0.0299926 -0.0433197 -0.0351419 0.00128868
3 -0.0508426 0.0186652 -0.140868 0.0919269 0.0111949 -0.145461 -0.14013 -0.0336602 0.0330006 -0.133685 -0.0440452 0.21956 -0.0507272 0.0618091 -0.0061543 -0.160249 0.0978402 -0.00939907 -0.104228 -0.017948 -0.0972657 0.0376941 -0.01763 0.12715 -0.0653595 -0.199071 -0.141309 0.0234975 -0.0750754 -0.0350314 -0.0687055 -0.202939 0.0360206 0.109047 0.0906007 -0.0197382 0.0258168 0.0487977 0.115389 0.0248766 0.0772974 0.0707101 0.0410411 0.0373638 0.0454382 0.0255925 -0.0919839 0.0768386 -0.0862289 0.0237452 0.115062 -0.145151 0.0695901 -0.180857 0.130137 -0.092966 0.117879 0.0443214 0.0147529 0.151626 0.114916 0.03901 -0.0289189 0.105611 0.00502817 0.049608 0.0650669 -0.0558504 0.019737 -0.104338 -0.100624 -0.0201724 -0.0694713 0.0336512 -0.0103736 -0.0145872 0.00695814 -0.0128354 -0.00770848 -0.140714 0.128769 -0.0998632 -0.131078 -0.025939 -0.116119 0.0831096 0.0959313 0.0469248 -0.0934047 -0.0691212 0.111489 -0.0418815 0.131109 -0.0316389 -0.205622 -0.102927 -0.0597857 0.00749937 0.109063 -0.0284833 -0.0845743 0.0192124 -0.14186 -0.0379616 0.023078 -0.118428 -0.0773009 -0.0347004 -0.0014552 -0.0438616 0.0342919 0.0234062 -0.202618 -0.127093 -0.0216737 -0.0349832 -0.122374 0.0149599 -0.133922 -0.000266593 -0.0211625 0.0170976 0.060899 -0.0180053 -0.098577 0.0805857 -0.0441925 -0.0153793
4 -0.0625283 0.0325916 -0.108755 -0.0787339 0.0383393 -0.121004 0.111842 0.0191424 0.147943 0.00541634 0.0297958 0.0110688 -0.00920194 0.133293 0.0611276 -0.040043 0.246512 -0.0272225 -0.127547 -0.116661 0.0216246 0.0283097 -0.0791192 0.0648665 -0.039045 -0.0834918 -0.119108 -0.0583138 -0.0869452 0.0886157 -0.138998 -0.0985486 -0.0619522 -0.0272577 0.0185998 -0.00663353 -0.105457 0.0881784 -0.0304249 -0.112549 -0.137924 0.0241065 -0.0150536 -0.0472784 0.023164 -0.11522 0.123464 -0.142705 0.0258275 0.00653636 0.0396775 -0.160227 0.0685519 -0.130614 0.0671637 0.0713449 -0.00974515 -0.120906 0.127619 0.0791768 -0.0866826 0.0445692 -0.183881 -0.104976 0.140782 0.0269313 -0.115288 0.0248739 0.0526644 0.0183279 -0.00773807 0.0266474 -0.0198109 0.165118 -0.0349574 0.0359845 -0.0793484 -0.0715032 0.0498644 -0.124754 0.151369 -0.0697276 -0.0854621 0.0834842 -0.0234472 -0.117521 0.00389667 -0.134834 -0.0962956 -0.0990123 0.0869952 0.00520614 -0.0193509 0.0603023 -0.0219111 -0.0214643 0.0241605 0.018721 -0.112464 -0.107003 -0.0725529 0.0205489 -0.00215643 -0.0271058 -0.0846201 -0.0987125 -0.139138 0.0936226 -0.00878529 -0.175841 0.0560554 0.112142 -0.0803834 -0.0279742 0.0854933 0.119598 -0.00212602 0.122348 0.0875949 -0.0878431 -0.02944 0.0499194 0.133509 -0.195553 -0.100706 -0.0984305 -0.0474555 -0.0160338
5 -0.15085 0.000631712 -0.053179 -0.0322355 0.0464829 -0.0644947 0.116193 0.0498604 -0.107984 -0.0632672 0.036741 0.0334737 0.146773 -0.00338628 -0.0132566 -0.178918 0.126133 -0.19201 -0.108311 0.0262884 -0.00593302 0.0106416 0.0231643 0.0550815 -0.090324 -0.00899614 -0.134333 -0.0258006 0.100083 0.156987 -0.0357586 -0.0250052 -0.0737711 0.130824 -0.0869159 -0.0196498 0.0395003 0.128829 0.121819 0.145173 -0.0803494 0.105569 0.0394293 -0.117877 0.0540573 0.0465499 -0.0886741 0.104486 -0.00569282 -0.0540133 -0.0757541 0.0328964 0.0502984 0.00691315 -0.0278212 -0.0489085 -0.0418706 -0.0770992 -0.0241637 -0.0123303 0.0679948 0.142572 -0.129175 -0.0174234 -0.045093 -0.038382 -0.133773 -0.185075 -0.0440567 0.107819 0.0644342 0.0318116 -0.0907698 0.112482 -0.167458 0.0656942 0.0957734 -0.0751944 0.0871593 -0.0606808 0.0521632 -0.130789 -0.0534639 0.118933 0.132419 0.00437153 -0.0534931 -0.00609493 -0.1053 0.116867 -0.0406199 0.1048 0.0292277 -0.0989352 -0.160208 -0.083574 0.0405347 0.0212912 -0.0795788 -0.0807207 -0.103941 0.086945 -0.1555 -0.0768568 -0.0253428 -0.045445 0.0286148 -0.0108976 0.0777654 -0.00585658 -0.0774871 0.0827154 -0.240371 -0.0986463 -0.0726461 -0.0700208 -0.0456833 0.120325 -0.151609 0.0674186 -0.103408 -0.0157097 0.0367506 -0.0948009 -0.114103 -0.0156194 0.0302908 0.0669017
6 -0.00978776 -0.0194312 0.0835914 -0.0333782 0.088589 -0.163618 0.0987683 0.121381 -0.0824121 -0.155387 0.102523 0.161226 0.0165511 0.0210493 0.0174088 -0.027696 0.220165 -0.0618918 -0.197259 -0.172215 0.0676865 -0.0781076 0.189584 0.149496 -0.109665 0.0610394 -0.0359746 -0.0502196 0.0968573 0.0565206 -0.00494564 -0.184054 -0.0637094 0.0779167 0.113277 0.0401373 -0.100091 -0.096572 0.0351881 0.0366797 -0.0552639 -0.0671836 0.115225 -0.0321287 -0.150856 -0.0271155 0.0513056 0.103567 0.0328092 0.0754378 -0.0409207 0.0586465 0.0224882 -0.00376824 0.0553587 -0.114604 -0.112055 -0.113104 -0.00985102 0.13053 0.0500115 0.0209027 0.0428106 -0.0672654 0.0555856 0.0415047 -0.0867617 -0.0796902 -0.0287235 0.113256 0.103734 -0.0910086 0.0762212 0.0886252 -0.045981 -0.0665705 -0.012613 0.133017 0.0638005 0.0690481 0.0608582 -0.103144 -0.149154 0.0906069 -0.0533238 0.101605 0.0612794 -0.0893625 -0.121742 -0.0297314 0.0213159 0.0249673 0.00214634 -0.0232771 -0.11406 0.00368498 -0.0366368 0.0897335 0.0398893 -0.0359131 -0.0148101 -0.0617031 0.0559455 0.0611 0.129908 0.0577768 0.0356495 -0.025827 0.051792 -0.138186 -0.126249 0.11726 -0.0417793 0.0383074 0.174482 0.0899268 -0.0845876 0.0627268 0.0335613 0.0710886 0.0819298 -0.0651582 0.00537328 0.0288244 -0.179591 -0.0022141 -0.101019 0.114755
7 -0.120852 -0.07815 -0.159775 -0.0357678 0.0851317 -0.0294312 -0.045798 0.0237951 0.027514 0.0142374 -0.0601347 0.00481173 -0.104003 0.0575859 0.0596651 -0.0598087 0.063986 -0.117831 -0.134227 -0.0806513 0.0820865 -0.101237 -0.085972 -0.091889 -0.185926 0.0578886 -0.128092 0.0168903 0.00549455 -0.0947802 -0.137225 0.102852 -0.03425 -0.14175 0.0919161 0.170617 -0.0587323 0.0294977 0.0266881 0.0221086 0.0927062 0.032571 0.138439 -0.0478766 0.0124671 -0.15713 0.0482077 -0.0496694 0.0466401 0.0680418 0.179757 -0.00138585 -0.141725 -0.167375 0.0531475 0.0449606 -0.0526978 -0.0420971 -0.11294 -0.0200018 -0.109105 0.139252 -0.197995 0.0368145 -0.00827221 0.0191303 -0.169472 -0.103415 -0.0698737 0.0171832 0.0345598 0.0459474 0.0346713 0.0929519 -0.0436751 0.0560406 -0.041164 -0.137267 -0.131535 0.00520648 0.060484 -0.0706318 -0.141401 -0.0451132 -0.0473906 -0.084855 -0.0691364 -0.176513 -0.108319 -0.0501082 0.0241785 0.109003 -0.0114597 -0.0847599 -0.00464751 0.0199637 -0.0374112 -0.0189235 -0.0242714 -0.074737 -0.122978 0.130175 0.0249649 0.0817296 0.017899 0.033672 -0.0140103 -0.0255367 0.076758 -0.123411 0.0144403 0.0222181 0.00935484 -0.0804219 0.00853469 -0.0564532 0.0129007 0.0916974 0.137534 0.149915 -0.0171542 -0.0753658 0.0764782 -0.194227 -0.202525 -0.0267088 0.0274056 -0.0769792
8 -0.00416929 -0.0227763 -0.154043 -0.0109993 0.0982248 -0.180912 0.104487 0.0703987 0.0551585 -0.0498093 0.0633392 0.14868 0.0384833 0.00199021 0.0377428 0.0441181 0.141698 -0.0846368 -0.087064 -0.0962914 0.0415103 -0.0343524 0.187245 0.0195868 -0.0891823 -0.0406511 -0.229487 0.169209 -0.07554 0.0927797 0.0839021 0.0170643 -0.0824012 0.0321644 0.0204946 0.0567207 0.0227973 -0.157675 0.124911 -0.129914 -0.0251736 0.0303343 0.0408153 -0.0792268 -0.0683481 -0.0279593 0.134022 0.000348516 -0.0438596 0.0390603 0.155339 0.0544553 -0.11515 0.0305023 -0.0644578 0.133408 -0.105055 0.0835475 -0.0409266 0.125598 0.11249 0.00403284 -0.0657914 -0.0708207 -0.00331299 0.11255 -0.168167 0.0625182 -0.17257 0.0270899 0.0856727 -0.0460602 -0.107599 0.0853054 -0.0344866 0.0113147 0.0199544 0.127259 0.0031332 -0.0712626 0.0987402 -0.15301 -0.169967 0.108741 0.129368 0.0440681 -0.0930796 0.00123593 -0.118782 -0.0477313 -0.0559154 0.00567581 0.0764321 -0.0252085 -0.046666 -0.0241467 -0.00209573 0.0647978 -0.0927019 0.128824 -0.0866696 0.0606457 0.0147768 0.077678 -0.116637 -0.0194852 0.0257184 0.0688309 0.0534247 4.53743e-06 -0.0553053 0.101079 -0.0925108 -0.00845813 0.184828 -0.0230885 0.0572633 -0.01106 -0.0953243 -0.0495193 0.0446309 -0.0882703 0.10452 -0.117981 -0.130999 0.0778986 -0.000349153 -0.0656269
9 -0.121427 -0.0311708 0.0377852 0.0391915 0.0609744 -0.0567018 -0.0143947 0.163295 0.141449 0.100297 0.0840277 0.169486 -0.133956 -0.0548791 -0.116482 -0.166917 0.0801456 -0.230723 -0.183626 -0.0144347 0.0131743 -0.0700346 0.150942 -0.0983432 -0.10256 -0.0343152 -0.103464 0.196929 0.00162098 -0.0444866 0.130378 0.0582822 -0.0518151 0.0992507 0.0843374 -0.0415801 0.016081 -0.0148542 0.0215494 0.0707138 -0.106925 -0.0748693 0.0688669 0.10704 0.00261006 -0.0227255 -0.0802478 0.0267793 0.00613014 -0.0318617 0.0446871 0.0412742 0.0142533 0.0564979 0.0338456 0.027433 0.0452174 -0.0531389 -0.156163 -0.0156057 -0.0194483 0.0391607 0.0325514 -0.0635416 0.0410781 0.0894808 -0.0936756 0.004954 -0.146527 0.0762031 -0.00360683 0.0232637 -0.0820883 -0.0386579 -0.149905 0.158286 0.119142 -0.105177 -0.121323 -0.0020228 0.08971 0.0274617 -0.0696985 -0.0539072 0.15134 0.0130767 0.146915 -0.0188469 -0.0749388 0.109081 0.039505 0.0945413 0.133352 0.123831 -0.197659 -0.0274667 -0.0535572 -0.102683 0.0203197 -0.0156172 -0.0683472 -0.00972444 0.130366 -0.0140589 -0.035779 0.0197447 -0.0228115 0.0111539 0.0217408 0.107211 0.0910888 -0.109333 -0.0825741 -0.00451765 -0.0369015 -0.0892135 0.124401 -0.00748111 0.13899 -0.146171 0.107776 0.0610663 0.047448 0.00604018 -0.151392 0.0282124 0.0184633 0.0241614
10 -0.022537 0.0573037 0.0104543 0.119452 -0.0512144 0.0551371 0.0771528 0.174962 0.0581049 -0.0933155 0.0675908 -0.00202231 -0.124021 0.0794173 -0.0652742 -0.18202 0.104566 -0.166371 -0.0478594 -0.145852 0.163403 0.0849372 0.0588039 0.0709167 -0.0558059 -0.0451406 0.0180167 0.122689 0.105717 0.101222 0.0730051 -0.101844 -0.0523803 0.0573195 -0.05802 -0.101748 0.0778674 0.0983668 -0.060241 -0.143221 -0.128492 0.0531397 -0.0618346 0.034599 -0.0582709 0.0896444 0.119006 -0.0472929 -0.110383 0.12672 0.131153 -0.0944807 -0.118691 -0.148759 0.0268986 -0.00201114 0.106359 -0.0544571 0.0446159 -0.021242 0.120777 -0.0541551 -0.0997035 0.0781974 0.0499094 0.0865653 -0.00287412 0.025959 -0.185773 0.171216 -0.148387 0.0352345 -0.0696209 0.129699 -0.0350834 0.0424822 -0.0476046 0.0707402 -0.0201938 0.0398937 0.0541811 -0.117613 -0.0993469 -0.0799243 0.0687536 0.12963 -0.0557818 -0.156374 -0.063252 0.0598709 -0.0505917 -0.0787092 0.15932 0.0523643 0.0046473 -0.0306114 -0.0390055 -0.0699112 -0.00545358 -0.0563772 0.0982135 0.145013 -0.129343 -0.0976337 0.00359424 -0.127536 -0.0120814 0.0351903 -0.0458939 -0.0868991 -0.12097 -0.0339975 -0.0842273 0.0885474 0.0169548 -0.0634666 -0.0226482 -0.0483368 -0.0785778 0.0463418 -0.00874147 -0.0817927 -0.01993 -0.0916665 -0.112704 0.0837026 0.115332 -0.016636
11 -0.0416659 -0.0944519 -0.0577076 0.00527872 0.0182949 0.0477741 -0.144363 0.100909 0.0338465 0.0184222 -0.0484802 0.092397 -0.129055 0.0615582 -0.12303 -0.0312752 0.0804227 -0.251559 -0.0286435 -0.0429243 0.0175844 0.035283 -0.073655 -0.0150492 0.103015 -0.155312 -0.0973911 0.0658294 0.0151402 0.143236 -0.0217711 -0.194056 0.116434 -0.130304 0.0278169 0.162531 -0.0498225 0.015325 0.0227816 0.0278571 -0.0390791 0.0601623 -0.0403396 -0.0179754 -0.133822 -0.0898147 0.126124 -0.0742626 0.0166232 0.025755 0.0381531 -0.0428195 -0.095026 -0.157829 0.112689 0.108185 -0.00273239 -0.0759191 0.0797286 0.0426055 -0.021638 -0.0135201 -0.158218 0.119745 0.0191278 -0.155847 0.046913 0.117319 -0.0465989 -0.0656995 -0.0364766 0.0470017 -0.00409376 -0.0703261 -0.186957 0.0500073 0.0804362 -0.0915405 0.0429478 0.123599 0.0640336 0.0200525 -0.110742 0.101103 0.0318524 -0.0408889 0.111928 -0.0539296 -0.10704 -0.0663403 -0.0526509 0.0992628 -0.0233952 0.0264134 -0.12745 -0.0868303 -0.109723 0.101453 -0.0147467 0.129389 -0.124349 -0.0561364 0.0294809 0.0402963 0.107202 0.0868623 0.0147824 0.0803587 0.0118386 0.00316059 -0.164746 -0.133625 -0.0903559 -0.110792 0.081671 -0.00295474 -0.102013 0.16401 -0.00397618 0.101459 0.0501175 0.113288 -0.0839092 -0.0175191 -0.109996 0.0577242 -0.00981387 0.125406
12 0.023279 -0.137939 -0.144122 -0.0210775 0.0202205 -0.125268 -0.0749306 -0.0144193 0.0608077 0.0422355 -0.0664159 -0.0308515 0.0736562 -0.0583284 -0.0196041 -0.128936 0.0384732 -0.19689 -0.0741143 -0.0320569 -0.0371843 -0.100647 0.0766248 -0.0702076 -0.0335311 -0.134498 -0.045953 0.0646678 -0.0257448 0.150842 0.00108443 -0.112213 0.0271105 -0.0700343 0.145726 0.0250381 -0.011386 0.0719422 0.151314 -0.0224066 0.00782204 0.160082 -0.0758003 0.0275589 0.0147228 -0.14375 0.0860494 -0.115582 -0.0886822 0.0933675 -0.0702576 0.0767717 -0.0492069 -0.21892 -0.0755725 0.00144736 -0.0704293 -0.0989201 0.0323504 0.000617306 0.142678 0.0497885 0.0583038 0.150589 0.0255903 0.0918495 -0.162154 -0.0418567 -0.0573128 -0.138667 0.05585 0.0157918 0.0942735 -0.00677566 -0.170231 0.00169313 -0.00856134 0.0366764 0.0754881 0.0994305 0.0510936 -0.10183 -0.0962591 -0.133609 0.107718 -0.0391604 0.0779283 -0.0876523 -0.159823 0.0220794 0.137158 -0.0852119 0.0369868 0.0523845 0.0441648 0.0846636 -0.0426187 0.148341 0.0611581 0.0698319 0.0299868 0.0912715 -0.111383 -0.0680964 0.0823763 -0.00629337 0.0101011 0.0346218 -0.0489568 -0.0131047 -0.116328 -0.145309 -0.176184 -0.0667293 -0.0293244 0.137308 -0.0389577 0.010666 0.0825359 0.100289 0.0401331 -0.10054 0.0842856 -0.0483104 0.0643907 -0.0908718 -0.155769 0.0771181
13 0.069171 -0.110079 0.011372 0.0356906 -0.0407818 -0.0901506 0.11222 0.132628 0.153398 0.0110978 0.114939 0.153173 -0.0513818 0.098083 -0.0872913 0.0103834 0.0297442 -0.0979188 -0.112072 0.0196187 0.0416509 -0.120282 -0.108242 0.145276 -0.133655 -0.00498054 -0.026681 0.0827502 -0.0734581 -0.0643562 0.109194 0.0318355 -0.0647026 -0.074081 0.0979571 -0.00172615 0.000435138 0.0972501 0.00321292 -0.0619402 -0.0406495 0.0603975 -0.0974829 -0.107221 -0.0269345 -0.0541706 -0.104312 -0.00886907 0.113097 -0.0586133 0.0151684 0.0693473 0.0371163 0.0419946 0.148131 0.0966745 0.0417191 -0.0893866 -0.0915232 0.0964666 -0.139447 -0.0487338 -0.160274 0.0572477 0.0137175 -0.0997182 -0.0123831 0.104033 -0.0965833 0.00351432 0.00804409 -0.0154652 -0.104372 -0.0953367 -0.12977 -0.0115779 -0.0393033 -0.0515116 0.0381928 0.0174968 -0.120791 -0.121407 -0.0357641 0.0739927 0.0647531 0.0620063 0.0841787 -0.16611 -0.188855 0.0673311 -0.0437163 0.0376237 -0.0391505 0.136891 -0.0352681 -0.165347 0.0828232 0.0780709 -0.123172 0.0724908 -0.115689 0.128557 -0.047948 -0.172505 0.10535 -0.143272 -0.0155808 -0.00206308 -0.0912361 0.0782998 -0.135818 0.00796209 -0.171664 -0.0350972 0.128972 -0.0607946 0.0815901 0.0619341 0.000977874 0.0412081 0.0636473 -0.065078 0.0312735 0.0355361 -0.160941 -0.134062 0.104815 -0.000837355
14 0.0172621 0.0195717 0.0308172 0.145248 0.113622 -0.0572943 -0.175812 0.0817531 0.0126187 0.106322 0.0980698 0.0683662 0.0876897 0.117813 -0.106246 -0.109973 0.0680842 -0.183332 -0.0427906 0.0754398 -0.00527789 0.0623888 0.128427 -0.00663072 -0.142484 -0.0278878 -0.0855714 -0.00379091 -0.161468 0.0895273 0.0166986 -0.160294 -0.189222 -0.0216311 0.0767331 0.0825569 -0.0401298 0.0203842 0.0602867 -0.0562864 -0.0297692 0.0789028 0.0882555 -0.030275 -0.0618547 -0.199441 0.0126135 -0.115435 0.0357083 -0.0721904 -0.0721373 0.130302 -0.0923124 -0.102868 0.129958 -0.0277541 0.144067 -0.153958 -0.0947352 -0.00246765 -0.0519862 -0.0458086 -0.0715341 0.0183203 -0.0691208 -0.0367638 -0.106512 0.0698748 -0.090905 -0.0612155 0.116808 -0.020275 -0.00214742 -0.0472529 0.0584765 0.0720104 -0.128495 0.0399367 -0.112918 0.0579657 -0.0733483 -0.141471 -0.121003 0.137689 -0.0102602 0.0522476 -0.0232947 -0.105426 -0.0175517 0.0391255 -0.0100024 0.0139359 0.135026 0.149413 0.00136695 0.0680435 -0.0964053 -0.0428177 0.00649805 -0.0206918 0.0223375 -0.0705812 -0.0859909 -0.0861087 -0.0232912 -0.140617 -0.0910949 0.0847974 0.0382493 0.0141936 -0.121623 -0.176657 -0.104941 -0.0615414 0.119322 0.0484448 0.0725324 -0.0496416 -0.0673615 0.152712 0.0455128 0.101608 0.0364893 -0.0996142 -0.0238748 -0.123941 0.043843 0.0111762
15 0.0372976 -0.0947827 0.0830847 0.170177 -0.063109 -0.0436199 -0.0941893 -0.0285805 0.180085 -0.137331 0.0049917 0.0841799 0.125993 -0.0430698 -0.0878932 0.0930608 0.059091 -0.194965 -0.158948 -0.0442479 -0.0337328 -0.0702472 0.0238739 -0.087397 -0.105754 -0.0895675 0.00784413 0.140367 0.0223876 -0.00337363 -0.0157388 0.025846 -0.0861876 0.0342007 0.0488693 0.0606642 -0.119064 -0.0906247 0.0687814 -0.0157705 -0.113494 -0.00323819 0.10498 -0.0532864 -0.0769759 -0.0939353 -0.00985404 -0.0475151 -0.0561021 -0.0798189 0.0425105 -0.106893 -0.0018894 -0.0661668 0.0585274 0.0945561 0.0945756 0.0484173 0.0669561 0.16035 -0.031291 0.136624 -0.0193533 -0.0640246 -0.169378 0.0854612 -0.140198 -0.00445797 -0.0347458 -0.0301416 0.0386579 -0.107686 -0.142803 -0.0684412 -0.025688 -0.0381317 0.0122929 -0.0390488 0.068675 0.0399099 0.0613923 -0.0895042 0.059246 0.160988 0.104084 -0.133917 -0.0705692 0.000494506 -0.176512 -0.000684444 -0.0932503 -0.0721901 0.176269 0.0660359 -0.208302 0.0664 0.0762886 -0.0394249 0.0925948 0.00465882 0.0606991 -0.0501715 -0.175162 0.0505891 -0.0551146 0.0203356 -0.10111 -0.0734518 0.072911 0.0423687 -0.131848 0.108509 -0.146231 0.0309542 0.0977593 0.0526246 -0.0648996 -0.0213772 -0.0353262 0.109313 0.0855602 0.000787357 0.044912 -0.115308 -0.117422 -0.089565 -0.0794989 0.0890225
16 -0.121831 -0.0740555 0.128367 -0.0139353 -0.0285649 -0.0313355 -0.108906 -0.000343327 -0.0909142 0.020273 0.120844 -0.0349823 0.0630198 -0.0428773 0.108185 -0.177164 0.0696268 -0.124074 -0.0369571 -0.0179423 0.137165 -0.00774194 0.140675 0.0846277 0.0799407 0.0224806 -0.0445542 0.0910075 -0.142616 0.0677366 0.0853522 -0.0786299 -0.0406106 -0.131645 -0.0116684 0.0593131 -0.16895 -0.0198574 0.126297 -0.0952952 0.0953737 0.143262 0.112772 -0.0870419 0.0165782 -0.0786548 0.101841 -0.132933 0.0125477 0.00503359 0.0729739 -0.138012 -0.0656689 -0.0190403 0.0344592 -0.111008 0.0691163 0.0263169 -0.000986919 0.0999092 -0.0791484 0.0245614 -0.0470272 -0.151465 0.0154443 -0.0622191 -0.0843037 0.0340562 0.0150924 -0.0388102 -0.0257886 -0.0911977 0.0490049 0.0129225 -0.137258 0.110896 -0.0987005 -0.103387 0.0449102 0.0377312 -0.041511 -0.0231601 0.0722077 0.0487032 0.0145802 0.12684 -0.0347875 -0.0450216 -0.0258876 0.0496584 0.0687838 0.0798558 0.0331109 0.166671 -0.199657 -0.0422616 -0.125004 0.0970919 -0.0968433 0.0611386 -0.00408194 -0.0339047 -0.181157 0.0412281 0.169643 0.0693828 0.0438656 0.0664479 -0.00220457 -0.072804 -0.178628 -0.114243 -0.090236 -0.136779 0.146929 0.109503 0.0490597 0.0983313 0.0853935 0.0545855 0.0340283 0.150648 0.0616372 0.00867913 -0.0476808 -0.121166 0.0972678 0.0747935
17 -0.0684089 0.0291651 -0.0563215 0.0652269 0.0716072 0.0299629 0.0504688 -0.0497405 0.152421 -0.0765747 0.137597 0.233861 -0.098826 0.0582491 -0.0622963 -0.143409 0.104397 -0.234434 -0.0661443 -0.0626873 0.0793123 0.0275898 0.179488 0.108278 -0.0956413 -0.0949657 0.05113 -0.0225257 0.0647988 -0.0655877 -0.0387004 0.0254886 0.104424 -0.0796002 0.0779839 0.0116859 -0.0110093 -0.120516 0.075434 -0.0943802 -0.0264435 0.0450982 0.177613 -0.0828901 -0.0960418 -0.166731 0.092412 -0.0943014 0.0447463 -0.0925255 0.0454731 -0.0533501 -0.042306 -0.136191 0.0842509 0.140635 -0.00379398 -0.0284658 0.104935 0.0741287 0.0860739 -0.000924747 -0.00159765 -0.127839 0.0138162 -0.0286241 -0.0832449 -0.00791025 0.0342274 -0.073165 0.058988 0.120651 0.0194852 -0.0193428 -0.134737 0.103958 -0.108106 -0.0977944 -0.0357257 -0.0337229 0.105659 -0.0618773 -0.105318 0.125237 0.0932065 -0.0275264 0.0757752 -0.19047 -0.0421096 0.104026 -0.0340976 0.0687877 0.0524563 0.125402 -0.129555 -0.0169908 0.0613492 -0.0301984 0.0569262 0.0512122 -0.108389 -0.0946455 0.0581888 0.0813497 -0.0468728 -0.00892613 -0.0768195 0.0878552 -0.0627047 -0.0993439 -0.0919729 -0.00449024 -0.120564 0.00121147 0.0426824 0.0103089 -0.0590899 0.0148578 0.0904605 0.0907898 -0.0491236 -0.0175669 -0.10057 -0.0813477 -0.0627795 0.174654 0.0810142 0.129565
18 -0.012239 -0.0594352 0.0610195 0.0785464 0.0923514 -0.0283778 -0.117815 -0.0403922 0.22442 -0.162203 -0.0748131 0.0849907 0.0697924 0.0797054 -0.133441 -0.125968 0.15416 -0.153277 -0.0305035 -0.168691 0.0474858 -0.114644 0.170904 -0.0461678 -0.0554196 0.0626089 0.0224244 0.0488254 -0.117468 -0.0614472 -0.0887256 -0.153373 0.129354 0.103171 -0.0819411 -0.0787416 0.0563085 -0.0547435 0.162073 0.0281622 0.0116353 0.047909 0.104364 -0.0572556 0.0524896 -0.049491 -0.0146652 -0.0600523 -0.0355851 -0.000596011 0.023758 -0.0298601 0.106661 -0.154576 0.0482122 0.0622649 0.0367427 0.0805117 -0.122331 -0.0987316 0.0206624 0.0447531 0.00942682 -0.0395337 -0.114555 -0.0595072 -0.207645 -0.0831627 0.0114849 -0.0532035 -0.0897759 0.132893 -0.0469077 0.030595 -0.119871 -0.0367151 -0.0562401 -0.0813218 -0.0220975 -0.117332 0.162891 0.0225259 -0.124774 0.030035 0.0770049 0.0377001 -0.0366471 -0.0733182 -0.158698 0.120193 -0.0186507 -0.039916 0.0617307 -0.0819173 -0.17355 -0.0726046 0.0200903 0.0439778 -0.111972 -0.00978358 7.11563e-05 0.0308276 -0.139193 -0.0753204 0.0747144 0.053948 -0.0877292 0.0686208 -0.0094596 -0.0302618 -0.0533464 -0.0303688 -0.0134261 -0.0840226 -0.026883 0.0146571 -0.054859 -0.101898 0.164119 -0.0280294 -0.0529949 0.0853044 -0.010266 0.0514082 -0.216625 0.0706498 -0.0286571 0.0123943
19 -0.081759 -0.10181 -0.0433655 0.179532 0.150388 0.0425498 0.0497059 0.0186639 0.167147 0.0243658 -0.0408999 0.0796008 0.0841225 -0.0949923 -0.0516152 -0.151751 -0.00128536 -0.0632626 -0.21337 0.0189702 0.125807 -0.00883005 0.131108 -0.0541614 -0.171538 0.012051 -0.135539 -0.0159313 -0.0609561 -0.0806139 0.141821 -0.167632 -0.092642 0.050751 -0.113444 -0.0525966 -0.0409084 -0.010496 0.105034 0.106116 0.0463409 -0.0916984 -0.0518768 -0.0808726 -0.160394 0.0276023 0.085562 0.0754585 0.0580903 0.0161636 0.110691 -0.043507 0.0570551 0.00669056 0.0160688 0.0779092 0.0300508 0.112835 -0.175777 0.077668 -0.0360921 0.084195 -0.166078 0.0131555 0.0168884 0.0936812 -0.111218 -0.0339082 0.000512337 0.0482212 0.147854 0.11492 -0.11378 -0.0783214 -0.0914911 0.0658076 -0.0355921 -0.0101913 -0.0132896 -0.00163611 -0.0151503 -0.0429958 0.0294721 -0.00026663 -0.111674 0.026565 -0.0155218 -0.0190487 -0.173553 -0.0632421 0.136135 0.115255 0.0487257 0.0325711 0.032062 -0.0927541 -0.0290424 0.0912886 -0.114111 -0.0931197 -0.0501225 -0.0717905 0.108744 0.0387791 -0.0554092 0.0744629 0.041642 -0.0898373 0.00269224 -0.0445454 0.0373825 0.0934413 -0.0382244 -0.0571374 0.132241 0.0445188 -0.0515395 0.152048 0.0606832 0.0814229 0.0691603 -0.0447539 0.0429094 -0.189933 -0.00242706 0.0837574 0.117515 0.17082
20 0.0471515 -0.0350582 -0.0148092 0.157366 0.0218785 -0.0540237 -0.0832263 0.00669809 0.0866271 0.0969414 0.0377585 0.0885902 0.0902752 -0.0719115 -0.150949 -0.0397299 0.0178496 0.0616484 -0.173077 -0.114863 0.0488869 -0.106286 0.0207213 -0.0697211 -0.0616015 -0.0982073 -0.0235263 -0.0416128 -0.0199202 0.100711 -0.0429219 -0.0714397 0.0620307 -0.00598028 0.012208 0.101063 -0.0831446 -0.146605 0.0979242 0.0799868 -0.10521 -0.0529587 -0.00253737 0.0604964 -0.0830898 -0.136116 0.0978893 -0.0964198 0.0762396 0.047905 0.0788049 -0.0115484 -0.129012 -0.144118 0.0928874 -0.0588571 -0.0189276 0.0529815 -0.00117778 -0.106906 0.0519925 0.0156933 0.00965062 -0.0717366 -0.0263547 -0.0689133 0.0248497 0.107138 -0.164922 -0.108118 0.123758 -0.104665 -0.0647465 0.138592 -0.149074 -0.0759404 0.133579 -0.144848 0.0963038 0.0577009 -0.0761549 0.0901691 -0.0433626 0.11686 0.108664 0.00342177 -0.0705611 -0.0901403 -0.186897 -0.0317576 0.0136227 -0.0342961 0.09842 0.0836368 0.00453535 -0.124747 0.131327 0.0375831 -0.0215764 0.058204 -0.0742082 0.0935754 0.0739015 -0.163 0.0714856 -0.0278926 -0.0872624 -0.0915547 -0.0161929 -0.0810808 -0.162793 0.0800033 -0.0593988 -0.018194 0.0977695 0.0322165 -0.14231 -0.0745941 -0.106898 -0.102723 0.0766084 -0.0117564 -0.123924 -0.19127 -0.0650456 -0.0974578 -0.00526301 0.129571
21 -0.106027 -0.10539 -0.0629977 -0.0195872 -0.108842 -0.138681 0.00202884 -0.0394052 0.0788527 0.0462437 -0.0327342 0.00758808 2.63214e-05 0.0271492 -0.0569696 0.00821683 -0.00588536 -0.197821 -0.212527 0.0460429 0.188797 0.046174 0.0311451 0.0297649 0.0887274 0.00210097 -0.0782155 0.0979654 -0.0191717 0.0515022 0.0582945 -0.0778145 0.0117431 -0.023404 -0.00899611 -0.0904623 -0.224874 -0.0973623 0.0987974 0.151155 -0.0852548 -0.0237349 0.0248287 0.0855602 -0.00992598 -0.125268 0.139548 0.112873 -0.148527 -0.00937453 -0.00798985 0.0678465 -0.0891844 0.014493 -0.0416532 0.0872703 -0.0260356 -0.066029 -0.0136736 0.0385585 0.00763224 0.107399 -0.0276412 -0.0392052 0.0214807 -0.161156 -0.191564 0.0179142 -0.0260023 0.101887 0.0222366 0.141703 -0.137423 -0.110669 -0.0810866 -0.0873828 0.0606029 -0.0638507 -0.0274321 -0.00561769 0.172397 -0.00973863 -0.056321 0.0967413 0.165148 -0.00756905 0.0369785 -0.111822 -0.127012 -0.151799 0.0944114 0.00130425 0.201539 0.0571878 -0.023041 -0.0330657 0.031326 0.141259 -0.0579347 0.0113016 -0.107013 0.0795591 -0.0274968 0.0855568 -0.0594702 -0.0158744 -0.148029 0.134941 -0.0876693 -0.197224 -0.00139383 -0.109944 -0.0929073 0.0939234 -0.0188661 0.0527388 0.078149 -0.0339472 0.0795483 -0.0206929 0.0175766 -0.0113595 -0.0686777 -0.0943363 -0.0523959 -0.0403225 -0.0400482 0.032438
22 -0.115096 -0.173636 0.0197513 0.0912448 -0.00909301 0.0153542 -0.0741543 0.0962911 -0.00642084 -0.156807 0.117552 0.0130815 0.0859725 -0.0912397 0.0131262 -0.0880984 0.0824221 -0.0769638 -0.0252405 0.0325447 0.0064051 -0.185729 0.0982164 -0.0473032 0.0599378 -0.0137312 -0.189874 -0.0966863 -0.0931579 -0.114929 0.0373534 -0.110113 0.0128729 -0.0327874 0.0980626 0.241165 -0.0914178 -0.122938 0.0146954 -0.024866 -0.0469 -0.0721214 0.0488187 -0.0199515 -0.00134237 0.0653893 0.0247084 0.0281051 0.0343774 -0.011863 -0.0427468 -0.0542548 0.00402437 -0.166833 -0.0675053 0.165968 0.145077 0.0418833 0.029764 -0.0338005 0.0736654 -0.0759153 -0.0272736 0.0109606 -0.14348 0.0379529 -0.0176157 -0.00800171 -0.0498373 -0.0574241 -0.0569676 0.0645538 0.0714609 0.0394001 -0.0204525 0.0512227 0.0576883 -0.143017 0.152678 -0.0786317 -0.066687 -0.183553 -0.0419435 0.0436743 0.0013915 0.0993313 -0.069453 -0.0470396 -0.164939 -0.109764 0.103278 -0.0396743 0.0504476 0.119446 0.0484092 -0.0982066 0.0156844 0.132194 0.0147253 0.0273656 -0.169617 0.0061184 -0.0172489 -0.0976481 -0.143694 0.0813511 -0.13734 0.0825833 0.000197777 -0.053822 0.0333166 0.0925644 -0.0659226 0.134498 0.138495 -0.0411489 0.0328931 0.0975917 -0.00869732 0.0496727 0.0886382 0.00543999 -0.141888 -0.150913 -0.102528 -0.139475 -0.0691149 0.102838
23 0.0208642 -0.0345348 0.00161921 -0.000554574 0.0399003 -0.0175503 0.0302699 0.0184415 -0.0786042 -0.130703 0.0351982 0.138353 -0.0619441 -0.0815229 -0.0559212 0.00959429 0.121391 -0.0823387 -0.160974 -0.0813306 0.0831719 -0.0784834 -0.0590497 -0.0896215 -0.125596 -0.151302 -0.213107 0.0675959 0.070087 -0.0641511 0.0163471 -0.14384 0.0927445 -0.0252494 -0.04549 0.126835 0.0614251 -0.0793164 0.144114 0.00768743 0.0603896 -0.0167938 0.0655459 0.0107692 -0.0270092 0.0276843 0.158242 0.0310389 -0.0274437 -0.136046 -0.0301519 0.00818097 0.115118 -0.147277 -0.144177 -0.0252565 -0.0264433 -0.211885 -0.0708552 0.013822 0.0544356 -0.0804232 -0.109167 -0.0294789 0.097529 0.0235824 -0.0508421 -0.0958635 -0.152405 0.140557 -0.0974508 -0.0828583 -0.135316 0.117846 0.00209911 0.0439844 0.0543285 -0.00778769 0.0539636 -0.000523097 0.102715 0.0329981 -0.0370875 0.0304188 -0.0554324 0.107752 -0.00823984 -0.198217 -0.0460657 -0.153098 0.136356 -0.0327642 0.121003 0.0665162 -0.0569138 0.0209014 0.126818 -0.100646 -0.0176967 -0.0776727 -0.181397 0.151447 -0.0101212 -0.0826182 0.133981 -0.13594 -0.00656381 0.0160496 0.0291552 0.0166 0.092337 0.10097 -0.176612 -0.0779566 -0.0167866 -0.0840844 -0.0433797 -0.021945 -0.0333796 0.0111835 0.039738 0.100582 0.0552227 -0.0238649 -0.106911 -0.0651488 0.0922457 -0.00269166
24 0.0179465 -0.0942859 0.0138015 0.0802705 0.114871 0.0718865 -0.0934799 0.0264413 0.0475013 -0.0573519 0.11186 0.143303 0.00998616 0.0523883 -0.00279547 -0.103771 0.203952 -0.173046 -0.0170718 -0.0685128 0.182116 -0.0735992 0.148145 0.00125612 -0.0274664 -0.0597025 -0.154582 0.0319818 -0.0768499 0.0873328 -0.0853872 -0.222701 -0.0908326 -0.0504067 0.0119951 0.0744646 -0.0614721 0.0709793 -0.0212036 -0.0456853 0.0100032 0.0810511 0.180875 0.0378423 -0.0613915 -0.0894098 0.0110339 -0.0141134 0.128395 -0.0321307 0.0935418 0.0111419 0.0673708 -0.113511 0.0859952 0.00513569 0.0835658 -0.105852 -0.108307 -0.0174838 -0.011622 0.0377117 -0.0559728 -0.0626595 0.117203 -0.0536907 -0.0880355 0.041891 -0.0432321 0.0849659 -0.0633347 0.0203869 -0.0577154 0.0137635 -0.0747738 0.0687848 0.113117 -0.0942149 0.0987627 -0.0896783 0.0356269 0.00297513 -0.070719 -0.0806945 0.0322402 0.0693039 -0.09955 -0.0294942 -0.147776 -0.0523368 0.0786941 0.100698 0.190932 0.029807 -0.151029 0.0466048 0.0312676 0.12228 -0.121139 0.0246361 -0.0911247 0.146897 -0.0971598 -0.11025 0.138506 -0.0136295 -0.0792662 -0.0618199 0.101247 -0.0963677 -0.103754 -0.101642 -0.220127 0.00968621 0.0241512 -0.0441501 0.00792057 0.0231672 0.0469585 0.116265 -0.0277033 0.0354824 -0.0576404 -0.127361 -0.0767744 0.0148247 -0.0479907 0.144303
25 -0.081627 -0.0852094 0.0472803 0.00975388 0.0930041 -0.0234414 -0.00928552 0.00640123 0.205275 -0.0308766 0.0419056 0.0860692 -0.0281451 -0.0481559 -0.0652627 -0.044614 -0.0636465 -0.18452 -0.0928647 0.0836748 0.111341 -0.110024 -0.0201049 0.0741693 -0.120066 0.0222112 -0.0964675 0.13851 -0.0280401 0.14583 0.0537274 -0.152864 0.123408 0.0436866 -0.119574 -0.00241914 -0.169012 0.106711 -0.0347105 -0.0194053 0.0682937 -0.00313859 -0.0764337 0.0381394 -0.0721972 0.0629257 -0.0853417 -0.0955979 -0.0187791 -0.0830264 -0.0632515 0.0920894 0.105292 0.0261667 0.132535 0.0945371 0.100802 -0.129143 -0.0701217 -0.0215225 -0.00851119 0.0352651 -0.12698 0.0267793 0.0419842 0.00746744 -0.0717693 0.0767471 -0.0892731 0.0173196 -0.155448 0.00815431 0.0726166 0.0628878 0.060106 -0.0150513 0.135343 0.00424892 -0.165347 -0.158024 0.0145175 0.087535 -0.163253 0.0439728 0.051623 0.036284 0.042653 -0.168632 -0.179237 -0.0585161 0.0754765 -0.0324838 0.0403104 0.00458535 0.00766057 -0.0872782 0.0690454 0.0306194 0.102264 0.092785 -0.064769 0.0729329 0.0477598 -0.041843 -0.0459343 0.0903127 0.0158251 0.139756 0.0283305 -0.141532 -0.179345 0.0748907 -0.154181 0.00947823 0.121646 -0.0810204 -0.124923 0.183205 -0.0627396 0.0485386 0.0710237 0.0621478 -0.0511625 -0.142598 0.00630971 0.000147317 -0.0225131 0.0811715
26 0.0441698 -0.121859 0.0628644 0.0243725 0.114229 0.0747326 -0.0234929 0.0963822 0.066275 -0.0271293 0.0614145 0.160887 -0.0871576 -0.0500256 -0.0937906 0.0205544 0.205315 -0.206027 -0.0102001 0.0582326 0.0353373 -0.00969006 0.162476 0.133687 0.0454843 -0.0780714 -0.144512 -0.0616736 0.0581833 -0.0510056 -0.101711 -0.254201 -0.035333 0.04155 -0.0262902 0.165363 -0.00106186 0.0942918 0.107027 -0.0634439 -0.13189 0.0881225 0.0678222 0.0996229 -0.0599223 0.0602312 0.093546 -0.0427722 -0.0806355 0.06599 0.136834 0.0799448 -0.040658 -0.126163 0.103673 0.0237723 0.0669951 -0.0870138 0.0386794 0.038076 -0.0802759 -0.0572865 -0.149863 -0.114207 0.0583352 -0.0754414 -0.0381864 -0.0766654 -0.111075 0.109345 -0.137776 -0.0279842 -0.139358 -0.0873253 -0.00105591 -0.0498215 -0.0801078 0.082457 -0.0376951 -0.0931873 0.120741 -0.00974334 -0.043379 0.110385 -0.0869158 0.119704 0.0308003 -0.115292 -0.0548515 0.0697515 0.0578232 -0.000422739 -0.02597 -0.0640098 -0.14105 -0.0379783 -0.0218509 -0.0465624 -0.0198916 0.00963942 -0.11618 0.12804 -0.0976765 0.0338315 0.0245377 -0.146686 -0.0435516 0.0318344 0.0428764 -0.0186057 0.0496494 -0.141702 -0.0821534 0.0109593 -0.0408161 0.0262362 0.012939 0.132895 -0.146028 -0.00561356 -0.118569 0.0351255 -0.0890587 -0.114296 -0.0142537 -0.122102 -0.0410955 0.0105989
27 0.0284779 -0.11491 -0.127249 0.0240742 -0.0405202 -0.101139 -0.0301427 0.106467 0.116401 -0.0911865 -0.061948 0.122033 0.00556076 0.0575905 -0.03286 0.00464423 0.139754 0.0145457 0.0250644 0.0147713 0.105914 0.077016 0.107141 -0.000397543 0.0309887 -0.0907476 -0.122397 0.134118 0.0877777 -0.0531768 -0.0699566 0.0216343 0.0950807 -0.0153859 -0.0131736 0.0971514 -0.126896 0.0777417 -0.022978 -0.0432948 -0.10628 -0.0987956 -0.0789464 0.0154942 0.0662887 -0.0362339 0.122274 0.0714774 0.0735472 -0.151782 -0.00332045 0.070858 0.147291 -0.16563 -0.148508 -0.0599404 0.136172 -0.142809 0.0181605 0.102653 -0.0624477 0.147466 0.0251197 -0.0521523 -0.0614727 -0.0896149 -0.15583 0.15413 -0.0794682 -0.0244605 -0.0263635 -0.0302635 -0.100625 0.048629 0.0618271 0.0612605 -0.0634405 -0.139925 -0.0258408 -0.113891 -0.116045 0.115578 -0.0428886 0.00639553 0.087466 0.0620065 -0.0944516 -0.205916 -0.0651112 0.0358092 0.0920867 0.132396 0.153312 -0.0367481 -0.118141 -0.011792 0.0849293 -0.0110747 -0.0807421 -0.041148 -0.00411043 0.0613769 -0.00760231 -0.0597332 -0.0436701 0.0899151 -0.0795997 -0.0477663 -0.126948 -0.0753824 0.0580782 -0.0431098 -0.212 0.00747946 -0.0263529 -0.0249027 -0.021276 -0.071175 0.173981 0.0408925 0.00997408 0.0301276 -0.12736 -0.0771942 -0.0205211 -0.152583 -0.125819 0.078814
28 -0.0851363 0.000516943 -0.0473786 0.0117726 0.0131957 0.10907 0.0891637 0.00498637 -0.0179164 -0.0770552 0.0958094 0.0749131 -0.121209 -0.0495272 -0.0346265 -0.0730067 0.0105012 0.0161978 -0.116441 -0.0276772 0.123709 -0.0367806 0.0563686 -0.00437685 -0.0602621 -0.153778 -0.182213 0.0872102 -0.0465483 0.100916 0.021947 -0.179106 -0.0162719 -0.136626 -0.0222675 0.116873 -0.187132 -0.0200016 0.0535345 -0.0217247 0.0362876 0.0514487 0.0464116 0.0205516 -0.0540024 -0.116356 0.0612829 -0.0253491 -0.0878563 -0.0616097 0.147796 -0.0494095 -0.0205168 -0.103865 0.0979826 0.107105 -0.0154819 0.0151996 -0.0312426 0.120611 0.000120559 0.106632 0.0458894 -0.0255451 -0.10475 0.0574189 -0.0502426 -0.0774014 -0.163799 -0.0488615 0.0527617 -0.0109037 0.0395007 0.194445 -0.0758888 0.000923731 0.0392295 0.0182901 0.0404409 0.0442926 -0.0111463 -0.15396 -0.197255 -0.0816712 -0.017082 0.0901774 0.117067 -0.0989062 -0.00707821 -0.0291518 0.0836072 0.164768 -0.0386485 0.0665513 -0.113358 -0.15156 -0.126071 -0.0167326 -0.16305 -0.0874348 -0.129493 0.0947956 -0.0504917 -0.0556749 0.0818482 -0.155407 0.0535783 -0.100699 -0.0843846 -0.193814 -0.0345119 0.0615473 0.00877116 0.063664 0.196681 0.0497356 0.0272137 0.0754102 0.0602347 -0.037037 0.0600889 -0.0306637 -0.0995769 0.0343142 -0.099505 -0.175153 -0.0283483 0.0890624
29 -0.166036 -0.110692 0.0390881 0.0111879 -0.117705 0.00721053 -0.0215466 0.190711 -0.0421562 -0.058382 0.126324 -0.0247314 0.149121 -0.120801 -0.0109826 -0.00209841 0.0729681 -0.104624 0.00781072 -0.223079 0.0575305 0.0530065 0.0270478 0.023388 -0.131309 -0.126605 0.0584054 0.0370052 -0.160335 -0.00265282 -0.0929482 -0.145541 0.0408043 0.116952 0.0519289 0.0832851 -0.0404885 0.0239842 0.0335949 0.0499272 0.127341 -0.0622679 -0.00351359 0.0483375 0.0159493 -0.0286584 0.147897 0.083824 0.127843 0.0319216 -0.0298197 -0.0372901 -0.0874171 -0.116744 -0.0551573 -0.0900238 0.0352172 -0.0304332 -0.0300606 -0.0622917 -0.0510772 0.117081 -0.149705 0.0630606 0.000733474 0.0689655 -0.135202 0.0117716 0.0461429 0.0990802 -0.0484473 0.0621252 0.0967064 0.157463 -0.0118699 0.0545861 0.0528197 0.0548696 0.0228131 0.000377124 -0.0559913 -0.0497108 -0.200876 -0.0450628 -0.0619183 0.00690978 0.0643813 -0.0250991 0.0247956 -0.179791 0.0178887 0.100742 0.055144 -0.0174975 -0.115647 -0.0472568 0.00448766 -0.0681347 -0.132492 0.109009 -0.0724103 -0.0591664 -0.175494 -0.0717967 -0.106303 0.0386938 0.0875019 0.0793359 0.0273623 -0.10309 -0.0367335 -0.0995108 -0.164609 0.0464363 0.156842 0.0319068 -0.109925 0.0688879 -0.0386817 0.138537 -0.0719038 0.0727333 -0.0997698 -0.139948 -0.124633 0.0103074 -0.126682 0.029615
30 0.0303882 0.023587 0.0306279 0.129107 -0.075094 -0.0250517 -0.0153063 0.138923 0.0252579 -0.110224 0.19024 -0.0309394 0.0344051 0.0375364 -0.0908924 0.00534029 0.0669298 -0.0822196 -0.195246 -0.109957 0.0696005 -0.170456 0.0397954 -0.0257499 0.0904061 -0.133767 -0.137738 -0.0238585 0.112827 0.0897844 0.0299499 0.0131783 -0.0886853 -0.0785706 -0.141629 0.112803 -0.174659 -0.127649 -0.115032 0.0807031 0.00808864 -0.028949 0.0976175 0.0794723 -0.0122757 -0.141618 0.0243453 0.0643218 -0.0432323 -0.0787374 -0.0564009 0.0264704 -0.115605 0.0235761 -0.0440135 -0.108977 -0.0328834 -0.0827839 -0.0114456 -0.0613808 -0.109227 0.129864 -0.0548958 0.0892536 0.0102207 -0.0361476 -0.0686298 -0.0843554 -0.217074 0.0640179 0.0582766 0.0988228 -0.135363 -0.0517079 0.0154164 0.0602411 0.0570864 -0.145144 0.106959 -0.0365638 -0.0158292 -0.0930056 -0.0321653 -0.0562388 0.0551392 0.0684609 -0.0619291 -0.0460304 -0.103501 0.0132112 0.0423189 -0.0364916 0.137668 -0.064819 -0.0581077 -0.133136 0.123463 0.0517092 -0.0131106 -0.0398051 -0.0126464 -0.0211969 -0.200044 0.105811 -0.0293165 -0.0649083 0.0351856 -0.113662 -0.0705457 -0.168276 0.104641 0.0816399 -0.125848 0.0114543 -0.101924 -0.0524304 -0.00754151 -0.0178607 0.0391666 0.0683692 0.107692 -0.0725267 -0.0967029 -0.0738574 -0.113985 -0.0816227 0.113358 0.129465
31 -0.0934627 0.0741158 0.107926 -0.071873 0.0303078 -0.0591321 -0.114342 0.0621307 -0.00598964 0.0431251 0.160636 -0.00929575 -0.0112319 -0.000364008 0.0240217 -0.143136 0.0561535 0.0321963 -0.0737304 0.0522681 0.174061 0.0613029 0.051393 0.0594182 -0.154094 0.0305097 -0.0405989 0.145009 0.112597 -0.0309683 0.0955775 0.0186306 0.0208102 0.0188431 0.0861939 0.0239353 0.0434274 -0.0399706 0.00769101 0.0679239 0.0700876 -0.128157 0.0121603 0.0681308 0.0126493 -0.179176 0.0888211 0.0143742 -0.0482123 -0.0102282 0.174252 -0.004513 0.0935542 -0.0090946 -0.000293296 0.14234 0.0579543 0.0555641 -0.128268 0.122021 0.0156438 0.141555 0.0551451 -0.0377409 -0.064112 0.0750529 -0.103665 -0.0587456 -0.00666397 0.0211827 -0.0614135 0.0809506 -0.0827594 -0.0490649 -0.243805 -0.0472099 -0.143128 0.0694314 0.0219162 -0.0534151 -0.0810919 -0.0795201 -0.20032 -0.054787 -0.0166373 0.0395527 0.0797186 -0.0377934 -0.15177 -0.0352473 -0.00120527 0.10022 0.0339052 0.125757 -0.129059 -0.207826 0.0841835 0.109377 -0.139928 0.0582187 -0.061538 -0.0667125 -0.16702 0.0567886 -0.131097 -0.133234 -0.100021 0.0209754 -0.0679055 -0.0784981 -0.0897183 -0.0205273 -0.0616472 -0.036904 0.128964 0.0931336 -0.0958259 -0.00678621 -0.0577654 -0.0916508 -0.048624 0.0906307 -0.0169143 -0.07529 -0.148065 0.0177438 -0.00080275 0.142749
32 0.0746167 -0.168946 0.094295 -0.0212343 0.0106145 0.107884 -0.137283 0.191698 -0.0393967 0.0638169 0.0810979 0.118538 -0.0588688 -0.00865175 -0.130199 -0.0556492 -0.0331053 -0.0685553 -0.1969 -0.11818 0.117884 -0.0303948 0.0966404 0.0733766 0.0823189 -0.0695065 -0.0185236 0.134609 -0.0197515 0.136634 -0.0239908 -0.00655004 -0.0217482 -0.0571592 -0.0878324 0.164325 -0.0849284 0.0504132 0.0661132 0.0235118 0.105172 0.104064 -0.0686919 0.0469775 -0.0874146 0.0709394 -0.0878862 0.0159899 -0.000774834 0.123949 0.0524898 0.0137235 0.0840288 -0.0138343 0.0465706 0.107548 0.0162719 0.037783 -0.0812008 0.0858902 -0.139054 -0.101837 -0.0392022 0.0361542 -0.0291372 -0.0207951 0.0138286 -0.0827251 -0.209621 0.165947 -0.0156871 0.0335757 -0.102895 0.024378 -0.0347514 0.15153 -0.0457476 0.0704153 -0.00399349 -0.0694464 0.0624119 -0.0905577 -0.026426 -0.130945 0.014131 -0.0353948 0.0718882 -0.122217 -0.0918062 0.0274738 0.0318077 0.131835 0.168608 0.00668414 -0.119137 -0.166682 -0.0410911 -0.066756 -0.0414729 0.00885889 -0.106225 -0.0529496 -0.0974959 -0.167943 0.0542698 -0.0626681 -0.0851765 -0.0766617 -0.109002 -0.118167 0.000212927 0.10578 -0.047271 -0.0338556 0.0736859 -0.118474 0.0838478 -0.0727097 0.00648611 -0.136821 0.0606149 -0.13331 -0.072954 -0.16224 0.0107804 -0.0547042 0.00152981 0.0811292
33 -0.174715 -0.0301313 0.0208802 0.15863 0.0212263 0.0535565 0.0552624 0.170924 0.120718 0.10307 -0.0547225 0.0123127 -0.0527335 -0.0522939 -0.147576 -0.194562 -0.0343504 -0.0198659 -0.141379 -0.0480176 -0.046166 -0.113996 -0.0443834 0.0357928 0.0243739 0.115179 -0.0554477 -0.0620985 -0.0476634 0.191534 -0.104495 -0.142664 0.0795764 -0.00517278 0.0491652 -0.0473525 -0.0444183 -0.101938 0.0194641 0.106312 -0.000838578 0.0147367 0.0182421 0.0688933 -0.0118177 -0.100478 -0.0101423 -0.142708 0.129046 -0.0384051 0.0876914 0.0309658 -0.114787 -0.0733793 0.138063 -0.0513308 0.111211 -0.0140548 -0.0700662 0.121311 -0.0968879 -0.0919621 -0.102953 0.10705 0.0144053 -0.118622 -0.043236 -0.00887991 -0.113538 0.0610629 -0.152087 -0.00602565 -0.11896 0.156035 -0.20494 -0.0326892 0.0547728 -0.0285769 0.111696 0.0292918 -0.0839606 0.0463402 0.0879238 0.101959 0.0861867 -0.0513779 0.053336 -0.104364 -0.0680363 -0.0149977 -0.0561633 0.153254 0.159873 -0.00136508 -0.0237876 -0.101003 0.00928076 0.0713597 -0.062835 -0.0704852 -0.0481921 -0.0363547 -0.112312 0.0207647 0.0731538 -0.104044 -0.0325268 0.0631773 0.0219912 -0.119753 -0.0509752 0.10425 -0.0372288 0.0367132 0.0932213 0.114733 0.0450935 0.0732428 0.136604 -0.14031 0.0132262 0.0913325 -0.011789 -0.164283 -0.0812904 0.0602872 -0.0112431 0.00998854
34 -0.133668 -0.168848 0.0959557 0.0544566 -0.0783976 -0.134869 -0.132882 0.0560373 -0.00796935 0.0353796 0.018122 0.150587 -0.131641 -0.0505558 0.039596 0.0171202 0.0105192 0.0172195 -0.218758 -0.0373672 0.0570969 0.0300883 0.154496 -0.0202959 -0.0788215 0.00297954 0.0167148 0.023624 -0.0652598 -0.122398 0.0709423 -0.132096 0.155518 0.0311804 -0.00641624 0.0117816 0.0429979 0.035682 -0.0425073 0.0766999 0.106434 0.177756 -0.03579 -0.00383711 -0.12928 -0.0172629 -0.0646258 -0.11164 0.0430883 -0.134901 0.0558863 0.0196865 0.0654624 -0.0923545 -0.0593742 -0.1158 -0.0336854 0.00880874 0.119383 -0.0489125 -0.0807511 0.0916529 0.0801158 -0.00367629 -0.130223 0.132422 -0.0218211 0.0308169 -0.0349889 -0.0229665 -0.0386203 0.0651385 -0.0332641 0.1738 -0.1924 0.101657 -0.0945959 -0.0264981 0.0709357 0.0357376 0.133424 -0.0275081 -0.0840296 -0.0347796 0.106965 0.114501 0.0550956 0.0180535 -0.0453982 -0.0723635 0.109334 0.0403893 0.275439 0.0192606 -0.0117484 0.0575286 -0.118674 0.0631378 -0.0639762 0.107946 0.0881444 0.144157 -0.0944124 0.0286679 0.0322082 -0.0109663 -0.0215257 -0.0998039 0.0924573 -0.0678402 -0.0620201 -0.0537476 -0.229532 0.0407461 0.0232883 -0.0287097 0.0110513 0.104396 -0.0144794 0.0184424 -0.133254 -0.0529145 -0.0268222 -0.0975059 -0.111767 -0.0702338 -0.0546949 -0.0377458
35 0.0602468 -0.0519289 -0.100669 0.00763735 -0.0481577 0.01968 -0.0987415 0.0303456 0.0380041 0.0144821 -0.00745622 0.0958213 0.106833 -0.02058 -0.127707 -0.00778896 0.176273 -0.144608 -0.154401 -0.0868328 0.015321 -0.101489 -0.0836324 -0.0191014 -0.0194086 0.0124983 -0.0442693 0.0113133 0.0643211 0.00618714 -0.0704483 0.0577629 -0.0588562 -0.137127 0.118725 0.123132 0.0954757 0.0697093 -0.00559488 0.0934554 -0.0602745 0.139629 0.153337 0.0441538 -0.142868 -0.0392908 -0.116966 0.036379 -0.0982684 -0.166335 -0.0551849 -0.0375197 -0.0850937 -0.0973565 0.0526278 -0.0840038 0.0203872 -0.0647052 0.0755964 0.0419719 0.149363 -0.0986903 0.0309946 -0.135258 -0.0608483 -0.0227266 0.110462 -0.099503 0.0777228 -0.0826505 0.0568167 -0.0871414 -0.153153 0.131746 -0.163463 0.141369 0.0531784 -0.0387982 -0.0236572 -0.0473466 -0.00504907 -0.053625 -0.0965575 0.0231008 0.127908 -0.0907256 0.109974 -0.0776176 -0.148457 0.0120141 -0.0815756 -0.0234556 0.0768276 0.0294053 -0.0548694 -0.163097 -0.107395 0.0996808 0.0291504 0.0658069 -0.100612 0.125667 -0.13726 0.0633713 -0.0882147 -0.0856895 -0.0476788 -0.04962 0.00330462 0.0656337 -0.111277 0.0153883 -0.121567 -0.106494 -0.110074 -0.101593 0.105654 0.0865973 -0.0427654 -0.00884689 0.160662 -0.0742594 -0.0130559 -0.133709 -0.020711 0.0690426 -0.110923 0.0949056
36 -0.161521 0.0259051 -0.0937285 -0.104432 -0.0935446 -0.160425 -0.13079 0.109098 0.150976 -0.0320958 -0.0779455 0.0529115 -0.0738759 -0.0187652 -0.0724906 -0.100334 0.0138733 0.0198959 -0.0251543 0.0380026 0.0713715 -0.148721 0.181276 -0.066222 0.0203089 -0.00693129 -0.147902 -0.0444677 -0.149116 -0.0464543 0.155093 0.0333863 -0.0850317 -0.109039 0.0267467 0.0894917 -0.0946747 -0.0261786 0.19261 -0.127042 -0.0115807 0.0566868 0.118541 0.118449 -0.00731927 -0.11254 0.0900548 -0.0963026 0.101478 0.0119944 -0.0599067 0.0458775 0.081589 -0.113822 -0.029447 0.0224483 0.141318 0.0567411 -0.0652047 -0.0994582 -0.0613839 0.0702686 -0.142462 0.0486281 0.108528 -0.122721 -0.114626 -0.0193932 -0.0513697 0.130522 -0.12149 0.0294039 0.0914092 -0.000559123 0.0344203 0.157585 0.0295191 0.0256787 0.0480373 0.0576536 -0.0398489 0.0638438 -0.0240464 -0.0415968 0.110788 -0.0206123 0.144432 -0.0976284 -0.114042 -0.0615979 -0.0103764 0.0881077 -0.026997 -0.0771743 -0.0816373 -0.0260291 -0.105275 -0.0193754 -0.132797 0.0191003 -0.0275928 -0.092408 -0.0742764 -0.0769254 0.0344362 -0.0437309 0.0268062 0.012089 0.0850957 -0.185914 -0.0186076 -0.116568 -0.150761 -0.0743493 0.176048 0.0455009 0.0637043 0.0603615 0.0665852 0.10301 -0.0611469 -0.037817 -0.08454 -0.0417304 -0.0570308 0.024972 0.113816 0.0730989
37 0.0250727 0.0336497 -0.11504 -0.0631404 0.0491826 -0.0648294 0.0737717 -0.0571934 0.0585942 0.00899372 0.141385 0.0334624 0.0257225 -0.0475434 0.00352681 -0.0964472 0.148783 -0.174636 -0.0372312 -0.127086 0.116682 0.0493238 0.0514213 0.076977 0.110913 -0.0359929 -0.111329 -0.0692621 -0.0385646 -0.00885672 -0.0200497 -0.109094 -0.0568232 -0.0773515 0.0367626 0.0747608 0.0454251 -0.0607048 0.120895 -0.0207134 0.0673326 0.10623 0.14801 0.133303 -0.115799 -0.0712526 0.137033 0.0629701 0.101384 -0.0696146 0.124757 -0.0153385 0.00104998 -0.159168 0.0959904 0.0872799 -0.00214277 -0.0979757 0.032926 -0.0981828 -0.137692 -0.132037 0.0212502 0.0291075 0.0608469 0.0215423 -0.133057 0.0938459 -0.0726082 0.0887834 -0.0679735 0.108157 -0.147159 -0.0196505 -0.159472 0.0466082 0.0129745 0.03996 -0.000902795 -0.0982231 0.0212709 -0.130528 0.0154914 -0.0296527 0.0148199 -0.0754373 0.0968419 -0.18886 -0.167213 0.0365525 -0.0330681 0.0174644 0.0428369 -0.0517018 -0.0356197 -0.0588719 -0.0965428 0.0711795 0.0872341 0.0323452 -0.163385 -0.0700073 -0.12513 0.0214198 -0.0764381 -0.166719 -0.0802707 -0.106981 -0.0634529 -0.170997 0.0502022 0.0732433 -0.195843 0.096481 0.043176 0.00306173 -0.0101917 -0.00831217 0.0701818 0.0844205 0.123249 -0.0906664 0.0689764 0.0212475 -0.00412891 -0.0711164 0.110656 0.150823
38 -0.0971107 -0.0561916 -0.0426108 -0.00239472 -0.0514469 -0.128099 -0.111792 0.047922 0.13 0.0662948 0.0441429 0.123436 -0.0148256 -0.00505231 0.0225014 -0.0487139 0.0678818 0.0596008 -0.267554 -0.12404 0.143234 -0.118106 0.0375782 0.0185319 -0.0819916 -0.134856 -0.10148 0.071183 -0.117582 -0.0279146 -0.00504709 -0.130489 0.158522 0.0202304 0.0341744 0.176224 0.0190513 0.0522234 0.0229081 0.0969826 0.0165556 -0.00142325 0.0448474 0.0600298 -0.00419803 0.0189841 0.0852352 -0.047541 -0.0694274 -0.0326586 0.0325511 -0.0546549 0.0866624 -0.161254 -0.0164419 0.0556027 -0.0683202 -0.0218665 0.0592003 -0.0388058 0.104852 0.0599816 -0.0519437 -0.0747115 -0.0267468 0.109147 -0.0266607 -0.00844188 0.0925164 -0.0901976 0.0861567 -0.0832489 0.0179813 0.215868 0.0246114 -0.0322388 0.0395823 -0.120071 0.101568 -0.115539 -0.0545652 -0.0592544 -0.175662 -0.0701877 0.0923896 -0.00211979 -0.0950304 -0.0726543 -0.0213118 0.064831 0.117414 0.127012 0.0568175 -0.0695418 -0.168278 -0.0743376 -0.0169601 0.117279 0.0361113 0.0449405 -0.156437 -0.0867802 0.0287489 -0.0651437 -0.0595872 -0.0468111 -0.122951 -0.0447546 0.0953778 -0.178156 -0.155164 -0.0149234 -0.226499 0.0903481 0.140324 0.0529324 -0.020792 -0.0181633 0.0207867 0.0817212 -0.0939659 0.0795134 -0.0190736 -0.0315158 -0.000210773 -0.0388388 -0.0886558 0.0895312
39 -0.105024 0.0272265 0.0465324 -0.0284073 0.0673348 0.0624182 0.0397837 -0.00221626 -0.0553487 -0.0372032 0.137876 0.182936 0.0651795 0.0260996 -0.0120534 0.0496524 0.0605672 -0.210846 -0.118377 -0.172721 -0.0684162 0.0928364 -0.0805668 0.127306 -0.110715 0.12839 -0.0116341 0.0780016 -0.0934286 0.109067 0.0154491 0.0329246 0.0794574 -0.0804681 -0.0628375 -0.0497649 -0.13923 0.0656011 -0.034883 -0.0259817 -0.0139409 0.0103013 -0.0287229 0.0889951 0.0824549 -0.04661 0.0596865 -0.0323153 -0.0566667 0.0921235 0.00452161 0.0935075 -0.00770011 -0.0559602 0.0644546 0.0186129 0.0453189 -0.0645567 -0.0716806 -0.00326044 -0.0742376 -0.0884199 -0.155424 0.0911636 0.0796439 -0.153423 0.0160342 0.0346028 -0.0713349 0.123278 -0.0927023 0.0702818 -0.0372557 0.0121361 -0.13625 0.0429349 0.0519526 0.0294331 0.0256944 0.0725186 0.0092417 0.0555582 -0.0838351 -0.126101 0.0131489 -0.023776 0.0958949 -0.249342 -0.244063 0.102706 0.205395 0.143883 0.181032 -0.00589013 -0.0224609 -0.141749 0.0419071 0.0529325 -0.102209 0.148672 -0.0272335 -0.00169122 0.063375 -0.0957688 -0.0267772 0.0567423 -0.017019 -0.04428 -0.0269834 -0.032778 0.0222534 0.00513125 -0.17974 0.0339749 0.0860401 0.0346276 -0.119282 0.0671371 0.0886868 -0.0451425 -0.0047678 -0.093285 0.0178389 -0.120886 -0.065153 -0.150042 0.0574055 0.0894421
40 0.0355855 0.0541481 -0.0511525 -0.0303725 -0.0729789 0.105867 -0.0806861 0.0399817 0.106068 0.0207503 0.105861 0.0417839 -0.0604277 0.0593629 -0.0184443 -0.157784 0.0299545 -0.16117 -0.202685 0.0805262 0.0981376 0.029714 0.0916056 -0.0279717 -0.10513 -0.029935 -0.0502256 -0.0874972 0.125978 0.136489 0.0056339 -0.19089 -0.151667 0.0822351 -0.00784017 0.0580787 0.0409121 0.0965494 -0.142914 -0.0666001 -0.0630621 0.0423654 0.0740412 -0.0102438 0.0204721 -0.103708 -0.0324038 -0.094556 -0.0571338 -0.0503922 0.0293519 0.0429478 0.130475 -0.185714 0.0510399 -0.0879629 0.0915973 -0.0503888 0.0117233 0.00775741 -0.0472711 0.00604756 -0.0144018 0.153673 0.0598603 -0.0366304 -0.0610189 0.00546671 -0.179059 -0.0877741 0.056242 -0.00796014 -0.0839218 -0.0520666 -0.0271953 -0.0228343 0.0962352 0.113412 -0.0733662 0.0206159 0.00405954 0.010929 -0.109086 -0.0580026 -0.0179785 -0.0558903 0.0450532 -0.104823 -0.0160141 0.0778391 0.166718 0.0325514 0.0207148 -0.0374952 -0.111231 -0.186836 -0.0935714 0.146729 -0.126506 0.17208 -0.111165 -0.0131061 0.0576052 -0.0232804 -0.0246713 -0.0824493 -0.0264182 -0.00276936 -0.0867539 -0.00668561 0.0499171 0.0395392 -0.155362 -0.0361468 0.112959 -0.0524942 0.0881679 0.154853 0.190135 -0.0542373 -0.0679246 0.112273 -0.0939518 0.0342808 -0.132035 0.0278834 -0.0953052 0.1705
41 0.00860837 -0.044901 0.135595 0.128196 0.144355 -0.111896 0.0972283 0.0581827 0.151235 -0.0935452 -0.0409465 0.0574881 0.153306 -0.0257201 0.0492638 -0.0280763 0.135785 -0.225298 -0.187728 -0.139066 0.187474 0.075215 -0.0033244 -0.124814 0.044339 -0.11291 -0.0308283 0.0593995 -0.0535511 -0.0291382 0.0735502 -0.14367 -0.0682279 -0.103016 0.042831 0.0801245 -0.0733645 0.0022648 -0.0788212 -0.0890685 0.115737 0.0581789 -0.118164 0.108518 -0.067964 -0.0269213 -0.140535 -0.0459532 -0.107277 -0.0851346 0.0624122 -0.00811014 -0.0579821 0.0550368 -0.129157 0.0266068 0.016697 -0.0748191 -0.146831 0.00291838 0.0136381 0.0101508 0.0309621 -0.00619468 -0.00456411 -0.0443735 -0.182471 0.0549606 -0.0342367 -0.0584998 0.000920441 -0.0240105 -0.00238719 0.0214193 -0.0463931 0.0262614 0.0807088 -0.043361 0.00216283 -0.0504594 -0.0686751 -0.0892285 -0.186601 -0.0482371 -0.0740617 -0.0427789 -0.0294289 -0.188008 -0.0841415 -0.0144888 -0.0379753 0.14356 0.109534 -0.0344973 -0.202853 -0.00887734 0.0346826 0.0505894 -0.116307 -0.0147161 -0.0933086 0.12164 -0.165301 -0.0559421 0.0938241 -0.0547339 -0.00780314 -0.0220546 -0.00568504 -0.0497411 0.02267 0.0701586 -0.0969965 0.0865695 0.0788361 0.0336004 -0.00907268 -0.106368 0.0404449 0.0872623 0.107518 -0.0611588 -0.120152 -0.0568764 0.0340415 -0.0891199 0.117359 0.0918567
42 0.0310633 -0.137496 -0.0614925 0.129703 -0.021122 0.0114683 -0.108508 -0.0965077 -0.0216309 0.0623096 -0.0519597 0.178177 -0.102183 -0.0936018 -0.0110306 -0.133544 0.0755376 0.0399582 -0.127874 0.00308071 0.142178 -0.104875 0.103349 0.0584257 0.0581045 -0.0782584 -0.184168 0.105484 0.0065151 -0.0651376 0.018691 0.0559884 -0.143155 -0.0285022 -0.0826414 0.0468216 -0.0110855 -0.0335069 0.0234342 0.00198311 0.0460827 0.102501 -0.0431926 -0.0644402 -0.142707 -0.00658711 0.0780408 -0.136167 0.018035 -0.0936807 0.0334867 0.0853028 0.0995028 -0.081359 -0.0646587 0.0633083 0.105362 -0.00329624 0.102562 0.0938924 0.121114 -0.105566 0.0928003 -0.0958057 0.0425193 0.0681249 -0.0458433 0.0015122 -0.109341 -0.0717503 -0.104744 -0.0412238 -0.113132 0.00145799 -0.000770095 0.0172325 0.0732986 0.00261223 -0.0752824 -0.0835463 0.0678534 -0.127597 0.0829234 0.137417 0.107296 -0.0217651 0.113627 0.031576 0.0290363 0.0558732 -0.0452157 0.0151181 0.125118 0.144857 -0.172145 -0.0864093 0.0492523 -0.0065378 -0.165654 -0.0895417 -0.119457 0.130906 -0.0495022 -0.124961 0.0799359 -0.110778 -0.12924 -0.0846759 0.155506 0.0391274 -0.165014 -0.0172039 -0.159472 0.0736537 0.147208 0.043923 -0.0468362 0.0839438 -0.136969 0.00551673 -0.0127705 -0.00971302 -0.0524691 -0.131377 -0.0571786 -0.0706323 -0.0375277 0.0313099
43 0.00499489 -0.141999 0.107433 -0.00639534 -0.0755797 -0.00730372 0.0223801 0.134638 0.16909 -0.112568 0.105593 0.0561341 -0.0762971 0.0660041 -0.0665587 -0.091414 0.138393 -0.222181 -0.0998535 -0.0181463 -0.0767756 -0.033171 0.087892 -0.0393243 -0.0699342 -0.00168272 -0.162937 -0.0199104 -0.0821183 0.0453979 -0.0292263 -0.167748 0.0497322 -0.135994 -0.103762 0.156594 -0.0393483 0.0149558 0.133997 0.0141038 -0.00744433 -0.0536315 -0.11687 0.038487 0.0789813 -0.105986 0.114321 0.0258197 0.00330285 0.000840573 0.155385 0.0158829 -0.15209 0.0670102 -0.00185751 0.120299 -0.0253903 -0.0677669 0.0435199 -0.0628418 -0.0980384 -0.00853487 -0.147667 0.113932 -0.036699 0.115026 0.0151991 0.0388537 0.0534005 -0.0382654 0.0335565 0.106134 -0.0135575 0.0634092 -0.0475684 0.00351441 -0.0613038 -0.0111493 -0.079647 0.126279 0.0633067 0.0123295 -0.109988 0.029804 0.148445 0.111038 0.0209281 0.0377132 -0.0642238 0.0522352 0.0685189 0.162355 -0.00594627 -0.0538498 -0.0433262 0.0679059 0.115741 -0.10619 -0.00144401 0.0996232 -0.0473655 0.0971867 -0.101817 0.0911798 0.00889505 0.0660844 -0.00607177 -0.115338 0.0121456 0.0561596 -0.109203 -0.107344 -0.214171 -0.0256773 0.0582236 -0.0369508 0.0518389 0.104016 0.0929622 0.0342285 -0.0649441 0.157855 0.104167 -0.00801743 -0.199846 0.11427 -0.0172094 0.0961223
44 -0.123015 -0.123911 -0.132281 0.0113177 -0.0814463 -0.101348 -0.064295 0.0367661 0.185858 0.050174 0.0276435 -0.0590343 0.089673 -0.0360642 -0.0605609 -0.0916379 0.132244 -0.138824 -0.0434085 0.0408775 0.125952 0.0515852 -0.0420227 -0.0751041 -0.0785533 -0.0761684 -0.0617735 0.107563 -0.101288 -0.0507959 0.110005 -0.0202769 -0.0146016 0.0476368 -0.0837273 0.0107255 0.0869608 -0.00811828 0.101682 -0.0211092 0.0862998 0.0016725 0.0192021 -0.0693084 0.0934181 -0.0423198 0.00561154 -0.0454729 -0.0510705 0.0549661 -0.0783476 -0.0683443 0.0982059 -0.0446982 -0.0560716 0.141721 -0.128663 0.0151496 -0.0805898 0.00109078 0.0578126 -0.0706506 0.0853151 0.098181 -0.0867487 -0.0473166 -0.183572 -0.110169 -0.161349 -0.0787084 -0.101594 -0.11312 -0.134721 -0.0327813 -0.0843838 -0.067721 -0.00636546 0.0934567 0.104171 0.123217 0.0264767 -0.093985 -0.00354977 -0.00255795 0.0037823 -0.130792 0.110177 -0.193245 -0.137243 0.0231593 0.0515222 0.0211158 0.14989 0.0329953 -0.191883 -0.104642 -0.0227305 -0.112943 0.104952 0.0675555 -0.125432 0.0527212 0.085388 0.0820551 0.159904 0.031436 0.0776294 -0.0462677 -0.113559 -0.0826141 -0.112441 0.0539677 -0.173567 0.106133 -0.00902127 -0.0224229 -0.07314 -0.0828163 0.0944782 0.0459755 -0.00922933 0.105248 -0.039295 -0.112353 -0.0725967 0.0741646 0.0323479 0.119678
45 -0.00551409 -0.159242 -0.142884 0.132416 0.202338 0.0230145 0.0800339 0.07205 0.120731 -0.0199211 0.0427747 0.121659 -0.0417937 0.00237695 -0.0359742 -0.147564 -0.00890484 -0.179412 -0.153932 -0.124583 0.0335066 0.0633324 0.0888545 -0.0975024 -0.0895972 -0.0275802 -0.10286 -0.0734848 0.0784291 -0.0113271 0.0716477 0.016611 0.0705388 0.0867966 -0.196469 -0.0309882 -0.0928507 -0.0280806 0.0828554 0.0995119 -0.0975077 -0.0650731 0.031231 0.0575538 -0.0132926 0.0508451 0.00488352 -0.100268 0.0085869 -0.0240822 0.0341933 0.0249109 0.122792 -0.111146 0.0246227 -0.0813987 -0.0523243 -0.0930296 0.141907 0.149798 -0.0264014 0.0927697 -0.0543901 -0.1267 0.0196083 -0.150767 -0.206937 -0.01856 -0.0771486 0.0573927 0.0149374 -0.0390711 0.0210078 0.0709293 -0.103002 0.00459403 -0.13113 0.00737565 -0.0831768 0.106951 -0.0828301 -0.0702045 -0.0951063 -0.0876036 -0.0307271 0.0424946 -0.110302 -0.0166685 -0.1308 -0.0940219 0.0945312 -0.0916178 0.112561 -0.12495 -0.0489139 -0.0735288 0.0557793 -0.0313304 -0.0303991 -0.0656585 -0.135011 0.122978 0.0407848 -0.022157 0.0528729 -0.0540121 -0.0103908 0.0583515 -0.0029103 -0.119798 -0.144069 -0.0588059 -0.183116 0.105097 -0.0328199 0.00509078 0.0299326 0.11191 0.0555406 0.0327329 0.0282245 0.136786 -0.0172731 -0.16628 -0.026591 0.0343597 0.077596 0.0698721
46 -0.0376088 -0.0954026 -0.126263 0.184634 0.139428 -0.0378134 0.107644 -0.0310837 0.145063 -0.0180708 0.117503 -0.0381542 0.000770702 0.0142859 -0.0381877 -0.0590147 0.244255 -0.0838695 -0.179334 -0.190353 0.0926241 0.0626056 -0.0523035 0.113069 0.0529538 -0.103241 -0.153707 -0.00964651 -0.119357 0.0824681 -0.122917 -0.133247 0.0149462 0.000695003 0.0608916 -0.0330759 -0.0683374 -0.0716772 -0.0724095 -0.0790898 -0.0284566 -0.0152733 0.0922152 0.0283734 -0.0309885 -0.1915 -0.0346016 -0.122217 0.00746806 0.0188203 0.114584 -0.0425188 -0.0537607 -0.0374578 0.0211042 0.0425022 0.00381389 -0.0168897 0.0820945 -0.111097 -0.000387114 -0.0718978 0.0341499 0.0413132 0.0518401 0.0970367 -0.0458476 0.0388814 -0.0967428 0.120952 -0.0328355 0.109238 -0.00999805 -0.0170893 0.000535921 0.0207342 -0.0370712 -0.133819 0.00605246 0.0493694 0.00321475 0.0597187 0.0641339 0.0319199 0.0821847 0.152029 -0.156552 -0.166381 -0.0442753 -0.0419891 0.0221072 0.103658 0.170884 0.114321 0.0609466 -0.0657529 -0.079098 -0.00123831 -0.135769 0.123773 0.0287616 0.0989648 -0.127314 -0.0959441 0.0778902 -0.0909584 -0.0793147 -0.0600609 -0.116435 0.0250023 0.101779 0.133774 -0.0472784 0.104554 0.0719843 -0.0247099 -0.0986868 -0.00914762 0.139234 -0.10237 0.0466123 -0.0109945 -0.116262 -0.111227 -0.075393 0.0437977 -0.031743 -0.0281733
47 -0.0710142 -0.139357 0.039724 0.0909332 0.112569 0.0769175 -0.0638893 -0.00314566 0.0433044 -0.162623 -0.103815 0.101023 -0.00166475 -0.0392824 0.0447969 -0.0199184 0.123686 0.0311448 -0.0289821 -0.118694 -0.037846 -0.107719 0.185319 0.124773 0.00428136 -0.043269 0.0172257 0.16371 0.0235786 0.0220457 -0.054608 0.0481515 0.0675204 -0.00974075 -0.102466 0.161859 -0.105223 0.119649 0.0540026 0.100959 0.10312 0.0269198 0.111036 -0.0498154 -0.140194 0.0691539 0.0217396 -0.00706129 0.150218 0.0479426 0.135603 -0.10506 -0.0623885 0.0115336 0.0755881 0.0687242 -0.076989 -0.0468552 -0.0016783 -0.0532351 0.0485466 -0.00226009 -0.0500734 -0.0333193 0.109119 -0.0494644 0.0324407 -0.114671 -0.131748 0.0570122 -0.122092 -0.102185 -0.0957094 -0.0385348 -0.00348579 0.137998 -0.123822 -0.0407353 0.0484204 0.122732 -0.0535614 0.0845954 -0.0633563 0.0279844 0.086665 0.0974146 -0.0539304 -0.0931346 -0.160805 -0.0850936 0.124577 -0.100604 -0.0230215 0.016484 -0.0666741 -0.060196 -0.0698859 -0.108363 0.0265475 0.017337 -0.148334 0.144975 -0.0562025 0.0283855 0.135697 -0.0921492 0.0483048 -0.0775602 0.15283 0.0700061 -0.197101 -0.0192393 -0.211372 -0.0999734 0.143244 0.110622 -0.0227224 0.000279413 0.0895096 -0.100695 -0.0039339 0.0515586 0.0502991 -0.0983173 -0.00456383 0.0609668 0.0334099 -0.0286157
48 -0.0536661 -0.0683243 -0.029915 0.0211166 -0.0428441 -0.142972 -0.159395 -0.0614044 0.153588 -0.0092197 0.134231 0.043198 0.113692 -0.0416111 -0.0759155 -0.0382591 0.244902 -0.0864362 0.00495448 -0.0790629 0.0103493 0.044688 -0.00922165 -0.0278173 0.0441682 -0.00378061 -0.115431 -0.0500355 0.104611 0.137158 -0.114839 -0.102922 0.0654432 -0.000654019 -0.0448156 -0.0631127 -0.0103022 0.125667 0.0975933 0.145064 -0.0598985 0.040915 0.163025 0.00967286 -0.149551 -0.150247 0.0375185 0.0603075 -0.0288049 -0.031846 0.0896662 -0.0943185 0.031307 -0.120468 0.172837 -0.0741464 0.0451041 -0.0892471 0.116322 0.0457717 -0.0550921 0.041125 0.0665082 0.047974 -0.0845493 0.015441 -0.1299 0.151368 -0.100509 -0.0833066 0.0109345 -0.0488276 -0.0295596 0.0236859 -0.129856 0.0620304 -0.0418342 -0.0210469 0.0529338 0.113621 0.102108 -0.0716149 -0.17882 0.10055 -0.0712235 -0.0919533 0.0919748 -0.15144 -0.00933903 0.00300673 0.105157 -0.0553246 0.197332 0.121397 -0.123947 0.056634 -0.0761788 0.0763657 0.0100009 -0.0684893 -0.164352 -0.0417734 -0.0479346 -0.110627 0.0939141 0.00311955 0.0609912 -0.0897149 0.105911 0.00084479 -0.020893 0.0146125 -0.152268 0.130917 0.0210176 -0.0592775 -0.0421064 0.0378885 0.052663 0.121101 0.0359231 0.118184 -0.0426803 -0.066248 -0.0484406 0.0310883 0.0458961 -0.0320187
49 -0.0866788 -0.155377 0.0441771 -0.015355 -0.0718348 -0.0972152 -0.07151 -0.00186598 0.114517 -0.0109438 0.111604 -0.0611896 0.00516173 -0.0244874 -0.0986513 -0.0742593 0.177159 -0.0468024 -0.147672 -0.142149 0.0464744 -0.0490635 0.116323 0.108512 -0.120656 -0.146181 -0.147069 0.0458879 0.0882896 -0.0726327 -0.127148 -0.0820728 0.0618535 -0.0775482 -0.0283438 -0.0293108 -0.0510373 0.0363516 -0.0657413 -0.141838 0.0118888 -0.0781717 0.0326407 0.121882 -0.0839272 -0.0684456 -0.00514724 -0.000793684 -0.0388751 -0.055921 -0.0860197 -0.103829 0.0716806 -0.171853 0.0681385 -0.0540321 0.103655 -0.185984 -0.0167591 -0.0421802 0.0682183 0.0521183 -0.0198656 -0.113821 0.0265516 0.0206187 0.0564903 -0.0482623 -0.0634899 0.146168 -0.0947828 -0.0522929 -0.135875 -0.113789 -0.0122368 0.12676 0.0719776 -0.0513772 0.0789109 0.0350495 -0.0709064 -0.0182306 -0.0615324 0.0719588 0.0799647 -0.0578245 0.0371457 -0.0430902 0.04165 0.0641062 0.0267786 0.160672 0.110688 0.00462208 0.0284137 -0.0669495 -0.0711828 -0.0916764 -0.16293 -0.0274751 -0.104177 -0.0782127 -0.105692 0.0749453 0.143899 -0.0400283 -0.126913 0.0458726 -0.0916892 0.00925887 -0.145075 0.000104958 -0.108899 -0.0860459 0.149911 0.0904622 0.102275 -0.127509 -0.0493417 -0.0403993 0.103351 0.152882 0.0429809 -0.183115 -0.000343698 0.106972 -0.0130977 0.0530362
50 0.0268669 -0.143871 0.0710881 0.00386486 0.0717591 0.0666901 0.0267237 0.0274812 -0.00413139 -0.056586 0.137412 0.150716 0.0589481 -0.0392048 0.0322764 -0.0813788 0.0438021 -0.0153288 -0.239758 -0.0667154 0.0398058 0.083242 -0.0960343 0.0811716 0.0139969 -0.145512 0.0239693 -0.06044 -0.0698481 -0.0334936 0.0787646 -0.114865 -0.109831 -0.055712 0.0104515 0.151217 -0.122171 -0.00181602 0.111685 -0.0967518 0.0977282 0.0465597 0.129111 0.0964773 -0.0274509 0.0245581 0.0357238 0.0482578 0.00335534 -0.0422696 -0.0501342 -0.0669354 0.129176 -0.118485 0.0658211 0.0774035 0.0308459 -0.121132 0.0277839 -0.0932137 -0.112881 -0.113713 -0.00580661 -0.0372595 0.0891728 -0.0408628 -0.112418 0.0720387 -0.149676 0.146664 0.00508651 0.0320789 0.10648 -0.0411488 -0.161934 0.162292 0.0490719 0.0485973 -0.0486434 0.0288563 -0.00860946 0.0191483 -0.149947 0.0339216 0.144527 -0.089879 0.103438 0.00233571 -0.185138 0.0451549 -0.0213205 0.120453 0.207048 0.0640642 0.00320499 -0.210381 -0.0459153 0.0166467 -0.0774415 -0.0435842 -0.000548079 -0.0418887 0.0468941 -0.0353492 0.0864126 0.0910086 -0.0631791 -0.0686527 0.00360919 -0.139282 -0.0650955 0.114955 -0.0265711 -0.00280639 0.029525 0.00674242 0.0707017 0.00289173 0.0301945 0.0734814 0.174485 -0.106731 0.132273 0.0224597 -0.124638 -0.1138 -0.103319 0.0704315
51 -0.0236519 0.0815062 -0.0690877 0.105592 0.122419 0.0371191 -0.168374 0.156785 0.166065 -0.0615143 -0.0324522 0.152217 -0.0070539 0.100507 -0.139538 0.00501878 -0.0359171 -0.173126 -0.0211691 -0.0392743 -0.0706921 0.0510411 0.117578 -0.0269984 0.113561 0.0806135 -0.130069 0.114011 -0.121673 -0.125288 -0.0583572 -0.147088 0.00295747 0.0568979 0.0812094 0.0735364 -0.0125333 -0.034182 -0.0951457 0.0704564 -0.0866481 0.0558917 -0.00115625 -0.0900101 0.0702772 -0.0976672 0.0819495 0.0238013 -0.109423 -0.0652503 0.105265 -0.0256688 -0.0259648 -0.00855092 0.141876 -0.0169914 -0.00863618 -0.0178241 -0.073743 -0.0632786 -0.0889095 0.0243789 0.0849236 -0.0628915 0.119599 -0.0213653 -0.158444 -0.0966107 0.0172376 -0.032658 -0.0566207 0.0214474 0.0379956 0.0220776 -0.181733 0.0495844 0.0432426 0.0773246 0.0810973 0.00763542 0.00445906 0.0208262 0.0326449 0.0407066 0.123165 0.0660935 -0.0751686 -0.160816 -0.174169 -0.0931878 0.046412 0.00202693 -0.0860327 0.0586028 -0.15831 -0.0215153 -0.02037 -0.0336458 -0.113235 -0.0355567 -0.0931804 0.0227329 -0.122001 -0.137512 -0.0831575 0.134414 0.0928052 -0.0565802 0.0346379 -0.0582966 0.0610983 0.0635987 -0.186976 -0.0305292 0.0284891 0.140052 -0.00266561 0.0988099 -0.0764078 0.0831006 -0.0327957 -0.0574601 -0.0235452 -0.202282 -0.13685 -0.0597878 -0.131872 0.0479069
52 -0.0321646 0.08242 -0.0729201 0.188396 0.0822472 -0.0622577 0.046395 0.020187 0.128014 0.00831509 0.133866 0.0374724 -0.0986026 -0.0566998 -0.00578177 -0.0243419 0.243721 -0.1064 -0.0446202 0.0570978 0.0663652 -0.128639 0.102476 -0.0153123 -0.0765215 -0.0470576 0.0181629 -0.0956062 0.0656656 0.0202338 0.0461855 -0.111639 -0.0990633 -0.110659 -0.11347 -0.0450261 0.0252333 -0.0952526 0.171983 -0.0781605 0.109149 0.0627932 0.0216801 -0.0180434 0.0348822 -0.068457 0.128105 0.0143748 0.0701242 -0.0522887 -0.0655694 -0.125775 -0.00181302 0.0363331 0.0968747 -0.0901541 0.0891292 -0.0983252 -0.00684319 0.0138222 0.122794 0.112941 0.0274556 0.0823582 -0.0135665 -0.0664275 -0.126178 0.120577 -0.0377945 -0.0129186 -0.0725271 -0.0449014 -0.161263 0.188546 -0.205751 0.0707328 0.047157 -0.0634891 -0.100052 -0.0214718 -0.00614908 -0.119984 -0.178361 -0.0920287 0.0638112 0.0543326 -0.12702 -0.0698714 -0.0232141 0.121839 -0.046161 -0.0348172 0.115427 -0.0010104 -0.0892482 -0.0533059 -0.0388675 0.0207947 -0.0213452 0.0685202 -0.148728 0.0438619 0.0671668 -0.0598205 0.0650221 -0.0945967 0.0416238 0.137382 0.0768027 -0.110731 -0.0169205 0.119152 -0.0419842 -0.0926548 0.086569 0.025378 0.127326 0.170592 0.064672 0.0899891 -0.00669377 0.014412 0.0529275 0.0274147 -0.00239494 -0.11499 0.0431062 0.164788
53 0.116461 -0.075082 -0.0572068 0.0607191 0.12529 -0.0365654 -0.0451437 0.067044 -0.0442269 -0.105012 0.100402 0.0936311 -0.00177758 0.118746 0.0326788 -0.0610828 0.122337 -0.0551313 0.0731347 0.0547987 0.158612 -0.0818693 0.129981 -0.0348404 -0.0954238 -0.0711249 -0.144368 0.0726801 0.0127082 0.0430471 -0.027872 -0.0707794 -0.126605 -0.0125642 -0.022368 0.0665769 -0.0858757 -0.0902811 0.117081 0.0916825 0.0290787 0.0310435 0.06829 0.0774916 0.0321868 0.0207963 -0.0180691 -0.0480878 0.000252795 -0.121223 0.0286438 -0.132626 0.120476 -0.187508 0.117763 -0.100564 0.0972232 -0.163388 0.0931445 0.0613168 0.134034 0.0401522 0.0712696 -0.111698 -0.00389763 -0.132113 -0.102817 -0.0675628 0.035788 -0.035281 0.017636 0.0289341 -0.0917708 -0.0587425 0.0513333 0.0830373 0.0513743 -0.0899034 0.116857 0.0724311 0.0712284 0.0157503 -0.0818079 0.0861681 -0.0300152 0.0143997 -0.00928593 0.0169536 -0.157005 -0.0481749 0.102799 0.0221527 0.164331 0.0919257 -0.0644564 0.00299002 0.0134303 -0.101256 -0.142695 0.0654309 -0.0938724 -0.00573052 -0.182603 -0.113682 0.0532544 -0.115026 -0.0754687 -0.0389384 0.13544 -0.158365 -0.186161 0.0399053 -0.207245 -0.0376853 0.0512589 0.0985427 0.0481277 -0.104708 0.101538 0.0908095 -0.0593758 0.0865796 -0.117019 -0.0705179 -0.0524977 -0.0321938 0.0559125 0.0560059
54 -0.159168 -0.177949 0.0519045 0.104832 -0.044787 -0.0798045 -0.0507487 -0.100993 0.120174 -0.116922 0.103274 0.0497367 -0.0489571 0.0623141 -0.109436 -0.0427136 0.0972949 -0.0788327 -0.126493 0.072975 0.0354213 -0.135239 0.118993 0.144505 -0.120395 -0.14935 -0.121366 0.0425682 -0.0250912 -0.0157344 -0.0986065 -0.0918215 0.015897 -0.0520891 0.108192 0.0442151 0.0596264 -0.0277332 0.0260265 -0.0479491 0.0797949 0.0384934 -0.0297601 -0.0762028 -0.0860991 -0.00509256 0.0999334 -0.0138849 -0.081242 0.046048 0.0988941 -0.0341321 -0.0375646 0.0365699 -0.0832987 0.159259 -0.0779145 0.0529309 0.0464088 0.167133 -0.0116697 -0.0606996 -0.0509428 0.0962074 -0.134505 -0.0492507 0.0271349 0.00584747 0.0466174 0.0540991 -0.138741 0.0211591 -0.0713466 -0.0465305 0.041425 0.0338965 -0.140578 -0.0491619 -0.0125653 0.118412 -0.0715277 -0.0144908 -0.0645654 0.0777059 0.0815285 0.0754447 0.0072938 -0.0123828 -0.202053 -0.00235153 -0.0766206 -0.0468649 0.0260689 -0.0845106 -0.058316 -0.157323 0.0392186 0.0874854 0.0170262 0.00787715 -0.144127 0.069176 -0.171629 0.0938741 0.0587439 -0.0973065 0.0375155 0.143045 -0.128788 -0.174949 -0.127696 0.0345515 -0.0685461 0.0886808 -0.00432841 -0.0960828 0.022428 0.00490929 0.182131 -0.0935456 -0.0791226 0.0541832 -0.0136606 -0.0801999 -0.212493 -0.0876373 0.0704819 0.0344826
55 -0.134875 -0.109347 -0.0229835 0.00421095 0.0306424 0.0195574 0.105053 0.0308698 -0.00160412 -0.0327478 0.169983 -0.0408599 0.0408969 -0.0650555 -0.0777449 -0.171605 0.0858131 -0.0370133 0.0247336 -0.125231 0.159403 -0.0543658 0.188504 -0.111365 -0.131156 -0.0755429 -0.186787 0.120611 -0.0961963 -0.108653 0.0221909 -0.0485092 0.0162951 0.0344685 0.0307752 0.116259 0.0152516 -0.00642073 0.0512749 0.000508794 0.134828 0.0296793 -0.072058 -0.012239 -0.0194464 0.0515576 -0.108476 -0.0603328 0.115347 0.0838483 -0.0205431 -0.139442 -0.0860938 0.0835161 0.102962 0.0394719 -0.0703293 -0.055503 0.0125481 -0.0272809 -0.00600811 0.0219239 -0.0600685 0.0807822 -0.125707 -0.148004 0.00331802 0.0523962 -0.00543438 0.111712 0.105364 0.148673 -0.0107057 0.14608 -0.151866 -0.0111648 0.0211417 0.0513491 0.130897 0.0553674 -0.108346 -0.10513 0.0479975 0.055283 0.103236 -0.0823398 0.0108744 -0.129156 -0.0146435 0.0537288 0.036326 0.141293 0.0157258 -0.0464002 -0.110177 -0.18398 0.106621 0.13696 -0.105154 -0.100848 -0.0432923 -0.022347 -0.147915 0.0312188 -0.0157002 -0.0760338 -0.0312918 0.0561411 -0.0222113 -0.00476612 -0.181626 -0.131405 -0.130431 -0.0510979 0.0245534 -0.113731 0.0178108 0.163666 -0.114118 0.0795624 0.0211714 -0.0748537 -0.0370548 0.0485398 -0.0757656 -0.112153 0.0202379 -0.0498775
56 -0.15258 -0.122568 0.0704908 0.0814787 -0.0954732 0.0714056 -0.0186743 -0.037079 0.19409 0.0782996 -0.0946439 0.0301154 -0.102352 0.085484 -0.0962699 -0.0685511 0.0984731 -0.0457794 -0.210612 -0.11855 -0.0974926 -0.0687923 0.00174605 0.12722 -0.0772614 0.0186698 -0.00374097 0.014432 -0.115258 0.13893 0.0990907 -0.193331 0.0856512 -0.103463 -0.0813432 -0.0375953 0.0754947 -0.0729462 0.0803174 0.047927 -0.102478 0.0259243 0.138848 -0.0534832 0.024632 -0.149894 0.00471611 -0.0622611 -0.0807733 0.0882596 0.0814888 -0.00117925 0.103373 0.0443776 -0.0594037 0.0309439 0.0346441 0.0434792 -0.0451924 0.0693491 0.00574442 0.127256 -0.0748684 0.0657116 -0.0629639 -0.102495 0.0123887 0.0795985 -0.098874 0.174275 0.0730479 -0.0632992 0.0255411 0.144605 -0.185903 -0.0172306 -0.117748 -0.105707 0.0480921 -0.0824396 -0.046685 0.0321024 0.0465611 0.10594 0.148594 0.109578 -0.0582099 -0.115025 -0.0339688 0.0329609 0.194567 -0.0464726 -0.0659702 -0.00531304 0.00269978 0.0140943 0.0718465 0.111771 -0.0135814 -0.0057991 -0.0962944 0.0277567 -0.163613 -0.0791234 0.0168434 -0.0930525 0.0649508 -0.0509888 -0.0800622 -0.0255898 -0.1028 0.0382563 -0.10409 0.0845226 -0.0536163 0.0741415 0.0547623 0.108825 -0.0918239 0.0775565 -0.103026 0.099857 0.117151 0.0329494 -0.0856637 0.106818 -0.022741 0.0140043
57 0.0763689 -0.0503689 -0.0354032 -0.0846337 -0.0154412 -0.118363 0.00379079 0.114619 0.08213 0.0207724 -0.0846444 0.187255 0.156129 -0.0491445 -0.0261474 -0.0435243 0.197874 -0.00699925 0.00331187 -0.0123035 0.0919389 0.0110177 0.124856 0.0884144 -0.0578244 0.063061 -0.194681 0.0947112 0.0457712 0.119448 0.0898112 0.0475429 -0.03763 0.0357364 -0.0424874 0.075699 -0.125889 0.028603 0.122549 -0.0843484 -0.0473435 0.046696 0.194158 -0.0945765 -0.130038 -0.0310696 0.00755346 -0.159285 0.0852056 -0.0881114 -0.0501446 -0.0328649 0.10292 -0.148927 -0.0583231 0.0865353 0.107179 -0.132779 0.0522612 0.121428 -0.0754596 0.051784 0.0856301 0.0162659 0.0207566 -0.118742 -0.00651417 -0.0960262 -0.0962508 0.106895 -0.00601036 0.042463 0.0153479 0.0276172 -0.0850613 0.149494 0.0862831 -0.10259 -0.0494703 0.0223842 0.0800711 -0.0327795 -0.112409 0.0132161 0.146724 0.0203486 0.0518565 -0.152518 -0.0668992 0.00230243 0.0713409 -0.0129364 0.0652568 0.128641 -0.202455 0.0479565 -0.0749192 -0.0443158 -0.0700771 -0.0814638 -0.0769707 0.126433 -0.0095271 0.0643434 0.0246695 0.0418187 -0.0544646 0.0134257 0.0374176 -0.0822115 -0.19813 0.0146716 -0.184819 -0.107678 0.120143 -0.0286946 -0.0513578 0.0446349 -0.086256 -0.147952 -0.057843 0.00629375 -0.0360807 0.0196232 -0.0321868 0.0988926 0.0710223 -0.049245
58 -0.13517 -0.0546189 -0.0872636 0.0214281 0.00416905 -0.00107519 -0.0940121 0.0359076 0.159114 -0.0135201 0.0674436 0.0462336 0.0376173 -0.0835874 -0.121607 0.0158284 0.0947766 -0.130976 -0.188203 -0.0362545 -0.0308705 -0.104354 0.0563116 0.159745 -0.0714281 0.127478 0.0640363 -0.0101773 0.0201296 0.0714314 0.0809167 -0.166038 -0.0458951 -0.198129 -0.0074609 -0.0200259 -0.00895532 0.131881 -0.0606723 -0.105322 0.122965 0.147024 0.0668414 0.0647727 -0.0440725 -0.0778188 -0.0429404 -0.172961 -0.0395274 0.0742331 0.0732022 -0.11159 -0.0326321 -0.113056 -0.0669476 0.138104 0.164985 0.0596413 0.0580095 0.159619 -0.103227 -0.0382209 -0.0593679 -0.0422081 -0.127993 0.0453823 -0.140442 -0.129989 -0.0840512 -0.0472015 0.101531 0.0235775 -0.105849 0.0879009 -0.0811785 0.0197374 -0.0331898 -0.0127847 -0.074224 0.10374 0.078214 0.0419107 -0.0377297 -0.046841 -0.0181268 0.170243 -0.0339482 -0.173617 -0.124807 -0.0848575 0.0253452 0.02101 0.105613 0.0318372 -0.0846818 0.0726604 -0.00976764 -0.083373 -0.11412 -0.0909557 -0.0773322 0.0535094 -0.120845 0.0450101 0.0656162 -0.106665 0.000824025 -0.0749282 0.00877461 0.0444139 -0.060368 -0.051087 0.0148104 -0.108123 0.0807789 0.124792 -0.0119803 0.087551 0.0114053 -0.149212 -0.081528 0.0642909 -0.0494311 -0.157517 -0.0156542 0.0217133 -0.10651 0.0281768
59 -0.0825323 -0.121814 0.0335269 -0.0920238 -0.105042 0.0697205 -0.0946405 0.143687 0.0160284 -0.0652756 0.0173282 0.131853 0.0749758 -0.00365911 0.0414018 -0.027118 0.185521 -0.0537399 -0.104224 -0.112921 0.0912364 0.0819232 -0.013575 0.0522115 -0.0200552 0.0202474 0.0282415 0.093407 -0.0624432 0.103651 -0.121176 -0.0126958 -0.106896 0.0820607 0.00400829 0.0907558 -0.156935 -0.0446535 -0.0158427 0.0882574 -0.0869662 0.0941888 0.136534 0.0365451 -0.093964 -0.148048 0.0784194 -0.0135092 0.0761078 -0.123224 0.00694847 -0.0914769 0.144529 -0.0550306 0.106481 -0.00466289 -0.0327107 -0.0259417 -0.0895687 0.137883 0.0506472 -0.0902066 -0.141268 0.00915352 -0.0557076 0.0196951 -0.200122 -0.00772992 -0.0428936 -0.0257187 0.00608858 0.125948 -0.078519 -0.00194183 -0.11398 0.145766 -0.136321 0.0692253 -0.105483 -0.0174219 0.0229682 -0.0664628 -0.0328832 -0.0119707 0.0719481 -0.0469894 -0.0151203 -0.076899 -0.188693 0.0900909 -0.0019278 0.119918 0.128775 0.0395667 0.0513533 -0.144411 -0.118934 -0.0726997 -0.0744498 -0.0312103 0.0269074 -0.0926626 0.0496482 -0.149027 0.104377 -0.0688432 -0.0531835 -0.081486 -0.0267675 0.0193906 -0.0833272 0.036961 -0.217612 0.0250405 0.100629 -0.0348876 0.0105474 0.0403649 -0.078162 0.126854 0.0507203 -0.0660046 -0.0758024 -0.135681 -0.162286 -0.113366 -0.104315 0.00347123
60 0.106377 -0.00222603 -0.0264962 -0.0182255 -0.0540481 -0.0234782 -0.0289521 -0.090866 -0.0589045 -0.0778566 -0.0853269 -0.0290263 -0.090435 0.0249877 -0.0263626 -0.125672 0.174872 -0.1976 0.00258308 0.113827 0.166274 -0.103597 0.0691757 -0.0180207 -0.0746528 -0.0503402 -0.111605 0.0288126 -0.0311593 0.127824 -0.124914 -0.0670238 -0.0142557 -0.0777038 -0.0161553 0.0322387 -0.116386 -0.0638265 -0.0651933 -0.0105654 -0.0666575 -0.0378041 0.132421 0.125579 -0.1758 -0.0975494 0.0535852 -0.0910997 0.133659 -0.00067253 -0.00343073 0.00547968 -0.0974664 -0.189331 0.00973335 0.0315024 0.13299 0.0872902 -0.0243455 0.0971601 -0.0726773 0.0898137 -0.103867 -0.0876457 0.137641 -0.158227 -0.182182 0.0867314 -0.0623102 -0.0298455 -0.0286387 -0.112084 -0.177671 -0.047839 0.00687515 0.0399704 -0.00951736 0.00935574 0.0821974 0.0248376 0.0903716 0.0152858 -0.117978 -0.0132165 -0.00277434 0.109094 0.0848377 -0.13983 -0.0414186 0.0986773 -0.0391897 0.0632151 0.163427 0.0751705 -0.159249 0.057973 -0.0227829 0.115207 -0.00190597 -0.102843 0.070688 -0.0672975 -0.110292 0.0173694 0.0169512 -0.014501 -0.165744 0.0404782 0.120666 -0.0996571 0.0283586 -0.0566761 -0.187582 -0.102223 0.0553164 0.0455143 -0.0380619 -0.0261619 0.0251327 -0.00839169 0.121767 0.115107 0.0322379 -0.116469 0.0233817 0.0420489 -0.0638357 -0.0564967
61 0.0753925 0.0339083 -0.0918372 0.191296 0.11493 0.0147441 0.0516563 0.108801 0.0438297 -0.0585549 0.132552 0.0366212 -0.107548 -0.110466 -0.0144562 0.012613 0.086949 -0.194945 0.0445875 0.00912725 0.148297 -0.13435 0.0384699 0.0111296 0.0166784 0.0102619 0.0177062 -0.0384441 0.0256735 0.142035 -0.0503591 -0.122783 -0.0743277 -0.131551 0.000442778 0.0821534 -0.175752 -0.078927 0.0291192 0.0917232 -0.0996009 -0.0464905 0.0714746 -0.0460143 -0.105505 -0.073921 0.0862797 -0.0417179 0.0334651 0.11251 -0.0541945 0.0236727 -0.0210033 -0.0291797 -0.00619104 0.0672618 -0.0112494 -0.039264 0.0289679 0.116637 0.0591642 -0.0778436 -0.0265717 -0.148202 -0.0110308 -0.0654522 -0.0979823 0.136819 0.0124721 0.0792342 -0.0577806 -0.0703191 -0.0162834 -0.153908 -0.16303 -0.14303 -0.0892092 0.0613513 0.0966701 0.072896 -0.0234567 0.00474998 -0.114327 -0.12179 -0.0454392 -0.0841492 0.0553775 -0.0804831 -0.181287 -0.0869008 0.125193 0.0403162 0.0989882 -0.0615084 -0.101607 -0.0716386 0.111167 0.0428764 -0.103136 -0.101108 -0.0718292 0.045912 -0.173465 -0.147295 0.0272124 0.0607743 -0.13738 -0.0893979 0.00833933 -0.108912 -0.130742 -0.129506 -0.0485104 -0.0506159 -0.0741667 -0.00815497 -0.0605816 -0.0155062 0.0628611 -0.0525055 -0.0550501 0.153903 -0.0067048 -0.175581 0.0855265 0.00663856 -0.115054 -0.0126812
62 0.00461257 0.0182336 -0.138614 0.15046 -0.00506262 0.00178459 0.000859155 0.123558 0.0404246 0.0833109 0.10416 0.0713611 -0.0971649 -0.0454959 -0.0984804 -0.0372165 0.162855 -0.134179 0.0457165 0.024323 0.162332 0.0427564 0.0453682 0.165986 -0.0903638 -0.103968 -0.142785 0.109322 -0.0435971 -0.116969 -0.0713725 -0.128416 0.12325 -0.0948011 -0.07968 0.0411841 -0.0192308 0.0360976 0.0641218 0.0933246 -0.0693538 0.0234672 0.135555 -0.0427706 -0.0187109 -0.0461449 -0.0275914 -0.121872 0.0235286 -0.0220505 -0.0919498 -0.0742365 -0.00619883 -0.0291054 -0.0776131 -0.0567643 -0.0680535 0.00462619 -0.00335676 -0.0352184 -0.019695 0.0871837 -0.0814495 -0.0581012 -0.136299 0.0295087 -0.0473172 0.0321361 0.0250967 -0.0740339 -0.0352638 -0.0190227 -0.0139348 0.120329 -0.0014045 0.064414 0.0532445 -0.109302 0.135734 -0.100216 0.169875 0.096293 -0.174348 -0.000482944 0.145406 -0.0125968 -0.0416526 -0.120696 -0.146521 0.055178 -0.0202062 0.154929 0.0195749 0.0283007 -0.12174 -0.070489 -0.116043 0.0826916 -0.122349 0.00396999 0.121955 0.128943 0.0233483 0.0542216 -0.0424219 -0.101957 0.0825657 0.0952291 0.0278118 -0.162278 -0.0644207 -0.0300398 -0.130917 0.082729 0.115775 0.0312832 -0.0265943 0.174132 0.0716005 -0.059453 -0.133061 0.0709298 -0.0908983 -0.0681113 -0.153242 -0.0631684 -0.11841 0.0908434
63 -0.0638335 0.0927978 -0.131794 0.0630713 0.0778484 -0.121474 -0.065306 -0.00343142 0.235319 0.0752827 -0.0308876 -0.0207226 -0.0413777 0.0842914 -0.115625 -0.161361 0.0256854 -0.150007 -0.0545956 -0.0656571 0.00898805 -0.0458616 0.0140681 0.0576272 0.0415139 -0.0766343 -0.115473 -0.000858551 0.0753417 -0.113486 0.123052 0.00899492 0.0397184 -0.0563894 0.074916 0.0590283 0.00287614 0.146976 0.00396756 0.0430364 0.0986768 0.0152223 0.0358281 0.0739664 0.0167329 0.0259588 0.130499 -0.0970102 -0.108349 0.0141558 -0.00680271 -0.0151733 -0.123088 -0.129675 0.0975403 -0.0626212 0.0223649 -0.0231872 0.0648098 -0.125871 -0.0907282 0.0906297 0.0232276 0.00885669 -0.136401 -0.161687 0.010548 0.0182702 0.0565832 -0.00218647 0.0346309 -0.0851124 0.000500752 -0.0357887 -0.0971801 -0.0382105 -0.059542 0.0322335 0.100623 0.0458361 -0.0108568 0.118214 -0.0593436 0.0534994 0.133253 -0.00686273 0.0478476 -0.15745 -0.205094 -0.0223779 0.137536 0.0645675 0.118563 0.0742749 -0.0934305 0.0411532 -0.146922 -0.0733668 -0.0380167 0.0903905 0.0568318 -0.120185 0.036171 -0.150932 0.0301406 -0.0379306 -0.14453 0.0327569 0.0992586 -0.20079 -0.144504 -0.166683 -0.123002 0.0452038 0.0370806 0.0411368 -0.0332076 0.107147 -0.0760649 0.111875 0.0497528 0.12176 0.0560878 -0.0431276 -0.16275 -0.0708195 0.061981 0.0709492
64 -0.104146 -0.107405 0.0622897 -0.0418508 0.0636872 0.0373499 -0.00819532 0.1659 -0.0278104 -0.1156 0.0936775 0.105861 0.0320346 0.0908329 0.0648769 0.011609 -0.0346795 -0.217579 -0.0296935 -0.0720834 0.17507 -0.0983864 0.0587861 0.119745 0.0789736 0.068103 -0.11921 0.0770493 -0.100791 -0.0130002 -0.0230576 0.0197387 -0.0224265 -0.00241928 0.081719 0.161544 -0.105151 -0.073372 0.104395 0.00491757 -0.110445 -0.0279548 0.115055 0.0897695 -0.13718 0.0583101 0.0720372 -0.0172584 0.118344 0.0480553 0.125819 0.0611789 0.0945816 -0.016301 -0.0464708 0.0527002 -0.0304762 -0.0858241 0.0119454 0.0266996 0.0164025 0.0751433 -0.14436 -0.148609 0.115641 -0.0728671 -0.06494 -0.0934371 -0.106052 0.0928375 -0.0718537 0.079696 -0.0399824 -0.0603341 -0.129094 -0.00728103 -0.0654087 -0.147102 0.0938015 -0.12043 -0.120345 -0.175043 -0.127908 -0.105347 0.0568465 -0.0074108 -0.0194112 -0.093559 -0.0696844 -0.129298 0.0520461 -0.025925 0.136545 0.123207 -0.191946 0.00707301 -0.0653383 0.00619721 0.00782373 -0.0955962 -0.0308969 -0.0538649 -0.100633 -0.0479476 0.0145635 -0.156508 -0.00684806 -0.0590953 -0.0725033 0.0104181 0.0675505 0.0263648 -0.161167 0.0543778 0.00176317 -0.0123141 -0.090816 0.171637 -0.0145562 -0.0724783 -0.0851094 0.0229961 -0.0557529 -0.0718257 -0.0864815 -0.115141 0.100437 0.0538221
65 0.10591 -0.04001 -0.107916 0.158657 -0.0159313 -0.118534 -0.103819 -0.0109834 0.115418 -0.088269 0.00807169 0.0209121 -0.152647 0.0683061 0.0163341 -0.0498006 0.207014 -0.01816 -0.0995962 -0.12129 0.00380746 0.115017 -0.0544336 -0.0596374 0.0329359 -0.127261 0.0425445 0.000646433 -0.0246713 -0.0558833 -0.0160347 -0.189577 0.118027 -0.0597968 0.136508 -0.00665719 -0.039173 0.0120442 0.073316 0.0509866 0.0999665 0.128667 0.0133844 0.0393603 -0.00917886 -0.095945 -0.013416 -0.0752354 0.0917493 -0.0495403 0.00635584 0.0421374 0.134314 -0.086113 -0.0503077 -0.0939586 -0.0720705 0.0983517 0.0927403 -0.0601519 0.0880531 -0.0318157 -0.0751548 0.0945069 -0.018498 0.00986596 0.0687649 0.089671 -0.075209 -0.0512944 0.114299 0.0138469 -0.125824 0.136901 -0.111322 -0.0220065 0.120313 -0.0796143 -0.0220347 -0.105301 0.0197845 -0.111926 -0.0936304 0.0163245 0.0756896 -0.00853818 0.0555333 -0.125468 -0.153767 -0.144731 0.0915139 0.0808333 0.199244 0.0894124 0.0589018 0.0620806 -0.101874 -0.0105425 -0.0860844 0.102488 -0.0938922 0.0169968 -0.0564495 -0.0823082 0.0800291 -0.0983281 -0.0675564 0.0214387 -0.00442831 -0.000604983 -0.112918 -0.0698664 -0.112213 0.145493 0.168713 -0.144363 -0.103034 0.0617243 -0.0779777 0.0921991 0.0110191 0.0309707 0.0993422 -0.0693933 -0.147974 -0.0803528 -0.129276 -0.0474201
66 0.00784287 0.0110087 -0.0127284 0.0140469 0.109941 0.0388055 -0.0357285 -0.0434016 0.17968 -0.0736616 -0.0671299 0.0766983 -0.0208418 0.0847819 -0.125235 -0.180323 0.112826 -0.154023 -0.156571 0.076893 0.153441 -0.000139304 0.214399 0.0679643 0.0242616 -0.0551448 -0.0773204 -0.00798735 0.112478 -0.0222217 -0.108469 -0.000878046 -0.0737379 -0.0268671 0.103054 -0.016189 0.0617001 0.0663832 0.110274 0.0267387 0.0833902 -0.052595 0.0891103 0.153497 -0.101727 -0.123791 0.106373 -0.0922771 -0.0112594 -0.0465784 -0.101712 -0.0849501 0.121002 -0.188852 -0.0886193 0.000381145 -0.00228561 0.0691233 0.126121 0.113026 -0.118523 0.0250462 0.0627562 -0.107579 -0.0279589 0.01953 0.00587093 0.0669315 -0.0177456 -0.0981852 -0.103691 0.000439625 -0.122139 0.142412 0.00719875 0.0209792 0.0823084 -0.0254023 0.142706 0.00183971 -0.0167807 0.0598905 -0.0636378 -0.0265301 0.00806061 0.14728 -0.0581281 -0.0948046 -0.030953 -0.00302463 0.164476 0.103552 -0.010882 -0.0246747 -0.182363 -6.04091e-05 -0.0210291 -0.0822495 -0.131421 -0.0154514 -0.0554025 -0.00719504 -0.098619 -0.0859902 -0.0679006 0.0777328 -0.0342294 -0.101433 0.0740159 -0.107304 0.0232124 0.0898357 -0.179374 0.0451079 -0.0657274 0.121188 -0.155554 -0.0661331 -0.0582009 -0.0460627 0.00504191 -0.0633055 0.00632504 -0.0819273 -0.191647 -0.0201475 -0.0114048 0.057523
67 0.0140162 -0.0217078 -0.117945 0.0715627 0.112027 -0.147705 0.00793746 -0.0457719 0.0613097 0.0597177 0.0339699 0.139158 -0.0113735 -0.0903435 -0.0286053 -0.163753 0.164174 0.0193291 -0.176951 -0.142767 0.0058647 0.0549803 0.174846 -0.0534424 -0.0274597 -0.000796105 0.0212678 -0.076311 0.0117721 -0.0724052 -0.0414611 -0.125406 0.0250438 -0.152006 0.0344674 0.144097 0.000156737 0.0396958 0.139259 -0.0156116 0.130625 -0.0523975 0.0815837 0.029978 -0.0624187 -0.0162577 0.10793 0.0543206 -0.0808732 -0.13138 -0.0703074 0.107056 -0.00382301 0.063252 -0.00123891 0.0729763 -0.0271179 0.0435303 0.11774 0.127416 -0.0303693 0.144993 -0.0438304 0.104438 -0.0236795 -0.0822396 -0.0132719 0.0457057 0.017199 -0.0432102 0.0485157 0.0683284 0.0351697 0.180317 -0.00607475 0.157131 0.0587373 0.118009 -0.0498393 -0.00122834 0.0166683 -0.0917336 -0.0317728 -0.0232441 0.122269 0.126885 -0.0206246 -0.0484046 -0.0235788 -0.0750949 0.0218714 0.0387933 0.205639 0.0243893 -0.183075 0.0127119 0.0440345 0.0438728 0.0856295 0.159142 -0.00901788 -0.0364752 -0.0495871 -0.104021 0.0696548 0.098059 0.0630528 0.0513457 -0.0906853 -0.0943454 -0.178983 -0.0424937 -0.182577 0.0798573 0.0699118 -0.000232971 -0.0388009 0.0132678 0.120959 0.177989 0.0445371 0.0208173 -0.0362667 -0.164046 -0.0292988 -0.00866353 -0.108985 0.139127
68 -0.136925 0.0133963 -0.0606883 0.179342 0.0953221 0.0814131 -0.0386959 0.038947 0.115069 -0.167445 0.0891825 0.0270097 0.00731467 0.10332 0.0323122 -0.0969863 0.0381639 -0.0165937 -0.0843429 -0.0889335 -0.0740535 -0.0602203 0.12955 -0.0433447 0.00420375 -0.0244587 0.029195 -0.0344234 -0.0823212 -0.000769998 0.0570295 -0.0611685 0.125945 0.0570157 0.0544285 0.139771 0.0317423 -0.138354 0.113954 -0.044643 -0.00315679 0.101446 0.148601 -0.0310818 -0.117008 0.0499377 -0.109365 0.0371709 -0.0204581 0.0720158 0.178646 0.00608735 0.039965 0.0113877 0.0687273 0.148816 -0.0355984 -0.173966 -0.0142675 0.165331 0.148568 0.0560626 -0.105423 -0.127807 0.0129409 -0.160438 -0.0804542 0.0706924 -0.0307957 0.11535 0.0309521 0.0190248 -0.0375321 0.0872552 0.0352205 -0.0664147 -0.0014524 -0.12847 -0.0384437 -0.0639964 -0.049164 0.0371388 0.0292546 0.0230168 0.130148 -0.130962 0.12883 -0.153088 -0.0746628 -0.146954 0.119635 0.0295943 0.0740313 -0.0729538 -0.156453 -0.0100671 0.102982 0.0132267 -0.0549508 0.0443923 -0.101322 0.0604902 -0.060523 -0.098609 0.104111 0.0235876 -0.0278956 -0.0298714 0.131765 -0.213239 -0.0937361 0.103403 -0.111673 -0.0682429 0.152701 -0.0103319 -0.0563147 -0.0370664 -0.0237037 -0.0390346 0.0692004 0.0175601 -0.0361084 -0.0106215 -0.131597 -0.0533383 -0.072682 0.112027
69 -0.175371 -0.128596 0.0321239 -0.000295701 0.0105857 0.0378343 -0.146155 -0.110618 0.128907 -0.0736098 0.14516 -0.0297417 0.0864645 0.0380566 -0.0294489 -0.173414 0.21321 -0.146306 0.0285857 -0.0700852 0.125668 0.0699699 0.0789806 0.0141779 0.00556319 0.072627 -0.120583 -0.0188024 0.039606 0.0646648 0.0485266 0.0573417 -0.0362439 -0.0380603 -0.00785069 0.00887291 -0.0463529 0.0104887 0.140501 -0.0789595 -0.151806 0.11155 0.10503 0.121413 -0.103824 -0.145691 -0.044775 0.00968617 0.053222 0.0582678 -0.0985152 -0.114036 -0.0365451 -0.00526688 -0.0482416 0.125317 0.076268 0.0765806 0.0148458 -0.0755693 0.0253187 -0.0383378 -0.0227325 -0.0938979 -0.026701 0.015617 -0.121973 -0.0980059 0.0499807 0.0407502 0.0307927 -0.0418834 -0.115337 0.0194464 -0.130964 0.00787007 -0.0180774 -0.137013 -0.0889579 -0.0848032 0.0559714 0.105884 -0.165455 -0.0469503 -0.0508392 -0.0770845 0.0692686 0.0519484 -0.194692 0.0364315 0.0631719 -0.101469 0.102803 0.00767506 0.0179794 -0.123585 -0.133334 0.125305 -0.0695757 0.0777705 -0.103666 0.00107505 -0.163376 0.075411 -0.003994 0.0852778 -0.154369 0.0593456 -0.05273 0.00731754 -0.0297373 -0.00291634 -0.156076 0.0319008 0.0756401 0.0684478 0.122358 0.040053 0.0177903 0.164125 0.0871942 0.111901 -0.0596059 -0.0661423 -0.00587364 -0.0908575 -0.132434 0.0321213
70 0.0244268 -0.132984 -0.142035 0.0893816 -0.117421 0.103356 -0.0523706 0.131821 0.0799839 -0.0102708 0.118719 -0.0681593 -0.0758953 0.0789221 -0.0832931 -0.141948 0.0927248 -0.0863445 -0.160395 -0.0794948 0.117387 0.0363579 0.177994 -0.0855547 0.0878124 -0.0451861 0.0320919 0.0345939 0.0386745 0.114011 -0.10093 -0.155745 -0.0221076 -0.0881209 0.00083542 0.0623114 0.0492631 -0.148249 0.0471317 0.0887748 0.11965 0.0949579 0.170333 0.144954 0.0934045 0.0409829 0.0452858 -0.0481008 -0.00926622 0.0655456 0.0970756 -0.130811 -0.0570314 -0.0171126 0.0847791 0.133365 -0.0312787 0.061671 0.0645293 0.092693 0.119565 -0.00907062 -0.0453631 0.135129 0.0850205 0.0433359 -0.0281528 -0.0896253 -0.120206 -0.0474707 -0.0172312 0.0617912 -0.0961847 0.114678 -0.0487162 0.0481561 -0.0492648 -0.145589 -0.106241 0.1107 -0.0222064 -0.0609664 0.0396649 0.0148312 0.0190128 -0.0193175 -0.0406636 -0.0684083 -0.118069 -0.0558704 0.0993666 0.0361654 0.013104 0.070888 -0.101203 0.0869805 -0.100223 0.0705596 -0.0196115 0.0571518 -0.0675057 -0.00539738 -0.0779388 -0.123179 0.0443574 -0.125589 0.0727583 0.106917 0.107656 0.0507141 0.0361739 0.110902 -0.188019 0.076234 0.0934126 -0.120523 0.0516588 0.0338523 -0.0171596 -0.107864 -0.0363726 0.0518042 -0.127949 -0.108134 0.0454829 0.102085 0.0468966 0.155233
71 -0.0346897 -0.0609364 0.0179253 0.0390748 -0.0700333 -0.0870092 -0.108914 0.098228 0.14413 -0.109853 0.120391 0.142582 0.0557912 0.0759722 0.0350647 -0.181003 0.196094 -0.0417123 -0.0365639 -0.124171 -0.0762054 -0.114252 -0.07459 0.0850547 0.0137818 -0.0438335 -0.176722 -0.074643 0.0040668 0.0565855 0.0645935 -0.162802 0.0997446 0.0135158 -0.0384537 0.0889564 0.00510454 -0.0694008 0.0367885 -0.0852446 -0.0209858 0.0336968 -0.0386325 -0.0005491 0.0432474 -0.0793534 -0.0302076 0.0529309 0.137483 -0.0844226 0.0319855 -0.062591 0.0306171 0.0601151 0.138859 0.0919431 -0.0152831 0.0554958 -0.107422 -0.047594 0.101784 -0.0837462 0.0537092 -0.0271701 0.0881634 -0.123392 -0.0515414 0.123798 -0.151784 -0.123586 -0.103807 0.0643127 -0.0630646 -0.0812384 0.00338205 0.0846666 0.00890564 0.0284288 -0.147084 0.0156377 0.0491584 -0.110194 -0.150862 0.00365951 0.0841988 -0.104954 0.022799 -0.0992673 -0.101848 -0.0762581 0.078042 0.107037 -0.0117132 0.0113095 -0.0486675 -0.159413 -0.0281876 -0.063446 0.087179 0.0225806 0.0928806 0.117821 0.0424628 -0.0392244 0.0503026 0.110077 -0.0328066 0.0380591 0.0713814 -0.123544 -0.12742 -0.0793668 -0.130505 -0.125779 0.106147 0.121885 -0.0388807 0.0514278 0.082518 0.0970491 -0.159491 -0.029201 0.117046 -0.158679 -0.0466741 -0.123786 -0.0660393 0.102121
72 -0.130604 -0.127445 0.0469558 -0.0817344 0.125898 -0.121209 -0.00606385 -0.0214893 0.0858067 -0.0631688 -0.0425087 0.0563142 -0.105353 -0.050578 -0.0511729 -0.0752099 0.178194 0.0114553 -0.136711 0.0149388 0.000239181 -0.125493 0.180013 0.0556738 0.0129562 -0.0991968 -0.169556 0.0107676 -0.101902 -0.0444108 0.0442631 0.00266132 0.014344 -0.187554 -0.0218189 -0.0121064 0.0673936 0.00742969 0.15085 0.0829533 0.0227035 0.155792 0.00147061 -0.0474909 0.0558148 -0.0859632 0.121399 -0.0830384 0.00438096 0.0591758 0.11989 -0.00836151 -0.183268 -0.0269607 -0.0602432 -0.130123 -0.0510919 -0.0744828 -0.0171651 0.0549736 -0.0771405 0.0973871 0.052453 0.153834 0.0270148 0.0443854 -0.0733308 0.0255845 -0.133046 0.130558 0.00445636 -0.0519553 -0.127995 0.170992 -0.0621 0.141376 -0.120806 0.0248215 0.159518 -0.116886 -0.0797557 -0.0300796 -0.124244 0.119945 0.0208017 -0.00663722 0.0972277 -0.130731 0.00893405 -0.106662 -0.0104788 0.023258 0.150237 0.0388122 -0.0767673 -0.00241422 0.0558065 -0.0194794 0.0701153 0.0721428 0.0886333 0.14106 0.0456348 -0.0826599 -0.14247 0.0901526 -0.130281 -0.00589578 -0.0623877 -0.0112158 -0.116409 -0.0423218 -0.0742656 0.00281098 0.0738472 -0.138093 -0.100629 -0.0646892 0.0902342 -0.0306613 -0.0838998 0.102605 -0.000408115 -0.051852 -0.00644565 0.060928 -0.010486 0.0941606
73 0.0603639 0.00847238 -0.102785 -0.0350391 0.0532741 -0.109536 0.0809868 0.1015 -0.0695641 -0.110052 -0.00634887 -0.0699183 -0.0613491 0.11713 -0.103298 -0.0241277 0.133847 -0.255522 -0.149127 0.0533236 0.0705348 -0.090048 -0.0572275 0.0938271 -0.0612695 0.124548 0.0442498 0.0441912 -0.0449428 -0.0286394 0.127426 -0.204001 0.0413298 0.0456692 -0.0793283 0.0510519 -0.00674291 -0.0688356 0.0631086 -0.0112498 -0.109324 0.101812 0.0734704 -0.00586323 -0.146466 -0.0564736 0.015039 -0.0154154 -0.0423206 -0.0923205 -0.0940283 -0.166125 -0.126544 0.0506035 -0.0516053 -0.11719 -0.0103612 0.0475293 -0.0982765 -0.0583476 0.137881 0.0701863 -0.0799058 0.0267118 0.100959 -0.074328 -0.119166 -0.00717672 -0.200431 0.0908321 -0.0520046 0.103921 -0.152076 0.0499608 -0.0793209 0.0425592 0.0197765 0.049869 0.0191274 0.0979097 -0.0803892 0.0169323 -0.165094 0.00333915 -0.0173981 0.0590202 -0.0321713 -0.0410309 1.60974e-05 -0.00814029 0.0344941 -0.02795 0.0790481 -0.107846 -0.165607 -0.0146063 -0.12486 0.0822564 -0.0246132 0.00185185 0.0594236 0.122747 0.0269057 -0.0353266 0.0430722 0.0909946 -0.128455 -0.0454833 0.063608 0.0559282 0.104329 0.0233563 -0.163809 0.141234 -0.073006 0.0731407 -0.0779862 -0.0476245 0.113324 -0.0992699 -0.0253406 -0.0468073 -0.126201 -0.0720744 -0.205195 -0.0265698 -0.0886856 0.0414284
74 0.0577117 0.0771704 -0.0127206 0.139408 -0.0850987 -0.112584 -0.057579 0.0948524 0.214738 -0.00438121 0.0508993 0.148803 0.13611 -0.0893195 0.0903766 0.0450595 0.120241 -0.0227256 -0.158286 -0.0401186 0.0928771 -0.108713 0.140785 0.0352205 -0.137441 -0.164788 0.00276877 -0.046992 0.0177834 0.0477779 0.145926 -0.113788 0.109074 -0.0105586 -0.0783746 0.0539269 -0.097547 0.0214736 -0.0941579 -0.0529898 0.159089 0.111224 -0.0506388 0.0638256 -0.161602 -0.124864 0.0289372 0.0525973 -0.0508648 -0.0156259 0.0995144 -0.0418321 0.0974662 0.0237546 -0.0590674 0.0142417 -0.0284871 -0.0488564 0.0680055 -0.06697 -0.102438 0.10518 -0.0169387 -0.0110168 -0.107574 -0.0117836 -0.0704604 0.127711 -0.00291692 0.0960052 -0.158956 -0.00988045 0.0715528 -0.0884257 -0.0173399 -0.0136872 -0.0495588 0.0507133 -0.053379 0.0350172 -0.0913293 -0.061965 -0.112181 -0.0193771 -0.033069 -0.0570099 0.0230095 0.0182132 -0.132083 0.13701 0.0803456 0.116046 0.0694628 0.112215 0.0727726 -0.0016085 -0.14167 -0.0784075 -0.11757 0.107264 -0.119951 -0.0524278 -0.153023 -0.156481 -0.138512 -0.0499707 -0.0137647 0.148036 0.0569471 -0.175011 -0.0400111 -0.034397 0.00110021 -0.0589118 0.0143025 -0.046239 -0.0595378 -0.00687885 0.0146326 -0.123342 -0.0287715 -0.120935 -0.0617739 -0.0711397 -0.102173 0.0556143 0.0948124 -0.0142937
75 -0.104443 -0.0999811 -0.0867583 0.0721858 -0.0300263 -0.100307 -0.150838 0.00681292 0.110434 -0.107575 0.00583994 -0.0261307 -0.0190622 -0.0751938 -0.0960198 -0.149968 0.206614 -0.123234 -0.22708 -0.212376 0.00889156 0.0814322 0.0626788 0.0948864 -0.155321 0.0178721 -0.00806982 0.0332585 0.0625074 -0.147282 0.0783271 -0.0631451 -0.0253758 0.0197217 -0.0790257 0.0408065 -0.0398853 0.0300358 0.0491835 0.0144022 0.017409 -0.0288594 -0.0556005 -0.125048 -0.0186671 -0.0333717 -0.0168258 -0.061286 0.116589 -0.0246027 0.0099083 -0.0994841 -0.0132709 -0.0862782 -0.0532658 -0.0181556 0.0741182 -0.0209768 0.0773496 -0.0472322 0.192721 -0.0690494 0.0557095 -0.0252048 -0.0836378 -0.0274274 0.0199981 0.110929 0.0566442 -0.0048589 -0.0767494 -0.137381 -0.119773 0.136742 -0.0587151 -0.0623825 -0.0503797 0.00357481 -0.0750512 0.122596 0.11749 0.00791239 -0.0716511 -0.0626078 0.0717298 -0.12284 0.106758 -0.137684 -0.128352 0.0381954 0.128349 -0.0624497 0.120263 0.0741471 -0.0306889 -0.0567333 -0.0764473 0.0889901 -0.101912 -0.0353086 -0.0791072 0.0200566 -0.131503 -0.0809566 0.073334 -0.155532 -0.0231391 -0.0883739 0.0699627 -0.136843 -0.0947151 -0.144401 -0.0193409 -0.0787267 -0.0606019 -0.0330452 -0.0259232 -0.0585728 -0.0678834 -0.0266814 -0.0920735 -0.0512035 0.0298691 -0.152787 -0.151322 0.106191 -0.0963314 -0.076574
