2708 128
0 -0.15214 0.156421 0.14136 0.0618645 -0.0486013 0.132934 0.166402 -0.119433 0.0565443 0.0830312 -0.0240911 0.118136 -0.0683642 0.123857 -0.0652095 -0.0541696 -0.0644101 0.122275 -0.00581682 0.0628075 0.0101978 -0.200874 -0.00999773 0.139217 0.0855835 0.0109037 -0.0669003 -0.0257831 0.0569824 0.0920457 -0.0843963 -0.0593804 -0.0207228 -0.0852412 -0.0784148 0.117631 -0.0619672 -0.0274167 -0.121476 0.0305502 0.0991096 0.0752525 -0.0290088 0.0652068 0.103441 -0.0224467 0.102006 -0.130479 0.0654816 -0.0487216 -0.0462814 0.0937845 0.117036 -0.0289774 -0.0425264 0.121205 0.024702 -0.14828 -0.0182616 -0.0786984 -0.201264 -0.0759319 0.00517609 0.0384163 0.00915792 -0.044647 -0.103966 -0.120395 -0.00587819 -0.0874638 -0.0751995 -0.154262 -0.091217 0.0462328 -0.0365629 0.0465048 0.0915116 0.0391782 0.208593 -0.122999 -0.0906013 -0.0412329 -0.0122616 -0.0765636 -0.0249944 -0.0686664 0.0504299 0.0465273 -0.0987175 0.0533312 0.0686549 -0.0422957 -0.0134521 0.00631815 -0.0753442 0.118185 -0.0856448 0.183149 -0.115985 0.0362385 0.172611 -0.180861 -0.0519359 0.00167308 0.0375838 -0.0780383 0.144255 -0.131408 0.00703809 -0.0558667 0.118839 -0.0233214 -0.011757 -0.00150642 0.0255493 -0.0115259 0.0495637 0.0453373 0.0741407 0.128742 -0.0611065 -0.0851649 -0.130575 -0.0355865 0.03952 0.0329479 -0.0838494 0.0370992
1 -0.179275 -0.0796352 -0.0506934 0.00529662 -0.0193029 -0.07407 -0.0452284 -0.0377806 0.00379715 -0.00607227 -0.0313513 -0.00942708 0.0438841 0.0306983 0.110424 0.0877784 -0.0300944 -0.0826461 -0.129276 -0.0532834 -0.0337877 -0.117914 0.0653614 0.0331109 0.00467286 -0.143038 0.0325505 -0.0653629 0.0169501 -0.190681 0.0690452 0.0467671 0.00707 -0.0138704 -0.0421707 -0.0975159 0.0106355 0.0247605 -0.000117232 -0.0406359 0.181424 -0.00813013 -0.0569584 -0.132084 0.0303898 0.0761066 0.0497247 0.0388346 0.0777256 -0.0859154 0.122881 0.0835904 0.100284 0.149378 -0.0875318 -0.00969016 -0.0486235 -0.184468 0.0117971 0.067439 -0.187965 0.0133953 -0.0149855 0.207055 0.0200581 -0.0079617 0.14983 -0.0543833 -0.0856796 -0.148351 -0.100418 0.162249 0.105079 -0.0837661 -0.0745974 0.0965187 -0.134242 0.0763224 -0.0104443 0.111926 0.0994498 -0.0324232 -0.0638663 -0.0347452 -0.00211237 -0.0574839 -0.0454578 0.0972882 0.0415325 0.0875386 0.121129 -0.0741663 0.0540135 -0.0882578 -0.0385046 -0.0872619 0.0386037 0.126883 -0.0957861 0.0421246 -0.0156234 -0.065446 0.0759731 0.015908 -0.0860087 -0.114181 0.161464 0.135475 -0.0128358 0.164488 -0.126174 -0.0480674 -0.10863 0.0799425 -0.0937643 0.0623272 0.00226691 0.063827 0.120464 -0.192787 0.00271458 0.0703536 -0.100271 -0.00966653 0.0155084 0.178384 0.0986874 -0.0238484
2 -0.0667251 0.0133291 0.0435991 0.0956771 0.122619 -0.0556223 0.0849388 0.0681839 -0.0982667 0.124914 0.0334525 0.0822423 -0.110371 0.00103239 0.137241 -0.0483685 -0.0499314 -0.0796357 -0.00742778 0.0929086 0.10265 -0.124663 0.0458679 0.0761279 0.0524637 -0.155911 -0.0846389 -0.0437102 0.111321 -0.0397805 -0.0560665 0.0977015 0.0444298 -0.139439 -0.00603424 0.0464437 0.0368546 0.0614872 -0.00904667 -0.104014 -0.0278422 -0.0772965 -0.0545488 -0.0721608 -0.0170773 -0.0130928 0.00973332 -0.113982 -0.0152355 0.168869 -0.08757 -0.0893496 -0.0989612 0.273179 0.0364672 0.0119125 0.0955634 -0.114581 0.0642761 0.0362555 -0.198744 -0.0318494 -0.134624 0.0454406 0.0718479 0.0571419 0.0332663 0.00464066 -0.0804138 0.0471378 0.0107671 0.0601089 0.00973019 -0.0382292 -0.179501 -0.0876991 -0.00584389 0.0263139 0.118948 0.0112822 -0.000517266 -0.111671 0.0167319 -0.212012 0.0998923 -0.173787 -0.119697 -0.0772902 0.0191359 -0.0292759 0.00754887 -0.0921366 0.0586145 -0.13197 0.00918029 0.0135135 -0.0678465 -0.0116015 0.0676878 -0.130702 0.107188 -0.134519 0.0401147 0.0477085 -0.138389 0.0356708 0.124655 0.0916955 0.0658402 0.0745378 -0.0919344 -0.024037 -0.0402316 0.0722368 0.0194449 0.0271791 0.0515624 -0.104513 0.0477848 0.0241005 -0.110459 0.0590805 -0.216277 -0.154172 0.0647914 0.111638 0.0505839 -0.0784674
3 -0.0791169 -0.0192317 -0.0602598 -0.0776879 0.033622 -0.0509012 0.0161097 0.0183342 -0.00858092 0.112806 -0.0804219 -0.0205182 -0.0713233 0.0365554 -0.0234751 0.0776036 -0.00323318 -0.0149837 -0.0374207 -0.00893634 0.0150456 0.0412539 0.0546906 0.142869 0.0831045 -0.12882 -0.125933 -0.0174333 -0.0259112 -0.00841693 0.0293301 -0.00604475 -0.0923797 -0.314764 0.0451789 -0.058818 0.14863 0.0956487 0.0467407 -0.15022 0.0531174 0.0680144 -0.130787 0.00377705 0.112556 -0.0488994 0.0626612 -0.0867994 -0.0429764 0.183083 -0.0501049 -0.0310207 -0.0857155 0.159427 0.0848675 0.092684 0.001085 -0.103576 0.0187955 0.0138976 -0.143556 0.0135082 -0.0969544 0.0934857 0.0646847 -0.100878 -0.0285202 0.000717098 -0.124332 -0.0671181 -0.102003 -0.0204758 0.0607239 -0.0590895 -0.0213787 0.0303787 0.0359109 -0.0180973 0.140053 -0.0148789 -0.0811455 -0.13479 0.00286231 -0.197845 -0.0462629 -0.150824 -0.0248313 -0.0445713 0.0292064 0.0542791 0.0244503 0.00534347 -0.0865113 -0.154783 -0.108902 -0.0503307 0.0151188 -0.0405527 0.0740293 -0.18607 0.169419 -0.113249 0.07129 0.130869 0.0273785 -0.0281883 -0.0336561 -0.0848564 -0.0118356 0.0572709 -0.00834743 -0.0148995 -0.0936737 0.0415109 -0.0709637 0.174333 0.0727275 -0.101571 -0.0103099 0.12119 0.0291419 0.0207003 -0.167182 -0.135181 0.128806 0.19514 -0.0207296 -0.0685995
4 -0.0086348 0.111711 0.0260961 0.00332336 -0.0209271 -0.0229963 0.185906 -0.00583006 0.0415148 -0.0702628 0.170236 0.106732 -0.0853186 0.114418 -0.0908194 -0.00202802 0.0997034 0.068572 -0.0270178 -0.10161 0.109502 -0.10336 -0.0512058 0.0428982 0.0497217 -0.146497 0.00655491 -0.099233 -0.104032 -0.00661433 0.208339 0.0234912 -0.0667071 -0.0381455 -0.170938 0.0851559 -0.119028 -0.0405732 0.0527477 -0.131072 0.0693713 0.0665435 0.0523979 -0.0486495 0.0838182 0.0658023 0.0109139 -0.0358707 0.0571943 0.113886 0.0265087 0.0129496 -0.0647468 0.245107 -0.0206196 0.0590562 0.0808727 -0.00870029 0.0988049 -0.040056 -0.133183 0.035838 -0.121903 0.121128 0.177596 -0.0815829 0.0664985 0.0817565 -0.039705 -0.093002 -0.0282662 -0.080076 0.124722 -0.00885828 -0.0260001 -0.031527 -0.0628873 -0.00391212 0.0867835 -0.0486093 0.0977314 0.0466732 -0.0984927 -0.17617 -0.0192007 -0.00051244 0.0097609 0.134457 0.0520734 0.0357294 0.031806 -0.0454224 0.0677339 -0.0246523 -0.136378 -0.154525 -0.180811 -0.040862 -0.0572695 0.0137435 0.0154584 0.0432679 0.00244869 0.0735206 0.0689087 -0.108709 -0.0477522 -0.0692856 -0.0631503 -0.0503419 -0.122424 -0.21637 0.0567921 0.114576 0.0328679 0.0763792 0.0137617 -0.184322 -0.0294819 0.0270677 0.0841106 -0.153791 -0.00450864 -0.0176906 -0.0324711 0.0406217 0.151709 -0.012928
5 0.0758182 0.0420689 0.0362591 -0.0208033 0.130609 0.0357916 0.109933 0.091404 -0.0362188 -0.0414672 0.0075883 -0.0350543 0.106012 -0.0470483 -0.0273346 0.0845703 -0.0281264 -0.128197 -0.00520135 -0.0382368 0.0105714 -0.0324458 0.0695427 0.044733 -0.0722963 -0.0365108 -0.0212031 -0.0385745 -0.00383005 0.036805 -0.0247388 -0.122662 -0.0392701 -0.16107 -0.131079 -0.0684149 0.0473017 0.0804395 -0.0898054 -0.0591348 0.139808 0.0313339 0.22368 0.0186945 0.075672 0.18524 0.0223394 -0.102564 0.147294 -0.00476489 -0.0919055 0.197117 -0.0356444 0.283289 0.00633967 0.0295746 0.0525305 -0.138386 0.0525879 -0.0481905 -0.000224681 0.106504 -0.012217 0.186391 0.0359462 0.0407633 -0.0576999 0.0954538 -0.062578 -0.138362 0.0924584 -0.162022 -0.0779384 -0.0760022 -0.0156206 0.134938 -0.107831 -0.0806708 -0.0135746 -0.00168606 0.0671002 0.0262349 -0.0446703 -0.118546 -0.104881 -0.0471537 -0.0107506 0.040345 -0.0618695 0.0793151 -0.139407 -0.040649 -0.0858124 -0.0414343 0.0548883 -0.00915066 -0.0782171 0.02767 -0.0188065 0.0671675 0.141921 0.052512 0.016651 -0.0682747 -0.0442705 0.00605032 0.0239854 0.111757 0.0856166 0.0653579 -0.0732638 -0.00437659 -0.0465211 0.0660807 -0.191375 -0.0523153 0.0537558 -0.0906741 -0.0116864 0.0126061 -0.122048 0.0638859 -0.137849 -0.0594774 0.0115417 0.131407 0.123346 -0.23072
6 -0.00972251 0.0468921 0.0413454 -0.0212253 -0.120181 -0.0552984 0.0911165 -0.0286581 -0.0212217 0.122254 -0.0635769 0.118198 0.0718364 0.0444767 -0.0446518 -0.122778 -0.0158 -0.0795331 -0.0434772 0.0145764 0.00878279 -0.0690085 -0.0667363 -0.0364279 0.0663252 -0.133809 0.00578755 0.043054 0.047047 -0.117045 0.110215 0.0491258 0.0361659 -0.0825016 -0.0271235 -0.112614 0.0532869 -0.042508 0.0095756 0.0181907 0.113327 -0.160151 -0.0474669 -0.0543137 0.059445 0.099845 -0.0625568 -0.0954394 -0.144416 -0.0448208 -0.0406126 0.103795 -0.152369 0.222701 0.0509565 -0.0465758 -0.0303074 -0.0808029 0.137095 0.132459 -0.26139 0.0630979 -0.0358373 0.181151 0.0896261 0.0466546 -0.105235 -0.0239026 0.014089 0.0739988 -0.0337957 -0.0799221 0.0259199 -0.0997259 -0.0365136 -0.0394715 0.0177011 0.034452 0.102526 -0.0608218 0.0850239 -0.0480663 0.008098 -0.185623 -0.104034 0.00315288 -0.0689476 -0.0242967 0.0245999 0.0866401 0.0673259 -0.0480965 -0.0148274 -0.159033 -0.00676296 -0.0892084 0.0544881 0.0656903 0.03856 -0.0881566 0.189204 -0.0897311 0.0586395 -0.127603 -0.0103985 -0.0646706 0.0142818 0.12302 -0.0432584 -0.0531113 0.0283486 -0.0597598 -0.117144 0.0183965 0.0144214 0.231934 0.0321853 0.149059 -0.194287 0.154825 0.0264878 -0.022853 -0.0624097 -0.132929 -0.0535987 0.0880922 0.0657341 0.069903
7 -0.0724922 0.0527825 0.0914425 0.0861418 -0.0809727 -0.0322002 0.00383738 -0.0920844 -0.0780939 -0.0614066 0.0212832 -0.0156666 -0.0817177 0.0168332 0.0751214 0.051274 0.0819018 -0.0166654 0.0359902 -0.116544 -0.042482 0.00798332 -0.072617 -0.03313 -0.127378 -0.0826947 0.00734059 -0.0623276 0.0330547 -0.108235 -0.0408835 0.106531 -0.0571674 -0.0422891 -0.21526 -0.0747524 0.0475367 0.0070513 0.110192 -0.142509 -0.0114841 0.0954747 0.124117 -0.156065 0.0866035 0.116443 -0.0556933 -0.175242 -0.0525006 0.0855914 -0.108935 0.0410997 -0.063251 0.0609179 0.0669386 -0.0885438 0.0272256 -0.242728 -0.0212199 -0.0307914 -0.0751053 -0.0543345 0.0365257 0.178015 0.0279692 -0.0478247 -0.0771805 -0.0292036 -0.0648497 -0.0506205 0.00939742 0.0102043 0.126974 0.0673259 -0.125744 0.105009 0.020368 0.057136 0.0839808 -0.105143 -0.137064 -0.130183 -0.199383 -0.082969 0.0296281 -0.112208 0.117483 0.140846 -0.0432674 0.0294963 0.0936126 -0.0218765 0.102719 -0.0283336 0.102785 0.0303518 0.0275416 -0.0680515 0.065676 -0.0759396 0.0534749 -0.0611123 -0.117876 -0.151225 -0.000767991 -0.0582689 0.163955 -0.153908 -0.065194 0.0754888 0.0159578 -0.00571895 0.143121 0.0872599 0.128714 0.0581001 -0.0361547 0.115475 -0.0657532 -0.0638788 -0.03049 0.072936 -0.0192858 -0.0953529 0.194158 0.0411911 -0.0658742 -0.0735096
8 0.0990906 -0.0406991 -0.0408368 -0.0361424 -0.160455 -0.00560222 -0.0354806 -0.126041 0.118522 -0.00267415 0.0170361 0.0344285 -0.0391904 0.0304147 0.0406251 0.0141228 0.130011 0.0706093 -0.0276624 -0.134035 0.162657 -0.18199 0.000431852 0.0279578 0.0266583 -0.263342 0.0246739 -0.122772 0.132086 0.0548635 0.102546 -0.0811776 -0.0654221 -0.0366192 -0.0874709 -0.122093 0.0828188 -0.0338584 0.049446 -0.0701429 0.118885 0.0814911 -0.112375 -0.0402813 -0.00349452 0.049413 0.0154363 0.0520762 0.114978 0.0657379 0.152995 -0.0313993 -0.000586875 0.128819 0.0204218 -0.0177399 0.0851009 -0.167727 0.0127144 0.0882234 -0.294576 -0.0986881 0.0383317 0.293128 0.0335132 0.0264636 -0.0838128 0.0312583 -0.057127 -0.0590669 -0.0936105 -0.182019 0.144228 -0.0502279 -0.120798 0.00841027 -0.0478717 -0.00572268 -0.0889993 0.0682055 -0.0489732 -0.107077 -0.153058 -0.0190979 -0.243491 -0.0498356 -0.0267295 0.118873 0.0116049 -0.0847599 -0.00793991 0.0236194 0.0480838 -0.0406428 -0.000329251 -0.0539314 -0.0791112 0.0444473 -0.0885726 0.0541673 -0.0219473 0.00247113 0.029202 -0.042158 0.03383 0.00493779 0.135725 -0.0685677 -0.0160279 -0.00984124 -0.0594807 0.0142209 -0.0632626 -0.0441094 0.015723 0.0417943 0.0294713 0.0218411 0.0586061 0.0049935 -0.0725923 -0.105097 0.00112342 0.0392774 -0.034848 0.0282177 -0.0642885 -0.0182018
9 0.00528816 0.0248071 0.0831163 -0.099352 0.0301844 0.00769296 0.0913584 -0.128493 0.1422 0.0691635 0.0745247 0.0423042 -0.0990134 -0.0887155 0.138806 0.127788 0.0854653 -0.092822 0.01113 0.0910817 -0.0793979 -0.0284468 0.00163462 0.190183 -0.0682097 -0.110328 0.123802 0.0675743 0.00791111 -0.084541 0.0710508 0.0672153 -0.0132602 -0.154391 -0.109601 -0.0449803 -0.132218 0.0754847 0.173355 -0.169839 0.127031 0.0521293 0.157485 0.0392933 0.0962116 0.075801 0.14478 0.050266 0.102291 -0.0265465 0.136354 0.160144 0.0948897 0.137355 -0.0607913 -0.0332885 0.125818 -0.0587459 0.0690922 -0.0603438 -0.122341 -0.0660965 0.0185367 -0.0189058 0.00478864 0.0418174 -0.061755 -0.0541899 -0.00968859 0.067313 0.080735 -0.00992701 -0.00253055 0.0296918 -0.0331322 0.0818182 0.00930714 -0.0875787 0.0451546 -0.0524025 0.0328453 -0.144845 -0.03569 -0.0485269 -0.0226706 -0.0129198 -0.0724311 -0.0584373 -0.0328034 0.11539 0.00735666 0.00690432 0.0186541 -0.0115733 -0.00533464 -0.0589815 0.0196901 0.0356189 -0.147826 -0.146738 0.216697 0.0231751 0.125845 0.00904733 0.0758895 -0.0540011 0.132537 -0.0678467 0.0175035 0.162876 -0.00326634 -0.0433045 -0.136037 -0.0133082 -0.0618047 0.0987653 0.0619928 -0.118061 -0.0470908 -0.0606069 -0.160689 0.128338 -0.0807137 0.00381268 0.110352 0.147029 -0.0901119 0.0346534
10 -0.112581 0.0241568 -0.00490188 -0.0906759 -0.0879006 -0.0338466 -0.0939893 -0.131724 -0.00958927 -0.0904358 -0.104117 -0.144642 -0.0411753 0.0838405 0.0908929 0.0441584 -0.0364365 -0.0210535 -0.0570117 0.0174647 0.0486751 0.000675538 -0.0122008 0.119905 0.035175 -0.00635336 -0.0656246 -0.149754 -0.0437099 0.0981117 0.116089 0.00320243 -0.0335784 -0.108512 -0.105877 0.0238352 -0.0787141 0.0354867 -0.0473631 -0.0903558 0.185051 0.00590095 0.146016 -0.0460562 0.022196 -0.0457071 -0.00397784 -0.0247228 0.0298804 -0.0962687 -0.0510319 0.127354 -0.0100464 0.0660157 -0.00731518 -0.0856522 0.037608 -0.20853 0.0905175 -0.0502933 0.0193912 -0.119588 0.0330003 -0.00398415 0.124538 -0.0666341 -0.00956575 -0.112352 0.0700951 -0.0457167 0.0960473 0.105003 0.155637 -0.0253659 -0.0315956 -0.0560005 0.0122626 0.116249 0.146519 0.0312919 0.0561747 -0.0892491 -0.177316 -0.0772681 -0.231537 0.117973 -0.0179542 0.163044 0.031903 -0.148666 -0.0954486 0.0366452 0.067008 0.00421088 -0.000339539 0.0670589 -0.131135 0.0192143 0.0512474 0.00454786 0.11732 -0.110833 0.133418 -0.00286801 -0.0448869 -0.0855834 0.174032 -0.0105573 0.036016 0.0628994 0.0649956 -0.0273722 -0.0136702 -0.0791439 -0.0956545 0.166272 -0.00314585 0.0584573 -0.143436 0.0534902 -0.0947943 0.160009 -0.130539 -0.133567 -0.115895 0.109815 0.0354466 -0.0507217
11 -0.0285636 0.0496824 -0.0131641 0.00703529 -0.0417767 0.128659 0.0926208 0.0497756 -0.00776355 -0.092026 -0.0518425 0.178745 0.0363014 0.0310672 0.0762445 0.0386271 0.0837413 -0.0723347 0.088938 -0.147674 0.089385 -0.045063 0.0999417 0.118677 -0.107679 -0.143163 -0.0833251 -0.0970565 -0.0357995 -0.000822905 0.0586965 -0.0718309 0.0458901 -0.122459 -0.0475053 0.0043759 0.108012 0.0617804 -0.0393734 -0.0740729 0.147083 -0.0372748 0.220304 -0.0222286 0.0523637 0.110375 -0.0312065 -0.191596 -0.0395209 0.00552953 -0.116655 0.0119536 -0.0256285 0.108906 -0.0280545 0.0203796 0.120085 -0.196598 0.0326147 0.0369043 -0.0657901 -0.123248 -0.023507 0.0554968 0.0111415 -0.140319 -0.149932 0.095377 -0.132478 0.0102869 -0.0123719 0.103783 0.134691 -0.0550277 0.000574844 -0.0413906 -0.116928 0.138491 0.0298137 -0.0567847 0.00514223 -0.000594118 -0.118625 -0.0984234 -0.00873082 0.0239241 0.0735467 0.0698883 -0.105066 0.0256674 0.0353672 -0.152771 -0.0288515 -0.106963 0.0442962 -0.125088 -0.0200348 0.00121384 -0.0685416 -0.0958274 0.145218 -0.111434 -0.0748489 0.0605844 -0.06486 0.0573209 0.119163 0.0410698 -0.0120033 0.194891 -0.095043 -0.0773813 0.0795715 -0.147925 -0.0328977 0.117141 0.114758 -0.0380815 -0.0339976 0.0450961 -0.15399 -0.0113767 0.000341981 -0.178883 -0.112247 0.0413715 0.00891166 -0.0188426
12 -0.115595 -0.0160636 -0.0387317 0.0930515 -0.0566134 0.0829354 -0.0800154 -0.0206932 -0.164979 0.0105469 -0.0127943 -0.0727677 -0.0851083 0.057997 0.0837192 -0.0489646 -0.0672891 -0.0898424 0.0885518 0.0210178 -0.0981337 -0.133029 0.109956 0.098038 0.000637115 -0.12651 -0.0195171 0.0720148 0.0764001 0.0536123 0.0203858 -0.0388063 -0.0777713 -0.0763926 -0.043132 -0.0216591 0.000877434 0.00206715 0.094691 -0.0696206 0.0992935 0.103713 0.0259288 -0.00199728 -0.0195008 0.0246133 0.0370459 -0.0333411 -0.0303174 -0.126538 -0.00793573 0.0485268 0.104415 0.147711 -0.0177034 -0.00471668 -0.00812244 0.0502719 0.171878 0.0221598 -0.0737969 -0.0132192 0.0132334 0.140292 -0.0351739 -0.0206083 0.0288247 0.0788056 -0.122146 0.0180793 0.114011 -0.0170771 0.0855481 0.0888865 -0.126003 0.11736 -0.110525 0.113286 0.00661247 0.0382318 -0.210219 0.0481542 0.0198809 -0.214874 -0.108755 -0.0508009 -0.0858384 0.05908 0.124125 -0.0342269 0.105532 -0.0760408 -0.0153513 0.0267063 -0.0933077 -0.0856662 -0.112102 -0.0449618 -0.135494 -0.0465015 0.0065225 -0.151565 0.107128 0.11415 0.157271 0.0190774 0.16975 -0.127415 -0.0441716 0.0543724 0.0954788 -0.0199848 -0.103192 -0.0146402 -0.114759 0.143485 0.047214 0.0624911 0.0862527 -0.125964 -0.147142 0.132093 -0.165005 -0.163019 -0.00156024 -0.0856122 -0.00224377 -0.148606
13 -0.0898617 0.158013 -0.0502858 -0.130145 0.141737 0.09076 -0.0705756 0.0503422 0.0942042 0.0674508 -0.0158235 0.0466143 0.0685045 -0.0235486 0.0955778 0.0561286 0.0209588 -0.0121762 -0.065024 -0.0657469 -0.0445316 -0.0322188 0.119626 0.0883332 -0.0167952 -0.104603 0.0400746 0.0165373 -0.11622 -0.0184975 0.129831 0.0745078 0.0229382 -0.146665 -0.216834 -0.030445 -0.0120944 -0.0342537 0.0769677 -0.0903461 0.146496 0.0451752 0.0708337 -0.0819744 0.0853273 0.227154 0.122305 0.102257 0.144958 0.0387571 0.0447552 0.0950104 0.00188597 0.0719659 -0.0859671 -0.0464913 -0.0360366 -0.190287 0.141307 -0.0773638 -0.0712713 0.136996 -0.0321451 0.055104 -0.0972966 -0.0162378 -0.0334901 -0.107812 -0.0890402 0.0389858 0.00212229 0.127861 -0.0726446 -0.0471349 0.0622793 0.00144938 -0.0500525 0.118404 0.12032 0.0915662 0.0838351 0.0426265 0.143618 -0.105637 0.0170348 -0.110615 0.116161 -0.0594646 -0.103372 0.0154523 -0.193619 0.00243733 0.0787702 -0.0227594 -0.0829989 -0.0792037 0.0303167 0.0304971 -0.117712 -0.160638 0.0335666 -0.0619624 0.0385045 0.0137076 0.172754 -0.0276752 0.102395 0.0302136 0.0384472 -0.0245283 0.0685998 -0.147368 -0.123786 -0.0621724 0.0351372 0.168968 0.0356727 -0.130123 -0.0140872 0.034798 0.00233346 0.0372855 0.0252617 -0.0121533 0.0578384 0.0650501 0.116381 0.0444829
14 0.0252962 0.0680577 -0.031571 -0.0731631 -0.0733186 -0.0690703 0.134378 0.0254308 -0.0669338 0.053444 0.0314664 0.148314 0.0491531 0.0625951 0.158583 0.101231 0.142025 -0.222856 -0.0282579 -0.0650793 -0.00438933 -0.0815643 0.215055 0.138834 -0.0229036 -0.17892 0.0506645 -0.0282174 0.0302265 0.0751009 0.142365 0.0421195 -0.0272922 0.0408289 0.0396721 0.0589856 0.0454712 -0.0708886 0.113477 -0.0777367 0.0237473 0.0289287 0.0794086 0.0380749 0.00142801 0.18452 -0.00406589 -0.0244414 0.0267537 -0.111043 -0.0917997 -0.0239688 0.00156886 0.0750572 -0.0191142 0.126408 0.184096 -0.0521508 0.0200308 0.0418772 -0.175641 -0.11181 0.0129966 0.20537 0.00468998 -0.0650369 -0.0620114 -0.0787324 0.0278635 -0.107203 -0.0693844 0.0255939 0.135448 0.0318553 -0.134416 0.103618 0.12643 0.154773 0.107441 0.160295 -0.107405 -0.0647443 -0.0454041 -0.0918301 -0.050349 0.0191619 -0.13519 0.103664 -0.0250107 0.127546 -0.0360164 -0.000872307 -0.0268353 0.0182338 -0.194491 0.0870071 -0.0204332 0.148383 0.00824885 -0.00572709 0.0649502 -0.0231253 -0.000925394 -0.0632672 0.0987817 -0.00563534 -0.0989033 0.0451968 -0.0039614 0.165674 -0.0743773 -0.0170253 0.0711821 -0.00366904 -0.0030857 0.0521704 -0.0073716 0.0339615 -0.0787924 0.12661 -0.0505625 -0.0243003 0.00522962 -0.133281 -0.0963911 0.0141393 0.0443081 -0.0107917
15 0.0269778 0.0689929 -0.00720426 -0.0338822 -0.124237 0.0892588 0.0161406 -0.0829799 0.06398 -0.116786 -0.0485048 -0.034498 0.0712398 -0.0569526 0.0184537 -0.0307738 -0.218761 -0.19234 -0.0705858 -0.0277061 0.188933 -0.0016248 -0.0153217 0.160403 -0.00188684 -0.0091446 -0.182089 -0.0593243 0.0370682 0.0660369 0.103463 0.10947 0.0667911 -0.0859468 -0.00331103 -0.123409 -0.0503988 -0.114845 -0.0247264 0.0305962 0.00784688 -0.0101776 0.0209824 -0.0274768 0.0292964 0.161339 -0.0858176 -0.283916 -0.0120954 0.00198431 -0.0157165 0.0347577 -0.0626569 0.0945882 0.0203122 -0.01944 -0.06563 -0.137957 -0.0486146 0.104803 0.00678693 -0.144342 0.0385671 0.116202 0.132776 0.0432718 0.0475805 0.00334029 -0.0865057 -0.095501 -0.0243748 0.0974042 0.00152077 0.0866655 -0.149312 -0.00135296 -0.112076 0.119658 0.103698 0.115331 -0.0148101 -0.083048 0.0515728 -0.107658 -0.118969 -0.0684429 -0.038472 0.00651276 0.0184194 -0.0185995 -0.0111881 -0.0973213 0.109703 -0.110984 -0.00220924 -0.13813 0.0184737 0.0272614 -0.0329053 0.0965799 0.189182 -0.145065 0.0265284 0.0415934 0.0966915 0.030135 0.0279159 0.082968 -0.106556 0.0479644 -0.103636 -0.133197 0.020731 -0.137293 -0.0702429 -0.0814446 -0.0526902 -0.0587591 -0.0320208 -0.0521878 0.0605459 0.146367 0.00249759 -0.107456 -0.0938547 0.0932869 -0.111617 -0.0558048
16 -0.0103637 0.158314 0.0540725 -0.0139084 -0.153315 0.0544914 0.0945802 0.0860305 -0.122806 0.0216522 -0.00234545 0.137996 0.0322044 0.0439232 0.147881 0.00574596 0.0944865 -0.187895 0.132342 0.00804219 0.11568 -0.0174401 -0.00486149 0.0231367 0.00090073 -0.0376672 -0.0229132 0.0299454 -0.0716455 0.00759384 -0.0222334 0.0283541 0.0221293 -0.0290847 -0.112634 -0.0920311 0.0579684 -0.0619828 0.0928892 -0.0593929 -0.020352 0.0372203 0.138262 -0.0300294 0.0503518 0.0878332 -0.0496836 -0.0257924 -0.010081 -0.0496772 -0.125127 0.00151946 -0.0439969 0.141763 0.027083 0.0125916 0.161724 -0.134759 -0.029438 0.0474339 -0.107819 -0.0939862 -0.151163 0.162253 0.08046 -0.134777 -0.00737572 -0.0126859 0.0958402 -0.223959 0.0593722 0.0818177 0.107025 -0.0628508 -0.128159 0.169378 0.127312 0.115524 0.127658 0.234107 -0.187286 -0.0968726 0.028321 -0.0920003 -0.142836 0.00986237 -0.125419 0.0900604 0.0583489 0.0198338 -0.0550495 -0.056696 -0.0922899 -0.054161 -0.0948263 0.04459 0.121775 0.184853 -0.00561721 -0.0152012 -0.0066414 0.0690131 -0.0462574 -0.0482344 0.160399 0.0458435 0.0174804 0.102841 0.0273008 0.0469475 -0.0293451 -0.0133149 0.0414477 0.0595785 -0.0173135 0.0717519 -0.0249261 0.0275861 -0.116662 0.0472785 -0.0145495 -0.0392557 -0.0492814 -0.13435 -0.0843704 0.0405448 0.0429214 0.0249448
17 -0.0698242 0.0833603 0.0273946 -0.0981058 -0.0854245 0.0989782 -0.0485425 0.0424538 0.142736 -0.0225884 -0.00856847 0.0349335 0.12739 0.0264452 -0.011762 -0.0481359 -0.138098 -0.146597 -0.00365559 0.00234535 0.103312 -0.189839 0.199577 0.110318 -0.00294763 -0.0579453 -0.0569454 -0.0813156 0.000959344 0.0260399 0.105042 0.140141 0.0598285 -0.112611 -0.0827207 -0.0756694 0.0142694 -0.0950328 -0.00368571 -0.071648 -0.0388198 -0.0514638 -0.0122486 -0.13948 0.0681385 0.174045 -0.0287509 -0.279222 0.0789987 -0.00121807 -0.0858995 0.0583883 -0.0650221 0.184741 -0.0523018 0.0636232 -0.0279649 -0.207861 -0.022529 0.0600797 -0.161573 -0.0557752 -0.040719 0.132923 0.131192 -0.0216729 0.0253597 -0.0621108 0.0600798 -0.0640529 -6.21879e-05 0.0169126 -0.000168221 -0.00340703 0.0118058 0.05572 -0.0706834 0.10103 0.174197 0.0747504 0.122692 -0.0321742 -0.031834 -0.119634 -0.171765 -0.0291378 -0.0748544 -0.0845231 -0.0665953 -0.0720434 -0.127904 0.0504625 0.0261806 -0.037786 -0.0234995 -0.103714 -0.0802684 0.0801104 -0.076178 0.0159796 0.121374 -0.178778 0.0241385 -0.0304762 0.0692305 -0.0591879 0.0787036 0.0943885 -0.155604 0.107314 0.00399271 -0.0535207 0.0698562 -0.00778996 -0.083568 -0.0470197 -0.0049674 0.061082 0.021821 -0.122389 -0.0507936 0.0893191 -0.0810091 -0.00466041 -0.0297439 0.0722385 -0.0630673 -0.0293857
18 -0.11121 0.0678586 -0.0284261 -0.117944 -0.114713 0.016259 -0.000692807 -0.0443013 0.0773099 -0.0384646 -0.108537 0.0433179 0.156094 0.0253946 0.0579715 0.000557685 -0.119453 -0.111463 -0.0667452 -0.051741 0.104243 -0.227208 0.173338 0.101292 -0.00661778 0.0281515 -0.0831215 -0.106066 -0.0538861 0.0800819 0.0519943 0.133113 0.0736625 -0.0654613 -0.050458 -0.124058 -0.0398991 -0.0524081 0.0291494 -0.0585033 0.0610574 0.0944533 0.0618622 -0.111541 0.131339 0.150094 -0.00560265 -0.301992 0.0374666 0.0263786 -0.101798 -0.0412922 -0.0500971 0.201893 -0.0136002 0.0109625 0.0524125 -0.130046 -0.0366915 0.0727485 -0.119437 -0.0267112 -0.0705287 0.117763 0.0438237 0.0451871 0.0524939 -0.050608 -0.0331362 -0.0931922 -0.110807 0.0348056 0.0688865 0.044344 -0.0364471 0.1113 -0.0649452 0.0516406 0.0917749 -0.0520163 0.142092 0.0164487 0.0639242 -0.0606237 -0.104639 -0.0945273 -0.0899676 -0.0604784 -0.110406 -0.120268 -0.138108 -0.0215991 0.0698607 -0.0383375 -0.00621672 -0.0479402 -0.126251 0.0839318 -0.0820308 0.0231034 0.183455 -0.149704 0.0179797 0.0266045 0.0197688 -0.143035 0.1313 -0.0463344 -0.120491 0.113285 -0.0125671 -0.0610439 0.089702 0.0340694 -0.113251 0.0414601 -0.0683832 0.0238243 -0.0560598 -0.121495 -0.0219771 0.0544249 -0.0544843 0.000679894 -0.00503328 0.0757439 -0.0157952 0.0126636
19 -0.100002 -0.00351611 0.00795261 -0.0755866 -0.166685 0.119294 0.113427 -0.0698491 -0.13318 0.0237045 -0.0871297 -0.00103748 -0.0146675 -0.0447236 0.0576127 0.00773022 0.0348693 0.154122 0.0950366 0.0203206 0.191788 0.0144519 0.111056 -0.020987 -0.0918764 0.0763186 -0.0123998 0.181329 0.0182898 0.00160771 0.0450567 -0.00263862 -0.0147755 -0.0586417 -0.0434543 0.0343484 0.0873473 0.156632 0.122613 -0.0341495 0.0892973 0.0739437 0.0966144 -0.0546137 -0.0261237 0.0949808 0.00118909 -0.22305 0.0459414 0.0164037 -0.116011 -0.0445648 -0.0399105 0.156394 -0.0427466 -0.0488033 0.0172662 -0.198411 0.102272 0.0246009 -0.0676293 -0.0398009 -0.127409 0.111585 -0.0681973 -0.0423315 0.248607 -0.016818 0.0952235 -0.141775 -0.0245616 0.0195629 0.164445 -0.00185891 0.0136501 0.119751 -0.14323 -0.0530799 0.0607158 0.063275 -0.137299 -0.153568 -0.124491 -0.0402563 -0.0748656 -0.117315 -0.115627 0.0230056 -0.0674559 -0.1519 0.0178165 -0.0391662 0.127292 -0.0460003 0.0567794 0.0551758 -0.0288572 -0.00994675 -0.0456145 -0.0786894 0.00524448 -0.035577 0.0843912 0.0306686 0.00684168 -0.0639414 0.0881789 0.00828192 -0.110862 -0.0512431 0.0512821 -0.117351 -0.111222 -0.139184 0.0145304 0.097791 0.127478 0.0527992 -0.0479816 0.0351934 -0.0290073 -0.0427998 -0.0751745 -0.0386988 0.137844 0.107243 0.0266761 0.000713081
20 -0.110889 -0.0288145 0.0774087 -0.00618141 0.0148561 -0.0779431 -0.0819785 -0.031142 -0.0873534 0.138287 -0.112134 0.120176 -0.110644 0.00272989 -0.0387186 -0.0444946 -0.0223738 0.0347383 -0.128943 -0.0735522 0.218738 -0.0159474 -0.064619 0.142307 -0.105602 -0.147721 0.0385218 -0.099787 -0.0555941 -0.053057 0.0986848 -0.145849 0.021157 -0.0702327 -0.0681447 0.0406702 0.0291838 0.118821 0.00858145 -0.165924 0.0284064 -0.0819664 0.071045 -0.0177323 0.0814686 0.116197 0.0639626 -0.141445 0.0213883 -0.154675 0.0461086 0.0470905 0.144001 0.0964106 -0.0418831 0.110967 -0.0924116 -0.0766389 0.110207 0.114478 -0.0412188 0.0271627 -0.0810089 0.169349 0.111479 0.128645 0.0951771 -0.111435 0.0256451 -0.0020704 -0.00176758 0.0878418 0.237636 0.049612 0.112718 -0.00233508 0.0316837 0.0937515 -0.100686 0.0909322 -0.00139081 -0.0129694 -0.205053 0.0626202 -0.123905 -0.0164877 0.0209118 0.0723108 -0.100537 0.177549 -0.0412366 -0.0241954 0.0184804 0.106512 -0.0517788 -0.143468 0.0276113 0.0113483 -0.0360322 0.0255644 -0.104606 -0.105994 0.0406021 -0.0947634 -0.0813739 -0.0648655 0.0302153 -0.0272 0.096061 0.021971 -0.0827267 0.0445058 0.0957882 -0.133842 0.0353871 0.118074 0.0976053 -0.0858313 -0.027255 -0.0924075 -0.115934 0.0257776 0.0104941 -0.0348901 0.039623 -0.0114327 0.00700466 -0.0305451
21 -0.0118205 -0.061619 -0.049436 0.0295068 -0.0409725 0.126757 0.0950065 -0.0725861 0.0233371 -0.00155878 -0.0712061 -0.0333818 0.0296294 0.159428 0.0805618 0.0897671 0.02457 -0.0710382 -0.0364417 -0.0146985 0.128577 -0.101372 -0.0270085 0.0934648 -0.119107 -0.121012 -0.0489809 0.0494484 0.0288584 0.0905399 -0.0391879 -0.0262771 0.0138141 0.0342618 -0.145163 0.0716429 0.00564272 0.048845 -0.0450462 -0.20932 0.179814 -0.072164 0.0694689 -0.0325482 0.111167 0.0579775 -0.0394117 0.00444733 -0.0831246 -0.106729 0.00785999 0.0621038 0.0725673 0.0410923 0.0320731 -0.00327767 -0.0457081 -0.127346 0.00747584 0.0147981 -0.285949 -0.103361 -0.0406517 0.177132 -0.0311836 0.0335466 0.107635 -0.14132 -0.0357277 -0.0336898 0.049929 -0.0259444 0.0973503 -0.0837482 -0.0195454 0.115936 -0.00609794 0.0231325 0.0308121 0.0945959 -0.0206064 -0.0178055 0.0374826 -0.142177 -0.246373 -0.16804 0.0539257 0.0219405 0.0609793 0.0280653 -0.0225453 -0.136149 0.127433 -0.0325068 0.0550515 -0.196327 -0.0146895 0.0981465 -0.129827 -0.0610348 0.0674794 -0.13182 0.0357262 0.0367716 0.0216034 -0.112644 -0.0682489 0.163131 -0.00749091 0.0758386 0.0670772 -0.087856 0.0409977 -0.0141998 -0.0686265 0.0835813 0.0920302 0.0719869 -0.108565 0.125448 0.0301329 -0.0985953 -0.0308992 -0.138062 0.0998355 0.12784 0.0870164 -0.00821103
22 -0.0352195 0.122494 0.158308 -0.0355374 0.08246 -0.0401427 0.118302 -0.108354 0.0506325 -0.120679 0.0500305 0.0993844 -0.0137023 0.134148 0.0804594 -0.00775474 0.0454106 -0.158216 -0.180859 -0.00864635 0.139931 -0.0963914 -0.0128083 0.0750203 0.0465243 -0.0702751 -0.0975568 0.123035 0.0273396 0.0521573 0.0735562 0.0582471 -0.0973788 -0.144818 -0.0262156 0.000699863 -0.0700583 0.0179198 -0.0702047 0.0431405 0.149343 -0.0223638 0.118293 -0.0955303 -0.0320883 0.121998 0.0792799 -0.0678951 -0.028048 0.116881 0.111286 -0.0540077 -0.053211 0.176116 0.0389398 0.146613 0.130714 -0.10824 -0.0586571 -0.0347649 -0.200288 -0.0654216 0.0917566 0.0942969 0.0642869 -0.149612 -0.0535791 0.0235891 0.0153367 -0.0419959 -0.0651257 -0.0295798 0.0885153 -0.017008 -0.00579077 0.0861685 -0.0636351 -0.0090195 0.0676948 0.0402893 0.0745581 -0.127317 -0.0402861 -0.113543 -0.0163926 -0.111024 -0.038704 -0.129694 -0.001557 0.0291344 0.0856313 -0.0362781 -0.000858857 -0.0473251 -0.0375408 0.0701943 0.0823631 0.0603555 -0.058149 -0.0316455 0.00941695 -0.116024 0.163776 -0.0669427 0.155972 0.0108401 -0.04124 -0.0300183 -0.0585594 0.00792767 -0.0191222 -0.0893989 -0.0218863 -0.0505115 0.00936825 0.186019 0.00511509 -0.143033 -0.15125 -0.225853 0.0586162 -0.125383 -0.154307 -0.0282881 -0.0418719 -0.0763276 0.0400665 -0.031142
23 -0.0802526 0.155197 0.0120621 0.0195656 -0.0350631 -0.0841054 0.0396919 -0.0277048 -0.0977599 0.070162 -0.000166862 0.0373833 -0.0605061 -0.00277662 -0.0119752 0.0174324 0.0845986 0.0252442 -0.134491 -0.0952135 0.0865042 0.00572748 -0.0203288 0.0585428 0.0378676 -0.195039 -0.167027 -0.000787432 0.034216 0.011664 0.112664 -0.0082326 -0.00595233 -0.116725 -0.135264 -0.135627 -0.0382501 -0.0300395 0.0486849 -0.0787391 0.137881 0.120663 0.0234097 -0.209684 -0.00972573 -0.00469633 -0.0160301 0.0456594 -0.0707263 -0.00876332 0.0219679 -0.0380902 0.0445961 -0.0259528 -0.0924781 0.0393781 0.0696599 -0.153858 0.0697753 -0.0537326 -0.151729 -0.0471786 0.00289925 0.0132593 0.0813072 -0.0549023 0.00774385 0.0770812 -0.104427 -0.148435 0.170407 0.0520429 0.00777326 -0.0752442 -0.0313329 0.0977796 -0.0455797 0.143026 -0.0318459 0.113452 -0.00753495 -0.0180739 0.101169 -0.047149 -0.180244 -0.0414707 0.0124954 0.0917881 0.187803 -0.0946078 0.0178244 -0.0478499 -0.057379 0.046739 0.0277993 0.0253355 -0.180646 0.229204 -0.0500914 0.0651294 -0.0222345 -0.0738949 0.164102 0.0878974 -0.0530794 -0.140692 0.10444 -0.127968 0.0298836 0.163672 0.100968 -0.0287119 -0.107345 -0.0527854 -0.0210198 -0.141813 0.00353261 0.0122366 -0.149649 0.147682 -0.0115443 -0.0472448 -0.07779 0.0373101 -0.0425336 0.178024 -0.0206496 -0.0283647
24 -0.0115725 -0.015297 -0.0777308 -0.0373562 0.0182524 -0.036656 0.0215197 -0.00186262 -0.0503375 0.106104 0.038749 -0.0222116 -0.0724089 0.0254265 0.041432 0.0375022 0.132633 -0.0764706 0.0546156 -0.010513 0.00506549 0.0452349 0.172458 0.0516372 0.0318235 -0.15378 -0.0637091 0.017468 -0.0266426 0.0696721 0.00553481 0.0818991 0.0901558 -0.0683305 -0.0717221 0.040154 -0.00423279 -0.0430518 0.0524494 -0.044524 0.0644499 0.155007 0.162056 -0.0171593 0.00593465 0.202926 0.00411306 -0.08974 0.0500413 -0.102039 -0.151799 0.0397299 -0.0472435 0.126333 -0.140116 0.0858784 0.130474 -0.20794 0.0912634 0.0247482 -0.168444 -0.00629899 -0.0747844 0.223035 -0.106903 -0.114262 0.0403046 -0.0563193 -0.0642066 -0.15251 -0.00604062 -0.00530537 0.209053 -0.0154367 -0.0783421 0.147726 0.109008 0.115167 -0.0557753 0.123194 -0.0797077 -0.17006 0.000322896 -0.0736001 -0.0296944 0.0303972 -0.188348 0.0748377 0.0357721 -0.0901491 -0.106039 0.016355 -0.0260484 -0.0847541 -0.148935 -0.0329621 0.0762163 0.240947 -0.0273185 -0.00621212 -0.0490378 -0.125396 -0.00143647 0.0358811 0.00275899 -0.0770158 -0.0128389 -0.00862138 0.0244439 0.0696779 -0.0220591 -0.0393486 -0.0585705 0.011331 0.00415719 0.02338 0.0173831 0.048521 -0.0698309 0.0621019 -0.0673286 0.0917577 -0.166395 -0.159955 -0.0180406 -0.0308812 0.0110627 -0.0921134
25 0.0242769 0.126063 0.0331054 0.019912 -0.074194 0.00238084 0.0585514 -0.108586 0.10884 0.19224 0.0634572 -0.0100868 -0.0111949 0.0601694 0.0500185 0.117605 -0.0555049 -0.0871549 -0.0185056 -0.00146027 0.128024 -0.0173421 -0.0513529 0.0763719 -0.0136952 -0.084357 -0.0911352 0.0318417 -0.0758064 0.0472474 0.0134836 0.103455 0.0191776 0.0569268 -0.104159 -0.235228 0.0537858 -0.0984777 0.0811696 -0.100415 0.114851 0.0403497 0.0698682 0.00107962 -0.00994999 0.204667 -0.00581309 0.0224778 0.0499896 -0.0792083 0.00730463 0.171198 0.0826534 0.259562 0.0232291 -0.0738468 -0.0158536 -0.104376 0.0712016 0.118039 -0.094713 0.0825418 0.0121097 0.028576 -0.0580006 -0.0361057 -0.0664314 0.0563707 0.0421196 -0.0946089 0.0534774 -0.118798 0.0551732 0.0946408 -0.0780918 0.0977376 -0.0622865 0.0605427 0.106643 -0.0215057 0.00230117 -0.00351815 -0.0248738 -0.174303 -0.00471451 -0.0462299 0.137375 0.140694 -0.00940453 0.0838148 -0.0243468 0.156089 0.10765 0.133474 -0.00420612 -0.0720331 -0.168335 -0.0727589 -0.156689 -0.112519 -0.00298808 -0.0944328 0.0931154 -0.0208911 -0.0957093 -0.041565 0.118112 0.0500344 0.02124 0.180568 -0.0663592 -0.0363 -0.154432 -0.0538022 -0.0654114 0.117966 0.0227544 -0.0454662 0.0448974 -0.00935073 -0.00939616 0.105638 -0.147648 -0.0211941 -0.0819974 0.130796 -0.0512519 -0.00463003
26 -0.0165507 0.0751263 -0.0120516 -0.00269016 -0.0486123 -0.0945321 0.0434825 0.0754374 -0.0270277 0.0624149 0.0169116 0.0862077 -0.0108587 0.0482559 -0.00490894 -0.0353817 0.115054 -0.0488401 -0.0250529 -0.0435704 0.113932 -0.0758996 0.154417 0.0805118 0.0887722 -0.18811 -0.146009 0.0216204 -0.00216402 0.0914908 0.109103 -0.00339317 0.105608 -0.00411259 -0.174267 -0.0989136 0.0876512 0.078296 -0.0325052 -0.012382 0.227495 0.106512 -0.0236638 -0.155858 -0.00118474 0.134792 0.132296 -0.049027 0.000501447 -0.0596316 -0.0392244 0.0115886 0.0988597 0.103421 -0.174721 0.0100407 0.0149798 -0.0705576 0.130067 0.00895174 -0.114642 -0.0692663 -0.0691987 0.157504 0.049859 -0.0797573 0.120828 0.0995664 0.0171971 -0.176213 -0.0682952 -0.0102889 0.0531558 -0.0698706 0.00300518 0.0916318 0.101248 0.0775115 0.0430804 0.0144491 0.0320573 -0.162687 0.0650573 -0.0752392 0.0264638 0.0635471 -0.00275989 -0.00835626 0.0413518 -0.0084273 -0.0922927 0.045885 -0.00294025 0.0238061 0.0804005 0.0522635 -0.176168 0.232162 0.036641 0.0961971 -0.00747939 -0.0367478 0.203519 -0.073262 0.0705732 -0.168269 0.0211063 -0.0119514 -0.0218163 0.0596736 -0.0113643 0.011502 -0.15114 0.0912015 -0.021554 -0.0591198 0.0607987 0.0371152 -0.128216 0.146841 -0.00125699 -0.116172 -0.169474 -0.0295814 -0.0363687 0.0809288 0.0283482 -0.0884411
27 -0.113664 0.200772 0.0444108 0.0636261 0.0440429 0.00769545 0.0566604 -0.0276302 0.00508341 -0.0325214 -0.0440775 -0.0325777 -0.100584 0.0984249 0.0075457 -0.00757552 -0.0955782 -0.0410518 -0.13625 -0.0712342 0.000102929 -0.0647425 0.202514 -0.0599394 -0.00455724 -0.0764793 -0.0581362 0.00956246 -0.07911 -0.0593278 -0.0410588 -0.00340243 -0.069929 -0.214102 -0.134668 -0.0765127 0.1805 0.00578234 0.030955 -0.108092 0.106992 0.0744989 0.0128516 -0.161288 0.00189467 0.0474981 0.151407 -0.0483135 -0.0805676 0.0137422 -0.0806929 0.0949535 0.0247433 0.0617464 -0.127564 0.141452 0.125714 -0.0245003 0.0747983 -0.0644296 -0.0551507 -0.0912135 -0.0080677 0.175582 0.062998 0.0310922 0.0023778 0.168852 0.0080909 -0.145456 0.0256977 -0.0646946 0.0490877 0.0942497 -0.124989 -0.0111111 -0.163366 0.170205 0.0496108 0.0331129 -0.00578066 -0.0406758 -0.00636261 -0.161195 0.0270016 -0.121388 0.142516 -0.129291 -0.0417571 0.0574419 0.175055 -0.03616 0.0285094 0.102607 0.0140093 0.0834274 0.0057091 -0.0234605 0.0223591 0.158482 0.0536607 0.0461001 0.0953768 -0.0257751 0.0864732 -0.0600925 0.0930796 -0.0994855 -0.143124 0.0544696 0.0953955 -0.0319941 -0.0182233 0.0246559 -0.162809 0.111511 0.0541964 0.0387983 -0.138208 -0.00608427 0.014124 -0.112896 -0.0427496 -0.0975146 -0.0387214 0.00630977 0.0749915 -0.0643623
28 0.0138168 0.00998865 0.0733136 0.101154 -0.0746746 -0.0838152 0.123547 0.00961449 0.0122337 -0.156759 0.0158673 0.0548122 -0.0583892 0.0231432 0.0367734 -0.0168938 0.0625579 -0.0583573 0.102469 0.013505 -0.0168866 -0.118756 -0.0251242 0.100563 -0.183447 -0.0740669 -0.108922 -0.0315805 -0.0209277 -0.0442981 0.192061 -0.0286112 0.0494868 -0.179436 -0.124451 -0.148218 -0.014972 0.0837996 -0.0554498 -0.0182813 0.178029 0.11254 0.126708 -0.151621 -0.0636142 0.0767049 0.0328873 -0.0284586 0.00848016 0.0982599 -0.0193019 -0.0448245 -0.013234 0.197314 -0.0583276 -0.091152 0.0421071 -0.00391367 -0.0629909 -0.0727407 -0.243586 0.0780291 -0.0115776 0.14153 0.0355963 -0.0848978 0.180687 -0.00377073 -0.0337225 0.00515339 -0.0189773 0.062542 0.016367 0.0656334 -0.175418 -0.096919 -0.0467344 0.015446 0.0194944 0.238425 -0.163684 -0.0987891 -0.113767 -0.124058 0.00760574 -0.11245 -0.0482627 0.0967289 -0.0362823 0.108574 -0.0134478 0.0519393 -0.0157905 -0.0409609 -0.0740639 -0.118228 -0.0234401 0.0196744 -0.0912791 0.01882 0.0432841 0.0363405 0.00596986 0.00428853 0.0648216 -0.0966282 -0.0260314 -0.0160165 -0.122041 0.0194526 0.034682 0.0647638 0.0289764 -0.0106923 -0.155058 0.159323 0.00445888 -0.0865688 0.0220839 -0.0042452 0.0153995 -0.0375059 -0.0968163 0.00686548 0.00749015 0.20665 -0.0248077 -0.10646
29 -0.0969995 0.0854728 0.0102243 0.0578645 -0.0884761 0.046427 -0.0162109 -0.0461222 -0.0196385 0.0885559 -0.0648425 -0.0400454 0.0634976 0.172449 -0.0924134 0.103618 0.0329006 -0.10971 -0.0296028 -0.154796 0.149512 -0.123707 0.0905014 0.030597 0.00238843 -0.104184 -0.177701 0.122816 0.0265249 -0.138648 -0.0944506 0.0798444 -0.0154704 -0.170936 0.0845664 -0.110251 -0.0535624 -0.0455517 -0.00630445 -0.0673765 0.0897595 0.192286 -0.0294165 -0.0481601 -0.0332424 0.1461 -0.0285197 0.0655381 0.118391 -0.103847 -0.125857 0.116789 -0.104087 0.0622466 -0.055233 -0.0802348 0.00841663 -0.0390233 0.0323987 0.00293843 -0.145305 -0.0908757 -0.216037 0.172194 0.0534554 0.100003 0.00780018 -0.0292078 -0.09332 -0.0928636 0.080464 -0.0583522 -0.0219857 0.00173348 -0.0116735 0.0257997 -0.0981658 -0.027517 0.023447 -0.0180701 -0.00692894 -0.150274 -0.0459801 -0.0686012 0.0508839 -0.168385 -0.013894 0.00638778 0.054984 0.023349 -0.0950317 0.0385359 0.0756031 0.0517892 -0.0104552 0.0855156 0.063752 0.144171 -0.142575 -0.143128 -0.0411088 -0.044503 0.0868153 -0.0498782 0.0987808 0.0619644 0.126542 0.0521654 0.0839921 0.126853 0.0241972 0.0728689 0.0140201 -0.0646931 -0.0848127 0.0867426 0.0801555 0.0961194 -0.0197123 0.0368534 -0.0806083 0.136772 -0.0673916 -0.0723518 -0.0974824 0.102635 0.144843 0.0685012
30 0.00420047 0.126015 -0.0829552 -0.156263 0.018 0.0646801 -0.0333505 -0.0764051 0.0642792 0.0699432 -0.0312032 0.0167377 0.0287119 0.0667818 -0.0754041 -0.0679015 -0.016296 -0.0929235 0.104637 0.0703453 0.134813 -0.212812 -0.0335202 0.109366 -0.0334167 -0.049092 -0.00511627 0.0403993 0.00704757 0.00167596 0.0834686 -0.051575 -0.047531 -0.0382613 -0.182411 -0.0935004 0.0582252 0.0941577 0.0884587 -0.0488778 -0.0629967 0.0749733 0.139331 -0.0898917 0.083183 0.0109147 0.0249987 -0.0893302 0.0591974 -0.0911721 -0.103079 0.104423 -0.0629138 0.0199462 -0.0515114 0.0195711 0.15164 -0.00288207 0.029927 -0.014532 -0.213626 -0.117762 0.0164745 0.190273 0.00777012 0.043064 -0.0730156 0.0707265 -0.15578 0.0397581 -0.0559096 0.074569 -0.134762 -0.0291145 0.107801 -0.0819578 0.0546029 0.186357 -0.0627335 0.0958048 -0.0603891 -0.00671629 0.0650252 0.102854 0.0809215 0.0609447 -0.111426 -0.00873237 -0.0998783 -0.131685 -0.0462699 -0.0391906 0.014246 0.0776692 -0.104211 -0.20006 -0.0401229 -0.0893772 0.0316982 -0.058765 0.137248 -0.0510612 -0.104503 0.0890407 0.098341 -0.0591871 0.131458 -0.0315933 -0.00188842 0.144922 0.00195282 -0.0285576 0.00280631 0.030851 0.0394831 0.141604 0.00315727 -0.15107 -0.102283 -0.0536735 -0.00447047 -0.0582927 -0.0112714 -0.171486 0.0710938 0.146782 0.144957 -0.0790912
31 -0.0463077 0.16708 0.0346491 -0.0881695 -0.0501042 -0.0854431 -0.00885161 -0.0107345 -0.121885 -0.00903914 -0.0553641 -0.000320571 0.025845 0.0855067 0.0601836 0.0369404 0.0294011 -0.0198555 0.0223515 -0.12019 -0.0368811 0.00655719 0.0373761 0.0782079 0.0308228 -0.0196297 -0.0425911 0.102843 -0.0988468 0.0354821 -0.0276102 -0.0342744 -0.152313 -0.0195332 -0.131728 -0.046273 0.0535922 0.0641387 0.0615449 -0.0753725 0.0507411 -0.00451206 0.121403 0.0452205 0.0512398 0.135864 -0.0459284 -0.0651729 -0.00276152 -0.0571062 0.156692 0.141591 -0.0632994 0.0792849 -0.0102816 0.108909 0.154398 -0.176483 0.109576 0.0597329 -0.0997444 0.048724 -0.0649364 0.170453 0.0075834 0.000558993 -0.106572 0.178794 -0.0487763 -0.0496503 0.0364829 -0.0212994 0.0873721 -0.0681977 -0.0131223 -0.00947977 0.00196651 0.000485917 0.0165258 -0.0262105 0.0400226 0.0210143 0.0480139 -0.349786 0.0776009 -0.105919 0.0805971 0.0566671 -0.0386026 0.0790472 -0.185745 0.0874865 -0.0441405 -0.0871682 -0.139334 -0.071758 0.075865 0.0446445 -0.143203 -0.0703687 0.0149061 -0.164858 -0.0878827 -0.0441529 0.139214 -0.137523 0.0826041 -0.0460138 -0.0674964 0.0336187 0.103682 -0.146707 -0.0854616 0.0739746 0.101314 0.0130129 -0.0984705 0.0401204 -0.0382638 0.0361365 -0.108718 0.0633667 -0.134709 -0.0419492 0.0877227 0.12761 -0.0274787 -0.14539
32 -0.0499712 0.0364075 -0.0490635 -0.119353 0.0273373 0.0301292 0.141117 -0.027894 0.0682294 0.141017 0.109651 0.133116 0.0249557 -0.00598655 0.0939915 0.00785199 -0.0858631 0.0317143 -0.0272148 0.0884162 -0.0670543 -0.0262086 0.0619508 0.195372 0.024467 -0.158517 -0.0727505 0.0477188 0.039134 -0.0281242 0.0986492 0.148596 0.156693 0.0046027 -0.159302 -0.0430931 -0.0330824 0.136605 0.0506467 -0.0272299 0.0826029 -0.00878691 0.07455 -0.120617 0.0602165 0.288485 -0.0196221 0.0769409 0.209675 -0.0487017 0.115703 0.0584064 0.0191184 0.170666 -0.103855 -0.0777668 0.00586663 0.0312746 0.080578 0.0685954 -0.0722527 0.050057 -0.0919955 0.159203 -0.053946 0.0877977 -0.0322292 0.03292 -0.0461079 0.0524963 0.103208 -0.0618463 -0.00307782 0.0191521 0.0324512 -0.0381344 -0.0977051 -0.000470118 0.0900102 -0.0171473 -0.0747064 -0.0325869 -0.0432246 -0.209596 0.0536718 -0.0643325 -0.0164926 0.0900935 -0.0436727 -0.0248527 -0.00158294 0.0524912 0.175648 0.0395331 -0.0926067 -0.0181072 -0.100638 0.0340276 -0.147943 -0.076403 0.0757062 0.0301759 0.0794831 -0.0857623 0.0326637 -0.01829 0.0507873 0.0966354 0.091683 0.205278 0.019796 0.0284861 -0.0797504 -0.0257246 0.0929075 0.0584413 0.0979351 0.025752 0.0236567 -0.135245 -0.0908581 0.041634 -0.0928765 0.0317847 0.112794 0.172147 0.0402184 -5.54126e-05
33 -0.12849 0.0746558 0.113424 -0.153023 -0.0831151 -0.0884673 0.0975167 -0.144483 0.0649768 0.18625 0.124279 0.0673858 -0.0669496 -0.000332884 0.0899552 0.104439 0.0232878 0.00178812 0.0534615 0.0904989 0.000541671 0.0118941 0.0119298 0.153169 0.152872 -0.104796 -0.110073 0.102206 -0.0230141 0.0926232 -0.0168522 -0.141289 0.106778 0.104739 -0.149451 -0.04811 0.0183674 0.116792 0.119535 0.0100225 0.182173 0.050599 0.085563 0.0668742 0.0867867 0.174061 -0.0624223 -0.104728 -0.0537188 0.0550443 -0.0238146 -0.0125293 -0.0255644 0.108101 -0.20083 0.00367646 0.016358 -0.151464 -0.0367569 0.0444372 -0.154793 -0.00663876 -0.0690077 0.0591592 0.0285402 0.0711864 -0.0246517 -0.0755946 0.0111019 0.0326466 -0.0453983 0.0109131 0.0459304 -0.0585556 -0.0777037 0.010111 -0.208729 -0.14283 -0.0444087 0.101263 0.0533426 -0.0713307 0.00987193 -0.170946 0.000140395 -0.15599 0.103382 0.0863296 0.027608 -0.0605287 0.0137612 -0.0821342 0.0281947 0.177345 -0.0648236 -0.0586275 -0.1221 -0.0183473 -0.175156 0.00582986 0.14063 -0.0301236 -0.0870905 -0.0592433 0.00800087 0.0256115 -0.0822267 -0.015695 0.0389616 0.114221 -0.0160185 0.000410546 -0.0460545 -0.0609978 -0.098191 0.0557869 0.0422784 0.00291849 -0.0182772 -0.0291314 -0.125869 0.0135463 0.0796378 0.0411339 -0.0686123 0.0904804 0.0611206 -0.0425217
34 0.0355475 0.0423944 -0.0140856 0.0625328 -0.0506139 0.0608812 0.0402968 -0.177448 -0.0721834 0.0365105 0.0665455 0.0148863 0.0934849 -0.140674 -0.0822918 -0.0321253 -0.00813637 -0.0320331 0.062626 0.0518156 0.0478155 -0.130122 0.0251037 0.12251 0.0319733 -0.191737 -0.0167621 -0.00280632 0.0132317 -0.0275708 0.190919 0.0461217 -0.0521537 -0.0821332 -0.0675806 -0.0355629 0.0621861 0.0990614 0.0507546 -0.0552108 0.0280473 0.110064 0.148216 -0.0681519 0.0376955 0.100839 -0.00573436 -0.0917865 -0.0267692 -0.191963 -0.0793605 0.0744607 0.0984841 0.101439 -0.14856 0.0562517 0.091091 -0.17439 0.0222889 -0.0557371 -0.13937 -0.0374887 -0.0207096 0.117399 -0.0194253 -0.0289979 0.00409761 0.114131 -0.113729 0.0755392 0.0873617 0.0636692 0.00733291 -0.0168805 -0.0138253 0.152432 -0.0305993 -0.0311419 -0.00996622 0.00818184 -0.0408228 -0.0188904 -0.0482626 -0.0883807 -0.0918542 -0.0838333 -0.102339 -0.0255039 0.123851 0.0915602 -0.0219957 0.0819618 0.0170589 0.0557297 -0.199622 -0.0191739 -0.046842 0.0772557 -0.158759 -0.157827 0.166774 -0.182998 0.0748656 0.145017 -0.0210518 -0.100419 -0.0490001 0.0261162 -0.049363 -0.0778301 0.0606939 -0.0858193 -0.117809 0.0902614 -0.0452482 0.0616218 -0.081905 0.0613121 -0.0581004 0.0448533 -0.0405771 -0.0373909 -0.265178 -0.160398 -0.0152573 -0.0299788 0.00763671 -0.112005
35 -0.139696 0.158041 -0.0860111 -0.0990318 -0.0160035 -0.104271 -0.0954035 -0.120851 0.0608195 0.143146 -0.0927972 -0.0287073 0.0308731 -0.0494986 0.105327 0.108473 0.0221734 -0.0386877 -0.0220023 -0.1561 -0.00190477 -0.062548 0.079004 -0.0478255 -0.0909911 -0.112868 0.069296 -0.0317088 -0.0958226 -0.0453071 0.184499 -0.0793203 -0.043855 0.0357741 -0.132521 -0.099623 0.136399 0.091455 -0.0741804 0.0479353 0.167858 -0.0760076 0.0608463 0.0786895 -0.0117276 -0.00463302 -0.0709814 -0.144079 0.0719213 -0.0549161 0.160274 0.083087 -0.00458629 0.145525 -0.14311 -0.0327607 0.0679689 -0.120445 0.0930341 0.0520081 -0.097089 0.0698864 0.0034365 0.102849 -0.0135227 0.0340095 -0.105669 0.117894 -0.0858406 0.0179153 -0.0486139 0.0834542 0.0822874 0.0771726 -0.0977378 -0.0887285 -0.059432 0.143192 -0.038051 0.10432 0.0721177 0.0571672 0.0503476 -0.164797 0.0109383 -0.087413 0.0384347 -0.00969837 -0.0500275 0.00116031 -0.030441 0.0493998 0.0293058 -0.142602 -0.132998 -0.00241214 0.0127645 0.12052 -0.103996 -0.0844624 -0.0696209 -0.105208 -0.0480988 0.0123346 0.145443 -0.185244 0.0996267 0.0279279 -0.0886292 -0.0106901 0.111496 -0.0056996 -0.122046 -0.119906 0.0487695 -0.0807391 -0.0298411 -0.0415797 -0.0772868 0.0938727 -0.0606583 0.0875461 -0.130452 0.0787837 0.14332 0.00584537 0.0269299 -0.0213675
36 -0.0496621 0.0644706 0.00633874 0.00509488 0.0331524 0.0554592 0.0427197 0.0110852 0.0799254 -0.0273069 0.0356399 0.00490758 -0.0547638 0.0117746 -0.0328728 0.166614 -0.056469 -0.0391274 -0.124351 -0.011706 0.0826527 -0.0358496 0.0746116 0.18122 0.0741835 -0.184819 -0.040007 0.0654004 0.0281601 0.141008 -0.0692399 0.036876 -0.0262376 0.00295035 0.0853891 -0.181721 0.154637 -0.0343148 -0.0510032 -0.176914 0.116742 0.0580323 0.0796542 -0.0238316 0.0616022 0.167054 -0.0882397 0.0760736 0.0550098 0.0101673 -0.123014 0.115557 0.0352407 0.0630601 0.00594937 -0.0565918 0.129623 -0.0874864 0.0200074 0.0302747 -0.21486 -0.0344789 -0.0170033 0.178132 -0.0605152 -0.0550148 0.0278053 -0.184943 -0.0797932 -0.0385925 0.0738203 -0.00426955 0.0773253 -0.0752799 0.0430737 -0.08928 -0.111266 0.0358627 0.0708337 0.170795 0.0242821 -0.219632 0.0113627 -0.071043 0.0613038 -0.107443 -0.00288177 -0.00329741 -0.143531 0.083475 -0.0315944 0.0545665 0.0593184 -0.0919552 0.054837 0.107236 -0.0501136 -0.0446288 -0.140125 -0.0413341 -0.00460191 -0.150838 0.0834933 0.0657949 0.00675363 0.0645491 0.121014 0.134246 -0.0352079 0.0589346 -0.0524241 -0.0204369 0.0809793 0.0178084 -0.0223812 -0.000495587 0.0499763 0.152175 0.0232923 0.0378353 -0.145014 -0.0472797 -0.130329 -0.176448 0.0913917 0.0181495 0.0936545 0.113913
37 -0.140405 -0.0250621 -0.00384379 0.00311517 0.0998279 0.0368142 0.0996747 0.0177974 0.107919 0.0677871 0.0400318 0.0753551 0.0625895 0.103806 0.109866 0.103478 0.036151 0.00930643 0.0552947 -0.00158972 -0.1429 -0.0651746 0.117676 0.0816385 -0.114914 0.0235126 -0.00581734 0.0758326 0.142333 0.0335703 -0.0563161 -0.0590483 -0.0526375 -0.12035 -0.198801 -0.124438 0.021014 -0.0210852 0.119937 -0.125353 0.0112017 0.0218844 0.0699782 -0.104223 0.0250991 0.136875 0.138596 -0.142538 -0.00282062 -0.000450935 0.0690049 -0.000206201 0.00432762 0.203649 -0.0540598 0.0334741 -0.0263135 -0.0911705 0.0365563 -0.129115 -0.14989 0.0585916 -0.0982429 0.247711 0.0900105 -0.146355 0.0270535 -0.0698786 0.148613 0.0109045 -0.00409648 0.0259368 0.102775 -0.0586726 -0.0435671 0.0549143 0.100001 -0.0112288 0.0747421 0.0181208 -0.084079 -0.023658 -0.156124 -0.0641965 -0.0735698 -0.0259051 -0.0528224 -0.0445102 -0.00335781 -0.0174805 0.0426985 -0.0305326 0.0883658 -0.0377798 -0.0945654 0.0733285 0.0196462 0.00696418 -0.0339943 -0.0837729 -0.00886216 -0.247788 0.015974 -0.0319171 0.0223154 -0.134732 -0.021138 0.0725209 0.0545158 0.0288391 0.0179431 0.00943481 -0.0651108 -0.0801556 -0.0967531 0.179485 0.130041 0.102785 -0.138576 0.0934713 0.0644147 0.00121988 -0.11154 -0.0616591 -0.120602 0.156856 0.0325559 -0.111046
38 -0.161978 0.0504406 0.00509078 0.0229142 -0.0679358 0.000459659 -0.0290759 -0.0114323 -0.0645092 0.0624819 0.027134 0.0018212 0.0480194 -0.0482388 -0.0210049 -0.0610747 -0.0825269 -0.037139 0.0248311 -0.0736161 -0.00535342 -0.165691 0.0356342 0.0899104 -0.0558326 -0.105728 -0.0408685 0.0549074 0.0399669 0.054155 0.127603 -0.0789131 -0.167624 -0.0792008 -0.0223191 -0.0497835 0.0758359 0.020144 0.047349 -0.00604303 0.0311862 0.016703 0.12561 -0.00390303 0.086371 0.109842 -0.0593358 -0.0521516 -0.119447 -0.203492 0.0294047 0.0950774 -0.0639821 0.193921 -0.0746782 0.065747 0.137832 -0.191947 0.0757785 0.0175405 -0.0123739 0.0497446 0.00748221 0.181751 -0.0520655 0.019626 -0.0293462 0.114247 -0.0274929 0.0112164 0.0469365 -0.060644 0.0967473 0.0282207 -0.0639202 0.00704109 0.0351946 -0.0284903 -0.0193568 -0.00544013 -0.0799766 -0.0183467 -0.000316515 -0.271004 0.00508833 -0.110548 0.0655183 0.0686801 0.0529091 0.144156 -0.0727666 -0.0776145 -0.0471228 0.0301959 -0.184871 -0.124051 -0.0567254 0.049275 -0.171176 -0.0576418 0.110598 -0.241349 0.0613197 0.0941034 0.0318765 -0.198197 0.0648221 0.00595795 -0.0239856 -0.0327603 -0.000359243 -0.0677563 -0.117254 0.13291 0.0460971 0.00156486 -0.0489756 0.0280266 0.00502116 -0.019061 -0.0174164 -0.0067312 -0.233081 -0.174769 0.0181118 -0.00538309 0.0392097 -0.145211
39 -0.117843 0.0097121 0.00752165 -0.0537921 0.00674625 -0.0193457 -0.0201583 -0.096334 0.0599398 0.107374 0.125375 -0.050879 0.044749 -0.0539239 0.0527916 0.0794317 -0.0454183 0.0181813 -0.0206816 -0.0864701 0.0132759 0.0191399 -0.0035127 0.236672 -0.0411638 -0.0686111 -0.0628461 0.137219 0.015025 0.0283517 0.00163651 0.0319153 0.0846067 0.0680124 -0.152061 -0.0637268 0.00366907 0.0656409 0.176364 -0.0925675 -0.0429773 -0.0654282 0.130903 -0.0401434 -0.00584466 0.126124 0.0589188 -0.12499 0.147609 0.108493 0.134206 0.0319743 -0.0687286 0.281743 -0.0390678 -0.0527839 0.0337301 -0.00976134 -0.0245776 0.0166977 -0.146462 -0.0108071 -0.0697626 0.103378 -0.0792835 0.0278629 -0.130518 -0.0729206 0.0236893 -0.0900121 0.0204465 -0.0195098 0.110087 0.0103291 -0.136638 0.0699902 -0.105099 0.0425036 0.14026 0.0350486 0.0233883 -0.107004 0.0341183 -0.161454 -0.0283741 -0.0956229 0.0174707 0.0389967 -0.0449538 0.0376338 -0.0214357 0.0231875 0.0674008 0.0607139 -0.0602879 -0.127197 -0.186597 0.179369 -0.116278 -0.146512 0.139934 0.0976968 0.0468602 -0.07484 0.0381349 -0.0238886 0.00618465 0.0476524 0.124723 0.0377688 -0.0647106 0.0240665 -0.0134049 -0.078653 -0.0655869 0.248278 0.0881423 -0.116747 -0.0330867 0.0769892 -0.0674823 0.0854964 -0.0289495 -0.0307752 -0.0232155 0.149852 -0.0401222 0.0918502
40 0.0420312 0.105056 -0.00415971 -0.0852244 0.0617684 -0.0281819 0.0420204 0.0232388 0.0745272 0.0771631 0.217223 0.0256776 0.0223179 0.0279989 0.0985114 0.0593263 -0.040574 -0.0846205 -0.172 -0.102796 0.09246 -0.0436934 0.179916 0.0364789 -0.0552512 -0.0499675 -0.123573 0.104799 0.0124713 -0.000902685 0.136617 -0.0415226 -0.0118865 -0.122482 -0.191908 0.0650605 0.0386116 0.101861 -0.0200914 0.0530838 -0.00388982 -0.0964749 0.139572 -0.116459 0.0716936 0.147175 0.159167 -0.101282 0.0393157 -0.00558161 -0.0401861 -0.0572639 0.0188126 0.0468097 -0.0549014 -0.0265862 0.177372 -0.276511 0.117862 -0.0801574 -0.226508 0.033237 -0.124537 0.0582032 -0.00563268 0.0165949 -0.0162523 0.0295884 -0.0612336 -0.15152 0.00826099 -0.0724071 0.0836584 0.0532118 -0.0692727 -0.0380422 -0.00787409 -0.00263473 -0.0353808 -0.112773 0.0754622 -0.0684042 -0.0664024 -0.131161 -0.00231565 -0.178434 0.0872791 0.00340876 0.0490312 0.0131254 0.0805559 0.0318171 0.0773939 -0.103109 -0.0719839 -0.0226261 -0.034129 0.0286875 -0.107623 0.043282 0.121742 0.0239371 0.143985 -0.00914628 0.135523 -0.052871 0.0233134 0.0320239 -0.0153757 0.215869 -0.0854152 -0.0319643 -0.0181888 -0.010401 -0.0659595 0.101647 0.0502508 0.0133978 0.0271443 0.0569248 -0.131509 -0.0587571 0.000119001 0.0975977 -0.117889 0.0280575 0.0324053 0.0237706
41 -0.118418 0.0290918 0.00677572 0.039927 -0.0275643 0.118595 0.0358839 -0.0684975 -0.0426545 0.125674 0.0161764 0.0242358 0.0906389 0.00495434 0.0251364 0.16045 -0.0111007 -0.0938153 0.10961 -0.0604383 -0.111224 -0.109911 0.179644 0.0427917 -0.0161178 -0.0832754 -0.05074 -0.0820732 0.0362385 0.0833058 0.0870155 0.0811888 0.0300978 0.0153907 -0.126365 -0.0374175 0.107349 -0.0464174 -0.0332509 -0.0781838 -0.0222617 0.132954 0.0125911 -0.00881119 -0.0962761 0.047011 0.0687504 0.00135093 0.032729 0.0985214 -0.0539757 0.0390414 0.00948324 0.157079 0.108114 0.0667716 0.236068 -0.159833 0.0522582 0.0700028 -0.151841 -0.0643236 -0.144561 0.071691 -0.0368695 -0.0370289 -0.0492919 -0.058169 -0.0925824 -0.138219 -0.0161879 -0.0345192 0.138254 -0.0867703 0.0679614 0.0385134 0.11404 0.0897945 0.15768 0.110423 -0.0511845 -0.019489 -0.0562106 -0.120481 0.0062299 -0.269981 0.00323444 -0.0471299 0.0531 0.0285046 0.0274255 0.0146533 -0.00335061 -0.0625928 -0.0513108 -0.083322 -0.0307507 0.217392 -0.0517195 0.0191335 0.00486746 0.0295923 0.00272003 0.0568233 0.125309 -0.00664411 0.0213474 0.00417512 0.0402822 0.250136 0.0723731 -0.0247354 -0.105193 -0.0337007 -0.136514 0.0432173 0.103111 -0.0571514 -0.178061 -0.0224351 -0.0480964 0.0339204 -0.0303209 -0.0316621 -0.000575815 0.16492 0.0518705 -0.130552
42 -0.0601287 0.0268753 -0.0278202 -0.0200427 -0.00970543 -0.0752016 0.099466 0.0444868 0.0662262 0.0616328 0.0661111 0.0739772 -0.0853944 0.0834487 0.0447374 0.114387 0.0550227 -0.0519517 0.0372886 0.02368 0.0172692 0.00398281 0.018585 0.125045 0.0136681 -0.127201 -0.0896848 -0.000883787 -0.0350722 0.0325479 0.0591253 0.073936 0.0334366 -0.0294886 -0.079195 0.0234797 0.11648 -0.115101 0.0330603 -0.204902 -0.0552532 0.0562606 0.0739733 0.0181127 -0.015547 0.200193 -0.0394605 -0.0268407 0.103162 -0.161228 -0.113587 -0.0859822 -0.0673496 0.050292 -0.125741 0.040749 0.0771652 -0.145423 0.0985853 0.0721117 -0.210677 -0.0159724 -0.0373978 0.141832 -0.0537844 -0.134092 0.0965793 0.00058274 -0.0653278 -0.0893342 -0.0101633 -0.045841 0.16187 -0.0752418 -0.0707258 0.00544609 0.113925 0.0988701 0.0838372 0.163882 -0.18967 -0.0807562 -0.0415262 -0.0150251 -0.126037 0.0914837 -0.0980327 -0.0260559 0.0113448 0.0996629 -0.0290396 0.093516 -0.0855665 0.0287644 -0.089166 0.086288 0.143074 0.241403 -0.102913 -0.0343714 0.0185822 -0.188076 -0.043626 -0.139723 0.0862785 0.0110337 -0.0216267 0.0559683 0.034071 0.114448 0.0386203 -0.0561355 0.0830183 0.0775548 -0.0111795 0.158233 -0.0464657 0.109972 -0.120955 -0.0350993 -0.0862714 0.00962564 0.0093482 -0.0347772 0.0726197 0.139779 -0.0688922 -0.0470641
43 -0.0933756 -0.101438 0.0210167 -0.125844 -0.0397099 0.00256138 0.0114161 -0.0771165 -0.0473412 0.0175377 -0.0246791 -0.117369 -0.0642141 -0.00751893 0.0318076 0.0617574 -0.0582707 -0.0346728 0.0373749 -0.086219 -0.0477379 -0.0413022 0.0778601 0.0845982 0.0283165 -0.0391225 0.0666556 0.0529383 0.0524444 -0.0384109 0.0797356 0.0256912 -0.0138738 0.00925251 -0.0575343 0.035865 0.233628 0.0907518 0.0463647 0.0696886 0.221191 -0.000645127 0.128255 -0.0179561 0.028071 0.0324278 -0.00934595 -0.1553 0.0797138 -0.159135 -0.0898933 -0.0338034 -0.0931586 0.241813 -0.241108 0.05832 0.10735 -0.168783 -0.0229893 0.0215546 -0.111856 0.061029 0.0586957 0.172356 -0.00590779 -0.021049 0.127458 0.0999152 -0.032053 -0.0859853 0.134834 0.0188497 -0.0890816 -0.0255666 -0.00995362 0.0118664 -0.128954 0.100212 0.0290546 -0.00463527 -0.0688625 -0.102692 0.0354556 -0.142129 -0.0209335 -0.111527 -0.110693 -0.0399475 0.0821106 0.139578 0.0322051 0.0142902 0.065635 -0.0467399 -0.15739 -0.144897 -0.0891234 0.00584541 -0.0858825 0.0807916 0.109275 -0.112216 -0.13673 0.1125 -0.0259332 0.00749221 0.049498 0.0433823 -0.099417 -0.0512743 0.056762 -0.139658 0.0696689 0.0677919 -0.0502244 -0.00650595 -0.125994 0.00661292 -0.114813 0.13905 -0.0366697 -0.0870959 -0.112094 -0.0216813 -0.0410269 0.107436 0.0496645 -0.0619697
44 -0.0789608 0.031754 0.148377 -0.121132 -0.00177863 0.065088 0.0284114 -0.0418663 -0.07309 0.192207 -0.0379299 -0.0187877 0.12057 0.130886 -0.0838746 0.108543 0.0136742 0.0536142 -0.0904172 -0.0121879 -0.0243595 -0.0998158 0.0666141 0.207454 0.0616721 -0.00755396 0.0910812 -0.045351 0.0639007 -0.1232 0.106815 0.0200595 -0.0212117 -0.0970169 0.0305674 -0.0996388 0.0266852 -0.0760053 -0.0211486 -0.134405 0.0901532 -0.0245773 0.0323183 0.0364557 -0.0213461 0.128434 0.172468 0.0506701 0.0353605 0.016836 -0.00716042 0.0580483 0.0878294 0.149568 -0.119985 -0.0323828 -0.0659629 -0.0886009 -0.0138775 -0.124996 -0.218457 0.0335849 -0.219133 0.122644 -0.145422 -0.0222426 0.120398 -0.0742608 -0.0720773 -0.224716 -0.0861918 0.113018 0.0379747 -0.0194696 -0.0403502 0.0325259 -0.0978357 0.0172636 -0.067342 -0.0690184 -0.109501 0.103736 -0.0421283 0.0391353 -0.0978481 -0.056488 -0.0675659 0.0473866 -0.0393939 0.0676974 -0.0156229 -0.00379043 0.0700018 -0.00486194 -0.0790824 -0.211121 -0.0333352 -0.0319163 -0.146498 0.0788102 -0.035742 -0.0787706 0.0515527 0.0707792 0.00281863 0.0504092 0.0940971 -0.0574721 -0.0553656 0.0200232 0.021329 -0.0865049 0.103344 0.0160764 0.073604 0.01393 0.0383301 0.0127377 -0.0952383 0.090263 -0.121645 -0.0159665 -0.230154 -0.0555599 -0.0806416 -0.0171298 0.0992451 -0.0166163
45 -0.0630841 -0.00618999 0.08567 0.00436265 -0.0187294 0.0456807 0.142751 0.0247362 -0.144188 0.0929573 0.0325301 0.0825149 -0.0340799 0.0530681 -0.0279729 0.0652874 -0.0320013 -0.0624285 -0.0868621 -0.0282264 0.0286963 -0.133793 -0.000582786 0.0605812 0.014358 -0.0960883 -0.0193068 0.0291234 0.0198105 0.0277394 0.102227 0.0903701 -0.1447 -0.0280843 -0.0309413 -0.104936 0.0949895 0.0552505 0.0903203 -0.0635146 0.188576 -0.0174054 0.150661 0.00897507 0.0265253 0.159287 0.0432157 -0.165116 0.0974346 -0.107296 -0.0387265 0.00242288 0.0902143 0.177837 -0.129129 0.0902562 0.0254886 -0.212142 0.0469346 -0.0909352 -0.161778 -0.00349959 -0.121487 0.12062 -0.104751 -0.0324441 0.215071 0.0743021 -0.0545014 -0.170029 -0.0516534 0.0307311 0.0126904 -0.151752 -0.057495 0.0638293 -0.117646 0.119683 0.0529567 -0.0441824 -0.0384973 0.0461739 -0.147881 -0.0213527 -0.102513 -0.0688618 -0.00848644 -0.0490469 -0.0337213 0.0051915 0.0839818 -0.0393053 0.0633108 -0.0549937 0.0251894 -0.101944 -0.032496 0.0236954 -0.131465 -0.0346524 0.110353 -0.0689457 -0.0337127 0.164026 0.0303913 -0.11181 0.0570755 0.0858126 -0.138971 -0.014083 -0.0282568 -0.0833569 -0.00557813 -0.117274 -0.00626195 -0.00793087 0.115244 0.0651691 -0.0340105 0.0645853 -0.00297827 0.0408952 -0.21697 -0.15889 -0.0259651 0.0738648 0.118585 0.0256806
46 -0.0702035 -0.0683153 0.0134834 0.0117107 -0.152389 -0.0520783 0.0487134 -0.0240312 -0.134141 -0.0413145 0.145313 -0.0167735 0.0247887 0.102629 0.00754123 0.0590003 0.0079926 -0.104091 -0.0498284 0.0579073 0.0751051 -0.0874939 0.0807589 0.0976742 -0.0165362 -0.0241834 0.0764019 -0.0687705 -0.139434 -0.0372462 0.0495352 -0.0132153 0.0268491 -0.068353 -0.153325 0.0790188 0.109319 -0.0133402 0.0816378 -0.0245458 0.0167107 0.024501 0.179233 -0.101545 -0.109149 0.0398516 -0.033014 0.000975938 -0.0353299 -0.0687451 -0.161519 0.0666012 -0.0432982 0.134439 -0.203502 0.0193171 0.149227 0.00374013 0.169451 -0.079863 -0.11712 -0.13788 0.0589123 0.0182371 0.115353 -0.0345541 0.0411274 0.0120461 0.0505067 -0.0569829 0.067147 0.0698036 0.0517066 -0.0524923 -0.177775 0.0460095 -0.0013687 0.171076 0.0413826 -0.0466863 -0.00284635 -0.062924 -0.104818 -0.225022 -0.187906 0.0389941 0.0281756 -0.00930447 0.0814056 0.0206662 -0.146549 -0.0688043 -0.0541046 0.0980613 0.00282181 0.0233407 -0.0308327 0.132374 0.0380565 -0.0969587 -0.0646976 -0.148961 0.151065 -0.0736198 -0.0306624 -0.0538466 0.0348771 0.0556347 -0.0145579 0.125178 0.0424743 0.0374939 -0.109942 -0.0805629 0.0180954 0.1908 -0.0774134 0.00282199 -0.124434 0.0225626 -0.0573588 0.0437081 -0.0545035 -0.173617 -0.0744478 0.170468 0.0606705 -0.0358553
47 0.0852284 0.11527 -0.00591686 0.0965886 -0.0116646 -0.055892 0.139033 -0.0238713 -0.00815386 0.094845 0.091849 0.131713 -0.00847234 -0.0400314 -0.00553683 0.0179365 0.0521205 -0.177294 -0.0530949 -0.0501155 -0.135461 0.0481055 -0.0092446 -0.0316392 0.018202 -0.117161 -0.167774 -0.00631948 0.0432369 0.0308659 0.0975431 -0.0210418 0.0320067 -0.0552594 -0.131755 0.0511252 -0.13152 0.110151 0.039256 -0.0131385 0.0055003 0.0580193 -0.135322 -0.0650094 0.0332562 0.148777 0.0198649 0.058484 0.148613 -0.0650416 -0.0842129 -0.0241434 0.0293488 0.177843 -0.115138 -0.0398539 0.0508977 -0.138673 0.115464 -0.0711085 -0.115549 0.0697291 -0.0419091 0.0414461 0.125419 -0.135659 0.039774 -0.0551095 -0.0108844 0.0163351 0.0262021 -0.00379116 0.0884079 -0.0983885 0.058389 0.105531 0.143542 0.22763 0.0121647 0.0944065 0.0555098 -0.0296573 -0.221276 -0.142667 0.0286534 -0.0360616 -0.091865 0.181974 0.124805 -0.0990003 -0.000361414 -0.0424085 -0.0280347 -0.042304 0.0128113 0.0126758 0.0642484 0.164754 -0.0204359 0.022776 -0.00266242 -0.161369 -0.0410869 0.129081 0.155693 -0.125952 -0.0229305 0.0618257 -0.0876503 0.0603294 -0.0719953 -0.0824809 -0.0178739 0.0835434 -0.0794227 0.15866 0.0111855 -0.0221632 -0.0563512 0.108285 -0.0178868 0.0335201 -0.0462211 -0.0568319 0.0927164 0.137836 0.0339595 0.0881693
48 -0.124251 0.0154266 0.0426567 -0.0107826 -0.041805 -0.00438569 0.132567 -0.180654 0.0492954 0.13887 0.0678656 0.133679 -0.110337 0.0189855 0.00309788 0.112344 0.0983671 -0.0732317 0.117138 -0.00253512 0.14876 -0.0895149 0.195187 0.0993243 -0.0343456 0.0635863 -0.069489 -0.0069625 -0.0231789 0.00140397 -0.0228693 0.0236498 0.0920823 -0.00312351 0.0477473 0.0601109 -0.0401274 0.0222201 -0.0103475 0.0185629 0.0971939 -0.0106513 -0.0800087 0.0550442 0.0267402 0.281946 0.0213651 0.00254968 -0.0744993 -0.0739781 -0.00763069 0.0356214 -0.0680766 0.102477 -0.090178 0.0417138 0.0267617 -0.0646317 0.0434896 0.143876 -0.106709 -0.00166781 0.0141558 0.0181197 -0.0829129 0.00985546 -0.0849832 0.0241656 0.0152967 -0.0977898 -0.0536939 0.0442738 0.134712 0.108988 0.0175029 0.0648207 -0.0489661 0.080403 -0.113288 0.170018 -0.155324 0.0407837 0.0374325 -0.140756 -0.0675398 -0.11967 -0.0993476 -0.0661039 -0.145338 0.0349771 0.0549196 -0.129331 0.0593116 0.0572116 0.0117749 -0.027907 -0.0362118 0.0493522 0.0752188 -0.0319587 -0.0301314 -0.214969 -0.0700988 0.160292 0.0386262 -0.127699 -0.0540675 -0.0785878 -0.0383337 0.146397 0.0601398 -0.109513 0.0591438 -0.0562835 -0.11546 0.214457 -0.069707 0.000792561 -0.161058 0.0406792 -0.0458525 -0.124956 -0.112971 0.0238787 0.0994995 0.063177 0.00124702 -0.0876003
49 -0.0214284 0.0642811 0.0610219 0.00772055 -0.125616 0.0492686 -0.0362198 0.033641 -0.0484602 0.211538 -0.00593997 -0.0413941 0.00711367 0.147928 -0.0437092 0.00799874 0.0762293 -0.221832 0.0819379 -0.0886952 0.0268006 0.071766 0.145525 -0.0278139 -0.134745 -0.0319875 0.0149495 0.027376 -0.06149 0.0630497 0.0538621 0.13031 0.0135223 -0.249461 0.00359651 0.0475372 -0.0091283 -0.0372457 0.122639 -0.00122562 0.0262604 -0.0359568 0.135645 0.0572693 -0.0084219 0.322114 0.0600072 -0.109791 -0.0275022 -0.117159 -0.182456 0.0156807 -0.000986794 0.092541 -0.118054 -0.00361413 0.0102671 -0.141298 0.0656652 -0.0628958 -0.0901213 -0.031702 -0.026005 0.0468161 0.0762043 -0.0723702 0.132512 -0.0395594 0.0160514 -0.0352687 -0.018554 0.0680108 0.0157591 -0.037592 -0.207771 0.0535896 -0.0830786 0.0759073 -0.0673036 0.131641 -0.0208847 -0.0944099 -0.0406473 -0.104585 0.0147392 0.0355728 -0.0225823 0.0927249 -0.0209561 0.0528438 -0.0167062 0.0783886 -0.0680672 -0.0120299 -0.0226083 -0.104983 0.108112 0.103315 -0.0139065 -0.0104944 -0.0124598 -0.164777 0.0998963 -0.0916261 -0.02338 0.0119507 -0.0180992 -0.158434 0.0666545 0.160627 0.0878023 0.0196025 -0.0971604 0.0545295 0.0405483 0.00564615 0.0557669 0.0429012 -0.190775 -0.00982193 0.0461831 0.015628 -0.0267468 -0.0197248 0.0678925 0.0696939 0.0439457 -0.192938
50 0.0339581 0.097195 -0.0681503 -0.105492 0.108234 -0.0105436 -0.043205 0.00087705 0.015995 0.188519 0.249971 0.0424518 -0.0017213 0.0705547 0.0757543 0.0714267 -0.163874 -0.118314 -0.00584448 0.0528653 0.0974949 0.0879039 0.0617616 0.1574 -0.144947 -0.0755889 -0.0231105 0.102413 -0.114246 -0.0397022 -0.0549931 0.102644 0.0489001 0.0397166 -0.0961497 0.0723014 0.026296 0.225856 0.0419049 0.0259725 0.089116 -0.0344752 0.0883084 -0.121241 0.00730116 0.196212 0.101912 -0.0611945 0.0655434 -0.0293944 0.112138 0.0383527 -0.00549032 0.221049 -0.0352292 -0.020496 0.00762842 -0.0795807 0.0468355 0.0656494 -0.174026 -0.0599547 -0.0441031 0.12048 -0.032938 0.0260059 -0.0646456 0.0442717 -0.0701471 -0.0558083 0.000283953 -0.0980809 0.0744302 0.00587095 -0.123581 -0.0565166 -0.078442 0.0898702 0.0611739 0.0611561 -0.0736889 -0.0598085 0.0250893 -0.0759417 -0.00130235 -0.063112 -0.112707 0.174886 -0.0270047 0.100145 0.0576257 0.0067977 0.120398 0.0306457 -0.0576291 -0.00393205 -0.0647414 0.0845211 -0.164882 -0.0999551 0.152901 0.0888522 0.0680637 -0.0187136 -0.0165548 -0.0815563 0.132449 -0.0636591 0.103344 0.142018 0.12444 -0.0938137 -0.10065 -0.058415 -0.00367755 0.135036 0.074108 0.0375128 0.0694313 -0.0754462 -0.010958 -0.0193797 -0.0385851 0.0187607 -0.0254301 0.0979644 0.0401875 -0.00290865
51 -0.0100674 -0.0140609 -0.000191536 0.0157487 -0.136094 0.0126084 0.125668 -0.0697373 0.123592 -0.00143219 -0.1008 -0.0947712 0.0812131 -0.0246805 0.120528 0.170507 -0.00733395 -0.0661993 -0.0742822 -0.000985854 -0.0256217 -0.0385293 -0.0484559 0.0358662 0.0647995 -0.0527718 -0.0758001 0.131363 0.0520404 0.0349208 0.107633 0.0860651 -0.158961 0.130115 -0.0408708 -0.181954 -0.0689425 0.0271913 -0.0288038 -0.0335296 0.178207 -0.0898247 0.0943115 -0.100958 0.0613769 0.0619388 -0.161299 0.0187639 0.08713 -0.0949754 -0.020696 0.0688956 -0.0922719 0.204494 -0.148332 -0.072211 0.109965 -0.0492442 0.0460401 -0.0570929 -0.0216266 -0.0119524 0.00419801 0.180486 0.0601503 0.03274 0.044283 0.0478661 0.0383018 -0.102397 -0.0753549 -0.175157 0.149022 -0.0215359 0.00229597 -0.078982 -0.125624 -0.00347202 0.16969 0.171622 0.0527908 0.0148539 -0.130552 -0.222257 0.0414209 -0.121115 -0.00889723 0.0978609 0.0473301 -0.0976449 0.0334859 -0.0324636 0.0598507 0.0398613 0.029573 -0.050932 -0.0162859 0.030411 -0.014962 -0.0273117 -0.0834222 0.0532038 0.0284273 -0.0871523 0.00702955 0.0174034 -0.0375857 0.0595189 -0.0704527 0.039256 -0.047564 -0.206565 0.0561175 -0.0795783 0.0754374 0.0777475 0.103248 0.067851 0.00484884 0.0806623 -0.0773207 0.0904001 -0.091544 -0.136264 -0.123856 0.0732607 -0.106754 0.0701
52 0.0571811 0.0247023 0.108668 0.0600364 -0.0307988 0.108966 0.0184219 0.123786 -0.157626 0.162605 -0.00566835 0.109044 -0.0925422 -0.088377 -0.0697092 -0.0258269 0.061194 -0.0447122 0.0813762 -0.0541624 0.151857 -0.135794 0.0610615 0.0296201 0.0352579 -0.00856882 -0.102823 0.016071 0.07962 0.0174106 0.168699 0.0933052 0.00315165 -0.0568841 0.0210609 -0.0827153 0.0157344 0.209139 0.152882 -0.00375846 0.135475 0.088207 0.178944 -0.0458441 0.0272317 0.217935 0.0286063 -0.0238948 -0.00407145 -0.048933 -0.1513 0.0454959 0.103938 0.012642 -0.00536477 0.027688 0.00329693 -0.0200468 0.143474 -0.0215078 -0.0849223 -0.042455 -0.0348108 0.110656 -0.00719427 -0.0229003 0.221357 0.0607998 -0.0638757 -0.094285 -0.0350151 0.0974816 0.0997864 -0.0406407 -0.155844 -0.0817379 0.0087321 0.0116125 0.0513616 -0.0629655 0.0401671 -0.035404 -0.199194 -0.1531 -0.193052 -0.012769 0.0848398 -0.0313442 -0.0262392 -0.0690052 0.0902357 0.0121477 0.00169533 -0.0827026 0.0201889 0.00463458 -0.0799595 0.0930648 -0.0933088 0.0687798 0.112139 -0.166701 0.0795205 0.093532 -0.0175859 -0.027049 0.0684933 0.0605179 -0.0179116 0.0964897 0.0335045 -0.0242085 0.156297 -0.10774 -0.0136938 0.0786633 0.13402 -0.0508103 -0.0843694 -0.141819 0.0509431 0.0673779 0.060688 0.0121207 -0.0867413 0.0244269 -0.0214279 -0.0744248
53 -0.136459 0.0610003 -0.00854505 -0.0675561 -0.150029 0.090665 0.122369 0.0400575 -0.0677325 0.140215 -0.00361972 0.101294 -0.082298 0.0777749 0.0589079 0.0225469 0.0463975 -0.15362 0.0955225 -0.163178 -0.0320198 0.0235303 0.0954007 0.00801214 -0.0906205 -0.0960952 -0.0565403 -0.045335 0.03185 -0.0162242 -0.0064669 -0.000823045 0.0612645 -0.146088 -0.134471 -0.0997087 0.0769202 -0.0201303 0.0640851 -0.0731729 0.0734245 0.0421961 0.0953846 -0.0193248 -0.0606297 0.25391 0.00625175 -0.0975261 0.094835 -0.0272001 -0.174301 0.0826263 -0.0104269 0.0704206 -0.153865 0.092501 0.0739702 -0.122199 0.0947946 0.0425053 -0.176835 -0.0987989 -0.00183014 0.158251 0.0164215 -0.149178 0.116577 -0.0564459 0.00755153 -0.0724475 -0.0380032 0.0754047 0.040251 0.0347579 -0.159431 0.110875 0.117477 0.10387 -0.000907638 0.214366 0.00669208 -0.0250937 0.0308071 -0.0884473 -0.0934758 0.0472201 0.00891075 -0.00110169 -0.023318 0.0506522 -0.0533788 0.0302261 -0.0530677 0.0148892 -0.134798 -0.115978 0.108243 0.182733 -0.0270315 -0.10333 0.0555333 -0.123015 -0.0343072 -0.0578408 0.041228 0.0401854 -0.0113479 -0.0128641 0.0241766 0.214438 0.0229779 -0.0517249 -0.0715242 0.0508807 0.0818921 0.00484157 0.0687564 -0.04184 -0.0932855 0.101528 -0.0495023 -0.0355618 0.0310939 -0.087701 0.0366933 0.0904753 -0.102169 -0.0601662
54 -0.0352106 0.124862 0.0677364 -0.0758385 -0.0776858 -0.0225788 -0.10099 0.0605148 -0.0108622 0.000569367 -0.122746 0.135021 0.0387945 -0.0634458 -0.0282437 0.0982608 -0.0924659 -0.0356689 -0.113485 -0.052213 0.109098 -0.235091 0.127291 0.0465764 -0.0621489 0.00808793 0.0296648 -0.0891888 0.0323641 0.141414 0.0700774 0.0952345 0.0259615 -0.153389 -0.0411457 0.00282007 0.017008 -0.0785251 0.0594791 -0.0103255 -0.108557 0.0516114 0.0078098 -0.070913 -0.0260947 0.241269 -0.0555475 -0.172924 0.077222 0.062683 0.0864662 0.0453509 0.0281826 0.209763 -0.0826681 0.194867 -0.0239412 -0.193172 -0.0440508 -0.085957 -0.125766 -0.0882964 -0.0427962 0.137577 0.0104253 -0.0216444 0.0193448 -0.0626595 0.0538368 -0.00629734 -0.0446011 -0.0654965 0.078496 -0.0668917 -0.0916753 0.0802458 -0.113303 0.143758 0.0373517 0.0470734 0.124177 0.0657413 0.0100733 -0.0909718 -0.190187 0.00751059 -0.103589 -0.0667829 -0.0286528 0.00209893 -0.103052 -0.0265163 0.0145728 -0.0331948 0.0771032 0.00380541 -0.148293 -0.0357703 0.0261796 -0.0507722 0.0727933 0.0249513 -0.0929116 0.0548528 -0.064045 0.0138798 -0.055106 -0.0278155 -0.208947 0.0505383 -0.0259938 -0.110567 -0.0638293 0.0451104 -0.027529 0.0326541 -0.0360475 0.109563 -0.146273 -0.0386822 -0.094397 0.101281 -0.115373 0.0365024 0.0673531 0.0983292 -0.125636 0.0365454
55 -0.104301 -0.142528 -0.0182317 -0.0239734 -0.0351293 -0.024313 0.110851 0.122227 0.034434 -0.0113626 -0.0728113 0.0739914 -0.0874963 0.0526021 0.00452786 0.0851882 0.0737279 -0.0698709 0.0464575 -0.0681552 -0.0409174 -0.0589135 0.0543002 0.108871 -0.0877137 -0.0509796 0.0107263 0.0667223 -0.00295398 0.00125822 0.112618 0.0576248 -0.103917 -0.187034 -0.0868856 -0.0016966 0.0788255 0.053265 -0.0148129 0.0123483 0.200467 -0.0205529 0.207969 0.0266202 0.0280004 0.0755659 0.0787559 -0.13342 0.0940001 -0.0550816 0.0438713 0.00658382 -0.0778424 0.125145 -0.0891258 0.108156 0.156872 -0.142623 0.0523282 0.10813 -0.114553 0.0527602 -0.0171495 0.0845441 0.0951392 0.0888187 -0.0888936 -0.0728739 -0.0617661 -0.0813593 0.132022 -0.0475146 0.0890772 -0.0807857 0.05164 0.147294 -0.0331394 0.119269 0.138151 -0.0465211 0.147893 -0.0100852 0.0739716 -0.00890903 -0.00410123 -0.0696595 -0.0876628 -0.0254502 0.0674112 0.0573784 0.0771532 -0.0347148 0.0301972 -0.141712 -0.179886 0.0511952 -0.172721 0.131476 -0.105802 0.0699107 -0.00606264 -0.222642 -0.18135 -0.0257797 -0.000916695 0.00751939 -0.115777 -0.0299335 -0.0134432 -0.105673 0.0307489 0.0576992 -0.119872 -0.013681 -0.0772684 0.0588879 -0.0430022 -0.105982 -0.032321 0.0545682 -0.126832 0.0753187 0.112268 -0.0519187 -0.0640875 0.135843 0.0258124 -0.0166119
56 -0.0892569 0.106666 0.10738 -0.0887975 0.0490568 0.0663987 -0.0623937 -0.0990495 -0.085516 -0.127501 -0.144155 0.0463395 -0.0937641 0.15854 -0.139118 0.0797443 0.0291428 -0.0487645 0.0158611 -0.00495593 0.0398115 0.0492385 -0.0238227 0.174316 -0.0193178 -0.0412177 0.088648 -0.0318961 -0.00963997 0.132149 0.0571671 0.0659742 -0.0725249 -0.0225423 -0.137609 -0.107313 0.03014 -0.050606 -0.0200187 -0.0795564 0.0755798 -0.0659573 0.049783 -0.100561 0.122459 0.151889 -0.157086 -0.103061 -0.113575 -0.107823 -0.0013694 0.0248047 0.0172113 0.129116 -0.0612241 -0.0467586 0.0782662 -0.187901 -0.169344 -0.0204455 -0.0812288 -0.0150442 -0.0018808 0.062081 0.0710717 -0.0745696 -0.0221603 -0.0799445 -0.00154588 0.0584695 -0.0497966 0.067043 0.0438945 0.112409 -0.015337 0.171363 -0.0337961 -0.104511 0.168039 0.145947 0.106401 -0.0178835 -0.120683 -0.0349404 -0.0879812 0.0333708 -0.094269 -0.00784855 0.0621417 0.077193 -0.00568969 -0.101829 0.182932 0.0181234 0.0109234 -0.178864 -0.0598609 -0.0325056 -0.0432672 0.024273 -0.0505263 -0.101304 -0.0390875 0.00294099 0.107573 -0.143033 0.0856072 -0.0837532 0.0117879 0.0293976 0.0192492 -0.166843 -0.0182955 -0.0413802 -0.15593 0.0730813 0.031085 0.0605404 -0.0436959 0.0829525 0.134617 0.0682855 -0.0488102 -0.167641 0.0537532 -0.0174329 -0.0491547 -0.149169
57 0.0494368 0.0546913 0.0269065 -0.17058 -0.118407 0.100182 0.00361784 0.104584 0.12919 0.0701537 -0.0592334 -0.00352001 -0.0274045 0.0615068 -0.0393647 0.13732 0.0214245 -0.114441 -0.0724244 -0.130602 0.0611126 -0.165285 -0.129494 0.129329 -0.0180819 -0.171562 -0.101209 -0.0780251 -0.115143 0.0436144 0.024501 0.0422115 -0.054994 0.0128485 -0.0770148 0.0206388 0.0248536 -0.0448654 0.0582607 -0.0591658 0.0418781 0.123568 0.0419466 -0.0464173 -0.0438251 0.17981 0.0075055 0.0209567 0.124849 0.0709642 0.0555629 0.135805 0.040106 0.257861 -0.13274 0.0888939 0.0282656 -0.251101 0.00985521 -0.0561254 -0.161909 0.0550687 0.0415795 -0.0206031 -0.0664691 -0.00684847 0.04753 0.0546095 -0.0116388 -0.0766543 0.00252265 0.0558495 -0.000396921 -0.0777048 0.0833935 0.111728 0.0627821 0.164437 0.0718245 0.0999918 -0.132331 0.0573321 -0.0489785 -0.148896 -0.0675146 0.0125023 0.112559 -0.00924808 -0.0827523 -0.0392495 -0.0417585 -0.140859 0.0573975 0.0752417 -0.047571 -0.151993 -0.0535313 0.0475218 -0.0403761 -0.0256023 0.0459334 -0.0695036 0.0338277 -0.0225074 0.141358 -0.139455 0.00557228 0.0599316 0.00134643 0.0472799 -0.125421 0.0553907 0.0178045 0.0320382 -0.179887 0.165481 -0.0180495 0.0598053 0.109461 -0.0747891 0.0406224 -0.0916546 -0.0991156 0.0293671 0.0379198 0.0522829 0.00823329 -0.0370373
58 -0.121184 0.0599185 0.0986791 -0.0531513 -0.0177325 0.023745 0.108975 0.00203891 0.000974684 -0.100583 0.0880376 0.201337 0.0796001 0.06889 0.175292 -0.0152132 -0.0038919 0.0225976 0.0540716 -0.112528 0.080063 -0.0946033 0.0479049 0.106756 -0.0530902 -0.0225052 0.0240756 -0.0915165 -0.117822 0.0194122 0.00676565 0.0311616 -0.000346637 -0.162075 -0.0441479 -0.0291332 -0.0724612 0.0399308 -0.0059893 -0.113017 0.0046882 0.0641109 0.116035 -0.141958 0.0219722 0.108829 0.0704312 -0.113554 -0.0102165 -0.0712707 0.00168676 -0.0748338 -0.100189 0.279136 -0.0624821 -0.0513038 -0.0149182 -0.0771663 -0.0157053 0.0460779 -0.0221664 0.0678783 0.00475896 0.147298 -0.0176851 -0.152039 -0.0647132 0.0938522 -0.0286991 -0.0135811 0.0484819 -0.0865883 0.0735313 -0.0049682 -0.234243 0.0172921 -0.0129742 0.132103 -0.0552692 0.124405 -0.0171476 -0.0494128 -0.0518688 -0.151838 -0.0158752 0.00578299 0.086464 -0.0372039 -0.176413 -1.60585e-05 -0.0892413 -0.11585 0.107791 0.049249 -0.0227077 -0.0333445 -0.103947 0.170224 -0.182313 -0.0949972 0.0630572 -0.167442 0.0280243 0.0292262 -0.0680165 -0.119949 0.0593493 0.0995531 0.134277 0.118644 -0.143041 0.0156398 0.0732552 0.0185264 0.0850502 0.0797703 -0.0715009 0.0115841 -0.15602 -0.0748067 -0.0389323 -0.0525239 -0.00479463 0.012011 -0.00304002 0.0507869 0.00981622 0.11634
59 0.0414473 0.0617518 0.092177 0.0071138 0.120239 -0.103151 0.0454321 0.0113898 0.0414188 0.106191 0.128842 0.0647346 0.0202229 0.0591657 -0.0363333 0.0124599 0.0166737 0.00373268 -0.0164164 -0.126745 0.0488538 -0.00424511 0.0365934 0.137035 0.0386821 -0.0328356 -0.0652981 0.0259918 0.0971283 0.0870839 0.0250158 -0.132804 -0.00652898 0.024224 0.0895726 -0.0863053 0.0916801 0.0821036 0.0379591 -0.0523301 -0.0218155 0.15715 0.00722238 -0.050209 0.015719 0.196719 0.113917 -0.020104 -0.0233592 0.0314435 0.0560989 0.0916198 -0.0257326 0.105165 -0.0247609 0.0278026 -0.0434234 -0.121207 0.0205845 0.0550816 -0.140642 -0.207422 -0.14752 0.216748 0.181493 -0.157518 0.0231849 -0.0478346 -0.12522 -0.0853564 -0.0285262 -0.00228405 -0.0488692 -0.0784072 0.0125045 0.178037 -0.0715808 0.0801785 0.067145 0.0482468 -0.109013 -0.0132598 0.0709264 -0.157243 -0.155919 -0.0395328 -0.0209534 0.026909 -0.116798 0.0184451 -0.0157647 0.0118924 -0.0251445 -0.125199 0.0772973 -0.0821923 -0.165461 0.0176196 -0.0102366 -0.0525586 0.129936 -0.15726 -0.110128 0.0628174 -0.00499385 -0.113726 0.187409 -0.0670036 -0.0059874 0.0765638 0.0444903 -0.17311 0.0769482 -0.15382 -0.097198 0.0684613 -0.011965 0.00626154 0.0714394 0.0542798 -0.0205714 0.00326535 -0.119001 -0.0979743 -0.116522 0.00303643 -0.131343 0.0567289
60 -0.0155914 0.0143364 0.0206909 -0.0823812 0.0165376 0.0507833 0.108118 -0.0527431 -0.0209337 0.129716 0.0643021 0.0380379 -0.0311767 -0.0240221 0.0476455 0.067802 0.113082 -0.120422 0.0757999 0.0790391 0.072444 0.021454 0.188749 0.0595779 -0.139327 0.0177974 -0.118598 0.0469465 -0.0115532 0.0858406 -0.0565071 0.0410593 0.128108 -0.00563618 -0.0807038 -0.0635842 0.0784513 -0.000857746 0.0510029 0.0239754 0.0175634 0.0743377 0.0710771 0.082166 -0.0205203 0.226531 0.0336116 -0.11046 -0.082755 -0.124869 -0.110157 0.0834665 -0.014026 0.0865345 -0.151285 0.0166363 0.150706 -0.0537217 0.00692081 0.0523092 -0.185936 0.0246839 -0.00999993 0.0859842 -0.154982 -0.152077 -0.0208299 -0.0160093 -0.110738 -0.0862615 -0.0748685 0.0777173 -0.0155431 0.124705 -0.108642 0.172402 0.0244866 0.131302 0.0167297 0.0853122 -0.0135906 -0.0334192 -0.102074 -0.0859783 -0.0527591 -0.100384 -0.130922 0.0175637 -0.0450625 0.0282033 -0.0860906 -0.128537 -0.0223019 -0.0585958 -0.187103 0.0213296 0.0605375 0.234803 0.023487 -0.113489 0.0819346 -0.13373 -0.0176165 0.029053 0.0491093 0.00766909 0.0626188 -0.0937564 0.0584768 0.173856 0.0289197 -0.107129 0.0211756 0.0501212 -0.0976376 0.0718603 -0.0171299 0.0709207 -0.0903686 0.0577662 -0.0634779 0.00777562 -0.206102 -0.118055 -0.0149929 0.030435 0.0294359 -0.122942
61 0.0168955 -0.0612625 -0.0392055 -0.130692 0.0734682 -0.156284 0.182975 0.0210665 0.0655456 0.0733759 -0.00134817 -0.0993534 0.0338373 0.0784118 -0.013355 0.149018 0.0871419 -0.102189 0.099019 0.0747009 0.0247741 0.0983752 0.137691 0.0934341 -0.0565831 -0.0850878 -0.159726 -0.0761453 0.0329152 0.0424657 0.150666 0.02505 -0.00117453 -0.0717524 -0.100243 0.0703401 0.0297368 -0.0773534 0.0566934 -0.101026 -0.0290652 0.0923615 0.0445313 -0.0226184 -0.0634574 0.222069 0.0423017 -0.187746 0.129685 -0.0744596 -0.159386 0.0679263 0.104776 0.0389311 -0.131402 0.145308 0.0797211 -0.124251 0.0732638 -0.0489276 -0.0543382 0.041935 0.0619552 0.131903 0.134729 -0.166182 -0.158312 0.0197836 -0.109736 -0.0322141 -0.0490579 0.0563411 0.0604787 -0.101612 -0.00735752 0.0143875 0.11168 0.0672025 0.0325073 0.157263 -0.0514688 0.0504268 -0.112083 -0.0504395 -0.0836034 -0.0723646 -0.158933 0.187137 0.0458995 -0.0498056 -0.0237402 0.00849787 0.0943179 0.0598275 -0.0313804 0.0608454 -0.0751589 0.0716887 0.0044438 -0.050779 0.0741185 0.00108357 0.0729262 -0.0642334 -0.0367139 -0.0654857 -0.0579727 0.0938288 -0.0580264 0.00545971 0.0252445 -0.102355 0.00889149 0.0411777 0.00063843 -0.0193584 0.0760165 0.132328 0.0126205 -0.0534876 -0.0415444 0.0997033 -0.186907 -0.116104 0.0309174 0.00954142 0.0501533 -0.0933976
62 -0.0790956 0.0886648 -0.11702 0.0191472 0.000854382 -0.0500586 0.00461925 0.0077476 -0.0493886 -0.0920028 -0.0830797 0.011499 -0.0359267 0.0236084 0.00867141 0.120422 -0.0764287 0.0334265 -0.036117 -0.107904 -0.135549 -0.142087 -0.0233769 0.0835832 -0.00708841 -0.0311659 -0.00506502 0.00757019 -0.0321925 0.021367 0.198955 0.0771022 -0.0963668 -0.145425 -0.0825093 -0.144682 0.115978 0.101077 0.00691291 -0.122795 0.124772 0.10212 0.184592 0.0385265 0.0796676 0.154884 0.0113446 -0.0892643 -0.0296308 -0.167302 -0.100236 0.129635 -0.0198721 0.186925 -0.166386 0.0806042 0.0727052 -0.103543 0.0578287 -0.00194464 -0.0512856 -0.0628269 0.0636279 0.209563 0.0694263 -0.0735137 0.0411988 0.0108107 -0.081601 0.0416216 0.030893 0.0415173 -0.00888111 0.032071 -0.0388207 0.0410496 -0.0910369 0.024227 -0.045766 -0.0374816 0.0753658 -0.0118248 -0.0435923 -0.167813 -0.0235449 -0.0145698 -0.0461809 -0.103357 0.020504 0.0639015 0.0608535 -0.107762 0.0372477 -0.0826391 -0.191129 -0.0710672 -0.176545 0.156051 -0.143497 0.0217691 0.0617223 -0.111225 0.0449096 0.121675 0.0789806 -0.0143316 -0.000562656 0.055683 -0.00778121 0.00356128 0.0621305 -0.0987316 -0.151865 0.0881001 -0.077665 0.0179141 -0.0427639 0.0530711 -0.0218513 0.059938 -0.0939623 -0.0770317 -0.165509 -0.146527 -0.0112544 0.0743828 0.118665 -0.0609672
63 0.108842 -0.0528583 -0.0651763 0.057147 0.00565977 0.0490423 0.00611163 -0.047506 0.0370468 0.0966736 0.142144 0.0328334 -0.0149862 -0.0374321 -0.0183284 0.0383352 0.0191195 -0.00860708 -0.0303657 0.0235909 0.0390144 -0.0468936 0.11533 0.233537 -0.120351 -0.0364753 -0.00297748 0.160676 -0.084536 0.0726253 0.0631652 0.107377 -0.134609 -0.0368767 -0.0176149 -0.237676 -0.00611125 -0.068699 0.104085 -0.0479741 0.0170631 -0.132361 0.0333252 -0.0869879 -0.0308186 0.0492604 -0.00428179 -0.121792 -0.000711611 0.0541884 -0.14679 -0.0642706 0.00736022 0.187176 -0.128107 -0.120626 -0.0278419 -0.0228713 -0.0604298 -0.0657479 -0.124858 -0.0312867 -0.00140705 0.297029 0.0617804 0.0308179 0.055851 0.0807688 -0.0816561 -0.184792 0.0275035 -0.0447378 0.056032 -0.059706 -0.146784 0.0554856 -0.0513877 0.0617716 0.077732 0.0496793 -0.0510543 -0.0472492 -0.161582 -0.158461 -0.18255 -0.0725584 -0.0614562 -0.0396817 0.027365 -0.0586687 0.0413325 -0.035778 0.117688 -0.0211309 0.0267738 -0.104985 -0.0171627 0.00635883 0.0361267 -0.114176 -0.0294005 0.112196 -0.0599306 -0.0621789 0.0317976 -0.0621842 0.155371 0.129646 -0.0353805 0.0568606 0.0706177 0.0159179 -0.0685668 -0.000431449 -0.14553 0.00554213 -0.0255853 0.144847 -0.0814699 0.0914397 -0.0421793 0.0684777 -0.161864 -0.0645311 -0.0239534 0.1185 0.0658471 -0.00616776
64 -0.0329326 0.100374 -0.156192 0.034987 0.0948102 0.0695899 0.0215893 -0.00876597 0.073575 -0.0358968 -0.00596869 0.0161206 -0.0568765 -0.0138339 0.115131 0.0213381 -0.0549617 -0.0247568 0.0676629 0.0377764 -0.10674 0.0399654 0.114057 0.0743458 -0.100523 -0.00834198 -0.108403 -0.0468371 0.175102 -0.0999404 0.0136723 0.0313426 -0.0894125 -0.143685 -0.224865 -0.122205 -0.062234 -0.0817017 0.123472 -0.0605206 0.0510572 -0.00501986 0.048094 -0.127089 0.0307433 0.158726 0.063957 -0.0583703 -0.042417 -0.0347807 0.0361208 0.0178339 0.079291 0.113097 -0.031241 0.0133856 -0.0345551 -0.176548 0.0687594 -0.170777 -0.178746 0.0705964 0.0869089 0.202686 0.115859 -0.151708 -0.0142606 -0.112852 0.162863 -0.0607208 0.0441738 -0.0266252 0.00159893 -0.0671429 0.00969402 0.0389197 0.0215518 -0.05163 0.169606 -0.0351461 -0.11802 -0.000176902 -0.0496721 -0.0281387 -0.0602095 0.0229195 0.00705981 -0.0562098 0.0139013 -0.0169595 -0.0706845 -0.0915991 0.0943179 -0.0491834 -0.070423 -0.0333611 0.0591799 0.111473 -0.0513272 -0.127946 0.0190194 -0.149666 0.018901 0.0502576 -0.0593733 -0.164992 0.0540923 -0.021835 0.00536577 0.10835 0.0217187 0.00367308 0.00207349 -0.0803799 -0.03425 0.150499 0.0989819 -0.0070965 -0.176359 0.0277637 0.0867805 0.0519363 -0.192938 -0.0574015 -0.160321 0.024889 0.15453 -0.0731202
65 -0.0701291 0.061655 -0.0113563 -0.00360884 0.0368857 -0.0328549 -0.00672565 -0.0756274 -0.0621954 -0.0921136 -0.0895767 -0.00608113 -0.0113095 -0.0904598 0.0912733 -0.0310878 -0.089259 -0.0914622 0.090424 -0.0567039 -0.0929135 -0.161159 -0.0119894 0.0782446 0.049242 -0.0648079 0.0824832 0.0243165 0.0793145 -0.0340943 0.209199 0.0486288 -0.153508 -0.0816753 -0.044766 -0.112444 0.034446 0.056216 -0.0251341 -0.0484937 0.0175542 0.138586 0.126372 -0.0346438 0.0469023 0.0526573 -0.0512384 -0.0163373 0.00795043 -0.222557 -0.024225 0.111962 -0.0722976 0.209374 -0.157089 0.0216961 0.123541 -0.141562 0.048644 0.00266205 -0.123012 -0.0371157 -0.0292253 0.0818929 -0.0372755 -0.0738645 0.0110134 0.025196 -0.0785946 0.0335641 0.082885 -0.00957708 -0.0527424 0.0519346 -0.0772149 0.0639959 -0.0274096 -0.0137966 -0.00208836 0.0219993 -0.0683713 -0.0451898 -0.0495094 -0.201345 0.00135633 -0.088981 -0.0871696 -0.00976701 0.124903 0.00374093 -0.0152389 -0.0439123 0.010744 -0.0718665 -0.191458 -0.0263418 -0.0767261 0.0389167 -0.120538 -0.0804022 0.109588 -0.21209 -0.0107806 0.111874 0.0278114 -0.0938615 -0.0448812 -0.0270962 -0.0655124 -0.124673 0.0229567 -0.18797 -0.168049 0.0430992 -0.0645358 0.0278063 -0.0295313 0.12067 -0.00377808 0.0207343 -0.103831 0.0112228 -0.268136 -0.166123 0.0156803 -0.0287424 0.0390896 -0.136953
66 -0.0600991 0.0167193 -0.0431375 -0.03938 0.095159 -0.0172533 -0.0933373 0.0583335 -0.00875446 0.0117926 0.0907457 0.0589321 -0.00373833 0.0579913 -0.0701105 -0.0184552 0.0842994 -0.172729 0.0864939 0.00472181 -0.0173162 1.84698e-05 -0.0435882 -0.0112456 -0.108509 -0.16471 -0.133915 0.0915869 0.0450491 -0.0432958 -0.0317259 0.168328 0.0818085 -0.0793361 0.0189686 0.0648117 -0.0588056 -0.00520177 0.0379897 -0.0153209 0.0739038 -0.0378223 0.0170574 -0.0948511 0.0978729 -0.0517144 -0.111746 -0.111823 0.0614503 -0.0140716 -0.137516 0.0545677 0.0343971 0.188042 -0.0993354 0.143334 0.170377 -0.233618 0.00612273 -0.119669 -0.0976333 -0.0928303 0.0418821 0.0731633 -0.106208 -0.0959171 0.0581173 0.0889353 -0.133263 -0.0482875 0.0101391 0.0674948 0.0812107 -0.079361 -0.121997 -0.0641586 -0.194053 0.186884 -0.0424444 0.0353843 0.0133881 0.0727363 -0.0330571 -0.117207 0.0586192 -0.10944 -0.17762 0.0637685 0.0941755 -0.100464 -0.104407 -0.132601 -0.116037 0.0122255 -0.0410092 -0.109763 0.119588 0.055402 0.0196799 -0.0667445 -0.0354794 -0.138109 0.110548 0.0334027 -0.116857 -0.111981 0.123304 -0.0448841 0.00487694 0.0189463 -0.0195283 0.0607821 -0.108315 0.0648364 -0.0150014 0.0858442 -0.0851422 -0.0845878 -0.0147197 0.00830698 -0.0574092 0.0852059 -0.119492 -0.0268361 0.0416079 0.128336 0.105846 -0.0784882
67 -0.0718452 -0.0349635 -0.0573925 0.00554737 0.0166786 -0.0393884 0.0299802 0.010746 -0.0418772 -0.110398 -0.0194659 -0.105825 0.0373605 -0.139773 0.0882987 0.0303444 -0.0743452 -0.000154981 0.0462323 -0.0477879 -0.136863 -0.10435 0.072998 0.164125 -0.0214365 -0.116036 0.0292927 0.0486682 0.0466904 -0.0905975 0.109316 -0.0842306 -0.0449587 0.00709584 -0.0409599 -0.0245697 0.142564 -0.0170453 0.0472478 -0.0124606 0.182793 0.176548 0.157598 -0.0218536 -0.0466979 0.0290333 -0.0538876 -0.178711 0.00951816 -0.100876 -0.0707957 0.0297253 0.0305136 0.221077 -0.1046 0.109612 0.00361672 -0.0623533 0.119085 0.0152628 -0.22122 0.06851 -0.0355116 0.0551629 -0.0101631 -0.0261253 0.0283782 0.0892953 -0.0999147 0.0845767 0.0477679 -0.0408197 -0.0237774 -0.0106182 -0.02497 0.126629 -0.0249997 -0.0815781 -0.0550241 0.0121249 -0.0930431 -0.108174 -0.032945 -0.288619 -0.0295743 -0.0771578 -0.0984245 0.0772142 0.117605 0.00926265 0.0220186 0.033399 0.0660065 -0.0476516 -0.0548151 0.0161994 -0.078585 0.0885164 -0.0535062 -0.0962926 0.110722 -0.0850242 -0.0845076 0.139369 0.0661758 -0.163581 0.032889 0.0853915 -0.0394248 -0.107275 -0.00970563 -0.195302 -0.1314 0.0846532 -0.0225886 0.0548268 -0.104926 0.0764462 -0.00262897 -0.0504285 -0.0532626 0.0923886 -0.189047 -0.0487171 -0.0837327 0.077619 0.0978364 0.00621852
68 -0.069432 0.0699177 0.0237724 -0.110697 -0.0844995 0.0927373 -0.00906493 -0.0667006 -0.0566316 0.071659 -0.0208808 0.0730115 -0.0132967 0.0378813 -0.0633974 0.0612878 -0.0330022 -0.221155 0.0518954 -0.135048 -0.00456268 -0.0160986 0.0355938 0.0681716 -0.037638 -0.144136 0.0616093 0.0142905 0.0769507 0.144117 0.0131395 0.0847725 -0.166417 -0.134246 -0.0417079 0.0854653 0.0978522 0.0536508 0.138557 -0.0511325 -0.0375602 0.0967261 0.0200003 -0.00583401 0.0918025 0.1248 -0.096966 0.0230868 0.0134526 0.000837299 -0.0896722 -0.0205894 -0.0417904 -0.0580689 -0.128655 -0.0703284 -0.0282463 -0.0851523 -0.175177 -0.0202136 -0.1801 -0.166002 -0.178976 -0.0467612 0.0639697 -0.188835 0.0492354 -0.0706633 0.00610617 9.25641e-05 -0.0364416 0.0103218 0.112054 0.0186649 -0.0360954 0.066802 0.0389276 -0.0899711 0.0777242 0.0404497 0.146718 -0.0506233 -0.0713241 -0.179791 -0.158281 -0.028038 -0.0268049 0.0827268 -0.103966 -0.0522597 -0.11354 -0.152578 0.0586895 -0.150122 -0.0749686 -0.0100219 0.143038 0.0326561 -0.15525 -0.132252 -0.037042 0.0255265 0.0284299 0.0427078 0.0793261 -0.0472191 0.0983296 -0.138819 0.111417 0.0725945 0.0664365 0.0068727 -0.130544 0.0539123 -0.0738974 0.110923 0.0818944 0.0501468 -0.0200067 -0.0526019 -0.0300069 -0.0521166 -0.129758 -0.0343467 -0.0272264 -0.0131912 -0.071098 -0.165993
69 -0.105864 0.133893 -0.0554107 -0.0982549 -0.0368899 -0.0750521 0.094058 0.0328737 -0.0217479 0.0437364 0.0648594 0.0996004 0.0218186 0.0200251 0.134531 0.0211304 0.198605 -0.21947 0.0189604 -0.00218311 0.0276808 -0.0628855 0.0573492 -0.00773996 0.017555 -0.124386 -0.00863673 -0.0478298 0.0192918 0.109572 0.0253867 0.0548487 0.0590221 -0.00581693 -0.0772537 -0.00822671 0.107753 -0.112722 -0.00225898 -0.0117599 0.0552897 0.00356838 0.215162 -0.0385255 0.00157949 0.174271 -0.0764863 0.0342057 0.0697154 -0.166756 -0.0613155 0.0366014 -0.0561923 0.122926 0.0398009 0.0729913 0.115231 -0.103154 -0.0335192 0.0325743 -0.198998 0.0123416 -0.0186718 0.153513 0.0854008 -0.137595 0.01287 -0.0771414 0.0184098 -0.163861 -0.00467543 0.126156 0.182587 -0.0156654 -0.097488 0.158573 0.0711141 0.117471 0.0969595 0.202603 -0.0988874 0.0592364 -0.0405312 -0.0479146 -0.104303 0.0260744 -0.136528 0.0500177 0.0343317 0.0451388 -0.0253121 -0.0435025 0.0150057 -0.0962414 -0.156691 0.0498283 -0.0058283 0.181881 -0.0834009 -0.0966465 0.00225469 -0.10594 -0.0351799 0.00151479 0.0555997 0.0487108 -0.0405242 0.0664498 0.0915699 0.148221 0.0406368 -0.0157081 0.00436568 0.0573508 0.0448957 0.133009 0.0597767 0.117999 -0.00525704 -0.00770993 -0.0858272 -0.0241416 -0.0845468 -0.0956537 -0.0210265 0.112541 -0.0674785 -0.0820225
70 0.0457022 0.0542106 0.0648722 -0.078143 -0.142323 0.0324777 -0.104063 0.119045 0.0456844 0.0247302 -0.00827792 0.125496 -0.0952661 0.0660986 -0.00450124 0.083086 -0.0209231 -0.0507484 0.0986736 0.00332879 0.0853155 -0.170982 0.0574976 0.179212 -0.131797 -0.124821 -0.256832 0.0346808 0.0660168 0.00717823 0.154424 0.0848092 -0.0106505 0.0676093 -0.0832789 0.0741185 -0.0431549 0.0960607 0.093606 -0.0811381 0.179594 0.0736499 -0.00161187 -0.122094 0.00684198 -0.00441746 0.0790831 -0.0823325 -0.0449272 -0.136193 -0.081258 0.12487 0.0420425 0.112098 0.0412827 -0.0242874 0.0651942 -0.110415 0.132908 -0.106053 -0.149738 -0.075666 -0.0680893 0.0393825 -0.051039 0.0232313 0.0888835 0.0603718 -0.00343875 -0.0389717 -0.00948282 -0.100275 -0.0355491 0.101128 0.013631 0.0559406 0.0933908 0.157045 0.124552 -0.0103078 0.0137881 -0.0970539 0.0653736 -0.117473 0.0365329 -0.0204904 0.0678967 0.0473112 -0.126032 -0.0985535 -0.0545735 -0.0180776 0.131228 -0.174054 -0.0483947 0.0641816 -0.0452661 0.195727 -0.089711 0.00448522 0.00763885 0.0325402 0.0345175 0.0078325 0.109102 -0.108503 0.0290798 -0.00809627 -0.0548654 0.0307775 0.139714 -0.0380544 0.00297028 -0.030863 -0.12951 -0.0658761 -0.0190363 -0.0502582 0.0407585 0.0930879 -0.1036 0.148259 -0.138119 -0.00136142 -0.0223814 -0.061124 -0.170253 -0.0305328
71 -0.131529 0.0607426 0.0151517 -0.0898945 0.0467498 -0.0285213 0.117285 -0.150039 0.106322 0.0679285 -0.0248738 0.102252 0.0842146 0.129053 0.156807 0.118959 -0.000309729 -0.0219014 -0.0905906 -0.146941 -0.0689211 0.0902159 0.0630238 0.13222 -0.171769 0.022371 -0.0443271 0.0684704 -0.108245 0.0094646 0.142249 -0.0208149 -0.0476384 -0.0700045 -0.0972528 0.0952254 0.0567058 0.0106432 0.211583 -0.00213568 -0.0459253 -0.1145 0.18969 -0.0636225 -0.0105543 0.185662 0.0219714 -0.0577564 -0.0239885 -0.0723987 0.0186825 0.0576521 0.108974 0.277024 0.111593 0.0424645 -0.0461839 -0.151317 0.0447044 0.00399012 -0.165633 0.0747423 -0.186166 -0.0661984 0.0180867 -0.129779 0.0329143 0.0959708 0.00455895 -0.0577201 0.0619188 0.0451113 0.0781366 0.0122495 0.0178037 -0.0947669 0.104518 0.115107 -0.0147216 0.0291567 -0.0213301 -0.109756 -0.0645829 -0.0769618 -0.0349517 -0.0625701 -0.00881505 0.0214141 -0.0287273 -0.0234791 -0.0935106 -0.0845358 0.0302819 0.0445496 -0.0220432 -0.210404 0.0199659 0.01571 -0.0747402 -0.0258717 0.124767 -0.0456829 -0.0705172 -0.0624568 -0.0165165 -0.14633 -0.00673546 -0.0417638 -0.105905 0.0905291 -0.065185 0.00649567 0.0806551 -0.105337 -0.070048 0.0863472 0.0877783 -0.118652 -0.0215909 0.0949531 -0.0908579 -0.0597846 -0.0467299 0.045677 0.0106491 0.0097338 0.00514713 -0.0210809
72 -0.144495 -0.0724873 -0.0713893 -0.123903 -0.00346171 0.0250346 0.101678 -0.0189144 -0.0594238 -0.0731955 -0.0642528 -0.0396874 -0.0900759 -0.00929329 0.00464494 0.143883 -0.0296657 -5.92002e-05 0.100544 -0.127458 -0.0141312 -0.0938649 0.00881496 0.0882363 0.0266137 -0.123323 -0.00108192 0.0488266 0.0424228 -0.0725557 0.0819635 0.0933555 -0.0635353 -0.0804508 -0.0416019 -0.0425508 0.0826247 0.103939 0.00959939 0.0514213 0.24377 0.128347 0.161158 0.0784136 0.0692397 0.094764 0.0442249 0.0393531 0.0265248 -0.219067 -0.0533091 0.11115 -0.0631855 0.215952 -0.180391 0.0403053 0.0461904 -0.0789994 0.0462174 0.00131344 -0.124391 0.0533303 0.0172192 0.183534 0.109861 0.014864 0.0102237 -0.0174668 -0.0350471 -0.134883 -0.00910846 0.0184372 -0.0205746 -0.0113419 0.091337 0.176937 -0.00249939 0.15152 0.0313087 -0.0691167 0.00298084 0.0120337 -0.029924 -0.227322 -0.101097 0.0206125 -0.0755658 0.0647448 0.0113846 0.0563635 -0.00198426 0.0213591 0.0892818 -0.0403084 -0.13621 -0.0625705 -0.129542 0.0607021 -0.0694745 0.00136385 0.134229 -0.167348 -0.0969034 0.0890966 0.118655 -0.0305569 -0.0731536 0.042611 0.0053654 0.0362216 -0.00793772 -0.0959872 -0.0166033 -0.0246961 -0.059349 0.118502 -0.0290333 0.0541804 -0.118773 0.0437026 -0.169368 -0.0360496 -0.126397 -0.0730474 -0.069729 0.114496 0.0408647 -0.0354272
73 -0.00857511 0.0592207 0.0944233 -0.0677529 -0.00722955 0.0683696 0.0239004 -0.0721271 0.0804847 -0.0290724 -0.0805105 0.0813957 0.119705 -0.0451543 0.0217212 0.0268126 0.0516704 -0.043349 0.138098 -0.0868433 0.0282255 -0.121748 -0.0588826 0.0817257 -0.0776166 -0.0687198 0.044142 -0.0563313 0.147556 0.0666288 -0.0737553 -0.151898 0.0521798 -0.165973 -0.162371 -0.0160898 -0.0113549 0.0251074 0.175382 -0.0321396 0.128008 0.0997698 -0.00922123 -0.0831901 0.052651 -0.0114941 0.117376 -0.0848938 -0.0455458 0.0951888 0.0643946 -0.101492 -0.0603995 0.108468 -0.109601 0.10146 0.0236776 -0.246589 0.0857622 -0.0952016 -0.159665 -0.119894 -0.00384924 0.0927114 0.0637418 -0.0283084 -0.0757887 -0.0816173 -0.164197 -0.107813 -0.0592222 -0.118395 -0.0523286 -0.00405917 -0.0961211 0.00707717 -0.0672153 -0.0248496 -0.116009 0.109785 0.071867 0.0696859 -0.165946 0.0757507 -0.150763 -0.0703232 0.0453886 -0.0154144 -0.112304 0.024008 -0.0786037 -0.150934 -0.0454007 -0.0424397 -0.0674302 -0.0637837 -0.0186119 0.0736213 -0.177801 -0.0246674 0.0575149 -0.0425155 0.0590289 0.113973 0.130949 -0.0556494 0.136507 -0.0030018 -0.0113821 -0.00576713 -0.112588 -0.130226 -0.041924 -0.0186725 -0.163413 0.0528399 -0.00831042 -0.0578391 -0.0100046 0.00568554 0.0420871 0.0676972 0.126571 -0.044754 0.0963866 0.164228 0.00448814 0.0512246
74 -0.124243 0.125512 -0.0357286 -0.0542187 -0.0496282 -0.000213405 0.0627965 -0.11961 0.0626357 0.102783 0.028788 0.163213 -0.0664695 0.0719808 0.084546 0.112286 0.0206618 0.0813457 0.0470509 -0.0389803 0.0927419 -0.12335 -0.0977331 0.0750798 -0.0283602 -0.10572 -0.0352767 0.0455033 -0.0431206 0.0515906 0.0976233 0.11505 0.0452661 0.040612 -0.0184958 -0.0549053 -0.0668392 0.0772281 0.135514 -0.0858785 -0.0341211 -0.0613934 0.136617 0.0775358 -0.0755904 0.255256 0.00100059 -0.0449606 0.152646 -0.00530352 -0.0473805 0.142763 0.00509458 0.204995 0.00934575 -0.144457 -0.0229753 -0.135399 0.213844 0.0995617 -0.112846 0.0475585 -0.0492332 -0.0623567 0.119697 -0.111037 0.0331236 0.00356517 0.0128434 -0.0181589 -0.0350677 -0.0145971 0.00863458 0.0458517 -0.0401791 0.0400711 0.0414421 0.0336728 -0.016418 -0.000744894 -0.141916 -0.174047 0.0431862 -0.150097 0.0652778 -0.123444 0.0714225 0.0398837 0.0283529 0.0446847 -0.0396241 0.112618 0.0669717 -0.00122601 0.0427259 -0.0536872 -0.0802383 -0.00464987 -0.161651 0.0169794 -0.0588767 -0.063322 0.0815897 -0.169731 -0.0209446 -0.106692 0.0212335 -0.0243649 0.000131221 0.111722 -0.0995301 -0.039944 -0.0319007 -0.162774 -0.0567038 0.189268 -0.0509516 -0.112513 -0.0133556 -0.0164673 -0.0550276 0.0486524 -0.1571 -0.0295837 -0.120895 0.127135 -0.0739618 0.0457443
75 -0.0683569 0.080858 -0.0422942 0.0387667 -0.0120231 -0.0285626 -0.0680332 -0.0830152 0.0857899 0.084847 -0.0694481 0.151052 0.11131 0.0635403 -0.00453042 0.0196313 0.0968684 -0.0558727 -0.0124559 -0.107552 -0.0267393 -0.0211756 0.0132565 0.0584513 0.00686032 -0.066723 -0.163524 0.0778668 -0.111824 0.118191 0.0760027 -0.02504 0.0810312 -0.0267884 -0.0631069 -0.0815162 0.11507 -0.185889 0.0683953 -0.043686 0.117964 -0.0586985 0.125 0.133352 0.0428087 0.0989336 0.0566889 0.0076055 0.0447663 -0.0222761 -0.0502902 0.104649 0.0595172 0.0849096 0.0256715 0.0362068 0.0366404 -0.076958 -0.0261004 0.142687 -0.123512 0.0643313 -0.106147 0.21695 0.101052 -0.0924032 -0.0510355 0.174874 -0.0300403 0.0727954 -0.091909 0.130146 -0.0252789 0.0124843 -0.129026 0.0111756 0.0053897 0.17048 0.00160306 0.0366143 -0.0106895 -0.0767521 -0.065705 -0.280652 -0.0682898 -0.0382764 -0.0523685 0.0805196 0.102316 -0.180547 0.00961961 -0.100739 0.184879 0.00941726 0.0051711 -0.0968995 -0.101176 0.0581188 -0.111267 0.0457616 0.0435141 0.0298797 0.0900621 0.0557182 -0.00144902 -0.110287 0.129443 -0.0588538 0.012538 -0.00130829 -0.0351649 -0.0656071 0.0780437 -0.0255811 -0.154325 0.170655 0.0238609 -0.0553362 -0.0879788 0.025844 -0.0475393 -0.0465172 -0.0685657 -0.169251 -0.0572971 0.108673 0.0633828 -0.0197964
