2708 128
24 0.033277 0.062284 -0.208017 0.029135 -0.075917 -0.000456 0.087803 -0.455073 0.312832 0.328266 0.456217 -0.003717 -0.082864 -0.103992 -0.132397 -0.200251 -0.221715 -0.209873 0.146878 0.120148 0.019368 0.309428 0.216898 0.458847 -0.020464 0.160079 0.109455 0.007997 -0.267898 -0.234554 -0.266153 0.087901 -0.503724 0.367663 0.193820 -0.251852 0.458182 -0.086358 -0.007074 -0.141347 0.046062 0.055507 -0.046322 0.172588 0.116311 0.223992 -0.586754 -0.089405 0.103077 -0.404918 -0.084796 -0.013080 -0.046965 -0.581874 0.320007 -0.034774 -0.289960 -0.029221 0.167361 -0.237923 0.135440 -0.076771 0.088064 -0.180162 -0.245407 0.458106 0.043433 -0.114427 -0.019062 0.470915 0.237231 0.194167 -0.409191 -0.803758 0.225257 -0.013683 -0.011197 -0.283334 -0.282847 0.204553 0.300011 -0.110393 0.330320 0.541612 0.207347 0.292038 -0.507733 0.092078 0.078751 0.128955 -0.088240 0.030615 -0.182126 0.187662 0.071703 0.131314 0.311108 -0.154216 0.092046 0.237471 -0.239819 0.222887 -0.050464 0.100957 0.078407 0.264384 -0.396910 -0.027848 0.222740 0.060877 0.119139 -0.388976 -0.063431 -0.092496 0.026248 -0.166695 -0.380601 0.605920 0.019703 0.358080 0.204875 -0.149622 -0.178135 0.176698 -0.063025 0.290319 -0.266635 0.442238
927 -0.307300 -0.120894 -0.311691 -0.019050 0.038849 -0.067136 -0.289260 -0.970757 -0.284935 -0.207033 -0.010395 -0.438885 0.088788 -0.005116 -0.059315 -0.128678 0.224517 -0.410153 -0.121784 -0.127659 -0.087955 0.262912 0.127343 0.274141 0.317937 0.106791 0.028219 -0.291335 -0.462124 0.117904 -0.107577 0.220748 0.082145 -0.118501 -0.055576 -0.057588 -0.133804 -0.238952 -0.451043 -0.085268 -0.447134 -0.155110 0.272598 0.255456 0.517580 0.063685 -0.471532 0.575916 0.362717 -0.292920 -0.268991 -0.033091 -0.154447 0.085570 0.473067 -0.176546 -0.385327 -0.328444 0.182427 0.485915 -0.057775 0.047734 0.038648 -0.605988 -0.478412 -0.297591 0.181354 -0.416527 -0.154730 0.014273 -0.161329 -0.208328 -0.376498 0.066679 -0.306860 0.025408 -0.296448 -0.062879 0.294947 -0.388701 0.009470 -0.238199 0.452487 -0.201688 -0.148666 0.163215 0.067077 0.265659 0.105447 -0.189132 0.052127 -0.106387 -0.359777 -0.057218 -0.044911 -0.057933 0.240114 -0.220097 0.045820 -0.082804 -0.034070 -0.128472 0.090319 -0.351820 0.193807 0.559074 0.066417 -0.213206 -0.399992 0.380571 -0.074786 -0.208248 -0.243015 -0.272571 -0.075991 -0.002715 -0.615595 0.397722 -0.159770 0.004397 0.237628 -0.190695 0.115296 -0.175761 -0.419924 -0.082594 -0.195964 0.025420
2154 -0.320602 0.122702 -0.463359 0.239352 -0.174368 -0.094411 -0.076684 -0.506116 -0.418003 0.062501 0.481483 -0.506063 -0.338113 0.097898 -0.048689 -0.328336 -0.076507 -0.399350 -0.322243 0.351869 0.023774 0.675167 -0.134596 -0.001940 -0.049560 -0.044310 0.175055 0.204032 -0.515170 -0.281499 -0.245587 0.127434 0.016526 0.084755 -0.338422 -0.107421 -0.091477 -0.053611 -0.626249 -0.443728 -0.029515 0.006688 -0.174288 0.027569 0.152558 0.028661 -0.492552 0.064312 0.364903 -0.282566 -0.073002 -0.326544 0.017555 -0.237054 0.587892 0.051013 -0.263774 0.044614 -0.129660 0.480832 0.073709 0.176899 0.123464 -0.443554 0.143649 -0.162076 0.330848 -0.189417 -0.103993 -0.088247 -0.566639 -0.168335 -0.067909 -0.453914 -0.159327 -0.039821 -0.133550 -0.114442 -0.337578 0.215354 0.199462 0.065380 0.380753 -0.258812 -0.360783 0.018603 -0.097811 0.579387 0.001609 -0.194885 0.030472 -0.122157 -0.012231 0.158776 0.028270 -0.359401 0.216569 0.212051 -0.061362 0.149074 0.053635 0.198717 -0.003535 -0.319520 0.213482 0.018248 0.108011 0.228203 -0.051306 0.488574 -0.032028 -0.455287 -0.424090 -0.145802 0.121630 -0.081363 -0.305187 -0.097142 -0.002204 -0.215994 -0.016763 -0.079370 -0.343716 -0.293816 -0.329065 0.248606 0.249421 0.183511
1423 0.105103 -0.091366 -0.023604 -0.205127 0.391031 -0.088333 -0.453761 -0.275262 -0.039662 0.028482 -0.234088 -0.142603 0.047595 -0.514491 -0.315313 -0.206932 -0.446604 0.307097 -0.077244 -0.004482 -0.381747 0.569841 0.060243 0.391018 0.028219 -0.005099 0.170418 -0.716456 -0.008753 -0.177491 -0.137772 -0.158140 -0.102022 0.267021 0.019499 -0.405959 -0.085280 0.271506 0.020687 -0.548061 -0.197483 -0.154810 0.189377 0.211414 0.328757 -0.126070 -0.058871 -0.000905 0.312153 0.015512 -0.474428 -0.150448 0.369364 -0.186496 0.502323 0.151044 0.004813 0.165608 0.280124 0.305714 -0.376138 0.405243 0.269193 -0.222001 -0.034152 0.124393 0.486656 -0.091226 -0.354808 0.226843 -0.179351 -0.055684 -0.224432 -0.175612 -0.362912 -0.342702 0.135923 -0.124918 0.007324 -0.304478 0.301234 0.043379 -0.285312 0.137609 0.097773 -0.132897 -0.111065 0.086035 0.135367 -0.199337 0.165728 -0.369040 -0.316598 0.214840 0.037433 0.443096 0.353986 -0.522367 0.226901 0.298147 -0.103400 0.144008 -0.109312 -0.112879 0.153525 0.362377 0.217296 -0.126892 -0.103772 0.008159 0.099165 -0.485481 0.072098 -0.208320 0.279426 -0.455995 -0.915684 0.275695 0.141839 0.073563 -0.346391 0.102197 -0.514842 -0.129242 0.215580 -0.171360 -0.401407 0.248353
619 0.311966 -0.250351 -0.350048 -0.224278 -0.346825 -0.340124 -0.498786 -0.216596 -0.055599 -0.119439 -0.189836 -0.017526 0.058248 -0.250384 -0.077933 -0.067730 0.014981 0.265355 0.086874 -0.129931 -0.481028 0.240600 0.150634 0.023306 0.367281 -0.035071 0.133717 0.125276 -0.179197 -0.173196 0.356022 -0.123852 -0.464534 0.281918 0.097158 0.117470 -0.532758 0.351368 -0.819902 -0.680616 -0.163161 -0.113849 -0.143146 -0.314916 0.617052 -0.015682 0.005638 0.151879 0.709353 -0.250446 -0.374718 0.057461 -0.008796 0.278038 0.205333 0.025047 -0.515603 -0.273012 0.062220 0.278500 0.099939 0.379699 0.126402 -0.443074 -0.051582 0.098017 0.075495 -0.116985 -0.051597 0.269814 -0.289032 0.295590 -0.066300 -0.188351 -0.144142 -0.057543 -0.262876 0.043986 -0.000647 0.006852 0.020004 -0.237049 0.265002 -0.182999 -0.347832 0.643100 -0.139333 0.717195 -0.159433 0.346298 0.035042 -0.126169 -0.368032 0.001460 -0.302147 0.204308 0.289577 0.147792 -0.167186 0.027778 -0.455666 0.326240 0.309145 0.092655 -0.034912 0.279558 0.544575 -0.181534 -0.572937 0.130596 -0.248448 0.151013 0.143497 -0.230296 0.217327 0.013170 -0.240232 0.432512 -0.332665 -0.241658 0.191479 0.262617 -0.021964 -0.099971 -0.229246 0.182274 -0.338069 0.246425
161 0.121299 -0.238254 0.172433 -0.114296 -0.102825 0.106390 -0.544879 -0.109322 0.178294 -0.400983 -0.320403 0.254984 -0.019322 -0.341651 0.338444 -0.232077 0.037069 -0.068663 -0.686808 -0.016717 0.064783 0.409823 0.308175 0.193505 -0.211536 -0.326620 -0.066530 -0.160497 -0.688166 0.139745 0.230147 -0.367699 0.047734 -0.203254 -0.228954 -0.199804 -0.601099 0.004775 -0.514555 0.070865 -0.170438 -0.211737 -0.260526 0.117532 0.462594 0.201639 -0.289768 -0.043878 0.382587 0.209001 -0.402970 -0.348388 0.109122 -0.005248 0.431478 0.275956 -0.308837 0.075374 -0.165403 0.238545 0.306648 0.177886 -0.194175 -0.196002 -0.142268 -0.214858 0.385957 -0.107466 0.282827 -0.028331 -0.302334 0.129631 -0.275668 -0.319308 0.257049 0.194274 0.136161 -0.258114 0.339800 -0.040438 0.041997 0.075102 0.413951 0.187676 0.418609 0.313756 -0.617622 0.530416 -0.237980 0.122298 0.145945 0.160553 -0.591012 -0.004228 -0.120958 -0.164442 0.046354 -0.371236 -0.173766 0.372263 -0.155806 0.539049 0.267002 -0.039482 -0.508874 0.286429 -0.027884 -0.008473 -0.439171 0.523518 -0.337222 -0.422820 -0.140911 -0.240535 0.205895 -0.675250 -0.223827 -0.007786 0.114997 0.089612 -0.403095 -0.323033 -0.053601 -0.216981 -0.153259 0.158475 -0.188776 -0.118277
82 -0.171708 0.123380 -0.047844 -0.297563 0.291583 -0.049723 -0.152974 -0.764717 -0.159441 0.240223 0.198946 -0.248422 -0.168765 -0.634945 -0.011150 -0.353229 -0.586421 0.005173 -0.148708 -0.463336 -0.030867 0.371677 0.776444 0.214210 -0.170153 -0.189375 -0.214389 -0.247744 -0.268767 -0.501489 0.101600 -0.003386 -0.346527 -0.077095 -0.427357 -0.468763 -0.011995 0.235735 0.022441 -0.470987 -0.292194 0.117100 0.062223 0.504359 0.362342 -0.088932 -0.027702 0.000076 0.102634 0.069547 -0.065685 0.071990 0.163780 -0.064247 0.288556 -0.124643 0.008557 0.181334 0.073507 0.491326 -0.586418 0.488732 -0.279631 0.037164 -0.094548 0.317360 0.328271 -0.098751 0.096055 0.114912 -0.273984 0.071076 -0.337925 -0.203024 0.014157 -0.060117 -0.387009 -0.160572 0.003661 -0.244425 0.636861 -0.041632 -0.057341 -0.054754 0.285791 -0.010880 0.176819 0.212074 -0.499910 -0.041814 0.046300 -0.374003 -0.014775 0.223592 0.050319 0.572671 0.459846 -0.277948 -0.122512 0.376291 0.239989 0.002856 0.158578 0.055281 0.193835 0.429674 0.313113 -0.246965 -0.110915 0.028638 0.045569 -0.712428 0.037086 0.379785 0.258328 -0.702849 -0.577688 0.235486 -0.012497 -0.324163 -0.058021 0.243762 -0.481509 -0.291219 0.005011 -0.197270 -0.449640 -0.032855
864 0.000767 0.147218 0.135859 -0.260100 0.456476 -0.069408 0.096237 -0.755628 0.047287 -0.006640 -0.008435 -0.721588 0.323918 0.050448 0.435382 -0.529896 0.311003 0.223543 0.003495 -0.102074 0.010828 0.564463 -0.287500 0.514512 -0.323125 0.064598 0.220016 -0.127772 0.117930 -0.059911 0.280378 -0.024831 -0.287617 0.065612 -0.244557 -0.373220 -0.046844 -0.098554 -0.336108 -0.286495 -0.412792 -0.205158 0.150315 -0.173618 -0.049991 0.050809 -0.154750 0.106684 0.460645 -0.221501 -0.046074 -0.265529 -0.108230 -0.173743 0.380802 -0.038838 -0.126524 -0.122118 0.190404 0.173948 -0.185836 -0.012432 -0.171403 0.373925 -0.317841 0.210441 0.200581 0.156160 -0.252015 0.417590 -0.026027 -0.017139 -0.567841 -0.481533 0.028333 -0.141073 -0.157949 0.034169 0.458782 0.093411 0.000448 0.468841 0.155532 -0.568208 -0.022432 -0.201039 -0.175674 0.185161 0.134552 -0.496550 -0.117641 0.041294 -0.272471 -0.338389 0.183187 0.003309 0.001079 -0.032278 -0.002427 0.391015 -0.258473 0.168430 -0.149629 -0.066459 0.168662 0.425118 -0.144889 -0.859995 -0.087136 0.651817 0.173769 -0.331480 0.184241 0.473546 -0.012971 -0.140616 0.491006 0.303645 -0.097932 0.169217 -0.248012 0.507235 -0.100027 -0.055700 0.220316 0.232773 -0.437275 0.283158
2156 -0.095827 0.106059 0.100503 0.136768 0.679926 -0.749638 -0.329161 -0.310493 -0.073855 0.368842 0.529574 -0.212244 -0.113677 0.200968 0.564080 -0.701337 0.122098 0.262672 -0.077673 0.243981 0.101695 0.362479 0.191621 0.110267 0.157934 0.119271 -0.383952 0.055046 -0.265728 -0.139760 0.338250 -0.104116 -0.647165 -0.000256 0.277821 0.097851 -0.457044 -0.049215 -0.108888 -0.255817 0.061099 -0.394776 -0.334710 0.139023 -0.047884 -0.130150 -1.005285 0.008753 0.419743 -0.118746 -0.043963 -0.172876 -0.026153 -0.065230 0.184401 0.315202 -0.311134 -0.070413 -0.166586 0.093361 0.273440 0.321564 -0.308953 0.024156 0.203002 0.354815 -0.057616 0.015841 0.219127 0.213198 0.111677 0.256085 0.210804 -0.477394 -0.082387 0.238522 0.545945 -0.495639 0.263877 -0.059660 0.091634 -0.238145 0.207880 -0.044755 0.381477 -0.067027 -0.447680 0.529285 0.359192 -0.475793 -0.056307 -0.119515 0.047832 -0.047714 0.382427 0.488309 0.037026 0.226840 0.045798 0.430594 -0.213494 0.247677 0.280190 -0.113530 -0.342605 0.295523 0.057541 -0.117030 -0.716657 0.204062 0.074004 -0.439710 -0.108549 0.364126 0.256623 0.074806 0.103213 0.392870 0.145982 0.176423 0.043875 0.004848 -0.054144 0.026110 0.060511 -0.107490 -0.266078 0.146542
2021 -0.358995 -0.337364 0.083283 0.071308 -0.235217 -0.059513 0.062362 0.011226 -0.441766 -0.338013 0.163032 -0.218634 -0.221538 -0.263848 -0.159650 -0.412990 -0.233147 -0.239255 -0.000169 0.072330 0.045762 0.387092 -0.037007 0.016418 0.619421 -0.164318 0.324710 0.243492 0.109719 -0.292825 0.285768 -0.203989 -0.386856 0.340323 0.181963 -0.162711 -0.073202 0.155230 -0.389741 -0.610011 -0.269706 0.021116 0.197220 0.087372 0.534259 0.014064 -0.423669 -0.044854 0.130835 -0.487350 -0.507039 -0.341457 -0.064039 -0.198152 0.565149 -0.380561 -0.327744 -0.263581 -0.211079 0.285540 -0.079423 0.279124 -0.128565 -0.704644 -0.860027 -0.063638 -0.105110 -0.293757 -0.271269 -0.083099 -0.503352 -0.051983 -0.260409 -0.312021 0.185393 -0.064184 -0.137462 -0.210609 0.298396 0.008083 0.029256 -0.352583 0.478065 -0.112054 -0.051036 0.332525 -0.279030 0.448155 -0.107542 -0.136907 0.227723 -0.199808 -0.200448 0.119852 -0.014764 -0.200534 0.119271 -0.359757 -0.053630 0.269518 -0.010495 -0.137330 -0.405282 -0.251865 0.099327 0.304191 0.248109 -0.209708 -0.715598 0.403766 0.010936 -0.034015 -0.310637 -0.189731 -0.160720 0.246096 -0.138596 0.399955 -0.341412 -0.147424 -0.116653 -0.152577 -0.118985 -0.484880 -0.667078 0.425013 -0.266238 0.028697
320 -0.403232 0.181928 -0.192435 -0.305026 0.135111 0.064413 -0.290310 -0.311903 -0.098302 0.114645 -0.125094 -0.066089 0.108677 0.046580 -0.035061 -0.366013 -0.513029 -0.111953 -0.322058 -0.018044 -0.351535 0.086612 0.346779 0.416608 -0.078339 -0.241137 0.041994 -0.640607 -0.096506 -0.058996 0.301962 0.332876 -0.505577 0.140603 0.182924 -0.320521 0.015796 -0.010248 -0.100385 -0.196525 -0.074116 -0.055541 0.584520 0.047936 0.237519 -0.053393 -0.278820 -0.166525 0.115157 0.052630 -0.528833 -0.447911 0.220121 -0.077234 0.618745 -0.433662 -0.207611 -0.082847 0.061696 0.372909 -0.159623 0.269372 0.272319 -0.683439 -0.115144 0.147173 0.190941 0.149708 -0.125219 0.054997 0.162814 -0.002967 -0.377248 -0.254967 -0.340029 0.082571 -0.198708 -0.082866 0.328508 0.091858 0.471107 -0.268208 0.191194 -0.105608 -0.168495 0.006494 -0.033432 0.392446 -0.061140 -0.228073 0.119833 0.044622 0.176161 -0.102936 0.389303 -0.043036 0.432637 -0.169695 -0.136832 0.586487 -0.315443 -0.270827 0.107284 0.035943 0.433496 0.746031 -0.090490 -0.397510 -0.169786 0.396796 0.241452 0.002745 -0.229198 0.040699 0.458072 -0.257508 -0.401801 0.092044 -0.095267 -0.203874 -0.142155 0.025489 -0.295951 -0.305542 -0.090021 0.014933 -0.419462 0.250941
1567 0.182843 0.044345 -0.200225 -0.187842 -0.526454 -0.263369 -0.246557 -0.293365 -0.228691 -0.137361 0.248376 0.025420 -0.352393 -0.019092 0.358001 0.276469 -0.352697 -0.035370 0.162150 -0.384449 -0.299985 0.265180 0.264383 -0.130383 0.515870 -0.347636 0.193390 0.076657 -0.587411 0.257695 0.221051 -0.404627 -0.066638 0.193253 -0.094160 0.313811 -0.484681 0.185127 -0.372952 -0.192917 -0.184940 -0.864204 -0.618065 -0.242235 0.242928 -0.209584 -0.053034 0.431327 0.483087 -0.049347 -0.051092 -0.577421 0.057432 -0.501607 0.278458 0.025814 -0.286768 -0.484071 0.079742 0.120795 0.062266 0.527446 0.576673 -0.555726 0.051362 0.159596 0.627138 -0.117032 -0.068249 0.129448 -0.135869 -0.029791 -0.276235 -0.107792 -0.226285 -0.090863 0.025331 -0.525938 0.281542 -0.396783 0.181415 -0.051600 0.152456 0.149515 -0.111112 0.123876 -0.318128 0.489902 -0.421926 0.370634 -0.052090 0.032623 -0.152604 -0.202649 -0.300685 0.198534 0.099731 0.022102 -0.007976 -0.130696 0.015883 0.309046 -0.211036 -0.145138 0.107745 -0.154458 0.172129 -0.512614 -0.863542 0.598189 -0.022686 -0.736336 0.071831 0.360449 0.320431 -0.367647 -0.073110 -0.188019 -0.129306 0.194071 -0.262308 -0.017766 0.091873 -0.270002 0.044222 0.256145 0.136956 0.124602
273 -0.393799 -0.085546 0.015952 0.155877 0.416041 0.131881 -0.676266 -0.222852 -0.032152 0.098266 0.233409 -0.302806 0.251486 -0.195079 -0.206094 -0.087734 -0.316351 0.003366 -0.369826 -0.427328 -0.156491 0.397551 0.470397 0.500355 -0.314084 -0.549352 0.144086 -0.359250 -0.126738 0.050189 -0.032442 0.035519 -0.129910 0.149657 -0.429136 0.161186 -0.099340 -0.355222 -0.254697 -0.414270 0.240208 -0.041375 0.114473 -0.025215 0.284280 0.176794 -0.190014 -0.123576 0.210527 0.215916 -0.434635 -0.089673 0.647466 -0.056089 -0.004048 -0.239563 -0.151647 0.066469 -0.025298 0.371406 -0.158906 0.266200 0.286935 -0.394441 -0.685675 0.246683 0.448465 -0.153229 -0.004533 -0.162139 0.127915 0.056124 -0.403898 -0.366973 -0.347850 -0.093159 -0.068699 0.154863 -0.053490 -0.145045 0.537321 -0.547386 -0.029204 0.095437 0.058279 -0.243857 0.116612 0.047428 -0.340555 -0.190701 0.052392 -0.053652 -0.364154 0.116011 0.033851 0.434058 0.076288 -0.213205 0.036555 0.044502 0.075554 -0.274038 -0.212594 -0.352248 0.395101 0.746972 -0.034962 -0.028059 0.125343 0.099562 0.073805 -0.545459 -0.104124 0.121250 -0.102354 -0.161336 -0.267615 -0.076281 -0.086697 -0.185722 0.214704 -0.132886 -0.358008 -0.516570 0.091089 -0.398215 -0.850512 0.124907
1631 -0.406998 0.058963 0.212450 -0.085952 0.175391 0.019038 -0.474651 -0.548815 -0.087998 -0.339400 0.219617 -0.084140 -0.167947 -0.264487 -0.023302 -0.484997 0.048827 0.267771 0.177197 0.000721 0.352261 -0.003016 0.038150 0.607653 -0.214120 -0.978634 -0.406658 0.337771 -0.491030 0.026148 0.399626 0.081645 -0.216360 -0.205650 -0.080439 -0.261738 -0.255315 -0.619480 0.043815 -0.739349 0.305326 -0.258472 -0.271037 0.283750 -0.107024 -0.096544 -0.331755 -0.234125 0.125770 0.343407 0.222557 0.195588 0.132699 -0.143133 0.419234 0.141947 -0.449393 0.141922 0.320399 0.384925 -0.103819 0.130962 -0.305457 -0.018401 -0.244974 0.020097 0.513829 -0.109220 0.197827 -0.003702 0.357712 -0.002514 -0.093427 -0.284567 0.212934 0.311824 0.104113 0.208585 0.411806 -0.365874 0.440417 0.048873 -0.087702 -0.771831 -0.044482 -0.127829 -0.303461 -0.114858 0.105945 -0.548856 -0.154307 -0.421998 -0.631914 -0.351825 0.166444 0.091523 0.076496 0.079197 0.400288 0.534870 -0.020584 0.110284 0.127065 0.091045 -0.041457 0.110229 -0.143661 -0.272767 0.113142 0.250849 -0.080546 -0.442418 -0.351493 0.459380 0.293643 -0.086822 0.145638 0.289989 0.178969 0.834976 -0.347056 0.378336 0.139029 0.337677 0.114388 0.416788 -0.651725 0.130123
1780 -0.490609 -0.316730 -0.430728 0.060980 -0.137042 -0.151996 -0.038678 -0.136814 -0.505721 -0.047048 0.025020 0.021303 -0.239631 -0.415200 -0.023466 -0.421283 0.081566 0.098738 -0.138133 0.551247 0.034833 0.493685 0.184580 -0.089676 0.836319 -0.271808 0.065068 -0.223430 -0.289738 -0.141088 0.328767 0.050708 0.012641 -0.025109 -0.050663 0.187969 -0.172349 -0.005653 0.000109 -0.028554 -0.290496 0.060124 -0.226022 0.119648 0.401519 0.388783 -0.548980 0.098075 0.462401 -0.243643 -0.402345 -0.262921 -0.172399 -0.081123 0.403925 -0.202523 -0.631238 -0.253572 0.759652 0.520466 0.029099 0.159076 -0.065319 -0.892699 -0.601474 -0.072642 0.097477 -0.306996 -0.545692 0.564320 0.110431 0.044544 -0.349065 -0.008279 -0.411940 -0.364663 -0.088448 0.164840 0.071335 -0.919442 -0.109143 -0.073823 0.330028 -0.176874 -0.020792 -0.053729 0.088970 0.639097 -0.056323 -0.357597 -0.040486 0.500600 -0.672335 -0.257619 -0.444385 -0.162757 0.017288 0.188077 -0.413669 0.128422 0.433302 0.245088 -0.222728 0.015886 -0.191562 -0.008446 0.507755 -0.448852 -0.438374 0.612665 -0.278572 -0.541255 -0.593618 -0.096962 0.264054 0.387332 -0.241932 0.705481 -0.191291 -0.153139 0.530288 -0.048283 -0.178266 -0.675901 -0.035198 0.422794 -0.331366 0.442457
830 0.284318 -0.337888 0.310395 0.047108 0.112443 0.370872 -0.495690 -0.157581 0.046505 0.269966 0.089887 -0.231048 -0.322816 -0.227222 -0.447460 -0.309145 -0.294550 -0.087156 -0.016527 -0.250792 -0.028735 0.362694 -0.123316 0.654719 0.143576 -0.088688 0.013850 -0.285857 0.188354 0.162361 0.394967 0.018476 -0.295564 0.646532 -0.076478 -0.278296 0.187557 0.258952 -0.306543 0.019924 0.196391 -0.231839 -0.013862 0.004677 -0.123737 0.183417 -0.213254 -0.058026 0.067428 -0.057478 -0.449674 -0.198422 -0.186627 -0.198356 0.370966 -0.412549 -0.366595 -0.080169 -0.059349 0.247633 -0.463672 0.192642 -0.120665 -0.777036 -0.107048 0.149734 0.379756 -0.299239 -0.371377 0.247755 0.128021 -0.065114 -0.442778 -0.446106 0.121350 -0.305828 0.033457 -0.342231 -0.250599 -0.181922 0.315666 -0.199912 0.282578 0.252786 0.123238 -0.382802 0.032062 -0.033030 0.191422 0.109562 -0.054421 -0.671732 0.098704 0.292339 0.078981 0.032091 0.035975 0.006348 0.106125 0.128163 0.511663 -0.009517 -0.131223 -0.027311 0.209326 0.643205 -0.114165 -0.176382 -0.001641 -0.019328 -0.173320 -0.452913 0.210901 -0.037883 0.248337 -0.016301 -0.947884 0.306496 0.227682 0.141557 -0.056027 -0.135544 -0.136964 0.298893 0.465194 -0.123942 -0.290259 0.022933
21 -0.199997 -0.281729 0.069780 -0.059881 0.363920 -0.434720 0.112732 -0.366745 -0.273740 -0.222844 0.533987 -0.450364 -0.046850 -0.153246 0.257871 -0.180456 -0.346784 0.460607 0.128785 0.050939 0.316407 0.225466 0.030805 0.244452 -0.102507 -0.287389 -0.045858 0.180319 -0.396832 -0.127677 0.134469 0.134230 -0.275841 0.283799 -0.617973 -0.551753 -0.379709 0.070868 0.037923 -0.037086 -0.067029 -0.205512 -0.278985 -0.008159 -0.087902 -0.061314 -0.515272 0.028267 0.644402 -0.367282 -0.088568 0.385148 0.442343 -0.480727 -0.120684 0.081839 -0.312634 -0.207730 0.078758 0.364030 -0.150109 0.293207 -0.101932 0.009123 0.067578 -0.036523 0.419943 0.002538 0.000593 -0.126943 0.384384 0.000456 -0.465609 -0.348597 -0.189550 0.060675 0.206637 -0.015496 0.393502 -0.116221 0.249892 -0.159541 0.129722 -0.344989 -0.127221 -0.393072 -0.627413 0.024274 0.532837 -0.321676 0.293379 -0.186648 -0.306482 0.087768 0.113710 0.370441 -0.357978 0.237842 0.345693 0.338868 -0.146367 0.459606 0.238770 0.018887 0.790336 0.386657 -0.049415 -0.554655 -0.007243 0.044493 0.160164 -0.119347 0.428364 0.240752 0.113584 0.144599 0.083080 0.598664 0.458511 0.516805 -0.393219 0.104081 -0.026880 -0.075445 0.211944 0.159473 -0.164949 -0.205941
2529 0.786698 -0.245915 0.104363 0.143605 0.147416 -0.135378 -0.032402 0.055720 -0.398103 0.125197 0.213698 -0.473034 -0.626069 -0.313613 0.055705 -0.443372 -0.170876 0.293423 0.059416 -0.151439 0.015557 0.657344 0.350281 0.402159 0.311304 -0.360078 -0.222855 0.367151 -0.075729 0.184397 0.278826 0.381260 -0.008463 0.039331 -0.103886 0.192702 -0.389277 0.564950 0.011367 -0.291290 0.272208 -0.206837 -0.468653 -0.056484 -0.065599 0.000028 -0.578668 -0.358832 0.490279 0.076554 0.028124 -0.296485 -0.296652 -0.476920 0.125626 -0.416574 -0.271022 0.532423 0.619693 0.205818 -0.229832 0.061134 -0.362977 0.358704 -0.236576 -0.271301 0.054179 -0.455796 0.397216 -0.148603 0.025398 0.505118 -0.450077 -0.506877 -0.078177 -0.160339 0.240251 -0.176104 0.300319 -0.264840 0.313670 0.061727 0.059833 -0.621693 -0.248185 -0.230056 0.229041 0.195917 0.214835 0.111153 -0.352175 -0.584708 -0.756587 0.051243 0.301705 0.472389 0.036285 -0.250599 0.112796 0.099984 -0.505099 0.309553 0.195042 0.156561 -0.007742 0.482377 -0.107987 -0.201221 0.403084 0.114726 0.328606 -0.288282 0.352860 0.139844 -0.166675 0.237200 -0.024175 -0.034376 0.510818 0.610956 -0.224441 0.574927 0.179657 -0.268852 -0.238189 0.314837 -0.317017 1.088386
684 0.426672 -0.273972 -0.579678 -0.267081 0.010589 -0.028517 0.163968 -0.488913 0.109331 0.141958 0.334416 0.508528 -0.226312 -0.192382 0.102940 -0.338326 0.034322 -0.361412 0.123358 -0.255707 0.223943 0.288389 0.502667 0.497638 0.061146 -0.271395 0.188673 0.414550 0.088824 -0.241934 -0.288288 0.114625 -0.423895 0.469485 -0.096861 -0.123195 0.303637 0.051897 -0.134553 -0.179192 -0.072805 -0.077745 -0.108818 0.009269 0.080861 0.252348 -0.462499 -0.551672 0.569988 -0.059228 -0.619657 -0.209339 -0.012512 -0.720304 0.107861 -0.259387 0.121154 0.330075 0.433729 0.002851 0.418757 0.029774 0.142389 -0.258627 0.069459 0.304352 0.215801 -0.204565 -0.108011 0.229262 0.382851 -0.218703 -0.166458 -0.958968 0.503349 0.043724 0.170344 -0.213324 0.034552 0.212508 0.116865 -0.565786 0.449926 0.671069 0.058225 0.293555 -0.561951 0.407168 0.038864 0.067405 -0.343119 -0.037085 0.101813 0.050798 0.120460 0.416716 0.360641 0.037224 0.132013 -0.128291 0.218593 0.132606 -0.242949 -0.234410 0.253387 0.138684 -0.147466 -0.390074 0.178217 -0.209460 -0.017716 -0.606836 -0.080511 0.327834 0.204660 -0.137003 -0.202723 0.580751 0.071508 0.436885 0.462440 0.165360 -0.030044 -0.039898 -0.262442 0.365140 0.066281 0.521551
2639 -0.086385 0.305554 0.086191 -0.581260 -0.375451 0.192129 -0.134436 -0.131960 -0.661128 -0.417295 0.177075 -0.408024 -0.552385 0.018634 0.497059 -0.192632 -0.144532 0.165763 0.505204 0.104532 -0.138233 0.423880 0.338497 0.195266 0.161713 -0.377739 -0.097994 -0.042250 -0.067133 0.373143 -0.022549 -0.238748 -0.071439 0.307602 -0.417971 -0.113913 -0.369738 0.002868 -0.072972 -0.185652 -0.011975 0.018194 -0.636390 -0.115833 -0.296673 -0.297026 -0.572782 0.306220 0.569198 0.189219 0.045345 0.061173 -0.171585 -0.397233 0.497243 0.240033 -0.214802 0.517244 0.375204 -0.024634 -0.492184 0.626291 -0.490145 0.074793 -0.185473 0.291153 0.403436 -0.120196 -0.246091 0.383448 0.585484 -0.028370 -0.338881 -0.505770 0.194808 0.025968 0.248853 0.492166 -0.031338 -0.259469 -0.078540 -0.080648 0.221272 -0.273366 -0.004879 0.252175 0.010487 -0.092157 -0.234649 0.125162 -0.382341 0.519367 -0.112902 0.171619 -0.067573 0.077960 -0.002407 0.360494 0.186400 0.303614 0.128499 0.274961 -0.390603 0.157806 0.046591 0.196273 -0.009186 -0.871348 -0.020955 0.024530 -0.173559 -0.486738 -0.011109 -0.008086 -0.531296 -0.501808 0.190074 0.287309 0.396592 -0.258162 -0.251923 -0.088170 -0.575387 0.246300 0.207882 0.329942 -0.358485 0.136632
1319 0.417482 0.445979 -0.017553 0.030080 0.202495 -0.405589 -0.266000 -0.232334 -0.088158 0.378530 0.475427 -0.620602 -0.182745 0.069710 0.220415 -0.764091 0.046006 0.023545 0.179306 0.134049 0.047445 0.426765 0.458343 0.367001 0.023431 -0.003180 0.154793 -0.147674 -0.055546 0.052200 0.388116 -0.118947 -0.436622 0.033398 -0.317838 0.050312 0.047333 -0.218719 -0.227265 -0.263720 -0.116619 -0.292335 -0.457177 -0.107130 0.043093 -0.156333 -0.725981 -0.021425 0.410000 0.218718 0.131159 -0.232325 -0.080195 -0.239187 0.587938 0.091364 -0.245847 0.216186 0.002546 -0.141944 0.103449 0.562676 -0.292190 0.244707 -0.260672 0.669271 0.158179 -0.067156 0.280986 0.175293 0.549485 0.262617 -0.279868 -0.508935 -0.139787 -0.038966 0.297854 -0.562734 0.416637 0.022577 -0.253062 -0.005167 -0.003660 -0.599478 0.141342 0.509254 -0.552462 0.281461 0.281782 -0.318006 -0.086787 0.276964 -0.052967 -0.077909 0.248234 0.152328 0.420664 0.098433 0.301662 0.147105 -0.077433 0.324325 -0.091121 -0.054678 0.013044 0.491679 0.211969 -0.435652 -0.530263 0.094519 0.068132 0.251739 -0.314487 0.611626 0.311157 0.068688 -0.051187 -0.152082 0.172052 -0.017672 -0.265144 -0.169077 -0.397031 0.187494 0.087338 -0.093301 -0.124599 0.005052
1164 0.103391 -0.468106 0.309576 -0.079052 -0.038804 -0.503424 0.208382 -0.108499 -0.599826 -0.382550 0.349824 -0.669769 0.149753 -0.204102 0.145266 -0.157858 0.376278 0.266634 0.105276 0.175913 0.082124 0.244190 -0.430148 0.303612 -0.157471 0.055894 -0.204158 -0.225206 -0.363003 -0.156205 0.005434 -0.078763 0.004008 -0.156445 0.145626 -0.600939 -0.361953 -0.034194 -0.263052 -0.653884 -0.129175 -0.578935 -0.576183 -0.007080 -0.106111 -0.625241 -0.238641 0.015222 0.504612 -0.057820 -0.381894 0.079655 -0.141008 -0.433307 -0.110397 0.073538 -0.281305 0.071873 0.183696 0.313154 -0.000131 0.255100 0.237957 -0.190664 0.071449 -0.087649 0.268985 -0.378096 -0.019532 0.110623 0.356920 -0.082036 -0.713431 -0.481600 -0.063022 -0.186819 -0.242347 -0.165506 0.163263 -0.211855 -0.115357 0.153855 0.043616 0.256352 0.020291 0.505124 -0.489049 0.100044 0.624886 -0.210127 -0.397290 0.185353 -0.381902 -0.013949 -0.516422 0.423392 0.477496 0.000759 0.380938 0.377162 0.016707 0.049110 0.240822 -0.117165 0.253014 0.380812 -0.249120 -0.393005 0.283169 0.044496 -0.279468 -0.127570 -0.317917 0.180713 0.045855 -0.120080 -0.022753 0.241635 0.215864 0.158377 -0.493593 0.143962 -0.173014 -0.317564 -0.161314 0.360257 -0.424360 -0.118375
2084 0.250580 0.285746 -0.300059 -0.829314 -0.044657 -0.163314 -0.326182 -0.611180 0.138620 -0.487102 0.339410 -0.247141 -0.479361 -0.152058 0.107856 -0.426067 -0.111500 0.502993 0.313308 0.306601 0.211630 0.344267 0.634460 0.210976 0.134109 -0.186685 0.072723 -0.233403 -0.336551 0.097166 -0.452906 -0.068629 -0.400718 0.554545 -0.252577 0.003361 -0.177587 -0.138701 -0.297092 -0.394185 -0.176920 -0.191853 -0.691249 -0.250398 -0.107858 -0.363614 -0.298159 -0.292944 0.463959 0.258068 0.067780 -0.427102 -0.007866 -0.036653 0.298484 0.391201 -0.154963 0.373037 0.167615 -0.042656 -0.157884 0.749616 -0.353604 0.302051 0.096865 0.489323 0.456666 -0.056924 0.128660 0.397298 0.214187 -0.384427 -0.168606 -0.582170 0.177924 0.047093 0.458186 -0.178225 0.100238 0.082654 -0.139069 0.313086 0.143101 -0.570995 0.132494 0.488246 -0.175383 0.045034 -0.084400 -0.038806 -0.471933 -0.063948 -0.460381 0.057807 -0.389887 0.376582 0.401499 -0.270246 0.041068 -0.031100 -0.199639 0.029344 -0.444754 0.227145 0.223735 0.059643 0.407356 -0.576014 0.075925 -0.086114 0.153545 -0.024287 -0.347606 0.469234 0.015078 -0.280735 -0.134282 0.256331 0.117679 -0.025053 -0.594090 0.115220 -0.435275 0.163641 0.194336 0.164605 -0.099025 0.257923
1770 -0.249263 0.031634 0.467773 -0.455047 -0.428137 -0.099608 -0.222074 -0.425808 -0.579681 -0.627812 0.412224 -0.292231 -0.344661 -0.036599 0.397233 -0.305054 -0.363598 0.438883 0.034623 0.465657 -0.594710 0.342698 0.109890 0.314564 -0.148805 -0.470203 0.065493 0.139917 -0.402583 0.340349 -0.114883 -0.061298 -0.294640 0.248792 -0.469383 -0.340207 -0.225547 0.247559 -0.355031 0.011210 0.047519 0.135132 -0.384571 0.063599 -0.223168 -0.283422 -0.639196 0.101496 0.292267 0.039032 -0.125088 0.146893 -0.139428 -0.205329 0.287488 -0.197165 -0.006202 -0.068289 0.110686 0.465087 0.003152 0.225068 -0.238959 0.394909 0.132101 0.420593 0.424489 -0.010234 -0.118458 0.256627 0.568569 0.161834 -0.108374 -0.248295 0.016705 -0.043937 0.052443 -0.023121 0.385129 -0.194249 0.144374 0.009984 0.399480 0.387202 -0.118523 0.183568 -0.129140 0.549727 -0.182411 -0.370907 -0.260453 -0.021422 -0.266780 0.210759 0.135967 -0.251016 -0.001137 0.406090 0.213284 0.601149 -0.194462 0.347672 -0.088401 -0.045152 -0.081793 0.184840 0.018795 -0.803295 -0.100688 -0.021748 -0.108993 -0.243645 -0.348827 0.568410 -0.460870 -0.072681 0.342935 0.328727 0.602961 -0.252147 -0.241726 0.075568 -0.387646 0.264275 0.059285 0.535066 -0.353328 -0.025281
2228 -0.197050 -0.160094 0.584872 0.171104 0.335541 -0.043478 -0.367734 -0.418267 0.157256 0.195293 0.328117 -0.611774 -0.132723 -0.169421 -0.086284 -0.103460 0.365275 -0.058293 0.186036 -0.180186 0.135947 0.420855 -0.058077 0.044858 -0.008259 -0.401143 -0.346678 -0.138120 -0.233753 0.349087 0.212298 0.188246 -0.687811 0.308569 -0.027122 0.008675 -0.389217 -0.043527 -0.161531 -0.238040 -0.012885 0.067247 0.016679 -0.292974 0.158190 0.130853 -0.356265 0.217030 0.347958 -0.080796 -0.555130 -0.089563 0.396427 -0.419421 0.103587 0.155468 -0.536468 0.233012 0.273793 0.512351 -0.414449 0.065379 -0.118916 -0.358500 0.127118 0.276596 0.458873 -0.286813 0.208087 0.290173 0.004675 0.193933 -0.144164 -0.229191 -0.152223 -0.160172 -0.205861 0.159116 0.024412 -0.258997 0.351597 -0.484501 -0.168287 -0.134455 0.466164 -0.302421 -0.130976 0.242745 0.240111 -0.498795 -0.228824 -0.489135 0.012950 0.059802 -0.041430 0.069093 -0.223283 -0.130231 0.141597 0.384397 -0.334246 0.241651 0.018659 -0.169782 0.389599 0.199280 0.009506 -0.291952 0.174037 0.185712 0.204577 -0.186071 0.010449 0.164900 0.362538 0.112987 -0.431210 0.498594 -0.147066 0.247056 -0.677112 0.140754 -0.254337 0.318028 0.075818 0.016204 -0.408030 0.167621
2013 -0.323275 -0.084467 0.424059 -0.049948 -0.698519 0.010263 -0.406044 -0.089284 -0.472591 -0.288539 0.210704 -0.514917 0.150284 -0.390542 0.014598 -0.057668 0.270384 0.093150 0.128442 -0.113491 0.404089 0.587892 0.496005 0.245102 0.115119 -0.521944 0.372849 -0.225348 -0.268968 0.172590 0.247586 0.171141 -0.248652 0.727999 -0.628821 0.218822 -0.366501 -0.002208 -0.048355 -0.378080 -0.221216 -0.468215 -0.135514 0.149101 -0.033670 0.105384 0.194724 0.077871 0.147526 -0.139133 -0.360550 -0.091875 0.017993 -0.073020 0.161678 -0.461880 0.135407 -0.043901 0.335276 0.418359 -0.169598 0.343644 0.147770 0.113944 -0.104151 -0.281620 0.659167 -0.059385 0.188358 -0.309705 0.072017 0.250576 -0.085151 0.340768 0.209959 -0.002186 0.261655 0.397675 0.006861 -0.641889 -0.320709 -0.455553 -0.085644 -0.471179 0.419940 0.131786 -0.674665 0.474992 -0.018018 -0.150166 -0.312384 0.400503 -0.116121 0.317442 0.166867 0.064248 0.433719 0.222957 -0.297756 0.171901 -0.450605 0.419742 0.380204 -0.330090 0.025749 0.757947 0.442712 0.222251 -0.075601 0.084837 0.089110 -0.849983 0.025065 0.237121 -0.070096 -0.333699 -0.200367 0.538395 -0.043548 -0.179983 -0.194191 0.156904 -0.490695 0.018648 -0.217325 -0.246161 -0.221762 0.700855
1011 0.286116 -0.088331 0.402342 0.049805 0.173537 0.038227 -0.248964 -0.406744 -0.202425 0.290626 0.269210 -0.069872 0.340266 -0.456712 0.022237 0.032034 -0.440962 -0.126271 -0.058681 -0.246833 0.137958 0.619056 0.111037 -0.108106 0.150693 -0.371451 0.096480 -0.525506 0.020565 0.019803 -0.049274 -0.000634 -0.216918 0.003126 0.179331 -0.416627 -0.080778 0.184507 -0.096039 -0.211689 0.420986 -0.281499 -0.013783 0.173412 0.025145 -0.041273 -0.369544 0.201083 0.376621 -0.102576 0.205182 -0.338087 0.361128 -0.258684 -0.342170 -0.059902 -0.424662 0.551979 0.593148 0.239657 0.054515 0.123190 -0.134375 0.168425 -0.478383 0.191951 0.464828 0.098664 0.684521 -0.084333 0.006444 0.510338 -0.008698 -0.488364 -0.193451 0.255199 0.054779 -0.364239 0.478706 -0.380626 0.267144 -0.222695 -0.253597 -0.590777 0.073068 -0.136884 -0.265380 0.592360 0.468127 0.049779 -0.536753 -0.118673 -0.451194 -0.109757 0.241205 0.189384 0.025034 0.266923 0.029198 0.509000 -0.336205 0.049560 -0.118578 0.040491 0.309951 0.794245 -0.326846 0.216355 -0.530175 0.024682 -0.069877 -0.133397 -0.080051 0.175382 0.003071 0.139580 -0.620948 0.332238 -0.033955 -0.150476 -0.143667 0.476286 0.126515 0.046544 -0.066451 0.322089 -0.532748 0.615599
2148 0.445770 -0.086654 0.218599 -0.423845 0.268294 -0.012163 -0.116683 0.214521 -0.380494 -0.186035 0.158943 -0.441252 0.020436 -0.214922 0.219161 -0.246863 0.181475 0.489919 -0.038468 0.240150 0.030650 0.457895 -0.226669 0.300627 -0.492830 0.065222 -0.189616 0.181086 -0.336520 0.018716 0.293918 -0.412528 -0.485920 -0.240489 -0.036442 -0.069593 -0.514349 -0.324643 -0.588943 -0.384935 0.318189 -0.649561 -0.544762 0.084505 0.139773 -0.310721 -0.377894 0.069955 0.535807 -0.166930 0.198682 -0.094165 -0.230055 -0.546982 -0.232583 -0.041903 -0.419919 0.275700 0.176183 0.729788 -0.328371 0.402951 -0.275411 -0.176373 -0.119158 0.278555 0.722717 -0.145661 0.270908 0.112764 0.360446 0.146290 -0.195075 -0.577649 -0.801124 -0.193058 0.231493 -0.190286 -0.011435 -0.471258 -0.269217 0.079990 -0.005957 0.065626 0.326444 0.249110 -0.603680 0.164801 0.721671 0.077192 -0.108184 0.242240 -0.121941 -0.114583 0.034527 0.194390 -0.202986 0.247970 0.162920 0.466462 0.126228 0.091879 0.290801 -0.292847 0.309741 0.091746 -0.223492 -0.319973 -0.209097 -0.054672 -0.057709 -0.299067 -0.506480 0.429919 0.412346 -0.266724 -0.131661 0.172729 0.021956 -0.112828 -0.264289 0.083976 -0.148521 -0.264356 -0.018688 0.234263 -0.153455 0.192193
2286 0.114899 -0.353244 -0.299277 -0.479970 -0.252513 -0.104594 -0.095871 -0.735011 -0.093990 0.339050 0.310191 0.371666 0.016116 0.036335 0.213052 -0.216642 -0.141397 -0.218295 0.206834 -0.225958 -0.080528 0.312118 0.224186 0.342192 -0.021837 -0.118485 -0.403742 0.450415 0.041548 -0.379510 -0.045011 0.165791 -0.094521 0.690074 0.047445 0.235553 0.094825 0.102166 -0.489899 -0.167297 0.527650 -0.288414 -0.201884 0.225586 0.364319 0.421390 -0.644337 -0.363484 0.539032 -0.541816 -0.502842 -0.172901 -0.133117 -0.466618 0.550887 -0.098249 -0.331556 -0.187490 0.011607 -0.183677 0.402979 -0.085341 0.001071 -0.220684 -0.156946 0.232956 -0.081609 0.054771 -0.252694 0.518009 0.322443 -0.198525 -0.209607 -0.321476 0.648684 -0.141405 0.148734 -0.369752 -0.498289 0.159825 0.340246 -0.429145 0.345670 0.562419 -0.037508 -0.072116 -0.920528 0.257633 0.168556 0.263650 -0.412647 -0.108111 0.008108 0.313792 0.138393 0.116852 0.693643 0.098685 -0.052339 -0.101947 -0.243366 0.299293 -0.160710 -0.055712 0.393833 0.325389 -0.294862 -0.247896 -0.019403 -0.085289 -0.105411 -0.314795 -0.162738 0.388878 0.223480 -0.240007 -0.026715 0.935077 0.117326 0.267872 0.419145 0.495017 0.058268 -0.118972 -0.252033 0.235422 -0.063177 0.555208
45 0.329938 -0.049441 -0.374908 -0.399494 0.461808 0.029971 -0.292444 -0.582382 -0.201489 -0.480457 0.260687 -0.050616 -0.216048 -0.010255 0.081521 -0.748807 -0.118595 0.264380 0.099414 0.014342 0.210324 0.358945 0.374737 0.218915 -0.339016 -0.182158 -0.098140 -0.181399 -0.023603 0.172434 0.098599 -0.113574 -0.110825 0.266602 -0.330260 0.201449 -0.189579 -0.130662 -0.014524 -0.507928 0.281507 -0.090392 -0.464259 0.054946 -0.366370 -0.436481 -0.200399 0.090170 0.911757 0.400791 -0.306991 -0.138194 -0.404714 -0.280719 0.429148 0.220271 -0.167615 0.409687 0.193223 0.016433 -0.318651 0.370287 -0.442560 -0.111337 0.049503 0.485958 0.287980 -0.179780 -0.066813 0.084112 0.277399 -0.150615 -0.163447 -1.103124 0.508879 -0.013746 0.147172 0.269917 0.098152 -0.044883 -0.307313 -0.053238 0.188167 -0.218701 -0.252405 0.034544 0.038941 -0.021706 -0.228620 -0.022333 -0.505078 0.414523 0.053996 -0.023591 -0.176331 0.163680 0.096039 0.123466 0.370021 0.001916 0.257179 -0.047284 -0.131094 0.032884 0.475036 0.049792 0.435568 -0.809448 0.092896 0.046454 -0.212245 -0.250566 0.023162 0.279990 -0.318864 -0.265882 0.091503 -0.123127 0.414432 0.370292 0.224078 -0.224416 -0.222081 0.038267 0.077307 0.479488 -0.555133 0.111526
84 -0.340724 0.149234 -0.205605 -0.401983 -0.222540 0.156484 -0.646760 -0.089521 -0.110764 0.007462 0.268320 -0.187699 0.123729 -0.083603 -0.223194 0.086860 -0.651887 0.166412 -0.024465 -0.445685 -0.107821 0.408708 0.681485 0.612106 -0.247645 -0.451323 0.187401 -0.285629 -0.412946 -0.078600 0.031968 -0.144881 0.086797 0.547361 -0.090074 -0.388146 0.045169 0.226269 -0.343798 -0.313034 -0.241758 -0.145871 0.221375 0.332386 0.193451 -0.050422 0.144992 -0.002959 0.195292 0.149651 -0.045326 -0.310303 -0.260617 -0.177884 0.224444 -0.187139 -0.299256 -0.145775 0.052434 0.300397 -0.535920 0.625262 -0.048965 0.027226 -0.378291 0.218497 0.258226 0.126867 -0.186943 0.037172 -0.390039 -0.036933 -0.383119 -0.132973 -0.099065 -0.340867 -0.219007 0.182109 -0.167086 -0.283913 0.340734 -0.493895 -0.455944 -0.273095 0.100740 -0.216016 -0.047729 -0.058231 -0.109970 -0.259675 -0.559166 0.041024 -0.115333 0.012200 0.144138 0.218988 0.506622 -0.257963 -0.080339 0.287243 -0.233668 0.112202 0.083962 -0.148315 0.131710 0.611552 0.338069 -0.266943 -0.163219 -0.071882 -0.027705 -0.674375 0.552685 0.013060 0.051135 -0.583791 -0.733624 0.480270 -0.004213 -0.173761 -0.143221 0.013368 -0.255509 -0.473944 0.077801 -0.339372 -0.627874 -0.119966
567 -0.509682 -0.403581 -0.307433 -0.016745 -0.206833 -0.287480 0.036583 -0.173738 -0.543851 -0.177200 0.300396 0.366121 -0.124204 -0.801275 0.143614 -0.564448 -0.064379 -0.011294 -0.611159 0.754056 0.146277 0.296683 0.263078 -0.031277 0.763813 -0.331715 -0.280346 -0.081667 0.009904 0.016497 0.476927 0.309186 0.104138 0.056921 -0.252592 0.188565 -0.440787 0.093859 0.207071 0.079301 -0.151147 -0.054508 -0.422134 0.305616 0.464328 0.721876 -1.031712 0.311768 0.492403 0.008569 -0.365693 -0.265424 0.044956 -0.175778 0.429628 -0.337097 -0.785975 -0.255442 0.718991 0.608003 0.177341 0.210670 -0.337779 -0.547093 -0.498930 0.388365 -0.211308 -0.460357 -0.589962 0.753169 0.508791 -0.169236 -0.517705 -0.153008 -0.412092 -0.383737 -0.029996 -0.096010 -0.039729 -1.140350 -0.158020 -0.041038 0.343565 -0.058153 -0.011049 -0.134855 0.089891 0.479476 0.246025 -0.449175 -0.034700 0.249160 -0.672826 -0.339944 -0.611798 -0.022715 0.039919 0.112834 -0.346398 0.282569 0.494047 0.244723 -0.352960 0.090200 0.053341 0.410224 0.481572 -0.459427 -0.254041 0.708068 -0.409288 -0.628449 -0.499967 0.071462 0.360983 0.225391 -0.202220 0.788264 0.017238 -0.019767 0.551227 0.115285 -0.208506 -0.536060 -0.226105 0.562494 -0.277281 0.629253
1791 -0.011583 0.007613 -0.129700 -0.592587 -0.187714 0.068280 -0.341886 0.341922 -0.633222 -0.248951 0.509153 -0.061481 -0.451304 0.132241 0.154626 -0.105444 -0.145768 0.273970 0.026083 -0.219640 -0.381826 0.868721 0.568142 -0.029041 0.099985 0.169166 0.203043 0.195990 0.113403 0.024656 0.190301 0.405378 0.453166 0.155209 -0.471183 0.023802 -0.737957 0.531981 -0.455869 -0.530790 0.353515 -0.305455 -0.292971 0.250071 0.371098 -0.075251 -0.339877 -0.201739 0.845265 0.398142 -0.214706 -0.419861 -0.172289 -0.335639 0.419479 0.268566 -0.553770 -0.438815 0.165589 0.427086 -0.309685 0.668152 0.119039 -0.150212 -0.016550 0.312976 0.680896 0.038412 0.121528 -0.084744 0.337238 -0.019381 0.045081 -0.812207 -0.305969 -0.318552 -0.058061 -0.013264 -0.259946 0.004341 -0.177583 -0.187712 0.520549 -0.075636 0.267121 0.419504 -0.500997 0.461446 -0.432465 -0.001684 -0.108672 0.170107 0.256201 0.118378 -0.474303 -0.116065 -0.255920 0.343908 0.269729 0.379889 0.230975 -0.170522 -0.275808 0.159831 0.145320 0.119908 0.168608 -0.676816 -0.405319 0.438688 0.042137 -0.537598 -0.475074 0.021328 -0.085587 -0.219507 0.110103 0.039390 -0.057735 -0.131752 -0.008459 0.272735 -0.103443 -0.263751 0.264681 0.288661 0.141496 0.111867
1125 -0.335560 -0.401000 -0.685373 -0.384781 0.058740 0.036413 -0.333557 -0.582883 0.016001 0.078755 0.535326 0.105384 -0.189372 -0.274466 -0.220852 0.101528 -0.043580 0.528337 -0.079360 0.024141 -0.018026 0.344253 0.263816 0.746705 0.499947 -0.277293 0.166839 0.318284 0.259512 -0.088675 -0.353599 0.099720 -0.297320 0.646126 0.049432 0.010069 0.152974 -0.198712 -0.551966 -0.348308 0.100909 0.260393 0.104521 0.533621 0.133651 0.604171 -1.061683 -0.288928 0.419297 -0.499213 -0.012684 -0.144011 -0.132488 -0.581786 0.267784 0.159809 0.171216 -0.402737 0.227511 -0.291259 0.094687 -0.485770 0.024856 -0.076791 0.101119 0.120639 0.287193 -0.393763 -0.358361 0.497324 0.243863 -0.094188 -0.048052 -0.611625 0.300772 -0.015463 0.505097 -0.222467 0.011495 -0.129157 0.092110 -0.167641 0.290604 0.513508 0.090978 0.413228 -0.898775 0.306554 0.255070 0.289721 -0.320786 -0.216465 0.081144 -0.009091 0.152284 0.308258 0.104423 0.189771 -0.032480 0.042019 -0.157189 0.510369 -0.402546 0.134413 0.012854 0.462081 -0.518755 -0.113286 0.287394 0.116690 0.010870 -0.716676 -0.279298 0.069465 -0.011187 0.029456 0.006458 0.321032 0.392549 0.615001 0.221548 -0.005018 0.202893 -0.117951 -0.114749 -0.010379 -0.166669 0.448870
340 0.237623 -0.572763 0.093606 0.096890 0.185780 -0.161022 -0.142652 -0.199516 0.176635 0.430221 -0.321814 -0.536558 -0.059948 -0.501204 0.116350 -0.598426 0.013162 0.447685 -0.348440 0.048340 -0.086699 0.280856 0.218476 0.185075 -0.079468 -0.360043 0.088400 -0.138501 -0.329161 0.321940 0.394978 -0.169076 -0.555971 0.216469 0.242465 -0.106777 -0.661079 0.291113 0.094353 -0.355928 -0.067801 -0.559952 -0.235931 -0.133680 0.163727 0.013367 -0.072952 0.184451 0.489312 -0.259219 -0.241282 0.560639 0.208656 -0.245294 -0.119687 -0.300284 -0.143241 0.350187 0.213974 -0.225948 -0.714522 -0.147855 -0.112206 -0.130386 0.021131 0.178390 0.450038 -0.237170 -0.116649 0.100679 0.014244 0.015946 -0.295854 -0.368644 -0.489200 -0.122559 0.090241 -0.023795 0.413727 -0.311129 0.079622 0.139323 -0.300211 -0.560890 0.170747 0.230950 -0.014698 0.145647 0.219060 -0.459598 -0.249326 -0.444109 0.035391 -0.140081 0.094327 0.577251 0.444915 -0.442731 0.314774 0.378670 -0.097447 0.350496 0.041503 0.085725 -0.068771 0.246732 0.033901 -0.298923 -0.099380 0.173807 -0.066658 -0.123669 -0.227152 0.326348 0.245099 -0.367761 -0.117399 0.655084 0.443136 -0.078821 -0.453248 0.221122 -0.376842 0.104962 -0.251847 0.157782 -0.531783 0.482114
163 -0.095205 -0.273984 -0.000620 0.187649 -0.237279 -0.306713 -0.566641 -0.234967 -0.516416 -0.452977 -0.130693 0.212893 -0.111542 0.063394 0.406748 0.057811 -0.211765 0.359460 -0.339293 0.033028 -0.274171 0.677093 0.845025 0.149436 0.225252 -0.158725 -0.251047 -0.196309 -0.530497 -0.240943 0.232379 -0.507816 0.126998 0.522895 -0.219540 -0.248402 -0.571741 0.243525 -0.274890 -0.486334 0.391761 -0.419994 -0.192475 -0.300909 0.108489 -0.125495 -0.131864 0.048273 0.609851 0.108160 -0.404257 -0.424026 0.036179 -0.122994 0.298605 0.285109 -0.564648 0.054785 0.213059 0.331357 0.130871 0.524261 -0.184527 -0.554658 -0.236908 -0.360430 0.578895 -0.162717 -0.284556 -0.196903 -0.065541 -0.286587 -0.301946 -0.282300 0.047324 0.192821 0.291723 0.081109 0.400327 -0.031138 0.155680 -0.191188 0.568444 -0.000463 0.252267 0.644006 -0.273871 0.135602 -0.509584 0.297338 0.227492 0.185946 0.123595 -0.092378 -0.073570 0.099401 -0.004956 0.438868 -0.526738 0.138272 0.374095 0.146657 0.212539 0.050558 -0.136539 0.234037 -0.119478 -0.223397 -0.207041 0.456472 -0.278002 -0.511067 0.021297 -0.039182 -0.432263 -0.506374 -0.416042 0.054495 -0.128724 0.016306 -0.051940 -0.206899 -0.100101 -0.101327 0.113654 -0.074037 -0.051032 0.050448
1144 0.013005 0.058514 -0.081996 -0.274039 0.267422 -0.175819 -0.352471 -0.875737 0.104631 0.021996 0.443926 -0.048147 -0.193090 -0.672611 -0.315362 -0.428926 -0.126018 -0.012865 0.166695 -0.120343 0.031521 0.250559 0.466793 0.455892 0.191822 0.014774 0.298601 -0.261306 0.085691 -0.476686 -0.135420 0.477835 -0.330409 0.313222 -0.088969 0.067116 -0.007027 0.090585 -0.051313 -0.189499 0.164836 -0.251886 0.033129 0.160960 0.096332 0.317884 -0.560502 -0.467714 0.174552 -0.398605 -0.547675 -0.030381 0.271309 -0.155039 0.227211 0.036968 0.126796 0.328409 0.585183 0.220985 -0.009353 0.207072 -0.022193 -0.144360 -0.215596 0.437642 0.134717 -0.284600 -0.042636 0.583211 0.192782 -0.034248 -0.200530 -0.142026 0.094374 -0.418594 0.171347 -0.179141 -0.031993 -0.133229 0.522482 -0.078433 -0.243719 0.253231 0.255739 0.074814 -0.318629 -0.054761 0.376117 0.188461 -0.198382 -0.601703 0.036694 0.250911 0.231958 -0.167045 0.488844 -0.339729 -0.115571 -0.007331 -0.193899 0.372913 -0.060483 0.492462 0.129425 0.511930 -0.364046 0.293568 -0.029660 0.078705 0.312694 -0.479323 0.105783 -0.219960 0.364275 -0.312225 -0.785679 0.311740 0.105777 0.100583 0.022796 -0.153112 -0.218031 0.184439 0.073483 0.014214 -0.333555 0.531683
485 -0.002580 0.320227 0.036363 -0.649360 0.100102 0.208807 -0.173462 -0.236659 -0.296257 -0.310356 0.209771 -0.028286 -0.306549 0.035193 0.447294 -0.748955 -0.329815 0.594768 0.577976 0.126465 -0.261211 0.267560 0.679841 0.302761 -0.115201 -0.084881 -0.146144 -0.322850 -0.388848 0.295094 -0.254076 -0.109271 -0.246593 0.079267 -0.373959 -0.219752 -0.225728 -0.161435 -0.010092 -0.177063 -0.305690 0.257712 -0.314136 0.126498 -0.251566 0.176854 -0.114652 -0.094507 0.461286 0.544474 0.144912 -0.240661 -0.022352 -0.122529 0.152655 0.435419 0.037629 0.207334 0.364206 0.122375 -0.275663 0.550844 -0.442978 -0.017273 -0.454751 0.579029 0.296998 -0.290284 0.085599 0.170873 0.288557 0.246152 -0.117903 -0.709421 0.011876 -0.126982 0.262238 0.257885 -0.095078 -0.101551 -0.277614 0.100138 0.207715 -0.493191 0.565243 0.254318 -0.137938 0.138937 -0.222082 0.148466 -0.723761 0.684924 -0.145940 -0.103479 -0.265537 -0.015618 0.214714 -0.006081 0.224865 0.157585 -0.019970 0.629133 -0.346777 -0.096319 0.335421 -0.188125 0.371077 -0.764296 -0.073416 -0.046886 -0.215146 -0.514785 -0.007467 0.327532 -0.358506 -0.388602 0.174812 0.388847 0.369212 -0.060800 -0.097145 -0.080532 -0.500395 0.080920 0.201526 0.304626 -0.533461 0.298843
1741 -0.127741 -0.514435 0.097769 -0.100683 -0.467964 -0.328327 0.247539 -0.544131 -0.946234 -0.125357 0.031460 0.376854 -0.247943 -0.088963 0.639540 -0.174838 -0.200319 -0.204957 -0.418016 -0.478115 0.425282 -0.446085 0.691814 -0.206410 0.184560 -0.366348 0.300759 0.186461 0.095059 0.332656 0.188993 -0.238204 -0.277823 0.439037 -0.611593 -0.335850 0.327110 0.361840 -0.731236 -0.367878 0.214939 -0.307098 -0.649263 0.598514 0.254331 0.335408 -0.329579 -0.336624 -0.003018 0.278067 -0.020179 -0.349784 -0.115387 -0.018750 0.013781 0.104477 -0.604268 0.026031 0.551052 -0.186741 -0.280668 -0.200669 -0.975532 -0.635696 -0.600774 -0.141262 0.067456 -0.388325 0.046329 0.715550 0.341202 -0.129456 -0.094562 -0.708348 0.093493 0.020466 0.675067 0.294546 0.128428 -0.105746 0.209659 0.136499 -0.162339 -0.431391 0.066619 0.027742 -0.576118 0.456948 -0.036158 0.306824 0.637668 0.100105 0.055032 -0.525614 0.245831 0.196869 0.073509 -0.401810 -0.217285 0.325478 0.094590 0.060237 0.373803 -0.177685 0.107600 -0.099458 0.334102 -0.780096 -0.284114 0.755422 -0.036146 -1.135077 -0.232558 -0.117371 -0.131374 -0.293179 -0.260705 0.182462 0.626237 -0.170873 -0.295463 -0.091097 0.241114 -0.182831 -0.405161 -0.030108 -0.291846 0.689242
2176 -0.241556 -0.149936 0.362245 -0.008066 -0.021818 -0.310018 -0.152740 -0.275580 -0.754969 -0.410657 0.438510 -0.463069 0.082660 0.020791 0.227247 0.172421 -0.010089 0.437904 0.046140 -0.128821 0.316511 0.273156 0.152039 0.257559 -0.053071 -0.367990 -0.211317 0.129323 -0.248336 0.080687 0.117899 -0.187750 -0.205288 -0.003978 -0.432238 -0.401208 -0.298665 0.143787 0.031663 -0.294230 -0.071839 -0.447745 -0.212200 -0.037291 -0.401719 0.000159 -0.189596 0.160367 0.769834 -0.178128 -0.593597 0.266229 0.453449 -0.451439 0.013154 0.196067 -0.026252 0.163000 0.070970 0.409632 -0.533865 0.144331 -0.230758 0.077940 0.085530 0.029507 0.367344 -0.204971 -0.470806 0.069343 0.338540 -0.178236 -0.405861 -0.158860 -0.128688 0.195144 0.310721 0.389870 0.344784 -0.297198 -0.327831 -0.246882 0.049567 0.165529 0.146537 0.302494 -0.348085 0.097120 0.130496 -0.196234 -0.562740 0.033452 0.014250 -0.063478 0.284315 -0.073288 0.079119 0.629962 0.365909 0.246739 0.296351 0.556342 -0.088680 0.257095 0.219055 0.621456 -0.202287 -0.285489 0.124000 0.000291 -0.353713 -0.372187 0.105716 0.415123 -0.256570 -0.520140 -0.133700 0.294762 0.251021 0.320075 -0.401394 0.256920 -0.219718 -0.070717 -0.143709 0.162524 -0.398263 -0.164242
2146 -0.212744 0.193699 0.116717 0.192155 0.122425 -0.204531 -0.188842 -0.352068 0.152444 0.053712 0.479221 -0.438796 0.151221 -0.132116 0.089628 -0.379657 0.207407 0.287025 0.292206 0.045186 0.652160 0.363094 -0.227448 0.196224 0.350428 -0.215598 -0.108220 0.047085 0.099814 0.250024 0.294201 -0.312721 -0.590454 0.042677 -0.310051 -0.345069 0.044549 0.336475 0.125598 -0.210938 0.233492 -0.272893 -0.523103 -0.224099 -0.140655 -0.123387 -0.672012 -0.132093 0.607326 0.263400 -0.044275 0.094283 -0.190220 -0.125047 -0.228214 -0.093612 -0.586839 0.184502 0.417669 0.159844 -0.114591 0.179428 -0.418227 0.262139 -0.092267 -0.000131 0.089418 -0.244938 0.207697 0.184038 0.457139 -0.332140 -0.299996 -0.567436 -0.130188 0.138252 0.051910 0.270068 0.491660 -0.246444 -0.079477 -0.224979 -0.655280 -0.626511 0.125137 0.074410 -0.379426 0.333741 0.203799 -0.316629 -0.066827 -0.132217 -0.761168 -0.149633 -0.388091 0.150749 0.244683 0.317766 0.364530 0.588987 0.024705 0.116536 -0.190706 -0.046368 0.212736 0.775720 -0.271119 -0.305799 -0.220297 -0.252962 0.335190 -0.467221 -0.077851 0.631078 0.402813 -0.143902 -0.119882 0.240063 0.246116 0.429092 -0.057365 0.144914 -0.449660 -0.162971 -0.536977 0.341799 -0.535800 -0.248450
1341 -0.618585 -0.465049 -0.454328 -0.013444 -0.129191 -0.376235 -0.102331 -0.230866 -0.632909 0.113165 0.335026 0.284179 -0.124660 -0.783557 0.092739 -0.436852 -0.162266 0.025521 -0.270379 0.661613 0.079209 0.511446 0.407665 -0.051460 1.000519 -0.272729 -0.249064 0.021396 0.116706 -0.147084 0.284769 0.428731 0.095599 0.109279 -0.227025 0.216054 -0.435796 -0.033800 0.110621 -0.066141 -0.185518 -0.276868 -0.624965 0.280382 0.154468 0.574173 -0.868933 0.140072 0.609549 -0.130208 -0.599479 -0.326069 -0.196956 -0.423455 0.237934 -0.423831 -0.730694 -0.203308 0.864058 0.486806 -0.015990 0.431566 -0.300691 -0.612380 -0.826534 0.142038 0.093023 -0.529633 -0.569342 0.564235 0.273468 -0.168331 -0.511103 -0.203991 -0.315411 -0.485218 0.019480 -0.079051 -0.040044 -1.088428 -0.058196 -0.276536 0.364393 -0.176569 0.041073 -0.252182 0.047431 0.560947 0.311841 -0.443339 -0.366429 0.274024 -0.697911 -0.213734 -0.559055 -0.044228 -0.123988 -0.002072 -0.423328 0.230642 0.532417 0.080699 -0.362722 0.120797 -0.039979 0.157024 0.432558 -0.533328 -0.342601 0.461491 -0.124998 -0.539411 -0.808687 0.042005 0.302442 0.412815 -0.436458 0.859530 -0.035365 -0.166858 0.591381 0.156838 -0.204118 -0.779886 -0.278746 0.678145 -0.271125 0.629633
1506 -0.007761 0.119426 0.135843 0.204960 0.272716 -0.452347 -0.135015 -0.254756 0.069960 0.377915 0.709102 -0.145872 -0.266516 -0.077917 0.271569 -0.258351 -0.141956 0.259754 -0.265217 0.047867 -0.106699 0.368746 0.053239 0.376586 0.012966 0.187612 0.023162 -0.362513 -0.276510 0.135123 -0.518119 -0.509109 -0.432202 -0.047463 0.007813 0.047589 -0.244205 -0.135693 -0.102455 -0.299886 0.095216 -0.296281 -0.363357 -0.118631 -0.024940 -0.532258 -0.835019 -0.191924 0.130052 0.163622 0.233657 -0.374478 -0.162299 -0.158114 0.328842 0.184319 -0.374117 0.042769 0.036830 0.188680 0.297931 -0.007252 0.052641 0.060281 -0.093178 0.342989 0.585758 0.068851 0.404499 0.280210 0.295580 0.125678 -0.354935 -0.522232 -0.158926 -0.064067 0.499369 -0.440559 0.404552 0.001211 0.179476 -0.709501 0.076154 -0.022498 0.207150 0.435695 -0.559737 0.351088 0.407071 -0.467030 -0.097209 0.536038 -0.152551 -0.293066 0.151656 0.439516 0.087237 0.421442 0.169041 0.449726 -0.027803 0.470888 0.013550 -0.512016 0.188781 0.481232 -0.083665 -0.301749 -0.398634 -0.100258 0.075134 -0.081715 -0.281803 0.364352 0.349046 0.210469 0.137695 0.222244 -0.093553 0.011664 -0.119329 0.068852 -0.272382 -0.009719 0.142921 0.060768 -0.328056 0.422717
2125 0.043392 -0.025279 0.157183 -0.006161 -0.516775 -0.409647 -0.083572 -0.074829 -0.649160 -0.120619 0.278584 -0.163004 0.082766 -0.030889 0.371280 -0.041188 -0.034644 -0.097751 0.028269 0.204634 0.025446 0.434758 0.500330 0.332163 -0.076825 -0.058070 0.272995 0.097427 -0.453913 0.048170 0.194177 -0.232740 0.026537 0.608551 0.002709 0.031641 -0.437425 0.133467 -0.208342 -0.486248 -0.144524 -0.479217 -0.325005 0.154994 -0.058844 0.337926 0.074988 0.163918 0.045388 0.308323 -0.176267 -0.138386 -0.047510 0.205719 0.689414 -0.043499 0.055354 -0.095595 -0.157918 0.165360 0.132253 0.222440 0.081263 -0.276400 0.031382 -0.374545 0.577139 -0.111517 0.224951 -0.289792 0.377352 0.092365 -0.002208 0.262995 0.039676 -0.141723 0.565263 0.161845 0.025127 -0.556987 -0.434348 -0.115493 0.332842 -0.369291 0.029690 -0.111501 -0.812510 0.734251 -0.257341 -0.245211 -0.091236 0.380582 -0.136858 0.277225 0.163933 -0.035323 0.352154 0.389059 -0.234959 -0.085829 -0.393114 0.541539 0.603980 -0.427023 0.199214 0.625291 0.554457 0.033749 -0.478982 0.292062 -0.367478 -1.087430 -0.159669 0.139464 -0.339198 -0.503279 0.070695 0.410818 0.258532 0.130459 -0.270726 0.154274 -0.390635 -0.048727 -0.315190 0.090098 0.107972 0.476909
2280 0.070449 -0.607638 -0.054065 -0.402366 -0.467750 0.035248 0.107771 -0.254618 -0.940999 -0.350893 0.437032 0.283157 -0.374114 -0.012845 0.426485 -0.199804 -0.462092 -0.154905 -0.461329 -0.486938 0.594545 -0.288246 0.739756 -0.042276 0.026344 -0.589272 0.440265 -0.092582 0.040066 0.500253 -0.024090 -0.237570 -0.095106 0.345373 -0.535383 -0.314253 0.017666 0.182064 -0.595717 -0.331261 0.428869 -0.529440 -0.744455 0.446951 0.398881 0.320088 -0.368812 -0.325294 0.014430 0.291265 -0.034299 -0.180430 0.089837 -0.237846 0.207445 0.328593 -0.524213 0.133676 0.280238 -0.287414 -0.439052 -0.083716 -1.298358 -0.451145 -0.525909 -0.350724 -0.093095 -0.647642 0.199626 0.507218 0.210009 -0.214757 -0.186958 -0.928771 0.041013 -0.144413 0.494318 0.200895 -0.011779 0.120657 0.273764 0.255748 0.006468 -0.408915 0.228987 0.376270 -0.720500 0.595607 -0.000568 0.500605 0.698226 0.126419 0.036366 -0.451757 0.363409 0.370477 0.343456 -0.399076 -0.227451 0.133393 -0.231700 0.067745 0.588620 -0.393953 0.347444 -0.022427 -0.049622 -0.389552 -0.359262 0.608822 0.175160 -0.830134 0.081651 0.132151 -0.003291 -0.631675 -0.230255 0.233558 0.957968 0.029497 -0.569508 -0.136684 0.086291 -0.138011 -0.196656 0.024624 -0.279527 0.801414
2095 -0.200521 0.054427 -0.101851 -0.014382 -0.189366 -0.049471 -0.323143 0.310681 -0.664961 -0.152311 0.460548 0.101022 -0.135418 0.373076 -0.015596 -0.016193 -0.097270 0.033985 -0.095946 0.149854 -0.468036 0.853047 0.581505 0.153355 0.121942 -0.182732 -0.015321 0.338617 -0.287909 -0.489774 0.335032 0.131688 0.076462 0.540048 -0.310245 -0.248906 -0.835599 0.286431 -0.587571 -0.698525 0.203084 -0.046297 -0.053563 -0.063561 0.382885 -0.280012 -0.315566 0.011332 0.749972 0.228572 -0.085600 -0.331287 -0.211614 -0.294622 0.386488 -0.071032 -0.324046 0.080172 -0.180277 0.275375 0.037731 0.208234 -0.445286 -0.620188 -0.353433 0.107273 0.506076 -0.248449 -0.017715 -0.080062 -0.261809 -0.017602 0.130956 -0.555446 -0.378866 -0.247342 -0.102694 -0.052063 0.052147 0.062003 -0.080672 -0.006806 0.461033 -0.220475 0.399275 0.083455 -0.253185 0.650771 -0.331782 0.084686 0.203131 0.087828 0.259531 0.092404 -0.383816 -0.339897 0.102772 0.398738 -0.268194 0.114676 0.600756 -0.027831 -0.165093 -0.251665 -0.233147 0.213393 -0.015653 -0.454132 -0.200625 0.558993 0.017235 -0.498329 -0.049596 -0.196027 -0.447322 -0.154819 -0.543503 -0.134378 0.031019 -0.122095 -0.023491 0.218895 -0.364387 -0.331142 -0.098923 -0.064280 0.358180 0.073769
1317 0.286986 -0.145905 -0.067435 -0.076238 0.006802 0.055262 -0.308717 -0.247642 0.056240 0.224387 0.209747 -0.068809 -0.312693 0.001074 -0.106680 -0.389577 -0.229322 -0.322916 0.003747 -0.259857 0.090148 0.765107 -0.170403 0.838338 0.483766 -0.084945 0.052160 -0.063300 0.100559 -0.462861 -0.044454 -0.082512 -0.735712 0.169352 -0.046857 -0.582291 -0.003686 0.188192 -0.090132 -0.311080 0.098205 -0.320879 0.239404 0.004178 -0.034554 0.075147 -0.290798 -0.320315 0.046966 -0.137113 -0.226841 -0.100100 -0.553070 -0.400106 0.151112 -0.238253 0.030797 0.067731 0.353659 0.063200 -0.114904 0.131817 -0.089596 -0.531734 -0.259332 0.235631 0.251155 0.064975 -0.245986 0.230738 0.241901 -0.111343 -0.061562 -0.596939 0.374418 0.289370 -0.030406 -0.533822 -0.773644 0.080579 0.409586 -0.356275 0.290157 0.464182 0.009997 -0.025645 -0.250713 0.159998 0.051632 0.399416 -0.031125 -0.418810 -0.078849 -0.554494 -0.078129 0.127184 0.411263 -0.348559 -0.125547 -0.047716 0.101201 0.255368 0.018926 -0.092917 -0.218845 0.387276 -0.092020 -0.064891 0.424107 -0.267441 -0.189732 -0.201755 0.191929 0.128721 0.076213 0.169463 -0.387222 0.736275 0.028597 0.413648 0.103992 0.155580 -0.269047 0.006243 -0.251849 0.157756 -0.158936 0.529957
1871 0.086894 -0.358943 0.042660 -0.045952 -0.286306 -0.123836 -0.260552 -0.267241 -0.242731 -0.370942 0.019984 0.407046 -0.152553 -0.056605 0.245607 -0.004983 -0.272119 0.194385 -0.653117 -0.275602 0.242791 -0.201107 0.753446 0.115861 0.000796 -0.175124 -0.091978 -0.231016 -0.243643 0.337395 0.138053 -0.561502 -0.141748 -0.026752 -0.432483 0.037530 -0.250733 -0.055804 -0.754122 -0.295007 0.041999 -0.304897 -0.270621 0.387214 0.405290 0.031541 -0.399492 -0.096102 0.353561 0.263907 -0.375534 -0.543738 0.236079 0.003048 0.486751 0.438089 -0.391427 0.213844 0.127371 0.062531 -0.006797 -0.021538 -0.855240 -0.711107 -0.516798 -0.246950 0.257481 -0.439928 0.040154 0.189534 0.028257 -0.058774 -0.141047 -0.378811 0.191278 0.039861 0.305405 0.205666 0.189628 0.093884 0.082212 0.340473 0.453716 -0.188636 0.157847 0.414592 -0.555759 0.382223 -0.253910 0.542624 0.337773 0.058897 -0.144980 0.057082 0.158792 0.011428 0.292308 -0.198209 0.178925 0.270455 0.006657 0.587590 0.524904 -0.219566 -0.043163 -0.127224 0.112033 -0.296100 -0.531709 0.639378 -0.579723 -0.553668 -0.065006 -0.272467 0.037987 -0.624514 -0.261174 -0.112034 0.568892 0.069804 -0.019434 -0.381283 0.114594 -0.293375 -0.084126 -0.140738 -0.139983 0.261240
611 -0.008193 -0.579461 0.114057 -0.246492 -0.583137 -0.040901 0.281043 -0.270873 -0.945105 -0.246058 0.215386 0.357327 -0.290726 -0.255560 0.434824 -0.080387 -0.297788 -0.185723 -0.400753 -0.457464 0.380900 -0.354428 0.699949 -0.046546 0.183731 -0.523915 0.260991 -0.022883 -0.042019 0.423560 -0.011245 -0.319679 -0.226657 0.543997 -0.534927 -0.219867 0.192744 0.338309 -0.679640 -0.469461 0.306146 -0.523141 -0.651250 0.534075 0.408012 0.334194 -0.316790 -0.382372 -0.158562 0.285929 -0.225475 -0.223226 -0.020988 -0.232831 0.090333 0.195122 -0.421259 0.267802 0.328705 -0.267320 -0.333763 -0.071835 -1.092257 -0.507814 -0.610802 -0.393965 0.229885 -0.571695 0.138572 0.472275 0.310766 -0.136837 -0.178058 -0.697131 -0.002417 -0.210710 0.565238 0.465456 0.082056 0.028945 0.252799 0.333855 -0.108789 -0.477854 0.287037 0.361234 -0.944404 0.533617 0.024113 0.527227 0.532101 0.051891 -0.111949 -0.231731 0.607589 0.125747 0.197353 -0.306329 -0.190954 0.218754 -0.335394 0.062489 0.592670 -0.405466 0.074147 -0.036511 0.271307 -0.403114 -0.463138 0.563824 0.081726 -1.058937 0.023413 -0.176517 -0.026617 -0.597470 -0.217184 0.206220 0.865930 -0.199890 -0.362074 -0.034007 -0.006595 -0.152954 -0.303975 -0.225052 -0.378653 0.617753
911 0.175073 -0.421670 -0.225724 -0.151508 -0.006418 -0.190470 -0.285901 -0.256450 -0.034871 0.263632 0.056381 -0.075802 -0.089988 0.152766 -0.473275 -0.221452 -0.072485 -0.251585 0.137838 -0.345342 -0.028090 0.514698 -0.202411 0.724769 0.278052 -0.139975 0.223809 -0.237963 -0.269415 0.087721 -0.158156 0.300366 -0.712207 0.388627 -0.372737 -0.311205 0.102287 0.153777 -0.366141 -0.253849 -0.004806 -0.171546 0.261810 0.107295 0.047555 0.372358 -0.420387 -0.101009 -0.131135 -0.131234 -0.087045 -0.154721 -0.520186 -0.167026 0.346233 -0.275689 -0.089387 -0.071277 0.602000 -0.202239 -0.502372 0.103883 -0.012424 -0.487306 -0.309837 0.200706 0.376386 0.103615 -0.188695 0.335546 0.327438 -0.182251 -0.382688 -0.981963 0.016696 -0.149297 -0.191571 -0.030509 -0.470847 0.111237 0.640125 -0.264191 0.463383 0.492114 0.242279 0.096330 -0.313929 -0.327158 0.129718 0.263737 0.113727 -0.166754 -0.249207 -0.356964 0.269314 0.073578 0.347711 -0.097670 -0.269848 -0.236389 0.269362 0.161037 0.059243 0.019430 0.185496 0.348589 -0.303853 0.296260 0.168823 0.131772 -0.120063 -0.289915 0.221595 0.110578 0.178507 0.030411 -0.335524 0.759298 0.466747 0.065907 -0.109723 -0.153150 -0.317215 -0.157757 0.317040 0.038928 -0.312290 0.509998
1799 0.150622 -0.390006 -0.594773 -0.360768 -0.314975 -0.314140 -0.450034 0.069792 -0.386906 -0.193178 0.394718 0.133762 -0.123746 -0.394170 -0.128158 0.009267 0.289579 0.397415 -0.021511 -0.020050 -0.324935 -0.087368 0.285857 -0.031702 0.706708 -0.500787 -0.103428 -0.254880 -0.283237 0.247234 0.243680 0.127071 0.253766 0.181047 0.015975 0.230330 -0.358772 0.297932 -0.401982 -0.341652 -0.430614 -0.111327 -0.131425 0.085102 0.489206 0.018195 -0.267120 0.068925 0.824833 -0.103064 -0.204280 -0.382578 0.340602 0.090651 0.451475 -0.390198 -0.739762 -0.593877 0.439055 0.420984 0.262838 0.363361 0.157670 -0.793238 -0.263106 -0.044280 0.024591 -0.240169 -0.461622 0.416002 -0.108643 0.107175 -0.196267 -0.514842 -0.289340 -0.036519 -0.407176 0.193545 0.070392 -0.297073 0.041135 -0.358296 0.150855 -0.050478 -0.572342 0.464381 -0.273655 0.557691 -0.029432 -0.203625 0.164818 0.264131 -0.823237 -0.344053 -0.421849 -0.047695 0.071097 -0.264684 -0.469117 -0.016119 0.157057 0.311927 0.117180 0.087067 -0.486259 0.484998 0.310499 -0.258730 -0.450701 0.350489 -0.236508 -0.624296 -0.208454 -0.087441 0.502372 0.197344 -0.286523 0.583597 -0.286105 -0.388462 0.576449 0.261111 -0.058820 -0.487075 -0.190675 0.034679 -0.433623 0.446053
602 0.158875 -0.258480 -0.237441 -0.163198 -0.039323 -0.094415 -0.559639 -0.637375 -0.205428 0.247295 0.274962 0.051540 -0.260874 -0.236637 0.069838 -0.490282 -0.142498 -0.258794 0.179742 -0.456519 -0.164158 0.368766 0.147105 0.528984 0.373486 -0.046051 -0.081386 -0.004772 -0.008439 -0.337514 0.225687 -0.154720 -0.405722 0.071505 0.141882 -0.103234 0.221088 0.162881 0.010939 -0.273370 0.368470 -0.207236 -0.060593 0.207345 0.350590 0.344037 -0.862650 -0.287754 0.583752 0.062514 -0.410235 0.039026 0.119589 -0.331244 0.481962 -0.101294 -0.248078 -0.023839 0.048667 -0.185997 0.382038 0.009362 -0.274580 -0.396632 -0.122829 0.296250 0.007954 0.147621 -0.521672 0.375996 0.242680 0.317231 -0.651189 -0.476400 0.659526 -0.042566 -0.031945 -0.525639 -0.525755 0.095967 0.265740 -0.282555 -0.104525 0.344497 0.414309 0.275702 -0.419715 -0.076660 0.212045 0.488268 0.197663 -0.173718 0.096359 -0.328210 -0.029643 -0.060137 0.413293 0.062867 -0.226476 0.104385 -0.675236 0.108387 0.239055 -0.286212 -0.357360 -0.111155 -0.209325 -0.136788 0.098654 0.024128 0.049237 -0.223561 0.154180 0.159472 -0.101420 0.052779 -0.173981 0.499403 -0.007889 0.530620 0.402368 -0.233228 0.156508 -0.116672 -0.010437 0.265547 -0.127023 0.606367
600 0.168180 -0.495088 -0.193663 0.155299 -0.142530 -0.012184 -0.096089 -0.491706 0.007044 0.390459 0.068810 -0.068319 -0.255824 0.130857 0.056044 -0.488542 -0.069378 -0.169861 -0.054700 -0.056343 -0.000295 0.507589 -0.022988 0.669773 0.239848 -0.222232 0.348702 0.242899 -0.216321 -0.274856 -0.388524 -0.042279 -0.580120 0.559440 0.149751 -0.241663 0.258366 0.150481 -0.311662 -0.340576 0.720288 0.012710 0.394803 0.052716 0.313803 0.533598 -0.732588 -0.496687 0.307111 -0.112385 0.121411 -0.085808 -0.421625 -0.346081 0.640964 -0.120762 -0.090328 0.009713 0.422512 -0.007652 0.121005 0.028899 0.008160 -0.105656 -0.219373 0.705595 0.462668 0.428928 -0.384034 0.430579 0.354269 -0.190454 -0.736923 -0.735935 0.009936 -0.445948 -0.510050 -0.154836 -0.245362 -0.028662 0.223308 -0.417364 0.092303 0.345618 0.693696 0.170086 -0.517095 -0.144051 0.034595 0.094934 0.274068 0.303281 -0.159881 -0.644511 0.355618 0.172840 0.018399 0.139430 -0.286670 0.078311 0.043629 -0.012625 0.057752 -0.195594 -0.168945 0.093197 0.111988 -0.052713 0.192842 0.158133 0.508387 -0.345850 0.056987 0.155892 -0.145574 -0.131699 -0.249960 0.732802 0.287478 0.196653 0.043099 -0.066909 -0.019674 -0.123644 0.610305 0.150193 -0.307158 0.627409
2419 -0.261172 -0.329877 0.658554 -0.172129 0.004805 -0.398963 0.084107 0.083766 -0.798823 -0.429752 0.319345 -0.163681 -0.200665 -0.323390 0.451260 -0.022515 -0.079100 0.230989 -0.057334 0.336186 -0.296744 0.254423 -0.174556 0.373438 0.216082 -0.587698 -0.143672 0.025515 -0.314233 0.132207 0.201856 -0.342388 -0.394798 0.235396 -0.222369 -0.131680 -0.475769 0.148773 -0.282220 -0.104048 -0.178393 -0.210320 -0.704794 0.194582 -0.079827 0.306131 -0.274994 0.488036 0.506129 0.206157 -0.447044 0.174866 -0.017836 -0.223195 0.362929 0.192390 -0.018986 0.069994 0.136242 0.492385 0.114106 -0.080184 -0.376484 0.120622 0.257252 0.168196 0.590417 -0.228993 -0.011678 0.168933 0.554571 -0.055587 -0.404053 -0.096206 0.298933 0.178650 0.231439 -0.168058 0.309356 -0.242322 -0.099648 0.191171 0.230682 0.572436 0.162857 0.435315 -0.432371 0.767482 0.242350 -0.392910 -0.463176 0.070557 -0.160081 -0.256806 0.290860 0.010883 0.130794 0.330160 0.324617 0.555848 -0.270651 0.572296 0.208167 -0.070422 -0.045027 0.156574 0.259725 -0.378783 -0.282399 0.131117 -0.191923 -0.438196 -0.278986 0.324158 -0.331404 0.144405 0.308413 0.524013 0.342792 0.173858 -0.140554 -0.171490 -0.152235 0.034923 -0.253851 0.559697 -0.436789 -0.191136
1325 0.346561 0.498455 -0.027034 -0.712797 0.223825 -0.018841 -0.540719 -0.349010 -0.126239 -0.239238 0.494815 -0.209873 -0.291518 0.113898 0.245921 -0.888123 -0.059647 0.422158 0.376789 0.047763 -0.094163 0.454564 0.800052 0.122502 -0.028009 -0.142918 0.222452 -0.182541 -0.203686 0.245416 -0.114718 -0.069274 -0.208447 0.189077 -0.495629 0.108301 -0.171889 -0.183295 -0.198282 -0.373664 -0.179731 -0.124185 -0.599808 0.040009 -0.199257 -0.311960 -0.703508 -0.122982 0.491933 0.515385 0.080092 -0.473844 -0.180428 -0.150651 0.428863 0.262338 0.072848 0.294702 0.164942 0.106487 -0.264347 0.627046 -0.317152 0.264589 -0.085753 0.773874 0.363622 0.008236 -0.013678 0.185265 0.521782 0.148320 -0.102936 -0.938919 0.319521 -0.038575 0.338566 0.018188 0.336586 0.079065 -0.347846 0.139379 0.208751 -0.536241 0.372356 0.503609 -0.355498 0.279761 -0.066579 0.150942 -0.303670 0.390228 0.086570 0.051591 -0.101216 0.217334 0.154983 0.029752 0.403697 0.256415 -0.074261 0.369564 -0.318301 0.141199 0.162181 0.225633 0.541834 -0.828460 -0.244000 0.099329 0.172397 0.081535 -0.289487 0.468929 -0.048817 -0.190065 0.186327 0.019085 0.255728 -0.031254 0.087963 -0.113513 -0.329912 -0.050966 0.170980 0.122233 -0.422105 0.418142
1524 -0.257769 0.404788 0.175521 0.031980 0.296019 -0.160051 0.144097 -0.337593 0.069080 0.053540 0.322376 -0.615955 -0.286963 0.319640 0.639053 -0.673465 0.000175 0.364266 0.337177 0.262381 0.533485 0.818634 -0.318796 0.013751 0.397396 -0.522552 0.194510 -0.283500 -0.274739 0.018427 0.675400 -0.195119 -0.923241 0.165744 -0.070478 -0.068497 -0.407057 -0.155870 -0.195555 0.077380 0.243256 -0.166478 -0.611513 -0.184743 0.023698 -0.074536 -0.843393 -0.056744 0.333376 0.022264 0.310611 -0.280964 0.028042 -0.076035 0.301294 0.001223 -0.473453 -0.170249 0.518501 0.464258 0.108767 -0.093737 -0.157675 0.158519 -0.262544 0.344301 0.198734 -0.090611 0.036913 0.055755 0.299702 -0.063626 -0.414950 -0.225332 -0.144483 -0.100649 0.120224 0.179791 0.400468 -0.190840 0.011183 -0.172455 -0.067737 -0.425254 0.059697 -0.073640 -0.521635 0.594798 0.118527 -0.574243 0.091765 0.010928 -0.184557 -0.058955 0.022091 0.524685 0.269369 0.331147 0.163182 0.311346 -0.100802 0.336219 -0.110172 0.071558 -0.345061 0.175234 -0.033499 -0.181748 -0.651130 0.324597 0.180688 -0.230007 -0.043694 0.423220 0.583701 -0.411578 0.006731 0.194464 -0.175303 0.642896 0.260325 -0.064611 -0.035027 -0.038063 -0.118280 0.291664 -0.365916 0.130112
2015 0.365876 -0.147854 -0.335295 0.004145 -0.514664 -0.200418 0.571159 -0.232214 -0.200949 -0.695961 0.116351 -0.179347 0.430343 -0.060353 0.378544 -0.410398 0.245744 -0.023037 -0.433321 0.210155 0.268341 0.288430 0.068814 0.519169 -0.121275 0.148718 -0.168754 0.014448 -0.167817 0.190159 0.154394 -0.178466 -0.118397 -0.227407 0.091778 -0.335135 -0.192907 -0.068153 -0.323880 0.230958 0.014348 -0.357714 0.162581 0.256344 0.344693 0.512888 -0.367875 0.067819 0.454464 -0.204773 -0.407652 0.034353 0.166804 0.155568 0.366793 -0.014237 -0.471340 0.079870 -0.208139 0.083916 0.164667 0.016244 -0.094472 -0.549382 0.210629 0.306824 -0.113730 -0.364898 -0.434564 0.350572 0.149874 0.110506 -0.429412 -0.304205 -0.364551 -0.039691 0.201400 -0.035865 0.104093 -0.562236 0.063373 -0.427175 0.773110 0.032453 0.053057 0.223258 -0.469753 0.207181 -0.009121 -0.022836 0.025462 -0.010441 -0.421463 0.163736 -0.374268 -0.136197 0.309542 0.386725 0.004577 0.181111 0.160702 0.394208 0.300197 -0.098237 0.092330 0.574925 -0.332341 -0.513156 -0.490747 0.365554 -0.379121 -0.158752 -0.218732 -0.055238 0.138617 -0.370753 -0.059439 0.173260 -0.087453 0.336726 -0.119711 -0.184207 -0.081995 -0.065633 -0.238625 0.051355 -0.316815 0.297528
1601 -0.290625 0.077325 0.107079 -0.034174 -0.279552 -0.039862 -0.188861 -0.308499 -0.473903 -0.135504 -0.280506 -0.388096 -0.064654 -0.108910 0.211854 0.123325 0.016074 0.292826 0.122351 0.088424 -0.333294 0.460743 0.448712 0.232638 -0.291877 -0.327988 -0.057820 -0.313467 -0.218057 0.098781 0.292944 -0.226959 -0.161721 0.511499 -0.564578 -0.454584 -0.473472 0.585899 -0.495150 -0.566318 0.048091 -0.182759 -0.431146 -0.302312 -0.119985 -0.035922 -0.263775 -0.069510 0.573504 -0.019104 -0.150270 0.089033 0.002795 -0.262751 0.324559 0.047890 -0.166725 0.138982 0.017915 0.018665 -0.444285 0.341397 -0.131929 -0.116679 -0.550498 -0.228524 0.529198 -0.117185 -0.115333 -0.164931 0.328867 -0.172506 -0.288686 -0.047646 -0.097643 0.271764 0.084923 0.431517 0.345733 -0.137850 -0.127077 -0.286506 -0.138257 0.019397 0.458552 0.153293 -0.444924 -0.139774 -0.574133 -0.273707 -0.255108 0.114713 -0.438610 0.093898 0.388751 0.022911 -0.122321 0.156512 -0.344709 -0.283452 0.272614 0.065054 -0.032640 -0.028502 -0.193849 0.358475 0.194124 -0.455994 -0.362298 0.447084 0.119973 -0.954504 0.259624 -0.284781 -0.433429 -0.909093 -0.610475 0.070344 0.099522 -0.158994 -0.573729 -0.160576 -0.537911 0.028821 -0.019438 -0.220394 -0.625929 -0.031875
2278 0.158688 -0.314765 -0.533342 -0.118684 -0.257503 -0.115147 -0.168439 -0.099831 -0.367148 -0.360358 0.302924 -0.053094 -0.019616 -0.404331 -0.241484 -0.101372 0.375576 0.240309 -0.156372 0.166578 -0.149407 -0.129352 0.261469 -0.024072 0.514774 -0.306388 0.046368 -0.079880 -0.324306 0.303000 0.401064 0.392434 0.222290 -0.080098 0.039482 0.192119 -0.400400 0.101784 -0.250107 -0.129913 -0.371644 -0.106619 -0.079014 0.211493 0.574144 0.350781 -0.374349 0.276045 0.781804 -0.223138 -0.180507 -0.255634 0.207214 0.115475 0.537463 -0.494186 -0.738054 -0.522102 0.517782 0.234048 0.199272 0.346069 0.370419 -0.815329 -0.379513 0.202295 0.041407 -0.374642 -0.623810 0.582979 0.121284 0.154603 -0.312010 -0.662053 -0.418758 -0.113620 -0.540691 0.225522 0.013473 -0.578859 0.122963 -0.526435 0.381410 -0.206412 -0.371232 0.184163 -0.262855 0.488749 -0.106593 -0.417881 0.108952 0.105218 -0.861019 -0.186177 -0.546177 0.102803 0.021741 0.010587 -0.266015 0.021888 0.150985 0.223271 0.127179 0.017012 -0.415430 0.453397 0.181798 -0.283130 -0.469260 0.574375 -0.180285 -0.651626 -0.163655 -0.334148 0.314913 0.070956 -0.272090 0.530844 -0.245266 -0.037813 0.524436 0.332471 0.063231 -0.512804 -0.232235 0.283697 -0.451980 0.321692
1542 0.046066 -0.260359 -0.003890 -0.282178 0.202661 -0.092224 0.225018 -0.404862 -0.173228 0.111152 0.159721 -0.196251 -0.370965 -0.135049 -0.256915 -0.638268 -0.069116 -0.347338 0.055791 -0.226510 0.229504 0.415487 0.131730 0.572378 0.435068 0.228530 -0.499062 -0.034418 0.135493 -0.348335 -0.042993 -0.204679 -0.539610 0.463354 0.310458 -0.216970 0.179543 0.114035 -0.228956 0.244474 -0.092909 -0.202260 0.232939 0.124758 0.209196 0.337163 -0.196690 -0.555811 0.185875 -0.156985 -0.377840 -0.293755 -0.181593 -0.057399 0.583712 -0.130856 -0.201988 0.003296 0.287965 -0.244666 0.084396 0.473488 0.141641 -0.578511 -0.497722 -0.205713 0.197804 -0.149697 -0.343935 0.161283 0.263266 -0.168912 -0.418655 -0.567396 0.049554 -0.463531 -0.062874 -0.013339 -0.514749 0.257924 0.578005 0.009235 0.126761 0.450249 0.042638 0.149483 -0.715497 -0.113758 0.125857 -0.020025 -0.329893 -0.088969 -0.001762 -0.101860 0.024238 -0.134298 0.277815 -0.326061 -0.012041 -0.096905 -0.133426 0.197798 -0.032453 -0.117525 0.199215 0.400150 -0.478137 0.079881 0.084390 -0.090649 -0.094207 -0.316363 -0.240975 -0.007836 -0.102103 0.286156 -0.265084 0.393757 0.151815 0.166414 0.347188 -0.015566 0.117320 -0.297475 -0.552859 -0.028374 -0.540172 0.224820
2165 -0.358729 0.112783 0.049431 -0.163892 0.077585 -0.142783 -0.383138 -0.318361 -0.444144 -0.652569 0.187751 -0.570353 -0.299965 -0.056203 0.264489 0.004697 -0.049190 0.140202 0.048966 -0.036856 -0.221365 0.383907 0.035650 0.152869 -0.156444 0.052709 0.169077 -0.169362 -0.286353 0.508497 -0.229576 -0.113650 -0.405735 0.342835 -0.113996 -0.298040 -0.159330 0.713542 -0.371952 -0.421781 -0.228373 0.116250 0.126486 -0.035992 0.137244 0.263132 -0.597421 0.023660 0.617887 -0.002628 -0.153937 0.420800 -0.082143 -0.365269 0.042906 0.064847 -0.574504 0.118533 0.517176 0.646009 -0.072429 0.283604 -0.111161 -0.152256 0.373576 0.232884 0.292027 -0.015609 -0.015257 0.105015 -0.071863 0.174715 -0.109355 -0.312920 -0.446721 -0.198008 -0.255901 0.070049 0.091730 -0.182536 0.402474 0.221838 0.190847 -0.115114 0.136905 0.070723 -0.032532 0.561092 -0.296168 -0.221883 -0.023137 -0.413767 -0.034508 0.109267 -0.483182 -0.030942 -0.133095 0.230401 0.268106 1.223267 -0.587206 0.042998 0.207844 -0.138850 0.581943 0.064658 -0.383020 -0.590403 0.100936 0.440550 0.098443 -0.210146 -0.128148 0.312425 -0.095878 0.106911 -0.006482 0.475880 0.005198 0.086148 -0.065633 -0.200666 -0.196061 0.398669 0.081848 -0.021263 -0.254878 -0.115557
1177 -0.008408 -0.207794 -0.209060 -0.632043 0.229853 -0.120066 -0.400344 -0.661620 -0.276861 0.179873 0.256678 0.341436 -0.111899 0.212124 -0.513235 -0.114204 -0.249710 0.070667 0.121164 -0.332716 -0.137576 0.892038 0.105014 0.616489 0.415561 -0.197973 0.482902 -0.178240 0.160240 -0.006765 0.014143 0.167472 -0.390421 0.279564 -0.258933 -0.348937 -0.070423 0.025187 -0.106863 -0.290413 0.014126 -0.050180 0.046150 0.328043 0.105880 0.291143 -0.533393 0.050971 -0.196167 -0.018031 -0.196989 -0.127427 -0.452502 -0.126304 0.400179 -0.162521 0.165683 -0.263752 0.288634 -0.216901 -0.501945 -0.073326 -0.170708 -0.451321 -0.168955 0.293798 0.329775 0.193549 0.038772 0.494451 0.227696 -0.185003 -0.308537 -0.798960 0.115606 -0.290114 0.027351 0.168081 -0.638062 0.187290 0.551296 0.077173 0.153430 0.599309 0.386629 0.100374 -0.491985 -0.406473 -0.060114 0.102720 0.143686 -0.048140 -0.056975 0.017033 0.288486 0.104759 0.424666 -0.027809 -0.052662 0.026103 0.476737 0.410211 -0.320906 0.149935 -0.094420 0.263583 -0.559526 0.276280 -0.162437 0.207703 0.024913 -0.481551 0.315373 -0.141091 0.325966 -0.163922 -0.510416 0.622665 0.442916 0.208056 -0.143947 -0.165130 -0.386240 -0.226544 0.296457 -0.098767 -0.429634 0.329632
727 0.228197 0.290536 -0.352076 -0.248899 -0.270760 -0.156233 0.159586 -0.611179 0.139670 -0.021005 0.655802 0.108532 0.209982 -0.337215 -0.093534 -0.335288 0.133062 0.132848 -0.014562 -0.254058 -0.018223 0.396409 0.405497 0.515802 0.196111 0.013170 0.444021 -0.296984 -0.221039 -0.257692 -0.491153 0.271079 -0.330009 0.134004 0.279126 -0.441470 0.340793 -0.132846 -0.474004 -0.386472 -0.114610 0.005094 0.069498 0.357895 -0.013961 0.641253 -0.719944 0.039510 0.438960 -0.134468 0.334795 -0.027216 -0.081770 -0.269907 0.066456 -0.324961 0.111617 0.091107 0.172006 -0.133161 0.413285 -0.343580 0.255282 -0.153450 -0.318749 0.120726 0.553042 -0.191318 -0.128934 0.290014 0.364266 0.319364 -0.217394 -0.741876 0.211771 -0.008293 0.412840 0.153277 0.040229 0.146384 0.273712 -0.339972 0.139145 0.189264 0.073792 -0.269010 -0.948696 0.341735 0.513863 -0.103992 -0.251795 -0.104096 0.033660 -0.115955 -0.078914 0.092804 0.237480 0.351626 -0.148413 0.032894 -0.097687 0.053867 -0.036020 -0.332324 0.058578 0.382383 -0.673953 0.000923 0.119697 -0.025558 0.044910 -0.444832 0.474310 0.175021 0.129595 0.011860 -0.464707 0.468547 -0.078659 0.320315 0.463289 0.051565 -0.422028 -0.122684 0.263510 0.557885 -0.380052 0.964388
484 -0.260278 0.288140 0.138539 -0.844115 0.045283 -0.322553 -0.218678 -0.808047 -0.146325 -0.345328 0.032013 -0.677736 -0.180565 -0.150443 0.240536 -0.487656 -0.414216 0.390396 0.463656 0.029064 0.118335 0.137592 0.580219 0.544282 -0.347768 0.011450 -0.221900 -0.120352 -0.383380 -0.103250 -0.345942 0.239742 -0.509038 0.350835 -0.004090 -0.087600 -0.125714 0.038606 -0.479908 -0.041523 -0.615505 -0.040863 -0.085404 -0.091896 0.052698 -0.094613 0.018806 -0.121937 0.341631 0.041095 0.192975 -0.332261 -0.040138 -0.187251 0.258862 0.380745 -0.132367 0.014240 -0.050885 0.102256 -0.600069 0.607244 -0.070914 -0.137764 -0.158529 0.070349 0.181219 0.212345 -0.023114 0.058932 0.040031 -0.147411 -0.435875 -0.722518 -0.128337 -0.113962 0.034125 -0.235569 -0.092425 0.117894 0.367082 0.445631 0.034955 -0.080862 0.201139 0.005589 -0.301076 0.129796 0.100679 -0.475997 -0.604923 -0.096881 -0.236999 -0.150246 -0.331197 0.047701 0.626142 0.167168 0.023303 0.021626 -0.703577 0.170812 0.134036 0.252690 0.368481 -0.264687 0.464757 -0.224408 0.024717 -0.150806 0.015942 -0.360276 -0.350033 0.181097 -0.105175 -0.133600 -0.245025 0.308633 0.315841 -0.115664 -0.237688 -0.145841 -0.286981 0.215919 0.002386 -0.032749 -0.264346 0.152852
738 -0.005858 0.253100 0.196664 0.099639 0.313535 0.227197 -0.372866 -0.080634 -0.212911 0.229878 0.007364 -0.046354 0.294335 0.262483 -0.412405 -0.235481 -0.349492 -0.156586 -0.084680 -0.475700 -0.231056 0.856426 0.279824 0.523815 0.192939 -0.361524 0.139866 -0.212104 -0.180528 -0.362195 0.151922 0.215515 -0.074903 0.462415 -0.326939 -0.355386 -0.077631 0.295217 -0.414028 -0.356583 0.126354 -0.343467 0.010156 0.104967 0.140846 0.292177 -0.154096 -0.089664 0.034764 0.397502 -0.324468 -0.068632 -0.724644 -0.189242 0.493710 0.092211 -0.228494 -0.191814 0.455877 -0.021572 -0.509574 0.351895 0.034718 0.007172 -0.584786 0.398122 0.334007 -0.123628 -0.281536 0.285896 0.013833 -0.184123 -0.552373 -0.263460 -0.239897 -0.537575 -0.334848 0.248177 -0.071072 -0.159199 0.391787 -0.525309 -0.191477 0.009861 0.415751 -0.266649 -0.122200 -0.143675 -0.056653 -0.252797 -0.182468 -0.060799 0.246948 -0.291254 -0.218231 0.132378 0.173035 0.414807 -0.176572 0.111926 0.290114 -0.161494 0.020199 0.182395 -0.099282 0.387444 0.221556 -0.299666 -0.104504 -0.031018 0.164972 -0.446217 0.235098 -0.355580 0.031487 -0.494363 -0.640192 0.418497 0.170328 0.048490 -0.302712 -0.173451 -0.359894 -0.034737 0.474945 -0.082327 -0.474519 -0.075794
680 0.003145 -0.268891 -0.032874 -0.041384 -0.697984 -0.200502 0.081692 -0.347930 -0.844709 -0.085939 0.147560 -0.051826 0.036330 -0.243653 0.232491 0.305481 -0.017922 -0.179047 0.068733 -0.125660 0.017013 0.382600 0.381318 0.072682 0.388433 -0.250027 0.458229 0.251113 -0.405404 0.352501 0.087735 -0.322846 0.075210 0.388304 -0.253275 0.294430 -0.423107 0.376338 -0.126731 -0.501520 0.012839 -0.490653 -0.300010 0.009004 -0.200825 0.427229 0.098484 -0.237413 -0.001678 0.364284 -0.296119 -0.198501 -0.223182 -0.165436 0.451869 -0.075061 -0.129902 -0.203572 -0.144137 0.071832 0.020430 0.467870 -0.098137 -0.186883 -0.038129 -0.403201 0.732602 -0.095593 0.139864 -0.079594 0.650496 -0.211309 -0.178397 -0.000373 0.146414 -0.088216 0.520820 0.583700 0.072792 -0.283664 -0.133032 -0.076805 0.327023 -0.513421 0.121114 -0.161420 -1.050342 0.493977 -0.357003 0.069647 0.053106 0.288692 -0.377304 -0.155327 0.286508 0.105046 0.151432 0.344757 -0.272221 0.091577 -0.319287 0.231504 0.683608 -0.363115 0.439412 0.280638 0.463780 -0.363908 -0.220061 0.520873 -0.520108 -1.128188 -0.149762 0.221688 -0.357059 -0.601558 -0.015763 0.290584 0.342494 0.204274 -0.540571 0.026599 -0.101094 -0.101261 -0.232377 -0.025465 0.240816 0.502779
2476 0.044716 -0.224102 -0.258629 0.043895 -0.495288 -0.457677 0.103395 -0.526834 -0.404932 -0.181708 0.075043 -0.203469 0.023841 -0.401876 0.523762 0.535967 0.025273 -0.089524 0.162202 -0.319006 -0.164738 0.103020 0.161539 -0.055288 0.200086 -0.254037 0.261353 0.315961 -0.205109 0.328867 -0.001417 -0.284344 -0.014215 0.235023 -0.181020 0.140355 -0.448333 0.608523 -0.258999 -0.243462 -0.169984 -0.364721 -0.596723 -0.218001 -0.439865 0.253073 -0.160581 -0.088244 0.397680 0.090666 -0.439162 -0.182188 0.002502 -0.439394 0.408620 -0.179268 -0.530394 -0.284285 0.086767 0.140102 -0.031601 0.638470 0.269229 -0.101449 0.165938 -0.190887 0.675027 -0.113863 -0.034578 0.070070 0.273859 -0.227062 -0.338930 -0.229692 0.061569 -0.145014 0.331974 0.388148 0.337127 -0.267233 -0.035083 -0.236087 0.316771 -0.160652 -0.263036 -0.105532 -0.750165 0.199052 -0.420311 -0.171671 -0.218748 0.250582 -0.531563 -0.227639 0.129290 0.173909 -0.274468 0.145676 -0.071303 0.029690 -0.016530 0.353508 0.252148 0.003465 0.301920 0.222692 0.405393 -0.857573 -0.044098 0.497501 -0.298840 -0.871798 -0.145455 0.019173 -0.253939 -0.562187 -0.226277 -0.040740 0.123295 0.482904 -0.806261 -0.220025 0.072884 0.001723 -0.153293 0.194080 -0.138911 0.201243
2509 0.305504 -0.133501 -0.031064 -0.455918 0.096340 -0.422433 -0.499790 -0.468897 -0.099894 -0.085110 -0.137949 -0.019746 -0.359859 -0.347460 -0.356866 -0.460406 -0.207587 0.144910 0.107246 -0.374472 -0.264946 0.334313 0.394803 0.343384 -0.093064 -0.260610 0.364254 -0.529044 -0.275514 -0.258474 0.077628 -0.063805 -0.340116 0.313963 0.072617 -0.387338 -0.173288 0.166746 -0.290531 -0.441661 -0.128683 0.123601 0.356401 0.418409 0.306037 -0.020500 0.056509 -0.170514 0.406933 -0.026098 0.273156 -0.292535 0.175104 0.248102 0.560932 -0.007737 0.024022 -0.017550 0.279127 0.652822 -0.440499 0.588915 0.052835 -0.198743 -0.363907 0.059468 0.546812 0.055829 0.122524 0.489638 -0.292139 -0.158241 -0.248098 -0.586726 -0.568611 -0.521454 -0.349886 0.063259 0.031714 -0.342050 0.427925 0.118345 -0.282480 -0.023153 0.388542 0.158593 0.294813 0.233344 -0.064447 0.051276 -0.065971 -0.119556 -0.010615 -0.006477 0.316395 0.341970 0.179673 -0.674242 -0.084336 0.168783 -0.061395 0.220099 0.157120 -0.103316 0.030300 0.311228 0.177889 -0.330290 -0.224318 0.145946 0.236396 -0.565246 0.001381 -0.181847 0.341659 -0.493312 -0.900777 0.322225 -0.011310 -0.319487 -0.499223 -0.133256 -0.278003 -0.194941 0.270037 -0.086315 -0.357288 0.192892
2158 0.052367 0.308810 0.464201 -0.240975 0.187401 -0.151568 -0.390503 -0.552759 -0.134377 -0.066797 0.002883 -0.361601 -0.410308 -0.317700 0.416484 -0.497652 -0.268815 0.736026 0.472652 0.157645 -0.260206 0.042790 0.280864 0.369519 -0.015998 -0.178476 -0.133586 -0.204156 -0.375422 -0.016585 0.336864 -0.074639 -0.400885 -0.244870 -0.294816 0.125173 -0.495313 -0.130684 -0.221291 -0.083340 0.197536 -0.255420 -0.108746 0.273330 0.017798 0.115610 -0.122921 -0.147946 0.090862 0.193036 -0.200561 -0.137065 -0.073342 -0.462238 0.317666 0.341629 -0.428148 -0.071884 0.112593 0.650691 -0.266122 0.304622 -0.656242 -0.109540 -0.364973 0.289887 0.278411 -0.040868 0.130517 0.044923 0.352592 0.176253 -0.387844 -0.188142 -0.244042 0.155686 0.321938 -0.393855 0.037472 -0.244181 -0.091618 0.180529 -0.144571 -0.226992 0.091244 -0.115261 -0.251410 0.417065 0.252282 -0.087219 -0.481096 0.185483 -0.281277 0.055723 0.232938 0.056148 0.406394 0.459588 0.483651 0.083588 -0.480176 0.731029 0.467496 -0.142955 0.085438 -0.156896 0.245734 -0.128189 -0.414548 0.524218 -0.340310 -0.676159 -0.154301 0.320082 -0.081008 -0.059455 0.354420 0.173031 0.447492 0.446922 -0.210617 -0.360802 -0.211784 0.499669 -0.043238 0.544849 0.355074 -0.012502
596 0.091808 -0.430097 0.140051 -0.249291 -0.763286 -0.310451 0.208251 -0.758478 -0.848700 0.021975 0.114045 0.172949 -0.156785 -0.150737 0.384827 -0.189925 -0.480427 -0.482654 -0.143192 0.028820 0.324133 0.471608 0.218745 0.060058 0.525971 -0.026104 0.779451 0.208874 -0.151367 0.510365 0.300597 -0.569075 -0.200381 0.498723 -0.163735 -0.060074 0.162538 0.441895 -0.094770 -0.384303 0.273109 -0.148449 -0.471841 0.339553 -0.154872 0.356490 -0.101732 -0.516424 -0.134629 0.252493 -0.124389 -0.295913 0.079225 0.023208 0.255921 0.029557 -0.279996 -0.261744 0.332168 0.039437 -0.237474 0.247427 -0.514949 -0.294079 -0.255548 -0.377502 0.411365 -0.053658 0.158678 0.410707 0.844274 -0.157057 0.029616 -0.355205 -0.110612 0.097943 0.621898 0.831860 -0.115039 -0.037467 0.058609 -0.013855 -0.291529 -0.581479 0.073990 0.046977 -0.927270 0.494547 -0.394083 0.275762 0.442486 0.506920 -0.081656 -0.571159 -0.027014 0.376247 0.136355 -0.360866 -0.564088 -0.209806 -0.267700 0.305009 0.759628 -0.423479 0.564689 0.322198 0.518574 -0.719297 -0.064762 0.608626 -0.254586 -1.223933 -0.119211 0.306597 -0.190243 -0.406009 -0.372096 0.203185 0.188976 0.032841 -0.650346 0.127279 0.158103 0.193744 -0.465688 -0.118025 -0.073844 0.915765
1302 0.270728 -0.432435 0.169891 0.153222 0.181264 0.281141 0.055563 -0.374173 -0.296359 0.629635 0.193565 0.039849 -0.276178 -0.042058 -0.308799 -0.319918 -0.271382 0.215444 -0.050794 0.307084 0.361904 0.085398 0.083313 0.450061 0.175288 -0.237115 0.170984 0.091552 -0.196201 0.310409 0.137811 0.096478 -0.121653 -0.071100 0.683919 0.291541 -0.001643 -0.018133 0.021801 -0.069014 0.383530 -0.145150 -0.390165 0.137724 0.336451 0.225609 -0.534749 0.129397 0.246084 -0.284788 0.172274 0.596174 -0.193942 -0.516184 -0.065955 -0.570555 -0.009529 0.031253 0.235840 0.117284 0.101442 0.050607 0.057515 -0.366073 -0.230118 0.309413 0.341720 0.024096 0.166025 0.074789 0.500015 0.136557 -0.238168 -0.729750 0.079474 0.209808 0.246538 -0.179690 -0.084474 0.276731 0.330318 0.245498 0.469961 0.209767 0.242780 -0.257401 -0.431267 0.243376 0.117327 -0.365276 -0.189985 -0.305077 -0.343620 -0.164003 0.357292 0.429727 -0.187904 -0.162840 0.005466 0.518471 -0.333772 0.559603 0.151381 0.165657 0.138967 0.075635 -0.380493 -0.397425 0.095597 -0.237622 -0.086261 -0.377209 0.040061 -0.022084 -0.293167 -0.298859 -0.077787 0.605246 0.566927 0.325798 0.236361 0.447543 -0.108493 0.267512 -0.168617 0.546569 -0.136474 0.505749
1174 -0.003388 -0.420666 -0.502600 -0.371959 0.006166 0.005502 0.063063 -0.860666 0.111118 0.322084 0.522189 0.256980 -0.015245 -0.240154 -0.112610 -0.070091 0.129894 -0.221735 -0.012258 0.023524 0.158887 0.334434 0.337463 0.369247 0.229255 0.040995 0.179280 0.453990 0.367132 -0.389051 -0.427006 0.245077 -0.453788 0.486180 -0.086904 -0.099407 0.207701 -0.173710 -0.494336 -0.342308 0.007201 0.085888 -0.249679 0.027681 0.448339 0.415655 -0.561749 -0.269609 0.547043 -0.003642 -0.219272 0.111581 -0.133626 -0.312366 0.370750 -0.101712 -0.207249 0.185251 0.221344 -0.238662 0.409029 -0.184053 -0.017883 -0.217068 -0.185693 0.443030 0.475323 0.095813 -0.087767 0.459680 0.071278 -0.320411 -0.056804 -0.776489 0.283682 0.004859 0.343680 -0.029227 -0.193452 0.178958 0.166454 -0.413733 0.252880 0.594405 -0.092160 0.112812 -0.676687 0.278503 0.155488 0.023844 -0.583074 -0.119322 0.100843 0.103895 -0.014157 0.233652 0.281089 0.169902 -0.118097 0.126302 -0.060213 -0.104578 -0.081394 -0.448271 0.086754 0.553280 -0.395541 -0.155875 0.093135 0.056947 -0.061814 -0.819165 0.118556 0.159962 0.125746 -0.071214 -0.174632 0.684186 0.116759 0.122883 0.719646 0.054438 -0.071857 0.044919 -0.435698 0.306817 -0.249800 0.668841
1285 0.359450 -0.266414 -0.344918 0.092128 -0.094380 -0.316989 -0.189388 -0.348342 -0.350745 -0.026902 0.283574 -0.078738 -0.284730 -0.195982 0.236959 0.070617 -0.207649 0.230399 0.074822 -0.039971 -0.507642 0.487882 0.062017 0.118008 -0.198181 0.050477 0.314683 -0.240537 -0.370840 -0.068081 -0.024771 -0.386304 -0.254527 0.051371 -0.086811 -0.350062 0.007535 0.469618 -0.252780 -0.941322 0.108419 -0.189511 -0.278698 -0.091689 0.413628 -0.214230 0.239213 0.028205 0.698686 0.051044 -0.556387 -0.084903 0.314105 0.137027 0.708417 0.040430 -0.167129 -0.410973 -0.009264 -0.051914 0.240069 0.202127 0.027485 -0.498962 0.496516 -0.138187 0.285600 0.141156 0.306220 0.205185 -0.190469 0.025774 -0.520680 -0.342833 -0.115656 0.055152 0.194484 -0.194914 -0.123921 -0.139390 -0.029049 -0.034888 -0.016702 0.114282 0.023676 0.461043 0.014799 0.472446 -0.256832 0.176792 0.026259 0.036759 -0.086738 -0.354553 -0.466823 -0.413515 0.001681 -0.338213 -0.333392 -0.174784 -0.005856 0.597813 0.380099 -0.156076 -0.102614 -0.473081 -0.134507 -0.180280 -0.456370 0.482526 0.008443 -0.519996 0.236739 0.136738 0.071150 -0.121579 -0.655623 0.162289 0.012987 0.258737 -0.306150 -0.298325 -0.275609 -0.650786 -0.610464 0.158032 -0.120956 0.432667
100 -0.052143 -0.302891 -0.013655 -0.008450 -0.486706 -0.353610 -0.471290 -0.141544 -0.440171 -0.159829 0.152054 -0.104153 -0.474361 -0.225228 0.121441 0.194810 -0.305731 0.039452 -0.477784 -0.386876 -0.049005 0.079397 0.314232 0.343981 0.123707 -0.001488 -0.102563 -0.421242 -0.082525 0.049522 0.231629 -0.477518 -0.060437 -0.096437 -0.104970 -0.064657 -0.324533 -0.074564 -0.478651 -0.419638 -0.100600 -0.426170 0.012253 0.016303 0.610682 0.039878 -0.312618 0.203258 0.780907 0.350403 -0.529990 -0.141122 0.485204 0.146568 0.617032 0.188095 -0.594297 -0.161080 0.121702 -0.142063 0.319584 0.270257 -0.197928 -0.888852 -0.132940 -0.363313 0.200641 -0.179979 -0.002775 -0.069008 -0.521360 0.147115 -0.474402 -0.277454 0.077180 -0.116609 0.349668 -0.350834 0.034376 0.104866 0.144413 0.061948 0.604591 -0.158237 0.033443 0.501872 -0.217082 0.445340 -0.199238 0.318804 0.310012 -0.102870 -0.123502 -0.047870 -0.218205 -0.238348 0.268892 -0.195273 -0.248533 0.252038 -0.191133 0.616619 0.544297 -0.706563 0.126500 -0.149480 0.047709 -0.257252 -0.484876 0.519789 -0.152701 -0.264073 -0.142375 -0.282504 0.038097 -0.265774 -0.433164 0.202791 0.127828 0.268942 -0.246892 -0.255980 0.055255 -0.339845 -0.305191 0.005372 -0.182857 0.282274
1403 -0.373701 -0.131909 0.077016 -0.042848 0.434205 -0.095035 -0.200792 -0.207307 -0.076013 0.175995 0.285805 -0.364392 -0.092497 -0.091629 -0.498588 -0.386635 -0.394527 -0.084060 -0.274242 0.370652 -0.148613 0.493779 -0.303929 0.189965 -0.196386 0.012998 0.226348 -0.106647 -0.188260 -0.094575 0.083930 -0.364523 -0.299166 0.365840 -0.211668 -0.097263 -0.060291 -0.429638 -0.312482 -0.693727 -0.138020 -0.033934 0.073387 0.080247 0.635841 0.233837 -0.018936 -0.016747 0.204510 -0.563368 -0.282033 -0.071598 0.297336 -0.415378 0.437892 -0.304804 -0.081563 0.081336 -0.125128 0.503785 -0.192848 0.214704 0.124018 -0.383102 -0.461068 -0.191922 0.651976 -0.211704 -0.230428 -0.077112 -0.248384 -0.059223 -0.076720 -0.219657 -0.299282 -0.169399 -0.064830 0.155075 0.091279 -0.071564 0.360586 -0.196412 0.204858 -0.187598 0.084098 0.341572 0.133973 0.203678 -0.164558 -0.087498 0.051729 -0.135422 -0.004505 0.031568 -0.036542 0.142469 0.336067 -0.341933 -0.141539 0.530826 0.070405 -0.173365 0.149304 0.018248 0.345990 0.439521 0.036006 -0.127146 -0.061854 0.567652 0.147321 -0.312876 -0.286493 -0.150816 0.219184 -0.219842 -0.149563 0.208135 -0.331848 -0.180026 -0.067156 -0.091472 -0.268914 -0.531317 -0.305189 0.187666 -0.395896 0.096099
1910 0.151778 0.298001 -0.033624 -0.290749 0.253345 -0.125596 -0.316731 -0.757019 0.270270 0.157940 0.367492 -0.332336 -0.382837 -0.532554 -0.245371 -0.461208 -0.092456 0.234351 0.189339 -0.203880 -0.047164 0.167652 0.417430 0.555504 0.309729 0.018129 0.228525 -0.111455 0.133777 -0.411986 -0.178401 0.573364 -0.536123 0.077602 -0.099038 0.043798 -0.044154 -0.088168 -0.121888 -0.224654 0.376996 -0.343954 -0.131278 0.121695 0.087940 0.173297 -0.736269 -0.451717 0.338708 -0.453451 -0.065540 0.093904 0.072308 -0.215759 0.308741 0.119924 -0.075233 0.361453 0.377951 -0.190792 0.017129 -0.073761 -0.051830 0.040084 -0.026098 0.359088 0.184164 -0.360207 0.172329 0.804418 0.323892 0.144407 -0.254201 -0.367967 0.141351 -0.124542 0.125206 -0.348938 0.167553 -0.309512 0.344352 -0.043628 -0.091602 -0.332757 0.262421 0.081943 -0.412343 0.247725 0.282769 0.252104 -0.276952 -0.572403 -0.117535 0.202202 0.176710 0.122249 0.554679 -0.056158 -0.002396 -0.044178 -0.475942 0.420508 -0.208273 0.389479 -0.176748 0.690183 -0.491924 0.272849 0.005194 0.541925 0.236355 -0.404829 0.051562 0.071177 0.188858 -0.221736 -0.391937 0.164201 0.221735 0.200315 0.080721 -0.220015 -0.197433 0.217068 -0.119649 0.115762 -0.176512 0.425105
2470 0.066955 0.086516 -0.177371 -0.253060 0.317486 0.021098 -0.217058 -0.563408 -0.166153 0.326463 0.240402 -0.439287 0.180237 -0.916904 -0.128339 -0.562067 -0.284097 -0.019232 -0.142856 -0.004473 -0.105169 0.072820 0.291967 0.533287 -0.163770 0.364318 0.412215 -0.385983 -0.074199 -0.612105 -0.285128 0.005321 -0.568181 0.056090 -0.164459 -0.379273 0.075994 -0.050840 -0.328335 -0.560069 0.235420 -0.220523 0.164148 0.163278 0.143470 -0.049549 -0.299676 0.096348 0.218275 -0.737213 -0.309706 0.170051 0.299149 -0.074803 0.369333 -0.154989 -0.144289 0.063767 0.028010 0.187066 -0.167993 0.020059 0.178483 -0.251231 -0.265065 0.193706 0.025788 -0.228360 -0.090624 0.532069 0.361866 0.035154 -0.356674 -0.137881 0.120874 -0.232040 -0.425649 -0.132918 0.274257 -0.404096 0.517951 -0.164309 -0.039985 0.079138 -0.295565 0.128502 0.024480 0.528130 0.399466 0.057453 -0.199102 -0.313333 0.208604 -0.156862 0.104451 0.293524 0.516785 -0.394123 -0.309221 0.144445 -0.152818 -0.146112 0.111536 0.298952 0.146950 0.825493 0.038757 -0.117460 -0.162004 0.087979 0.306244 -0.550580 -0.080331 -0.022960 0.354537 -0.361275 -0.699921 0.493542 0.271257 -0.080781 -0.142651 -0.291653 -0.220332 -0.028963 -0.135322 -0.135824 -0.381260 0.201651
2249 0.338357 -0.396170 -0.119001 -0.010667 -0.126836 -0.366323 0.506879 -0.222635 -0.507207 -0.780258 0.299206 -0.374945 0.195003 -0.070951 0.233977 -0.163204 0.321208 0.345983 -0.142996 0.198317 0.189035 0.305227 -0.018281 0.361429 -0.186542 -0.053262 -0.160207 0.011772 -0.395062 0.266066 0.102735 0.008855 -0.254497 -0.373430 0.099560 -0.626406 -0.425226 0.163569 -0.294367 0.043462 0.178441 -0.346461 -0.161084 0.083762 -0.091417 -0.018886 -0.256163 -0.286495 0.489506 -0.066099 -0.469422 -0.112862 -0.125198 -0.155014 0.024526 -0.102024 -0.377558 0.359994 0.116706 0.678765 0.269802 0.410167 -0.204499 -0.243583 0.181895 0.334188 0.223388 -0.147419 0.081540 0.280969 0.229327 0.186624 -0.334695 -0.550568 -0.284943 -0.071445 0.035139 -0.177638 0.193136 -0.303225 -0.041106 -0.015274 0.708965 0.073754 0.031976 0.411657 -0.232010 0.246171 -0.152999 -0.040509 -0.342894 -0.139942 -0.571034 -0.091734 -0.263880 0.279019 0.266648 0.259250 0.383222 0.571682 0.363644 0.386350 0.401404 -0.155880 -0.005838 0.446386 -0.241851 -0.451671 -0.033597 0.415958 -0.713544 -0.068650 -0.024175 0.471971 -0.043969 -0.296588 0.021374 0.106380 -0.251764 0.180266 -0.461331 -0.205833 -0.202079 0.345218 -0.270029 -0.125900 -0.311081 -0.120009
1329 0.430418 0.035165 0.196861 -0.030712 0.129882 0.006192 -0.629999 -0.246072 -0.177921 0.209971 0.290110 -0.388907 -0.314078 0.087241 0.357638 0.037597 -0.261135 0.137463 -0.542185 -0.156897 -0.062198 0.463300 0.352293 0.564288 0.248711 -0.253377 0.156729 -0.269665 -0.050520 0.193711 -0.081413 0.473596 0.089791 0.521267 -0.073898 0.205494 -0.180974 0.146828 -0.195522 -0.510161 0.166215 -0.162030 0.123862 0.061304 -0.060280 0.397746 -0.399392 -0.231746 -0.080908 -0.234585 -0.010027 0.238816 0.185109 -0.169342 0.033251 -0.106394 -0.361902 0.202835 0.977554 0.399740 -0.122392 0.090789 0.134710 0.257440 -0.320878 0.686341 0.229778 -0.508282 0.200525 0.344433 -0.224803 0.309621 -0.196282 -0.136826 -0.489828 -0.030357 -0.205878 -0.034838 0.156617 -0.225173 0.167442 -0.424710 -0.474571 -0.563287 0.096472 -0.464954 0.050440 0.621731 0.092487 -0.162989 -0.453700 -0.397032 0.039672 -0.128728 -0.060817 0.325602 -0.067716 -0.253459 0.106791 0.792148 -0.442266 0.131059 0.329641 -0.215902 0.022087 0.170844 -0.367032 -0.161123 0.015220 -0.048568 0.301900 -0.593115 0.469498 0.163709 0.002897 0.141543 -0.268343 0.412885 0.206479 0.183726 -0.277775 0.410933 -0.188779 0.515150 0.436501 0.327213 -0.658869 0.524670
1050 0.200873 -0.269236 -0.302307 -0.207817 -0.077848 -0.132865 0.051697 -0.460445 0.200883 0.205448 0.073206 -0.153693 -0.282845 0.171635 -0.351956 -0.450430 0.125158 -0.191464 0.033191 -0.332826 0.006569 0.457854 -0.154807 0.580776 0.039058 -0.306468 0.272159 -0.318421 -0.114726 0.008334 -0.257542 0.104578 -0.929672 0.624066 -0.030026 -0.367387 0.327923 0.043695 -0.255867 -0.109043 0.084874 -0.175866 0.274904 0.175308 0.166235 0.298121 -0.697512 -0.484153 0.187507 -0.042783 0.131226 -0.095800 -0.516959 -0.503127 0.520877 -0.165525 -0.363993 -0.045403 0.524028 -0.269065 0.162204 -0.115263 0.172596 -0.010221 -0.089608 0.438730 0.427958 0.253096 -0.375582 0.426202 0.490175 0.099573 -0.818287 -0.849394 0.088345 -0.474698 -0.259835 -0.019652 -0.008167 0.156006 0.059097 -0.132467 0.188245 0.208729 0.458456 0.155663 -0.623700 -0.142627 0.447958 -0.066258 0.307931 0.288611 -0.111805 -0.553502 0.200875 0.242468 0.321167 0.203641 -0.358855 -0.077063 0.196729 -0.023690 -0.035928 -0.306277 0.210676 0.160026 -0.092750 -0.117742 0.025942 0.228063 -0.038514 -0.313861 0.326087 0.255250 0.146655 0.024096 -0.030427 0.578877 0.477534 0.169299 0.045807 0.019175 -0.099095 -0.059128 0.483009 -0.052099 -0.464372 0.703661
1015 -0.128048 0.149464 0.105327 0.114200 0.016781 -0.150788 -0.733718 -1.277138 -0.276617 -0.111360 0.535474 0.305904 0.028006 0.311444 0.084614 -0.709520 0.619500 0.072471 -0.242125 -0.139195 0.220617 0.534448 -0.012889 0.821350 0.730808 -0.422366 0.496595 -0.456821 -0.295473 -0.072933 0.055996 0.008727 -0.802953 0.637412 -0.007193 0.153726 -0.136152 -0.256530 -0.065384 0.123321 -0.234122 -0.688559 0.003870 0.471244 0.205999 0.428684 -0.089548 -0.327178 0.769572 0.571071 0.329314 0.170320 0.182284 -0.107904 0.433967 -0.131284 -0.721492 -0.528919 0.426541 0.175474 -0.172513 -0.170930 -0.523159 -0.181370 -0.422933 0.024649 0.552502 -0.369712 -0.021774 0.261192 0.092702 -0.453163 -0.190082 -0.234080 -0.128075 0.150830 0.284384 -0.386804 0.012724 -0.276529 -0.191096 0.202062 -0.244753 -0.702666 -0.158981 0.464256 -0.007925 0.016871 0.132429 -0.132396 -0.200202 0.299706 -0.290409 -0.475634 0.164839 -0.287692 0.347974 -0.159770 0.166116 0.495540 0.247300 -0.159341 -0.300982 0.189229 0.469413 0.139231 -0.173167 -1.030293 0.460865 0.797271 0.279031 -0.138020 -0.409405 0.644825 0.133212 -0.319105 -0.488483 0.589668 -0.019942 0.044224 -0.367097 -0.058671 0.115767 -0.378730 -0.151180 0.140763 -0.615758 0.368380
