2708 128
0 0.008613 -0.0168599 0.0174045 -0.144482 0.0579005 0.109498 -0.0144731 -0.0348548 -0.0904481 0.0351619 -0.186106 -0.152679 -0.0581845 -0.0334461 -0.0206699 0.0246921 0.160199 0.0308319 -0.00710477 -0.00404003 0.0677444 0.0793306 0.0673975 -0.00260508 0.0407363 0.149156 -0.0855768 0.082113 0.129286 -0.0173896 -0.0236487 -0.0889548 0.0449442 0.205536 -0.0861742 0.106729 -0.0269162 0.0251908 -0.0558048 0.0593474 0.000977198 0.0570633 0.0260431 -0.0073865 0.0190349 0.00109801 -0.168899 0.216201 0.0648573 -0.0836603 -0.0255641 0.0356449 0.00402577 -0.103755 -0.0538112 0.0814935 0.0283303 -0.0086691 0.0622913 0.091632 0.0832003 0.0558424 -0.20875 -0.0312262 0.0410509 0.0659565 -0.0447456 -0.0174165 0.104443 -0.00327496 -0.0679154 0.0693928 -0.0452604 0.0940087 0.0358817 0.103244 0.0234658 -0.24245 -0.109519 -0.20848 -0.0323626 0.0960285 0.0333926 -0.0391097 0.0584166 0.184274 0.12221 0.173636 -0.128379 0.0723558 0.0478693 -0.134476 0.0181059 -0.0447019 0.0316861 -0.0335862 0.102 0.106281 0.0624382 -0.00232143 0.0169662 0.0679179 -0.084516 -0.0135783 0.0394069 -0.124914 -0.0353865 -0.0452331 0.0931393 0.0546926 -0.0162919 0.0860837 0.0305586 0.0918588 -0.166744 0.00786574 0.00227382 -0.0221861 0.0848949 -0.0547872 -0.00901377 0.021724 -0.0221123 -0.00581023 0.0986757 0.128228 -0.133691 -0.228894
1 0.0788344 -0.029376 -0.0405607 0.00201939 0.186153 0.0317906 -0.0504781 -0.0793883 0.0870128 0.0722256 -0.214838 -0.0156862 0.0604759 -0.00803676 0.0967356 -0.0267949 0.0125339 0.178466 -0.0548542 -0.0200964 0.0820369 -0.0505593 0.0351282 0.129419 -0.0128771 0.148029 -0.00622054 0.124012 0.128727 0.0650751 0.117282 -0.105139 0.0570768 0.208348 -0.0839417 0.0138429 -0.0370104 0.0778849 0.0406997 0.163057 0.0897266 0.0299534 -0.0177269 -0.122501 -0.0969917 0.0558557 -0.0844729 0.0241715 -0.0443929 -0.017133 -0.0267693 0.0512133 0.0385069 -0.0215414 -0.0579655 -0.0621366 -0.0960756 -0.0731887 -0.00156046 0.0547999 0.0944847 0.160612 -0.141163 -0.100429 -0.105967 0.0796282 -0.029379 -0.191919 0.170953 -0.0621726 0.00762992 0.0235147 0.0125511 0.00785616 0.0106581 -0.020346 0.0788302 -0.185073 -0.0891248 -0.215786 0.0994451 0.0565291 -0.0344044 -0.0773764 -0.0690725 0.0749798 0.0643232 0.154609 -0.082772 -0.0442976 0.0158707 -0.177924 0.0102897 0.159986 -0.00371938 -0.00805935 0.106176 0.0919556 0.197781 -0.0670053 0.00789912 0.109793 0.0394983 0.0321834 0.0251202 -0.0684747 0.0580801 0.0366002 -0.0159372 0.0714694 0.0403094 0.138674 0.105665 0.0786766 0.00398804 -0.041679 0.0590175 0.0319675 0.0532229 -0.0307702 0.104101 0.0102105 -0.0371778 -0.00358244 0.154411 0.0763732 -0.0504277 -0.0254009
2 -0.0328077 0.0398046 -0.0118243 -0.232734 0.0633629 0.00929065 -0.100791 -0.0278273 -0.165901 0.0649212 -0.0923678 -0.00403621 -0.131557 0.08753 -0.153911 -0.0329252 -0.00254855 0.0636646 -0.152956 -0.0380314 0.0684578 -0.0452275 0.0620494 -0.0161377 -0.114498 0.0237635 -0.00699122 0.0601422 0.0733871 -0.165259 -0.0692965 -0.113206 -0.0584606 -0.00448431 -0.047066 0.0836998 -0.0348569 -0.0367479 -0.0664887 -0.0255674 0.0191709 0.0266223 -0.00560831 -0.0618221 -0.177924 0.0765297 -0.0238851 0.116907 0.0335049 -0.089063 -0.0026483 -0.0289611 0.0977285 0.00522647 -0.0541518 -0.00583601 0.133881 -0.0473568 0.0420209 0.0374045 0.0053619 0.0578885 -0.111505 -0.0603663 0.0483086 0.119214 -0.0577082 -0.0505119 0.05964 0.0384304 -0.0285454 0.0113384 -0.0438512 0.119593 0.0588063 0.110595 -0.00613794 -0.107113 0.023322 -0.105422 0.0319466 0.103128 0.0387479 -0.044393 -0.0980292 0.135925 0.0503595 0.0643386 -0.0921813 0.0805168 0.191075 -0.0380995 0.102706 0.107877 -0.067745 -0.0300456 0.115043 0.154139 -0.04635 0.0079655 -0.0832722 0.0611873 -0.0133084 -0.0940706 0.00295203 -0.0568919 0.0564853 0.00720058 0.089118 0.12871 -0.205286 0.273289 0.0761937 0.0353818 -0.0970071 0.0430684 -0.089377 0.0730805 0.0730649 -0.157504 -0.0120747 0.0288815 -0.138002 -0.153384 0.0220287 0.182927 -0.166022 -0.0277263
3 -0.0310741 0.0507247 -0.0219172 -0.230216 0.033097 0.0318044 -0.105021 -0.0580951 -0.152017 0.0308117 -0.129357 0.00448432 -0.117771 0.0894494 -0.104352 -0.101766 0.036016 0.0897904 -0.0975697 -0.0594987 0.0861915 -0.00810318 0.0737021 -0.013672 -0.0546635 0.0497046 -0.0237502 0.0629263 0.102018 -0.0966794 -0.0516035 -0.119973 -0.0457354 -0.0170112 -0.0332886 0.0425021 -0.00991111 -0.0314761 -0.0677029 0.0274308 0.0439631 0.0261388 0.046942 -0.0770003 -0.188474 0.0212609 -0.0115238 0.167745 -0.0138457 -0.078158 0.0210389 -0.0198322 0.043629 -0.0459541 -0.0259672 0.0138149 0.0957431 -0.00107005 0.026868 0.0710689 -0.0281652 0.0672263 -0.155665 -0.118618 -0.0291437 0.142889 -0.114574 -0.0666274 0.0987603 0.0605063 -0.022907 -0.0147747 -0.0565405 0.0857169 0.0433201 0.110078 0.00150267 -0.0913896 0.0161252 -0.0952688 0.0440837 0.0905487 0.0684786 -0.0349765 -0.0453496 0.177044 0.0546028 0.0510411 -0.131524 0.062186 0.165128 -0.0738364 0.0780051 0.0601911 -0.0413203 -0.0440161 0.0973536 0.140734 -0.0752093 0.0733999 -0.0970921 0.0698031 -0.0378537 -0.0827079 0.0264099 -0.0626846 0.132433 0.00364353 0.126551 0.0602361 -0.21515 0.239803 0.0981167 0.0474921 -0.0798096 0.0394863 -0.0787228 0.0849684 0.101554 -0.164606 -0.00737344 0.0170092 -0.0922951 -0.146566 0.0410868 0.156123 -0.212982 -0.0671382
4 0.0554735 -0.0910011 0.0821163 0.0548878 0.0987997 0.238117 0.01323 0.0304308 0.0228905 -0.0897638 -0.112466 -0.0960274 -0.106227 0.00279435 0.0105562 0.170035 0.0308931 0.133505 0.00729404 0.0203933 -0.0129089 0.0152798 -0.0121861 -0.0257041 0.0307773 0.0764267 -0.0901785 0.0786496 0.199651 -0.0437376 0.00153376 -0.0488581 0.137093 0.0447416 -0.0610436 0.0704069 -0.123815 -0.10535 0.00614666 0.046203 -0.026762 0.0618763 -0.0885982 -0.0503201 -0.123384 -0.0902558 -0.149708 -0.0304693 0.0324736 -0.0323497 -0.0489019 0.0839589 -0.071867 -0.0535751 0.0665049 -0.0566195 0.0575734 -0.096226 0.164937 0.200545 -0.0482883 0.0862225 -0.122282 0.107358 -0.0450815 0.0359157 -0.113691 0.0226744 0.0778933 -0.0166838 -0.0809195 -0.14971 -0.0213652 -0.032577 0.0813231 0.0627716 -0.038304 -0.0576951 -0.0307928 -0.0799619 -0.0126441 0.180691 0.0960772 0.00744305 0.0133797 0.0267346 -0.0126175 0.0881481 0.0184032 0.201959 0.138981 -0.11625 0.0244478 0.0066837 0.0114896 -0.0764864 0.0767412 -0.0254683 -0.0286376 -0.119451 -0.0483926 -0.0283294 -0.0252743 0.123796 -0.159894 -0.169658 0.040921 -0.023795 -0.0280819 0.0531466 -0.0128587 0.0988812 0.243018 0.0216727 -0.124909 0.0859731 0.131022 0.065847 0.0544528 -0.0469178 0.0605645 -0.0566031 -0.00498801 -0.114326 0.145401 0.147355 -0.027875 -0.014783
5 0.0697942 -0.038233 0.0351895 -0.0931411 0.0816553 0.178006 0.078292 0.0852447 0.0551356 -0.199957 -0.116462 -0.00710272 0.0187311 0.0300369 -0.0385278 0.0829381 0.0681084 -0.0244215 -0.0164512 -0.000973239 -0.0311953 0.00316291 0.0839804 0.070618 -0.0390997 0.124133 -0.00345565 0.0883828 0.140537 -0.0640321 -0.159896 -0.120722 0.0102031 0.119073 -0.0463391 0.0144056 -0.00235552 -0.0383709 0.0991622 0.0716813 -0.0664039 -0.0144671 0.00554816 -0.030948 -0.0569603 -0.098638 -0.166708 0.13032 0.0974627 -0.0193113 -0.0805624 0.00870986 -0.00316739 -0.0293057 -0.0974551 -0.0167641 -0.0949355 -0.0275599 0.160008 0.169715 -0.00187969 0.00989341 -0.194463 -0.0611297 -0.0255702 -0.0109801 -0.0299839 -0.00927822 0.0235429 -0.0881057 -0.0550718 0.0117903 -0.0315608 0.0839244 0.19358 0.117592 0.0804826 0.0571364 -0.142737 -0.184083 0.0302227 0.125293 -0.0401519 0.00428969 0.0482754 0.191333 0.0152094 0.111353 -0.270692 0.0136969 0.0561968 0.0505716 -0.0796233 -0.0203346 0.1133 -0.0326814 0.0487544 0.0232304 -0.0217471 -0.175146 -0.0981066 -0.0397077 -0.0245939 -0.0084547 -0.162912 -0.119759 0.0224675 0.0197715 0.0599178 0.0272552 0.00864779 0.153232 0.114052 0.0536252 -0.03012 -0.00835602 0.100326 0.119401 0.117828 -0.0691744 0.0938532 0.0819236 -0.0400253 -0.117424 0.0521287 0.0289058 -0.105513 -0.0425787
6 0.0850127 -0.0205869 -0.0215449 -0.0887225 0.0524835 0.0830755 -0.078358 -0.136135 -0.122924 0.0266016 -0.120328 -0.00625518 -0.0736009 -0.0418557 -0.00137476 0.0133503 0.133978 0.094193 -0.0863398 -0.034327 0.144044 0.0459414 0.121223 0.196104 -0.0926123 0.0126837 -0.0733315 0.127791 0.124385 -0.109409 -0.0926673 -0.10433 0.0474965 -0.0225719 -0.00472398 -0.0483915 -0.0174209 0.0253486 -0.136816 -0.0215219 0.0369269 0.079362 0.136024 -0.114704 -0.0412307 0.0614891 -0.128234 0.148636 -0.0315437 -0.0010299 0.0179438 -0.0205379 -0.0290402 -0.147049 0.0303125 -0.0322691 -0.0730224 -0.0574848 0.0116477 0.190204 -0.0970044 0.099604 -0.027459 -0.0584018 -0.0598252 -0.0345994 -0.0807434 -0.14275 0.0539158 0.00452355 0.016399 0.0934805 -0.0426992 -0.0391212 0.123815 0.0112297 -0.0607784 -0.114624 0.0199885 -0.139853 -0.00874756 0.154436 0.0170391 0.0546842 0.0278514 0.155644 0.0594047 0.0707662 -0.108286 0.114217 -0.0151863 -0.044 -0.00145555 0.0851547 0.0129813 -0.0197027 0.0267287 0.0594274 -0.0535916 0.0642498 0.0127167 0.0415339 0.017241 -0.0787423 0.157214 -0.162993 0.21445 0.0456086 0.007274 -0.107212 -0.108617 0.202372 0.0815537 0.0517223 -0.147991 0.0319021 -0.0992899 0.0344693 0.116715 -0.0871881 -0.0570844 0.0559212 -0.0101157 -0.0751639 0.103064 0.175732 -0.148301 -0.0427643
7 0.0457367 -0.0730592 0.00381258 -0.0955385 0.0299584 0.167776 -0.00168267 -0.0485987 -0.0905563 -0.0219571 -0.15743 -0.0575961 -0.0941 -0.0229503 -0.0511816 -0.0213399 0.0117369 0.0288464 -0.077588 -0.0465265 0.0454043 0.0320572 0.110532 -0.060433 0.131308 0.0263862 -0.059652 0.069018 0.116282 -0.0492241 0.0128982 -0.0584149 0.0425969 0.101637 0.0663216 0.172982 0.110582 -0.146057 -0.0552427 -0.00622001 0.0210363 -0.00543414 -0.0192642 -0.060995 -0.0502226 -0.0248557 -0.0948927 0.143581 -0.0346844 -0.137411 -0.0593275 -0.0900888 -0.0045081 -0.135174 0.0115283 0.0468441 -0.0400874 0.060854 -0.0693376 0.0427333 0.0675887 0.155548 -0.102013 0.00175637 -0.028388 0.0417635 -0.162633 -0.0198352 0.110066 0.0791862 0.00689392 0.0544991 0.0484077 0.16249 0.0477205 -0.00349423 -0.0277773 -0.00449405 -0.124546 -0.217457 -0.124235 0.0607716 -0.0508123 0.0507704 0.0675042 0.230724 0.122671 0.105695 -0.0873484 0.0868225 0.100149 0.0442111 -0.105068 -0.00101648 0.0479899 0.126565 -0.0113568 0.0979075 -0.0158877 -0.209873 -0.0623034 0.0414088 -0.0843994 -0.0983878 0.0695707 -0.044188 0.120924 -0.144462 0.0725983 0.0592292 -0.119454 0.132319 0.174748 0.0988792 -0.113975 0.0342245 0.0484803 0.0298231 0.0646744 -0.0404027 -0.065866 0.026406 -0.00618602 -0.0522174 0.105197 0.191607 -0.0176766 -0.126769
8 0.0528533 -0.00991841 0.0103336 -0.150268 0.172234 0.0539922 -0.0425712 -0.0124179 -0.00742355 -0.0325582 -0.047139 0.0203575 -0.0388597 -0.134743 0.0353561 0.0805672 0.0521081 -0.00604857 -0.13241 -0.0511863 0.109211 0.0478732 0.0243986 0.141213 -0.0549444 0.00415302 -0.0991092 0.0415483 0.159151 -0.0139765 0.0372116 -0.113213 0.00969329 0.278526 -0.00258296 -0.0433755 -0.021021 -0.0170524 0.046288 -0.0542619 0.0244358 -0.0246434 -0.0946233 0.064415 -0.190664 -0.0252809 -0.039539 0.1034 0.0642426 0.0870137 0.00435821 0.171541 0.0410988 0.0601608 -0.0861649 0.10363 0.0332118 -0.0680291 0.0231981 0.130738 0.0276931 0.194723 -0.177972 -0.0888453 -0.125855 0.0686814 -0.0360325 -0.0592947 0.0182073 -0.0859035 -0.0805158 0.133844 0.05145 0.00702724 0.0894452 0.0157286 -0.0425687 -0.033693 0.011166 -0.0658219 0.12786 -0.0228764 -0.118502 -0.0392326 -0.12236 0.149763 -0.00634005 0.0925688 -0.158165 -0.115785 0.104297 -0.0979851 -0.0660083 -0.0632681 0.118453 0.0783488 0.129483 0.0859537 0.00946471 0.00282656 0.0767753 0.103618 -0.00297747 -0.0479843 -0.00854909 -0.0687306 0.0903866 0.0717997 0.00203346 0.0856349 0.0331751 0.129771 0.130367 0.0236347 -0.01617 0.102211 0.023213 0.0889937 0.0485146 -0.0989224 -0.0644369 -0.00957321 0.0535506 -0.041995 0.0757332 0.209457 -0.112159 -0.182604
9 0.0791535 0.0984495 -0.0248605 0.00458974 0.123742 -0.0216084 0.0520644 -0.010307 -0.100467 -0.0222181 -0.0858336 -0.13863 -0.142124 -0.0998752 0.0763486 0.12441 0.141245 0.119843 0.118142 0.0977237 0.00865334 -0.056047 0.0855087 0.0525998 0.0717004 -0.0376208 -0.0344152 -0.0389279 0.161723 -0.0449127 0.0397969 -0.03762 -0.013701 0.0388793 -0.12775 0.112851 0.0305009 -0.142221 0.0223744 0.130392 0.0132129 0.0353504 -0.170728 0.0299011 -0.0873334 -0.0657162 -0.210904 0.161596 0.00850781 -0.0975745 -0.0662417 0.0311092 0.0192761 -0.0475132 -0.0392002 0.0421274 0.178003 -0.106718 -0.157837 0.0903443 0.0989036 2.95452e-05 -0.0338115 0.0584987 -0.0530348 -0.0340047 0.00871298 0.0362572 0.0469464 0.0186599 0.0722815 -0.0132052 -0.159191 0.0612325 -0.0102495 0.11495 0.115134 -0.183483 -0.0150313 -0.117842 0.130832 -0.0466824 0.011334 -0.0338182 0.0167469 0.106564 -0.03378 -0.0312428 -0.108836 -0.0981218 0.0872699 -0.0648361 -0.0747502 0.0152652 0.0291875 0.0840647 0.0240387 0.0671214 0.0301778 -0.00531224 -0.0486542 0.0084051 -0.0539469 -0.0245516 -0.0986454 -0.0888079 -0.0301089 0.0467926 -0.00523697 0.202438 -0.0998834 0.210176 0.0495041 0.0527293 -0.152412 -0.0987951 0.0271528 0.203757 0.148089 -0.0693377 -0.000653344 0.0104286 -0.0884074 -0.056696 -0.0738479 -0.0518488 -0.0264164 -0.129069
10 0.0466406 0.0475953 0.0348139 -0.230111 0.0210839 0.110503 -0.0458178 -0.0484172 -0.0103513 0.0672776 -0.120188 -0.128344 -0.00903708 -0.0154871 -0.0294657 0.0944383 0.0649096 -0.0139771 -0.101849 0.0092753 0.103309 -0.0584135 0.132171 -0.111889 -0.0344556 0.0193814 0.0373076 0.0497614 0.00101112 -0.0827914 -0.0566791 -0.0663821 0.019456 0.194119 -0.098196 0.109979 -0.169531 0.0459554 -0.0798683 0.147804 0.0430484 -0.0328822 -0.0076956 -0.052142 -0.00184262 0.029998 -0.0663904 0.23249 0.0743804 -0.134953 0.0121948 -0.0137814 0.0100617 -0.0805813 -0.00655386 0.0206807 -0.201436 0.116925 0.0203287 0.176106 0.0861403 0.103215 -0.170916 0.0846449 -0.0208155 0.00943697 -0.161632 -0.117144 0.0699815 -0.0902734 -0.0494916 0.0976003 -0.0228707 0.110858 -0.00381324 0.0649789 0.13521 -0.129227 0.0317229 -0.179211 -0.0152225 -0.0584105 0.0602929 -0.00966189 0.0282494 0.225725 0.0748899 0.127944 -0.0867856 -0.0426523 0.0519416 -0.194403 0.0768885 0.00227111 0.00250774 -0.0284343 0.182751 0.0286724 0.00933165 -0.0386795 0.039569 0.022468 -0.0850615 -0.0214892 0.0508909 -0.019237 -0.0249835 -0.0137581 0.13762 -0.00492483 0.0671338 0.0535438 -0.0557676 0.146792 -0.0163085 0.0416389 -0.00348645 0.047533 0.0977186 -0.00915606 -0.066575 0.0397476 -0.137896 -0.0166362 -0.0638034 0.086649 0.00976664 -0.0715945
11 -0.0245539 0.00476072 -0.0224472 -0.0885023 0.165827 -0.0756228 -0.102734 -0.0521491 -0.0331473 -0.0274455 -0.185409 -0.0861283 -0.0817244 -0.183499 0.0203036 0.0465502 0.0642238 0.100303 -0.153604 -0.0234937 0.0969323 -0.0846219 0.15004 0.0511301 0.0016955 -0.0875322 0.0646997 0.0505987 0.207415 -0.00680125 -0.0395897 -0.033535 0.0273864 0.0823444 -0.0143136 0.133618 0.11779 0.128184 -0.0370014 0.12366 -0.00537609 0.111155 0.124415 -0.0141561 -0.0608815 -0.019251 -0.132923 0.13234 0.0113864 -0.0796093 -0.0883389 0.107189 0.0532777 -0.0638347 0.050458 0.0764026 0.00155291 -0.0667014 -0.014295 0.0654313 0.0536132 -0.0715309 -0.179971 -0.0185202 -0.0899384 0.0997975 -0.125301 -0.0774507 0.126077 0.0466176 0.0233711 0.0197019 -0.0764121 0.00132236 -0.0327607 -0.0218666 -0.0631104 -0.0484196 -0.0274551 -0.297751 -0.0316801 0.0295102 0.090127 -0.0663337 -0.0867577 -0.0695951 0.037009 0.085188 -0.176852 -0.0363382 0.0440582 -0.0699086 -0.145341 0.0557803 0.0342336 0.0483336 -0.0156614 0.131932 0.0452009 0.0591396 -0.0425836 0.0189601 -0.0569987 0.0732602 -0.126812 -0.0788399 -0.115639 0.0629999 0.0665111 0.0518691 0.0648568 0.1692 0.0746129 -0.0405999 -0.155258 0.0436079 0.0267111 0.0130759 0.169024 -0.0507127 -0.066471 0.0572514 0.0187456 0.0133917 0.092013 0.1612 -0.000660242 -0.0353661
12 -0.155359 0.0157538 -0.028793 -0.150322 0.0127662 0.0466828 0.0185312 0.0104484 0.00202086 0.0843638 0.0860335 -0.0714933 -0.121256 0.0035014 -0.125327 0.0822145 0.0528596 0.0761778 0.121228 0.0370541 0.128125 -0.0270844 0.102092 -0.00500827 0.0926566 0.0998349 -0.116048 0.00352977 0.0839589 -0.126753 0.020986 -0.196654 -0.067662 0.098121 0.0768162 0.0776438 -0.0192284 0.0623523 -0.128509 0.0123551 -0.080602 0.0443811 0.0353356 -0.031029 0.00986187 0.0139245 0.0348567 0.132157 0.0667654 -0.118398 -0.0128916 0.131604 -0.0185807 -0.174271 -0.0561715 0.0826583 0.0119879 0.153533 -0.0190965 0.144121 -0.0546496 0.049031 0.000902348 0.0396212 -0.0391301 -0.0173122 0.00741232 -0.0628858 0.0572807 -0.109857 0.0723836 0.0449573 0.00311087 -0.00187742 -0.0262777 0.0252286 0.0630395 -0.0848104 -0.102602 -0.213917 -0.0170428 0.186368 -0.0486673 0.0537197 -0.0377271 0.146471 0.0724842 0.16632 -0.0266261 0.112904 0.0271279 -0.0177007 -0.00315302 0.0481886 -0.0401248 -0.0604715 0.0815682 0.170918 0.0147337 -0.0390797 -0.141715 0.0712673 -0.0121304 0.0463004 0.00576538 -0.0704203 0.00566034 -0.0209303 0.115945 0.102694 0.0428316 0.0161303 0.0642148 0.0576183 -0.260832 -0.0424388 -0.0855393 0.0632906 0.0734387 -0.00976888 0.135323 0.053159 0.0328064 -0.0816024 0.207276 0.0920755 0.0334765 -0.230895
13 0.0403881 0.167703 0.0454339 -0.115922 0.151015 -0.0189147 0.00160972 -0.0372063 -0.136119 0.0153609 0.0054243 -0.14125 -0.100901 -0.136873 0.0655982 0.11884 0.0983914 0.114257 0.0780806 0.0873837 0.0888449 -0.0826819 0.0675366 0.0903915 0.0299172 -0.0749825 -0.0327052 -0.00544935 0.153307 -0.135038 -0.0552293 0.0252432 0.00446699 0.0301153 -0.096237 0.0986425 0.0307904 -0.104346 0.0285539 0.115647 -0.0094496 0.0550886 -0.0673382 -0.0999008 -0.182378 -0.091604 -0.191094 0.117536 0.060859 -0.106413 -0.150133 -0.0197663 0.045965 -0.0197073 -0.0757884 0.0511459 0.0924875 -0.134537 -0.137363 0.0584227 0.110564 -0.00173012 -0.0772266 -0.00448949 -0.091553 0.00992972 0.0295191 0.0980317 0.0992683 0.0626466 0.0475753 0.0284885 -0.0842606 -0.0501084 0.0351494 0.137492 0.194528 -0.150921 -0.0757794 -0.0952894 -0.0411152 -0.0341894 0.0560357 0.0075531 0.0485271 0.13713 0.0141024 0.0309916 -0.0684945 -0.042014 0.0649768 -0.086679 -0.10757 -0.0152417 0.0637394 0.0969212 0.0276412 0.0468168 -0.0140675 0.0224694 0.0242125 -0.000875718 -0.081245 0.028706 -0.111864 -0.118413 0.0504882 0.0352552 0.0763728 0.111741 -0.152666 0.183917 0.0220597 -0.0335814 -0.0915793 -0.161452 -0.0292107 0.0737722 0.181493 -0.114978 0.0390763 0.102288 -0.0669248 -0.00546535 -0.0168719 0.0946148 0.0151493 -0.104062
14 -0.0326489 -0.0538175 0.0542468 -0.163651 0.100391 0.147633 -0.169291 -0.00390504 -0.0152879 0.0460777 -0.0274922 -0.103299 -0.0668711 0.127386 -0.061154 -0.0217544 0.223162 0.069691 -0.0311138 0.0172828 0.0449165 0.0694916 0.0841471 0.052238 -0.11952 0.182116 -0.00201561 -0.00248811 0.118482 -0.110569 -0.0104893 0.0176958 0.109179 0.0282648 -0.0686584 0.123204 -0.0588972 0.0527529 -0.121234 0.0532284 -0.0101652 0.119724 -0.0465803 -0.0363676 -0.0392445 -0.0119966 -0.025561 0.0937995 0.0555549 -0.0877246 0.0347649 0.0515818 0.00403727 -0.110844 -0.0345205 0.0954428 -0.0717448 -0.0498298 0.0292311 0.216565 0.0411714 0.00438162 -0.14942 0.0670646 0.112656 0.0544453 -0.0227332 -0.140616 0.0850814 -0.00563366 -0.118626 -0.0764463 0.0144513 0.105457 -0.0310304 0.0618378 0.0917751 -0.157021 -0.0342049 -0.21399 -0.00461836 0.159157 -0.0555169 0.047158 -0.0470911 0.21095 0.066132 0.155964 -0.0196079 0.0850781 0.14104 -0.143802 0.0687574 0.0767509 0.0925704 -0.0561833 0.00743444 -0.095523 0.0921215 0.108034 -0.00952928 0.0954535 -0.160714 -0.0101781 -0.0547486 -0.0319028 -0.0618688 -0.0558095 -0.0793239 0.0665981 0.0289951 0.133649 -0.0243232 -0.00358082 -0.0675113 0.00833627 -0.0877977 -0.0156315 -0.0518729 -0.00578112 -0.0561778 0.0399599 0.0617145 -0.0847054 0.068015 0.168353 -0.0329629 -0.0850931
15 0.081668 -0.0369973 -0.0593035 -0.176457 0.0903467 0.00357785 0.011706 0.00475398 -0.0447839 0.125053 -0.199449 0.000504613 -0.0112909 -0.052725 -0.0854118 -0.0231583 0.0640595 0.0299047 0.0702292 0.0535413 0.111387 -0.0402875 0.136388 -0.066453 -0.0465105 -0.00576614 -0.117048 0.0249351 0.0799897 -0.0732145 -0.0701583 -0.00980867 -0.0434931 0.124902 -0.155496 0.0145634 0.0136022 0.0349156 0.0773464 0.0291116 0.0838457 -0.0717465 -0.0119068 -0.114328 -0.147292 0.059019 -0.150878 0.108785 -0.0247903 0.0320019 -0.0586651 0.0787954 -0.0186829 -0.132894 0.0205039 -0.0268212 -0.00771086 0.0613027 0.149367 0.102793 0.00702728 0.1376 -0.0828811 -0.0622739 -0.0999827 0.00291419 -0.107164 0.0548067 0.076602 0.0224371 -0.0304491 0.0508798 0.103448 -0.0405792 0.0501381 0.165666 0.031638 -0.0469082 -0.122684 -0.171551 0.0324631 0.135087 0.0824406 0.00296509 -0.0404281 0.0677027 0.209076 0.0654999 -0.0145997 0.032908 0.102366 -0.108342 -0.0445394 -0.00354141 -0.110766 -0.0244342 -0.000705863 0.133185 0.122382 0.0274555 0.0398262 0.154876 -0.0508614 -0.136008 0.00289369 -0.0316649 0.038071 -0.00235595 0.210493 0.0867772 -0.11692 0.292789 0.0496676 -0.0254567 -0.140881 -0.0491608 0.0322836 -0.0230292 0.109148 0.0497779 -0.029165 0.0416238 -0.00556318 0.0263931 0.0566116 0.177541 0.0510337 -0.0814778
16 -0.0485635 -0.0732392 0.0133901 -0.148987 0.0518694 0.128149 -0.162988 0.0101695 -0.0284912 0.0172722 0.00307338 -0.0872651 -0.0587474 0.0303815 -0.0176148 -0.00314524 0.184855 0.0252299 -0.00974495 0.0304773 0.0393148 0.0371454 0.0926909 0.0846032 -0.203811 0.131155 0.0591326 -0.0445445 0.094822 -0.123669 -0.0131186 -0.000936501 0.110292 0.040668 -0.089395 0.115786 -0.111909 0.0555975 -0.091963 0.0199794 0.0211294 0.076443 -0.0506885 -0.0186734 -0.0482642 -0.0249217 -0.0768645 0.103112 0.0835657 -0.0923865 0.038621 0.0629022 -0.0404009 -0.149619 -0.0151319 0.0860393 -0.105545 -0.0848048 0.0262465 0.274336 0.0317231 -0.0230998 -0.157007 0.00930948 0.102855 0.0757679 0.0170484 -0.137733 0.116319 0.0196186 -0.124323 -0.0786979 0.0199689 0.0986311 0.0274742 0.0329021 0.100323 -0.16276 -0.064588 -0.141465 0.0167063 0.14117 0.0120129 0.0639043 -0.0487735 0.228294 0.0312932 0.122278 0.00101397 0.120112 0.142541 -0.105032 -0.0236165 0.0730831 0.0762734 -0.0409342 0.0438173 -0.0511873 0.0559863 0.12515 0.00164207 0.113285 -0.153095 0.029771 -0.0652159 -0.0549593 -0.0713791 -0.0086116 -0.102423 0.0502261 0.0140019 0.11448 -0.0659137 -0.0019953 -0.0502846 -0.0229264 -0.135507 -0.0691661 0.0226474 -0.053881 -0.062186 0.115213 0.0534349 -0.0298981 0.0704344 0.172572 -0.0158797 -0.137678
17 0.0425033 0.0733064 -0.0990037 -0.158693 0.0351908 0.0465292 0.0325052 -0.0516538 -0.0183922 0.139375 -0.225515 0.0489167 -0.0442423 -0.0795135 -0.0877461 0.0203808 0.0512743 0.057471 0.060052 0.0626332 0.0622044 -0.00768146 0.142205 8.4908e-05 -0.0171281 -0.0208769 -0.106701 0.085993 0.131739 -0.0790751 -0.135357 -0.0973653 0.017711 0.120875 -0.07919 -0.0275222 0.0475134 0.00788685 0.0584273 0.0474635 0.1592 -0.0745581 0.0703014 -0.124105 -0.0475331 -0.0322244 -0.175283 0.119628 -0.00169005 0.0286047 0.0235335 0.0808586 -0.00739455 -0.140737 0.00891764 0.0451136 0.0884746 0.0263214 0.0886507 0.0713108 0.0339099 0.101714 -0.111711 -0.0468387 -0.0900972 -0.0430287 -0.120294 -0.0336521 0.0950386 0.0142326 -0.0688639 0.0919415 0.0563566 0.0505416 0.0289427 0.117404 -0.032742 -0.105819 -0.127012 -0.146641 0.0678104 0.0972717 0.074831 -0.0981296 -0.0426811 0.098573 0.189363 0.09234 0.00732544 -0.000704277 0.0688373 -0.0581915 -0.0555042 0.100134 -0.0842869 0.0199827 0.0045619 0.156128 0.121221 0.078927 0.0834131 0.0989689 -0.00585415 -0.118454 -0.0626119 -0.0227798 0.049348 -0.0147219 0.0990756 0.0723838 -0.105836 0.294664 0.109091 -0.0261547 -0.114808 0.0035832 0.0229535 0.00503607 0.16983 0.0103126 -0.0987427 0.0215146 0.0241226 -0.0179568 0.00857807 0.193792 0.0429363 -0.106204
18 0.06741 0.0186025 -0.0984228 -0.111221 0.0762056 0.0188506 0.0215456 -0.0249612 -0.00407438 0.108132 -0.232109 0.0650214 -0.0237349 -0.0539505 -0.0942853 -0.00941579 0.0354574 0.0203011 0.0480056 0.0635192 0.117366 0.00488315 0.127129 -0.0714554 -0.0275175 0.00570575 -0.0826576 0.0378337 0.140746 -0.0811927 -0.08541 -0.0519282 -0.0680668 0.0825188 -0.10684 0.00959364 -0.00196859 0.0381508 0.0710823 0.0583896 0.14991 -0.0911344 0.0527678 -0.199863 -0.074151 0.00331906 -0.13543 0.152691 0.0113902 0.0316474 -0.000517424 0.0269058 -0.034756 -0.103382 0.00966415 0.0405846 0.0818822 0.0690769 0.129507 0.0698057 0.00652008 0.100575 -0.116552 -0.0211741 -0.099428 -0.0500336 -0.165798 0.0237867 0.10464 0.0360705 -0.025938 0.0591736 0.0706598 -0.00435178 0.00786375 0.15496 -0.0191865 -0.0732909 -0.0884265 -0.153993 0.0667708 0.136332 0.052812 -0.0939682 -0.0335848 0.0563143 0.211075 0.124097 -0.00183786 -0.00808143 0.091288 -0.003208 -0.0111645 0.0690642 -0.0999971 0.0235623 0.0470702 0.140422 0.172745 0.0472169 0.0953812 0.126654 -0.0145716 -0.105883 -0.0387759 -0.0303014 0.0346285 0.00894426 0.12373 0.0954866 -0.151833 0.300408 0.111329 -0.0332697 -0.122871 -0.00230843 0.0384895 0.0035607 0.129481 0.0463913 -0.0958029 -0.0111142 0.000420133 -0.0350369 0.0448758 0.148166 0.0511686 -0.0673977
19 -0.0459875 -0.123708 -0.0103703 -0.104739 0.0835263 0.135137 0.0330894 0.0288068 0.030403 0.0802687 -0.176194 -0.112383 0.0194655 -0.101888 0.109065 0.0586905 0.0883526 -0.0206948 0.00209381 0.0773689 0.0770791 -0.0134666 0.0930172 0.0301357 0.076674 0.177162 -2.56513e-05 -0.00236468 0.184503 -0.0231921 0.0522221 -0.158614 0.180186 0.19342 0.0377185 0.175534 0.00871476 0.0625703 0.0125459 -0.0096789 0.0649858 -0.00890976 -0.1169 -0.0522966 -0.0313886 -0.099306 -0.0747486 0.184181 -0.0717165 -0.104582 -0.0718379 0.107439 -0.00871931 0.01781 -0.0134248 0.0649826 0.150319 0.136295 -0.101632 -0.0001603 0.18526 0.0355674 -0.0837776 -0.0428618 -0.0639283 0.00397969 -0.0626795 0.0647009 0.156729 -0.0322894 -0.0350784 -0.0649822 0.0633472 0.0212211 0.0987031 0.0748115 0.005095 -0.174516 -0.0136505 -0.0452691 0.0848811 0.0194608 -0.0408074 -0.0740683 -0.0760587 0.160166 0.0604419 0.093275 -0.0856512 0.0799831 0.102564 -0.107141 -0.0846082 -0.0457224 -0.0239535 -0.00709108 0.0298724 0.0902679 0.00218945 -0.0132997 -0.126931 -0.0623029 -0.196366 -0.0407136 -0.0805279 -0.128816 -0.0302164 -0.0703877 -0.0464244 0.115162 -0.0517084 0.0424371 0.143363 -0.0307117 -0.154353 -0.0518268 0.0286743 0.0787975 0.031382 -0.0216736 -0.13762 0.0738332 -0.0818775 -0.0224511 -0.00999799 0.115418 0.0687566 -0.046662
20 -0.0235644 -0.0163917 -0.071843 -0.000448886 0.0751019 0.108808 -0.139333 0.0101486 0.0120912 0.0165419 -0.0678765 -0.189759 0.031456 -0.0223462 0.115884 -0.0725184 0.0539604 0.105259 -0.0423266 0.0219198 0.137129 0.0639351 -0.00170223 -0.022367 0.0757107 0.05767 0.0207493 -0.00432351 0.210429 -0.020656 0.110512 -0.134246 0.0718861 0.110416 0.0126827 0.0240938 0.10369 -0.0229193 0.0337565 0.019637 0.103833 0.162182 0.0326044 -0.140407 -0.00642474 0.0662837 -0.0978407 0.129022 -0.0686437 0.00354902 -0.108908 0.0456216 0.0282958 -0.113029 0.0265169 0.153955 0.104688 0.0461878 0.028767 -0.0899374 0.0266253 0.0931402 -0.20248 -0.0230173 -0.118166 -0.0137281 -0.0630483 -0.0261459 0.0819122 -0.0104344 -0.0692937 -0.027788 0.0133763 0.0319048 -0.0322084 0.0930044 -0.0245182 -0.0623357 -0.0648531 -0.0959714 -0.00664113 0.0435534 -0.117392 -0.057266 0.0937187 0.180483 0.113976 0.254474 -0.109166 0.0348204 0.00749709 -0.152335 0.0586412 0.02772 -0.0963888 -0.0273764 -0.0860879 0.0906153 0.0568221 -0.0685234 0.150314 0.0465291 -0.105721 -0.0336171 -0.0821591 -0.0821129 -0.130987 -0.157175 0.101437 0.171247 -0.0167619 0.152725 0.127984 0.0310423 -0.0903594 -0.0269155 0.0264996 0.0608564 -0.00559349 0.0124101 -0.00175624 -0.0622945 -0.113989 -0.0507716 0.00657164 0.0902237 -0.136323 -0.133191
21 0.0272684 -0.0127664 0.0786056 0.00755688 0.0061593 0.0487102 -0.0724413 0.153971 0.103688 -0.0710333 -0.103977 -0.132134 0.0340281 -0.043583 0.124888 -0.0221006 0.0256697 0.0580044 -0.00426269 -0.117907 0.128106 -0.0363906 0.0736182 0.0449951 -0.0447677 0.194358 0.0375436 -0.0826677 0.172281 -0.126647 0.156471 -0.0500322 0.0803082 0.258973 -0.0593741 0.20435 0.0622646 0.0175517 0.0231001 0.0973996 0.0669326 0.0248892 -0.027415 0.00907717 -0.0230639 0.000429193 -0.0357175 0.0539711 -0.0220747 -0.0602483 0.0141142 0.0358362 0.000774393 -0.0309042 -0.0889229 0.142673 0.088879 0.0168893 -0.0679477 0.000410646 -0.00391362 0.0702963 -0.0743943 0.0147834 0.0172514 -0.118129 -0.0846699 0.0325292 0.103217 0.0369378 0.0290861 0.00311158 -0.00218941 0.154697 0.0512835 0.0233002 0.0298032 0.0118597 0.110283 -0.0396153 0.0627677 0.047382 -0.0490721 -0.082171 -0.0106761 0.0927329 0.236361 0.102372 -0.0175929 0.0600931 0.0347164 -0.120554 0.106567 0.0567209 0.0305235 -0.0129951 -0.0409236 0.0813655 0.0532126 0.0268381 0.0212243 0.142601 -0.0367766 0.0249345 -0.0110008 -0.00902417 0.0518147 -0.0972455 -0.0875335 0.226081 0.175572 0.146103 0.129271 -0.0367318 -0.122457 0.0316652 0.0943352 0.176304 0.173594 -0.0755966 -0.0368196 0.00759067 -0.0728726 -0.0316415 0.0739224 0.152193 -0.158702 -0.0122786
22 0.0352587 -0.0561395 -0.0621851 -0.0283994 0.0300449 0.0442223 0.119961 -0.00825081 -0.138154 -0.0152981 -0.185343 -0.0352383 -0.0297309 -0.0168507 0.00774555 -0.037219 0.0672491 0.0351216 -0.0668406 0.0365765 0.0157351 -0.0697266 -0.00692162 -0.0476335 0.0380817 0.153391 -0.0947134 0.0971998 0.165037 0.0316662 -0.00663148 0.0281589 0.00775898 0.0898077 0.00304526 0.0175353 -0.0215036 0.0266856 0.0407658 -0.00106679 0.0965414 0.117928 0.0272325 -0.0557424 -0.00186802 -0.125034 -0.0926562 0.173204 0.0724889 -0.0378321 0.0222325 0.0321543 -0.104549 0.00418517 0.0281301 0.113832 -0.0327282 -0.104822 -0.005439 0.162435 0.00895645 0.22812 -0.156182 -0.0318998 0.0834448 0.0206358 0.0846195 -0.0649574 0.108382 -0.00783347 -0.0622083 -0.133672 0.0992806 0.12794 0.119373 0.092223 0.0366838 -0.126268 -0.124108 -0.0462305 0.0288701 0.106147 0.0704876 -0.0464259 0.086769 0.0945732 0.0648839 -0.00229206 -0.05278 0.0310187 0.258779 -0.033843 -0.00521195 0.191768 0.0288648 -0.0831797 0.0330345 -0.0225171 0.0905991 -0.0235612 -0.107373 0.0687364 0.0403546 0.015675 -0.0700173 -0.129715 0.115102 0.126708 0.0413285 0.0397121 -0.170813 0.148115 0.0672815 0.0282085 -0.0421957 -0.0088421 -0.00846684 0.084444 0.0230254 -0.217192 0.00692037 -0.149296 -0.0116091 -0.138286 0.146015 0.030439 -0.102716 -0.142416
23 -0.0741447 0.0320417 0.0538091 -0.112575 0.0338679 0.104637 -0.086383 0.00761691 0.0538862 -0.0355756 -0.168083 -0.0312619 -0.0574073 0.0233991 -0.0395721 -0.00928776 0.121967 0.0132137 -0.0661969 0.000274941 0.0781084 -0.00983879 0.0703029 -0.0316917 0.0871832 0.134955 0.000723242 0.0165592 0.0628221 -0.0360248 -0.0875601 -0.178594 0.0805084 0.0999485 -0.126 0.180169 -0.0731434 -0.0071068 -0.135793 0.0250994 -0.0214105 0.0080947 0.0497325 -0.0823896 -0.0320228 -0.0375428 0.0468402 0.129072 0.0323035 0.0512911 -0.0880486 0.0595042 -0.0421742 -0.0884494 -0.0122741 0.103208 0.12325 -0.031743 0.0901449 0.176741 0.163421 0.0860289 -0.113196 0.0401445 0.0495455 -0.0345345 -0.0482248 -0.064096 0.0562859 0.0191267 -0.170339 0.126576 0.0218991 0.0398913 -0.0502194 0.117967 0.113053 -0.0597349 0.0236422 -0.181002 -0.0812307 0.0224353 0.0308768 -0.0745111 0.0185846 0.0794883 0.00401673 0.135907 -0.155407 0.102908 0.199528 -0.113983 0.141708 0.139048 0.0138028 -0.0725824 0.159572 -0.0429527 0.0354117 0.0719133 -0.0505509 0.000434181 -0.0584482 -0.0180329 -0.132931 -0.127627 0.00100383 -0.0289143 0.0373254 0.112337 -0.0535225 0.118145 0.130139 0.163542 -0.111507 0.111275 0.0321799 0.0713234 0.0226178 -0.100801 0.0457855 -0.158718 -0.0193285 -0.0744904 0.141139 0.0625013 -0.0308482 -0.100766
24 0.0149526 -0.0455841 0.0238164 -0.104454 0.018416 0.14428 -0.108267 -0.00647667 -0.0876181 0.0246572 -0.0559839 -0.104352 0.0916039 -0.0741973 -0.10212 0.0444104 0.20974 0.0490648 -0.0324804 -0.0277227 0.0960781 0.112723 -0.0924867 -0.00286875 -0.0970148 0.106166 -0.0905467 -0.107583 0.149796 -0.127838 -0.00392683 0.0559131 0.089557 0.0853127 -0.126767 0.0835963 -0.0268626 0.00365371 -0.104757 0.0389962 0.0823647 0.123792 -0.0346092 -0.0525852 0.00343824 -0.102568 -0.0809749 0.111161 0.107783 -0.119685 0.0365927 0.0190415 -0.046116 -0.115026 -0.0989246 0.0599407 -0.173261 0.0834833 0.104723 0.198949 0.0076345 0.0813403 -0.110471 -0.0241996 0.0882101 0.048513 0.0419735 -0.122056 0.0710865 0.0267807 -0.0293696 -0.0846567 0.0255566 0.0540968 -0.0813568 0.0575841 0.0349573 -0.177396 -0.0637418 -0.160256 0.00268087 0.140909 -0.00299028 0.00234618 -0.0785321 0.183397 0.0746591 0.0249246 -0.0330979 0.0956517 0.0818194 -0.145559 -0.000772394 0.038314 0.0818443 -0.0475292 0.138264 -0.0432981 0.117501 0.00467089 -0.0468498 0.0458777 -0.131207 0.0143159 -0.0230962 -0.0613385 -0.134546 -0.0691079 0.024629 0.106489 -0.0210136 0.0793416 -0.0693532 0.108901 -0.166677 0.0856782 -0.087836 -0.0351347 0.0601795 0.085928 -0.0177575 0.0368682 0.0598749 -0.013181 0.185208 0.153184 -0.00813162 -0.0687702
25 -0.081106 0.150434 0.0906951 -0.0405291 0.0438726 0.00574122 0.0466386 0.0383519 -0.157138 0.00651452 -0.0683553 -0.147415 -0.115196 -0.114838 0.0396652 0.00897211 0.075759 0.173757 0.0977396 -0.0376576 0.011851 -0.124308 0.0455478 0.0958399 -0.141823 0.0831745 -0.0521885 0.00254649 0.127359 -0.0342607 -0.0180639 -0.00836346 0.0810248 0.00937056 -0.0783657 0.138375 0.0278763 -0.195271 -0.0702892 0.0410053 0.0571194 0.0447797 -0.173493 0.060413 -0.0431931 -0.101876 -0.120567 0.210431 0.0125479 0.00846682 -0.0566381 0.0472667 -0.0920242 -0.144537 0.0771713 0.010623 0.0440618 -0.043314 -0.0501575 0.0237735 -0.0371008 0.074489 -0.00846651 -0.00130262 -0.0886784 -0.0942526 -0.0547387 0.130816 0.130713 -0.00279624 -0.0397379 0.0229543 -0.184844 0.0579775 0.0188587 0.108878 0.0932817 -0.175798 -0.110514 -0.132278 -0.0422487 -0.00698288 0.0109182 -0.0336286 0.0402138 0.162975 -0.0492962 0.034593 -0.0183675 -0.0229952 0.132795 -0.0878671 -0.0785116 0.0569649 -0.0353128 -0.0080334 0.0736126 -0.0721213 0.0199155 -0.0432661 -0.0474094 -0.0610328 -0.0279189 -0.0144793 -0.0712124 -0.0534541 0.0109629 -0.0640902 0.0601463 0.0862694 -0.0329166 0.160541 0.0628606 -0.0716509 -0.255364 0.0612881 -0.125464 0.18697 0.153031 -0.0287404 0.058267 0.065671 -0.1538 -0.00586208 -0.0306134 0.0673441 -0.0568102 -0.0475119
26 -0.0781997 0.0527477 0.0662824 -0.0975884 0.0897884 0.0240881 -0.0883706 -0.064711 0.0238172 -0.0403732 -0.0802846 -0.0586552 0.0164092 0.0520125 -0.0359286 -0.00216393 0.109026 -0.0736143 -0.0736616 -0.0676278 0.0620078 -0.0440142 0.0539927 -0.0195659 0.0307671 0.0353924 0.0237531 -0.0190073 0.0673613 -0.0599968 -0.117718 -0.144347 0.0404826 0.0680977 -0.0619631 0.182829 0.00604012 -0.0797531 -0.104476 -0.00999764 0.0176771 0.0396255 0.0282403 -0.0833514 0.0641314 -0.0976542 0.0528723 0.0506154 -0.0215015 -0.0568528 -0.163738 0.139518 -0.0617197 -0.141104 0.0325048 0.0804198 -0.0140084 0.0540264 0.0599897 0.112332 0.170207 0.101418 -0.13848 0.0407356 0.188704 0.0174254 0.0245182 -0.10717 0.00839703 0.0216039 -0.121012 0.131734 -8.67609e-05 0.0724718 -0.00958467 0.109524 0.100967 -0.0808127 0.0330536 -0.332144 -0.133027 0.103188 0.0632588 -0.0234993 -0.000439894 0.154596 0.029884 0.0486011 -0.0835352 0.118835 0.126225 -0.0356487 0.227136 0.0754267 0.0644736 -0.0394807 0.144746 -0.00410138 0.122183 0.0941286 -0.0558411 0.0449439 -0.158116 0.021728 -0.0371903 -0.0380967 -0.0882136 -0.0710373 0.072678 0.0733573 -0.0973009 0.0548633 0.0741867 0.0792278 -0.152907 0.104178 0.00215546 -0.0201787 -0.0475744 -0.0831103 0.0127273 -0.0147624 -0.030547 -0.022126 0.164466 0.0621647 -0.0646011 -0.116642
27 0.00383868 0.0889302 -0.012635 -0.0130571 0.00207198 0.162349 -0.0529952 -0.124113 -0.00528139 -0.012404 -0.19061 -0.0905384 -0.0694011 0.0305305 -0.0591597 0.0970014 0.0956348 0.029545 -0.0446006 0.0265002 -0.00355832 0.0186685 0.0847684 -0.0755238 0.134016 0.123504 -0.0195691 0.0869182 0.134198 -0.0235224 -0.0642009 -0.0890542 0.0597028 0.0313112 -0.0786878 0.0845855 -0.0361565 0.0793883 0.00778143 0.0151872 0.0814011 -0.0190994 0.140033 -0.120308 0.0961899 -0.0983254 -0.0812152 0.17806 0.0843919 -0.0161019 -0.00960681 0.0102554 -0.151844 -0.107957 -0.0672945 0.10868 0.0996489 0.00820662 0.10186 0.211172 0.0324027 0.136164 -0.121926 0.0744093 0.0390242 0.0145616 -0.0164983 -0.00546254 0.162331 -0.0694116 -0.0324804 0.074531 0.0388742 0.0286692 0.0887728 0.0280983 0.0895305 -0.202416 -0.0196064 -0.0425066 -0.0461193 0.0756862 0.0843821 0.0416236 0.0534979 0.0489998 0.0909112 0.0701327 -0.113085 0.0796453 0.23435 -0.0206671 0.0650143 0.160288 0.0205371 -0.0423829 0.150851 -0.0568231 0.0680981 0.00057269 0.0140224 0.00140577 -0.0593496 0.0622444 -0.110572 -0.157788 0.0906603 0.0636418 0.000321075 -0.0397162 -0.0588647 0.181339 0.181509 0.0753434 -0.00133809 -0.0508361 0.0336569 0.0618583 0.025398 -0.133968 -0.00825927 -0.162924 -0.0227626 -0.0786793 0.0453254 0.0969311 -0.0426202 -0.133213
28 0.0585809 0.10935 -0.116031 -0.0403731 0.0545842 0.144602 -0.142948 -0.0702681 -0.0980822 -0.120336 -0.200325 -0.140361 0.0136022 -0.0622559 0.0161462 0.0439557 -0.178568 0.0866724 0.00513161 0.0769043 0.224131 0.135242 0.109851 0.134998 0.00121499 0.112912 -0.0542044 0.0691978 0.125687 0.0390719 0.0405625 -0.00639783 0.114271 0.0133248 -0.00299626 0.0873812 -0.0576361 0.110892 0.00861329 0.161208 0.0223736 -0.0956273 0.0440885 -0.0425495 -0.152603 -0.052958 0.0314792 0.193112 -0.00823807 -0.0668789 -0.100348 0.0575349 -0.0163393 -0.0785776 -0.0504071 -0.0169208 0.109963 0.00778102 0.137763 0.150484 0.0245528 -0.0322511 -0.0311137 -0.0669394 0.00877616 0.0479076 -0.141384 -0.0527425 0.0670438 -0.0574595 -0.103102 -0.00169491 0.0446447 -0.0174156 0.18156 -0.00282724 -0.0353908 -0.0863275 -0.0609412 -0.12099 -0.0322185 -0.0126481 0.157058 0.127481 -0.065544 0.146493 0.0511044 0.110795 -0.102975 0.0726284 0.16325 -0.116901 -0.0276978 -0.0477034 -0.0221273 0.0632599 0.0245286 -0.0177091 -0.00186908 -0.0420769 -0.0590078 0.11282 -0.030712 0.0305493 -0.00121193 -0.0661988 0.0767211 0.0220258 0.107055 0.0792686 0.0103555 -0.0251642 0.128747 0.0152763 -0.200878 0.0156146 -0.0281104 0.0226555 0.0216574 0.00234237 0.0835598 -0.0820836 -0.079004 -0.030116 0.0182768 0.168444 -0.0495413 -0.0664621
29 0.0366396 0.0227294 0.062489 -0.0715628 0.0681617 0.133906 -0.0415376 0.0529387 -0.0156593 0.0381393 0.0483058 -0.129596 0.0289449 0.000476679 -0.0588087 -0.0538191 0.097507 0.0962478 0.0261859 0.00814706 0.0711872 -0.0267398 0.118897 0.0824532 -0.0122609 0.093222 -0.0586998 0.0678814 0.0383932 -0.0892675 -0.0229395 0.0107127 -0.0380745 0.079177 -0.0201944 0.164792 0.0991606 0.0260751 -0.0114993 0.0114428 0.041657 0.160884 -0.108213 -0.0175088 -0.0204897 0.0827366 -0.0692907 0.0493659 0.0483241 -0.137371 0.0396372 0.0873811 0.102974 0.0188511 -0.0105464 -0.0876791 0.0250701 0.0450988 -0.102243 0.123168 0.24456 -0.0243296 -0.0661506 0.0384342 -0.0549474 0.0285942 -0.0406319 0.00556146 0.0598645 -0.162539 -0.0208642 -0.00584861 0.0527676 0.144255 0.107712 0.0239243 0.0701461 -0.123126 0.0476752 -0.206282 0.0530712 0.0754163 -0.0252408 -0.0578088 -0.166473 0.120075 0.100244 0.0323148 -0.0150751 -0.0019463 0.0647442 -0.0821115 0.045294 0.0671788 -0.0165928 0.0110634 0.109838 -0.0328835 0.0588445 -0.0556126 0.0291347 -0.0286477 -0.137116 -0.0326371 0.0969213 -0.270693 0.127422 -0.0211119 -0.0162245 0.153182 -0.0738349 0.197351 0.12046 -0.0542298 -0.201741 0.0407059 -0.121052 0.0535636 0.169223 -0.200249 0.0586215 -0.0644541 -0.0406907 0.02422 0.162641 0.0460016 -0.0343558 0.0447085
30 0.0154918 0.105764 0.00693761 -0.1229 0.109048 0.029651 -0.065277 0.0127562 -0.0654995 -0.0443338 -0.102906 -0.00256966 -0.0764163 -0.038407 -0.113439 -0.0276696 0.0625565 0.139165 -0.015013 -0.0094059 -0.0271189 0.0047049 0.0390186 0.0617037 0.017436 0.102523 -0.0504286 0.0863036 0.107723 -0.0313302 0.020829 -0.0959459 0.055728 0.0368747 -0.0157245 0.16015 -0.0743542 0.0201192 0.0492967 0.0361314 0.10135 -0.111709 -0.00352817 0.0423114 -0.139997 0.0403037 -0.205815 0.17166 0.0235944 0.00702824 -0.0616527 0.0657047 0.109339 -0.100549 -0.0113595 -0.0840747 -0.182539 -0.156501 -0.01152 -0.0229751 0.0082329 0.093117 0.0374703 -0.0514122 0.0206159 0.0544113 -0.146111 -0.0672088 0.0761755 0.101268 -0.125963 0.111251 -0.0148376 0.0659551 0.076728 0.104399 0.161903 -0.243831 -0.0114862 -0.133333 0.063326 0.0199975 -0.0207347 0.160223 -0.0424693 0.0616742 0.225036 0.161754 0.0867489 0.0430356 0.0263851 -0.063035 0.0296259 0.0134003 -0.0160543 -0.0571132 0.0658316 0.0524886 0.045587 0.0701278 0.0255961 0.146739 -0.0881083 -0.0357577 0.0674225 -0.0122278 0.0418802 -0.0275968 0.0864622 0.089093 -0.0214782 0.121199 0.124527 0.0483808 -0.295528 0.0305851 -0.0535194 0.0530714 0.0616145 -0.0578745 -0.0432818 0.0899813 -0.109487 0.0352881 0.0215887 0.10671 -0.0222576 -0.105892
31 -0.0684875 0.113989 0.1134 -0.115113 0.0790904 0.0342553 0.0623148 -0.0629837 0.0133213 0.0972751 0.0243855 -0.0961111 -0.10641 -0.0724907 -0.00945942 0.0989402 0.165258 -0.00160179 -0.0496527 0.1398 0.0531475 0.0346451 0.15025 -0.0117398 -0.0370837 0.10404 -0.019298 -0.00914541 0.123354 -0.155803 0.017918 0.0297887 0.0165696 0.104932 -0.0652284 -0.0512459 -0.0124224 0.000565033 -0.0507443 0.103714 -0.0781268 0.000950754 0.0760877 -0.14165 -0.0874421 0.0227591 -0.0996228 0.0741424 0.155365 -0.0386701 -0.0315059 0.0827874 0.0565317 -0.0497879 -0.149818 0.0859663 0.0375873 -0.0641442 -0.0157313 0.0783447 0.0295793 0.115914 -0.101114 -0.0537414 -0.0146602 0.00359082 -0.00934436 0.0882737 0.114785 -0.0835611 0.0818662 0.130417 -0.00844944 -0.076439 0.0800896 -0.00040851 0.0253794 -0.145298 -0.0819958 -0.158671 -0.0672804 0.114803 0.0265415 0.0529262 0.112754 0.140925 0.0156586 0.144776 -0.121471 -0.0208134 -0.0195585 -0.0984302 0.00899231 -0.055494 0.127041 0.109165 0.0603262 0.120215 0.0310754 0.103855 0.0825039 -0.00535239 -0.00532747 0.0890993 -0.103206 -0.155607 0.237384 -0.0236206 0.0864228 0.0739763 -0.0455867 0.158498 0.0951458 0.01002 -0.066636 -0.143954 -0.103575 -0.0994415 0.118522 -0.0455833 0.0666447 0.0276016 -0.0487813 -0.00356614 0.130895 0.145725 -0.105722 -0.125986
32 0.0433931 0.137663 -0.0343496 -0.029325 0.170223 0.0248341 0.0942494 0.0285583 -0.0224574 -0.0434208 -0.0932313 -0.110563 -0.146496 -0.0406869 -0.0183513 0.193353 0.0512906 0.121003 0.0968966 0.0348494 0.024445 -0.0387257 0.0744027 0.0022763 -0.0185794 0.0611344 -0.0594896 -0.0423461 0.171165 -0.0676095 0.0505516 -0.0143763 -0.0102318 0.116931 -0.113101 0.0531245 0.0573388 -0.145108 -0.0252478 0.13899 0.00067449 -0.0379681 -0.180832 -0.0234756 -0.112514 0.0186559 -0.237441 0.107921 0.058961 -0.0340929 -0.0400762 0.0946842 -0.120287 -0.0786858 0.00606884 -0.0381537 0.20708 -0.0976923 0.0180189 0.0358404 0.0823713 0.0314004 -0.0249036 0.0311988 0.0456262 -0.0895094 -0.0129228 -0.00340104 0.0227931 -0.0595728 -0.0177733 0.0022332 -0.141573 0.084758 0.0871302 0.0610054 -0.0765378 -0.153538 -0.0643386 -0.142139 0.0748472 -0.0144965 -0.0229054 0.0216556 0.0769601 0.10816 -0.0839899 -0.0461839 -0.0572239 -0.0759273 0.211439 -0.123427 -0.097613 -0.0211001 -0.0252832 0.059813 -0.00331706 -0.0179901 -0.0264726 -0.0595281 -0.0325096 0.0184937 0.00611011 -0.0163565 -0.0973123 -0.145215 -0.0317147 0.0237724 0.107762 0.156243 -0.0398924 0.157493 0.00294589 -0.00294502 -0.20448 0.0393307 -0.0733493 0.207338 0.0980798 -0.0554186 0.0106017 0.126952 -0.133043 -0.0801478 -0.0156551 0.0227184 -0.101574 -0.038605
33 0.0206973 0.0347471 0.0462392 -0.062659 0.241916 0.0365253 0.0459069 0.100745 -0.0231608 -0.113226 -0.0185511 -0.113472 -0.0807493 -0.139083 -0.0775012 0.214455 -0.000452911 0.0930564 0.119512 -0.103211 0.0593464 0.0608709 -0.049997 0.0476637 0.0559401 0.0945688 -0.0413733 -0.0320864 0.145843 0.00572583 0.123193 0.0748986 0.126527 0.0873863 -0.0975869 0.125439 0.0311607 0.0132742 -0.015391 0.0899637 0.118032 0.0710135 -0.202209 -0.0797124 -0.0427506 0.0827518 -0.0474101 0.157731 0.120771 0.0789152 0.0649091 -0.0179388 -0.130182 -0.0772811 -0.071992 -0.0675951 0.129182 -0.143803 0.0215656 0.0584456 0.0202608 0.0558253 0.0322875 0.00791389 0.00538822 0.0331042 -0.0529778 -0.0215217 0.0427069 -0.0635671 0.0402465 -0.028464 -0.00794118 0.060066 0.16538 0.101681 -0.0294622 -0.162079 -0.0305008 -0.115356 0.170907 -0.0785853 -0.0852604 -0.0049256 0.0335397 0.0809119 0.0452965 0.0234401 -0.0569456 -0.0856738 0.0375382 -0.0932951 -0.048166 -0.131068 -0.00888449 -0.0106888 0.0511694 0.0216635 -0.0535163 -0.0401148 -0.0250877 -0.0152577 -0.0656412 -0.00527896 -0.113491 -0.114718 -0.0839659 -0.0216573 0.00844551 0.144645 -0.0390833 0.226001 0.0957711 0.151128 -0.0584384 -0.038189 0.0407653 0.0963544 0.114281 -0.185197 -0.058037 0.0152301 -0.0889757 -0.118496 0.0417674 0.0814325 -0.105336 0.00705175
34 -0.0937075 -0.117149 0.0774178 -0.24123 0.0375015 0.0878367 0.0102855 0.00277105 -0.0687885 0.0417984 -0.0269714 -0.125373 0.0252719 -0.0345637 -0.109916 0.0615132 0.0282378 0.0605276 -0.0665497 0.052811 0.10936 0.0750402 0.104428 -0.0294603 0.017197 0.0986729 -0.0941176 0.0294528 0.154093 -0.127859 0.0784229 -0.0744598 0.170024 -0.00790447 -0.00849764 0.0429665 -0.0339888 0.054765 -0.192391 0.0316362 -0.0887874 0.0714633 0.0890801 -0.0325938 -0.0350981 0.0332657 -0.0958481 0.174686 0.0422759 -0.0778497 -0.020478 0.0710411 -0.0182515 -0.089918 -0.11985 0.12424 -0.072 0.0431975 -0.120041 0.0377925 0.062822 0.01567 -0.101581 0.0787839 -0.110719 -0.095687 -0.0226289 -0.0989455 -0.0687431 0.0213569 -0.0438064 0.0746207 0.0714642 -0.0978573 -0.0417648 0.0378443 -0.0336535 -0.107961 -0.00204257 -0.217639 -0.0542307 0.125761 -0.0194482 0.0905426 0.00656263 0.0187061 0.144963 0.116288 -0.130769 0.206507 -0.0260486 -0.0457689 0.0988684 0.0880463 0.0397743 -0.101795 -0.0133558 0.138866 -0.0183616 -0.0404744 -0.072496 0.0248391 -0.0412293 0.0589159 0.00333336 -0.0677354 0.172908 0.155512 0.112859 0.0587067 0.0620688 0.0179588 0.188554 -0.0391882 -0.149826 -0.0763742 -0.0716689 0.0263563 0.0411866 0.0108652 0.107069 0.0738835 -0.00526463 -0.058745 0.149677 0.0496891 0.017271 -0.10897
35 0.00747455 0.15639 0.102999 -0.118126 0.0934258 0.0389467 -0.0222516 -0.0767362 0.00200535 0.0917173 0.0160408 -0.0751042 -0.0924125 -0.131126 -0.0278356 0.0906738 0.122853 0.054074 -0.0390342 0.144662 0.0347332 -0.0246048 0.117389 0.0813251 -0.0394298 -0.0235917 -0.0294546 -0.0290978 0.0775709 -0.117203 -0.0597101 0.0653365 -0.00327643 0.100023 -0.0962205 -0.0597316 -0.000351693 -0.0960782 -0.0389767 0.154589 -0.0180057 -0.0170501 0.115206 -0.125451 -0.133693 0.00228991 -0.0855793 0.0819104 0.138856 -0.0921221 -0.0869545 0.0530029 0.0096509 -0.0260197 -0.115118 0.0747625 0.0716924 -0.0809023 0.014396 0.0721852 0.0144922 0.120426 -0.108465 0.00305473 0.0358183 0.0345822 -0.0556329 0.101735 0.138729 -0.0556867 0.071786 0.060825 -0.0414134 -0.131685 0.162119 0.0613111 0.101554 -0.157754 -0.0879907 -0.122892 -0.134252 0.0536311 0.0535786 0.0795473 -0.00042351 0.141786 -0.000362075 0.0757126 -0.0991821 -0.0092295 0.0595485 -0.1145 -0.0408673 -0.0426563 0.14936 0.124579 0.0916472 0.0564893 0.00998804 0.0655338 0.103434 0.00373233 -0.0431842 0.0568857 -0.0829075 -0.123864 0.192678 0.0252824 0.0421246 0.0964727 -0.0926855 0.177858 0.0952724 -0.0189767 -0.0692402 -0.129529 -0.101621 -0.0783532 0.13533 -0.0773457 0.0266307 0.0319511 -0.0685656 -0.0120373 0.101091 0.169601 -0.133957 -0.119755
36 0.0156861 0.0313792 0.0612173 -0.0902966 0.105321 0.109618 -0.139273 0.0653347 -0.074842 -0.0534896 0.0557932 -0.0334137 -0.0361594 0.0483645 -0.0631638 -0.012958 0.0660837 0.0945069 -0.107721 -0.0556211 0.0700453 0.0403616 0.0778799 0.0409732 -0.0783845 0.0902416 -0.126718 0.00786813 0.0327098 -0.161099 -0.083052 -0.0356737 -0.046928 0.135382 0.030408 0.0729275 -0.00661478 0.00283071 -0.135127 0.0284085 0.128856 0.0637241 -0.181705 -0.0515855 -0.0738221 0.0573872 -0.0253516 0.0550066 -0.00877191 -0.0805421 -0.0476177 0.000801757 0.145969 -0.0439178 0.0537047 -0.0596779 0.0888585 0.0483168 -0.222973 0.0220366 0.0935684 0.0238179 -0.0948645 -0.0626667 -0.0747902 -0.0132878 -0.0654861 -0.0926159 0.175102 -0.120015 0.000514493 -0.00445867 -0.026947 0.0531294 0.0316037 0.0333203 0.0447237 -0.0988538 -0.0316301 -0.279343 0.035872 0.0978029 -0.00356274 -0.0329916 -0.20909 0.0697411 0.126615 0.0249707 -0.0425655 0.0692416 0.0759358 -0.063222 0.0704248 0.123374 0.0372298 -0.0639949 0.0431573 -0.00549807 0.0183204 -0.0229703 -0.000325929 0.0478419 -0.15411 -0.0689662 -0.0142434 -0.113695 0.0750341 -0.0724036 0.0699302 0.18884 -0.100319 0.161066 0.0575368 -0.00282035 -0.19228 0.131171 -0.119685 0.0973376 0.125104 -0.0727456 0.0575929 -0.00371599 -0.0269778 -0.048662 0.169804 0.113048 -0.0606697 0.0916846
37 0.0539825 0.019476 -0.0247996 -0.187727 0.0161181 -0.0622163 -0.0718401 -0.082484 0.0486297 0.0763532 -0.134621 0.02109 -0.0774115 -0.0501118 0.0192776 -0.0534723 0.0734736 0.0190287 0.00730682 -0.122311 -0.0144071 0.0613445 0.0617135 0.091228 -0.0239563 0.12438 -0.0779453 0.0440311 0.111538 -0.122001 0.0115878 -0.0489664 0.0374617 0.145399 -0.0823552 0.0378568 -0.0361322 0.0433318 -0.0443062 0.101011 0.00391997 0.0832506 -0.0308502 -0.0217152 0.06113 0.00124787 -0.126196 0.0126577 0.0701736 -0.204626 -0.116056 0.00158965 -0.110105 0.00142715 -0.0600233 0.0240702 -0.00584283 0.0487869 0.0794954 0.179553 -0.0265459 0.12506 -0.18003 0.0446037 -0.00949446 0.0400318 -0.0418453 -0.226031 0.0709869 -0.0398189 -0.120859 -0.0405982 -0.0123951 0.140111 0.0985266 0.110017 -0.0773426 -0.222359 -0.0479493 -0.266933 -0.0474238 -0.0278157 -0.0275402 0.00953411 -0.122674 0.02989 0.0839635 0.0988331 0.048632 0.0628653 -0.0207414 -0.165065 0.00586404 -0.0667525 0.0020894 0.12016 0.0624211 -0.0437358 0.0498728 -0.033485 0.0875155 0.0237464 0.00633699 -0.0654038 -0.031713 -0.0907465 -0.175944 -0.110915 -0.0342434 0.0624166 -0.124994 0.0706591 0.0890589 0.128935 -0.113457 -0.0164922 -0.00463033 -0.0348721 -0.0270637 -0.00802849 -0.0115919 -0.0240903 -0.103522 0.121117 0.0923137 0.222981 -0.101947 -0.0266828
38 -0.0423487 0.026131 0.068469 -0.133447 0.0249461 0.0308054 0.094902 -0.0369061 -0.0874264 0.0906707 -0.0122057 -0.0791506 -0.0529357 0.00330117 0.0027777 0.0312977 0.162942 -0.0201502 -0.0763172 0.117113 0.0842824 0.0203785 0.158876 -0.0463788 0.0597253 0.0875687 -0.115382 -0.0193354 0.163976 -0.177909 0.0148336 -0.0935874 -0.0126262 0.0750567 0.00193666 -0.0196347 -0.0216047 0.0294384 -0.15979 -0.0421885 -0.107949 0.04775 0.0560926 -0.0686257 0.048919 0.0576484 -0.124801 0.222162 0.128241 -0.0354844 -0.0472752 0.0930046 0.0570538 -0.167884 -0.113954 0.0541131 -0.0256744 0.0470827 -0.0595693 0.0692368 -0.0309536 0.0591871 -0.130804 0.038692 -0.0418867 -0.0945649 0.00235285 -0.0385112 0.0800042 -0.0294056 0.0555588 0.142613 0.0823959 -0.0722798 -0.0141967 0.054749 -0.0421366 -0.119068 -0.0747037 -0.204916 0.0465029 0.0998003 -0.0812353 0.0311024 0.0442172 0.104955 0.105231 0.11296 -0.170865 0.0126143 0.0596713 -0.0525504 -0.0402613 -0.0042445 0.0613299 -0.0843253 0.0232203 0.19772 -0.0106048 0.00804108 -0.0170486 -0.00168216 0.000497391 0.0211941 0.0092005 -0.110714 0.217105 -0.0115635 0.116798 0.0325731 0.00380938 0.104944 0.119164 -0.0103552 -0.104036 -0.103872 -0.0840727 -0.0551037 0.171586 0.0280901 0.0748068 -0.00426418 -0.0249334 -0.0740469 0.140267 0.0827352 -0.146042 -0.194054
39 -0.0152513 0.174519 0.00906795 -0.0505285 0.179058 -0.0351995 0.142491 0.00772028 -0.0593714 -0.0389438 -0.0436884 -0.048448 -0.094751 -0.0601832 0.0276187 0.153315 0.0482362 0.0746086 0.0807331 -0.0908264 0.081864 -0.0810607 0.0313866 0.0178932 -0.111121 0.0752259 0.0147594 -0.0153154 0.164554 -0.125906 -0.0251801 -0.0208158 0.0813422 0.0414686 -0.140618 0.00682653 0.0521084 -0.0617952 -0.1015 0.0853484 0.0607773 0.11795 -0.109103 0.0503421 -0.0599962 0.0761102 -0.221728 0.172838 0.118318 -0.0109309 -0.0542109 0.0370538 -0.073284 -0.190095 -0.0114489 0.115426 0.168341 -0.00687764 0.00898602 0.031121 0.0194735 0.0141903 -0.124136 0.071053 0.00640797 0.0239844 -0.054561 -0.0236235 0.0506412 -0.0230116 0.0601249 0.0162211 -0.109041 0.112022 0.105573 0.094239 -0.0203043 -0.170644 -0.0433888 -0.134126 0.0131003 0.0255395 -0.0278546 0.023352 0.0523632 0.166896 0.0215891 0.0485141 -0.0173834 -0.0674899 0.120677 -0.142703 -0.0800415 0.0352958 -0.0143819 0.0796257 0.0945091 0.00484294 0.0185829 -0.0635819 -0.0230823 -0.0116664 0.0636807 -0.00839049 -0.139455 0.0188069 -0.121565 -0.0784581 0.0725406 0.101348 -0.066228 0.129313 0.0857065 -0.0461094 -0.182694 0.0270258 -0.104655 0.125396 0.121856 -0.131139 -0.0364457 0.126867 -0.170722 -0.0780802 -0.00120862 0.0967245 -0.0668678 -0.108105
40 0.0861591 0.0565278 0.0960483 -0.0557359 0.0503034 0.0477339 -0.0032491 -0.0177921 -0.013285 -0.0117895 -0.0893736 -0.124049 -0.0397984 -0.132627 0.0772153 0.0782426 0.115239 0.119919 0.00195118 0.0893405 0.00412162 0.0401792 0.00331068 -0.0261199 0.0203268 0.0909455 0.0465956 0.0871022 0.195128 0.00140648 0.0344861 0.101523 0.0320702 0.0296653 -0.0670472 -0.0296856 -0.0188407 -0.0728003 -0.0616117 0.0200053 0.0681829 0.0492855 0.0353511 -0.119071 -0.0388671 -0.0565712 -0.0891572 0.149691 0.108311 -0.0036795 0.0972916 -0.0421078 -0.148572 -0.103228 -0.0202025 0.0887001 0.0378463 -0.05473 -0.0134268 0.18986 0.00696872 0.206332 -0.0467468 0.0489309 0.0431782 0.0329617 -0.0317469 -0.0228832 0.105117 -0.111133 0.0169917 -0.0893855 -0.164583 0.0666568 -0.0350051 0.112642 0.0502147 -0.197433 -0.101775 -0.14685 0.0462724 0.0119662 0.0409804 0.00582462 0.114075 0.0981166 0.104819 0.0395863 -0.0872286 -0.00245454 0.2096 0.0521985 -0.0286107 0.231916 0.0291446 0.030951 0.031528 0.051621 0.0924196 -0.0398272 0.00631032 0.0173724 -0.100749 0.0655962 -0.121875 -0.229167 0.0746602 0.038045 -0.0238795 0.0435433 -0.175667 0.153402 0.0428631 0.0320413 -0.0761519 -0.038757 0.0924176 0.111907 0.0538672 -0.0997699 0.022246 -0.0876051 -0.141014 -0.170915 0.05203 -0.00509486 -0.0771264 -0.098267
41 0.00988884 -0.0348526 0.0798033 -0.0338555 -0.0028474 0.056955 -0.0777953 -0.127999 -0.115098 0.0132196 -0.096393 -0.0611677 -0.0371589 -0.149574 -0.0529596 -0.135955 0.0413507 0.140083 -0.00785621 -0.006429 0.041543 0.0634808 -0.0111904 0.0679964 -0.0885693 0.0290209 -0.0683132 -0.172892 0.108136 -0.052234 -0.0103711 -0.0134377 -0.0895708 0.0870647 -0.0520793 -0.0247811 -0.139815 -0.0691831 -0.00502944 0.112068 0.0646239 0.159766 -0.0252426 -0.0246145 -0.0202142 0.0211299 -0.221815 0.159163 0.0736549 -0.138423 -0.0670118 0.129895 -0.0426948 -0.125546 0.00999035 0.104631 -0.032932 0.012567 -0.04421 0.0181431 0.0230235 0.119427 0.0109698 -0.00195063 0.0532438 0.0648004 0.0841881 -0.102007 0.0919573 0.0068788 -0.0986197 0.0496025 -0.0657629 0.0593301 0.0274673 0.0199142 0.0939662 -0.226991 0.0139627 -0.202961 -0.0056362 0.104905 0.00179133 0.0679786 -0.0351285 0.160644 0.0461882 0.119352 -0.191714 0.0969164 0.106714 -0.0672139 0.190184 0.142742 -0.00875678 0.0279594 0.0304247 0.00324331 -0.000835912 0.00244711 0.059957 0.102272 0.0158958 0.0570183 0.0948073 -0.159947 0.0179703 0.0433667 -0.0503158 0.0559046 -0.0567502 0.09668 -0.0208062 0.00944214 -0.0934252 0.0582525 -0.0491757 0.0827006 0.156055 -0.110215 -0.00512222 0.0462139 0.0592025 -0.0169674 0.0646132 0.198735 -0.161145 -0.0830516
42 -0.0439244 -0.123785 0.005148 -0.136681 0.12002 0.130544 -0.0867646 -0.000478237 -0.0331535 0.0699439 -0.0527119 -0.0761579 -0.106883 0.0638165 -0.106271 -0.0701681 0.249929 0.0334809 0.00883603 -0.0770111 0.0477976 0.0132564 0.0557316 0.0390178 -0.133254 0.127858 -0.0477684 -0.0989657 0.174219 -0.0667711 0.00554737 0.0119162 0.0758524 -0.0240807 -0.0286261 0.112717 -0.0384842 0.0616297 -0.126913 0.0296937 0.0490352 0.100962 -0.10637 -0.0564326 0.0447515 -0.0246509 -0.0949568 0.0896502 0.0775527 -0.0911666 0.0884685 -0.00414451 -0.0247845 -0.137086 -0.0668503 0.0730255 -0.104456 -0.048848 0.0576275 0.22491 0.0576473 0.000130397 -0.184946 -0.0297571 0.110209 0.0554464 0.055226 -0.119384 0.140737 0.0136516 -0.117461 -0.102777 0.0378476 0.0884095 -0.000708626 0.0287214 0.079015 -0.140695 -0.0387724 -0.112067 -0.0452617 0.108963 -0.0715596 0.0941787 -0.034235 0.221662 0.0428724 0.151158 0.0271994 0.0100062 0.0930659 -0.0835735 0.0349485 0.0332507 0.0920841 -0.10987 0.00123114 -0.118517 0.0706133 0.109788 -0.0095207 0.083912 -0.164654 0.0801786 -0.0604658 -0.015609 -0.0681848 -0.00451817 -0.0286617 0.0807268 -0.0471841 0.107041 -0.00569099 -0.0382545 -0.0650283 0.0697959 -0.00994247 -0.0939254 -0.00387139 -0.0319983 0.00579794 0.0965847 0.034516 -0.0545762 0.0880509 0.224678 -0.00497433 -0.109715
43 -0.0502534 -0.119563 -0.0811864 -0.125558 -0.119751 0.141329 0.0302711 0.00640384 0.00617405 0.018882 -0.0177727 -0.246166 -0.0298024 -0.0756952 -0.0427105 0.0104952 0.0350246 -0.014715 0.0869738 0.0426272 0.0506465 0.0360454 0.115949 0.000814479 -0.0381572 0.0827257 -0.0167494 0.045989 0.20408 -0.0696728 0.0111494 -0.0548583 0.0452485 0.0741024 0.0618772 0.0862353 0.0320043 0.061832 -0.0223321 0.0263193 -0.0574883 0.0296808 0.0680344 -0.0522018 0.0754565 0.042202 -0.0882018 0.220855 0.0278605 6.20438e-05 0.014543 0.0582634 -0.045476 -0.0174651 -0.13505 0.0584481 0.0938439 -0.0136679 0.0838463 0.145303 0.050307 -0.0212154 -0.13856 0.0591162 -0.0972019 0.0470374 -0.0421516 -0.0366607 0.0292513 -0.10689 -0.0976867 0.0612535 0.0154565 0.00234772 0.0569033 0.0577351 -0.0118529 -0.185919 -0.0392718 -0.204343 -0.0299242 0.110256 -0.017393 0.0154385 0.0852182 -0.049711 0.0167125 0.276514 -0.0910161 0.0262108 -0.00452542 -0.0797672 -0.046782 -0.0392342 0.0622321 -0.117547 -0.0771019 0.122533 0.0230084 -0.0713437 -0.114703 0.145007 -0.053372 0.106162 -0.121669 -0.132598 -0.0384425 0.0410754 0.19234 -0.0543163 0.0262028 0.0414731 0.148326 -0.0489642 -0.113239 -0.177851 -0.00233185 0.0474566 0.0741298 -0.156853 0.0925248 0.0411666 -0.034431 -0.0385366 0.134753 0.0460202 0.0301208 -0.159608
44 -0.0368813 -0.0413638 -0.0901717 -0.090653 0.103443 0.126368 -0.0770224 -0.054424 -0.103244 0.120054 -0.0974655 -0.161966 -0.114929 -0.0980664 0.130973 0.065555 0.0516235 0.0709833 0.0536729 0.0759269 -0.0276066 0.0881003 0.145057 -0.105701 -0.0604021 0.0946181 -0.0683316 0.019905 0.218235 -0.0323048 0.0426947 -0.149003 0.00484708 0.102861 0.0354234 0.103015 0.070344 -0.0807491 -0.0786263 0.105015 -0.0198571 0.0652565 -0.0298062 -0.0227297 -0.00354843 -0.0421324 -0.173865 0.0933694 -0.0235503 0.0632798 0.0489938 0.0669076 0.0643008 0.00567763 -0.0446023 0.0918111 0.0160959 0.0349206 -0.0364175 0.0477284 0.104464 -0.0717366 -0.107542 -0.0357056 -0.11712 0.0396139 -0.0859497 -0.00198286 -0.0378385 -0.0459185 -0.0808713 -0.0771868 -0.00915797 0.0773882 0.0544527 0.120101 0.0441158 -0.283357 0.0017099 -0.165675 0.0475361 0.0051873 -0.0926825 -0.0317437 -0.00936987 0.142134 0.0124848 0.133369 -0.0535054 0.0168984 -0.0651328 0.0819591 0.045661 0.22008 0.0545709 -0.0547156 0.0421717 0.0568009 0.0629052 0.0208069 -0.0397065 0.0500327 -0.142761 -0.0234638 -0.0390095 -0.0175155 0.0501667 0.121731 0.0566854 0.143213 -0.0830721 0.0522687 0.197942 -0.00225068 -0.133804 -0.046745 -0.037199 0.0432738 0.123301 -0.100962 0.131085 -0.0046056 -0.0660935 -0.0386877 0.156915 0.133898 -0.0135544 -0.03605
45 -0.0865703 -0.203471 -0.0302114 -0.0734089 0.0499131 0.107158 0.0234731 -0.00134794 0.0102159 0.187627 -0.125014 -0.156934 -0.12666 -0.166865 0.0476904 0.0529465 0.0285576 0.0634966 0.0224637 0.086565 -0.00566399 0.105151 0.0898068 0.131726 -0.0342569 0.0510107 -0.0533655 0.0300164 0.174117 0.198775 0.0820717 -0.158735 0.068762 0.0251139 0.0233137 0.192587 0.0571577 -0.0969667 -0.0710775 0.0409021 0.00149015 -0.00409291 -0.0326987 -0.0290354 0.0679637 -0.0698657 -0.161134 0.148807 0.0399282 -0.049567 0.0526392 0.0137528 -0.0743873 0.00394055 -0.0715119 0.018438 0.131051 0.0459305 0.0490979 0.0831447 0.0360468 -0.010345 -0.0951938 -0.00843943 -0.216384 0.00513295 -0.0692367 -0.0937929 -0.0618836 -0.0168546 -0.0581541 -0.00261228 0.00500723 -0.00522944 0.0453663 0.0977295 -0.0793986 -0.122597 0.0622738 -0.092762 0.00237129 -0.10839 0.0401209 -0.0978496 0.031858 0.0611288 0.0335353 0.194901 -0.0586931 0.0205673 0.043 0.00618537 0.0388957 0.138234 0.0498535 -0.0472935 0.0210845 0.132158 0.132155 -0.00616872 -0.138744 -0.0354444 -0.0752099 0.0292921 0.0483743 -0.0466731 -0.000124571 0.0205191 0.0893157 0.177349 -0.0205946 0.0138184 0.134441 -0.0448407 -0.162266 -0.0884062 0.090766 0.105895 0.129012 -0.036195 0.0372125 0.0828686 -0.0826383 0.0411288 0.0992691 0.162481 -0.0337617 -0.0590022
46 -0.0796258 0.00786946 0.0661624 -0.119442 -0.00258036 0.122563 -0.0896009 -0.0339767 0.0630726 0.0597913 -0.204132 -0.0764141 0.00803156 -0.00486352 -0.0239852 0.100601 0.0566628 0.0103718 -0.0667694 -0.0106004 0.148656 -0.0110116 0.0554283 -0.0701434 0.0690213 -0.0478126 -0.0343342 0.0286618 0.0383612 -0.109164 -0.0668628 -0.102086 -0.0142265 0.0804505 -0.0455862 0.0970859 -0.105151 0.0438621 -0.0590601 0.0533333 -0.0178305 -0.0887012 0.142194 -0.124599 0.0601494 -0.0213625 -0.00464511 0.134331 0.119967 -0.0931124 -0.095877 0.0152348 -0.0942115 -0.168165 -0.0659959 0.0312177 -0.0655174 0.136221 0.0873517 0.139147 -0.00290795 0.143323 -0.246817 0.0763372 0.0229191 0.0233013 -0.0863803 -0.0841841 0.152615 -0.162374 0.0507662 0.0859251 -0.0307485 0.0287884 0.0267381 0.0495926 0.170093 -0.207854 0.0535308 -0.138748 -0.0458346 0.0118507 0.0875202 0.0427226 0.137751 0.144164 0.148658 0.00652605 -0.0795801 -0.00457284 0.158814 -0.0909645 0.180455 0.0176903 -0.0314005 -0.0851313 0.231259 0.0447883 0.102734 -0.0354438 -0.0242641 -0.00977215 -0.0902223 0.00173586 0.0162356 -0.0634223 0.0126146 0.0138341 0.0294595 -0.116652 0.0309005 0.108182 0.0314491 0.0991509 -0.0315058 -0.0567945 -0.0491177 0.0051412 0.0255376 0.0087964 0.0497076 0.0419214 -0.0841626 -0.0168011 0.0257285 0.054039 0.03403 -0.149455
47 0.0658604 -0.09023 0.113387 -0.0786753 0.0265242 0.101498 -0.149963 0.0026091 -0.106023 0.100713 -0.140671 -0.0249372 0.0268513 0.0131624 -0.0691972 0.081137 0.177736 -0.0189299 -0.00192356 -0.0103876 0.124627 0.0575929 0.0193029 -0.00431088 -0.0690897 0.0515699 -0.103026 -0.0270737 0.237384 -0.0470317 -0.0670434 0.0473087 0.0739538 0.16465 -0.0867407 0.132215 -0.103429 0.0871926 -0.0652118 0.0751138 -0.00772603 0.0867821 0.0046876 -0.0273937 -0.0487227 -0.0652363 -0.0639723 0.121055 0.0837408 -0.0571806 0.0395764 0.0825726 -0.0230172 -0.120086 0.00257671 0.0369269 -0.086212 0.0700259 0.0714032 0.175712 0.0433355 0.0486585 -0.189104 -0.0340219 0.0567705 0.0879971 0.0089071 -0.115235 -0.0117506 -0.0350489 -0.0574567 0.0160704 0.020347 0.061523 0.0461538 0.0728067 0.109868 -0.130407 -0.0418453 -0.209644 -0.0445539 0.0461827 -0.0132536 -0.0350615 -0.0550433 0.108667 -0.0110437 0.103367 -0.142773 0.0925489 0.132541 -0.131075 0.0624479 -0.0155627 0.0511006 -0.125177 0.127414 0.0774666 0.0555505 -0.0338549 0.0286223 0.0752027 -0.0927813 0.0262976 0.0890658 -0.0393467 -0.072041 -0.0850905 0.0381576 0.202062 0.0773026 0.152118 -0.0611334 0.105265 -0.186267 0.0819039 0.0333519 -0.0898712 -0.0413342 0.015408 0.0315194 -0.00111342 0.00384624 0.041619 0.116402 0.176997 -0.0393613 -0.128584
48 -0.0253721 -0.0868096 0.0742735 -0.143067 0.0338222 0.182432 0.00879671 0.0815994 0.0236991 -0.0524459 -0.0884396 -0.0442482 -0.0320506 -0.165974 -0.227523 -0.0554007 0.0586087 0.077982 -0.134097 -0.152945 0.129348 0.0230237 0.176301 -0.0433226 0.0591535 0.0541437 -0.0318349 0.0521024 0.0724021 -0.150365 0.00345708 0.0394879 -0.0197762 0.137311 -0.0824514 0.0918246 -0.008777 0.149741 0.0346239 -0.058991 0.0609617 -0.027869 0.000908677 0.0356924 -0.0706378 -0.03752 0.0647234 -0.0455669 0.0131225 -0.143536 0.0946385 0.0911851 -0.014785 -0.120684 0.00682973 -0.00387463 -0.0452572 -0.0691138 0.0284334 0.103142 -0.0820887 -0.0485999 -0.111076 -0.0974007 -0.0706277 0.0639483 -0.106746 -0.115945 0.122858 0.109594 -0.0269523 0.0624144 0.10053 0.0886808 -0.0172339 0.0191538 0.0865605 -0.125639 -0.0510072 -0.251255 0.00455138 0.0174742 -0.0451258 0.0283829 -0.0436959 0.106257 0.112668 0.0776314 -0.0242475 0.130934 0.0344831 -0.111314 0.161017 0.0172548 -0.0369205 -0.0113356 0.0995213 0.0391309 0.0930945 0.102733 -0.0738779 0.0483877 -0.168659 0.0637477 0.0648476 -0.0269154 -0.0867224 -0.00562254 -0.0879644 0.0973439 0.00617504 0.0585997 0.0369476 0.161453 -0.0789629 -0.019018 -0.0340203 0.0202202 0.125579 -0.0831559 0.0137611 -0.00528975 -0.015481 0.0211734 0.180102 0.193215 0.0440249 -0.0536768
49 0.00908245 -0.104386 -0.071749 -0.109649 -0.0114291 0.10643 -0.0570594 0.0324455 -0.00614694 -0.059792 -0.0862474 0.0158106 0.0336194 0.000338428 -0.0773881 0.000925627 0.0742357 0.0118824 -0.0124652 -0.0400642 0.0919454 -0.0821193 0.0479506 -0.00414995 -0.094015 0.00477882 -0.094375 -0.058278 0.122881 -0.138158 0.020441 -0.0200876 0.135835 -0.0140473 -0.0806109 0.00933161 -0.0674917 0.00946313 -0.0727455 0.00401663 0.0404178 -0.0191376 -0.0266175 -0.0693635 0.0867098 -0.0261879 -0.13415 0.0285381 0.178274 -0.0726963 0.0711289 -0.132178 -0.045592 -0.168591 -0.0304154 -0.00553101 -0.0628656 0.0792942 0.0852681 0.247986 0.0365917 0.0206895 -0.17077 -0.110043 0.11305 0.21564 -0.137515 -0.0840634 0.129669 -0.0387878 -0.104508 0.0417442 0.0366903 0.0602408 0.0390913 -0.0269461 0.0577994 -0.157623 -0.103807 -0.0144727 -0.0206072 0.10037 0.0161513 0.0673411 -0.0854422 0.190741 0.116038 0.0969694 -0.00552171 0.0700904 0.143569 -0.0940676 0.0848624 0.117852 0.0343099 -0.0689525 0.189444 0.0773271 0.103977 0.152446 -0.0438624 0.0346747 -0.169779 0.131667 0.0324061 -0.0406845 -0.0464214 -0.0924927 0.0544075 0.0478903 0.00128984 0.0061845 0.032117 0.104326 -0.083511 0.0130716 -0.0455357 -0.0783809 0.12924 0.0181023 0.117054 -0.0120147 0.0211058 0.0465328 0.14024 0.159506 -0.0527154 -0.123527
50 0.0777382 0.0786113 -0.0141168 0.00441343 0.0810835 0.0516039 0.0478482 -0.0335169 0.0603868 0.0275537 -0.0855263 -0.0301443 -0.161378 -0.0711035 -0.0398395 0.157501 0.0904777 0.0828751 0.0917624 0.0274663 0.0613845 -0.0273365 0.0223043 -0.0395058 -0.115717 0.109804 -0.0567536 -0.0690316 0.258201 -0.0263086 0.130402 0.00975953 0.00179658 0.0902047 -0.0244916 0.0386375 0.0235553 -0.0802305 -0.0202799 0.136643 0.0318695 0.0345122 -0.094236 -0.0329388 -0.0753582 -0.106345 -0.148507 0.0426749 0.0809095 -0.0366636 -0.0389285 0.0379561 -0.109607 -0.16931 0.0174737 0.045559 0.0373784 -0.0451914 -0.0162684 0.0850972 -0.0538563 0.0931982 -0.0350803 0.0392172 0.0649201 -0.0379298 -0.0991098 -0.0391068 0.0952384 -0.0838267 0.022359 -0.0799286 -0.175141 0.0818635 0.0409411 0.1096 -0.0353198 -0.225603 -0.103139 -0.129878 -0.03343 -0.0164966 -0.0226081 -0.0130703 0.0125936 0.137643 -0.005989 -0.0697032 -0.0970857 -0.00396368 0.223866 -0.0740584 0.0349483 0.177375 0.00761426 -0.0185708 -0.0309384 0.032899 0.0108785 -0.161132 -0.058514 0.12533 0.0369174 0.0101458 -0.10031 -0.234161 -0.00739273 0.0152136 0.0894521 0.0789574 -0.0759168 0.118795 -0.077212 -0.02033 -0.147543 0.0221409 -0.0207022 0.255017 0.12609 0.016295 0.040014 0.0710335 -0.0926501 -0.103019 0.0386115 0.00340522 -0.0668963 -0.0504408
51 -0.063348 -0.0199335 0.0731005 -0.0250974 0.119846 0.0673914 0.14271 -0.0495498 -0.0203756 -0.0563272 0.0211951 -0.0302557 -0.0959776 -0.105133 0.0233148 -0.0811088 0.0455541 0.17234 -0.125225 -0.0332511 -0.0277224 0.0444784 -0.0109866 -0.0820993 0.0109502 0.0454323 -0.206157 0.066227 0.212413 -0.0307733 -0.0342233 0.0373852 0.00947403 0.114929 0.00119975 0.181055 -0.0278966 0.0487657 -0.0683893 0.148155 0.0188949 -0.0837152 0.0540624 -0.144532 0.0225028 -0.00558407 -0.146402 0.20102 0.0635719 -0.11147 -0.00615738 0.166431 -0.0903852 0.0422965 0.0449848 0.054414 0.030399 0.0711728 0.130875 0.00373875 0.0730852 0.124399 -0.184167 -0.0206606 -0.0738453 -0.0210275 -0.062751 -0.102955 0.104842 -0.132666 -0.133729 0.0630684 -0.0427849 0.0280527 0.168425 0.0406938 0.0527559 -0.0447855 -0.015714 -0.217493 -0.121601 0.0391879 0.0121185 -0.103363 -0.0871783 0.087002 0.0051418 0.112753 -0.0442365 -0.0136877 0.0306517 -0.171985 -0.0315226 -0.0925892 0.00883156 0.00198442 0.0986939 -0.00475018 0.0592503 0.0235227 0.0486982 0.0682194 0.0795381 0.0813259 0.0163098 -0.130597 -0.0150036 -0.0877318 -0.0529029 -0.0541251 -0.0720839 0.0133031 0.0519899 -0.0775279 -0.119539 0.163757 0.0518195 0.0719193 0.133235 -0.0555514 -0.0490601 0.0344198 -0.0212076 0.0388024 0.134983 -0.0414874 -0.0750303 -0.140722
52 -0.104886 -0.0864149 -0.160838 -0.240665 0.0603648 0.0539633 -0.0174243 -0.0169557 -0.0605158 0.0861228 -0.0537937 -0.0754587 -0.0920732 -0.140998 0.0618742 0.0491965 -0.0137666 -0.0223956 -0.0116924 -0.0606205 -0.0163566 -0.0709472 0.104066 0.133142 -0.0195961 0.128121 -0.0653816 0.0903974 0.0142958 0.00388396 0.0870226 -0.0836522 0.0360276 0.142726 -0.0387681 0.145266 -0.105781 -0.0520337 0.0359904 0.0742016 0.00296502 -0.0389916 -0.0050912 0.0168558 0.133912 -0.100733 -0.117007 0.141353 -0.0389469 -0.0895067 0.0209942 0.02511 -0.0728612 0.0354657 0.00405534 0.0461093 -0.0179988 -0.0883639 0.00654467 0.0987264 0.183752 0.12917 -0.0669085 0.0177307 -0.161276 0.0990351 -0.0100189 -0.0548515 0.0705801 -0.0325115 -0.0713793 -0.0139508 -0.0790097 0.0895151 0.0704576 0.0967633 -0.0819335 -0.0998349 -0.213134 -0.14593 0.0316892 0.0214691 -0.0747101 -0.150872 0.0116651 0.107068 0.0843205 0.0929872 0.0383088 0.101902 0.061392 -0.133086 -0.0811359 0.0807636 -0.0710948 -0.164006 -0.0402877 0.0517485 0.106171 -0.00677829 -0.189149 0.00315112 -0.058734 0.0227276 -0.0687827 -0.0680069 0.0181947 0.0169744 0.0743354 0.194052 0.0114934 0.114806 0.0910597 -0.00787506 -0.210781 0.0390213 0.0138684 0.0528465 0.1066 -0.0200486 -0.0670062 0.0975065 0.0471154 -0.0222505 0.0169772 0.148876 -0.0387796 -0.0594229
53 -0.0316483 -0.0215666 -0.0174958 -0.115203 0.0499331 0.167966 -0.0465766 0.0290116 -0.0919539 0.0122335 -0.00892851 -0.0334152 -0.118225 -0.106246 -0.0747507 -0.00537454 0.200929 0.00106355 0.0272019 -0.00914584 0.0736905 -0.0218256 0.0477673 -0.0269872 -0.141568 0.0321862 -0.0339803 -0.102971 0.124396 -0.0583815 0.0157858 0.0239747 0.0795032 0.0343115 -0.118727 0.0192625 -0.096803 0.000275241 -0.0458158 0.105763 0.0600223 0.0252624 -0.0514396 -0.0675644 0.0445883 0.038871 -0.125472 0.140726 0.174734 -0.180291 0.0562771 -0.0171623 -0.0169032 -0.101504 -0.00437837 0.0925372 -0.126333 -0.0833906 0.0648352 0.204237 0.0363585 0.0423883 -0.209523 -0.0855436 0.0992042 0.136235 -0.0470495 -0.0568714 0.18178 0.0140642 -0.138769 -0.00213586 0.07303 0.0330126 0.0193568 -0.00395608 0.0660588 -0.167311 0.00495072 -0.10492 -0.0611335 0.116793 -0.0318247 0.0833711 -0.130225 0.175459 0.162925 0.15139 -0.0152555 -0.00767472 0.14515 -0.0745052 -0.00402265 0.0893657 0.105213 -0.0781758 0.139141 0.0614893 0.0964087 0.132758 0.0106469 0.097447 -0.15904 0.0717415 0.0251711 0.0286689 -0.00511393 -0.0589684 -0.0141998 0.0730057 -0.0240013 0.00321857 0.0149603 0.0326572 -0.103032 0.0690077 -0.026133 0.0128596 0.0959539 -0.0209488 0.0641581 0.028106 0.0797367 0.0271688 0.132553 0.175768 -0.0159834 -0.0605992
54 0.0418368 0.0300139 -0.0911433 -0.103723 0.0400354 0.0176194 0.0409369 -0.0279567 -0.0154847 0.122003 -0.266989 0.0259858 -0.0521218 -0.054678 -0.111716 0.0329422 0.0274654 0.0576308 0.0427191 0.0178821 0.145142 -0.0163613 0.144548 -0.0371846 0.0104523 -0.020685 -0.129415 0.0332988 0.157587 -0.101458 -0.123196 -0.0496697 0.023804 0.0850893 -0.0549883 0.000784932 -0.0269603 0.025643 0.0822431 0.0614598 0.160098 -0.0398617 0.034822 -0.156853 -0.0572627 -0.00700167 -0.147987 0.17273 0.00735721 0.0148135 0.0206786 0.0275281 0.00740923 -0.0874706 0.0412541 0.0657927 0.0458137 0.0807747 0.0586281 0.0327695 -0.0366895 0.0876036 -0.100357 -0.0202401 -0.0720724 -0.0737155 -0.121079 -0.00477612 0.10994 0.0136771 -0.0605748 0.0833907 0.0491475 -0.00833393 -0.0169025 0.179829 0.018953 -0.131024 -0.092731 -0.140307 0.0496115 0.130853 0.0438618 -0.0665625 -0.0436995 0.094116 0.200512 0.152412 -0.027192 -0.0249106 0.096724 -0.041377 -0.073011 0.0693646 -0.0844346 0.0253625 0.0111695 0.153911 0.131996 0.0551253 0.059953 0.0551884 -0.00684887 -0.124626 -0.0491276 -0.0283234 -0.0205691 0.007867 0.123799 0.160122 -0.105452 0.28533 0.070506 -0.0522474 -0.147738 0.0252948 -0.00815881 0.0352698 0.141115 0.0202408 -0.122484 0.0214431 0.0300104 -0.0190815 0.025926 0.171962 0.0173663 -0.0741408
55 0.0549996 -0.0456493 -0.0158858 -0.00334394 -0.0684796 0.0514984 0.0998069 -0.0224371 -0.00759069 -0.0521717 -0.029338 -0.164465 0.0241444 -0.0264752 -0.0174413 0.0748525 -0.00405087 0.00453687 0.106612 -0.0316465 -0.0313031 0.0265743 0.111503 -0.0694009 -0.00212181 0.0928897 0.0322364 -0.021678 0.231135 -0.158436 0.0442487 0.112393 0.0223802 0.0630942 -0.0232107 0.188469 0.0222803 0.0714976 0.0166292 0.0515156 0.0451162 -0.00425523 -0.0360192 0.0332869 0.0894618 0.0216997 -0.0906818 0.0469088 0.0891553 0.0218959 0.0504228 0.0175328 0.0347847 -0.0293767 -0.0817177 0.0224893 0.0519703 0.000213555 -0.0127792 0.0842899 0.0357964 0.0892749 -0.132898 -0.0500277 0.0103246 -0.0297996 0.0355136 0.0564545 0.115998 -0.11444 -0.0913006 0.123954 0.047557 0.0758865 0.0483159 0.11021 -0.0667444 -0.271134 -0.0398791 -0.228156 0.0132628 0.174613 -0.0632435 0.0107491 0.0388683 0.00205126 -0.00151884 0.24518 -0.0695723 0.050691 0.0284177 -0.126565 -0.0500201 -0.0916584 0.128613 -0.108874 0.0633106 0.0355522 0.0461298 -0.0482348 0.0426695 0.137107 -0.0641413 -0.00155816 -0.0885694 -0.168637 0.0240268 -0.0119465 0.0862369 -0.0647147 -0.0017493 0.22991 0.0748881 0.0237416 0.0062945 -0.0199449 -0.0337378 -0.0141785 0.0443506 -0.228423 0.0610671 -0.0677456 -0.122948 0.0271765 0.145021 0.0922717 -0.0486106 -0.219329
56 0.0805109 -0.0276276 0.0795413 -0.151052 0.0567259 0.0313019 -0.106817 0.0777304 0.0147542 0.0382069 -0.0538766 0.00620272 -0.0491892 -0.0723926 0.112472 -0.0766646 0.0738295 -0.00588494 -0.0643729 -0.131397 0.178838 0.00217169 0.0580958 -0.130043 0.0626024 0.130306 0.0856542 0.011404 0.274991 -0.139401 0.0385106 -0.0288107 0.119065 0.116936 -0.103177 0.108766 -0.0910236 -0.0201686 -0.0231258 -0.0172444 0.0536565 0.0306071 -0.0305342 0.093299 -0.0456933 0.0455485 -0.0701795 0.11132 -0.0607209 -0.108232 0.0098853 0.0772371 -0.071921 -0.11217 0.0874735 -0.019752 0.0311001 -0.000166849 0.0771035 0.148123 0.0678213 0.0926006 -0.0528318 -0.00583578 -0.0117318 -0.0497325 -0.0145123 0.0336812 0.13244 0.0739197 0.0158487 -0.0319987 0.0166529 0.176709 0.0557346 0.0470019 0.0711417 0.00949822 -0.0884224 0.0638255 -0.0447682 0.00790429 0.0737239 -0.0477464 -0.0882936 0.0642229 0.0799834 0.0565849 -0.10842 0.156341 0.104626 -0.00841935 0.0730241 0.0350947 0.0158877 -0.0520082 0.0744346 0.0343407 -0.0233384 0.00295776 -0.064621 0.0608673 -0.00853901 -0.11693 -0.131463 0.0284825 0.102889 -0.113145 -0.0476126 0.200514 0.0458264 0.0988038 0.118223 0.0339379 -0.079189 0.120433 0.00901515 0.0379342 0.0701853 -0.127034 -0.0521317 0.131152 -0.13399 0.0336629 0.20573 0.218739 -0.147659 -0.122637
57 0.0482177 -0.0432849 0.033068 -0.0109062 0.107617 0.0962222 0.0846271 -0.0132603 -0.0343099 -0.141708 -0.161504 -0.0481029 -0.115337 -0.112443 -0.108868 0.145019 0.0639971 0.0451227 -0.0458568 -0.0383825 0.236337 0.0262187 0.0582923 -0.0223055 0.00952342 0.071965 -0.0590785 -0.0890285 0.02159 -0.0108814 -0.0677745 -0.0421595 0.0215135 0.0703765 0.0854658 0.035626 -0.104071 -0.0817109 -0.192181 0.0789099 0.065447 0.0627875 0.0122722 -0.0255133 0.124631 -0.02179 -0.157806 0.212041 -0.0118554 -0.132304 0.00710332 0.067846 -0.0459536 -0.0243787 -0.0326734 0.0818327 -0.0661226 0.0615198 0.0875698 -0.0116082 0.0239742 0.0208817 -0.0758146 -0.108722 0.00019737 0.0359979 -0.0298729 -0.0128639 0.108499 0.0275631 0.0371008 0.142538 -0.0580058 0.18941 0.177896 -0.0361252 -0.0133752 -0.136381 -0.0618153 -0.0969081 0.0422044 0.0853251 0.0138249 -0.108659 -0.0864258 0.0546691 0.127405 0.135503 -0.122534 -0.0138868 -0.0189405 -0.212771 0.00772399 -0.0356567 0.00748157 -0.0739599 -0.0814791 0.102566 0.0917777 0.00405195 0.0523019 0.103402 -0.0172527 0.00584799 -0.0234742 -0.0636595 0.0553032 -0.0328461 -0.0216728 0.0306374 -0.222257 -0.0242765 0.221955 0.0371272 -0.236031 0.0764515 -0.0379368 -0.102755 0.0294138 -0.0135318 -0.0792689 0.0494236 -0.0614067 -0.0309214 0.0186527 0.0374298 -0.10282 0.0468491
58 0.0621725 -0.0080958 0.0474074 0.0264217 0.0228741 0.0392011 -0.0384342 0.0367649 -0.0217244 -0.0617976 -0.178434 -0.0122195 -0.0183179 -0.152102 -0.0483859 0.00832387 0.0583052 0.00511826 -0.0845183 -0.0228993 0.174936 0.0912767 0.0413454 0.0468583 0.0693853 0.0311202 -0.1679 0.189669 0.128056 -0.123746 -0.131667 -0.111537 -0.0481641 -0.0592347 -0.00392179 -0.0212893 -0.0530188 -0.0784168 0.0239327 -0.0993986 0.125266 0.0995945 -0.0059984 0.0858501 0.0340085 0.00901598 -0.0968528 0.155326 -0.0948612 -0.0873449 -0.0799824 0.0646117 -0.0133196 0.00687799 -0.0105133 -0.0847786 -0.0200706 -0.0447269 0.155817 0.113175 0.04622 0.158202 -0.0545035 0.071971 -0.130697 -0.0414595 0.0108717 0.0095194 0.146505 0.0885162 -0.0319167 0.0621246 -5.28664e-05 0.0422604 -0.00613912 0.0383098 0.016304 -0.0439426 -0.0546416 -0.129485 -0.0610709 0.14486 0.00389379 0.0376509 0.00757532 0.0410041 0.120337 0.169116 -0.039308 -0.0548133 0.167605 -0.14114 -0.0147222 0.0780402 -0.0708504 -0.0453902 0.059418 0.122285 0.0519226 0.015374 0.0453379 -0.0655671 -0.0634668 0.0433473 -0.0152745 -0.168036 0.0890631 -0.0314438 0.137134 0.182311 -0.180107 0.150955 0.188376 -0.100878 -0.121354 0.0522507 0.131554 0.107067 0.108218 -0.0322365 0.0230228 -0.0303052 -0.0917844 -0.0685593 0.0463055 0.0741873 0.0288963 -0.127798
59 0.0679417 -0.0174589 -0.0248299 -0.0981876 -0.0395034 0.076379 -0.032072 -0.0700388 -0.10727 0.0726699 0.00436096 -0.0265201 -0.0943216 0.0851055 -0.129503 -0.0430043 0.0784568 0.145854 -0.119625 0.0158886 0.0301803 -0.0166689 0.177089 0.0319717 0.0039078 0.0777177 -0.0912882 0.0988513 0.188785 -0.149617 0.0275184 -0.0781083 0.090578 0.130195 -0.196 0.0264849 -0.102443 0.0244606 0.0717493 -0.0438372 0.0418399 0.0584063 -0.100738 -0.055705 0.000331418 -0.0369154 -0.0959714 0.0735446 0.0673039 0.000653071 0.0392987 0.0589853 -0.0966803 0.0848177 -0.0466543 -0.0165745 -0.0802302 -0.0468624 -0.0877551 -0.00255755 0.1201 0.024772 -0.162176 -0.000240253 -0.0287507 0.056199 0.00679522 -0.103785 0.174329 -0.107312 -0.168629 0.0566542 -0.031326 0.133449 0.155116 -0.0129924 0.121393 -0.0375056 -0.0340215 -0.104304 -0.0400657 0.155798 0.0649665 0.0491079 0.0920811 0.215724 -0.0219757 0.158253 0.072654 0.0290489 -0.0453177 -0.0962198 0.00190301 0.119278 0.0385206 0.0922268 0.0238616 0.0538895 0.113258 -0.0685356 0.094652 -0.0182241 0.0591498 0.00607388 0.0929808 0.0217795 -0.028098 -0.0723257 0.102197 0.0383054 -0.0795996 0.129573 0.0657297 0.117326 -0.120133 -0.0922824 -0.0659096 0.0291458 0.104108 -0.0973074 0.0760166 0.134657 -0.141838 -0.0121683 -0.0661447 0.177591 0.00596661 -0.0814672
60 0.0583755 -0.0460589 0.02364 -0.0802192 0.00361455 0.156164 -0.025008 0.0503012 -0.060595 -0.0674162 -0.0458938 -0.0815663 -0.0274371 -0.143083 -0.183526 -0.0485195 0.0975467 0.0113545 -0.0754067 -0.0880008 0.114178 0.0365721 0.126601 -0.0635738 -0.00644774 0.0450657 0.0161259 0.0214109 0.209749 -0.112385 0.00777612 0.0781272 0.0160689 0.131499 -0.0916651 0.0671019 0.00289364 0.121832 -0.0107984 -0.0549581 0.058947 -0.000184696 -0.00171969 -0.00736205 0.00882895 -0.0818703 -0.0898071 0.0743575 0.102484 -0.176723 0.0955105 0.0360661 -0.0210756 -0.129224 -0.0260596 -0.00318231 -0.0978328 0.0187121 0.0660637 0.182736 -0.0740552 -0.0310828 -0.147829 -0.125403 -0.00654564 0.0776424 -0.0375602 -0.0696159 0.0358766 0.152478 -0.0694467 0.0450597 0.116502 0.11316 0.0333494 0.0437825 0.102545 -0.143723 -0.0973694 -0.23246 -0.0168313 -0.0291669 -0.00948853 0.0336919 -0.053885 0.17171 0.0687605 0.0459747 -0.0351368 0.0936063 0.049455 -0.117882 0.163192 0.0952911 -0.0218582 -0.0248999 0.090386 0.0343166 0.135125 0.0600653 -0.0607561 0.0526503 -0.127087 0.126115 0.010015 -0.0827944 -0.120971 0.00458841 0.013168 0.109626 0.0386595 0.0432028 -0.0437966 0.182566 -0.131569 0.034934 -0.00400706 0.00948665 0.0954783 -0.0591274 0.0690075 -0.00333873 0.0549316 0.00504935 0.170065 0.184556 0.0504238 -0.0961726
61 0.0489773 -0.114427 0.0984222 -0.152923 0.0389561 0.14775 -0.170599 0.0174093 -0.0436541 0.0963488 -0.021825 -0.134 -0.0204367 0.015804 -0.101012 0.0584781 0.263271 0.0345991 -0.0204853 -0.0583369 0.0981733 0.0613356 0.00471993 -0.046968 -0.0552902 0.0617577 -0.100047 -0.00979077 0.165193 -0.101625 -0.0151227 0.0467476 0.0911024 0.0918163 -0.124074 0.108265 -0.0707094 0.144569 -0.0626191 0.088406 -0.00890156 0.132357 0.0790091 0.00418988 -0.0871518 -0.0806929 -0.0418617 0.154636 0.0498508 -0.0857717 0.0389681 0.0680111 0.00907319 -0.0861873 -0.0159891 0.0567395 -0.0892487 0.0846051 0.0636262 0.189304 0.0177819 -0.00476796 -0.141541 0.0268769 0.0561831 0.0348901 0.00453523 -0.0436942 0.0397975 0.0257259 -0.018098 0.0262032 0.0242857 0.0302648 -0.0228039 0.0742126 0.0893371 -0.183468 -0.0508194 -0.216009 -0.0719319 0.0813363 0.0533239 0.020253 -0.0504351 0.132905 0.0359631 0.124029 -0.088584 0.13061 0.0991519 -0.157618 0.0519528 -0.00862773 0.0517399 -0.109805 0.133838 0.0383358 0.108371 0.0377317 -0.00920004 0.0575494 -0.104199 -0.023772 0.0540288 0.0344584 -0.142905 -0.0135888 0.0292461 0.140897 0.0715977 0.130149 -0.0658637 0.107168 -0.160377 0.0738878 -0.00662331 -0.055565 -0.0123895 0.07519 -0.0222601 0.00582703 0.0413922 0.00311329 0.119726 0.138648 -0.0029357 -0.126508
62 -0.108579 0.0020151 -0.0087556 -0.0253097 -0.0813962 0.0937312 0.0409823 -0.0428289 -0.0178675 0.0126515 -0.117855 -0.102344 -0.10183 0.05115 0.00905318 0.102618 -0.0348532 0.0900024 0.0327187 0.0219817 -0.0559052 -0.0785896 0.163983 -0.056152 0.079141 -0.0532098 -0.0706172 0.0406911 0.143326 -0.191721 -0.0640668 -0.142099 0.0954209 -0.027105 0.05344 0.180723 -0.032375 0.0179326 -0.124919 -0.0340467 -0.0695013 0.099679 0.0579669 -0.0518225 -0.00830497 0.00915693 -0.12915 0.217615 0.0554928 -0.0591619 -0.092824 0.0882624 -0.0932355 -0.090495 -0.0634287 0.0196429 0.0562564 -0.0238944 0.0556557 0.182624 0.0584347 0.019337 -0.104654 0.064533 -0.0550342 -0.0559005 0.0121097 -0.069041 0.101832 -0.0309027 -0.0406636 0.12564 0.0352066 -0.0167292 -0.00203865 0.00320425 -0.0243013 -0.144633 0.00483297 -0.114893 -0.091077 0.135034 0.0149724 0.119407 -0.0657949 0.0362105 0.00497336 0.152575 -0.122802 0.150899 0.0621108 -0.0662074 -0.0596437 0.0190848 0.0852932 -0.142343 0.0531755 0.152516 -0.0640346 0.00483833 -0.00976884 0.123409 0.0632437 0.142237 -0.108755 -0.0994739 0.122495 -0.0281331 0.144429 0.00959079 0.0228278 0.116222 0.199298 -0.0134987 -0.0101715 -0.0968211 -0.103405 0.0355855 0.0271828 -0.0679836 0.0627808 -0.0828876 0.096886 -0.0132682 0.137394 0.0790978 -0.0526446 -0.199667
63 0.0933958 -0.0441624 -0.0558037 -0.108316 0.0777911 0.0917176 0.0415986 0.0427784 -0.0464872 0.0939713 -0.14151 0.0460283 -0.00943146 -0.107321 -0.0378372 0.0468202 -0.089755 0.0703864 -0.165855 0.0338816 0.0501617 0.13082 0.160046 0.0113523 -0.101378 0.0943782 -0.0528799 -0.00129927 0.052226 0.0205028 0.0457913 0.0340473 0.0337234 0.197909 -0.121669 0.102806 0.04491 0.0296468 0.0374713 -0.0426926 0.0443257 -0.0338202 -0.00720812 0.00656811 0.0225783 -0.130604 -0.161375 0.12874 -0.0150691 -0.104179 -0.057351 -0.0916761 -0.0322855 -0.0454019 0.0145113 0.0438521 0.0966984 -0.00949895 0.00477079 0.0248326 0.0295713 0.0167625 -0.163768 0.0275557 -0.119629 0.192493 -0.0615137 -0.0561174 0.05353 -0.0550867 -0.0497835 0.0415977 0.0440649 0.0852535 -0.0420255 0.0978594 0.103415 -0.138764 -0.117602 -0.0926969 0.00699583 0.0550288 -0.0407011 -0.0346662 -0.0382299 0.188895 0.083112 0.136274 -0.182895 0.015481 0.0373984 -0.101479 -0.0681892 0.0483239 0.0371735 -0.0529367 0.0415609 0.167909 0.1341 -0.0675307 -0.0929953 -0.0206171 -0.0388552 0.0416373 0.0583803 0.00957364 0.08505 -0.00586833 0.0234521 0.137038 -0.0661727 -0.00785664 0.113301 -0.0410653 -0.231943 0.104015 -0.0227465 0.130032 -0.0145976 -0.0837684 -0.00306585 0.183382 0.0253312 -0.018105 0.160206 0.155358 -0.123381 -0.146491
64 0.0638834 0.0511954 -0.0288224 -0.167576 0.0474929 -0.0776881 -0.0356725 -0.110703 0.0629393 0.0647999 -0.143276 0.0531579 -0.121366 -0.035046 -0.0200351 -0.0396295 0.0408682 0.0283571 0.0304492 -0.078323 -0.0195217 0.0526245 0.092604 0.100856 0.0418171 0.133702 -0.0534787 0.0435771 0.0669644 -0.0617225 0.0416656 -0.0326272 0.0317259 0.140989 -0.131943 0.0487339 -0.03482 -0.00414735 -0.0526126 0.108274 0.0541264 0.0674052 -0.00302463 0.0168229 0.0148534 0.00154921 -0.120706 -0.00419367 0.0739377 -0.214263 -0.110248 -0.0101468 -0.123994 0.00370351 -0.0390159 0.0501699 0.0282521 0.0501896 0.0335562 0.148556 -0.0123234 0.12389 -0.159586 0.00792968 -0.02302 0.0711821 -0.0723436 -0.221854 0.116406 -0.0260303 -0.134836 -0.0428093 -0.0113775 0.131635 0.132914 0.114993 -0.05597 -0.197352 -0.047567 -0.274516 -0.0810573 -0.0126039 -0.0418947 -0.00667258 -0.0983223 -0.00836541 0.108614 0.109539 0.110434 0.076989 -0.0339712 -0.108605 0.0356117 -0.0576733 -0.00313668 0.13424 0.0465774 -0.0494683 0.0670523 -0.0460452 0.0970411 0.0450636 0.00610958 -0.0704618 0.00347451 -0.0982888 -0.127427 -0.13385 0.00397365 0.0642717 -0.144837 0.0887542 0.107326 0.101552 -0.154094 -0.00677602 -0.00309555 -0.0186142 -0.043595 -0.0199899 -0.0126004 -0.0244635 -0.088164 0.103269 0.114912 0.17305 -0.150358 -0.0283009
65 -0.15305 -0.0164125 0.0322031 -0.129901 -0.0714868 0.0921857 0.0319829 0.0193157 -0.0588028 0.0615728 0.0191044 -0.109965 -0.0860408 -0.00231076 -0.0600135 0.0619697 0.0754319 0.0742843 -0.00293446 0.0637924 0.0196265 0.0129694 0.156847 -0.0273268 0.081513 0.0805325 -0.154366 0.0173578 0.146363 -0.157639 0.0636687 -0.110992 0.0690846 -0.0142828 0.034748 0.0788909 -0.0245718 -0.04055 -0.158262 -0.0118698 -0.110099 0.0749066 0.0576962 -0.0576333 -0.0472809 0.0632656 -0.099842 0.215332 0.0906826 -0.0571172 -0.0218233 0.0799342 0.00116973 -0.0957595 -0.100254 0.0438586 -0.00217373 0.0370201 0.00290391 0.116806 0.0273305 0.00291454 -0.12043 0.0490445 -0.107505 -0.0945675 -0.00173001 -0.0610156 -0.00968141 -0.0563323 -0.0207556 0.145677 0.145156 -0.0670368 -0.0399066 0.0547031 -0.0601097 -0.087971 -0.0700366 -0.19676 -0.0167849 0.165452 -0.0684392 0.0831357 -0.00976815 0.0457489 -0.0211202 0.165217 -0.142893 0.0828728 0.024601 -0.0894606 -0.0480649 0.0923144 0.0435858 -0.125551 -0.019331 0.170504 -0.0387497 0.00749404 -0.0837759 0.0450143 0.0598566 0.109941 -0.0714214 -0.0953003 0.142396 0.0112339 0.129348 0.0561942 0.0160444 0.0677818 0.189702 -0.0356061 -0.178327 -0.124294 -0.0614351 0.0235911 0.0825728 -0.00839735 0.10648 -0.00377115 0.064661 -0.107877 0.161533 0.0749584 -0.0244733 -0.175108
66 0.166825 -0.0410855 0.128017 -0.111733 0.103082 0.0133249 -0.051346 -0.130068 -0.0498173 -0.0691114 -0.141519 -0.0271044 -0.0822735 -0.00118276 0.039274 0.025018 0.00149587 0.0221065 -0.0105534 -0.153021 0.0586155 -0.098462 0.0571815 0.12974 0.0237132 -0.0107449 -0.0478911 0.0449663 0.142923 -0.144138 -0.0833463 -0.147518 0.126264 0.0410619 0.110653 0.0784538 0.00667368 -0.100366 -0.134118 -0.0590038 -0.0813382 0.0755736 0.0164195 -0.00877313 -0.0400547 -0.0546113 -0.0266248 0.130959 0.0457928 -0.0199195 -0.0532876 -0.101298 -0.00859486 -0.116953 0.000262678 -0.00896777 0.0735837 0.189727 0.0293142 0.136197 0.0151238 0.0233449 -0.0920508 -0.0620009 0.0500643 0.196549 -0.121462 -0.0589521 0.102213 -0.0721527 -0.102162 -0.0188865 -0.0506057 0.00663937 0.0889833 0.0345259 -0.00751032 -0.104293 -0.120382 -0.107991 -0.0567264 0.0860711 0.0662508 0.096964 -0.0340552 0.129292 0.01958 0.0802866 -0.0371148 -0.00761489 0.191811 -0.03983 -0.0798478 0.0375442 -0.0179061 0.061641 0.0642513 0.0926278 0.056833 0.088189 -0.00964446 -0.00852779 -0.0243771 0.0449507 0.0585822 -0.194375 -0.144629 -0.116484 0.0411897 0.0991523 -0.0248385 0.0272387 0.106819 0.114512 -0.190005 -0.0163961 -0.0731533 -0.0222442 0.0867872 -0.0663844 0.0489655 -0.0166108 -0.0979827 0.0439939 0.232891 0.0279278 0.00287871 -0.193931
67 -0.139665 -0.0764439 -0.0566933 -0.0661731 -0.0272501 0.102932 0.0594155 0.0762886 -0.00896405 -0.00800445 0.00932105 -0.0856959 -0.0912205 -0.00725965 -0.0885923 0.0830263 0.00778715 0.0316773 0.0396272 0.0770243 0.0421188 -0.00120898 0.0982232 -0.0855714 0.0636521 0.118327 -0.026857 -0.0146981 0.1327 -0.159695 0.0324078 -0.205735 0.0846953 0.0585499 -0.00210933 0.189333 -0.0136607 -0.041023 -0.113759 -0.0677907 -0.128593 0.0325494 0.0707167 -0.00272406 -0.00212666 0.0572563 -7.60052e-05 0.0979505 0.0226211 -0.0987816 -0.0180266 0.130681 0.00941416 -0.0960979 -0.0634149 0.0486244 0.0499017 0.0952319 0.00864058 0.133747 -0.0594389 0.0690315 -0.0695082 0.0301767 -0.0711761 -0.132759 0.00186572 -0.0693529 0.0729257 -0.101073 -0.0883826 0.10442 0.127111 -0.0497636 -0.00496187 0.117763 -0.0405513 -0.0475997 -0.0743466 -0.240621 -0.0384572 0.155934 -0.0801546 0.0245123 0.0230193 0.000907054 0.0270621 0.238735 -0.172554 0.112457 -0.00725155 -0.0165107 -0.0412214 0.022272 0.00491283 -0.121908 -0.0173968 0.137035 -0.00647665 -0.0410809 -0.143549 0.0428938 -0.0213527 0.0778838 -0.0962002 -0.118506 0.0899396 0.0555955 0.11689 0.0335101 -0.011981 0.0733527 0.113595 -0.0453066 -0.184698 -0.118234 -0.112016 0.0223811 0.0469265 0.0703801 0.160434 0.0553439 -0.0152325 -0.164691 0.157577 0.0185243 -0.0257744 -0.110752
68 0.105111 -0.0673026 0.0852435 -0.187407 0.132737 -0.0037444 -0.161525 0.022681 -0.0577389 0.0946078 -0.0730949 -0.100235 -0.0288432 -0.00554347 0.0587467 -0.11657 -0.0184183 0.0821657 -0.0333062 -0.123105 0.202094 0.06991 0.0929601 -0.00243239 -0.0146822 0.158587 0.0273381 0.0436658 0.196383 -0.0801528 -0.0264136 -0.026937 0.0376589 0.0844213 -0.0901538 0.1178 -0.062782 0.0152925 -0.0289126 0.0857759 -0.00459581 0.0354295 0.113783 0.0383773 -0.0822987 0.123619 -0.0523591 0.109897 -0.0713098 -0.118946 0.0507921 0.0799303 0.0298724 -0.130593 0.0385123 -0.0284729 0.00771021 0.039656 0.105334 0.0976868 0.176665 0.0182074 -0.0367483 0.0514354 -0.0707187 0.0332244 0.0956099 -0.0327647 0.0767429 -0.0127817 0.0781157 -0.0242432 0.00110011 0.14076 0.00850669 0.0462952 0.0358978 -0.0801727 -0.0371395 -0.0201518 -0.0557936 0.0570524 -0.01325 -0.0728009 -0.063755 0.174051 0.0245282 0.0951068 -0.0587531 0.150699 0.0971454 -0.0687508 -0.0233126 0.0825038 0.0373714 -0.0246937 0.185036 -0.0298099 -0.00233467 -0.0858166 -0.0385494 0.148525 -0.120606 -0.12544 0.02865 -0.00160156 0.088652 0.0406577 0.0734791 0.04135 -0.0485268 0.197435 0.029832 0.0527043 -0.0932351 -0.0215443 -0.173181 -0.0585046 0.0753689 -0.0619313 -0.00983534 0.143543 -0.112967 0.0343277 0.2193 0.0748238 -0.154921 -0.0948602
69 -0.00405482 -0.085544 0.0360119 -0.218234 0.109065 0.0915362 -0.132129 0.0180326 -0.0241315 0.0449205 -0.0599381 -0.0803454 -0.0676074 0.0775406 -0.0518394 0.00996827 0.199905 0.037952 -0.0712042 0.00516483 0.0494944 0.095169 0.0840442 0.0986232 -0.176848 0.121274 0.0761653 -0.0135179 0.171567 -0.0996526 -0.044819 0.0409638 0.109667 0.0401635 -0.10608 0.10717 -0.108714 0.08338 -0.101822 0.0676112 0.0646076 0.0744807 -0.0853286 0.0260499 -0.078191 0.0157035 -0.0656279 0.0913693 0.0547673 -0.084633 0.0390836 0.0793661 0.0258632 -0.0629389 -0.0205766 0.0956195 -0.129359 0.00949684 0.00627317 0.246696 0.0309837 -0.0413645 -0.135419 -0.0200693 0.0916972 0.103574 -0.00997953 -0.123586 0.103801 0.0873943 -0.143667 -0.103897 0.0523655 0.0835528 0.00723348 0.0111654 0.108167 -0.158253 -0.0382368 -0.124216 0.0664759 0.14775 -0.0457513 0.0577068 -0.0441108 0.216541 0.0112268 0.164487 -0.0243629 0.100283 0.135457 -0.0823024 -0.00964177 0.0835378 0.0379306 -0.0855114 0.0351098 -0.0217282 0.104557 0.0462881 -0.0186278 0.103611 -0.147766 -0.0129327 -0.0541176 -0.0557849 -0.0486607 -0.0157867 -0.0682578 0.0644849 0.0331825 0.128127 -0.0278576 0.0260874 -0.0215379 0.00306909 -0.065858 -0.0558868 -0.0385645 -0.0565597 -0.0727033 0.0746737 0.0423904 -0.0381099 0.069331 0.178365 -0.00857308 -0.129737
70 -0.0284408 0.17224 0.00836908 -0.196289 0.106023 -0.044705 -0.0151524 -0.0829493 0.0431162 -0.0653185 0.0426035 -0.0650677 0.039393 -0.0500595 0.033777 -0.0173394 0.104994 -0.0184927 0.0091019 -0.00517374 0.0487909 0.0222662 0.069598 0.0822711 -0.0415594 0.0314851 -0.14517 0.0925813 0.157941 -0.0774927 -0.077405 -0.0688047 -0.043582 0.0963037 -0.048178 0.107671 0.0960853 -0.133908 0.00987897 0.121667 0.0598416 -0.0439554 0.0291087 -0.112908 0.0140184 -0.130642 0.0141116 0.0479205 -0.156799 -0.0412204 -0.143072 0.0279898 -0.0573524 -0.25804 0.0636479 0.082948 -0.0724859 -0.0152428 0.129553 0.178414 -0.00427081 0.0285179 -0.040679 0.0710515 0.0840332 0.153208 -0.0375295 -0.00554752 0.033145 -0.0252747 -0.00949807 0.00793462 -0.0480821 0.0175077 -0.026093 0.0754188 0.0833209 -0.0824711 -0.0168958 -0.33971 -0.0578862 0.217303 0.0833438 0.022949 -0.0455862 0.117569 0.0242399 -0.0195757 -0.0473139 0.0422401 0.0233804 -0.0156994 0.102376 -0.0260933 0.0401002 -0.115225 0.14846 0.0175057 0.097874 -0.0190055 -0.0388646 0.0461455 -0.0490407 0.0216632 0.016822 -0.0746587 -0.0481405 -0.0959635 0.130612 0.0297907 -0.183706 0.0407585 0.017872 0.0486518 -0.0753189 0.025707 0.0098382 0.00927444 0.111586 -0.0183539 -0.0118143 -0.0507252 -0.0644609 -0.059478 0.180427 0.0868825 -0.130889 -0.140226
71 -0.0137264 0.136512 0.0815364 -0.0842801 0.0678685 0.0535744 -0.0165394 0.0795304 -0.0903456 0.00535459 -0.0782876 -0.205744 -0.120506 -0.237153 0.0471992 0.0688205 -0.0139004 0.0931342 0.054139 0.0485193 0.0025646 -0.00917242 0.00652464 0.0741059 0.0235215 0.109184 -0.0838751 0.093358 0.198052 -0.0405102 -0.0796931 -0.00231307 0.0383541 0.170482 -0.0254815 0.0338648 -0.00599144 -0.166585 0.0166154 0.0837733 0.0262464 0.0216879 -0.0902085 -0.0803347 0.0212553 -0.051599 -0.034361 0.146052 0.144223 -0.0261161 -0.00902833 0.0774093 -0.0760735 -0.165384 0.0508716 0.0245099 0.0147925 -0.00769472 0.0119498 -0.00779528 -0.0483426 0.0943192 -0.0858096 -0.103655 -0.106459 0.008553 0.007074 -0.0539501 0.0905986 0.00968025 -0.103217 0.00668447 -0.151109 -0.051309 0.0891097 0.0312267 0.140786 -0.144633 -0.170218 -0.0810094 -0.0228837 0.107964 0.0631483 -0.00967718 0.0530688 0.202185 -0.0863508 0.165918 -0.0899014 -0.0261806 0.0347673 0.102178 0.0598107 0.11734 -0.0195209 0.0317033 0.0312175 0.172209 0.0653596 -0.00366288 -0.0677663 0.000439416 0.0762483 0.0329562 -0.00291198 0.0476285 0.0436879 -0.093607 -0.0615497 0.0801154 -0.121625 0.122554 0.157435 0.0690922 -0.0389019 -0.000350168 -0.00481967 0.122004 0.149159 -0.102099 0.11773 -0.116247 -0.0404362 0.019033 -0.0131875 0.0568415 -0.0936838 -0.153476
72 -0.0515797 -0.0974635 -0.0235117 -0.0548081 -0.180828 0.0862774 0.0495514 0.0427037 -0.0604816 -0.0496745 -0.0739271 -0.2248 -0.0932396 -0.00668958 -0.0340342 -0.0326779 0.0486689 -0.0125852 0.111818 -0.0543856 0.0226052 -0.109047 0.115765 0.0135929 -0.023289 0.0313238 -0.0572032 0.0459381 0.174342 -0.184379 -0.020002 -0.101403 0.0650244 0.0370201 0.0216951 0.164665 0.0133027 0.0928759 -0.0713241 0.0503195 -0.0157277 0.0574716 0.0372255 0.0425573 0.0561408 0.0187706 -0.111976 0.190567 0.0427174 -0.0811444 0.0410571 0.0777152 0.0207791 -0.0184555 -0.150563 0.0798589 -0.00626067 -0.0100534 0.0732236 0.127472 0.0804286 0.00509858 -0.144205 0.0779366 -0.0577526 -0.0305408 -0.0190897 -0.0456685 0.0592219 -0.113495 -0.067952 0.121078 0.0449629 0.0542936 0.0491319 0.0747607 0.00903933 -0.145363 -0.0551864 -0.206897 -0.0995036 0.0564948 0.0244372 0.095659 -0.0427922 -0.0496238 -0.0297611 0.227409 -0.0839102 0.117789 0.0476472 -0.116698 -0.0337902 -0.0300198 0.0223741 -0.164743 -0.031394 0.158953 0.0155975 -0.0797557 -0.0298054 0.160135 -0.024478 0.125564 -0.137215 -0.139913 -0.0511839 0.0250672 0.158333 -0.0109153 -0.00764774 0.0731507 0.0525784 -0.0291766 -0.116737 -0.0552289 -0.0215356 0.0507431 0.0712779 -0.0148515 0.144457 0.028269 0.0135008 -0.0295848 0.166595 0.0448634 -0.0403336 -0.177872
73 0.115805 0.0527658 0.106713 -0.0968225 0.113841 0.0221749 -0.0628135 -0.00677352 -0.00328571 -0.049294 -0.0804237 -0.079211 -0.0338798 -0.00971893 0.059739 0.0997984 -0.0484267 0.0837818 -0.120263 -0.0106889 0.0330908 0.118305 -0.0152509 0.127876 -0.0585021 0.0521132 -0.0733151 0.0225186 0.190848 0.0102421 0.0286523 -0.0566926 -0.0468283 0.237544 0.0673732 -0.0412497 -0.0864499 0.0382678 0.174304 -0.0589614 -0.0259505 -0.011099 -0.0204939 0.0454898 -0.0776691 -0.0657225 -0.161346 0.167022 0.0476827 0.00563446 -0.052975 0.157447 0.116121 0.0583676 -0.103331 -0.0385493 0.0524958 0.0282675 -0.0183236 0.0783293 0.0180492 0.229535 -0.097789 0.0562289 -0.228056 0.0573064 -0.0144282 0.003373 0.0479642 -0.110833 -0.114133 0.0411238 0.0797242 0.0755303 0.142678 0.0680851 -0.034519 -0.0788719 -0.09356 -0.0735488 0.120738 0.0293363 -0.0587527 0.0074103 -0.0956252 0.15164 0.0352324 0.0542428 -0.0848799 -0.0113233 0.0997486 -0.0126911 -0.00445396 -0.0480888 0.0505867 0.0115713 0.147018 -0.0313956 -0.00330836 -0.0243861 0.0439084 0.197275 0.0692307 -0.0518738 -0.0218861 -0.122869 0.0197778 0.0939207 0.00930587 0.0303794 -0.000766126 0.0923985 0.240588 0.0924405 -0.0410231 0.0873932 0.11098 0.0461769 0.033976 -0.119213 -0.04612 0.00338551 -0.00389646 -0.0797626 0.113571 0.167026 -0.0715366 -0.102268
74 -0.054845 0.181199 0.104768 -0.136708 0.0297361 0.0528274 0.00011932 0.0775452 -0.11205 0.0288246 -0.0431147 -0.226917 -0.0327774 -0.148074 0.0599937 0.0365391 0.0543079 0.199189 0.061825 0.00697733 0.0543395 -0.103593 0.0906975 0.060121 -0.134373 0.106256 -0.0295399 0.050222 0.124799 0.00320237 -0.0177229 0.0175194 0.0746407 0.0631162 -0.0476241 0.0940671 0.0304699 -0.198166 -0.0400278 0.0668199 0.0518542 0.0443902 -0.226963 0.0465496 -0.0225486 -0.122107 -0.162131 0.204817 0.0244427 -0.0239606 -0.00225103 -0.0132612 -0.110605 -0.157201 0.0418936 -0.0185027 0.00848379 -0.0346948 -0.047713 0.0175042 0.0214125 0.0706622 -0.0394065 0.0318096 -0.186704 -0.0650436 0.00451536 0.0924969 0.125235 0.0008178 -0.0574654 -0.0189241 -0.107354 0.0118102 0.0134621 0.076719 0.135039 -0.113751 -0.150018 -0.102766 -0.0262106 0.0127302 0.0730957 -0.0533618 0.00351202 0.243537 -0.0450919 0.112638 -0.007264 0.0255057 0.134116 -0.0390754 -0.0912139 0.0758109 -0.0334936 -0.0269037 0.0854331 -0.0160116 0.0322266 -0.0494385 -0.0612843 -0.0314189 -0.025055 0.0134969 -0.0349597 -0.0506695 0.0899023 -0.0218368 0.0414249 0.108609 -0.0234469 0.103372 0.0416519 -0.0109781 -0.217298 0.0605288 -0.0669709 0.16742 0.118268 -0.0435935 0.0767357 0.014954 -0.109393 -0.0132708 -0.0592183 0.0186722 -0.0487732 -0.0213102
75 -0.0755731 0.146393 -0.0420086 -0.0324759 0.195328 0.00844351 -0.012776 0.0103003 -0.0602666 -0.0523859 -0.12897 -0.00864131 -0.115414 0.0260179 -0.0192045 0.02338 -0.00889498 0.107495 -0.0386449 0.112603 -0.000358739 -0.103474 0.144947 0.0597269 0.0888378 0.0890112 -0.0468385 0.0838934 0.11858 -0.0153829 -0.14544 -0.0626664 0.082988 0.171549 0.123811 -0.0117513 -0.10652 -0.132812 -0.0254763 0.029546 -0.07739 0.107694 -0.039505 -0.148986 0.01666 -0.0735807 -0.104494 0.042991 0.0866648 -0.0285721 -0.0357077 0.0578615 0.0260068 -0.112558 -0.00975113 -0.0192435 -0.0257042 0.0141374 -0.00457564 0.0915007 0.0550136 0.0407545 -0.133567 -0.136208 -0.157708 0.0365879 -0.0748614 -0.056869 0.164278 0.18385 -0.108881 0.0443682 0.0764209 -0.0431492 0.169601 -0.0368291 0.0759359 -0.145758 -0.118454 -0.119361 -0.137475 -0.00136768 0.0275064 -0.0788724 0.0247355 0.117011 -0.125126 0.120793 -0.0414923 -0.0633237 0.0559883 -0.0791596 0.0902818 0.0597639 0.0126407 0.0574231 -0.00348866 0.104115 0.055533 -0.0236372 0.0225963 0.0351561 -0.00819481 -0.147232 -0.0434483 0.0357287 -0.0670265 -0.0181634 0.0329386 0.154531 -0.0456222 0.0202839 0.13375 0.0588949 -0.0283165 0.0209852 -0.0509362 0.0434446 0.100593 -0.0828894 -0.0723608 0.0222657 0.0118834 -0.100778 0.208303 0.109259 -0.083064 -0.222643
