2708 128
0 -0.0390065 -0.0996514 -0.0346537 -0.100907 0.019546 -0.218675 -0.0178619 -0.0205456 0.152224 -0.0728892 0.164371 -0.108941 -0.0738516 0.0300646 0.0589129 -0.0985796 0.0659337 -0.0142903 -0.104816 -0.0497151 0.0206724 -0.0489389 0.0982572 0.0584945 0.0475534 -0.00411016 0.0743047 -0.0365828 -0.0239256 -0.0972613 -0.0160307 0.107407 -0.0213281 0.0725008 0.0434582 -0.115055 0.0879887 0.036215 0.244423 -0.0528005 0.00857219 0.0378079 -0.0093606 -0.0870054 0.142492 -0.0704423 -0.169414 -0.040155 0.102931 -0.0397332 -0.132318 0.0865262 0.0853579 -0.0732814 -0.0300463 0.0724365 -0.124245 -0.113373 -0.0964855 -0.195651 -0.0493043 0.0356783 -0.00814501 -0.131366 -0.142715 0.113375 0.0531319 -0.0420716 0.196859 -0.0756202 0.0489978 0.0628394 -0.0195843 0.0778025 0.0369623 -0.180347 0.116436 0.000366186 0.0532871 0.0994603 -0.0138303 -0.143639 0.00074392 -0.0613898 -0.049484 -0.109914 -0.108436 0.0233378 0.0353965 0.0266382 -0.130542 0.0637167 -0.189593 -0.0607128 0.0959232 -0.120287 0.0475293 0.0555466 -0.0132089 0.165736 -0.014233 0.0189536 0.0139315 -0.157256 -0.053254 -0.0899618 -0.00953638 -0.0294421 -0.0117547 -0.102288 0.101857 -0.0570265 -0.12731 -0.125614 0.0344032 0.0784206 -0.00715271 0.0304086 -0.095951 -0.0514846 0.00737974 0.0838792 -0.0256422 -0.0247185 0.0453185 0.0337742 0.034991 0.1176
1 -0.0669158 -0.116613 0.105489 -0.00530695 0.032672 -0.10894 0.0504401 0.132583 0.105663 0.0168966 -0.0100495 -0.13869 0.0118887 0.0624265 -0.0242783 -0.0832034 0.112875 0.130292 0.156071 0.0762447 0.0485799 -0.122966 0.00259309 -0.079675 0.0262079 0.0270764 -0.0901282 -0.121399 0.0452512 0.0746873 -0.0190784 -0.169874 -0.117636 -0.00630252 0.0131044 -0.073093 -0.0297959 0.0678422 0.225749 -0.113919 0.1157 -0.115542 0.105574 0.0823759 -0.0375129 -0.0675701 -0.109024 -0.0405336 0.0961825 0.00653184 0.145832 -0.076268 -0.0910158 0.0482965 -0.00923904 -0.000401506 -0.140566 0.0556646 -0.121945 -0.141398 -0.0776201 -0.0453794 0.0762544 0.00713013 0.0675204 -0.0845156 -0.036523 0.015132 -0.00902953 0.118669 -0.116858 -0.0297336 0.073652 0.0292722 -0.0387296 -0.0691419 0.039057 -0.150407 -0.00128875 0.0326127 -0.0213458 0.0227649 0.22549 0.00250538 -0.05822 0.091447 -0.197086 -0.0948221 -0.00372886 0.106148 0.106773 0.062381 -0.211831 0.0659195 0.0221716 -0.0342908 0.0900929 -0.0810163 0.064911 0.0602661 -0.0201424 -0.0584578 -0.0959919 -0.0391837 -0.0445113 0.0998555 0.0177786 -0.0758786 -0.038515 -0.0649582 -0.0144784 -0.0744815 -0.10407 -0.121786 0.103249 -0.172757 0.0420421 0.115878 0.0253302 -0.0892167 -0.063882 -0.0936671 0.0681589 0.0153888 -0.047588 0.0706698 0.058593 0.158702
2 -0.0653233 -0.0643282 -0.0697291 -0.112591 -0.0524089 -0.0449779 0.0240917 -0.0588004 0.128139 0.0949387 0.0804891 -0.0562655 -0.0197857 0.0192102 0.129233 -0.053247 0.12439 0.0622038 0.0341795 0.174916 0.127257 -0.095984 -0.0903434 0.0108037 0.0692917 0.113112 -0.0608243 -0.0368994 0.165591 -0.104463 0.174713 -0.0503016 -0.142275 0.0497542 -0.0176781 0.0655919 -0.0660891 -0.105557 0.154454 -0.0825912 0.0538544 0.0175024 -0.159048 0.0971982 0.125228 0.0726158 0.0370071 -0.00583794 -0.0578844 0.129486 -0.0354576 0.0270853 -0.0997264 0.175127 0.0695735 -0.124067 0.0158627 0.045615 -0.0983123 -0.121912 -0.120235 0.051154 0.0966827 0.0172169 -0.0667732 0.116229 0.0407962 0.108926 0.0664715 0.0302374 -0.0405056 -0.186322 0.0717799 0.116138 -0.0171212 -0.0233055 0.0211713 0.0846679 -0.0936628 -0.101244 0.0834833 -0.0536847 0.025804 -0.0232999 0.070432 -0.0792827 -0.0414792 0.00335947 -0.0223946 -0.0745322 -0.113784 -0.0685952 -0.16926 0.107214 -0.136203 -0.15116 0.00930763 0.0254528 0.188938 -0.0305746 -0.0161576 -0.00881224 0.0125502 0.0716069 -0.115609 0.0603728 -0.0707082 0.10138 0.17296 -0.0991419 -0.0937398 -0.0293431 -0.0355255 -0.146049 -0.0476424 0.00881393 -0.146139 0.0519011 0.00138611 -0.013596 -0.0221198 -0.108776 -0.0951232 0.106341 -0.00400616 -0.0574693 0.0434517 0.0186576
3 0.0494953 -0.0984446 -0.0761581 -0.11718 0.09088 -0.208827 -0.000605775 0.152273 0.089001 -0.0569746 -0.0137031 0.0436456 -0.0977331 -0.0927595 0.157499 -0.0565052 -0.0910893 0.0989358 -0.0827145 0.17404 0.0830057 -0.0822395 0.0100838 0.146374 0.0335998 -0.0481136 0.0424651 -0.122377 0.102173 -0.0683224 0.104661 -0.127974 -0.00770534 0.111887 0.145529 -0.128332 0.000837266 -0.0836555 0.056127 -0.0619201 -0.0416734 -0.0352215 -0.138989 0.10928 0.0785395 -0.0616895 0.0623078 0.118591 0.121309 0.0783966 0.0577525 0.00998699 -0.0314475 0.15023 0.06844 0.117137 -0.0492108 0.0790944 -0.0405927 0.0330013 0.0886067 0.126092 -0.0729062 -0.0906754 -0.0321695 -0.0110413 -0.0129184 0.0501167 -0.0370332 -0.0407912 0.0684128 -0.16883 0.0404954 -0.118926 -0.0498152 -0.190617 -0.0100373 0.0842551 -0.167027 -0.118199 0.0170653 -0.10376 -0.0626572 -0.0883588 -0.0348536 0.073115 0.0373926 0.00424527 0.0101623 0.112463 0.0368556 -0.0719756 -0.0235939 -0.0305943 -0.0742488 0.0145204 0.0369938 0.144735 0.0393154 -0.028349 -0.129015 -0.00237544 -0.0904 0.0203794 -0.0788645 -0.072793 -0.186207 0.13595 -0.00652537 -0.14506 -0.0961881 -0.0750565 -0.113181 0.0408722 -0.0670239 0.0365492 -0.106803 0.0563793 0.0756667 0.0141381 -0.13778 -0.0795264 -0.0626432 -0.0623382 0.019485 0.0611168 -0.0752536 0.0648715
4 -0.160159 -0.118282 0.0525323 0.0957983 0.0684517 -0.130742 -0.139031 -0.098804 0.0981691 0.0686643 0.0466757 -0.0289533 0.0322471 -0.0450044 0.0837405 -0.0639148 0.0295835 0.125529 0.0901816 0.0227048 -0.00524668 -0.0415609 -0.00659095 -0.0237674 -0.0416425 0.120031 0.0943795 0.0453137 -0.0428169 -0.0234547 0.038504 0.088967 0.00893387 0.122287 0.151841 0.118346 0.0449515 -0.0266793 0.0255324 -0.198692 0.102993 -0.0866057 -0.0161062 -0.0975719 -0.0250672 -0.0739531 -0.0930757 -0.0580533 0.00653207 -0.173423 -0.0157115 0.0122401 0.159608 -0.0574094 0.0108092 -0.110009 0.0954037 0.0536261 -0.00275232 -0.183246 0.138352 -0.0129804 0.000930702 0.00667137 -0.0253714 -0.0388594 0.0632699 0.150543 0.0961143 0.0703656 0.0855013 -0.0770336 -0.0717194 0.0974219 -0.0288059 -0.0576337 -0.0629816 0.0132304 -0.000651577 -0.0270035 -0.0384175 -0.194653 0.144056 -0.00464317 0.169932 -0.128833 -0.00732732 -0.0318391 -0.107438 -0.0333525 -0.134551 -0.0980802 -0.159472 0.0270571 0.0779807 -0.0618479 0.0979866 0.0170442 0.0363591 -0.0206195 -0.0111794 -0.0305632 0.00553337 -0.0292209 -0.0807903 0.00721812 -0.098894 0.0510323 -0.0622059 -0.0434071 0.0958796 -0.00990669 -0.0401201 0.0400615 0.0113477 -0.00812293 -0.0393796 0.131073 -0.159357 -0.117952 -0.175878 0.0320311 -0.159432 0.0904782 0.14821 0.172198 0.0780501 0.163518
5 -0.109591 -0.0261897 0.0522813 0.038466 -0.0192432 -0.181717 -0.0450594 0.15365 0.0823698 0.0126938 0.0721458 -0.167309 0.0846857 -0.0198128 0.164829 -0.0455946 0.122011 -0.0785965 -0.059948 0.0585134 0.0317189 -0.120698 -0.0180495 -0.0782578 0.0715193 0.129874 0.164252 -0.145819 0.175688 -0.0813814 0.025175 -0.0525092 -0.0905934 0.134534 -0.0165101 -0.0464735 0.0258036 0.0777587 0.091876 -0.162901 0.0464534 0.0251611 -0.0152454 0.128366 -0.04277 0.142412 0.0300716 0.172748 -0.0303953 -0.120903 -0.0291847 -0.106042 -0.0104091 -0.0960379 0.0714681 -0.00639584 -0.103301 -0.00533195 0.0292855 0.0200363 -0.0817802 -0.00494279 -0.0294591 0.0674665 -0.0075171 -0.0989839 0.0522251 -0.0665971 0.0462644 0.0662591 -0.0500104 -0.0806678 0.034469 0.0271304 -0.0482431 -0.130615 0.058895 -0.0454415 -0.121019 0.118405 -0.170155 -0.00792902 0.058314 -0.139503 0.130057 0.102486 -0.183186 0.0997603 -0.0491474 -0.00720775 -0.094889 -0.0467437 0.0337068 0.00326584 0.0370123 0.111236 0.154729 -0.0471203 -0.0560631 -0.0427193 0.0990966 -0.0991422 0.00356698 -0.00674815 -0.122311 -0.00542558 -0.117211 0.139207 0.0188974 -0.0214837 0.0472815 -0.00836088 -0.124112 -0.0012213 -0.0669884 -0.0919851 -0.0223338 -0.0877913 0.0343285 0.0419948 -0.0829597 -0.0657003 -0.157629 0.0829599 -0.0143414 0.117756 0.0685434 0.184968
6 0.0604298 -0.012689 -0.0464146 0.0507817 0.0705173 -0.0879221 -0.141664 -0.0335585 -0.0342231 -0.116693 -0.031034 0.0681271 -0.034785 0.00933034 0.12682 0.0291016 -0.0513192 -0.0119434 0.0058408 0.105871 0.13873 -0.0850508 -0.0373166 0.135844 0.025784 -0.0773011 0.0421646 0.00869881 0.119283 0.0448422 -0.0168223 0.0391065 0.110073 -0.102218 -0.146126 0.0931413 0.0517795 0.0584892 0.00741896 -0.0994974 -0.0289824 0.0803272 -0.122511 0.0548187 0.0181339 0.130571 0.00683941 0.172814 -0.0849881 0.0742257 0.0257283 0.0301805 0.0847731 -0.0154094 -0.0773896 0.0109914 -0.107654 0.0111113 0.00888643 -0.15732 0.0482757 -0.0193454 -0.0138061 -0.0139102 0.0114569 -0.0549346 0.0893656 0.159472 0.00447082 0.104288 -0.132575 0.029651 -0.156131 0.129767 0.109102 0.0150721 0.0610791 0.072527 -0.120088 0.0591475 -0.127463 0.0189552 0.215445 -0.0908145 0.123766 -0.14224 -0.145675 0.0934708 0.0687416 0.0765158 -0.0398465 -0.0952188 -0.0711735 0.00469656 -0.000263022 -0.0592837 0.14175 0.104694 0.18172 -0.0686877 -0.179904 0.0613399 -0.118972 0.0399805 -0.13129 0.0221591 0.0375682 -0.0548099 0.0589182 -0.152806 -0.127976 -0.0933329 -0.12079 -0.0439093 -0.0225927 -0.0366417 0.0538436 -0.0909715 -0.170494 0.00606059 -0.0434879 0.0954539 -0.13413 0.0698418 0.134799 0.0238463 -0.0644932 -0.0197804
7 -0.157054 -0.139669 0.0684255 0.0800027 0.0763783 -0.185898 -0.0161813 0.102488 0.138219 0.0574432 0.115388 -0.0736082 0.0763275 -0.055449 0.133644 -0.0763682 0.0238173 0.152743 0.0359195 0.0486051 0.096664 0.0445493 -0.0624271 0.138535 0.137069 -0.0346493 0.00838203 0.0348171 0.0674694 -0.0657858 0.0122947 0.104417 -0.103986 -0.0297087 0.115177 0.0834223 -0.0747942 0.0876725 0.0636626 0.00883592 0.00500308 0.0730483 0.0614115 -0.0792203 0.151756 0.0230534 -0.0816408 -0.0584626 0.0255526 0.109607 -0.00742755 -0.147795 0.0976877 0.17709 0.0452629 0.0709882 0.059635 0.122027 0.0768747 -0.0970495 -0.00746441 -0.0525561 -0.0670978 0.0551493 0.113396 0.142443 0.153173 0.134622 -0.0277821 0.113676 -0.0635291 -0.0240717 -0.131127 -0.118583 0.130236 -0.0523456 -0.0359218 -0.0895892 0.0740683 -0.0391359 0.0577275 -0.166023 -0.0485704 0.0105374 -0.0308952 0.00571882 0.0106829 -0.0071714 0.0429019 0.0958628 -0.0130879 -0.00889621 0.0214481 -0.0345047 -0.125831 -0.0636534 -0.0410182 0.0405719 0.0155553 0.0417705 0.0368445 0.106658 -0.106576 0.0529537 0.0568768 -0.0963295 -0.116524 0.115032 0.213907 -0.108617 -0.0942596 -0.176874 -0.0950371 -0.00471817 0.0180168 -0.0374268 0.0690595 -0.0678061 -0.133193 -0.112489 0.0179339 -0.124491 0.0516991 0.0320064 -0.12084 0.0630834 0.00651762 -0.0774157
8 -0.0461763 -0.0757104 0.0803251 -0.0505381 -0.111237 -0.0539362 -0.0547554 0.132822 -0.0639986 -0.13058 0.0846314 0.0384196 0.115204 -0.150542 0.0973227 0.0663674 -0.110501 -0.0854797 0.0203432 0.189907 -0.00900514 -0.0612224 0.0521101 0.0238037 -0.0388465 0.0857479 -0.116154 -0.0316483 0.163941 -0.0305704 0.0824271 0.0468297 0.00657941 0.117101 0.0439055 -0.0092245 -0.0453691 0.0043312 0.141471 0.0500787 0.0810937 -0.108273 0.0234967 -0.0395114 0.0272719 -0.00166732 0.0388472 0.106334 -0.0567005 -0.0184679 0.10637 -0.00502074 0.00172555 0.0585916 0.0869039 -0.000434441 -0.106116 -0.0819276 -0.160512 0.0491451 0.0361033 -0.0942377 0.0779824 -0.103278 0.119487 -0.0456756 -0.0200455 0.0573618 0.0154027 0.145428 0.104676 0.000421389 -0.163742 -0.0730422 0.0642684 -0.104195 -0.0264005 0.063646 -0.127249 0.0297743 -0.032455 -0.145368 -0.00789479 0.1134 0.0961036 -0.0243542 0.0491843 -0.0192267 -0.074834 -0.0459387 -0.119673 -0.146154 -0.193446 0.0255982 -0.0489324 -0.134367 0.154371 0.107493 0.0812186 -0.0153754 -0.125688 -0.0804549 -0.12927 -0.1375 0.0686702 -0.0664342 -0.0372837 0.0627123 -0.044602 -0.165196 -0.125893 -0.148275 -0.153199 0.0133365 0.043008 0.0672612 -0.0765703 0.091481 0.00685719 -0.0607132 -0.0844591 0.095043 -0.0549897 -0.039133 0.120438 0.0963936 0.150056 0.0578216
9 -0.0921135 0.0653492 -0.0724347 0.0209229 0.0439891 -0.0678662 0.11244 0.0296196 -0.0250808 0.0425076 0.20046 0.0844274 0.120483 -0.149178 0.039997 0.00964471 -0.00743162 -0.00503602 0.0853098 0.0957642 0.155118 -0.0622369 -0.0761133 -0.00710446 -0.00287253 -0.0538902 0.110546 0.126333 0.218514 0.0874933 0.102256 0.0705775 0.0494677 -0.0866179 0.0401814 -0.0746337 -0.0054619 -0.02703 0.0296164 -0.136054 0.236859 0.0424954 -0.066668 0.0180564 0.0760434 -0.0703751 -0.0296206 0.0326056 0.108364 0.0509677 0.00853876 -0.0438199 0.0575123 0.0530907 -0.117526 0.132086 0.0531141 -0.111337 -0.00155921 -0.0487947 0.0174746 0.00320674 -0.129387 0.0304849 -0.0834752 -0.0555028 -0.047329 -0.0385686 0.0777351 0.148743 0.0974802 -0.0676575 0.0633781 -0.0185451 -0.0906254 -0.0502259 0.0948169 0.0313409 0.0371226 -0.0893578 0.0125422 -0.0317652 0.117963 -0.104 0.131828 -0.116016 -0.00122547 -0.00502124 -0.0673099 0.128629 0.07947 -0.0843592 -0.145453 -0.113427 0.0493818 -0.130563 0.0562077 0.165933 -0.055029 -0.0404868 -0.127548 0.0906594 -0.0347096 -0.17908 -0.0940177 -0.0332331 -0.0630343 -0.140148 -0.0450906 -0.0844031 -0.0515092 -0.104257 -0.0330476 -0.0510109 0.14605 0.128641 -0.05492 0.0143118 -0.0735286 0.100204 -0.0951104 -0.00483146 -0.157686 0.118146 0.050921 0.152495 -0.0119877 0.0196219
10 -0.0523901 -0.0598575 -0.0349046 -0.0475484 -0.0571736 -0.0112867 0.0568359 -0.0841873 -0.0482279 0.0268633 0.00811729 -0.15315 0.0839937 -0.176382 0.193914 0.0712653 -0.0659793 0.0916871 -0.125226 0.0458721 0.0850789 -0.111126 0.00525498 -0.03709 0.000172945 0.07652 -0.0721235 -0.111901 0.0733722 -0.0405387 -0.058099 0.0372197 -0.073986 0.0906662 0.115086 0.00962284 -0.123604 -0.0989211 0.067768 -0.0520897 0.118547 -0.128114 0.118892 -0.0450114 -0.040579 -0.00676259 -0.089166 0.0546907 -0.0301106 -0.133196 0.071824 0.0777287 0.021945 0.134005 -0.0513178 0.0651555 0.00801838 0.10985 -0.138626 -0.178575 0.0703846 -0.106234 0.0824649 0.0496728 -0.136732 -0.0179044 -0.0328628 0.0872654 -0.0365756 0.049072 0.0797529 -0.0792771 -0.00138927 0.112491 0.0688428 -0.111514 0.0553146 -0.046374 -0.0574235 0.0669692 -0.0215678 -0.0989917 -0.00289545 0.0710096 0.167412 0.0111561 0.064349 -0.0911431 -0.0303344 -0.134402 0.0909545 -0.137617 -0.136524 0.023786 -0.14887 0.00119682 0.0324046 0.152532 0.236204 -0.102254 -0.0306307 -0.0773901 -0.0956201 -0.0436069 -0.0759969 0.00634582 -0.163207 0.0547232 0.131612 -0.16871 -0.131444 -0.0687179 0.0262946 -0.00212267 -0.0307188 -0.0975805 0.0675788 -0.0435901 0.0676287 -0.0829902 -0.159258 -0.0100904 -0.0671527 -0.0283028 0.0344518 -0.0230627 -0.102598 0.0728358
11 -0.0253527 -0.126127 0.0768219 0.0610526 0.151922 -0.0293028 -0.124831 0.0969981 0.0347865 -0.00915979 0.112016 0.0542219 0.000782304 0.0127198 0.0369999 -0.0175672 -0.0573031 0.0321011 -0.0671346 0.0813268 0.0475347 -0.0872708 0.0456803 0.0192587 -0.0548512 0.0842452 0.0269921 -0.174878 0.0211765 -0.0564759 0.0824992 -0.0860294 -0.0834507 -0.0270909 0.06121 -0.0384794 0.100652 0.0653339 0.135395 -0.106402 0.118055 0.0109009 -0.119701 0.0992464 -0.0858835 -0.0464253 0.0227144 0.0335026 0.0912327 0.0538075 -0.0897261 -0.154159 -0.0140656 0.121294 -0.143553 0.115367 -0.0320093 -0.0252407 -0.0639101 -0.103976 -0.105192 -0.0805128 0.0216275 -0.099402 -0.140595 0.0612535 0.104467 0.0136055 -0.0482852 -0.0408018 -0.103413 0.0649832 -0.0732367 -0.0668671 -0.0595262 -0.177705 0.0757611 0.00292396 -0.21069 -0.0634434 -0.013574 -0.083227 0.0673381 -0.168562 0.070722 -0.00231619 -0.190474 0.0627027 0.151833 -0.0689924 -0.0129415 0.0858548 -0.144122 0.0689221 -0.0880765 0.0516721 0.0298025 -0.000193723 0.217908 -0.05601 -0.0256125 0.0398574 -0.174717 -0.0950344 -0.0579972 0.0435079 0.0300638 0.0501384 0.117759 -0.140849 0.0980906 -0.0582544 -0.00838754 -0.0871311 0.147775 0.0665406 -0.123962 0.0847253 0.00130134 -0.0931459 -0.026104 -0.0507993 -0.116418 0.0605482 -0.0533586 0.0457603 -0.166287 -0.0195396
12 -0.0508001 -0.0816115 -0.0156638 -0.12463 0.131238 -0.0394644 0.0375328 0.0776128 0.127501 0.0828272 0.0396852 -0.159414 -0.0924911 -0.19433 0.0903477 0.112697 -0.0551987 -0.0312583 0.0612165 0.0243626 0.0168221 0.0714731 0.132585 0.0434116 0.0888515 -0.0159294 0.040153 0.091321 0.0929315 0.0350078 -0.0441157 0.0890365 0.013421 0.156466 -0.0662354 -0.0914358 0.0428472 0.060488 0.211589 -0.0437468 0.0447357 -0.0989272 0.0192349 -0.0236938 0.108088 0.141154 -0.0148209 0.146192 -0.114523 0.0178598 0.00957026 0.0339676 -0.0874099 0.0441282 -0.122942 -0.0670099 0.0915425 0.131549 -0.100811 -0.00717499 0.0907978 0.06809 0.083564 0.0191376 -0.147441 -0.0412486 -0.117886 0.0517973 0.0734962 0.136065 -0.088739 0.121677 -0.102005 0.0625568 -0.0393326 -0.0787426 -0.104032 -0.147491 -0.0665861 -0.0271726 -0.132195 -0.018685 -0.0455626 0.0306128 0.0206847 -0.00672024 0.0615494 -0.063891 0.0276736 -0.000955137 -0.0543756 -0.16361 -0.123255 -0.00342742 0.112062 0.0555032 0.109681 0.119548 -0.0263057 0.10164 0.068678 0.154074 -0.0833725 -0.0260025 -0.0124304 -0.0342341 -0.193464 0.0116942 0.113561 -0.152698 -0.0697328 0.0612058 0.00344947 0.018648 -0.0785113 -0.010224 -0.141666 0.00193706 -0.0101839 -0.108327 -0.164423 0.0318651 -0.138664 0.118248 0.0327177 0.0429303 0.00339116 -0.0900417
13 -0.0118278 -0.12439 0.082357 0.014675 0.120402 0.0311971 -0.082317 0.0207838 -0.00501476 -0.0121428 0.0575039 -0.211385 0.0647958 -0.0309057 0.047058 -0.0267594 -0.120712 -0.0362619 -0.0124571 0.0456289 0.0919658 0.0361246 0.0434952 0.0697268 0.0667266 -0.0570447 0.0121611 -0.009821 0.151141 -0.154212 -0.0345085 -0.108788 0.032973 0.0632335 -0.131753 -0.0561279 0.150628 -0.125666 0.0880003 -0.0668495 0.159153 0.0258698 -0.0869946 0.112504 0.0473951 0.0246079 0.106141 -0.000820405 0.0321296 0.0827179 0.0951922 -0.0445477 0.0163342 0.0641242 -0.0887548 0.154236 -0.0055833 0.00228267 0.0714655 -0.130539 0.0882155 -0.0153338 0.139682 0.001638 -0.0749926 -0.0320416 -0.178345 -0.0655991 0.0845722 0.10083 -0.0416419 0.0140096 0.00919541 -0.0462146 -0.112146 -0.0760141 0.0781295 0.0533519 -0.136617 -0.11211 0.0309693 0.0542175 0.191736 0.0528959 -0.0358283 -0.146343 0.0854403 0.0719188 0.189149 -0.0678577 -0.0115157 0.0638668 -0.209726 -0.155869 -0.114934 0.0585107 0.0924715 0.0146669 -0.00852987 0.0423387 -0.0907319 0.0610002 -0.0660154 0.0762286 -0.00107979 -0.038743 -0.0266534 -0.0149026 -0.0588185 -0.0400457 -0.12554 -0.135691 -0.170525 0.00565216 -0.0621809 -0.0436205 -0.104585 -0.0518511 -0.0987468 -0.0436804 0.0289067 -0.0456349 -0.214681 -0.0876368 -0.0451731 0.150457 0.0756485 -0.0482446
14 -0.0646563 0.0293747 0.01605 -0.0313426 0.178525 -0.126511 0.0413102 0.0572594 0.0356362 0.0287287 0.0471643 -0.170441 0.0840556 -0.180438 0.155815 -0.0556386 0.0567862 0.0458435 -0.062954 0.196119 0.0584588 0.0072719 -0.123763 -0.0955486 -0.00705499 -0.107398 -0.0526133 0.00568203 0.0787097 -0.0969491 0.14833 0.159626 -0.0324058 0.0190453 -0.00272086 -0.144983 0.0679536 -0.0783027 0.0272209 -0.105199 0.0695708 0.0637672 0.0778504 -0.0755664 0.0669872 -0.0988376 -0.0618609 0.0562893 -0.0633213 -0.0921474 -0.0485323 -0.0872152 -0.010041 0.013251 -0.0027993 0.132676 -0.0980754 0.092103 -0.022296 -0.0864835 0.0665244 0.0484709 0.0534775 -0.067935 0.0321812 -0.0786138 0.15542 0.108986 0.0559719 -0.0659057 0.0933438 0.0245755 0.0510733 0.0302479 0.0533303 -0.141499 -0.010258 -0.191535 0.0175575 -0.117426 -0.0374527 0.0409457 0.129823 0.0939109 0.0689376 -0.0625829 0.0448173 -0.137975 0.0520786 -0.0910547 -0.128805 0.0143906 -0.159318 -0.121268 -0.0349443 0.0537337 0.207739 0.0889957 0.0360629 -0.0443414 -0.0108238 -0.0448063 -0.136746 -0.0449615 -0.0706749 0.102537 0.0643913 -0.0691631 -0.00501677 -0.00993477 -0.00790617 -0.186491 -0.0535534 0.0308597 0.0853031 -0.0285731 0.130167 -0.065729 -0.159018 0.00788627 -0.0958342 0.0451284 -0.0499808 -0.123797 -0.00610706 -0.0437228 0.065875 0.146692
15 0.0894861 -0.0819407 -0.0911403 -0.151401 0.127301 -0.0985879 -0.119376 0.0652234 0.0726424 0.0162038 0.0371159 0.0640491 -0.050746 -0.0460933 0.137043 -0.0863251 0.0418183 -0.0812765 0.0736794 -0.0668201 -0.05685 -0.0388498 0.0689212 0.0663912 -0.130602 0.119649 0.0898664 -0.116675 0.0110354 -0.0764589 0.0832016 -0.0086811 0.0764446 -0.0792872 0.0476798 -0.16515 0.0492451 0.0831053 0.194596 -0.133156 0.202536 0.0798221 -0.13178 0.026962 0.156933 -0.0382001 0.076995 0.0785036 -0.00425857 -0.0763863 -0.025806 -0.078801 -0.0511456 0.0438245 0.0319535 -0.0754312 -0.0989728 0.0334344 -0.0764385 0.0262773 0.073453 0.0450719 0.09543 -0.119302 -0.139613 0.135519 0.04059 -0.00824908 0.0014178 -0.0776088 0.130872 0.0538222 -0.0879909 -0.0428443 0.0415821 -0.0982271 -0.0262936 0.000654016 -0.0963517 0.0712037 -0.155584 -0.051385 0.10045 0.0268588 0.0115781 0.0813959 -0.0708421 0.0179889 0.161259 0.0822925 0.0451805 -0.0333078 -0.149833 0.00329664 -0.0119821 0.122452 0.101218 -0.129522 0.0573223 0.155509 -0.114161 0.128865 -0.114751 0.00565046 0.0514082 0.0170856 -0.107201 0.104131 -0.0597691 0.0115757 -0.0678332 -0.0772953 0.049603 0.101554 -0.00230894 -0.0657055 0.0629442 -0.0106135 -0.126143 -0.0287731 -0.0170953 0.0224625 -0.148578 0.0128916 0.0613908 0.147091 -0.121772 0.155113
16 -0.0302413 -0.0718658 -0.0202489 -0.112848 0.0951152 -0.0940735 -0.187888 0.00637633 -0.047012 -0.104041 0.156663 -0.171735 0.0545144 -0.130282 -0.0319208 -0.0373519 -0.00823817 0.0924881 0.0126379 0.133278 -0.0288018 0.0120689 -0.0427247 -0.0678191 -0.00656478 -0.0989211 0.120348 0.0636079 -0.01727 -0.18708 -0.0447429 0.0303627 0.138174 0.150096 0.0412485 -0.137023 0.0632194 -0.000826657 0.0646861 0.0253863 0.169068 -0.0615622 -0.097847 0.0884982 0.0141755 0.00596507 -0.147867 -0.0775035 -0.0122897 0.0216602 0.0503372 -0.17818 0.0979002 0.0663221 0.0769051 0.0717953 -0.150056 -0.0173064 0.0597693 -0.145683 0.136047 0.129535 -0.000878727 -0.0866436 -0.035225 0.0625421 0.130334 0.0574602 -0.0308281 -0.0999561 -0.0876398 0.0335023 -0.0533597 0.0287871 0.0846575 0.00584506 0.0892734 -0.189262 0.00616116 0.0211348 -0.132274 -0.035783 -0.00218403 0.0236412 0.0423052 -0.0341758 -0.0382827 0.0193769 0.159476 -0.0641543 -0.0927812 0.0154791 0.0286884 -0.139159 -0.0162413 -0.128971 0.177244 0.145587 -0.0227676 -0.0552358 -0.154775 -0.0326253 -0.0589957 -0.148197 -0.0959806 -0.0251912 -0.136502 -0.128571 0.0461375 -0.0678205 -0.0650198 -0.0577303 -0.14813 -0.0697649 0.0620748 0.0637078 0.0341342 0.0745732 -0.0265461 0.0124635 0.0185524 0.0841484 0.00699206 0.0625525 -0.0422297 -0.0428381 0.0586614 0.108422
17 -0.147867 0.0812283 0.0651791 -0.184236 -0.0460219 -0.128831 -0.146397 -0.00810165 0.0183349 -0.0254456 0.0117856 -0.0539081 0.00631908 0.0340064 0.0607969 -0.0995111 0.0867499 -0.0758699 0.0638638 0.0187823 -0.00287156 -0.0284939 0.0514391 0.117264 -0.0881709 0.170358 -0.00672087 -0.0136191 0.0381141 0.00667344 0.0137399 0.0752095 -0.016061 0.0681842 -0.0680996 -0.0987813 0.12446 0.038684 -0.00275156 -0.0989459 0.114802 -0.0975997 -0.0499741 0.0706279 0.114271 0.157753 0.0185964 0.119744 0.178666 0.0869212 -0.0679298 -0.0463375 -0.0785857 -0.0482677 -0.00212184 -0.00795198 0.0718741 0.0612374 -0.0859315 -0.0710549 0.148561 -0.156092 -0.0576911 -0.0957899 0.0455783 0.107012 0.0674624 0.12375 0.153532 0.0194129 0.0484643 -0.0866003 -0.11811 0.00326961 -0.0486298 -0.0781529 0.186054 -0.0697567 -0.155609 -0.0656318 -0.117089 -0.00121007 0.0537906 -0.173931 0.134684 -0.0270876 -0.11396 -0.0076325 0.100572 -0.0293648 0.000431836 -0.153693 -0.0463722 0.0139349 -0.0836836 -0.0418903 0.0201549 -0.0941222 0.209716 0.050989 -0.117183 0.096285 -0.11954 -0.0401551 -0.0455378 -0.0633202 -0.0857656 -0.0442013 0.000708974 -0.183235 0.00482687 -0.144735 -0.0504045 0.067007 0.0299062 0.0396741 0.0256621 -0.0827235 -0.171065 -0.0225494 0.081857 -0.116853 0.00134421 -0.0064703 -0.029091 0.0519218 0.0661578 0.0954863
18 0.0310425 -0.00842492 0.0492269 -0.0369489 0.113326 0.0365661 -0.100041 0.139937 -0.0245446 0.080327 0.0467549 -0.0236723 0.0191996 -0.124904 0.184913 0.0228587 0.0737035 -0.0452555 -0.0582489 0.185382 0.0997795 -0.0209367 -0.0846617 -0.0684791 -0.0156397 0.124272 -0.00894048 0.057364 0.161027 0.0301984 -0.0648555 0.0423671 -0.0515724 -0.00405382 0.0258007 -0.0654486 0.1477 0.101604 0.0771273 0.0323654 -0.0212042 -0.0300693 0.0966072 -0.06961 0.0368011 -0.0235545 -0.148771 0.02416 -0.00386621 0.0582879 0.110171 -0.0763337 -0.0901459 0.0816893 0.142728 -0.0589602 0.0212795 0.0436274 0.0487474 -0.112697 -0.0967605 -0.180958 -0.0126582 -0.0719737 0.0980198 0.0778625 0.0565924 0.0135348 0.185518 0.0243981 0.0012208 -0.120862 -0.0515715 -0.0193169 0.0899265 -0.141977 0.118271 -0.161351 -0.0384849 -0.0744085 0.01526 -0.0531835 -0.0104967 -0.107416 0.085708 0.0304502 -0.157187 -0.0795041 0.192105 -0.0380055 0.021281 -0.172172 -0.112539 -0.0437099 -0.0402183 -0.0427301 0.0923754 -0.0784921 0.172707 0.0151484 0.0437176 -0.07378 -0.000688473 -0.181953 -0.105529 0.0345181 -0.158628 0.0838919 0.0156068 -0.0587658 -0.0210592 -0.156064 0.0884496 -0.0633538 -0.0746035 -0.00963144 -0.0815698 -0.131665 -0.119032 -0.0209497 0.0586433 -0.0616028 0.000790982 0.0676099 0.0908867 0.175138 0.00473823 0.0845137
19 -0.0773194 -0.100255 -0.0555661 -0.0476254 0.143771 0.0126444 -0.021173 -0.0966224 0.0556663 0.0832581 0.130964 0.00996682 0.0316514 -0.209615 0.0749685 -0.131002 -0.00453611 0.0694847 -0.0600229 0.0737851 0.125187 -0.0688302 -0.00869656 -0.0886946 -0.0931565 0.0691535 -0.0827274 -0.0965765 0.0939173 -0.102636 0.0330988 0.0783168 0.124789 -0.0409337 -0.0964082 -0.147595 -0.193544 0.0233517 0.0938529 -0.192292 -0.0239056 -0.120602 0.0508563 -0.0795888 -0.087801 0.163152 0.00710063 0.0337895 -0.0316011 0.122948 0.0374601 0.0489966 -0.0458772 0.0695904 0.0674736 -0.0525923 0.00687968 0.115159 0.0701816 -0.109059 0.0521448 0.0278149 0.0600991 -0.00848323 0.0686959 0.0830877 0.0440072 0.131794 0.17845 -0.0696175 0.0495354 0.0409063 -0.00882715 0.112387 -0.0816547 -0.0597348 -0.110165 0.061518 0.0612225 -0.068939 -0.13461 -0.00559832 0.100181 -0.181985 0.00508544 -0.016874 0.0380577 -0.012856 0.114947 -0.0940858 -0.0757615 -0.060581 0.0168744 0.0250169 -0.0793494 0.0345084 0.119503 0.0218347 -0.0392331 -0.0774458 0.0189149 0.118747 0.0186119 0.000905065 -0.080563 -0.149408 -0.115988 0.0172164 0.139107 -0.141407 -0.0377565 -0.0342736 0.0716386 -0.105824 -0.109692 -0.13948 -0.0851616 -0.0123464 -0.0136017 -0.0218731 -0.173164 -0.125052 -0.0182881 0.00513831 -0.0843852 0.0909478 0.126733 0.119258
20 -0.128033 -0.0411105 -0.0219911 -0.09183 -0.077801 -0.070801 -0.00645767 0.0829891 0.0266779 -0.0847233 0.0534509 -0.0724806 -0.0921122 -0.125368 0.183506 -0.0974705 0.0777725 0.0363708 -0.0737494 0.0657458 0.170409 -0.10675 0.0165314 -0.0217975 0.13447 -0.0543115 0.00848656 -0.00698965 0.128924 -0.0651853 0.0803145 0.021657 0.0508768 0.110298 -0.0935659 -0.012879 0.0415222 0.021204 -0.0128893 -0.162411 -0.0211394 -0.0363917 -0.0648027 -0.0916237 -0.0158261 0.00809994 -0.151407 0.0379008 0.132973 0.102467 0.106079 -0.0213713 0.155965 0.102591 -0.113742 -0.0563074 0.138887 -0.153455 -0.112386 -0.112929 -0.00836541 -0.116832 0.118077 -0.0813267 -0.0227168 -0.0734736 0.112528 -0.0163069 0.11717 0.0570061 0.129747 0.134465 0.0655005 0.0186737 -0.147246 0.0353706 0.0549647 0.0375129 0.0648644 0.0777062 -0.160414 0.0398401 0.147474 -0.0492338 0.0652775 -0.053736 0.096117 0.0953781 0.120043 0.0311567 -0.00595439 -0.0209625 0.00706428 0.0656164 0.0839621 -0.0628306 -0.0455913 0.0494675 0.0439747 -0.0249011 -0.17814 0.0560139 -0.156324 0.00345133 -0.0312169 -0.0508101 0.0529475 -0.0645958 0.131654 -0.16803 0.0524661 -0.0604901 -0.000775921 -0.061763 -0.00623463 0.126973 0.0706741 0.0146247 -0.167544 -0.157597 -0.0911845 0.000991016 0.101831 -0.111132 0.0194385 0.109624 -0.0530119 -0.071963
21 -0.0610274 -0.0227301 0.052533 -0.0777496 -0.0668258 -0.11873 0.0401498 0.109557 0.0848508 -0.107557 0.0525366 -0.118759 -0.0729192 -0.14175 0.0407374 -0.0875324 0.00478619 0.0165942 0.0482945 0.0891213 0.00412257 -0.128355 -0.0685513 -0.133679 0.127948 0.0525699 0.0188555 -0.167277 0.267614 0.0300407 -0.0288643 0.0341397 0.0269994 -0.0420336 -0.0868527 0.0307137 -0.0823344 -0.0210955 -0.0163465 -0.159009 0.0717904 -0.109554 -0.0741272 0.0875021 0.103878 0.0719365 -0.00136606 0.0298364 0.0264739 0.0555799 -0.0709528 -0.0218968 0.138462 0.114474 0.0284441 0.0259221 -0.109229 0.118362 -0.0253311 -0.0035171 0.0568227 0.0162046 -0.00488758 0.00597803 0.0899901 -0.0785592 0.0118543 0.0152915 0.196921 0.0365313 0.095424 0.095106 0.0824447 0.159416 -0.00737526 -0.143446 0.0405826 0.0446492 -0.0003133 -0.0525111 -0.0395564 0.00380063 -0.0319491 -0.188165 0.19452 -0.0122311 -0.0591377 0.128409 0.0715454 -0.0181981 -0.0650173 -0.0696678 -0.19255 -0.0608211 0.0129324 -0.0889088 0.115588 -0.0298062 0.226634 0.051336 -0.0888358 -0.0237621 0.030017 0.00675952 0.0772141 -0.0725189 -0.0444975 -0.128151 0.160093 -0.0205337 -0.0499666 -0.0786129 0.049315 -0.107178 0.0848935 -0.0767521 -0.141127 -0.0206345 -0.0988491 -0.0638544 -0.0921958 -0.0443477 -0.00565085 0.106342 0.00569898 0.158747 0.080998 -0.0185524
22 -0.0799033 0.0397923 0.0686782 -0.0280234 0.0362767 -0.169045 0.038089 0.0201686 -0.0736538 0.0256611 0.0175601 0.00270612 0.0102051 -0.185236 -0.0586381 -0.139532 -0.0178211 -0.0157886 -0.0450866 0.00653363 0.0721752 -0.111412 0.0879986 -0.0963637 0.0421249 0.0638874 0.00187906 -0.0399684 0.0362841 -0.0864543 -0.0727453 -0.105842 -0.125046 -0.0129981 -0.0488225 0.0432886 0.0803964 -0.0958043 0.133458 -0.180376 -0.0765227 -0.131055 0.0508364 -0.111578 -0.0823898 0.075953 -0.0797228 0.0115676 -0.0239983 0.0684971 0.101041 -0.0237392 0.0115717 0.137054 0.0088307 -0.048995 -0.139479 -0.00739184 -0.0294739 -0.148792 0.123851 -0.00157045 0.123947 0.0657203 0.102749 0.0887024 0.096644 0.128474 -0.0749644 0.112224 -0.155182 0.0385756 -0.0690663 0.081864 -0.022085 0.0266664 0.0684551 -0.0362443 -0.00413528 0.134638 -0.0442842 -0.11041 0.15245 -0.0292395 0.114521 -0.068735 -0.108046 0.0946773 0.00848584 0.135808 -0.0988887 0.0694731 -0.0298525 -0.0474693 -0.167874 0.0956451 0.00540639 0.0788424 0.175509 0.188486 -0.0685122 0.126751 0.040482 -0.0484591 -0.0746712 0.0617509 -0.160575 -0.113112 0.0737788 -0.154624 0.108023 -0.218434 0.0278273 -0.0226204 0.0405496 -0.0260789 -0.0720165 0.00962812 -0.0326485 -0.0942595 0.0703328 -0.028343 -0.0786838 0.0428505 0.0922488 0.0545192 -0.0931949 0.0296972
23 -0.020971 0.0382549 -0.0170521 -0.127495 0.0387503 -0.0556908 0.0120064 0.0578841 0.0877546 -0.128617 0.143065 0.0538339 -0.0691999 -0.0410567 0.028469 -0.0241722 -0.0806656 0.103014 -0.0679404 0.138938 0.137241 0.00535419 0.0194409 0.0237196 0.0784879 0.13895 -0.0596923 0.0236569 0.00750466 -0.202099 -0.0508967 -0.0180434 -0.125756 0.099292 -0.0871575 0.00447586 -0.0110807 0.017351 0.184923 -0.186393 0.0570684 0.0527589 -0.0329542 0.119867 0.069046 -0.0368368 -0.0550129 0.178882 0.096732 -0.128986 -0.130269 -0.1689 0.0568743 0.0493492 0.047996 -0.0532799 -0.0748473 0.014207 -0.062256 0.00896362 -0.0827464 0.0987129 0.110018 -0.0241888 -0.0520214 -0.0408877 0.143298 0.00709229 0.0310957 -0.054283 -0.0384146 -0.0946757 -0.047245 0.00847043 -0.0660239 -0.0711484 -0.0568607 0.0171963 -0.0965981 0.0300975 0.0495788 -0.120239 -0.00524974 0.0556769 -0.085748 -0.166853 0.0513935 -0.0976703 0.129871 0.129545 0.00697713 -0.147656 -0.0931338 0.0414065 -0.123325 -0.107139 0.163989 0.0379005 0.0752854 0.124346 -0.0270087 0.00956746 0.0489672 -0.0938784 0.00742298 -0.115369 0.0685755 -0.0903881 0.00791586 -0.22384 -0.0799121 -0.18385 -0.0473732 0.0074242 0.150852 0.112829 0.00869163 0.0616425 0.0298737 0.0532871 -0.0558705 0.000576372 -0.0525448 -0.115619 0.152179 -0.0455567 -0.0498527 -0.0429062
24 -0.0877504 -0.0348803 0.0186178 -0.00800324 0.123462 -0.0227592 -0.0651058 0.164729 0.106976 0.014944 0.186613 -0.114388 -0.0405327 -0.103601 0.0506779 -0.0446202 -0.0728245 0.0966064 0.055739 0.103123 0.0977546 -0.0244839 -0.0238956 -0.0642103 -0.080467 -0.0194095 0.00188529 -0.014768 0.108939 -0.190049 -0.00352361 0.0180802 0.00336552 0.044213 -0.00175778 -0.0588228 -0.0105133 -0.0759824 0.135583 -0.127171 0.0123813 -0.0295053 -0.0878544 -0.0142646 0.13552 -0.0666599 -0.100576 0.0756581 0.0829766 0.0858895 0.09496 -0.190807 0.147419 0.0105347 -0.0801238 0.0666548 -0.0641611 0.0503727 -0.0601506 0.0254779 0.0350745 -0.0253826 0.0857013 0.00370761 -0.0919516 0.0126936 0.0656524 0.0603025 0.16966 0.0712588 -0.0646853 -0.0223422 -0.0079207 0.0854567 0.0057975 -0.185306 -0.0270514 -0.116032 -0.086138 0.0485175 -0.0468915 -0.0953155 0.0849947 -0.0872932 -0.0104284 0.0967759 -0.154673 -0.0872445 0.0879365 0.00222055 0.145833 -0.0463625 -0.09886 0.0219321 -0.0521025 -0.0450198 0.141953 0.0253112 0.0818854 -0.0239167 -0.172892 0.177187 -0.0749544 -0.108574 -0.203624 -0.00928833 -0.016591 -0.0811156 -0.00538982 -0.0609714 -0.00706266 -0.112802 -0.176135 0.10871 0.197582 0.0225567 0.0310543 0.0540705 -0.132298 -0.0705028 -0.172743 -0.0708272 -0.103514 -0.0124091 -0.00821755 -0.00130186 0.0445957 -0.00815235
25 -0.153105 0.0317259 0.0610049 -0.0776238 0.146238 0.018099 0.0143851 0.0649168 0.0262927 -0.14267 0.0199059 -0.135632 0.129456 -0.0850071 0.0585957 -0.0900024 0.081045 -0.00154476 0.0907524 0.00360723 0.190231 -0.0921744 -0.0128676 -0.0713156 0.134718 0.0518395 0.136667 0.0954238 0.146931 -0.11439 -0.0460209 -0.00774911 -0.145113 0.0817933 0.00884449 0.0306344 0.156359 -0.00395886 0.0677238 -0.100527 0.0631522 0.0189909 -0.0624442 -0.0314398 0.0491549 0.0560631 -0.154674 -0.0462364 0.052513 -0.0759894 -0.00999331 0.0962913 -0.0145329 -0.0453419 0.0147076 0.120013 -0.0632488 0.0215851 -0.0637191 -0.169262 0.0987661 0.100109 -0.107134 -0.146678 -0.0854244 0.112466 0.0457263 0.0132444 -0.0287475 -0.0504403 -0.00658677 0.0547045 -0.140288 -0.0908411 0.0408116 0.0471485 -0.0191906 -0.156808 -0.0465764 -0.0446867 -0.0605199 -0.152162 0.054619 -0.184679 -0.0155707 -0.119544 -0.0442422 0.0766918 0.110387 0.0137394 -0.134069 0.0582863 -0.00212985 0.100595 -0.0500275 -0.0833751 0.167662 0.0829732 0.11578 0.14754 -0.0911247 -0.0942151 -0.122809 0.0497546 0.0229943 0.0069052 -0.10164 -0.0354833 0.0894494 -0.00981081 0.0407288 -0.0739077 -0.13661 -0.00734994 0.0188839 0.0741991 0.00775661 0.116027 -0.137099 0.00413218 -0.125639 0.029883 0.0123401 -0.0116339 -0.0483766 0.149263 0.094062 -0.108493
26 -0.124369 -0.0807424 -0.00149753 0.0489715 -0.0169021 -0.185451 0.0399079 -0.00365741 -0.030822 0.0520087 0.231834 0.0423133 -0.046192 -0.0864597 -0.0173287 -0.113032 0.00493519 0.0539621 -0.00481789 0.1697 0.13006 -0.0330212 -0.109992 0.021859 -0.0310804 0.106541 -0.149453 -0.0612303 0.0618319 -0.0777109 0.0206449 -0.0281016 -0.0100609 0.0805256 0.00612899 0.039593 0.0160333 -0.0817943 0.271733 0.00319101 0.0881241 0.0691947 0.0876292 0.156374 0.149378 0.0868061 -0.0495662 0.0128831 0.0652339 0.129939 0.104542 -0.113042 0.118367 0.0193409 0.0219625 0.00442261 -0.0995222 -0.0560362 -0.107293 0.0310783 -0.0517397 -0.109736 0.0585503 0.0318826 0.0784325 -0.0118226 -0.112831 0.129505 0.033748 0.082142 -0.134681 -0.0453551 0.0234199 -0.0518484 -0.0717594 -0.154406 0.0373906 -0.16706 -0.0627538 0.0744513 -0.0465482 -0.140712 -0.0297084 0.109192 -0.0666677 -0.0331225 -0.184107 -0.111885 0.183076 0.0163615 -0.0189037 -0.0030034 -0.0942183 0.0369981 -0.0434377 0.0658553 0.0686442 0.0838943 0.0883798 0.189334 -0.0207796 -0.00631165 -0.0149961 0.0688647 0.0453641 0.0608568 0.0604961 -0.0297653 -0.0259775 0.007138 0.086674 -0.0576203 -0.202199 0.00470207 0.0187161 -0.113746 0.0816619 0.0382716 -0.107775 -0.102882 -0.0351049 0.0205655 0.0656941 -0.0549551 0.0446423 -0.06914 -0.113718 0.0830019
27 -0.153633 -0.0627859 -0.0923796 -0.00440744 -0.0861788 -0.194612 0.0294283 0.00593765 -0.039383 -0.00472492 0.168287 0.0143528 0.0608422 -0.0720287 0.107983 -0.124098 -0.0366988 0.181391 0.122293 0.107037 0.0742596 0.0535692 -0.128732 -0.0948092 -0.0193026 -0.0442611 -0.0866567 -0.0192294 0.125843 -0.0548613 -0.00113999 -0.0932762 -0.0644575 0.167328 0.0869484 0.0529493 -0.0030949 0.0905611 0.139317 -0.125937 -0.0189573 -0.0150276 0.0607799 0.0184307 0.0690455 0.0833718 0.0313323 -0.0167444 0.0635097 -0.126903 -0.0164584 -0.0808933 -0.0880838 0.0193275 -0.000402818 0.086704 0.0282324 0.0236847 -0.096888 -0.0184577 0.126051 0.094907 0.00176911 -0.0878106 0.0871223 0.122582 0.0744287 0.100713 0.040688 0.103144 0.00573817 -0.108625 -0.126518 -0.0516697 -0.145417 0.0352473 -0.0970666 0.090684 -0.0956895 -0.101737 -0.0691192 -0.118824 0.208041 0.010159 -0.0910739 -0.044109 -0.0519383 -0.151151 0.084953 0.116198 0.087938 0.0298606 -0.0328445 -0.13848 -0.0289858 0.12133 0.0793829 0.0691416 0.183314 -0.101583 -0.0243678 0.092242 -0.022551 -0.144424 -0.078017 -0.0440072 -0.103543 -0.0432119 -0.04366 -0.0771159 -0.0108483 -0.16459 0.0274193 -0.067873 -0.117688 -0.00511819 -0.0252628 -0.0215022 -0.103897 0.0599615 0.00610129 -0.111546 0.0373673 0.0565876 0.0130792 0.147115 0.0776016 -0.0687949
28 -0.0564647 0.0180605 -0.0228034 0.0281336 0.0231382 -0.0617689 0.00737873 0.101169 -0.0104603 0.0359825 0.0548249 -0.144262 -0.0277165 -0.0263693 -0.0490085 -0.0837325 0.138711 0.152246 -0.0831863 0.0214717 -0.10764 -0.0978895 -0.115042 0.0992732 0.0984715 0.0684968 -0.0395313 -0.146415 -0.0214146 -0.130844 0.0417006 0.0509988 -0.0334366 -0.035531 -0.0589389 -0.19003 0.033813 -0.0439868 0.217752 -0.150022 0.201684 -0.0681928 -0.0577803 -0.0345405 -0.0169776 0.0607349 -0.124952 0.0149495 0.177924 -0.170712 0.0836386 0.00190072 -0.0795626 -0.0197882 0.0467944 -0.0335289 -0.0146088 0.023118 -0.105488 -0.163071 0.1619 0.0952715 0.127216 0.112689 0.0956842 0.00279548 -0.135294 0.10781 0.0665247 -0.0252004 0.0256238 -0.0749788 -0.0166933 -0.0408605 0.0628424 -0.0958562 0.0459099 -0.0930129 -0.143001 -0.0564536 -0.0668277 -0.124365 0.0492498 -0.101662 0.0393013 -0.0698602 -0.0723076 0.0568035 0.0199138 0.0665406 -0.0460924 -0.0956214 -0.223815 0.0318108 -0.110496 -0.06136 -0.0104039 0.0980138 -0.0158442 0.0113253 -0.0136321 -0.0209745 0.0328525 -0.0747767 -0.0282291 0.0256318 -0.136104 -0.0875872 0.107535 0.00496512 0.0154228 -0.0153586 -0.103553 -0.0517251 0.0982374 0.0763125 0.0708193 0.168054 -0.112029 0.0192076 -0.124716 -0.0843595 -0.0213678 0.124831 -0.123394 0.0512391 0.075253 0.0304283
29 -0.0716386 0.0164471 0.0213575 -0.0245853 -0.0265485 -0.0131807 0.046053 0.0449468 0.0642274 -0.00915751 0.0520436 0.00223977 0.00531176 -0.187254 0.165388 -0.0441497 -0.0415708 -0.111909 0.0325172 0.066606 0.124182 -0.179242 0.0707997 0.118758 -0.00887053 0.0279709 0.128699 -0.0466047 0.0505305 -0.0629336 -0.0521853 -0.0106378 -0.0462283 -0.00378439 0.0327148 0.0669588 -0.129607 0.0369656 0.212659 -0.0441541 0.0667262 0.00488259 -0.0692478 0.100111 0.0850577 0.0158651 -0.0673837 0.0143344 0.0315965 0.0846177 0.0416634 -0.128572 0.0150261 0.102013 -0.127792 -0.116172 0.0320393 0.0190735 -0.0802135 -0.0431856 -0.0230387 -0.0750366 -0.0377895 -0.113078 0.108792 0.107469 0.0618616 0.00990121 0.0858873 -0.0896023 0.0739102 0.0731489 0.0639671 0.07884 -0.0458852 0.00484714 -0.0448043 -0.175575 -0.056595 0.0308228 -0.019368 -0.197059 -0.0467515 0.0255852 0.131377 0.0377387 -0.0991249 -0.0788141 0.190123 0.0541386 0.0492103 0.0816687 -0.0950699 -0.0137624 0.134804 0.0628699 -0.0501102 0.0669138 0.105386 0.160654 -0.0321347 0.0995507 -0.114252 -0.158251 0.112992 -0.0892524 -0.214669 -0.136583 0.192783 0.0010443 -0.0188641 -0.00434806 -0.0353872 -0.0909672 -0.0418733 0.0956774 0.0296496 -0.158286 -0.126645 -0.038268 -0.030365 -0.0723987 -0.157757 -0.0169536 -0.111617 0.0799801 -0.098973 0.0355432
30 0.0342859 -0.106764 0.00156591 0.111949 -0.0387174 -0.104609 -0.164198 -0.0474279 -0.0870734 0.0615116 0.0720671 0.0181735 -0.0338507 -0.157251 0.0792315 -0.0771884 0.05362 0.129833 -0.100575 0.170461 0.119032 -0.100354 -0.0420627 0.13502 0.0471852 0.149627 0.0938396 -0.0482886 -0.0763743 -0.0446019 0.0862643 0.114338 0.0908175 -0.0728832 0.0422796 0.0512244 -0.0668014 -0.0297379 0.129016 0.00515195 -0.00461833 -0.1043 0.0711809 -0.0429405 0.18729 0.0147414 0.0847201 0.134643 0.12372 -0.0294518 0.126774 0.0494636 -0.12299 0.0682052 0.0310277 -0.103616 -0.048732 0.0270764 0.0835292 0.0426497 0.0692167 0.115125 0.115672 -0.109436 -0.106006 -0.0573017 0.0633556 0.0279781 0.109601 -0.0765962 -0.0990616 -0.0680018 -0.136535 -0.058638 -0.0460844 -0.123076 0.0256795 -0.15794 -0.143781 0.033184 -0.0255097 -0.202093 0.0251808 -0.0502173 0.0278009 -0.0508482 0.0530522 0.0987833 -0.0790303 0.0707789 -0.0495632 -0.16736 0.0327807 -0.0195005 0.0815025 0.024451 0.0721076 0.1139 -0.0310082 0.0330442 -0.0142704 0.126136 0.00510837 0.00505379 0.0459859 0.031035 -0.0458173 0.053183 0.014109 -0.163794 -0.0685127 -0.115275 -0.124264 -0.0991999 -0.0458564 -0.074809 -0.0319826 0.115982 0.069783 0.048379 -0.0933153 -0.0108727 -0.133685 0.0938448 -0.0158949 0.12098 0.15183 0.0652103
31 -0.0490692 -0.0928137 -0.0101205 -0.0599269 0.0224799 0.036529 -0.0877637 0.102495 0.160562 0.0934272 -0.0130272 -0.130808 -0.0617209 -0.0166906 -0.0100787 -0.0109765 0.00539477 0.000748087 -0.0113781 -0.0213798 0.032417 -0.012975 0.0803647 0.0427345 -0.0459317 -0.102028 -0.00299419 0.0642555 0.118805 0.0197395 0.115661 0.00312671 -0.129965 0.0536858 0.110895 0.0328905 -0.104621 -0.000390463 0.140639 -0.215829 0.133183 -0.0916509 0.10427 -0.0823917 -0.0244017 -0.0279299 0.0590089 0.0218466 -0.0284073 -0.0841201 0.0764117 -0.0531429 0.116566 -0.0351111 0.0362248 -0.0961937 -0.0370678 -0.0854022 -0.129088 -0.188778 0.112367 0.0767068 0.0552364 -0.158029 -0.0472639 -0.0459437 0.128402 -0.0681135 0.0221781 0.109112 -0.0166719 -0.0648032 0.0728785 -0.0710365 0.00822131 -0.104532 0.12856 -0.111084 0.034891 0.0134509 -0.107489 -0.0550234 0.0952363 -0.11962 -0.0361241 -0.135435 -0.119104 0.124639 0.143785 -0.0989932 0.0769398 -0.0477246 -0.14238 -0.0867938 -0.0885244 0.0161486 0.157996 -0.0731176 0.0725581 -0.00500714 -0.118409 0.103266 -0.154741 -0.124118 -0.0918567 -0.110669 -0.0312304 0.0996228 -0.0692 -0.0375706 -0.0175015 -0.00934552 -0.0409688 -0.130876 -0.0672385 0.120952 0.0807083 -0.00376789 -0.131702 -0.134404 -0.0104686 -0.108319 0.0888631 0.0903322 -0.0751925 0.0970253 -0.139679 0.0969058
32 -0.201885 0.106273 -0.0895867 -0.0733967 0.186654 -0.0980646 0.0358405 0.043202 0.143424 -0.0895106 0.135525 -0.0715804 0.128493 -0.0707826 0.120392 -0.0719923 -0.105835 0.129318 0.0995224 0.107836 0.110501 -0.146457 -0.0780702 -0.00778465 -0.0563329 -0.0286237 -0.0212626 0.0204328 0.0210696 -0.0200915 0.049095 0.0341355 -0.0738685 -0.0613519 -0.0533052 -0.118116 0.129091 0.0912746 0.0389002 -0.040276 0.209911 0.09181 0.0467415 -0.033494 -0.0608846 0.0817106 -0.0393442 0.0942381 0.0957161 0.00359768 -0.0176497 -0.0942347 -0.0530463 0.055198 0.0407724 -0.0398132 0.0343661 -0.0642719 0.00969609 -0.176698 -0.114115 -0.0583506 0.0351482 0.0104755 0.0471683 0.134519 -0.130749 0.0216482 -0.000651929 0.0693428 -0.0860751 0.0997115 -0.117702 0.137868 -0.00897442 0.0613162 0.0481892 -0.0569642 -0.108206 0.0503809 -0.0458136 0.090213 0.178799 0.0183312 -0.00635922 -0.155928 -0.10034 -0.0872882 -0.0542819 0.158743 -0.00779235 -0.0274723 -0.0415134 0.0292524 0.104864 -0.0408078 0.1053 0.0233172 -0.0165649 0.0903873 0.0151158 0.190932 -0.102856 -0.0626967 0.0066826 -0.0856772 -0.154158 -0.00883195 0.0970808 -0.150878 -0.00621093 -0.117769 -0.151228 -0.00835944 0.036685 0.0555177 0.125957 -0.0179084 -0.0674118 0.0227892 0.0949253 0.0526785 0.02299 0.143403 0.0365214 0.0392666 0.0641121 0.00679878
33 -0.0867018 0.104474 -0.102001 -0.161832 0.0451203 -0.162351 -0.140797 0.0621964 0.0261461 0.123538 0.0851509 -0.0496977 0.0264613 -0.141072 0.0525132 0.000290451 0.0121482 0.112449 0.140961 -0.00066991 -0.00683501 0.00801096 -0.0200232 0.0447998 -0.0503984 0.000193035 0.0556356 -0.0949005 0.10976 -0.14868 0.00395797 0.0110646 -0.108362 0.135609 0.0111288 0.0717673 -0.010664 0.0343381 0.0601253 -0.236312 0.174583 -0.00621475 0.02426 0.094782 -0.0354869 -0.0615389 0.135887 -0.0166555 0.101548 -0.133131 0.0755339 -0.0207482 -0.0850245 0.214556 -0.0193915 -0.0528009 -0.0357968 -0.0944746 0.0258608 0.0156361 0.0841062 0.0151753 0.0019136 -0.174895 0.0410885 0.0359512 0.0624407 -0.0179905 0.130054 0.034703 0.11011 0.0225271 0.0247418 0.138202 -0.0990246 0.0322364 0.0345919 -0.0975384 0.024682 0.04608 -0.0793919 0.0414846 0.125226 0.0521931 -0.12323 -0.16702 -0.0641652 0.0513792 -0.0565115 0.0220447 0.0622516 -0.0971045 -0.171132 -0.0529864 -0.051941 0.0360728 -0.011132 -0.108796 0.0604714 -0.0918515 -0.134542 -0.0178463 -0.0405039 0.0445089 0.0338917 0.0945254 -0.128994 0.0249228 -0.00790856 -0.0360447 -0.146078 -0.242036 -0.0520033 0.025634 0.114031 -0.00510158 0.0682974 0.0985823 -0.0913695 -0.0998842 0.0508326 0.0599276 -0.0424677 -0.001827 0.0216041 0.145518 0.0329416 0.11945
34 -0.00714339 -0.0907107 -0.0481743 -0.0794308 0.0714941 -0.134348 -0.137131 -0.0936805 -0.00730653 -0.0421618 0.0117116 -0.0781695 -0.043723 -0.145512 0.0941461 -0.155576 -0.10396 -0.0634442 0.133609 0.0867164 0.0460279 -0.0114567 -0.0797942 -0.0785113 -0.00384722 -0.0124641 -0.000125328 -0.176497 0.134363 0.0464339 0.00525112 -0.00649966 -0.0464471 -0.0171247 0.0177696 -0.121911 0.116365 0.0330352 0.0900964 0.0186425 0.0556823 -0.0851968 0.105741 0.132926 0.0749841 0.142547 -0.145202 0.115257 -0.0027418 -0.119887 0.120058 0.0508155 -0.0797223 -0.0399229 -0.103389 -0.0875412 -0.00356242 0.0772129 0.0382988 -0.0201273 0.0615347 0.0446724 0.0656006 0.0337888 -0.107091 0.0663609 0.174605 0.168333 0.0773533 0.133686 -0.0771037 0.0101168 -0.111189 0.0854191 -0.0115845 -0.0216586 -0.0989996 0.06806 0.00201682 0.156468 0.03438 -0.181229 0.107017 -0.137997 0.175079 0.0329757 -0.168201 0.0157944 0.0818721 -0.104712 0.0954518 0.0821662 0.0353019 -0.0547587 0.0988018 -0.101421 -0.0153281 -0.0977439 0.0930628 0.0449646 0.00248628 0.123162 -0.0981577 -0.0640847 -0.171888 -0.0709557 -0.04597 0.0445649 -0.0148201 -0.138449 0.00249947 0.0080885 0.0131333 -0.0011587 -0.0181605 0.0763047 -0.124993 -0.108032 0.00772074 -0.0130848 -0.146089 -0.0702985 -0.0742847 -0.0745869 0.00465686 0.0811217 -0.0759652 -0.0837367
35 0.0187931 0.0991536 -0.0636137 -0.0586342 0.00467543 -0.160793 0.0348169 0.162334 -0.0961494 0.00988075 0.0293893 -0.192149 0.0271629 -0.134296 0.0913928 0.0331012 0.0843755 -0.110424 -0.0142274 0.041333 0.102388 -0.0285481 0.10656 0.0234643 0.0674716 0.00686347 -0.114498 0.0141554 -0.0213506 -0.14669 0.178733 0.0232302 -0.0518286 0.169339 0.0320283 -0.0867679 -0.0966422 -0.00969211 0.212181 -0.0930098 -0.0243003 -0.0513582 0.0252072 -0.097533 0.171817 0.109255 -0.0595093 -0.0747821 0.0633263 -0.13206 -0.0961741 0.00604075 0.0636547 -0.0585922 -0.0259849 0.111079 0.0929382 0.0507948 -0.12256 -0.165137 -0.0329001 -0.0128023 0.136522 -0.0998925 -0.00407793 -0.014406 -0.0581699 -0.0665625 0.0800785 0.00459805 0.0262078 -0.0364532 0.0551036 -0.0904075 -0.10633 -0.00910399 -0.0698044 -0.068516 -0.155288 -0.0739068 0.00882311 -0.101345 0.0776873 -0.0680882 0.00442723 -0.0488365 0.0658018 0.0537133 0.140949 -0.10641 -0.0686128 -0.116202 -0.180219 -0.0612808 0.0435311 -0.0307652 0.010546 0.0924465 0.181784 -0.118271 0.0249244 0.0384883 0.0413 0.0921518 -0.176284 0.0022913 -0.0677993 0.0125925 -0.0221994 -0.102375 -0.162031 -0.104618 0.0839171 -0.114838 0.0119176 0.0350877 -0.151434 -0.0678318 0.0834261 -0.0426652 -0.0410516 0.0274538 -0.0751171 -0.0988031 0.0427579 0.0681286 -0.0308596 -0.0511927
36 -0.0843743 -0.0786228 0.0371943 0.0265896 -0.0627156 -0.0154935 -0.0624114 -0.0395166 -0.0676887 0.00225461 0.0346501 -0.0640718 0.0672325 0.0266648 0.0988309 -0.0160568 -0.160094 -0.0291675 0.028536 0.0718898 0.101965 -0.0906127 0.0554211 0.117125 0.0525329 -0.0031124 -0.102421 -0.156757 0.16598 0.0535117 0.0639239 0.102869 0.024228 -0.0502681 0.0957643 -0.0269845 0.00064564 -0.116528 0.171982 -0.196357 -0.0580508 -0.0491876 -0.0508045 0.0149721 0.160499 0.0913192 -0.12497 0.182244 -0.0473814 0.0586135 -0.0228527 -0.116984 0.115102 0.110129 0.0808932 -0.00388349 -0.127465 0.0188994 0.0977173 -0.0335377 0.0538821 -0.0078703 0.121598 -0.130936 0.0401799 0.159731 0.0923577 0.0822925 0.160069 -0.112987 0.0780014 -0.0655574 0.110929 -0.0664236 -0.114969 -0.0283467 -0.0331607 -0.126924 0.0277433 0.142989 -0.177958 -0.0144453 0.100512 0.0138037 -0.0339908 0.0114328 0.0230049 -0.0227547 0.101049 -0.0823426 -0.0136347 -0.0312285 -0.0872333 0.0180689 -0.162137 -0.076816 0.0400271 -0.0229068 -0.0360586 0.0399022 -0.0271615 0.117163 -0.0582695 -0.132617 0.0565825 -0.101004 -0.062735 -0.124238 0.0565243 -0.0512257 0.0755163 -0.135771 -0.0477135 -0.0547151 0.0105498 -0.0456324 -0.166587 -0.0790756 -0.0250072 0.0334632 -0.04054 0.00408792 -0.112264 -0.0665237 -0.0245315 0.194565 0.0264421 0.177225
37 0.0348797 -0.0150338 0.124668 0.0829484 -0.012192 -0.191562 0.0327135 -0.0357442 -0.0187214 -0.114335 0.173955 -0.18972 -0.107193 0.0237108 0.078723 -0.0677833 0.0720301 0.10314 0.0626359 0.0789369 0.026082 -0.0106171 0.0362235 -0.0989766 -0.038905 -0.0179825 -0.118154 0.037569 0.0714453 0.0248629 0.0891453 -0.00046698 -0.0744626 0.173661 -0.0921346 -0.0714646 0.111423 0.0994742 0.0894206 0.0423773 0.12016 0.0270081 0.0707726 -0.0818583 0.161292 0.0708425 0.0490861 0.0404437 -0.0324184 0.132753 0.0354777 -0.0395351 0.129775 0.110826 -0.016732 -0.00153375 -0.0224119 -0.00734837 0.0486499 -0.0899025 -0.0346696 0.0336478 0.149493 -0.150797 0.105865 0.0782281 0.0274888 0.0742411 0.104149 0.0159794 0.117252 -0.129993 -0.126091 0.0473631 -0.0701333 -0.0373021 -0.105116 -0.0462729 -0.0669669 0.0054472 0.0779743 -0.0653308 -0.0628694 0.0791313 0.00187906 -0.0103538 -0.160842 -0.0485031 0.159578 0.0238324 -0.0480371 -0.094071 -0.014305 0.0202589 -0.0694155 -0.124017 -0.0180818 0.0294889 0.202101 -0.0227149 -0.057126 0.145283 -0.0815068 -0.100573 -0.05055 -0.133826 -0.069721 -0.159686 0.0516873 -0.0404964 0.0869372 -0.0328512 -0.0235202 -0.139088 -0.0778568 0.109026 -0.0936658 0.0856118 -0.168163 -0.048947 -0.0432681 0.0537297 -0.133415 0.104326 -0.0710531 0.0776439 0.0133324 0.14762
38 0.0534501 -0.113081 0.11177 -0.117891 0.118537 -0.0457247 -0.0278249 0.146529 0.112186 0.0651212 -0.0684864 -0.156368 -0.150774 -0.0541426 0.0738162 0.0822643 0.0626141 0.129916 0.0647589 0.0523322 0.102474 0.0407555 -0.0160639 -0.0137927 -0.0656634 0.0865759 -0.0358457 -0.00538224 0.0101055 -0.150769 0.169925 -0.0388455 -0.00368567 0.0161985 -0.00532871 -0.0345033 -0.0029255 0.0477572 0.0776077 -0.0411801 0.00448892 0.0674867 -0.0701122 0.154448 0.152279 -0.0472306 0.0314181 -0.0347157 -0.00623134 -0.0451124 -0.0444575 -0.113272 -0.0602988 0.0228586 -0.124291 -0.0395517 -0.00115961 -0.0508967 -0.0465077 -0.152632 0.0303219 -0.0590099 0.00618818 -0.115062 -0.113637 -0.0248783 -0.0112152 -0.05648 0.0707512 0.0867544 -0.120608 -0.0156047 0.0786376 -0.00332801 0.0280561 0.0307549 -0.114785 -0.0970342 -0.199723 -0.0611129 0.0480891 -0.0132448 0.0152863 0.0596522 0.106239 0.0143406 -0.0711791 0.158331 0.0371771 -0.0399067 0.0950493 -0.160015 -0.0498264 -0.107505 -0.110151 -0.00594581 0.103378 0.0139471 0.197348 -0.0280678 -0.104173 -0.0219583 -0.177951 -0.153685 -0.0404381 -0.164913 -0.115508 0.0355599 0.137442 -0.161796 -0.0724387 -0.010374 -0.101068 0.0751364 0.0232066 -0.0014402 -0.150997 0.0601677 0.03688 -0.108251 -0.123458 -0.0709181 -0.0875094 -0.0253756 0.115246 0.152428 -0.0835594 -0.060816
39 -0.0396 0.0909563 0.0357539 0.115076 0.11811 -0.0947988 0.0152731 0.067081 -0.0573421 -0.00789677 0.0676953 0.00799336 0.0589147 -0.00941103 0.0365279 0.0271866 -0.019271 -0.0416832 0.0446359 0.0554666 0.0633191 -0.0191607 -0.0184214 -0.0046698 -0.0212051 0.0115881 0.0803288 0.0265099 0.164225 -0.132179 0.185338 0.118587 -0.157715 0.0284005 0.0563708 0.0467832 0.170318 0.115209 0.138047 -0.225713 0.0341504 0.0963951 -0.00144714 0.193121 0.0469176 0.0360924 -0.029361 0.0688318 0.00923907 -0.0479971 0.0271689 -0.0180092 0.0311345 0.132546 -0.100229 0.023815 0.0911433 0.0101964 0.128745 -0.211253 0.0644622 -0.0299939 0.0224434 -0.160487 0.0954803 0.129716 0.057438 0.118447 0.0359641 -0.0915773 -0.0428685 -0.019214 -0.134931 0.0110697 0.0240572 -0.127987 0.0267487 -0.0342361 -0.0738894 -0.0885828 -0.0164791 -0.101175 0.090409 -0.160919 0.109575 -0.128437 0.0976024 -0.0238353 0.0012444 -0.0334537 0.0806541 -0.0128269 -0.00213491 0.11362 0.0882996 0.0684377 0.224887 0.0595448 0.0631402 0.165384 0.0159788 0.0239926 -0.0323214 -0.0355103 0.0219497 0.00351398 -0.0475997 -0.00252636 0.0766292 -0.0358577 -0.157499 -0.128417 -0.0434071 0.0533658 0.0857209 -0.0371214 -0.0606209 0.139383 -0.0340363 -0.0619179 0.00439318 -0.113413 -0.0259809 -0.0752645 -0.153339 0.120883 0.157272 0.051542
40 -0.0529545 -0.0326446 0.106376 0.0882553 -0.0747639 -0.240005 -0.0601665 0.115573 -0.0332384 0.0362756 0.0731712 0.0156963 -0.0130641 -0.0115448 0.15709 0.133415 -0.0119787 0.0479326 -0.00285008 0.0996722 0.153624 -0.136598 -0.0814845 -0.058256 0.0929416 -0.0729413 -0.0487732 -0.140559 -0.03949 -0.031033 0.0880703 -0.0151229 0.0423771 0.0467289 -0.00210716 -0.0329838 0.0368127 -0.0585866 0.0320098 -0.00193194 0.0822375 0.108129 0.0961312 0.207925 -0.0321137 0.110839 -0.0898074 0.162354 0.154763 -0.097298 0.086615 -0.0853822 -0.0644506 -0.0200171 0.0210585 -0.0430279 -0.0270797 0.10605 0.0298181 -0.128052 0.0665458 -0.0204692 0.103909 -0.0015005 0.103544 -0.122665 0.0915265 0.148479 -0.0123117 0.0208389 -0.0372705 0.0190479 0.103337 0.0427315 -0.110353 -0.0845482 0.000652458 -0.0264223 -0.0547951 -0.0847737 -0.0466094 -0.0579311 0.0237982 -0.0505313 -0.0256627 0.0169495 0.0855837 -0.154846 0.151674 -0.0277536 -0.163441 -0.103271 -0.208597 -0.00274093 -0.102445 -0.0681183 0.132785 -0.00439009 0.0671717 0.00592126 -0.0880912 0.159738 0.0620069 -0.155289 0.0459335 0.0938852 -0.183591 0.0208295 0.130052 0.0139315 0.0328717 0.0376544 0.0715793 0.0164497 0.0161565 -0.121513 -0.00397104 0.0520997 -0.112032 -0.0628636 0.0927265 0.00296627 -0.0912294 0.0202377 0.0922698 -0.0664246 -0.0462299 0.152099
41 -0.145127 0.00836263 -0.0714891 0.0297118 -0.0633524 -0.165741 0.041484 0.134684 -0.0141497 -0.108099 -0.00928896 -0.0694642 -0.0940259 -0.0750348 -0.0206208 0.0513166 0.00952127 -0.00151347 0.139901 0.0278315 0.0163445 -0.0608307 -0.0774921 0.0022936 -0.059978 0.0897926 -0.0749438 -0.0500826 0.211338 -0.0562221 0.0578033 -0.0755 -0.115266 0.148396 -0.105258 -0.103077 -0.0364964 -0.00312377 0.102258 -0.129744 0.124076 -0.0980681 -0.0346839 -0.0191713 0.0626598 -0.0477026 -0.050837 0.129644 0.158218 0.11608 0.0314048 -0.121344 0.0930625 0.0689636 0.00698929 0.0718162 -0.0937415 0.131426 0.0637299 -0.118654 0.0869923 0.0628028 0.000420132 -0.0553521 -0.195843 -0.0232064 -0.0686623 0.0614528 0.145755 -0.0587067 -0.0784 -0.125664 0.0594469 -0.0123074 -0.138583 -0.00429477 0.146129 -0.110793 -0.0882968 0.0174231 0.0241479 -0.116002 0.0227963 0.0516291 -0.135328 -0.0458184 0.0690253 -0.08908 -0.0198613 -0.116666 -0.0176565 -0.143787 0.0247996 -0.0210465 0.0173682 0.0221225 0.094974 -0.0511939 0.000351727 0.0162412 -0.127633 0.191254 -0.0943061 -0.120147 -0.11225 -0.156159 -0.117082 0.0416884 -0.0986214 -0.0633017 -0.0134374 -0.0169522 -0.13469 0.0496029 0.0498705 -0.00736174 -0.0696203 -0.0203936 -0.148343 -0.17108 0.0360257 0.0119052 0.0367933 -0.0451974 -0.108705 -0.031589 -0.0737564 0.085804
42 -0.0709254 0.063912 0.00210057 0.0654566 0.0414503 -0.0149667 -0.0305856 -0.0653877 0.123794 0.0567112 0.159348 -0.0926574 0.0071616 -0.233776 0.113585 0.0728617 -0.116075 0.00504464 0.0997885 0.202376 0.0323183 0.10242 -0.103791 -0.0525643 0.0995074 0.0529955 0.0414727 -0.123817 0.112821 -0.135864 0.143949 -0.0473283 -0.0417397 0.0897238 -0.0418306 -0.1541 0.016631 0.020604 0.177786 0.0138338 0.199421 -0.0304501 0.0869879 -0.0136638 0.0899423 0.0369073 -0.0175188 0.119462 0.126319 -0.00672404 -0.0150311 0.0220178 0.183848 -0.0904761 0.0501396 0.0375916 0.0040477 0.10155 -0.142005 0.122429 -0.0345401 0.102077 0.080185 -0.0141179 -0.0280989 -0.0418027 0.089654 0.0523133 0.060979 -0.0887293 -0.0678578 -0.0599624 -0.10809 -0.0981987 0.0167285 0.00669924 0.0379465 -0.107536 -0.105834 -0.130277 0.0281398 0.0627762 0.13174 -0.0321575 0.0700493 0.0889427 -0.168091 0.0203956 -0.0619585 0.119766 -0.0836958 0.0526477 -0.017876 -0.153257 -0.0563653 -0.0457739 0.0432678 -0.0454799 0.184768 -0.0774332 -0.0523259 -0.0217209 -0.132601 0.0408475 -0.0667276 0.0291834 -0.0393249 -0.116492 -0.0722212 -0.0802416 0.0848276 -0.186177 -0.000433544 -0.0714607 0.122567 -0.00588829 -0.0585608 -0.0526347 -0.00430885 0.0139957 0.0401128 -0.0557853 0.0139218 0.0640144 0.00957386 -0.0771034 -0.0892395 -0.0797314
43 -0.0573018 -0.100069 0.0560695 -0.0430548 -0.0335924 -0.0633997 -0.0449416 -0.0376346 0.153644 -0.077663 0.164575 -0.0957834 0.0429315 -0.0185189 0.126831 -0.0630581 0.0608782 -0.0872004 0.0768258 0.160003 -0.0190674 -0.0140267 0.110332 0.0266631 -0.0314438 0.126293 0.00778318 -0.172015 0.0831883 0.0503786 -0.07941 -0.0461471 -0.0624448 0.138312 -0.000226392 -0.0019284 -0.0712681 -0.0166056 0.0980644 -0.0802548 0.0996455 -0.0648462 0.0330371 0.086084 0.128126 0.0300837 0.0636093 0.187674 -0.0927349 0.114894 0.117816 0.0618026 0.0959828 0.110673 -0.0523609 0.0566495 0.069366 -0.112417 0.0286086 0.0396062 0.135698 -0.00243488 0.122011 -0.0522991 -0.187534 0.00876898 0.0920593 -0.0609298 0.0852438 0.156521 0.0685932 0.10586 -0.0728139 -0.0850211 -0.0678092 -0.210402 0.00566329 -0.155416 -0.0308159 0.12229 -0.133808 -0.103112 -0.0320624 -0.137943 0.110274 -0.06717 0.0617126 0.0582639 -0.0174907 -0.0197979 0.0238276 0.0152714 -0.186686 -0.123105 -0.0353211 0.111246 0.0889565 -0.0125193 -0.0405292 0.0240564 0.018566 0.0301743 -0.0476499 -0.129245 0.0418517 0.0778383 -0.142507 -0.119799 -0.0594762 0.0238267 -0.0632865 -0.0921054 -0.0295077 0.0542783 0.0300996 0.0962214 0.102935 0.0748681 0.0188988 -0.092161 -0.182726 -0.107186 -0.00807311 0.039691 0.0366719 0.0670117 -0.0398129 0.0319516
44 -0.0893703 -0.0323045 -0.0659081 0.087467 0.0367145 -0.186027 -0.0568209 -0.124703 0.0107235 -0.0731675 0.216544 -0.0076089 0.0483264 -0.177919 0.0891261 0.0474884 0.00444645 0.129227 0.066723 0.164232 0.152274 -0.0343669 -0.0801157 -0.00162671 -0.0234779 0.114374 -0.156075 -0.00719593 -0.0315973 0.00628747 -0.0338266 -0.150617 -0.154442 -0.0146186 0.105223 -0.0615206 -0.0057836 0.0196192 0.204134 0.0538924 0.110732 0.0695033 -0.145418 0.019639 0.0489887 -0.0158373 -0.106556 0.0841852 0.0904318 -0.0766004 -0.0445128 0.0053585 0.11592 0.186588 -0.138101 0.0187801 0.0958313 -0.0119718 0.0382813 0.010116 0.0352083 -0.0443902 -0.0561108 -0.113051 0.102673 -0.0859914 0.0379805 -0.0917381 -0.0833496 0.0812405 0.0154704 -0.0357684 0.0257266 -0.156175 0.0815328 -0.179285 0.137155 -0.0436256 -0.0585546 -0.0425194 -0.0244891 -0.0858848 0.15472 0.0861218 0.0143203 0.0395484 -0.114455 -0.0989439 -0.0158992 -0.0568886 -0.0689266 -0.0837071 -0.01256 -0.137686 -0.0668173 0.0646211 0.059847 -0.0960246 0.0544594 -0.0157617 0.0385495 -0.0283729 0.00995669 -0.147061 0.00968953 -0.0859315 -0.0168197 0.0704023 -0.0311274 -0.00513589 -0.0863163 -0.123766 -0.1203 0.0188117 -0.0780046 -0.0264222 -0.134807 -0.0309828 0.0621665 -0.000684735 0.0188417 -0.153204 0.0312351 0.130795 0.0446678 0.0961744 -0.0927201 0.0766199
45 0.0191031 -0.141516 -0.0561311 -0.0861138 0.0136389 -6.80098e-05 -0.0326424 -0.155664 -0.0548596 -0.0924162 0.173156 -0.0947552 -0.00536865 -0.127611 0.158984 0.0698336 0.0135572 0.170739 0.13486 0.0395419 -0.0258001 -0.0916555 0.0756973 0.0208444 -0.033755 0.107192 0.0252355 -0.0649142 0.189561 -0.00833078 -0.103918 -0.147211 0.0378474 -0.0151597 0.0902827 0.00452077 0.0761764 0.0532105 0.192812 0.0239585 0.0834087 0.0789103 0.0918949 -0.0464621 0.00945283 0.101305 -0.0571361 0.1605 -0.00213642 0.0259813 -0.0245501 -0.0366516 0.0316299 0.111669 -0.159142 -0.0465608 -0.0626035 0.00918712 0.0115945 -0.0211095 -0.0350445 0.092468 0.00643578 -0.0928751 -0.129758 0.129025 0.03022 0.0982366 0.180008 -0.00479887 0.0630326 -0.107485 0.0458494 0.0341227 0.0536015 -0.0351189 -0.0527539 0.0099215 -0.0996161 -0.0298664 -0.181877 -0.014071 0.172859 -0.12709 0.013136 -0.0832252 -0.0206747 -0.0197787 0.0555992 -0.13311 0.0746663 -0.140283 -0.182414 0.0102517 -0.0225095 -0.107822 0.0174973 -0.0658566 -0.0504908 0.0787602 -0.146956 0.117595 0.0358319 -0.0582478 0.0582033 -0.0969516 -0.115073 0.000297712 0.0417019 -0.0564355 -0.133713 0.0137446 -0.0943386 0.000643785 0.097738 0.0225261 0.0419314 -0.00705874 0.0169161 -0.153267 -0.174571 0.0392939 -0.075663 -0.0625698 0.0989283 -0.0507939 -0.0627905 0.115772
46 -0.0413921 -0.0624304 -0.0220322 -0.00340255 -0.0112453 -0.0260771 -0.064366 -0.0701963 0.0499337 0.0604754 0.188516 -0.150978 0.0513728 -0.10888 0.00333398 -0.120955 -0.0263937 0.0558837 0.0759891 -0.0318458 0.120859 0.00676574 -0.143938 0.0680574 0.156042 -0.0163727 -0.0287401 -0.108927 -0.0585291 -0.0539295 0.11563 -0.0253637 0.0314439 0.131148 -0.106624 0.0169458 0.143275 0.0519038 0.183512 -0.152984 -0.0140978 0.111024 0.0496341 0.16035 0.128025 -0.131488 -0.00941188 -0.0986904 -0.090895 0.0196918 -0.0668152 -0.10695 -0.0581069 0.0264893 -0.0249997 0.0576167 -0.0838814 -0.10783 -0.127169 -0.108361 -0.0993707 0.0350323 -0.0182713 -0.115394 -0.046019 -0.0832866 -0.114548 0.130252 0.150789 -0.036547 -0.0352645 0.0200892 -0.072278 0.0203068 0.0342246 -0.0307921 -0.119383 0.0558195 -0.126775 0.0770016 -0.00926765 -0.171121 0.144178 -0.146535 0.141548 -0.111186 -0.0433749 0.141085 0.026657 0.0802721 0.0205159 0.0851139 -0.120633 -0.0209272 -0.113387 0.113691 0.00394464 0.0656852 0.147826 0.0306325 -0.0137465 0.0418219 -0.0799173 -0.0500274 -0.0149985 -0.071151 -0.00566199 -0.123761 -0.0428434 -0.143872 -0.0038435 -0.135839 0.0754821 0.0582422 0.0653156 0.0562027 -0.103243 -0.031095 -0.045758 0.0801454 -0.154542 0.0478076 0.0932704 -0.0801249 0.0727885 -0.0855094 -0.012151 -0.0137215
47 -0.0832836 -0.0473933 0.0636919 0.0855972 0.0841494 0.0773897 -0.0165287 0.130698 -0.0543227 -0.0267634 0.0793429 -0.120988 0.0170657 -0.0775238 0.173167 -0.0361734 0.00799589 -0.0410705 0.0930362 0.103619 -0.0436322 0.0217921 -0.0353066 0.0881285 -0.00395503 0.0684352 -0.0914029 0.0259306 0.113379 -0.113828 0.0545472 0.0881973 0.0442903 -0.0583782 -0.111155 -0.0237109 -0.00351309 -0.0148637 0.064213 -0.102751 0.133164 0.0445358 0.0776546 -0.103203 0.190233 0.0550366 0.105113 0.0445106 -0.0552057 0.118738 -0.0405344 -0.0787583 0.12501 0.0375617 0.0150509 -0.060143 -0.138357 -0.0200935 -0.131462 -0.0683439 -0.106416 0.107743 0.0978548 -0.0680891 0.0905348 -0.0340278 0.0251933 0.0262063 0.00545572 0.12409 0.0636696 0.0424599 -0.141761 -0.040704 0.0616415 -0.160479 0.0702971 -0.153056 -0.15188 -0.00946632 0.0428143 -0.0904512 0.00400953 -0.0870852 0.105389 -0.131714 -0.119923 -0.0534882 -0.0954651 0.0860671 0.0519377 0.066639 -0.145141 -0.072843 -0.129344 0.0204686 0.202262 0.120157 -0.0142732 -0.0305837 -0.143747 0.032388 0.0442333 -0.0313039 -0.0988253 -0.157254 0.0117218 0.0224373 -0.0827955 -0.196041 0.0636553 -0.100503 -0.0999761 0.0752243 0.0607893 0.0303428 -0.0911702 -0.109689 0.016198 -0.128638 -0.00120806 -0.0966971 -0.118107 0.143424 -0.0812082 -0.0898897 -0.0233494 0.0104104
48 0.00434408 -0.0819736 -0.112632 -0.12245 -0.047246 -0.0788 0.0936527 0.0556903 0.0488615 0.0920179 -0.0380085 -0.0558962 -0.0541169 -0.0300647 0.120895 0.041494 0.0737931 0.0514534 -0.0045765 -0.0322196 0.14129 -0.0750919 -0.0165153 -0.0215045 0.0571143 0.0689318 0.0309574 0.0286977 0.0103747 0.0464008 0.118519 0.0366445 0.0948711 -0.0217293 0.108417 0.101896 -0.0892453 -0.114274 0.113742 -0.101643 0.109934 -0.0490981 0.0776312 0.0189504 0.139049 0.12209 -0.131364 -0.0679465 0.069949 0.0648331 -0.0573382 -0.0332824 -0.0800553 0.0541218 0.051358 -0.042295 -0.0721619 0.0792223 0.0967736 -0.143536 0.0445085 0.0403128 0.092098 -0.0841295 -0.133403 0.0847504 -0.155089 0.104142 0.0187304 -0.0851764 0.125395 -0.0614442 0.0342064 -0.103891 -0.0347786 0.00112301 -0.0273614 -0.181148 -0.093553 -0.11988 -0.0488511 0.0581401 0.03367 0.0513724 0.0871556 0.00273315 -0.0958428 0.0655676 0.138835 0.0789435 -0.00109571 0.013399 -0.162987 -0.0955526 -0.0220796 0.0371667 0.0742302 0.0196253 0.195245 0.168443 -0.0186809 0.100606 0.042642 0.0490257 -0.16211 -0.0189903 -0.134475 0.0298891 0.047807 0.0258172 -0.135629 -0.243545 -0.0967784 0.0101461 0.16189 0.0587732 0.00476868 0.00720774 -0.0870866 -0.00508021 0.0406235 -0.0697543 0.0116252 0.0579887 0.111647 0.16912 -0.110718 0.178132
49 -0.0241486 -0.129388 -0.0298463 0.00254544 0.0957809 -0.156609 -0.09588 0.0620607 -0.0500629 0.0654611 0.0614041 -0.139388 -0.0249291 -0.00651558 0.0144515 0.0494943 -0.0732259 -0.066524 -0.151362 0.0831365 0.00896349 0.0993208 -0.0631419 0.00631686 -0.0561832 -0.0601895 0.0794503 -0.170875 0.0289199 -0.147673 -0.0337821 0.00272755 -0.0120882 0.129833 0.124029 0.0664773 0.120662 -0.151617 0.0788991 -0.0898645 -0.0309777 0.0247118 -0.0149137 0.101679 0.0504558 0.102756 -0.0852504 0.177223 0.143143 -0.134448 0.12556 -0.013838 0.0322029 -0.0412954 0.0591866 -0.0810279 -0.105998 0.0365927 -0.099571 -0.100795 -0.0455234 0.0466937 0.163533 -0.0553739 0.026877 -0.0333174 0.0773164 0.136926 0.129314 0.0229156 -0.0191643 -0.0722781 -0.148406 -0.0444023 -0.0935164 -0.060175 -0.0478041 -0.192696 -0.014934 0.0195567 0.0147137 -0.107884 0.1773 -0.0963501 -0.0253707 -0.0772726 -0.0170209 -0.0336801 -0.000707708 -0.0620896 0.0741958 -0.129671 -0.0923657 0.0357289 -0.0849952 0.0471034 0.100935 0.00661881 0.0186356 0.147808 -0.0278668 -0.0912045 -0.169534 -0.0623686 0.0258222 -0.119842 0.0157782 0.0900604 0.0259999 -0.127167 -0.105294 -0.0388633 -0.186834 -0.00298903 0.0455882 0.110963 0.0398432 0.064068 0.0339311 0.0661662 -0.0141027 0.106391 0.0547274 -0.137218 0.0889139 0.181012 0.0452629 0.00709739
50 -0.166457 0.0197148 -0.023912 0.000248346 0.0235703 -0.0155838 0.0841575 -0.0158747 0.0757057 0.0145313 0.199832 -0.193249 -0.023529 -0.086336 0.000916773 -0.00781331 0.108114 -0.0308377 -0.122223 0.134627 0.128611 -0.0942696 -0.00949454 0.0238079 -0.0338166 -0.0587657 0.0399116 0.0706484 0.115181 -0.178029 0.0620469 0.027627 -0.137727 -0.0038176 -0.0530392 -0.0675252 -0.000812744 0.0749865 0.146092 -0.0754603 0.146642 0.0160023 -0.124787 -0.0680387 -0.109365 -0.065229 0.0050696 -0.00665519 -0.0194518 -0.0310245 0.00535145 -0.0169308 0.0336167 0.0871303 -0.130595 -0.0619286 -0.0692842 0.040985 -0.0190817 -0.207948 0.0822263 0.0679125 0.107577 -0.158972 0.0936653 -0.0311661 -0.0267477 0.0286986 -0.0134564 -0.0169801 0.0496528 0.124328 0.0892812 0.108705 0.0289576 0.0180466 -0.117239 -0.0547089 -0.0128523 -0.112251 -0.0594225 0.0415118 0.0728433 0.00798708 0.0401741 0.0539866 0.0142073 -0.209105 0.0478275 -0.0174313 -0.148029 -0.00539804 -0.1988 -0.014564 0.0733884 0.0394387 0.164122 0.159211 -0.0217241 0.0998992 0.039721 -0.00305851 -0.0490332 -0.151475 -0.126334 0.0750547 -0.0080111 -0.117082 0.0242801 -0.169208 -0.0936013 -0.110586 0.0338373 -0.1236 -0.00364158 -0.00222421 -0.12818 -0.0678648 -0.0519399 -0.0827826 -0.0143424 0.0650619 -0.106909 -0.0834653 -0.0530442 0.137519 0.0932985 -0.0810628
51 0.00579104 -0.0518119 -0.0147417 0.0643834 -0.0376474 -0.130058 0.0967308 0.138638 0.115689 -0.0621343 0.178272 -0.0599531 -0.00340908 0.100259 0.146747 -0.105495 -0.0452538 0.0280381 -0.0785443 0.0980398 0.125588 -0.00115642 -0.0884437 0.0474336 0.0253311 -0.0342427 -0.128315 -0.0146883 0.143028 -0.0437501 0.163953 -0.0704459 -0.0729745 -0.00964707 0.0107495 -0.13379 0.123406 0.0404581 0.159505 -0.078335 0.0995558 0.0776174 -0.048314 0.104148 0.136468 0.0426275 0.120969 0.123272 -0.00127051 -0.00513239 0.0649202 -0.0663054 0.0720758 -0.00941953 -0.152236 0.12571 0.0447597 0.0465793 0.0370955 0.0299122 0.142985 -0.0494719 -0.0921481 0.0526663 0.0430872 0.00734655 -0.0941561 0.00447229 0.129487 0.0372498 -0.161064 -0.0794719 0.103136 0.0361311 0.0726987 -0.0554286 0.0485494 0.0617654 0.0378671 0.00215743 -0.113595 -0.0317828 0.174274 -0.0467133 -0.0621211 0.0769045 -0.191908 0.064744 0.0778952 0.0362303 -0.00312123 -0.0869525 -0.177054 0.105914 -0.0388274 0.0639114 -0.0727374 0.09525 -0.0679674 -0.0676306 0.0515154 0.0995869 -0.14609 -0.100373 -0.108274 -0.146111 0.0516892 -0.0253581 -0.0959923 -0.00868906 -0.0159634 -0.147786 0.0385047 0.0784147 -0.0231528 0.0755698 0.0948819 0.123996 -0.120131 -0.0448181 -0.0221187 -0.108717 -0.0692348 -0.0388944 0.114527 -0.0473655 -0.0427498 0.115855
52 -0.026863 0.0542304 0.0779093 -0.0383374 -0.0205567 -0.0447924 -0.159789 0.118689 0.0238985 0.0909266 0.0225332 -0.0638679 0.0257222 -0.00292398 -0.0220864 0.029483 0.108788 0.112542 -0.0728502 0.0356986 0.129942 0.0385311 0.0940915 0.00914359 0.140519 0.0594195 0.052202 -0.203277 -0.010887 0.0244862 0.0320626 0.105455 0.0604671 0.025109 0.0264612 0.0433712 0.0961178 -0.0157887 -0.0204299 -0.0498573 0.0276291 -0.00805197 0.0447357 0.142882 -0.00475869 0.124472 0.0395366 0.11817 0.107152 -0.139476 -0.0110738 0.0520714 0.177692 0.200942 0.0728163 0.109266 -0.129348 0.0538056 0.0627236 -0.0641489 0.0854412 -0.0115214 0.0205485 -0.11592 -0.119081 0.0963688 -0.0981438 0.0434988 0.13612 0.0165507 0.0587425 0.00074269 0.0647788 -0.110563 -0.0628211 -0.131854 0.0941996 -0.0942649 -0.0451933 -0.128362 0.0709408 -0.0865337 0.190276 -0.0355544 0.0570895 0.0572445 0.0190868 0.079662 -0.0489648 -0.127059 0.047606 -0.160986 -0.218193 0.0637513 -0.122087 -0.0448434 0.00186083 0.0957944 0.120846 0.0329531 0.00299952 -0.0880552 -0.123773 0.024539 0.085129 -0.0115916 -0.0410199 -0.0369399 0.193799 -0.144156 -0.153151 -0.115672 -0.0393785 -0.0175303 0.0150462 -8.90492e-05 0.053995 0.137523 -0.0991727 -0.128594 0.00682293 0.0636554 -0.0178131 0.0478132 -0.0952619 0.106222 -0.0741344 0.0204298
53 -0.0359769 -0.108011 0.120319 0.0421185 0.143691 -0.0813317 -0.124615 0.0818714 -0.031516 0.0609527 0.172139 -0.128925 0.0843958 -0.16432 0.116914 -0.0746609 -0.0573681 -0.103487 0.0502436 0.135366 0.0500274 0.0804466 -0.0541811 -0.0340198 -0.0930748 -0.00895798 -0.0999111 0.0303749 0.0970784 -0.217679 0.111244 -0.0631854 0.0499482 -0.00893626 0.0177669 -0.0280902 0.0768966 0.0592824 0.189162 -0.171256 -0.051241 -0.0163123 -0.0668685 0.0246766 0.10294 0.10454 -0.118417 0.0729244 0.111646 -0.0775209 0.0740946 0.0106177 0.090099 -0.0231618 0.116674 0.00346395 -0.141706 0.0735381 -0.0499728 -0.0762433 0.134167 0.0132118 -0.00978071 0.0365448 0.0660029 -0.0192375 0.058623 0.0715419 0.0733692 0.00432574 0.0250461 -0.0464035 0.00673622 -0.0434735 0.0187145 -0.0337399 -0.0422459 -0.118745 0.0145693 -0.0625117 -0.0897871 -0.150026 0.0885359 -0.0796603 -0.0621785 0.0260042 -0.121052 -0.116189 0.131307 -0.0855128 0.0703859 0.0502321 -0.0450871 0.0110129 0.0735384 -0.120611 0.189957 -0.0613338 0.0108131 0.0881519 -0.168778 0.0171452 -0.0457547 0.0451592 -0.127008 -0.0283016 0.0751249 0.0364937 -0.0587606 -0.108401 -0.0937031 -0.0840625 -0.144927 -0.109778 0.0479527 -0.0726237 0.0183826 -0.0315173 0.0144897 0.0413382 0.0396941 0.00155829 -0.167842 -0.109808 -0.137242 0.101286 -0.0373588 0.145419
54 0.0453353 -0.0169562 0.125827 -0.0880145 -0.0740919 -0.194571 -0.0511788 0.153699 0.075417 -0.0894951 0.161129 -0.149756 -0.0651361 -0.125839 -0.0148823 0.0902434 0.0172618 -0.0517003 0.0756088 0.220721 -0.0206711 -0.00468589 -0.0780876 -0.0501325 -0.0207371 0.172549 -0.096642 -0.173059 0.0469883 0.0595941 -0.0431083 -0.039981 -0.0359502 -0.0297809 -0.0190269 -0.00568631 -0.00575567 0.0637581 0.0403272 -0.224955 0.0417714 -0.171286 0.0370485 0.00524052 0.100266 0.0746706 0.0321499 0.00025768 0.0368421 -0.105064 0.0412752 0.035097 -0.00263597 -0.0258148 0.128499 -0.0428139 -0.0845906 -0.05421 -0.139013 -0.0519548 -0.0498747 0.0231293 0.00122598 0.0633439 0.0555999 0.0474844 -0.115923 -0.00160398 0.0824929 -0.00686445 -0.0766322 0.0217218 0.00913628 -0.048038 0.0678151 -0.140219 0.0975219 -0.0983944 -0.0537307 -0.0432726 -0.0544885 0.0142738 0.0163783 0.0705608 0.175263 -0.0805104 -0.0420984 -0.0124896 0.1786 -0.0952697 0.154993 -0.155122 -0.0609886 0.0471995 -0.138729 -0.0801867 0.147338 -0.00151309 0.092645 0.170973 0.0530494 -0.026448 -0.124607 -0.00970818 -0.0550638 0.0303347 -0.226323 -0.0846114 0.044133 -0.0958768 -0.0195415 -0.0074734 -0.0842248 0.0669954 0.0259192 -0.0390617 0.082802 -0.0724573 0.0247103 -0.0685814 0.0804671 -0.0298556 -0.120635 -0.0997943 -0.0907517 -0.0682521 -0.0636531 0.0617927
55 -0.159983 0.0940883 0.0818973 -0.0965437 -0.0401012 -0.180078 -0.167519 -0.00589074 -0.121303 0.022923 0.0736261 0.0900749 -0.0128719 0.0494636 0.12074 -0.0731259 -0.0741424 0.049949 0.0245434 0.148066 0.0884554 0.0918066 0.0931543 0.173313 -0.0269825 -0.0378399 0.103446 0.0340633 0.199942 0.0244235 0.107731 0.0958633 -0.130575 0.148112 -0.0332822 -0.000616729 0.0968613 0.067443 0.152836 -0.0251271 0.0368724 -0.0324143 0.108509 0.00775734 0.0570893 0.11203 -0.129773 0.144602 0.0754973 -0.0138477 0.13918 -0.000406519 -0.0320122 0.0667803 0.10689 0.108753 -0.110604 -0.074081 -0.0826192 -0.0907316 0.129321 0.0667195 0.10779 0.0080952 -0.0819198 0.00212879 0.129418 0.0197373 0.0608376 0.141869 -0.100443 0.0683866 0.0638359 -0.00974237 0.00984451 -0.105602 0.0518362 0.0754584 0.0623074 -0.0723713 -0.140426 -0.0106884 0.0941012 -0.0584376 0.0619927 -0.0196942 -0.0156632 -0.0982849 0.0287513 0.0209352 0.108786 0.121062 -0.0859392 -0.0520919 -0.0374852 0.06164 0.151022 -0.119855 0.131468 0.096554 -0.0588615 -0.0851049 -0.0491701 -0.133103 0.0706972 -0.120271 0.0856912 -0.0585254 0.0573005 -0.131556 -0.0868847 -0.0687915 0.00526216 -0.0335018 -0.0334602 0.0523032 0.0452615 0.1039 -0.1294 0.00307175 -0.0515044 0.0817906 0.111977 0.0366213 -0.0117454 0.0776478 -0.0480951 0.032368
56 -0.0116495 -0.140185 0.0948037 0.125848 -0.0478613 -0.218749 -0.149636 0.0177573 0.0403972 -0.00792006 0.114803 0.0276043 0.0355355 -0.068963 0.0671296 -0.0303133 -0.0847457 -0.0731152 -0.000220226 0.0511283 -0.0703362 -0.0124166 -0.0122217 0.0379486 -0.0762493 0.154131 0.0430898 -0.0848142 0.156967 -0.0360576 0.00903917 -0.0569615 0.00778299 -0.0101872 -0.0165769 0.0262969 0.10985 -0.109073 0.105029 -0.147144 0.0570948 0.0416066 -0.0412383 -0.0374526 0.125898 -0.057404 -0.0577316 -0.0262131 -0.0762278 0.0889601 0.13889 -0.0638831 0.0813646 0.0971499 -0.0344952 0.00404137 0.0418907 0.0684707 0.0122168 0.0886717 0.0903142 0.0449242 0.0942474 -0.00802584 -0.0363053 0.127147 -0.057296 0.0856043 -0.0388409 -0.0942854 -0.0125638 -0.0379734 -0.110911 -0.107394 -0.0529805 -0.151335 -0.0940536 0.0543334 -0.135445 -0.0444337 -0.154957 -0.0293269 -0.010324 0.00841409 -0.0783517 0.0635187 -0.0526704 -0.0633541 0.0782433 -0.0381594 0.0902726 -0.15923 -0.0867317 -0.0544614 0.0568325 -0.171265 0.174583 -0.0325299 0.0731117 -0.00092674 -0.14303 -0.00958369 0.0792 -0.0249997 0.056326 0.0430249 -0.174214 0.112174 0.155443 -0.121825 -0.112463 -0.00829057 -0.153055 0.108616 0.045985 0.0124599 0.0885732 0.063354 -0.0071863 0.0538077 -0.0316343 -0.124637 -0.151729 0.118803 0.0996922 0.161245 -0.12733 0.136891
57 0.0498538 -0.0576427 0.164871 -0.123259 0.0642578 0.025934 0.0207213 -0.0387211 0.168875 -0.145767 0.211194 -0.163943 0.0510129 0.0456779 -0.0127196 -0.0340132 -0.0270534 0.0894382 0.072716 0.120663 0.013623 -0.0502504 0.0608712 0.142539 -0.0755678 0.0533509 -0.0962481 -0.0372437 0.0770498 0.0427303 0.0436578 0.032711 -0.0333528 0.0696855 0.015861 0.00244537 -0.0833238 -0.0977957 0.147515 -0.110009 0.155792 0.0156658 -0.0411438 0.067693 0.057743 0.100355 -0.139767 0.142042 0.0334975 0.04804 0.0855781 -0.0591994 0.136972 0.123312 -0.0635919 0.114812 0.103984 0.0712439 0.0948347 -0.000142529 0.04801 0.0469692 0.0421162 -0.0186779 0.102223 0.0550935 0.0346532 0.153735 0.00939518 -0.0404051 -0.0709777 0.0902571 -0.0308391 -0.101518 -0.0387313 -0.0619421 0.104125 0.0766492 -0.155853 -0.0857835 -0.122305 -0.0772565 0.0164422 -0.135762 0.0399092 -0.125363 -0.163573 -0.111496 0.0718638 0.0746225 0.0297044 -0.174344 -0.133274 -0.0315614 0.0019449 0.064127 0.185252 -0.0646453 0.0120877 -0.0115128 -0.101452 -0.0313156 -0.0685902 0.0654019 -0.0798703 -0.00910759 -0.110949 -0.0117537 -0.016229 -0.0676276 -0.0705145 -0.204722 -0.123537 -0.0968499 0.0521941 0.0582539 0.0688783 0.121915 -0.0823923 0.0468995 0.0457291 0.0994169 0.0509914 0.0567548 -0.00462234 0.0900601 0.0273492 0.0147017
58 -0.065735 -0.0962833 -0.119323 -0.0600189 0.0863407 -0.0311091 -0.13197 0.0991239 0.118651 0.0872369 -0.0122974 -0.0466209 0.0478692 -0.179677 0.142838 0.0586973 0.0687214 0.141489 -0.0651314 0.020704 0.112715 0.0165365 -0.0648028 -0.107586 0.0392633 -0.0228955 0.0849937 -0.0190576 0.0271236 -0.172883 -0.0662354 -0.119719 -0.0347633 -0.00452837 0.065698 -0.148904 -0.0523863 0.0745255 0.0979823 -0.174124 0.044715 0.0562262 -0.100423 0.141166 -0.073138 0.0970123 -0.0282289 0.0870253 -0.0604579 0.129436 0.0669754 -0.0412711 -0.0513896 0.179077 0.101432 0.0482267 -0.0882936 -0.0842148 0.063181 -0.0611639 0.0391247 0.0671286 -0.0350797 -0.113195 -0.0612272 -0.106086 -0.014304 0.055595 0.0671723 0.0657015 0.0931717 0.0745291 -0.091869 0.0378788 0.0302683 -0.159958 -0.0485409 -0.0631687 -0.0595054 0.0707754 -0.0393704 0.0185826 0.216487 -0.162951 0.143978 -0.13768 0.068007 -0.116623 0.13596 0.0833514 0.0600833 -0.0441984 -0.0921164 0.0991928 -0.048616 0.00610142 0.0697883 -0.0561197 0.191832 -0.019808 -0.0589506 0.0753603 0.0279251 -0.106449 -0.0507168 0.045857 -0.136015 0.0406117 -0.0862502 -0.0448294 0.0855731 -0.0851172 -0.126885 0.103414 -0.0949771 -0.0206303 0.00186043 -0.0242509 -0.0526563 -0.0110776 -0.0618112 0.047788 0.0287292 0.00610151 -0.0622891 0.0814133 0.0448965 0.174133
59 -0.00164169 0.0512404 0.11933 -0.0440528 0.096659 -0.0599568 -0.00352336 -0.0414547 0.037623 0.0152004 0.185222 0.0186946 -0.00838947 0.034942 0.177674 -0.135142 -0.105928 0.0442913 0.0687343 0.169026 0.160903 -0.0937671 0.0951817 0.0357568 0.128178 0.138647 -0.084443 0.0685621 0.00352781 -0.0897506 0.0597187 -0.0907863 -0.124813 0.105831 -0.10351 -0.0603605 -0.021642 0.0350684 0.160318 -0.0210794 0.0707987 0.0273602 -0.081728 -0.0536103 0.0572676 0.127963 -0.143311 -0.00642924 0.171191 -0.102029 -0.120122 0.0448404 0.123239 -0.0420892 -0.0733073 -0.140248 -0.0656881 0.0644339 -0.143765 -0.0624545 0.0344708 0.032626 0.0345652 -0.132229 0.111398 -0.0162283 -0.101866 0.180402 0.0670059 -0.0424017 -0.0683681 -0.0230185 -0.0870985 0.112877 0.0304772 0.00247604 -0.0298863 0.0582944 -0.0259293 -0.0959867 -0.0470903 -0.146789 0.109492 -0.0179852 0.061425 -0.0550517 -0.0249385 0.089832 0.0182277 -0.037126 -0.0913735 -0.0421118 -0.150737 -0.10117 0.0766868 -0.0581939 0.0459229 -0.0518625 0.0421954 0.0798427 0.0324818 0.128309 -0.118047 -0.0304225 -0.0306629 0.0919995 -0.10258 -0.128516 -0.0111831 -0.1302 0.0805985 -0.113334 -0.169275 -0.0683008 0.132303 -0.0892748 -0.146562 0.0488823 -0.119351 -0.0720769 -0.00611299 0.0368971 0.0219818 -0.0121016 -0.00106556 0.103958 -0.0476695 0.00486251
60 -0.0802896 -0.185581 -0.0321265 0.0364094 0.130259 -0.0727097 0.0681412 -0.0444834 -0.0327902 0.0229082 0.129756 -0.096833 0.0303752 -0.00736015 0.0480586 -0.0196712 0.0368414 0.0782965 0.0879695 0.00978677 0.185103 0.0579395 -0.0755745 0.0437419 -0.0755706 0.00523267 -0.0318299 -0.112771 0.0925963 -0.117539 0.054918 -0.0332758 0.128732 0.0275448 0.015238 0.0668632 0.0581437 -0.14531 0.100003 -0.0640072 0.0964065 -0.117017 -0.0226526 -0.0213537 0.133842 0.0854187 -0.0212596 0.0723045 0.0446957 0.0882838 0.0240944 7.46236e-06 0.127568 0.13717 -0.0381653 0.150034 -0.12373 -0.0648266 -0.0354347 0.00322706 0.138573 0.0834504 0.0879522 -0.0542928 0.0154048 0.0643539 0.0628627 0.0612887 0.0438059 0.115513 -0.0152018 -0.0483165 0.137266 0.0420502 -0.0641666 -0.170215 0.0406866 -0.230868 -0.021197 0.0288218 -0.0310227 -0.123639 0.149436 0.016326 -0.0354921 -0.0904371 -0.113915 0.0919489 0.0361857 0.0368675 0.0715363 -0.171184 -0.00168701 -0.0128539 0.111367 0.0749267 0.0704336 0.121896 0.184456 0.186906 -0.0106738 0.019537 0.0442744 0.0499925 -0.0727565 -0.107716 0.0893411 0.0246337 -0.0746409 -0.0222749 0.0901683 -0.0506284 -0.151095 0.177325 0.126414 0.0523492 0.0318898 -0.0522217 -0.0522209 -0.153206 -0.0278682 0.0033382 -0.0307506 -0.0387764 0.0232485 0.199044 -0.010142 0.00763119
61 -0.174275 -0.167977 -0.0876233 -0.0147784 -0.05659 0.0325454 -0.107431 0.0770468 -0.0171618 -0.0475941 0.126687 -0.131096 -0.10101 -0.212677 0.0478212 -0.0981839 -0.0689954 0.000874351 0.0468207 0.156469 0.131489 0.0930857 0.0174283 0.103678 0.0872912 0.0268102 0.0628314 -0.112194 0.0182758 0.0447587 0.164917 -0.0557689 -0.0226379 -0.0495514 0.0462664 0.00797753 0.114037 -0.100879 -0.00746973 -0.0170899 -0.0730501 0.118992 -0.0318132 -0.0173648 0.00362928 -0.0610086 0.0642519 -0.0332589 0.0541786 -0.0934715 0.0450244 -0.065092 0.0412456 -0.0869308 0.112424 0.106319 -0.0635416 -0.0387812 -0.0977748 -0.00162964 0.149634 0.0256126 0.00515873 -0.0855941 -0.148439 0.122666 -0.0208847 0.0601285 0.108232 -0.0224581 0.0262063 -0.116483 -0.0707534 -0.010139 -0.129773 -0.00569666 -0.024876 0.0483735 -0.126773 0.0520505 0.0146404 0.0143564 -0.0672984 0.102347 0.123539 0.0579609 -0.161602 -0.00516547 0.00426459 0.0436851 -0.104571 0.0381334 -0.0752893 0.0197301 0.0386945 0.0850388 0.121913 0.0578176 0.0748224 0.0912377 0.00701099 0.0993873 0.0555165 -0.198096 -0.0708448 -0.0568078 -0.154906 -0.149978 -0.0120615 -0.00617164 -0.0783265 -0.136086 -0.181438 0.022427 0.0493597 0.00809766 0.0568789 -0.0549493 -0.0386396 -0.16545 -0.164303 -0.0302087 -0.00285846 0.110713 -0.000690283 0.177077 0.0941228 0.107378
62 0.0640848 -0.000820148 0.0524585 -0.0372361 -0.00671984 -0.0726998 0.0542024 -0.0702453 0.0593253 0.0753999 0.119257 -0.120467 0.103719 0.0210703 0.0351073 -0.0435778 0.135833 0.162473 -0.0556678 0.00807459 0.0653244 -0.199622 0.0276599 0.00541749 0.0752041 -0.0422408 0.0987093 -0.0614833 0.0531494 -0.186408 0.0169475 -0.089459 0.0294214 0.133584 0.0123876 -0.095154 0.118817 -0.100555 0.111399 0.0397029 0.0397994 0.0462954 0.12752 -0.0807401 0.16347 0.18175 -0.00789536 0.0165874 -0.0358032 -0.00510528 -0.0438296 -0.0715661 0.100696 0.13814 0.0383446 -0.00235204 -0.100743 0.0334969 0.0794106 0.00961716 0.0284528 0.00838043 0.162963 -0.139561 -0.0196736 0.0209481 -0.0838018 -0.00580444 0.102223 0.0596397 0.0285077 0.0171319 0.00782659 0.0316682 0.0299347 -0.0736792 -0.0619468 -0.0647903 -0.105352 0.150806 0.0960584 -0.0728574 0.0839195 0.0145494 -0.00106341 -0.10803 -0.173309 -0.0344668 0.0737081 0.0625728 -0.089717 -0.134143 0.0325148 -0.151029 -0.0112724 0.0356512 -0.0356002 0.0818343 -0.0290408 -0.0732026 -0.111431 0.0651101 -0.0529074 -0.141358 0.0681664 -0.126912 -0.143976 -0.00404461 0.0256725 -0.186175 -0.0122696 -0.230606 -0.00216074 0.0140202 0.0785881 -0.0317126 -0.013005 0.151052 0.087456 -0.0590436 -0.0265642 -0.0466562 -0.103262 0.0811355 0.114179 0.216409 0.0196558 0.083192
63 -0.0467257 -0.0632452 -0.0465712 0.111808 -0.0354235 -0.140478 0.0510981 -0.0770617 -0.0245111 0.0275079 0.170375 -0.0680806 -0.0506136 -0.0939383 0.0189696 0.0729076 -0.0715345 -0.0199466 -0.0822879 0.00333402 0.102419 -0.115957 0.102886 -0.129546 -0.0336859 -0.020933 -0.0501414 -0.0748077 0.0988007 -0.157225 0.0920874 0.065737 -0.0195467 0.0338987 0.125384 0.00203566 0.118869 -0.0573924 0.0710456 -0.0107422 0.189478 -0.0181941 -0.0581796 0.11041 0.0190589 0.195655 -0.164636 0.0667204 0.198227 -0.0122576 -0.0270232 -0.176615 0.151686 0.0292462 0.0080155 0.0654367 -0.144308 0.0762532 -0.0776944 -0.0436892 -0.0701896 -0.0388324 0.128766 0.0022789 -0.0666493 0.149182 -0.066076 -0.0248744 0.0578386 0.0144199 -0.0321875 -0.0907805 -0.179266 -0.0219047 0.0835975 -0.0234098 -0.00582809 -0.000199593 -0.161734 -0.142137 -0.194112 -0.0764297 0.0965557 -0.17413 -0.0628666 0.014234 0.0383192 0.127813 0.0242653 -0.0555061 0.0381905 -0.0974984 -0.0745954 -0.0730025 0.05429 0.00641842 0.0637678 0.0473745 0.0422545 0.133844 -0.203389 -0.031349 -0.0330403 0.0473693 0.0175888 0.00229081 0.00125825 -0.00163501 0.0788651 -0.0169021 0.0939198 -0.00138695 -0.134857 0.094022 0.119225 -0.0338557 -0.00669976 0.0920337 0.00682919 -0.073838 0.0530051 0.0410286 -0.112179 0.0590627 0.0935952 -0.0015955 -0.0640568 0.126684
64 -0.0487182 0.0509492 0.0194655 0.109323 -0.100164 -0.153508 -0.0840242 0.153273 -0.0413259 -0.0204118 0.0558477 -0.158827 -0.101519 -0.19114 0.0840908 0.0767092 0.0836542 -0.00441842 0.121998 0.116818 0.113192 0.0255477 -0.035017 0.00665066 0.00741177 0.0981138 0.00798159 0.0446629 -0.0316399 -0.0863665 0.0584462 -0.0368271 -0.0793491 0.138282 -0.00503103 -0.0463214 0.0592587 -0.0512205 0.00284703 -0.170908 0.118604 -0.136335 0.0849374 -0.116675 0.0750685 0.0721129 -0.0158623 0.0889233 -0.0427578 0.105824 0.1503 0.0637351 0.0164255 -0.0237151 -0.100189 0.0839615 0.0281802 0.0749027 0.0680899 -0.0211419 -0.0393599 -0.123619 0.127414 -0.123699 -0.0214914 0.0299225 -0.113743 0.0324114 0.00986708 0.019746 0.0806457 0.121409 -0.0559189 0.0557673 0.0643153 -0.0323179 -0.0118929 -0.0841048 -0.0375461 -0.132854 0.00596824 -0.0385746 -0.0126386 -0.113576 0.1158 -0.072408 -0.0524544 0.084 0.155764 -0.0721707 0.0570368 -0.0276539 -0.0739997 0.111916 -0.110995 0.0655931 0.123407 0.0324081 0.0827862 0.132649 -0.0655115 0.129248 -0.00426571 -0.00268738 -0.11566 -0.10038 -0.109435 -0.155245 -0.0498089 -0.0863752 -0.0761705 -0.0597479 0.0395062 -0.0444872 0.111001 0.15315 -0.0987304 0.171087 -0.111961 -0.136425 0.0613994 0.0940079 -0.135314 0.0882353 0.104484 0.114063 -0.0253808 0.0297314
65 -0.0376912 -0.149269 -0.000999583 0.0822334 0.0554049 -0.0430181 -0.111667 0.117115 -0.0167731 0.0792853 -0.0138326 -0.145439 -0.0667531 0.0132083 0.0782523 -0.00607777 0.0708041 0.0946997 0.0713126 -0.0336012 -0.0479798 -0.0558611 -0.107192 0.0758763 0.0910733 0.0135869 0.0140386 -0.0261703 0.059338 -0.102335 -0.0165671 0.109961 0.0358898 0.0925161 0.0618852 -0.0204861 0.0598093 0.0824231 0.218218 0.0605458 0.144186 -0.0670288 0.0840285 -0.069634 -0.0313688 0.169292 -0.141737 0.0506971 0.0292202 -0.0289491 0.0472221 -0.022532 -0.0728803 -0.0213369 -0.100959 0.069588 -0.122457 0.00977972 -0.126111 0.0869289 0.0163596 0.100651 0.137966 0.0085229 -0.0410188 0.103978 0.118498 0.117352 0.213046 0.119202 -0.14683 -0.0981736 -0.0424124 0.0362914 0.0434283 0.0267362 0.00574164 -0.0508142 -0.201437 0.0456537 -0.032121 -0.0664459 -0.0196088 -0.14431 -0.0342918 -0.0132178 -0.0997167 -0.0674508 -0.0285427 -0.118329 0.0229687 -0.157071 -0.0707942 -0.0569422 -0.0401195 0.106421 -0.0315465 0.0769897 0.00529791 -0.0598044 -0.017167 0.00169862 0.0516217 -0.161305 0.00013773 -0.165899 -0.0419684 0.004725 0.159929 -0.207421 -0.0595868 -0.0274067 -0.111559 -0.0930824 -0.0555613 -0.00722388 -0.117807 0.0272635 -0.0199302 0.0158207 -0.155155 0.0500936 -0.131563 -0.0194585 -0.116538 0.0279758 -0.0521541 0.184971
66 -0.0485458 -0.139199 -0.10171 0.039136 -0.0730841 0.0502555 -0.143118 0.0321605 0.137247 0.0554378 -0.0202755 -0.048182 0.105352 -0.0761195 0.0580833 0.0750115 -0.0341479 0.119162 0.117476 0.132105 -0.00409572 -0.0149437 -0.0953038 0.0945229 0.0568635 -0.113261 0.0980347 -0.0501978 0.0564906 -0.153155 -0.00309893 -0.00923344 0.0214757 0.153924 0.0708147 0.0503028 0.0904626 0.0626573 -0.0113417 0.0516489 0.0933123 0.0303096 0.102982 -0.0595458 0.0339838 0.135877 0.0662668 0.0272514 0.11447 -0.0445753 0.000501047 -0.0247496 0.143465 0.0541722 -0.103803 0.118388 -0.0835395 -0.122395 0.0915283 -0.199283 0.0966411 0.0891349 0.107039 -0.11088 -0.113027 0.0815748 0.0992131 0.158724 0.109655 0.0799012 0.058669 0.0878183 0.00754679 -0.102469 -0.0819282 -0.00121342 0.0486693 -0.111321 -0.0645827 0.109147 -0.0657932 0.0289496 0.166521 0.0466529 0.108457 0.100775 -0.0385429 -0.0790601 -0.0383832 0.0432984 0.0875904 -0.0302163 -0.114074 -0.00351009 -0.0579081 -0.0827776 -0.00667132 0.0477007 0.116233 0.0630571 -0.158808 0.0156388 -0.0753052 -0.0230768 0.0674721 0.0141426 -0.0132945 0.138695 -0.0636494 -0.144374 -0.0646561 -0.163214 -0.152019 0.0423405 0.158592 0.0844422 0.0932306 0.0363389 -0.155798 -0.023828 0.0283245 0.0226736 -0.00897634 -0.0277639 0.124237 0.134588 0.0504075 0.0523978
67 -0.083977 -0.169272 -0.0314421 0.0684669 0.0568449 -0.174656 -0.144493 0.0144309 0.0350149 0.0228579 -0.0405563 -0.117456 -0.0801488 0.0686538 0.00783915 -0.164406 0.0799616 -0.0691967 0.117981 -0.00881452 -0.0488803 -0.134111 -0.0102656 0.0120626 -0.110077 0.0451564 -0.0967449 -0.198675 0.0461201 -0.0112285 -0.0612006 0.147112 -0.0455593 0.0216426 -0.0800023 -0.0469849 -0.0218298 0.0767343 0.118415 0.0576265 -0.0271964 -0.00744149 -0.0258692 0.0529029 0.171565 0.00446231 0.0238741 0.0273597 -0.103116 0.100871 0.053064 -0.187236 -0.0587028 -0.0399866 -0.132965 -0.123871 -0.00579351 -0.0570066 0.0251147 -0.0893481 0.0908129 0.0912058 -0.0646131 0.0804377 -0.061248 -0.0510382 -0.0129215 -0.0579448 0.205789 -0.00724783 0.0608506 0.00197345 -0.00233141 0.113837 0.0070441 -0.0710818 -0.0142719 0.0485423 -0.163916 -0.0400302 0.0337444 -0.104759 0.0567527 -0.158008 -0.00305527 -0.140069 -0.128522 -0.0735219 0.128961 0.0670435 -0.101583 -0.0268429 -0.18094 0.00588748 -0.117852 0.0635019 0.0973305 0.102716 0.0584025 -0.0285448 -0.061215 0.123173 0.0296776 -0.0727115 -0.148397 0.00529603 -0.0633034 0.147535 0.143533 -0.0467359 0.0441375 -0.142281 0.0620834 -0.113902 0.0940073 -0.0213363 -0.154928 0.0556299 -0.0906096 -0.114519 -0.0719822 0.0214228 0.0514533 0.0141753 0.0836676 0.0298763 -0.0566111 0.011238
68 -0.144156 -0.0803242 -0.023799 -0.0946228 0.0662631 -0.119719 -0.00554142 0.12097 0.0305664 0.0575053 0.000207854 -0.0298173 -0.0879991 -0.156938 0.097258 0.0209266 0.0966258 -0.0207125 -0.141945 0.0323337 0.00358219 -0.171081 -0.0457332 -0.0294571 0.0872793 -0.00738315 -0.06396 -0.145061 0.0652811 -0.0127639 0.0430237 0.117666 -0.115148 0.0968519 0.0874193 -0.0305049 0.0288719 0.0867363 0.194897 -0.188691 0.0706565 0.090284 0.00603302 0.0173463 -0.0487619 0.0684895 -0.0741744 -0.146222 -0.0134955 -0.10405 0.0672192 -0.0241344 0.0741953 -0.026702 0.0830961 0.0748488 -0.167205 -0.0235052 -0.0362362 -0.108533 0.0993011 -0.111922 0.17244 -0.132498 -0.0154448 -0.0480937 0.0131885 -0.02612 -0.0458623 -0.0704428 -0.0345147 -0.0155991 -0.0364796 -0.0400921 -0.00825798 -0.0635376 -0.0808576 0.0064703 -0.160516 0.1311 -0.0352387 0.0332772 0.0548675 -0.084833 -0.0646098 0.0201699 -0.111085 -0.0892819 -0.012483 -0.0792392 0.113517 -0.150783 0.0676791 0.0434921 -0.133198 -0.0511361 0.155029 0.0148349 0.118411 -0.117863 -0.0647585 0.0727282 -0.12241 -0.0463562 0.0319899 0.0135374 0.00254233 0.0193676 0.0714787 -0.171762 0.126056 -0.196247 -0.107121 -0.00728468 0.0840669 0.00242781 -0.0459286 -0.0567545 -0.0376042 0.0273799 0.0287029 -0.148398 -0.068496 0.132328 0.0123701 -0.00921389 -0.0534017 0.202952
69 -0.07318 0.0766561 0.00370021 -0.096434 -0.0511537 -0.0709416 0.0491448 0.0432426 0.0970792 0.05466 0.104537 -0.142317 -0.0937263 -0.181897 -0.033325 -0.114208 -0.123733 -0.0933275 -0.0978985 -0.00127997 0.113724 -0.073319 0.0595917 -0.0247008 0.0234799 -0.0715089 -0.00603809 -0.138764 -0.00800334 -0.13025 0.129985 0.110955 0.0718106 0.152447 -0.131564 0.0174446 0.0831054 -0.0991748 0.134343 -0.040407 0.142401 -0.0187748 -0.121121 -0.0675877 0.107651 -0.0995654 0.0142582 -0.0392523 0.147095 0.0507285 0.0887435 -0.0402547 0.181251 0.0993418 0.0480852 -0.0491178 -0.134859 0.137121 -0.0880301 0.0251923 0.0488683 0.0754567 0.125414 -0.148848 -0.0463767 0.0440014 0.093479 0.0760149 0.0401595 0.0903973 0.00493545 -0.0663324 0.0197645 0.12546 -0.010005 -0.0047408 -0.0992082 -0.0497033 -0.0532074 0.0742463 -0.128137 -0.0497194 0.0793867 -0.139879 -0.0492976 0.0248685 -0.0363243 -0.0387317 0.0521208 0.023573 -0.060113 0.0293072 0.0323437 0.0446944 0.0760172 -0.125711 0.123057 -0.0226592 0.0052515 0.166137 -0.138724 0.0290505 0.0555558 -0.178505 -0.0269475 -0.00126521 0.0528318 -0.0502741 0.00970175 -0.158776 -0.0886302 -0.178154 -0.0996862 -0.0952245 0.131445 -0.115419 -0.0166143 -0.000432879 0.0284035 0.00827811 -0.0713499 -0.0601886 -0.0572637 -0.106245 0.103304 0.0135251 -0.125131 -0.00748857
70 -0.139084 -0.0531161 0.0488267 0.110461 0.0174578 -0.0583634 -0.120055 -0.0637193 0.0946349 -0.120856 0.154402 -0.119005 -0.0612873 -0.0296105 -0.0418137 -0.0445298 -0.0136574 -0.0426687 0.0712932 0.112577 0.0755851 -0.073986 0.11856 0.0280561 -0.137307 0.115943 0.0395386 -0.0569363 0.0969101 0.088065 0.121776 -0.124897 0.00214585 0.0353233 -0.147006 0.0405192 0.120644 0.0226154 0.192397 -0.160554 0.10874 0.0578431 0.0265105 -0.0712979 0.0763192 -0.0542821 0.0849638 0.141018 -0.0894036 0.00808956 -0.000561517 -0.150446 0.0648868 0.0227395 -0.128324 0.0383494 0.0354384 0.0912183 0.090911 -0.0436993 0.0349431 -0.0874657 0.0252368 -0.13471 0.0244568 -0.070585 0.0790578 0.162968 0.0474016 0.0896566 0.14461 -0.0372294 0.058949 0.00607003 -0.0820629 -0.0927033 -0.096051 0.0343275 -0.109109 -0.0381055 0.0178318 -0.013958 0.0257776 -0.055219 -0.040731 0.0617997 -0.102202 0.0495363 0.102021 0.113926 -0.0585196 -0.00899002 -0.00806978 0.0610144 0.0997158 0.0119405 0.0221282 0.063295 -0.0649915 -0.0370495 -0.136413 0.116277 -0.163664 -0.0313987 -0.105828 -0.0712808 -0.171113 -0.0774547 0.0827023 0.0054463 0.0189598 -0.0728577 -0.0364099 0.0531353 0.163449 0.0158584 -0.0668271 -0.0922008 -0.0484666 -0.188901 -0.000952297 0.0054863 0.0564604 0.156127 0.132168 0.146537 0.0325588 0.141274
71 -0.0099757 -0.0536278 -0.122211 0.0337569 0.0962235 -0.0543926 0.0434809 0.157619 0.129322 -0.075066 0.093292 -0.186193 -0.0113804 -0.0660257 0.136594 -0.0584044 0.0718554 0.0152987 0.00728493 0.0961012 0.087384 -0.105443 -0.136719 -0.0463871 0.0112782 -0.0743668 0.0762971 -0.150548 0.0316729 -0.0638053 -0.0599268 -0.0809999 -0.134968 -0.036883 -0.00311167 0.0492323 0.0437803 0.112757 -0.0459864 -0.147149 0.161043 0.0318158 -0.0254638 0.0289844 0.107312 -0.0478338 -0.0185601 0.157101 -0.0232329 -0.0310148 -0.0237109 0.0772172 -0.0587699 0.164533 -0.059987 -0.0890996 -0.0467725 0.0622858 -0.0507443 -0.16357 0.0920822 0.0579201 0.0346995 -0.138459 -0.0389246 0.0655892 -0.086607 -0.013596 -0.134599 0.076661 0.0748494 0.0417756 -0.130474 -0.0681052 0.121771 -0.0182707 -0.0103594 -0.0377345 -0.165817 -0.134023 -0.0920186 -0.191073 0.095197 -0.0408896 0.0336411 0.0744117 0.000997543 -0.0586918 0.0154391 0.128663 -0.028704 -0.0624687 -0.154251 -0.1022 -0.00327367 -0.133665 0.135066 -0.107438 0.0738996 0.00235929 0.105797 0.159758 0.0084373 -0.0551078 0.0612386 -0.00508636 -0.0310086 -0.119635 0.108212 -0.0929996 0.12417 -0.013553 -0.111312 -0.00591559 0.0296482 0.0153083 -0.018716 0.0979023 -0.124773 0.0116917 0.0345578 0.00490065 0.0157691 -0.14904 0.0846077 -0.0336858 0.113181 0.136101
72 -0.145029 0.0617721 0.0731633 -0.0568945 0.0690498 -0.0543083 -0.1171 -0.0732035 -0.132214 0.13769 0.251868 0.0415925 0.122672 0.0191381 0.152374 -0.169452 0.0728619 -0.0221828 -0.0687607 0.0194114 0.0249349 0.0166407 0.0768518 -0.0324423 -0.0796338 0.131582 0.0742447 -0.020797 0.23792 -0.0899561 -0.0474634 0.0635368 -0.106244 0.0137133 -0.0438735 -0.0146815 0.0131709 -0.0730418 0.0749417 -0.0731493 0.0387611 -0.0873754 0.0307222 0.108889 0.0843057 0.0363625 -0.125289 0.0345458 0.0524053 -0.116603 0.0101124 0.0404901 -0.0130061 0.112875 -0.103176 0.0602759 -0.174794 0.0841164 -0.00930439 0.00542699 -0.0478938 0.0570378 -0.0113967 0.10924 -0.179028 0.0416178 -0.0755172 0.115602 0.115127 0.14047 -0.152743 -0.0256226 0.00985283 -0.0213329 0.0213332 -0.0875927 -0.0765529 0.0172785 -0.128595 0.0699153 -0.153565 -0.0301859 -0.00309691 -0.0843576 0.108385 0.0075017 0.0538676 0.0370291 0.0473584 -0.0870321 -0.110653 -0.1336 -0.0592897 -0.104255 -0.022639 0.0719645 0.157359 -0.105493 -0.0191375 -0.0545507 -0.0619961 0.0566344 -0.086293 -0.0428396 -0.0624942 -0.123003 0.0300128 0.0385051 0.12394 -0.103088 0.00873911 -0.0752043 -0.0572561 -0.0486911 -0.0664328 -0.0658797 -0.0923332 -0.0929693 -0.0108788 -0.121491 -0.00422313 -0.135389 -0.017911 0.151837 0.0698041 -0.0292932 -0.10714 0.0750709
73 -0.0523384 0.130944 -0.0891591 -0.0611581 0.00144896 -0.0719207 -0.0861471 -0.0121791 -0.0623832 -0.0815425 0.105815 0.0356366 0.137929 -0.0765848 -0.0580888 -0.14045 -0.0820607 0.123122 0.14219 -0.00758573 -0.0289902 -0.0187184 -0.0668434 0.0368191 -0.0859773 0.114148 0.0464589 -0.100679 0.0962893 0.0281868 0.101407 -0.0152744 -0.107547 -0.0542293 -0.0714618 0.0559016 0.00710166 -0.126039 0.209525 0.0784517 0.0233647 -0.0245498 0.0124424 -0.0738664 0.153953 -0.0711705 0.0302081 -0.00871775 0.140899 -0.132693 0.026562 -0.115079 0.120753 -0.0358857 0.0829444 -0.0593286 -0.0379892 0.00985434 0.0196741 -0.148108 0.00759236 0.129501 0.140731 0.0901697 0.0924811 -0.0171561 0.0821304 0.0806748 0.0386265 -0.0537995 0.109464 -0.103885 0.0223587 0.0212387 0.0266882 -0.0243675 0.0185694 -0.112111 -0.15102 0.114037 -0.124171 -0.162585 0.146886 -0.00185485 0.0150528 0.124176 -0.0689588 0.0023204 -0.0784139 -0.0742471 0.161021 -0.108014 0.0476325 -0.0931599 0.0586865 -0.0994203 0.0550155 0.040332 0.221235 0.0316603 0.0156226 -0.00341899 -0.099277 -0.0582099 -0.00361526 -0.0886403 -0.0796796 0.00978131 0.129312 -0.107335 -0.154342 -0.146495 -0.0621238 -0.0199203 0.119287 0.0194818 0.00187119 -0.0892525 0.0374268 -0.0564121 -0.129492 -0.0373182 -0.102941 -0.0224355 -0.0663759 0.142391 -0.0328368 0.103233
74 0.0624368 0.0275842 -0.0946884 0.0439201 0.068463 0.0300708 -0.0599653 0.139312 0.0300855 0.0253654 0.190277 -0.018463 0.00452855 -0.182942 0.0757088 -0.10464 -0.0586863 0.0972405 0.0926692 0.0417126 0.238059 -0.0636131 -0.0210127 0.0327501 -0.074725 0.11059 0.0148169 -0.0764315 0.0466494 0.0468008 0.0147123 0.0345948 -0.0965656 0.0783564 0.0467167 0.0443634 0.184167 0.129865 -0.0750725 -0.157215 0.156728 -0.0570844 -0.0104873 -0.0451023 0.0971989 0.084957 -0.11425 -0.0422679 0.0373928 0.0647337 0.0271936 -0.0168394 -0.00515858 -0.0150635 -0.000438064 -0.0960096 0.0542966 0.00475129 -0.00593285 -0.10256 0.176719 0.0758063 -0.0838278 -0.206917 0.0645657 0.148503 -0.155085 -0.0297154 0.0968706 0.0672543 0.117865 -0.0824428 0.0653337 0.0813376 0.0736907 -0.130158 0.024408 0.0766152 -0.0687043 -0.0740547 -0.0494547 -0.0663916 0.206376 -0.13906 0.0498291 0.00717384 -0.0991421 0.0151004 0.0633035 0.0290133 -0.100709 0.0394421 0.00856429 0.110221 -0.130465 -0.143554 0.148458 0.0184314 0.0763254 -0.0227621 0.0137872 0.0982999 -0.137054 -0.0416039 -0.0476066 -0.0958389 0.0144583 -0.068918 0.0253906 0.0645522 -0.139643 0.0112997 -0.0674977 0.0651151 -0.0272537 0.0507466 -0.0808605 0.0572306 0.00257726 -0.0509214 -0.151154 -0.11148 0.0989474 -0.108358 0.0681168 -0.0135282 -0.0557325 0.0341923
75 -0.120657 -0.000511006 0.0197014 -0.0878458 0.025445 -0.0547446 -0.139081 0.082271 0.114874 -0.0620866 0.0682755 0.0477626 0.10235 -0.0475427 0.164882 -0.0552715 -0.0321023 -0.00698575 -0.0894025 -0.0194542 0.148811 -0.0123768 -0.101471 0.144786 0.144683 0.109064 0.0354451 4.04381e-05 -0.137763 -0.0872563 -0.0487583 0.015066 0.0759835 -0.0243775 0.0751089 -0.0846482 0.113407 -0.0476026 0.144307 -0.198399 0.143171 -0.0705408 -0.0695338 0.048807 0.151369 0.0453589 0.0492711 0.11275 -0.00213448 0.113119 0.110695 -0.124424 0.0990464 0.122605 -0.151003 0.0213251 0.109595 -0.043753 0.0591204 0.0791115 -0.00538835 0.00737607 0.0304495 -0.161548 0.0155822 0.0677285 0.022806 -0.020856 0.0367436 0.0484438 -0.0920596 0.109444 -0.0419007 0.0703216 -0.0128525 -0.095919 -0.0849057 -0.00259782 -0.128459 -0.0293289 -0.185108 -0.037314 -0.0262363 -0.0813357 0.0836261 -0.0773912 -0.162998 0.0822612 0.119607 0.0180673 -0.0765209 0.0291206 -0.0101882 0.0941503 -0.0992164 -0.147423 0.0512006 0.0871274 0.167151 -0.0737374 -0.0521032 0.13371 -0.0845528 -0.05686 0.0406833 -0.0327896 -0.0470295 0.141808 0.159399 -0.0127615 -0.0615123 -0.132368 -0.0430723 0.0935279 -0.125908 -0.110986 -0.0706139 -0.0994297 -0.0908492 -0.03319 0.0527541 0.0197718 0.00603637 -0.0624699 0.0627745 0.0505704 0.0513702 -0.0112836
